%YAML:1.0
my_svm: !!opencv-ml-svm
   svm_type: C_SVC
   kernel: { type:RBF, gamma:4. }
   C: 64.
   term_criteria: { epsilon:1.1920928955078125e-07, iterations:1000 }
   var_all: 1227
   var_count: 1227
   class_count: 2
   class_labels: !!opencv-matrix
      rows: 1
      cols: 2
      dt: i
      data: [ 0, 1 ]
   sv_total: 52
   support_vectors:
      - [ 0., 6.29629614e-03, 0., 3.70370370e-04, 1.11111114e-03,
          4.07407386e-03, 0., 7.40740739e-04, 3.70370370e-04,
          7.40740739e-04, 0., 2.22222228e-03, 0., 7.40740739e-04,
          1.48148148e-03, 0., 2.22222228e-03, 1.85185182e-03, 0.,
          1.11111114e-03, 0., 3.70370370e-04, 7.40740739e-04, 0.,
          1.11111114e-03, 1.11111114e-03, 0., 1.11111114e-03,
          7.40740739e-04, 3.70370370e-04, 2.22222228e-03, 3.70370370e-04,
          7.40740739e-04, 0., 0., 0., 0., 3.70370370e-04, 1.48148148e-03,
          1.11111114e-03, 7.40740739e-04, 2.59259250e-03, 1.48148148e-03,
          3.70370370e-04, 1.11111114e-03, 3.70370370e-04, 0.,
          1.11111114e-03, 0., 0., 0., 0., 0., 2.22222228e-03,
          1.11111114e-03, 7.40740739e-04, 0., 0., 2.96296296e-03,
          3.70370370e-04, 0., 0., 3.70370370e-04, 3.70370370e-04, 0.,
          1.59259252e-02, 7.40740739e-04, 1.48148148e-03, 3.70370370e-04,
          3.70370370e-04, 7.40740739e-04, 3.70370370e-04, 3.70370370e-04,
          3.70370370e-04, 1.48148148e-03, 0., 1.85185182e-03,
          7.40740739e-04, 1.11111114e-03, 0., 7.40740739e-04,
          3.33333341e-03, 3.70370370e-04, 1.11111114e-03, 3.33333341e-03,
          7.40740739e-04, 7.40740739e-04, 3.33333341e-03, 0.,
          3.70370370e-04, 1.48148148e-03, 0., 3.33333341e-03,
          3.70370370e-04, 0., 0., 3.70370370e-04, 2.22222228e-03,
          7.40740739e-04, 1.48148148e-03, 0., 3.33333341e-03,
          2.96296296e-03, 3.70370370e-04, 1.48148148e-03, 7.40740739e-04,
          0., 0., 1.85185182e-03, 1.48148148e-03, 7.40740739e-04,
          3.70370370e-04, 7.40740739e-04, 7.40740739e-04, 1.85185182e-03,
          1.85185182e-03, 1.85185182e-03, 2.59259250e-03, 0.,
          1.85185182e-03, 0., 1.48148148e-03, 0., 1.11111114e-03, 0.,
          1.48148148e-03, 7.40740739e-04, 4.07407386e-03, 0., 0.,
          4.07407386e-03, 2.22222228e-03, 1.48148148e-03, 0., 0.,
          7.40740739e-04, 4.81481478e-03, 1.11111114e-03, 3.33333341e-03,
          1.11111114e-03, 1.11111114e-03, 3.70370370e-04, 0.,
          1.85185182e-03, 7.40740739e-04, 7.40740739e-04, 0.,
          2.22222228e-03, 0., 0., 0., 3.70370370e-04, 0., 0.,
          1.85185182e-03, 1.11111114e-03, 1.48148148e-03, 7.40740739e-04,
          0., 0., 0., 1.11111114e-03, 0., 1.11111114e-03, 7.40740739e-04,
          3.70370370e-04, 3.70370370e-04, 2.96296296e-03, 3.70370370e-04,
          0., 1.11111114e-03, 7.40740739e-04, 3.70370370e-04, 0.,
          3.70370370e-04, 7.40740739e-04, 7.40740739e-04, 3.70370370e-04,
          0., 1.11111114e-03, 0., 1.11111114e-03, 7.40740739e-04, 0.,
          2.22222228e-03, 3.70370370e-04, 0., 7.40740739e-04,
          1.48148148e-03, 1.85185182e-03, 7.40740739e-04, 0., 0., 0.,
          1.48148148e-03, 7.40740739e-04, 2.59259250e-03, 1.48148148e-03,
          1.48148148e-03, 1.11111114e-03, 7.40740739e-04, 3.70370370e-04,
          7.40740739e-04, 2.96296296e-03, 3.70370370e-04, 3.70370370e-04,
          1.11111114e-03, 3.70370370e-04, 1.11111114e-03, 1.48148148e-03,
          0., 2.22222228e-03, 3.70370370e-04, 3.70370370e-04,
          2.22222228e-03, 3.33333341e-03, 3.70370370e-04, 3.70370370e-04,
          1.11111114e-03, 0., 0., 1.48148148e-03, 7.40740739e-04,
          1.48148148e-03, 7.40740739e-04, 7.40740739e-04, 1.48148148e-03,
          3.70370370e-04, 3.70370370e-04, 6.29629614e-03, 2.22222228e-03,
          3.33333341e-03, 7.40740739e-04, 3.70370370e-04, 2.22222228e-03,
          3.70370370e-04, 4.44444455e-03, 0., 2.59259250e-03,
          7.40740739e-04, 3.70370370e-04, 3.70370370e-04, 0.,
          7.40740739e-04, 0., 4.81481478e-03, 0., 3.70370370e-04,
          3.70370370e-04, 1.11111114e-03, 0., 7.40740739e-04, 0., 0., 0.,
          5.55555569e-03, 3.33333341e-03, 2.22222228e-03, 3.70370370e-04,
          0., 3.70370370e-04, 0., 3.33333341e-03, 3.70370370e-04,
          3.70370370e-04, 7.40740739e-04, 7.40740739e-04, 3.70370370e-04,
          0., 3.70370370e-04, 1.11111114e-03, 3.70370370e-04,
          1.11111114e-03, 0., 1.11111114e-03, 3.70370370e-04,
          7.40740739e-04, 0., 7.40740739e-04, 7.40740739e-04, 0.,
          3.70370370e-04, 3.70370364e-03, 3.70370370e-04, 0., 0., 0.,
          7.40740739e-04, 0., 2.96296296e-03, 1.11111114e-03, 0.,
          1.11111114e-03, 1.11111114e-03, 2.96296296e-03, 1.48148148e-03,
          1.11111114e-03, 1.85185182e-03, 3.70370364e-03, 3.70370370e-04,
          0., 7.40740739e-04, 0., 1.11111114e-03, 0., 7.40740739e-04, 0.,
          7.40740739e-04, 2.59259250e-03, 0., 7.40740739e-04,
          7.40740739e-04, 3.70370370e-04, 1.85185182e-03, 1.85185182e-03,
          1.48148148e-03, 0., 1.11111114e-03, 7.40740739e-04,
          1.11111114e-03, 7.40740739e-04, 3.70370370e-04, 3.70370370e-04,
          3.70370370e-04, 3.70370370e-04, 0., 3.70370370e-04,
          1.11111114e-03, 3.70370370e-04, 4.44444455e-03, 3.70370370e-04,
          3.70370370e-04, 3.70370370e-04, 0., 0., 0., 0., 0.,
          3.70370370e-04, 3.70370370e-04, 7.40740739e-04, 0.,
          7.40740739e-04, 3.70370370e-04, 7.40740739e-04, 0.,
          6.29629614e-03, 1.48148148e-03, 1.11111114e-03, 2.96296296e-03,
          1.11111114e-03, 3.70370370e-04, 7.40740739e-04, 0., 0.,
          7.40740739e-04, 7.40740739e-04, 2.59259250e-03, 3.70370370e-04,
          1.11111114e-03, 3.70370370e-04, 7.40740739e-04, 1.48148148e-03,
          3.33333341e-03, 7.40740739e-04, 2.22222228e-03, 1.85185182e-03,
          3.33333341e-03, 1.48148148e-03, 7.40740739e-04, 1.11111114e-03,
          3.70370370e-04, 1.85185182e-03, 3.70370370e-04, 3.70370370e-04,
          1.11111114e-03, 2.59259250e-03, 7.40740739e-04, 3.70370370e-04,
          3.70370370e-04, 7.40740739e-04, 1.11111114e-03, 0.,
          3.70370370e-04, 3.70370370e-04, 0., 1.85185182e-03, 0.,
          1.11111114e-03, 1.48148148e-03, 1.48148148e-03, 1.85185182e-03,
          1.11111114e-03, 2.59259250e-03, 1.85185182e-03, 1.11111114e-03,
          7.40740739e-04, 1.11111114e-03, 1.48148148e-03, 0.,
          2.96296296e-03, 7.40740739e-04, 3.70370370e-04, 0.,
          1.85185182e-03, 7.40740739e-04, 5.92592591e-03, 7.40740739e-04,
          3.70370370e-04, 7.40740739e-04, 0., 7.40740739e-04,
          1.48148148e-03, 1.48148148e-03, 1.11111114e-03, 3.70370370e-04,
          3.70370370e-04, 7.40740739e-04, 0., 2.96296296e-03,
          7.40740739e-04, 0., 1.48148148e-03, 3.70370370e-04, 0., 0., 0.,
          0., 1.11111114e-03, 3.70370370e-04, 2.59259250e-03,
          1.48148148e-03, 3.70370370e-04, 7.40740739e-04, 7.40740739e-04,
          2.22222228e-03, 0., 0., 2.22222228e-03, 2.96296296e-03,
          3.70370370e-04, 1.48148148e-03, 1.85185182e-03, 3.70370370e-04,
          3.70370370e-04, 0., 4.81481478e-03, 3.70370370e-04,
          3.70370370e-04, 1.11111114e-03, 3.70370370e-04, 0.,
          1.48148148e-03, 0., 2.96296296e-03, 2.96296296e-03,
          7.40740739e-04, 3.70370370e-04, 3.70370370e-04, 2.22222228e-03,
          3.70370370e-04, 1.85185182e-03, 1.48148148e-03, 1.48148148e-03,
          5.18518500e-03, 2.59259250e-03, 3.70370370e-04, 3.70370370e-04,
          1.48148148e-03, 2.22222228e-03, 3.70370370e-04, 4.07407386e-03,
          0., 1.85185182e-03, 2.22222228e-03, 1.11111114e-03,
          3.70370370e-04, 1.48148148e-03, 0., 0., 1.48148148e-03,
          3.70370370e-04, 3.70370370e-04, 2.22222228e-03, 1.48148148e-03,
          7.40740739e-04, 1.48148148e-03, 3.70370370e-04, 1.11111114e-03,
          3.70370370e-04, 7.40740739e-04, 3.33333341e-03, 0., 0., 0., 0.,
          3.33333341e-03, 1.11111114e-03, 0., 3.70370370e-04,
          3.70370370e-04, 1.48148148e-03, 3.70370370e-04, 1.48148148e-03,
          7.40740739e-04, 3.70370370e-04, 7.40740739e-04, 3.70370370e-04,
          1.11111114e-03, 7.40740739e-04, 0., 5.55555569e-03, 0.,
          1.11111114e-03, 1.85185182e-03, 0., 0., 3.70370370e-04, 0.,
          2.22222228e-03, 0., 3.70370370e-04, 1.11111114e-03, 0., 0.,
          3.70370370e-04, 3.70370364e-03, 1.48148148e-03, 3.70370370e-04,
          1.11111114e-03, 2.59259250e-03, 3.70370370e-04, 1.11111114e-03,
          0., 0., 7.40740739e-04, 3.33333341e-03, 1.85185182e-03, 0.,
          3.70370370e-04, 7.40740739e-04, 3.70370370e-04, 3.70370370e-04,
          3.70370370e-04, 2.59259250e-03, 0., 0., 2.22222228e-03, 0.,
          1.11111114e-03, 0., 0., 0., 0., 7.40740739e-04, 7.40740739e-04,
          5.55555569e-03, 2.59259250e-03, 0., 1.11111114e-03,
          2.59259250e-03, 1.11111114e-03, 0., 0., 2.59259250e-03,
          2.22222228e-03, 7.40740739e-04, 3.70370370e-04, 2.59259250e-03,
          3.70370370e-04, 1.11111114e-03, 0., 0., 3.70370370e-04, 0.,
          2.22222228e-03, 0., 3.70370370e-04, 7.40740739e-04,
          2.96296296e-03, 3.70370370e-04, 3.70370370e-04, 3.70370370e-04,
          0., 7.40740739e-04, 2.59259250e-03, 3.70370370e-04, 0.,
          3.70370370e-04, 7.40740739e-04, 0., 0., 2.22222228e-03,
          3.33333341e-03, 7.40740739e-04, 7.40740739e-04, 3.70370370e-04,
          3.33333341e-03, 7.40740739e-04, 0., 1.11111114e-03,
          3.33333341e-03, 3.70370370e-04, 0., 3.70370370e-04,
          7.40740739e-04, 0., 1.11111114e-03, 2.96296296e-03,
          7.40740739e-04, 7.40740739e-04, 4.44444455e-03, 0.,
          7.40740739e-04, 1.85185182e-03, 0., 0., 3.70370370e-04,
          3.70370370e-04, 0., 3.70370370e-04, 3.70370370e-04, 0., 0.,
          3.70370370e-04, 3.70370364e-03, 3.70370370e-04, 0.,
          1.11111114e-03, 8.88888910e-03, 0., 3.70370370e-04,
          1.11111114e-03, 0., 3.70370370e-04, 4.44444455e-03,
          3.70370370e-04, 3.70370370e-04, 5.18518500e-03, 2.59259250e-03,
          3.70370370e-04, 3.70370370e-04, 0., 3.70370370e-04,
          1.11111114e-03, 1.11111114e-03, 0., 3.70370370e-04,
          3.70370370e-04, 0., 1.11111114e-03, 0., 1.11111114e-03,
          3.70370370e-04, 0., 7.40740739e-04, 0., 0., 7.40740739e-04,
          5.18518500e-03, 0., 3.70370370e-04, 0., 0., 0., 1.48148148e-03,
          1.85185182e-03, 3.70370370e-04, 7.40740739e-04, 3.70370370e-04,
          0., 1.11111114e-03, 7.40740739e-04, 3.70370370e-04,
          1.11111114e-03, 2.22222228e-03, 3.70370370e-04, 1.85185182e-03,
          7.40740739e-04, 1.85185182e-03, 3.70370370e-04, 4.81481478e-03,
          3.70370370e-04, 1.85185182e-03, 0., 0., 7.40740739e-04,
          1.11111114e-03, 3.70370370e-04, 1.85185182e-03, 1.11111114e-03,
          1.11111114e-03, 1.11111114e-03, 2.96296296e-03, 7.40740739e-04,
          0., 1.48148148e-03, 0., 7.40740739e-04, 3.70370370e-04,
          2.59259250e-03, 2.22222228e-03, 0., 0., 3.70370370e-04,
          3.70370370e-04, 3.70370370e-04, 0., 7.40740739e-04, 0.,
          3.70370370e-04, 1.85185182e-03, 3.70370370e-04, 3.33333341e-03,
          0., 0., 1.11111114e-03, 7.40740739e-04, 3.70370370e-04,
          1.85185182e-03, 1.48148148e-03, 7.40740739e-04, 7.40740739e-04,
          7.40740728e-03, 7.40740739e-04, 0., 1.48148148e-03,
          1.85185182e-03, 0., 0., 0., 1.48148148e-03, 3.70370370e-04,
          3.70370370e-04, 1.11111114e-03, 3.70370370e-04, 1.85185182e-03,
          3.70370370e-04, 7.40740739e-04, 3.70370370e-04, 1.85185182e-03,
          2.96296296e-03, 0., 7.40740739e-04, 0., 3.70370370e-04,
          3.70370370e-04, 3.70370370e-04, 4.44444455e-03, 7.40740739e-04,
          0., 3.70370370e-04, 3.70370370e-04, 3.70370370e-04,
          4.81481478e-03, 1.85185182e-03, 1.11111114e-03, 0., 0.,
          1.11111114e-03, 7.40740739e-04, 7.40740739e-04, 1.11111114e-03,
          3.70370370e-04, 3.70370370e-04, 1.11111114e-03, 3.70370370e-04,
          2.22222228e-03, 3.70370370e-04, 0., 3.70370370e-04,
          1.11111114e-03, 0., 1.11111114e-03, 3.70370370e-04,
          7.40740739e-04, 1.48148148e-03, 7.40740739e-04, 1.11111114e-03,
          0., 2.59259250e-03, 1.85185182e-03, 1.48148148e-03,
          3.33333341e-03, 2.22222228e-03, 3.70370370e-04, 3.70370370e-04,
          0., 6.29629614e-03, 0., 1.11111114e-03, 0., 1.11111114e-03,
          3.70370370e-04, 0., 1.11111114e-03, 0., 7.40740739e-04, 0., 0.,
          5.18518500e-03, 0., 3.70370370e-04, 1.48148148e-03, 0.,
          1.11111114e-03, 1.85185182e-03, 3.70370370e-04, 1.11111114e-03,
          0., 0., 3.70370370e-04, 0., 3.70370370e-04, 0., 0., 0.,
          3.70370370e-04, 0., 7.40740739e-04, 0., 1.85185182e-03, 0., 0.,
          7.40740739e-04, 7.40740728e-03, 1.11111114e-03, 1.48148148e-03,
          0., 1.48148148e-03, 1.48148148e-03, 3.70370370e-04,
          3.70370370e-04, 2.59259250e-03, 2.22222228e-03, 0., 0.,
          1.11111114e-03, 1.11111114e-03, 0., 3.70370370e-04,
          7.40740739e-04, 2.22222228e-03, 4.81481478e-03, 3.33333341e-03,
          3.70370370e-04, 1.11111114e-03, 0., 1.11111114e-03,
          3.70370370e-04, 2.22222228e-03, 7.40740739e-04, 4.07407386e-03,
          1.48148148e-03, 0., 3.70370370e-04, 0., 7.40740739e-04,
          7.40740739e-04, 1.11111114e-03, 3.70370370e-04, 1.11111114e-03,
          1.85185182e-03, 3.70370370e-04, 7.40740739e-04, 1.11111114e-03,
          7.40740739e-04, 2.22222228e-03, 0., 0., 7.40740739e-04,
          7.40740739e-04, 7.40740739e-04, 0., 7.40740739e-04, 0.,
          7.40740739e-04, 3.70370370e-04, 4.07407386e-03, 7.40740739e-04,
          1.85185182e-03, 3.70370370e-04, 3.70370370e-04, 1.85185182e-03,
          0., 0., 2.96296296e-03, 1.85185182e-03, 1.85185182e-03,
          3.70370370e-04, 1.11111114e-03, 2.22222228e-03, 7.40740739e-04,
          0., 2.59259250e-03, 6.29629614e-03, 7.40740739e-04,
          3.70370370e-04, 7.40740739e-04, 3.70370370e-04, 0.,
          3.70370370e-04, 7.40740739e-04, 3.70370370e-04, 0.,
          1.48148148e-03, 1.11111114e-03, 4.44444455e-03, 7.40740739e-04,
          1.11111114e-03, 0., 3.70370370e-04, 1.48148148e-03,
          7.40740739e-04, 0., 0., 1.48148148e-03, 1.11111114e-03,
          7.40740739e-04, 0., 3.70370370e-04, 4.07407386e-03,
          3.70370364e-03, 7.40740739e-04, 0., 0., 1.48148148e-03,
          2.22222228e-03, 1.11111114e-03, 1.48148148e-03, 0.,
          1.11111114e-03, 2.96296296e-03, 0., 1.11111114e-03,
          3.70370370e-04, 1.11111114e-03, 0., 0., 1.11111114e-03, 0., 0.,
          0., 1.48148148e-03, 7.40740739e-04, 1.11111114e-03,
          2.22222228e-03, 0., 0., 4.07407386e-03, 3.70370370e-04,
          1.85185182e-03, 1.11111114e-03, 0., 1.11111114e-03,
          1.11111114e-03, 0., 1.48148148e-03, 1.85185182e-03,
          1.11111114e-03, 1.48148148e-03, 0., 7.40740739e-04, 0.,
          1.85185182e-03, 7.40740739e-04, 1.48148148e-03, 1.48148148e-03,
          7.40740739e-04, 0., 3.70370364e-03, 7.40740739e-04,
          7.40740739e-04, 0., 7.40740739e-04, 0., 7.40740739e-04,
          3.70370370e-04, 0., 0., 5.18518500e-03, 7.40740739e-04, 0.,
          3.70370370e-04, 7.40740739e-04, 7.40740739e-04, 1.11111114e-03,
          3.70370370e-04, 7.40740739e-04, 1.11111114e-03, 7.40740739e-04,
          1.11111114e-03, 3.70370370e-04, 3.70370370e-04, 0.,
          7.40740739e-04, 3.70370370e-04, 7.40740739e-04, 2.59259250e-03,
          0., 1.37009937e-03, 2.83268914e-02, 6.06536455e-02,
          3.44319455e-02, 1.41496406e-04, 4.48647152e-05, 1.03533957e-05,
          0., 0., 0., 0., 0., 0., 0., 0., 0., 3.45113199e-06, 0., 0., 0.,
          0., 0., 0., 1.03533957e-05, 6.90226398e-06, 0., 0.,
          3.45113199e-06, 3.45113199e-06, 3.45113199e-06, 4.14135829e-05,
          6.55715048e-05, 7.93760337e-05, 1.17338488e-04, 1.65654332e-04,
          2.07067918e-04, 2.58834887e-04, 2.76090548e-04, 4.45196027e-04,
          5.38376567e-04, 7.93760351e-04, 1.01118162e-03, 1.48743787e-03,
          2.50897300e-03, 3.16468813e-03, 5.67711191e-03, 6.70900056e-03,
          1.13369683e-02, 1.11989230e-02, 1.21686915e-02, 9.81501956e-03,
          9.68732778e-03, 7.70982867e-03, 8.04113783e-03, 3.14846784e-02,
          1.00254850e-03, 2.50168648e-02, 7.12933838e-02, 2.76747122e-02,
          9.36961260e-06, 3.12320412e-06, 0., 0., 0., 0., 0., 0., 0., 0.,
          0., 0., 0., 0., 0., 0., 0., 0., 0., 0., 0., 0., 0., 0.,
          2.49856330e-05, 4.37248564e-05, 8.43265079e-05, 6.24640816e-05,
          9.36961223e-05, 1.09312146e-04, 1.65529826e-04, 2.43609917e-04,
          4.18509357e-04, 4.87219833e-04, 8.74497171e-04, 9.99425305e-04,
          1.63968222e-03, 2.17687339e-03, 2.37363507e-03, 3.23251635e-03,
          4.15698485e-03, 6.28076354e-03, 6.76173670e-03, 9.69754905e-03,
          9.70379543e-03, 1.24022439e-02, 1.13153681e-02, 1.16089499e-02,
          8.89176223e-03, 7.59563223e-03, 2.35552061e-02, 3.96830868e-03,
          3.42063382e-02, 8.33898410e-02, 2.97536678e-03, 1.97204543e-04,
          6.91945752e-05, 2.42181013e-05, 6.91945752e-06, 3.45972876e-06,
          3.45972876e-06, 1.38389150e-05, 1.03791863e-05, 3.45972876e-06,
          3.45972876e-06, 6.91945752e-06, 3.45972876e-06, 0.,
          6.91945752e-06, 0., 3.45972876e-06, 3.45972876e-06,
          3.45972876e-06, 6.91945752e-06, 6.91945752e-06, 8.30334902e-05,
          1.03791863e-05, 3.45972876e-06, 2.42181013e-05, 2.76778301e-05,
          2.07583726e-05, 2.42181013e-05, 3.80570164e-05, 5.18959314e-05,
          4.84362026e-05, 8.64932226e-05, 4.49764739e-05, 8.30334902e-05,
          8.99529477e-05, 1.48768333e-04, 1.55687798e-04, 3.39053426e-04,
          4.25546634e-04, 5.12039871e-04, 9.16828110e-04, 1.09327433e-03,
          1.95474667e-03, 2.49792426e-03, 3.90603370e-03, 4.91627445e-03,
          7.84320477e-03, 1.01404646e-02, 1.49494875e-02, 1.53369773e-02,
          1.38146970e-02, 4.54954319e-02, 1.40871294e-03, 3.11468299e-02,
          8.69864747e-02, 5.34007698e-03, 4.34404865e-05, 2.48231354e-05,
          3.10289192e-06, 9.30867554e-06, 3.10289192e-06, 6.20578385e-06,
          3.10289192e-06, 0., 6.20578385e-06, 6.20578385e-06, 0., 0., 0.,
          3.10289192e-06, 0., 0., 0., 3.10289192e-06, 0., 0.,
          6.20578385e-06, 2.48231354e-05, 3.10289179e-05, 4.34404865e-05,
          4.65433804e-05, 4.65433804e-05, 6.51607334e-05, 6.20578357e-05,
          6.82636237e-05, 1.08601220e-04, 1.67556165e-04, 1.27218562e-04,
          1.52041699e-04, 1.52041699e-04, 2.60642933e-04, 3.19597864e-04,
          4.62330907e-04, 7.16768031e-04, 1.03016011e-03, 1.52351998e-03,
          1.95482187e-03, 3.20528727e-03, 4.08030301e-03, 6.28956174e-03,
          7.38798548e-03, 1.07980641e-02, 1.27559891e-02, 1.60636716e-02,
          1.21912621e-02, 1.13348644e-02, 3.35298516e-02, 2.42288366e-01,
          1.47085655e-02, 9.12666670e-04, 1.26888452e-04,
          -4.31806129e-08, -1.53262645e-05, 6.37881206e-11 ]
      - [ 1.49625936e-03, 0., 9.97506198e-04, 0., 4.98753099e-04, 0.,
          1.99501240e-03, 4.98753099e-04, 9.97506198e-04, 1.99501240e-03,
          0., 9.97506198e-04, 0., 9.97506198e-04, 4.98753099e-04,
          2.99251871e-03, 4.98753099e-04, 1.49625936e-03, 9.97506198e-04,
          0., 0., 0., 0., 9.97506198e-04, 2.49376544e-03, 4.98753099e-04,
          9.97506198e-04, 4.98753099e-04, 4.98753099e-04, 1.49625936e-03,
          9.97506198e-04, 0., 9.97506198e-04, 2.49376544e-03, 0.,
          4.98753099e-04, 1.99501240e-03, 0., 0., 1.99501240e-03,
          9.97506198e-04, 0., 9.97506198e-04, 1.99501240e-03,
          4.98753099e-04, 9.97506198e-04, 4.98753099e-04, 4.98753099e-04,
          4.98753099e-04, 0., 0., 4.98753099e-04, 9.97506198e-04, 0.,
          9.97506198e-04, 2.99251871e-03, 4.98753099e-04, 0.,
          6.98254351e-03, 1.49625936e-03, 0., 9.97506198e-04,
          1.49625936e-03, 0., 4.98753099e-04, 0., 0., 9.97506198e-04, 0.,
          0., 0., 2.99251871e-03, 9.97506198e-04, 4.98753099e-04, 0.,
          4.98753099e-04, 0., 9.97506198e-04, 9.97506198e-04, 0., 0.,
          1.99501240e-03, 1.99501240e-03, 1.99501240e-03, 2.49376544e-03,
          4.98753099e-04, 9.97506198e-04, 0., 0., 9.97506198e-04,
          3.49127175e-03, 0., 4.98753099e-04, 0., 4.98753099e-04,
          4.98753099e-04, 9.97506198e-04, 0., 9.97506198e-04, 0., 0., 0.,
          1.24688279e-02, 0., 0., 0., 4.98753099e-04, 1.99501240e-03,
          4.98753099e-04, 2.49376544e-03, 2.99251871e-03, 1.49625936e-03,
          4.98753099e-04, 9.97506198e-04, 9.97506198e-04, 4.98753099e-04,
          1.49625936e-03, 0., 0., 0., 4.98753099e-04, 4.98753099e-04,
          9.97506198e-04, 1.99501240e-03, 1.49625936e-03, 4.98753099e-04,
          4.98753099e-04, 0., 4.98753099e-04, 9.97506198e-04,
          4.98753099e-04, 4.98753099e-04, 9.97506198e-04, 0.,
          4.98753099e-04, 1.49625936e-03, 5.48628392e-03, 0., 0.,
          1.49625936e-03, 1.49625936e-03, 4.98753099e-04, 4.98753099e-04,
          1.49625936e-03, 4.98753099e-04, 4.98753088e-03, 0.,
          8.97755567e-03, 2.49376544e-03, 0., 0., 2.49376544e-03, 0.,
          1.49625936e-03, 9.97506198e-04, 0., 0., 9.97506198e-04,
          1.99501240e-03, 0., 0., 2.49376544e-03, 0., 3.49127175e-03,
          6.48379046e-03, 4.98753099e-04, 4.98753099e-04, 1.44638401e-02,
          2.99251871e-03, 0., 1.99501240e-03, 9.97506198e-04,
          9.97506198e-04, 0., 4.98753099e-04, 0., 4.98753099e-04,
          3.49127175e-03, 0., 3.49127175e-03, 4.98753099e-04,
          1.99501240e-03, 0., 0., 5.48628392e-03, 9.97506198e-04, 0., 0.,
          3.49127175e-03, 1.49625936e-03, 1.99501240e-03, 0., 0.,
          9.97506198e-04, 9.97506198e-04, 0., 0., 6.48379046e-03,
          4.98753099e-04, 0., 3.99002479e-03, 0., 1.49625936e-03,
          4.98753099e-04, 0., 4.98753099e-04, 0., 0., 4.98753099e-04,
          4.98753099e-04, 0., 0., 0., 2.49376544e-03, 0., 0., 0.,
          9.97506198e-04, 0., 4.98753099e-04, 9.97506198e-04,
          4.98753099e-04, 0., 4.98753088e-03, 4.98753099e-04,
          1.99501240e-03, 1.49625936e-03, 1.49625936e-03, 4.98753099e-04,
          0., 9.97506198e-04, 9.97506198e-04, 2.49376544e-03, 0.,
          1.49625936e-03, 9.97506198e-04, 9.97506175e-03, 0., 0.,
          1.49625936e-03, 0., 1.49625936e-03, 4.98753099e-04,
          2.49376544e-03, 4.98753099e-04, 0., 0., 3.99002479e-03,
          4.98753099e-04, 1.99501240e-03, 1.49625936e-03, 0.,
          1.99501240e-03, 4.98753099e-04, 9.97506198e-04, 3.99002479e-03,
          0., 0., 4.98753099e-04, 1.49625936e-03, 4.98753099e-04,
          1.99501240e-03, 0., 4.98753099e-04, 4.98753099e-04,
          9.97506198e-04, 1.99501240e-03, 1.99501240e-03, 9.97506198e-04,
          4.98753099e-04, 4.98753099e-04, 4.98753099e-04, 9.97506198e-04,
          0., 4.98753099e-04, 4.98753099e-04, 4.98753099e-04,
          4.98753099e-04, 4.98753099e-04, 9.97506198e-04, 0.,
          4.98753099e-04, 4.98753099e-04, 1.99501240e-03, 4.98753099e-04,
          9.97506198e-04, 0., 0., 0., 0., 2.49376544e-03, 0., 0., 0., 0.,
          9.97506198e-04, 1.49625936e-03, 2.99251871e-03, 0., 0., 0., 0.,
          2.49376544e-03, 4.98753099e-04, 0., 9.97506198e-04,
          9.97506198e-04, 4.98753099e-04, 8.97755567e-03, 6.98254351e-03,
          9.97506198e-04, 0., 9.97506198e-04, 0., 0., 1.49625936e-03,
          4.48877783e-03, 4.98753099e-04, 5.48628392e-03, 1.49625936e-03,
          9.97506198e-04, 4.98753099e-04, 1.99501240e-03, 1.49625936e-03,
          4.98753099e-04, 0., 0., 4.98753099e-04, 0., 1.49625936e-03,
          2.49376544e-03, 4.98753099e-04, 9.97506198e-04, 0.,
          4.98753099e-04, 0., 0., 0., 1.99501240e-03, 0., 4.98753099e-04,
          1.99501240e-03, 4.98753099e-04, 0., 0., 0., 0., 1.49625936e-03,
          4.98753099e-04, 9.97506198e-04, 2.99251871e-03, 1.49625936e-03,
          1.99501240e-03, 0., 0., 1.49625936e-03, 4.98753099e-04,
          3.49127175e-03, 0., 4.98753099e-04, 2.99251871e-03, 0.,
          9.97506198e-04, 4.98753099e-04, 1.99501240e-03, 9.97506175e-03,
          0., 1.99501240e-03, 0., 0., 9.97506198e-04, 2.49376544e-03,
          4.98753099e-04, 1.99501240e-03, 4.98753099e-04, 9.97506198e-04,
          4.98753099e-04, 1.49625936e-03, 9.97506198e-04, 1.99501240e-03,
          1.49625936e-03, 4.98753099e-04, 0., 0., 0., 0., 0., 0., 0.,
          4.98753099e-04, 0., 0., 4.98753099e-04, 4.98753099e-04,
          4.98753099e-04, 1.99501240e-03, 4.98753099e-04, 0.,
          9.97506198e-04, 4.98753099e-04, 0., 0., 4.98753099e-04, 0.,
          4.98753099e-04, 4.98753099e-04, 0., 4.48877783e-03, 0.,
          4.98753099e-04, 0., 1.49625936e-03, 1.99501240e-03,
          6.48379046e-03, 1.49625936e-03, 9.97506198e-04, 9.97506198e-04,
          9.97506198e-04, 4.98753099e-04, 4.98753099e-04, 4.98753099e-04,
          0., 4.98753099e-04, 9.97506198e-04, 0., 9.97506198e-04,
          4.98753099e-04, 9.97506198e-04, 7.98004959e-03, 4.48877783e-03,
          0., 0., 4.98753099e-04, 0., 9.97506198e-04, 9.97506198e-04, 0.,
          0., 0., 4.98753088e-03, 4.98753099e-04, 4.98753099e-04, 0., 0.,
          9.97506198e-04, 1.99501240e-03, 0., 0., 1.49625936e-03,
          1.49625936e-03, 0., 0., 4.98753099e-04, 2.49376544e-03, 0.,
          4.98753099e-04, 0., 0., 0., 1.99501240e-03, 0., 9.97506198e-04,
          4.48877783e-03, 5.98503742e-03, 0., 0., 2.49376544e-03,
          1.49625936e-03, 1.99501240e-03, 0., 4.98753099e-04, 0.,
          4.98753099e-04, 0., 1.49625936e-03, 9.97506198e-04, 0.,
          4.98753099e-04, 6.98254351e-03, 9.97506198e-04, 4.98753099e-04,
          4.98753099e-04, 0., 0., 0., 4.98753099e-04, 0., 9.97506198e-04,
          2.99251871e-03, 0., 0., 1.49625936e-03, 0., 1.49625936e-03, 0.,
          0., 0., 9.97506198e-04, 9.97506198e-04, 0., 4.98753099e-04,
          4.98753099e-04, 3.49127175e-03, 4.98753099e-04, 4.98753099e-04,
          0., 4.98753099e-04, 9.97506198e-04, 5.48628392e-03, 0., 0.,
          4.48877783e-03, 9.97506198e-04, 3.49127175e-03, 9.97506198e-04,
          0., 4.98753099e-04, 3.99002479e-03, 0., 4.98753099e-04,
          4.98753099e-04, 9.97506198e-04, 0., 9.97506198e-04,
          4.98753099e-04, 9.97506198e-04, 0., 0., 0., 1.99501240e-03,
          4.48877783e-03, 0., 8.47880263e-03, 3.49127175e-03,
          4.98753099e-04, 0., 4.98753099e-04, 1.99501240e-03,
          1.49625936e-03, 4.98753099e-04, 2.49376544e-03, 4.98753099e-04,
          4.98753099e-04, 9.97506198e-04, 0., 2.49376544e-03, 0., 0.,
          1.49625936e-03, 4.98753099e-04, 0., 2.99251871e-03,
          4.98753099e-04, 0., 0., 9.97506198e-04, 0., 0., 4.98753099e-04,
          4.98753099e-04, 7.48129655e-03, 0., 0., 0., 9.97506198e-04,
          3.99002479e-03, 4.98753099e-04, 4.98753099e-04, 1.99501240e-03,
          5.98503742e-03, 1.49625936e-03, 1.99501240e-03, 3.99002479e-03,
          0., 2.49376544e-03, 0., 0., 1.99501240e-03, 1.99501240e-03,
          4.98753099e-04, 4.98753099e-04, 4.98753099e-04, 9.97506198e-04,
          1.49625936e-03, 4.98753099e-04, 1.49625936e-03, 0., 0.,
          4.98753099e-04, 0., 4.98753099e-04, 9.97506198e-04, 0., 0.,
          4.98753099e-04, 0., 1.49625936e-03, 4.98753099e-04,
          1.49625936e-03, 0., 0., 0., 0., 4.98753099e-04, 0.,
          2.49376544e-03, 0., 1.99501240e-03, 3.99002479e-03, 0., 0.,
          1.49625936e-03, 0., 4.98753099e-04, 0., 2.49376544e-03,
          4.98753099e-04, 3.49127175e-03, 0., 4.98753099e-04, 0.,
          9.97506198e-04, 0., 0., 4.98753099e-04, 0., 9.97506198e-04,
          4.98753099e-04, 4.98753099e-04, 9.97506198e-04, 0.,
          4.98753099e-04, 3.99002479e-03, 0., 0., 0., 9.97506198e-04, 0.,
          9.97506198e-04, 1.49625936e-03, 2.99251871e-03, 0., 0.,
          1.99501240e-03, 9.97506198e-04, 9.97506198e-04, 4.98753099e-04,
          9.97506198e-04, 4.98753099e-04, 0., 9.97506198e-04, 0., 0.,
          4.98753099e-04, 0., 0., 4.98753099e-04, 0., 1.49625936e-03, 0.,
          1.99501240e-03, 4.98753099e-04, 0., 0., 0., 1.49625936e-03, 0.,
          9.97506198e-04, 0., 9.97506198e-04, 0., 0., 9.97506198e-04, 0.,
          0., 2.99251871e-03, 9.97506198e-04, 9.97506198e-04, 0., 0.,
          9.97506198e-04, 1.49625936e-03, 0., 0., 0., 4.98753099e-04,
          1.99501240e-03, 4.98753099e-04, 0., 1.99501240e-03,
          1.99501240e-03, 4.98753099e-04, 4.98753099e-04, 4.98753099e-04,
          1.49625936e-03, 0., 4.98753099e-04, 9.97506198e-04, 0.,
          4.98753099e-04, 0., 0., 0., 0., 4.98753099e-04, 1.99501240e-03,
          2.49376544e-03, 1.49625936e-03, 1.49625936e-03, 1.99501240e-03,
          0., 0., 0., 2.49376544e-03, 0., 0., 0., 9.97506198e-04, 0.,
          2.49376544e-03, 0., 1.49625936e-03, 5.98503742e-03, 0.,
          1.49625936e-03, 0., 2.99251871e-03, 4.98753099e-04, 0., 0.,
          4.98753099e-04, 0., 9.97506198e-04, 9.97506198e-04,
          4.98753099e-04, 9.97506198e-04, 0., 0., 4.98753099e-04,
          9.97506198e-04, 9.97506198e-04, 0., 4.98753099e-04, 0.,
          9.97506198e-04, 1.49625936e-03, 0., 9.97506198e-04,
          9.97506198e-04, 0., 0., 0., 4.98753099e-04, 4.98753099e-04, 0.,
          1.49625936e-03, 9.97506198e-04, 2.49376544e-03, 0., 0.,
          2.49376544e-03, 9.97506198e-04, 2.49376544e-03, 0., 0.,
          9.97506198e-04, 1.99501240e-03, 0., 1.99501240e-03,
          1.99501240e-03, 9.97506198e-04, 4.98753099e-04, 9.97506198e-04,
          9.97506198e-04, 2.49376544e-03, 9.97506198e-04, 7.98004959e-03,
          1.49625936e-03, 0., 4.98753099e-04, 2.49376544e-03,
          9.97506198e-04, 9.97506198e-04, 1.49625936e-03, 9.97506198e-04,
          4.98753099e-04, 0., 3.49127175e-03, 9.97506198e-04,
          4.98753099e-04, 4.98753099e-04, 4.98753099e-04, 1.49625936e-03,
          0., 0., 0., 4.98753099e-04, 2.49376544e-03, 0., 1.49625936e-03,
          0., 4.98753099e-04, 0., 2.99251871e-03, 0., 1.49625936e-03, 0.,
          4.98753099e-04, 2.99251871e-03, 9.97506198e-04, 0., 0.,
          9.97506198e-04, 9.97506198e-04, 2.49376544e-03, 4.98753099e-04,
          9.97506198e-04, 0., 9.97506198e-04, 3.49127175e-03,
          4.98753099e-04, 4.98753099e-04, 3.99002479e-03, 0.,
          9.97506198e-04, 0., 1.99501240e-03, 0., 4.98753099e-04, 0., 0.,
          1.99501240e-03, 1.99501240e-03, 0., 0., 1.49625936e-03,
          1.49625936e-03, 4.98753099e-04, 0., 9.97506198e-04, 0., 0.,
          4.98753088e-03, 0., 0., 9.97506198e-04, 0., 1.49625936e-03,
          2.99251871e-03, 1.49625936e-03, 4.98753088e-03, 1.49625936e-03,
          0., 0., 0., 0., 9.97506198e-04, 9.97506198e-04, 0.,
          9.97506198e-04, 4.98753099e-04, 0., 9.97506198e-04,
          1.49625936e-03, 1.99501240e-03, 4.48877783e-03, 4.98753099e-04,
          0., 0., 4.98753099e-04, 4.98753099e-04, 4.98753099e-04, 0.,
          1.49625936e-03, 9.97506198e-04, 0., 0., 0., 0., 0., 0.,
          4.98753099e-04, 1.49625936e-03, 4.48877783e-03, 0.,
          1.49625936e-03, 0., 2.49376544e-03, 0., 4.98753099e-04, 0., 0.,
          1.49625936e-03, 0., 4.98753099e-04, 0., 0., 4.98753099e-04, 0.,
          9.97506198e-04, 0., 0., 4.98753099e-04, 1.99501240e-03,
          1.49625936e-03, 2.49376544e-03, 0., 4.98753099e-04,
          9.97506198e-04, 0., 4.98753099e-04, 0., 4.98753099e-04,
          4.98753099e-04, 9.97506198e-04, 0., 9.97506198e-04,
          4.98753099e-04, 0., 4.98753099e-04, 4.98753099e-04,
          9.97506198e-04, 0., 0., 0., 9.97506198e-04, 0., 2.99251871e-03,
          1.99501240e-03, 1.49625936e-03, 0., 4.98753099e-04,
          1.49625936e-03, 1.99501240e-03, 4.98753099e-04, 0., 0.,
          4.98753099e-04, 0., 4.98753099e-04, 4.98753099e-04, 0.,
          4.98753099e-04, 4.98753099e-04, 2.49376544e-03, 2.99251871e-03,
          6.98254351e-03, 4.98753099e-04, 4.98753099e-04, 4.98753099e-04,
          9.97506198e-04, 4.98753099e-04, 4.98753099e-04, 0., 0.,
          1.24688279e-02, 4.98753099e-04, 4.98753099e-04, 4.98753099e-04,
          0., 8.97755567e-03, 4.98753099e-04, 0., 0., 9.97506198e-04, 0.,
          4.98753099e-04, 0., 0., 1.99501240e-03, 4.98753099e-04,
          9.97506198e-04, 9.97506198e-04, 0., 9.97506198e-04,
          4.98753099e-04, 4.98753099e-04, 0., 0., 0., 5.48628392e-03, 0.,
          4.98753099e-04, 0., 2.99251871e-03, 1.99501240e-03, 0., 0., 0.,
          7.48129655e-03, 4.98753099e-04, 1.99501240e-03, 1.49625936e-03,
          1.99501240e-03, 4.98753099e-04, 0., 1.99501240e-03, 0.,
          4.98753099e-04, 2.49376544e-03, 8.53613601e-04, 4.26764973e-02,
          7.02390075e-02, 1.07329357e-02, 3.34750453e-04, 1.33900176e-04,
          1.67375219e-05, 4.18438049e-06, 8.36876097e-06, 0., 0., 0., 0.,
          0., 0., 0., 0., 0., 0., 0., 0., 0., 0., 0., 0., 0., 0., 0.,
          4.18438049e-06, 1.25531415e-05, 2.09219033e-05, 5.43969472e-05,
          4.18438067e-05, 8.36876134e-05, 1.29715801e-04, 1.12978276e-04,
          1.59006464e-04, 1.42268938e-04, 2.55247200e-04, 2.59431603e-04,
          3.26381676e-04, 4.51913103e-04, 5.02125651e-04, 6.06735179e-04,
          7.95032305e-04, 1.51056133e-03, 1.84112741e-03, 3.59438290e-03,
          5.51501336e-03, 1.09337866e-02, 1.77166667e-02, 4.20195498e-02,
          3.79104875e-02, 0., 0., 3.80152051e-04, 4.57332917e-02,
          7.50650242e-02, 3.77150858e-03, 4.00160061e-05, 5.00200076e-06,
          5.00200076e-06, 0., 0., 0., 0., 0., 0., 0., 0., 0., 0., 0., 0.,
          0., 0., 0., 0., 0., 0., 0., 0., 1.50060023e-05, 3.00120046e-05,
          3.50140035e-05, 6.00240091e-05, 1.00040015e-04, 1.55062022e-04,
          1.40056014e-04, 1.80072035e-04, 1.05042018e-04, 1.90076025e-04,
          1.90076025e-04, 3.25130037e-04, 3.35134042e-04, 4.75190085e-04,
          4.85194061e-04, 4.95198066e-04, 5.85234084e-04, 8.60344153e-04,
          1.11044419e-03, 1.70568225e-03, 2.80112051e-03, 4.76190494e-03,
          1.18597439e-02, 2.09233686e-02, 4.47078831e-02, 3.23679484e-02,
          0., 0., 2.07705772e-03, 6.39353171e-02, 5.64611480e-02,
          1.95154350e-03, 3.23907618e-04, 1.33611902e-04, 5.66838353e-05,
          2.83419176e-05, 3.23907625e-05, 0., 0., 0., 0., 0., 0., 0., 0.,
          0., 0., 0., 0., 0., 0., 0., 0., 0., 0., 0., 8.09769062e-06,
          4.04884522e-05, 5.66838353e-05, 6.07326801e-05, 1.05269981e-04,
          1.01221136e-04, 1.90295730e-04, 1.90295730e-04, 2.79370317e-04,
          2.34833031e-04, 3.15809943e-04, 2.55077262e-04, 4.73714899e-04,
          4.69666062e-04, 5.78984851e-04, 1.03245559e-03, 1.19036052e-03,
          1.68027077e-03, 2.44145375e-03, 4.93554259e-03, 7.19074905e-03,
          1.56609342e-02, 2.75604893e-02, 3.71279120e-02, 2.28192918e-02,
          0., 0., 1.09097012e-03, 6.69035092e-02, 5.60870543e-02,
          9.13803990e-04, 4.66226538e-06, 0., 0., 0., 0., 0., 0., 0., 0.,
          0., 0., 0., 0., 0., 0., 0., 0., 0., 0., 0., 0., 0., 0., 0., 0.,
          0., 0., 0., 4.19603894e-05, 3.72981231e-05, 7.92585124e-05,
          1.07232103e-04, 1.95815141e-04, 1.02569837e-04, 1.49192492e-04,
          1.77166090e-04, 2.93722725e-04, 3.58994439e-04, 3.45007633e-04,
          5.87445451e-04, 9.41777602e-04, 1.62246835e-03, 2.30782130e-03,
          4.50374838e-03, 7.65077770e-03, 1.75860655e-02, 2.57590171e-02,
          4.64081913e-02, 1.57444701e-02, 0., 0., 2.27630243e-01,
          1.04874866e-02, 2.79023522e-03, 2.11131453e-04,
          -1.60351277e-07, -2.15917080e-05, 2.34043469e-08 ]
      - [ 4.18935902e-04, 1.67574361e-03, 4.18935902e-04, 4.18935902e-04,
          0., 0., 0., 4.18935902e-04, 0., 0., 4.18935902e-04, 0., 0.,
          2.51361541e-03, 1.25680771e-03, 2.51361541e-03, 0.,
          4.18935902e-04, 0., 4.18935902e-04, 0., 0., 4.18935902e-04,
          4.18935902e-04, 1.25680771e-03, 0., 4.18935902e-04,
          4.18935902e-04, 1.25680771e-03, 1.67574361e-03, 8.37871805e-04,
          0., 8.37871805e-03, 4.18935902e-04, 8.37871805e-04,
          1.25680771e-03, 0., 8.37871805e-04, 0., 2.93255132e-03,
          8.37871805e-04, 4.18935902e-04, 4.18935902e-04, 4.18935902e-04,
          4.18935902e-04, 4.18935902e-04, 8.37871805e-04, 8.37871805e-04,
          2.09467951e-03, 0., 0., 4.18935902e-04, 1.25680771e-03,
          2.09467951e-03, 1.67574361e-03, 1.25680771e-03, 0.,
          2.09467951e-03, 0., 1.67574361e-03, 4.18935902e-04,
          4.18935902e-04, 1.25680771e-03, 8.37871805e-04, 0.,
          8.37871805e-04, 0., 2.51361541e-03, 0., 5.02723083e-03,
          1.25680771e-03, 1.67574361e-03, 0., 1.08923335e-02, 0., 0., 0.,
          1.25680771e-03, 1.25680771e-03, 8.37871805e-04, 0.,
          4.18935902e-04, 8.37871805e-04, 4.18935902e-04, 2.09467951e-03,
          4.18935902e-04, 0., 1.67574361e-03, 0., 8.37871805e-04,
          3.77042312e-03, 4.18935902e-04, 0., 4.18935902e-04,
          1.25680771e-03, 1.67574361e-03, 0., 0., 8.37871805e-04,
          1.25680771e-03, 4.18935902e-04, 0., 8.37871805e-04,
          4.18935902e-04, 2.93255132e-03, 1.67574361e-03, 0., 0., 0.,
          1.67574361e-03, 0., 8.37871805e-04, 8.37871805e-04,
          2.09467951e-03, 0., 4.18935902e-04, 4.18935902e-04, 0., 0., 0.,
          2.09467951e-03, 8.37871805e-04, 8.37871805e-04, 0.,
          4.18935902e-04, 1.25680771e-03, 5.44616673e-03, 1.67574361e-03,
          4.18935902e-04, 1.25680771e-03, 0., 0., 0., 0., 0.,
          1.25680771e-03, 0., 8.37871805e-04, 8.37871805e-04,
          8.37871805e-04, 4.18935902e-04, 1.67574361e-03, 0.,
          8.37871805e-04, 0., 0., 2.09467951e-03, 4.18935902e-04,
          3.77042312e-03, 0., 0., 0., 8.37871805e-04, 8.37871805e-04,
          8.37871805e-04, 1.25680771e-03, 4.18935902e-04, 4.18935902e-04,
          4.18935902e-04, 0., 0., 8.37871805e-04, 0., 1.67574361e-03,
          3.35148722e-03, 4.18935902e-04, 0., 0., 8.37871805e-04, 0.,
          1.67574361e-03, 0., 0., 0., 4.18935902e-04, 0., 8.37871805e-04,
          1.25680771e-03, 0., 4.18935902e-04, 2.09467951e-03,
          4.18935902e-04, 4.18935902e-04, 4.18935902e-04, 1.25680771e-03,
          4.18935902e-04, 2.09467951e-03, 8.37871805e-04, 1.25680771e-03,
          1.25680771e-03, 2.09467951e-03, 0., 0., 4.18935902e-04,
          8.37871805e-04, 4.18935902e-04, 0., 0., 2.51361541e-03,
          4.18935902e-04, 1.25680771e-03, 8.37871805e-04, 4.18935902e-04,
          4.18935902e-04, 0., 7.95978215e-03, 0., 0., 8.37871805e-04, 0.,
          8.37871805e-04, 0., 7.12191034e-03, 1.25680771e-03, 0., 0.,
          3.77042312e-03, 8.37871805e-04, 2.93255132e-03, 8.37871805e-04,
          0., 8.37871805e-04, 8.37871805e-04, 0., 4.18935902e-04,
          4.18935902e-03, 4.18935902e-03, 2.09467951e-03, 1.67574361e-03,
          4.18935902e-04, 8.37871805e-04, 0., 8.37871805e-04,
          3.77042312e-03, 0., 4.18935902e-04, 1.67574361e-03,
          4.18935902e-04, 4.18935902e-04, 0., 0., 0., 0., 2.09467951e-03,
          0., 0., 0., 3.35148722e-03, 8.37871805e-04, 8.37871805e-04,
          2.09467951e-03, 1.25680771e-03, 0., 0., 8.37871805e-04,
          2.09467951e-03, 6.28403854e-03, 4.18935902e-04, 4.18935902e-04,
          0., 8.37871805e-04, 1.25680771e-03, 1.25680771e-03, 0.,
          8.37871805e-04, 8.37871805e-04, 8.37871805e-04, 0., 0.,
          1.67574361e-03, 4.18935902e-04, 0., 8.37871805e-04, 0., 0., 0.,
          8.37871805e-04, 0., 0., 2.93255132e-03, 1.50816925e-02,
          2.09467951e-03, 4.18935902e-03, 8.37871805e-04, 8.37871805e-04,
          0., 8.37871805e-04, 0., 0., 8.37871805e-04, 8.37871805e-04,
          4.18935902e-04, 4.18935902e-04, 0., 1.25680771e-03,
          8.37871805e-04, 0., 4.18935902e-04, 4.18935902e-04,
          8.37871805e-04, 0., 0., 0., 0., 0., 8.37871805e-04, 0.,
          4.18935902e-04, 0., 8.37871805e-04, 9.63552576e-03,
          1.67574361e-03, 0., 0., 2.51361541e-03, 4.18935902e-04,
          8.37871805e-04, 5.86510263e-03, 4.18935902e-04, 1.67574361e-03,
          8.37871805e-04, 8.37871805e-04, 6.28403854e-03, 8.37871805e-04,
          4.18935902e-04, 1.25680771e-03, 0., 8.37871805e-04, 0.,
          1.00544617e-02, 4.18935902e-04, 0., 4.18935902e-04, 0., 0., 0.,
          0., 0., 2.93255132e-03, 8.37871805e-03, 4.18935902e-04,
          1.67574361e-03, 0., 1.67574361e-03, 1.25680771e-03, 0.,
          1.67574361e-03, 4.18935902e-04, 0., 0., 0., 4.18935902e-04,
          8.37871805e-04, 0., 0., 8.37871805e-04, 2.51361541e-03,
          8.37871805e-04, 0., 4.18935902e-04, 4.18935902e-04, 0., 0., 0.,
          0., 4.18935902e-04, 4.18935902e-03, 4.18935902e-04,
          4.18935902e-04, 8.37871805e-04, 8.37871805e-04, 4.18935902e-04,
          0., 2.93255132e-03, 4.18935902e-04, 4.18935902e-04,
          1.67574361e-03, 0., 3.35148722e-03, 4.18935902e-04,
          2.51361541e-03, 2.93255132e-03, 8.37871805e-04, 4.18935902e-04,
          0., 0., 0., 0., 5.02723083e-03, 2.09467951e-03, 4.18935902e-04,
          8.37871805e-04, 0., 4.18935902e-04, 2.09467951e-03,
          4.18935902e-04, 0., 5.44616673e-03, 4.18935902e-04, 0.,
          5.44616673e-03, 3.35148722e-03, 2.51361541e-03, 0.,
          4.18935902e-04, 1.67574361e-03, 4.18935902e-04, 2.51361541e-03,
          4.18935902e-04, 0., 4.18935902e-04, 1.25680771e-03, 0.,
          4.18935902e-04, 4.18935902e-04, 0., 4.18935902e-04,
          1.25680771e-03, 4.18935902e-04, 2.51361541e-03, 1.25680771e-03,
          4.18935902e-04, 4.18935902e-04, 0., 2.09467951e-03,
          4.18935902e-04, 1.55006284e-02, 8.37871805e-04, 4.18935902e-04,
          4.18935902e-04, 0., 0., 0., 0., 0., 0., 0., 2.93255132e-03,
          4.18935902e-04, 0., 0., 4.18935902e-04, 0., 1.67574361e-03,
          2.09467951e-03, 0., 0., 8.37871805e-04, 0., 2.09467951e-03, 0.,
          0., 8.37871805e-04, 8.37871805e-04, 1.25680771e-03,
          4.18935902e-04, 0., 0., 4.18935902e-04, 0., 0., 1.17302053e-02,
          0., 4.18935902e-04, 0., 4.18935902e-04, 0., 8.37871805e-04,
          1.67574361e-03, 0., 0., 0., 4.18935902e-04, 0., 2.93255132e-03,
          4.18935902e-04, 1.67574361e-03, 0., 0., 0., 9.63552576e-03,
          4.60829493e-03, 8.37871805e-04, 4.18935902e-04, 8.37871805e-04,
          3.35148722e-03, 0., 0., 0., 2.51361541e-03, 4.60829493e-03,
          3.77042312e-03, 0., 0., 7.95978215e-03, 4.18935902e-04,
          1.25680771e-03, 1.25680771e-03, 2.51361541e-03, 0.,
          7.12191034e-03, 2.09467951e-03, 0., 8.37871805e-04,
          4.18935902e-04, 0., 0., 4.18935902e-04, 0., 0., 4.18935902e-04,
          0., 0., 0., 1.25680771e-03, 4.18935902e-04, 4.18935902e-03,
          4.18935902e-04, 0., 4.18935902e-04, 1.25680771e-03, 0.,
          1.25680771e-03, 0., 4.18935902e-04, 4.18935902e-04,
          4.18935902e-03, 0., 0., 1.25680771e-03, 8.37871805e-04, 0.,
          1.25680771e-03, 8.37871805e-04, 0., 7.95978215e-03,
          4.18935902e-04, 2.09467951e-03, 0., 2.93255132e-03,
          8.37871805e-04, 0., 2.51361541e-03, 2.93255132e-03, 0.,
          8.37871805e-04, 0., 0., 2.09467951e-03, 0., 0., 4.18935902e-04,
          0., 0., 0., 8.37871805e-04, 4.18935902e-04, 0., 0., 0., 0.,
          1.25680771e-03, 6.70297444e-03, 0., 1.25680771e-03, 0.,
          4.18935902e-03, 4.18935902e-04, 4.18935902e-04, 8.37871805e-04,
          1.25680771e-03, 0., 4.18935902e-04, 2.09467951e-03,
          3.77042312e-03, 4.18935902e-04, 1.04733976e-02, 0.,
          4.18935902e-04, 8.37871805e-04, 2.51361541e-03, 1.63385011e-02,
          4.18935902e-04, 0., 4.18935902e-04, 2.09467951e-03,
          2.09467951e-03, 0., 0., 4.18935902e-04, 0., 0., 8.37871805e-04,
          3.77042312e-03, 0., 8.37871805e-04, 1.67574361e-03,
          4.18935902e-04, 0., 1.25680771e-03, 8.37871805e-04, 0., 0.,
          1.67574361e-03, 2.51361541e-03, 0., 0., 4.18935902e-04, 0.,
          1.67574361e-03, 0., 3.77042312e-03, 0., 0., 1.67574361e-03, 0.,
          0., 4.18935902e-04, 4.18935902e-04, 8.37871805e-04, 0., 0.,
          1.25680771e-03, 0., 2.09467951e-03, 4.18935902e-04, 0., 0.,
          4.18935902e-04, 2.09467951e-03, 4.18935902e-04, 6.28403854e-03,
          0., 0., 4.18935902e-04, 0., 4.18935902e-04, 8.37871805e-04,
          4.18935902e-04, 4.18935902e-04, 4.18935902e-04, 0.,
          4.18935902e-04, 2.93255132e-03, 0., 0., 1.25680771e-03,
          4.18935902e-04, 0., 1.67574361e-03, 1.25680771e-03, 0., 0.,
          4.18935902e-04, 0., 0., 0., 2.09467951e-03, 1.67574361e-03, 0.,
          2.09467951e-03, 1.25680771e-03, 0., 0., 4.18935902e-04, 0., 0.,
          8.37871805e-04, 4.18935902e-04, 0., 0., 1.67574361e-03,
          8.37871805e-04, 0., 2.09467951e-03, 0., 4.18935902e-04,
          1.25680771e-03, 0., 4.18935902e-04, 4.18935902e-04, 0., 0.,
          8.37871805e-04, 8.37871805e-04, 8.37871805e-04, 0., 0.,
          4.60829493e-03, 4.18935902e-04, 0., 3.35148722e-03, 0.,
          8.37871805e-04, 3.77042312e-03, 1.67574361e-03, 8.37871805e-04,
          0., 8.37871805e-04, 4.18935902e-04, 0., 4.18935902e-04, 0., 0.,
          2.09467951e-03, 4.18935902e-04, 4.18935902e-04, 0.,
          4.18935902e-04, 4.18935902e-04, 0., 5.86510263e-03, 0., 0., 0.,
          0., 4.18935902e-04, 0., 0., 8.37871805e-04, 0., 2.51361541e-03,
          4.18935902e-04, 1.25680771e-03, 8.37871805e-04, 1.67574361e-03,
          1.25680771e-03, 0., 4.18935902e-03, 0., 8.37871805e-04,
          4.18935902e-04, 1.25680771e-03, 8.37871805e-04, 2.09467951e-03,
          0., 2.51361541e-03, 9.21658985e-03, 6.70297444e-03,
          4.18935902e-04, 1.67574361e-03, 0., 0., 4.18935902e-03,
          8.37871805e-04, 0., 0., 4.60829493e-03, 0., 0., 0.,
          4.18935902e-04, 0., 0., 0., 1.25680771e-03, 8.37871805e-04, 0.,
          8.37871805e-04, 2.51361541e-03, 8.37871805e-04, 8.37871805e-04,
          4.18935902e-04, 4.18935902e-04, 1.25680771e-03, 2.09467951e-03,
          4.18935902e-04, 2.09467951e-03, 8.37871805e-04, 0., 0.,
          2.51361541e-03, 4.18935902e-04, 1.25680771e-03, 0., 0.,
          1.25680771e-03, 1.67574361e-03, 1.04733976e-02, 0.,
          6.70297444e-03, 3.35148722e-03, 0., 0., 4.18935902e-04,
          8.37871805e-04, 4.18935902e-04, 4.18935902e-04, 4.18935902e-04,
          0., 0., 8.37871805e-04, 0., 2.51361541e-03, 0., 0.,
          1.25680771e-03, 0., 8.79765395e-03, 4.18935902e-04, 0.,
          8.37871805e-04, 1.67574361e-03, 0., 0., 8.37871805e-04,
          5.86510263e-03, 4.18935902e-04, 2.09467951e-03, 0., 0., 0.,
          1.25680771e-03, 4.18935902e-04, 2.09467951e-03, 0.,
          1.25680771e-03, 4.18935902e-04, 5.44616673e-03, 8.37871805e-04,
          2.09467951e-03, 4.18935902e-04, 1.25680771e-03, 4.18935902e-04,
          1.25680771e-03, 0., 0., 0., 0., 0., 0., 0., 8.37871805e-04,
          8.37871805e-04, 4.18935902e-04, 8.37871805e-04, 4.18935902e-04,
          1.67574361e-03, 4.18935902e-04, 8.37871805e-04, 0., 0., 0.,
          4.18935902e-04, 8.37871805e-04, 0., 4.18935902e-04,
          8.37871805e-04, 0., 1.25680771e-03, 0., 0., 2.51361541e-03, 0.,
          0., 2.09467951e-03, 0., 0., 0., 1.25680771e-03, 1.25680771e-03,
          2.51361541e-03, 1.25680771e-03, 2.09467951e-03, 0., 0., 0.,
          5.86510263e-03, 0., 3.77042312e-03, 0., 2.93255132e-03,
          2.51361541e-03, 0., 1.25680771e-03, 0., 0., 1.67574361e-03, 0.,
          3.35148722e-03, 0., 4.18935902e-04, 8.37871805e-04, 0.,
          4.18935902e-04, 1.25680771e-03, 0., 1.25680771e-03, 0., 0.,
          8.37871805e-04, 4.18935902e-04, 4.18935902e-04, 8.37871805e-04,
          1.25680771e-03, 0., 0., 1.25680771e-03, 4.18935902e-04,
          8.37871805e-04, 0., 0., 7.54084624e-03, 0., 0., 4.18935902e-04,
          0., 1.25680771e-03, 4.18935902e-04, 4.18935902e-04,
          4.18935902e-04, 8.37871805e-04, 0., 4.18935902e-04, 0., 0., 0.,
          0., 0., 0., 8.37871805e-04, 0., 0., 0., 0., 1.25680771e-03, 0.,
          1.67574361e-03, 2.09467951e-03, 1.25680771e-03, 4.18935902e-04,
          8.37871805e-04, 2.51361541e-03, 1.67574361e-03, 0.,
          4.18935902e-04, 8.37871805e-04, 8.37871805e-04, 0.,
          4.18935902e-04, 0., 4.18935902e-04, 2.09467951e-03,
          2.51361541e-03, 1.67574361e-03, 3.35148722e-03, 0., 0.,
          4.18935902e-04, 0., 0., 4.18935902e-04, 0., 0., 3.35148722e-03,
          8.37871805e-04, 0., 4.18935902e-04, 4.60829493e-03,
          4.18935902e-04, 0., 0., 0., 8.37871805e-03, 0., 0.,
          4.18935902e-03, 0., 0., 1.25680771e-03, 2.51361541e-03,
          1.67574361e-03, 8.37871805e-04, 0., 4.18935902e-04,
          2.09467951e-03, 8.37871805e-04, 4.18935902e-04, 0., 0., 0.,
          5.02723083e-03, 4.18935902e-04, 4.18935902e-04, 0.,
          4.18935902e-04, 0., 8.37871805e-04, 0., 4.18935902e-04,
          4.18935902e-04, 8.37871805e-04, 0., 0., 0., 1.25680771e-03,
          4.18935902e-04, 0., 1.25680771e-03, 0., 2.93215457e-03,
          6.31277785e-02, 5.78499027e-02, 8.30777106e-04, 1.50366890e-04,
          7.51834450e-05, 1.50366895e-05, 0., 1.87958613e-05, 0., 0., 0.,
          0., 0., 0., 0., 0., 0., 0., 0., 0., 0., 0., 0., 0., 0., 0., 0.,
          0., 0., 0., 0., 3.75917239e-06, 7.51834477e-06, 7.51834477e-06,
          4.13508969e-05, 5.63875874e-05, 6.39059290e-05, 9.02201355e-05,
          9.77384843e-05, 1.54126072e-04, 1.76681104e-04, 2.14272819e-04,
          2.89456279e-04, 2.74419581e-04, 3.94713104e-04, 5.60116663e-04,
          8.11981212e-04, 1.06384582e-03, 1.57885242e-03, 2.36827857e-03,
          4.46589664e-03, 5.93949249e-03, 9.25508235e-03, 9.70843881e-02,
          1.53460773e-03, 5.66095002e-02, 6.62574396e-02, 5.34334162e-04,
          3.84720588e-05, 1.70986932e-05, 8.54934660e-06, 0., 0., 0., 0.,
          0., 0., 0., 0., 0., 0., 0., 0., 0., 0., 0., 0., 0., 0., 0., 0.,
          0., 0., 0., 0., 0., 0., 0., 0., 0., 0., 0., 1.70986932e-05,
          4.27467330e-06, 9.83174832e-05, 1.75261608e-04, 1.45338898e-04,
          2.13733671e-04, 2.86403112e-04, 5.25784795e-04, 6.62574370e-04,
          9.01956053e-04, 1.26102858e-03, 2.23137951e-03, 3.30859702e-03,
          6.09140936e-03, 7.27549382e-03, 1.11654466e-02, 9.06358957e-02,
          1.14333851e-03, 4.91974056e-02, 7.23500103e-02, 2.02340842e-03,
          2.18136964e-04, 4.51317828e-05, 1.88049107e-05, 0., 0., 0., 0.,
          0., 0., 0., 0., 0., 0., 0., 0., 0., 0., 0., 3.76098205e-06, 0.,
          0., 0., 0., 0., 0., 0., 0., 3.76098205e-06, 0., 0.,
          1.12829457e-05, 3.38488389e-05, 5.64147304e-05, 7.52196429e-05,
          1.27873383e-04, 1.91810090e-04, 1.88049104e-04, 2.70790712e-04,
          3.61054263e-04, 4.55078814e-04, 4.70122759e-04, 8.19894078e-04,
          9.66572377e-04, 1.67363696e-03, 2.35813577e-03, 4.03929455e-03,
          5.19015500e-03, 8.32681451e-03, 1.06022088e-02, 1.38592189e-02,
          7.49187618e-02, 7.94457912e-04, 3.99254821e-02, 8.28262120e-02,
          1.30291097e-03, 9.93072390e-05, 3.57506069e-05, 1.19168690e-05,
          0., 3.97228951e-06, 0., 0., 0., 0., 0., 0., 0., 0., 0., 0., 0.,
          0., 0., 0., 0., 0., 0., 0., 0., 0., 0., 0., 0., 0., 0.,
          3.97228951e-06, 3.97228951e-06, 7.94457901e-06, 1.58891580e-05,
          2.38337379e-05, 1.07251813e-04, 2.26420496e-04, 3.49561480e-04,
          4.44896432e-04, 5.08453057e-04, 7.78568734e-04, 1.03676762e-03,
          1.17579766e-03, 1.98217249e-03, 2.79649184e-03, 4.81044268e-03,
          6.35963539e-03, 9.62882955e-03, 1.01531716e-02, 1.34461997e-02,
          7.11397305e-02, 2.49553129e-01, 1.72515325e-02, 2.91738799e-03,
          2.98435305e-04, -2.78164578e-07, -3.91943286e-05,
          1.29556872e-08 ]
      - [ 0., 8.35073064e-04, 4.17536532e-04, 4.17536532e-04, 0., 0.,
          4.17536532e-04, 4.17536532e-04, 4.17536532e-04, 4.17536532e-04,
          1.67014613e-03, 0., 0., 2.92275567e-03, 1.25260954e-03,
          2.92275567e-03, 0., 4.17536532e-04, 0., 8.35073064e-04, 0., 0.,
          0., 4.17536532e-04, 1.67014613e-03, 4.17536532e-04,
          8.35073064e-04, 1.67014613e-03, 1.25260954e-03, 4.17536532e-04,
          0., 8.35073064e-04, 5.84551133e-03, 0., 1.67014613e-03,
          1.25260954e-03, 0., 4.17536532e-04, 4.17536532e-04,
          5.84551133e-03, 0., 0., 4.17536532e-04, 4.17536532e-04,
          8.35073064e-04, 8.35073064e-04, 4.17536532e-04, 4.17536532e-04,
          8.35073064e-04, 0., 0., 4.17536532e-04, 1.25260954e-03,
          2.08768272e-03, 1.25260954e-03, 8.35073064e-04, 0.,
          1.67014613e-03, 0., 2.92275567e-03, 2.50521908e-03, 0.,
          1.67014613e-03, 1.25260954e-03, 0., 4.17536532e-04, 0.,
          8.35073064e-04, 4.17536532e-04, 6.26304792e-03, 4.17536532e-04,
          1.25260954e-03, 4.17536532e-04, 9.18580405e-03, 4.17536532e-04,
          0., 0., 0., 1.25260954e-03, 4.17536532e-04, 8.35073064e-04, 0.,
          4.17536532e-04, 0., 2.08768272e-03, 8.35073064e-04, 0.,
          1.25260954e-03, 0., 0., 3.34029226e-03, 4.17536532e-04, 0.,
          8.35073064e-04, 0., 1.67014613e-03, 0., 0., 1.67014613e-03,
          4.17536532e-04, 0., 0., 4.17536532e-04, 1.67014613e-03,
          5.42797474e-03, 1.25260954e-03, 0., 4.17536532e-04, 0.,
          8.35073064e-04, 0., 1.25260954e-03, 0., 8.35073064e-04,
          4.17536532e-04, 4.17536532e-04, 4.17536532e-04, 0., 0., 0.,
          4.17536532e-04, 8.35073064e-04, 8.35073064e-04, 4.17536532e-04,
          4.17536532e-04, 4.17536532e-04, 7.51565769e-03, 4.17536532e-04,
          0., 8.35073064e-04, 0., 0., 0., 0., 0., 8.35073064e-04, 0., 0.,
          1.67014613e-03, 8.35073064e-04, 4.17536532e-04, 4.17536532e-04,
          0., 1.25260954e-03, 0., 0., 8.35073064e-04, 0., 2.08768272e-03,
          4.17536532e-04, 0., 0., 8.35073064e-04, 0., 4.17536532e-04,
          1.25260954e-03, 1.25260954e-03, 4.17536532e-04, 4.17536532e-04,
          4.17536532e-04, 0., 8.35073064e-04, 0., 2.92275567e-03,
          2.92275567e-03, 0., 4.17536532e-04, 0., 8.35073064e-04,
          4.17536532e-04, 1.25260954e-03, 0., 0., 0., 8.35073064e-04, 0.,
          8.35073064e-04, 1.67014613e-03, 0., 4.17536532e-04,
          4.17536532e-04, 4.17536532e-04, 0., 4.17536532e-04,
          8.35073064e-04, 0., 1.25260954e-03, 0., 1.25260954e-03, 0.,
          2.08768272e-03, 0., 4.17536532e-04, 0., 8.35073064e-04,
          4.17536532e-04, 0., 0., 2.92275567e-03, 0., 8.35073064e-04,
          4.17536532e-04, 4.17536532e-04, 4.17536532e-04, 0.,
          6.26304792e-03, 8.35073064e-04, 0., 1.25260954e-03, 0.,
          4.17536532e-04, 0., 7.09812110e-03, 1.25260954e-03, 0.,
          4.17536532e-04, 5.84551133e-03, 2.92275567e-03, 3.75782885e-03,
          8.35073064e-04, 0., 8.35073064e-04, 1.67014613e-03, 0.,
          4.17536532e-04, 5.42797474e-03, 2.50521908e-03, 1.25260954e-03,
          4.17536532e-04, 4.17536532e-04, 4.17536532e-04, 0.,
          4.17536532e-04, 2.08768272e-03, 8.35073064e-04, 4.17536532e-04,
          1.25260954e-03, 8.35073064e-04, 4.17536532e-04, 0.,
          8.35073064e-04, 8.35073064e-04, 4.17536532e-04, 3.34029226e-03,
          4.17536532e-04, 0., 1.25260954e-03, 3.75782885e-03,
          8.35073064e-04, 4.17536532e-04, 4.17536544e-03, 0., 0., 0.,
          1.25260954e-03, 4.17536532e-04, 9.60334018e-03, 0.,
          8.35073064e-04, 0., 4.17536532e-04, 2.50521908e-03, 0., 0.,
          4.17536532e-04, 1.67014613e-03, 8.35073064e-04, 8.35073064e-04,
          0., 1.25260954e-03, 4.17536532e-04, 0., 1.25260954e-03, 0.,
          4.17536532e-04, 0., 8.35073064e-04, 0., 0., 8.35073064e-04,
          1.79540701e-02, 1.25260954e-03, 4.59290203e-03, 8.35073064e-04,
          8.35073064e-04, 0., 8.35073064e-04, 0., 0., 4.17536532e-04,
          8.35073064e-04, 8.35073064e-04, 4.17536532e-04, 0.,
          2.50521908e-03, 8.35073064e-04, 4.17536532e-04, 0.,
          4.17536532e-04, 0., 4.17536532e-04, 0., 0., 0., 0.,
          2.92275567e-03, 0., 0., 0., 4.17536532e-04, 8.35073087e-03,
          1.25260954e-03, 0., 0., 2.08768272e-03, 4.17536532e-04,
          8.35073064e-04, 8.35073087e-03, 0., 2.08768272e-03, 0., 0.,
          4.17536544e-03, 4.17536532e-04, 0., 0., 4.17536532e-04,
          8.35073064e-04, 0., 9.60334018e-03, 0., 8.35073064e-04,
          8.35073064e-04, 8.35073064e-04, 0., 0., 0., 0., 2.50521908e-03,
          5.84551133e-03, 0., 2.50521908e-03, 4.17536532e-04,
          4.17536532e-04, 8.35073064e-04, 0., 2.08768272e-03,
          1.25260954e-03, 1.25260954e-03, 0., 0., 4.17536532e-04, 0., 0.,
          0., 4.17536532e-04, 3.34029226e-03, 8.35073064e-04,
          8.35073064e-04, 8.35073064e-04, 4.17536532e-04, 4.17536532e-04,
          0., 4.17536532e-04, 2.50521908e-03, 0., 5.42797474e-03,
          4.17536532e-04, 8.35073064e-04, 8.35073064e-04, 8.35073064e-04,
          4.17536532e-04, 0., 1.67014613e-03, 8.35073064e-04,
          8.35073064e-04, 8.35073064e-04, 0., 8.35073064e-04, 0.,
          5.01043815e-03, 2.50521908e-03, 1.67014613e-03, 2.08768272e-03,
          4.17536532e-04, 0., 0., 0., 4.17536544e-03, 1.67014613e-03,
          4.17536532e-04, 0., 0., 8.35073064e-04, 2.08768272e-03,
          1.25260954e-03, 0., 5.84551133e-03, 4.17536532e-04,
          4.17536532e-04, 5.01043815e-03, 0., 2.08768272e-03,
          4.17536532e-04, 8.35073064e-04, 1.67014613e-03, 4.17536532e-04,
          2.92275567e-03, 0., 4.17536532e-04, 0., 0., 0., 4.17536532e-04,
          0., 4.17536532e-04, 8.35073064e-04, 1.25260954e-03, 0.,
          2.92275567e-03, 1.67014613e-03, 0., 0., 0., 2.08768272e-03, 0.,
          1.58663876e-02, 4.17536532e-04, 0., 4.17536532e-04,
          4.17536532e-04, 0., 0., 0., 0., 0., 8.35073064e-04,
          3.75782885e-03, 4.17536532e-04, 0., 0., 2.92275567e-03, 0.,
          2.08768272e-03, 4.17536532e-04, 4.17536532e-04, 4.17536532e-04,
          4.17536532e-04, 0., 1.25260954e-03, 0., 0., 0., 0.,
          8.35073064e-04, 8.35073064e-04, 0., 4.17536532e-04, 0., 0., 0.,
          9.18580405e-03, 4.17536532e-04, 4.17536532e-04, 0., 0.,
          2.08768272e-03, 0., 1.25260954e-03, 4.17536532e-04, 0., 0.,
          4.17536532e-04, 0., 1.67014613e-03, 0., 2.08768272e-03, 0.,
          4.17536532e-04, 4.17536532e-04, 1.04384134e-02, 5.42797474e-03,
          4.17536532e-04, 4.17536532e-04, 4.17536532e-04, 2.50521908e-03,
          0., 0., 1.25260954e-03, 0., 2.92275567e-03, 3.75782885e-03, 0.,
          0., 6.68058451e-03, 0., 2.50521908e-03, 1.25260954e-03,
          2.92275567e-03, 0., 7.09812110e-03, 2.92275567e-03, 0.,
          4.17536532e-04, 4.17536532e-04, 4.17536532e-04, 8.35073064e-04,
          0., 1.25260954e-03, 0., 4.17536532e-04, 4.17536532e-04, 0.,
          1.25260954e-03, 0., 0., 3.34029226e-03, 8.35073064e-04, 0.,
          8.35073064e-04, 1.25260954e-03, 4.17536532e-04, 1.25260954e-03,
          0., 1.67014613e-03, 4.17536532e-04, 4.59290203e-03,
          1.25260954e-03, 0., 4.17536532e-04, 4.17536532e-04, 0.,
          1.67014613e-03, 1.67014613e-03, 0., 9.60334018e-03, 0.,
          3.34029226e-03, 0., 2.50521908e-03, 4.17536532e-04, 0.,
          1.25260954e-03, 2.08768272e-03, 0., 8.35073064e-04, 0., 0.,
          1.25260954e-03, 0., 0., 1.25260954e-03, 0., 0., 0.,
          3.75782885e-03, 1.67014613e-03, 0., 4.17536532e-04, 0., 0.,
          1.25260954e-03, 7.93319382e-03, 0., 4.17536532e-04, 0.,
          4.59290203e-03, 4.17536532e-04, 4.17536532e-04, 0.,
          4.17536532e-04, 0., 8.35073064e-04, 4.17536532e-04,
          2.50521908e-03, 8.35073064e-04, 1.00208763e-02, 0.,
          2.50521908e-03, 4.17536532e-04, 5.01043815e-03, 1.37787051e-02,
          0., 0., 1.25260954e-03, 4.17536532e-04, 1.25260954e-03, 0., 0.,
          8.35073064e-04, 0., 0., 8.35073064e-04, 1.25260954e-03, 0.,
          2.08768272e-03, 8.35073064e-04, 8.35073064e-04, 0.,
          4.17536532e-04, 4.17536532e-04, 0., 0., 1.67014613e-03,
          4.59290203e-03, 0., 1.25260954e-03, 4.17536532e-04,
          8.35073064e-04, 1.67014613e-03, 4.17536532e-04, 2.92275567e-03,
          0., 0., 1.25260954e-03, 8.35073064e-04, 0., 0., 0.,
          4.17536532e-04, 4.17536532e-04, 0., 0., 0., 4.17536544e-03, 0.,
          0., 0., 0., 2.50521908e-03, 4.17536532e-04, 4.17536544e-03, 0.,
          0., 4.17536532e-04, 0., 0., 1.67014613e-03, 1.67014613e-03, 0.,
          1.25260954e-03, 0., 8.35073064e-04, 8.35073064e-04, 0.,
          1.67014613e-03, 1.25260954e-03, 4.17536532e-04, 0.,
          1.25260954e-03, 4.17536532e-04, 0., 0., 8.35073064e-04, 0., 0.,
          0., 1.25260954e-03, 4.17536532e-04, 0., 1.25260954e-03,
          8.35073064e-04, 0., 0., 4.17536532e-04, 8.35073064e-04, 0.,
          4.17536532e-04, 0., 0., 0., 1.67014613e-03, 4.17536532e-04, 0.,
          3.34029226e-03, 0., 8.35073064e-04, 8.35073064e-04,
          4.17536532e-04, 4.17536532e-04, 4.17536532e-04, 1.25260954e-03,
          0., 0., 2.50521908e-03, 8.35073064e-04, 1.67014613e-03, 0.,
          4.59290203e-03, 0., 4.17536532e-04, 4.17536532e-04,
          4.17536532e-04, 4.17536532e-04, 3.34029226e-03, 4.17536532e-04,
          8.35073064e-04, 0., 4.17536532e-04, 0., 0., 1.25260954e-03, 0.,
          0., 4.17536532e-04, 0., 0., 0., 4.17536532e-04, 1.67014613e-03,
          4.17536532e-04, 5.01043815e-03, 4.17536532e-04, 0., 0., 0.,
          1.25260954e-03, 0., 0., 1.67014613e-03, 0., 2.08768272e-03, 0.,
          1.25260954e-03, 1.25260954e-03, 1.25260954e-03, 8.35073064e-04,
          4.17536532e-04, 2.50521908e-03, 0., 8.35073064e-04,
          8.35073064e-04, 0., 0., 2.08768272e-03, 0., 2.08768272e-03,
          7.51565769e-03, 5.01043815e-03, 1.25260954e-03, 4.17536544e-03,
          0., 0., 3.34029226e-03, 4.17536532e-04, 4.17536532e-04, 0.,
          5.42797474e-03, 0., 0., 0., 0., 4.17536532e-04, 4.17536532e-04,
          0., 8.35073064e-04, 1.25260954e-03, 0., 8.35073064e-04,
          2.08768272e-03, 1.25260954e-03, 8.35073064e-04, 0., 0.,
          4.59290203e-03, 1.67014613e-03, 0., 2.08768272e-03,
          1.25260954e-03, 4.17536532e-04, 0., 5.84551133e-03, 0.,
          4.17536532e-04, 0., 0., 4.17536532e-04, 8.35073064e-04,
          1.04384134e-02, 0., 5.84551133e-03, 4.17536544e-03, 0.,
          4.17536532e-04, 4.17536532e-04, 2.08768272e-03, 0.,
          4.17536532e-04, 8.35073064e-04, 0., 0., 1.67014613e-03, 0.,
          2.50521908e-03, 0., 0., 1.25260954e-03, 0., 7.51565769e-03, 0.,
          0., 8.35073064e-04, 1.25260954e-03, 4.17536532e-04, 0., 0.,
          3.75782885e-03, 0., 1.67014613e-03, 0., 0., 0., 3.34029226e-03,
          0., 8.35073064e-04, 0., 1.25260954e-03, 1.25260954e-03,
          3.34029226e-03, 1.25260954e-03, 4.17536532e-04, 0.,
          8.35073064e-04, 4.17536532e-04, 2.08768272e-03, 0.,
          4.17536532e-04, 0., 4.17536532e-04, 0., 1.67014613e-03, 0.,
          1.25260954e-03, 4.17536532e-04, 4.17536532e-04, 1.25260954e-03,
          8.35073064e-04, 8.35073064e-04, 0., 1.25260954e-03, 0., 0., 0.,
          0., 1.67014613e-03, 4.17536532e-04, 0., 8.35073064e-04,
          4.17536532e-04, 1.25260954e-03, 0., 1.67014613e-03,
          3.34029226e-03, 0., 0., 1.25260954e-03, 4.17536532e-04, 0., 0.,
          2.08768272e-03, 2.08768272e-03, 1.67014613e-03, 8.35073064e-04,
          4.17536532e-04, 4.17536532e-04, 4.17536532e-04, 0.,
          5.84551133e-03, 0., 2.92275567e-03, 0., 6.68058451e-03, 0.,
          4.17536532e-04, 1.25260954e-03, 0., 8.35073064e-04,
          1.25260954e-03, 0., 1.67014613e-03, 0., 0., 0., 0.,
          4.17536532e-04, 1.25260954e-03, 4.17536532e-04, 8.35073064e-04,
          0., 4.17536532e-04, 4.17536532e-04, 4.17536532e-04,
          4.17536532e-04, 0., 1.25260954e-03, 0., 0., 4.17536544e-03,
          1.25260954e-03, 2.50521908e-03, 0., 0., 5.42797474e-03, 0., 0.,
          0., 0., 1.25260954e-03, 1.67014613e-03, 1.67014613e-03,
          1.25260954e-03, 8.35073064e-04, 0., 2.50521908e-03, 0.,
          4.17536532e-04, 0., 0., 4.17536532e-04, 0., 4.17536532e-04,
          8.35073064e-04, 0., 0., 0., 8.35073064e-04, 0., 1.25260954e-03,
          1.67014613e-03, 0., 8.35073064e-04, 1.67014613e-03,
          1.25260954e-03, 1.67014613e-03, 0., 0., 4.17536532e-04,
          1.67014613e-03, 4.17536532e-04, 1.25260954e-03, 0.,
          4.17536532e-04, 8.35073064e-04, 2.92275567e-03, 1.25260954e-03,
          1.25260954e-03, 0., 0., 0., 0., 0., 8.35073064e-04, 0., 0.,
          4.59290203e-03, 4.17536532e-04, 4.17536532e-04, 4.17536532e-04,
          5.01043815e-03, 0., 8.35073064e-04, 0., 0., 9.60334018e-03,
          8.35073064e-04, 0., 4.59290203e-03, 8.35073064e-04,
          1.25260954e-03, 1.25260954e-03, 1.25260954e-03, 1.25260954e-03,
          1.67014613e-03, 0., 0., 2.08768272e-03, 0., 0., 0., 0., 0.,
          3.75782885e-03, 8.35073064e-04, 0., 4.17536532e-04,
          8.35073064e-04, 0., 8.35073064e-04, 0., 4.17536532e-04,
          8.35073064e-04, 0., 0., 4.17536532e-04, 8.35073064e-04,
          2.92275567e-03, 4.17536532e-04, 4.17536532e-04, 0., 0.,
          1.14333851e-03, 4.91974056e-02, 7.23500103e-02, 2.02340842e-03,
          2.18136964e-04, 4.51317828e-05, 1.88049107e-05, 0., 0., 0., 0.,
          0., 0., 0., 0., 0., 0., 0., 0., 0., 0., 0., 3.76098205e-06, 0.,
          0., 0., 0., 0., 0., 0., 0., 3.76098205e-06, 0., 0.,
          1.12829457e-05, 3.38488389e-05, 5.64147304e-05, 7.52196429e-05,
          1.27873383e-04, 1.91810090e-04, 1.88049104e-04, 2.70790712e-04,
          3.61054263e-04, 4.55078814e-04, 4.70122759e-04, 8.19894078e-04,
          9.66572377e-04, 1.67363696e-03, 2.35813577e-03, 4.03929455e-03,
          5.19015500e-03, 8.32681451e-03, 1.06022088e-02, 1.38592189e-02,
          7.49187618e-02, 7.94457912e-04, 3.99254821e-02, 8.28262120e-02,
          1.30291097e-03, 9.93072390e-05, 3.57506069e-05, 1.19168690e-05,
          0., 3.97228951e-06, 0., 0., 0., 0., 0., 0., 0., 0., 0., 0., 0.,
          0., 0., 0., 0., 0., 0., 0., 0., 0., 0., 0., 0., 0., 0.,
          3.97228951e-06, 3.97228951e-06, 7.94457901e-06, 1.58891580e-05,
          2.38337379e-05, 1.07251813e-04, 2.26420496e-04, 3.49561480e-04,
          4.44896432e-04, 5.08453057e-04, 7.78568734e-04, 1.03676762e-03,
          1.17579766e-03, 1.98217249e-03, 2.79649184e-03, 4.81044268e-03,
          6.35963539e-03, 9.62882955e-03, 1.01531716e-02, 1.34461997e-02,
          7.11397305e-02, 2.93215457e-03, 6.31277785e-02, 5.78499027e-02,
          8.30777106e-04, 1.50366890e-04, 7.51834450e-05, 1.50366895e-05,
          0., 1.87958613e-05, 0., 0., 0., 0., 0., 0., 0., 0., 0., 0., 0.,
          0., 0., 0., 0., 0., 0., 0., 0., 0., 0., 0., 0., 3.75917239e-06,
          7.51834477e-06, 7.51834477e-06, 4.13508969e-05, 5.63875874e-05,
          6.39059290e-05, 9.02201355e-05, 9.77384843e-05, 1.54126072e-04,
          1.76681104e-04, 2.14272819e-04, 2.89456279e-04, 2.74419581e-04,
          3.94713104e-04, 5.60116663e-04, 8.11981212e-04, 1.06384582e-03,
          1.57885242e-03, 2.36827857e-03, 4.46589664e-03, 5.93949249e-03,
          9.25508235e-03, 9.70843881e-02, 1.53460773e-03, 5.66095002e-02,
          6.62574396e-02, 5.34334162e-04, 3.84720588e-05, 1.70986932e-05,
          8.54934660e-06, 0., 0., 0., 0., 0., 0., 0., 0., 0., 0., 0., 0.,
          0., 0., 0., 0., 0., 0., 0., 0., 0., 0., 0., 0., 0., 0., 0., 0.,
          0., 0., 0., 1.70986932e-05, 4.27467330e-06, 9.83174832e-05,
          1.75261608e-04, 1.45338898e-04, 2.13733671e-04, 2.86403112e-04,
          5.25784795e-04, 6.62574370e-04, 9.01956053e-04, 1.26102858e-03,
          2.23137951e-03, 3.30859702e-03, 6.09140936e-03, 7.27549382e-03,
          1.11654466e-02, 9.06358957e-02, 2.49553129e-01, 1.72515325e-02,
          2.91738799e-03, 2.98435305e-04, -2.78164578e-07,
          -3.91943286e-05, -1.29556872e-08 ]
      - [ 5.38357999e-04, 2.69179000e-03, 5.38357999e-04, 4.30686399e-03,
          8.07536999e-04, 2.15343200e-03, 0., 1.34589500e-03,
          2.69179000e-04, 1.61507400e-03, 8.07536999e-04, 1.61507400e-03,
          2.69179000e-04, 5.38357999e-04, 5.38357999e-04, 8.07536999e-04,
          4.57604323e-03, 5.38357999e-04, 0., 1.07671600e-03,
          5.38357999e-04, 8.07536999e-04, 2.69179000e-04, 8.07536999e-04,
          1.61507400e-03, 5.38357999e-04, 2.69179000e-04, 1.07671600e-03,
          8.07536999e-04, 2.69179000e-04, 1.34589500e-03, 2.69179000e-04,
          2.15343200e-03, 2.69179000e-04, 0., 5.38357999e-04,
          2.69179000e-04, 1.61507400e-03, 1.88425300e-03, 8.07536999e-04,
          2.69179000e-04, 1.61507400e-03, 1.34589500e-03, 1.07671600e-03,
          2.69179000e-04, 1.07671600e-03, 5.38357999e-04, 0.,
          2.69179000e-04, 0., 0., 0., 8.07536999e-04, 1.07671600e-03,
          1.34589500e-03, 8.07536999e-04, 8.07536999e-04, 0.,
          3.49932699e-03, 8.07536999e-04, 2.69179000e-04, 2.69179000e-04,
          8.07536999e-04, 8.07536999e-04, 0., 6.19111676e-03,
          5.38357999e-04, 5.38357999e-04, 0., 5.38357999e-04,
          8.07536999e-04, 8.07536999e-04, 8.07536999e-04, 0.,
          1.61507400e-03, 0., 4.03768476e-03, 0., 8.07536999e-04, 0.,
          8.07536999e-04, 2.96096900e-03, 5.38357999e-04, 8.07536999e-04,
          0., 2.69179000e-04, 0., 3.76850599e-03, 0., 1.61507400e-03,
          5.38357999e-04, 5.38357999e-04, 3.23014800e-03, 0.,
          5.38357999e-04, 1.07671600e-03, 1.07671600e-03, 2.69179000e-04,
          1.07671600e-03, 2.69179000e-04, 5.38357999e-04, 4.30686399e-03,
          1.88425300e-03, 8.07536999e-04, 1.88425300e-03, 2.69179000e-04,
          0., 5.38357999e-04, 4.30686399e-03, 1.07671600e-03,
          1.07671600e-03, 5.38357999e-04, 1.34589500e-03, 0.,
          8.07536999e-04, 1.88425300e-03, 3.49932699e-03, 4.57604323e-03,
          0., 3.76850599e-03, 2.69179000e-04, 1.07671600e-03,
          8.07536999e-04, 5.38357999e-04, 1.07671600e-03, 2.69179000e-03,
          5.38357999e-04, 1.88425300e-03, 8.07536999e-04, 2.69179000e-04,
          3.23014800e-03, 0., 5.38357999e-04, 0., 0., 0., 1.53432032e-02,
          2.69179000e-04, 6.19111676e-03, 2.69179000e-04, 0.,
          2.69179000e-04, 0., 0., 2.96096900e-03, 1.88425300e-03,
          2.69179000e-04, 1.07671600e-03, 2.69179000e-04, 0., 0.,
          5.38357999e-04, 0., 0., 1.07671600e-03, 0., 0., 5.38357999e-04,
          0., 2.69179000e-04, 0., 2.42261100e-03, 0., 2.69179000e-04, 0.,
          0., 0., 1.34589500e-03, 1.07671600e-03, 2.69179000e-04,
          1.07671600e-03, 2.69179000e-04, 2.69179000e-04, 0.,
          5.38357999e-04, 0., 5.38357999e-04, 0., 0., 5.38357999e-04,
          2.69179000e-04, 5.38357999e-04, 0., 0., 2.69179000e-03,
          8.07536999e-04, 2.69179000e-04, 8.07536999e-04, 5.38357999e-04,
          1.07671600e-03, 1.61507400e-03, 0., 0., 0., 2.69179000e-04,
          5.38357999e-04, 1.34589500e-03, 2.42261100e-03, 2.15343200e-03,
          0., 8.07536999e-04, 0., 2.42261100e-03, 1.07671600e-03,
          3.49932699e-03, 5.38357999e-04, 8.07536999e-04, 2.69179000e-04,
          2.69179000e-04, 5.38357999e-03, 8.07536999e-04, 2.69179000e-03,
          5.38357999e-04, 5.38357999e-04, 1.61507400e-03, 1.88425300e-03,
          0., 0., 2.69179000e-04, 0., 2.69179000e-04, 2.69179000e-04,
          8.07536999e-04, 2.69179000e-04, 1.61507400e-03, 8.07536999e-04,
          0., 8.07536999e-04, 0., 1.61507400e-03, 1.34589500e-03,
          3.23014800e-03, 1.34589500e-03, 0., 5.38357999e-04,
          5.38357999e-04, 6.46029599e-03, 5.38357999e-04, 8.07536999e-04,
          1.07671600e-03, 2.69179000e-04, 2.69179000e-04, 0.,
          1.88425300e-03, 5.38357999e-04, 5.92193799e-03, 8.07536999e-04,
          1.07671600e-03, 2.69179000e-04, 1.34589500e-03, 0.,
          8.07536999e-04, 0., 0., 5.38357999e-04, 3.23014800e-03,
          1.61507400e-03, 2.69179000e-04, 1.34589500e-03, 0.,
          1.88425300e-03, 5.38357999e-04, 1.61507400e-03, 0., 0.,
          1.34589500e-03, 0., 1.61507400e-03, 0., 2.69179000e-04,
          2.69179000e-04, 8.07536999e-04, 0., 0., 1.61507400e-03,
          2.69179000e-04, 2.69179000e-04, 2.69179000e-04, 0.,
          1.07671600e-03, 2.69179000e-04, 8.07536999e-04, 1.07671600e-03,
          0., 0., 1.07671600e-03, 2.69179000e-04, 0., 0., 4.30686399e-03,
          2.15343200e-03, 0., 8.07536999e-04, 5.38357999e-04,
          2.69179000e-04, 1.07671600e-03, 5.38357999e-04, 2.69179000e-04,
          1.61507400e-03, 2.69179000e-04, 0., 8.07536999e-04,
          2.69179000e-04, 2.69179000e-04, 0., 2.15343200e-03,
          5.38357999e-04, 2.69179000e-04, 2.69179000e-04, 0.,
          1.07671600e-03, 1.07671600e-03, 2.69179000e-04, 0.,
          8.07536999e-04, 1.34589500e-03, 0., 2.69179000e-04,
          2.69179000e-04, 5.38357999e-04, 1.34589500e-03, 0.,
          1.07671600e-03, 5.38357999e-04, 1.07671600e-03, 1.07671600e-03,
          0., 8.07536999e-04, 2.69179000e-04, 5.38357999e-04,
          2.42261100e-03, 0., 0., 0., 2.69179000e-04, 0., 0., 0., 0.,
          1.34589500e-03, 1.07671600e-03, 0., 1.07671600e-03,
          1.07671600e-03, 1.88425300e-03, 0., 2.15343200e-03,
          1.34589500e-03, 1.07671600e-03, 4.03768476e-03, 3.76850599e-03,
          5.38357999e-04, 1.07671600e-03, 0., 0., 8.07536999e-04, 0.,
          5.38357999e-04, 8.07536999e-04, 5.38357999e-04, 1.07671600e-03,
          1.34589500e-03, 1.07671600e-03, 1.34589500e-03, 5.38357999e-04,
          3.76850599e-03, 2.69179000e-04, 3.23014800e-03, 2.69179000e-04,
          5.38357999e-04, 1.88425300e-03, 2.69179000e-04, 1.88425300e-03,
          2.69179000e-04, 5.38357999e-04, 2.42261100e-03, 2.15343200e-03,
          0., 8.07536999e-04, 5.38357999e-04, 5.38357999e-04, 0., 0.,
          2.69179000e-04, 8.07536999e-04, 0., 2.96096900e-03, 0.,
          1.34589500e-03, 5.38357999e-04, 1.07671600e-03, 5.38357999e-04,
          0., 5.38357999e-03, 8.07536999e-04, 1.34589500e-03,
          8.07536999e-04, 0., 2.15343200e-03, 0., 1.34589500e-03,
          5.38357999e-04, 8.07536999e-04, 2.69179000e-04, 8.07536999e-04,
          5.38357999e-04, 3.23014800e-03, 5.65275922e-03, 1.34589500e-03,
          1.34589500e-03, 0., 0., 2.69179000e-04, 5.38357999e-04, 0.,
          8.07536999e-04, 2.69179000e-04, 8.07536999e-04, 5.38357999e-04,
          6.72947522e-03, 1.61507400e-03, 0., 2.42261100e-03,
          1.07671600e-03, 1.34589500e-03, 0., 0., 5.38357999e-04,
          8.07536999e-04, 2.69179000e-04, 2.15343200e-03, 2.69179000e-04,
          5.38357999e-04, 3.49932699e-03, 5.38357999e-04, 8.07536999e-04,
          0., 2.69179000e-04, 0., 2.96096900e-03, 5.38357999e-04,
          5.38357999e-04, 1.61507400e-03, 1.07671600e-03, 0.,
          5.38357999e-04, 4.84522199e-03, 2.69179000e-04, 2.69179000e-04,
          1.61507400e-03, 5.38357999e-04, 0., 3.76850599e-03,
          3.49932699e-03, 4.84522199e-03, 2.69179000e-04, 5.38357999e-04,
          0., 1.07671600e-03, 8.07536999e-04, 0., 0., 1.88425300e-03,
          1.07671600e-03, 4.84522199e-03, 5.38357999e-04, 5.38357999e-04,
          1.07671600e-03, 1.61507400e-03, 2.69179000e-03, 1.61507400e-03,
          1.34589500e-03, 0., 0., 1.07671600e-03, 8.07536999e-04,
          8.07536999e-04, 8.07536999e-04, 5.38357999e-04, 0.,
          2.69179000e-04, 1.61507400e-03, 5.38357999e-04, 8.07536999e-04,
          1.07671600e-03, 8.07536999e-04, 0., 8.07536999e-04,
          5.38357999e-04, 2.69179000e-04, 0., 2.69179000e-03, 0.,
          2.69179000e-04, 5.38357999e-04, 0., 3.49932699e-03,
          5.38357999e-04, 8.07536999e-04, 0., 1.07671600e-03,
          2.69179000e-04, 8.07536999e-04, 1.07671600e-03, 1.07671600e-03,
          2.69179000e-04, 1.07671600e-03, 0., 1.61507400e-03, 0.,
          6.19111676e-03, 1.45356655e-02, 0., 1.88425300e-03,
          1.07671600e-03, 1.07671600e-03, 8.07536999e-04, 2.69179000e-04,
          0., 3.23014800e-03, 5.38357999e-04, 0., 1.07671600e-03,
          5.38357999e-04, 2.69179000e-04, 2.69179000e-04, 2.69179000e-04,
          5.38357999e-04, 2.69179000e-04, 5.38357999e-04, 0., 0.,
          1.88425300e-03, 0., 0., 1.34589500e-03, 5.38357999e-03,
          2.69179000e-04, 0., 0., 0., 2.69179000e-04, 1.88425300e-03,
          8.07536999e-04, 0., 8.07536999e-04, 0., 1.07671600e-03, 0.,
          1.34589500e-03, 0., 2.69179000e-04, 0., 0., 0., 1.07671600e-03,
          2.42261100e-03, 2.96096900e-03, 8.07536999e-04, 8.07536999e-04,
          5.38357999e-04, 5.38357999e-04, 0., 0., 5.65275922e-03,
          1.34589500e-03, 0., 5.38357999e-04, 1.88425300e-03,
          2.69179000e-04, 1.61507400e-03, 5.38357999e-04, 0.,
          8.07536999e-04, 1.07671600e-03, 1.34589500e-03, 0.,
          1.07671600e-03, 0., 1.88425300e-03, 8.07536999e-04, 0.,
          8.07536999e-04, 0., 8.07536999e-04, 2.69179000e-03, 0., 0.,
          1.34589500e-03, 1.61507400e-03, 0., 0., 5.38357999e-04,
          1.61507400e-03, 2.42261100e-03, 1.34589500e-03, 0.,
          1.88425300e-03, 8.07536999e-04, 0., 2.69179000e-04,
          4.84522199e-03, 2.69179000e-04, 0., 5.38357999e-04,
          1.61507400e-03, 0., 5.38357999e-04, 1.07671600e-03,
          2.15343200e-03, 1.88425300e-03, 8.07536999e-04, 0.,
          8.07536999e-04, 5.38357999e-04, 8.07536999e-04, 0.,
          5.38357999e-04, 5.38357999e-04, 0., 2.69179000e-04,
          2.69179000e-04, 5.38357999e-04, 5.38357999e-04, 8.07536999e-04,
          2.15343200e-03, 2.69179000e-04, 0., 1.34589500e-03,
          6.72947522e-03, 2.69179000e-04, 5.38357999e-04, 2.96096900e-03,
          0., 0., 2.96096900e-03, 0., 2.69179000e-04, 2.15343200e-03,
          3.49932699e-03, 2.69179000e-04, 2.69179000e-04, 2.69179000e-04,
          5.38357999e-04, 1.07671600e-03, 2.69179000e-04, 5.38357999e-04,
          2.69179000e-04, 5.38357999e-04, 8.07536999e-04, 1.07671600e-03,
          0., 1.34589500e-03, 5.38357999e-04, 0., 5.38357999e-04, 0.,
          1.07671600e-03, 0., 3.76850599e-03, 0., 2.69179000e-04,
          2.69179000e-04, 0., 5.38357999e-04, 2.69179000e-03,
          2.15343200e-03, 5.38357999e-04, 0., 5.38357999e-04, 0.,
          1.88425300e-03, 0., 0., 8.07536999e-04, 1.07671600e-03,
          8.07536999e-04, 0., 2.42261100e-03, 0., 2.69179000e-04,
          2.15343200e-03, 0., 4.30686399e-03, 5.38357999e-04, 0.,
          5.38357999e-04, 0., 2.69179000e-04, 3.76850599e-03,
          1.61507400e-03, 5.38357999e-04, 1.88425300e-03, 2.69179000e-04,
          8.07536999e-04, 2.69179000e-04, 8.07536999e-04, 0., 0.,
          2.69179000e-04, 7.53701199e-03, 1.07671600e-03, 0., 0., 0.,
          1.34589500e-03, 8.07536999e-04, 1.07671600e-03, 1.34589500e-03,
          8.07536999e-04, 0., 2.69179000e-03, 0., 2.15343200e-03, 0., 0.,
          1.07671600e-03, 2.69179000e-04, 5.38357999e-04, 2.42261100e-03,
          4.84522199e-03, 5.38357999e-04, 4.30686399e-03, 5.65275922e-03,
          2.69179000e-03, 0., 1.34589500e-03, 4.84522199e-03, 0., 0.,
          1.61507400e-03, 2.15343200e-03, 2.69179000e-04, 5.38357999e-04,
          1.07671600e-03, 2.15343200e-03, 1.88425300e-03, 2.69179000e-04,
          0., 2.69179000e-04, 1.07671600e-03, 1.34589500e-03, 0.,
          1.34589500e-03, 2.69179000e-04, 1.61507400e-03, 0.,
          1.61507400e-03, 4.57604323e-03, 4.84522199e-03, 0.,
          2.69179000e-04, 1.61507400e-03, 0., 7.80619122e-03,
          5.38357999e-04, 1.88425300e-03, 1.88425300e-03, 5.38357999e-04,
          0., 2.69179000e-04, 1.34589500e-03, 2.69179000e-04, 0.,
          1.07671600e-03, 8.07536999e-04, 0., 3.49932699e-03, 0.,
          2.69179000e-04, 0., 2.69179000e-04, 1.61507400e-03,
          5.38357999e-04, 1.07671600e-03, 0., 5.38357999e-04,
          1.88425300e-03, 0., 0., 1.34589500e-03, 1.07671600e-03,
          4.03768476e-03, 3.49932699e-03, 2.69179000e-04, 5.38357999e-04,
          1.61507400e-03, 0., 4.03768476e-03, 2.69179000e-04, 0.,
          5.38357999e-04, 0., 0., 0., 8.07536999e-04, 0., 2.69179000e-04,
          5.38357999e-04, 2.69179000e-04, 3.76850599e-03, 0.,
          2.69179000e-04, 2.69179000e-04, 0., 2.69179000e-04,
          5.38357999e-04, 0., 1.07671600e-03, 0., 2.69179000e-04, 0.,
          5.38357999e-04, 1.61507400e-03, 2.69179000e-04, 0.,
          2.69179000e-04, 2.42261100e-03, 1.07671600e-03, 0., 0.,
          2.15343200e-03, 0., 2.69179000e-04, 0., 8.07536952e-03,
          8.07536999e-04, 5.38357999e-04, 2.69179000e-04, 3.23014800e-03,
          1.61507400e-03, 0., 8.07536999e-04, 1.61507400e-03,
          5.38357999e-04, 2.69179000e-04, 2.69179000e-04, 0., 0.,
          1.07671600e-03, 0., 0., 2.42261100e-03, 2.96096900e-03,
          2.69179000e-04, 1.88425300e-03, 1.07671600e-03, 2.69179000e-04,
          2.96096900e-03, 5.38357999e-04, 3.23014800e-03, 5.38357999e-04,
          1.07671600e-03, 8.07536999e-04, 0., 2.69179000e-04, 0., 0., 0.,
          2.69179000e-04, 8.07536999e-04, 1.07671600e-03, 1.34589500e-03,
          8.07536999e-04, 2.69179000e-04, 8.07536999e-04, 5.38357999e-04,
          0., 0., 0., 2.69179000e-03, 8.07536999e-04, 0., 8.07536999e-04,
          2.69179000e-04, 0., 2.69179000e-04, 0., 3.76850599e-03,
          2.15343200e-03, 2.96096900e-03, 5.38357999e-04, 1.07671600e-03,
          4.57604323e-03, 0., 0., 1.61507400e-03, 0., 5.38357999e-04, 0.,
          1.88425300e-03, 4.57604323e-03, 5.38357999e-04, 8.07536999e-04,
          2.69179000e-03, 3.49932699e-03, 2.69179000e-03, 1.07671600e-03,
          0., 1.61507400e-03, 0., 2.69179000e-04, 5.38357999e-04,
          2.69179000e-04, 0., 1.34589500e-03, 1.61507400e-03,
          3.23014800e-03, 2.69179000e-04, 8.07536999e-04, 1.34589500e-03,
          0., 1.34589500e-03, 1.07671600e-03, 1.07671600e-03,
          2.15343200e-03, 0., 0., 4.57604323e-03, 8.07536999e-04,
          2.15343200e-03, 2.42261100e-03, 2.42261100e-03, 2.69179000e-04,
          0., 0., 0., 0., 8.07536999e-04, 2.69179000e-04, 0.,
          1.61507400e-03, 8.07536999e-04, 2.69179000e-04, 8.07536999e-04,
          2.69179000e-04, 2.69179000e-04, 0., 1.88425300e-03,
          8.07536999e-04, 2.69179000e-04, 2.69179000e-04, 0.,
          2.69179000e-04, 1.61507400e-03, 0., 4.03768476e-03,
          8.07536999e-04, 2.69179000e-04, 4.84522199e-03, 5.38357999e-04,
          1.34589500e-03, 2.69179000e-04, 0., 5.38357999e-04,
          2.96096900e-03, 0., 1.34589500e-03, 0., 2.69179000e-04,
          1.07671600e-03, 5.38357999e-04, 0., 8.07536999e-04,
          8.07536999e-04, 2.69179000e-03, 1.07671600e-03, 2.96096900e-03,
          5.38357999e-04, 8.07536999e-04, 2.15343200e-03, 2.96096900e-03,
          2.69179000e-04, 5.38357999e-04, 5.38357999e-04, 0.,
          2.42261100e-03, 0., 0., 0., 1.80349927e-02, 8.07536999e-04,
          5.38357999e-04, 0., 0., 2.42261100e-03, 5.38357999e-04, 0., 0.,
          2.69179000e-04, 8.07536999e-04, 5.38357999e-04, 2.42261100e-03,
          1.34589500e-03, 0., 2.69179000e-04, 2.69179000e-04,
          1.34589500e-03, 1.34589500e-03, 2.69179000e-04, 1.42502773e-03,
          2.96221040e-02, 6.82034120e-02, 2.55977195e-02, 1.12154958e-04,
          2.63894017e-05, 9.89602540e-06, 0., 3.29867521e-06, 0., 0., 0.,
          0., 0., 0., 0., 0., 0., 0., 0., 0., 0., 0., 0., 0., 0., 0., 0.,
          0., 3.29867521e-06, 3.29867521e-06, 6.59735042e-06,
          6.59735042e-06, 0., 1.64933754e-05, 2.63894017e-05,
          7.91682032e-05, 5.93761542e-05, 1.12154958e-04, 8.90642332e-05,
          1.64933765e-04, 2.01219184e-04, 2.67192692e-04, 4.15633083e-04,
          5.80566819e-04, 1.26669125e-03, 2.37834477e-03, 5.31746447e-03,
          8.80746264e-03, 1.54608907e-02, 1.52068930e-02, 1.46791050e-02,
          9.57935303e-03, 9.00868233e-03, 4.12631296e-02, 1.90792396e-03,
          2.80383285e-02, 8.13362673e-02, 1.36913927e-02, 2.60912675e-05,
          0., 0., 0., 0., 0., 0., 0., 0., 0., 0., 0., 0., 0., 0., 0., 0.,
          0., 0., 0., 0., 0., 0., 0., 0., 0., 0., 0., 3.26140844e-06,
          1.63070417e-05, 1.30456338e-05, 2.93526755e-05, 7.17509829e-05,
          1.01103658e-04, 1.92423104e-04, 3.26140842e-04, 6.75111543e-04,
          1.00451382e-03, 1.30130199e-03, 1.80029741e-03, 2.31559994e-03,
          3.77671095e-03, 4.64098435e-03, 7.29577057e-03, 9.88532882e-03,
          1.32967625e-02, 1.34402644e-02, 1.31989196e-02, 9.09932982e-03,
          7.20118964e-03, 3.53145301e-02, 3.11918696e-03, 3.42280120e-02,
          8.69419351e-02, 6.07892638e-04, 7.30799875e-05, 2.32527236e-05,
          0., 6.64363552e-06, 0., 0., 0., 0., 0., 0., 0., 0., 0., 0., 0.,
          0., 0., 0., 0., 0., 0., 0., 0., 0., 0., 0., 0., 6.64363552e-06,
          1.66090886e-05, 1.66090886e-05, 2.32527236e-05, 2.65745421e-05,
          6.64363542e-05, 6.64363542e-05, 7.64018114e-05, 1.16263618e-04,
          1.02976352e-04, 1.12941801e-04, 1.89343613e-04, 2.15918160e-04,
          2.92319950e-04, 5.61387220e-04, 8.20488960e-04, 1.55461067e-03,
          2.43157055e-03, 5.39131043e-03, 9.00876988e-03, 1.70342810e-02,
          1.68183632e-02, 1.50710875e-02, 5.49794063e-02, 2.55825673e-03,
          3.40857878e-02, 8.54663178e-02, 2.86644045e-03, 1.32552159e-05,
          6.62760795e-06, 0., 0., 0., 0., 0., 0., 0., 0., 0., 0., 0., 0.,
          0., 0., 0., 0., 0., 0., 3.31380397e-06, 0., 0., 0., 0., 0., 0.,
          0., 0., 0., 3.31380397e-06, 3.31380397e-06, 1.65690199e-05,
          9.94141192e-06, 3.64518419e-05, 5.30208636e-05, 1.69004008e-04,
          2.48535303e-04, 3.91028880e-04, 6.26308960e-04, 1.12006569e-03,
          1.98496855e-03, 2.94265803e-03, 4.71554324e-03, 5.90188475e-03,
          8.32096208e-03, 9.95135307e-03, 1.40737258e-02, 1.34109650e-02,
          1.41168050e-02, 4.69035804e-02, 2.23105147e-01, 8.32558516e-03,
          2.80103739e-03, 2.67014140e-04, -2.29957337e-07,
          -2.42597725e-05, -2.10592450e-08 ]
      - [ 7.93860760e-04, 1.32310134e-03, 5.29240526e-04, 3.44006345e-03,
          1.85234181e-03, 2.64620269e-03, 0., 5.29240526e-04,
          2.64620263e-04, 2.11696210e-03, 7.93860760e-04, 1.05848105e-03,
          0., 5.29240526e-04, 1.05848105e-03, 5.29240526e-04,
          3.96930380e-03, 0., 0., 1.58772152e-03, 2.64620263e-04,
          1.32310134e-03, 2.11696210e-03, 2.64620263e-04, 1.32310134e-03,
          7.93860760e-04, 0., 1.05848105e-03, 7.93860760e-04,
          7.93860760e-04, 7.93860760e-04, 0., 1.32310134e-03,
          2.64620263e-04, 0., 7.93860760e-04, 2.64620263e-04, 0.,
          3.17544304e-03, 1.32310134e-03, 1.58772152e-03, 1.58772152e-03,
          1.05848105e-03, 1.05848105e-03, 1.05848105e-03, 7.93860760e-04,
          0., 2.64620263e-04, 0., 0., 0., 0., 5.29240526e-04,
          1.58772152e-03, 2.64620263e-04, 1.05848105e-03, 0., 0.,
          3.96930380e-03, 1.05848105e-03, 0., 5.29240526e-04,
          5.29240526e-04, 7.93860760e-04, 0., 7.14474730e-03,
          1.05848105e-03, 5.29240526e-04, 0., 0., 7.93860760e-04,
          5.29240526e-04, 5.29240526e-04, 0., 1.32310134e-03, 0.,
          3.44006345e-03, 2.64620263e-04, 2.64620263e-04, 0.,
          5.29240526e-04, 3.44006345e-03, 2.64620263e-04, 7.93860760e-04,
          1.32310134e-03, 0., 2.64620263e-04, 2.11696210e-03, 0.,
          5.29240526e-04, 5.29240526e-04, 1.05848105e-03, 1.85234181e-03,
          7.93860760e-04, 0., 2.64620263e-04, 7.93860760e-04,
          5.29240526e-04, 5.29240526e-04, 1.05848105e-03, 5.29240526e-04,
          4.49854461e-03, 2.64620269e-03, 1.05848105e-03, 5.29240526e-04,
          5.29240526e-04, 0., 0., 3.44006345e-03, 2.38158228e-03,
          1.05848105e-03, 5.29240526e-04, 1.32310134e-03, 0.,
          1.85234181e-03, 2.38158228e-03, 3.70468362e-03, 6.08626613e-03,
          0., 2.38158228e-03, 2.64620263e-04, 1.58772152e-03,
          1.05848105e-03, 7.93860760e-04, 5.29240526e-04, 1.32310134e-03,
          1.32310134e-03, 7.93860760e-04, 2.64620263e-04, 2.64620263e-04,
          5.29240537e-03, 7.93860760e-04, 2.64620263e-04, 0., 0.,
          5.29240526e-04, 1.48187345e-02, 7.93860760e-04, 7.40936724e-03,
          0., 0., 1.05848105e-03, 0., 0., 2.64620269e-03, 1.05848105e-03,
          0., 2.64620263e-04, 5.29240526e-04, 2.64620263e-04,
          2.64620263e-04, 0., 0., 5.29240526e-04, 5.29240526e-04,
          2.64620263e-04, 0., 1.58772152e-03, 0., 0., 0., 2.64620269e-03,
          0., 7.93860760e-04, 5.29240526e-04, 0., 0., 1.32310134e-03,
          1.05848105e-03, 2.64620263e-04, 2.64620263e-04, 0., 0., 0.,
          1.05848105e-03, 0., 0., 2.64620263e-04, 2.64620263e-04,
          2.64620263e-04, 5.29240526e-04, 7.93860760e-04, 0.,
          7.93860760e-04, 3.17544304e-03, 2.64620263e-04, 2.64620263e-04,
          1.05848105e-03, 7.93860760e-04, 7.93860760e-04, 7.93860760e-04,
          0., 0., 2.64620263e-04, 5.29240526e-04, 5.29240526e-04,
          1.32310134e-03, 3.96930380e-03, 2.64620269e-03, 0.,
          1.32310134e-03, 2.64620263e-04, 1.32310134e-03, 2.64620263e-04,
          2.11696210e-03, 1.05848105e-03, 2.38158228e-03, 0.,
          5.29240526e-04, 2.91082286e-03, 0., 1.85234181e-03, 0.,
          1.58772152e-03, 1.58772152e-03, 2.91082286e-03, 0.,
          7.93860760e-04, 1.85234181e-03, 2.64620263e-04, 0.,
          2.64620263e-04, 1.58772152e-03, 1.32310134e-03, 7.93860760e-04,
          0., 2.64620263e-04, 1.05848105e-03, 2.64620263e-04,
          3.70468362e-03, 1.05848105e-03, 3.70468362e-03, 1.58772152e-03,
          5.29240526e-04, 7.93860760e-04, 7.93860760e-04, 6.61550649e-03,
          2.64620263e-04, 2.64620263e-04, 1.58772152e-03, 2.64620263e-04,
          5.29240526e-04, 5.29240526e-04, 7.93860760e-04, 5.29240526e-04,
          5.29240537e-03, 2.64620263e-04, 2.11696210e-03, 1.05848105e-03,
          7.93860760e-04, 0., 5.29240526e-04, 0., 0., 5.29240526e-04,
          3.44006345e-03, 5.29240526e-04, 5.29240526e-04, 1.32310134e-03,
          0., 1.85234181e-03, 2.64620263e-04, 1.05848105e-03, 0., 0.,
          1.32310134e-03, 5.29240526e-04, 7.93860760e-04, 0.,
          7.93860760e-04, 2.64620263e-04, 0., 2.64620263e-04, 0.,
          1.58772152e-03, 0., 5.29240526e-04, 0., 0., 1.05848105e-03,
          2.64620263e-04, 2.64620263e-04, 2.64620263e-04, 0., 0.,
          7.93860760e-04, 2.64620263e-04, 0., 0., 7.14474730e-03,
          2.64620263e-04, 0., 1.05848105e-03, 5.29240526e-04,
          2.64620263e-04, 0., 7.93860760e-04, 7.93860760e-04,
          2.11696210e-03, 5.29240526e-04, 2.64620263e-04, 2.64620263e-04,
          2.64620263e-04, 0., 0., 1.32310134e-03, 7.93860760e-04,
          2.64620263e-04, 2.64620263e-04, 5.29240526e-04, 0.,
          5.29240526e-04, 0., 0., 0., 1.05848105e-03, 0., 0.,
          1.05848105e-03, 1.05848105e-03, 1.85234181e-03, 0.,
          1.05848105e-03, 7.93860760e-04, 0., 7.93860760e-04, 0.,
          7.93860760e-04, 5.29240526e-04, 5.29240526e-04, 1.58772152e-03,
          2.64620263e-04, 2.64620263e-04, 0., 5.29240526e-04, 0., 0., 0.,
          0., 7.93860760e-04, 5.29240526e-04, 0., 7.93860760e-04,
          5.29240526e-04, 2.11696210e-03, 0., 1.85234181e-03,
          1.05848105e-03, 0., 3.17544304e-03, 4.76316456e-03,
          5.29240526e-04, 5.29240526e-04, 0., 0., 2.38158228e-03,
          2.64620263e-04, 1.05848105e-03, 1.58772152e-03, 0.,
          5.29240526e-04, 1.58772152e-03, 5.29240526e-04, 1.32310134e-03,
          0., 5.29240537e-03, 7.93860760e-04, 2.11696210e-03,
          1.58772152e-03, 5.29240526e-04, 1.05848105e-03, 2.64620263e-04,
          1.58772152e-03, 5.29240526e-04, 2.64620263e-04, 5.29240526e-04,
          2.64620269e-03, 0., 5.29240526e-04, 7.93860760e-04, 0., 0.,
          2.64620263e-04, 5.29240526e-04, 0., 0., 2.11696210e-03, 0.,
          7.93860760e-04, 1.32310134e-03, 1.32310134e-03, 0.,
          2.64620263e-04, 5.82164573e-03, 1.05848105e-03, 7.93860760e-04,
          2.64620263e-04, 0., 1.58772152e-03, 0., 2.64620269e-03,
          5.29240526e-04, 7.93860760e-04, 5.29240526e-04, 1.85234181e-03,
          1.05848105e-03, 3.44006345e-03, 4.49854461e-03, 1.05848105e-03,
          1.58772152e-03, 0., 1.05848105e-03, 5.29240526e-04,
          1.05848105e-03, 5.29240526e-04, 5.29240526e-04, 5.29240526e-04,
          7.93860760e-04, 0., 5.55702532e-03, 1.58772152e-03, 0.,
          4.23392421e-03, 5.29240526e-04, 0., 0., 0., 7.93860760e-04,
          5.29240526e-04, 5.29240526e-04, 1.05848105e-03, 0.,
          1.05848105e-03, 3.70468362e-03, 2.64620263e-04, 1.05848105e-03,
          5.29240526e-04, 5.29240526e-04, 1.05848105e-03, 4.23392421e-03,
          2.64620263e-04, 0., 3.17544304e-03, 0., 1.05848105e-03,
          2.64620263e-04, 6.35088608e-03, 2.64620263e-04, 0.,
          5.29240526e-04, 2.64620263e-04, 0., 2.91082286e-03,
          3.17544304e-03, 4.49854461e-03, 1.05848105e-03, 7.93860760e-04,
          2.64620263e-04, 7.93860760e-04, 1.05848105e-03, 0.,
          1.05848105e-03, 2.11696210e-03, 1.05848105e-03, 3.17544304e-03,
          3.96930380e-03, 2.64620263e-04, 1.58772152e-03, 2.11696210e-03,
          2.64620269e-03, 1.32310134e-03, 1.85234181e-03, 0., 0.,
          1.05848105e-03, 7.93860760e-04, 1.58772152e-03, 5.29240526e-04,
          2.64620263e-04, 0., 0., 2.64620263e-04, 5.29240526e-04,
          7.93860760e-04, 1.32310134e-03, 1.58772152e-03, 0.,
          2.64620263e-04, 1.32310134e-03, 5.29240526e-04, 5.29240526e-04,
          2.11696210e-03, 0., 1.58772152e-03, 7.93860760e-04, 0.,
          2.64620269e-03, 0., 7.93860760e-04, 0., 1.05848105e-03, 0.,
          1.05848105e-03, 5.29240526e-04, 1.32310134e-03, 2.64620263e-04,
          7.93860760e-04, 2.64620263e-04, 1.32310134e-03, 0.,
          4.49854461e-03, 1.40248742e-02, 2.64620263e-04, 1.32310134e-03,
          2.64620263e-04, 7.93860760e-04, 7.93860760e-04, 2.64620263e-04,
          0., 1.85234181e-03, 7.93860760e-04, 0., 1.05848105e-03,
          2.64620263e-04, 2.64620263e-04, 1.05848105e-03, 2.64620263e-04,
          0., 0., 5.29240526e-04, 2.64620263e-04, 0., 1.05848105e-03,
          2.64620263e-04, 5.29240526e-04, 7.93860760e-04, 6.35088608e-03,
          1.05848105e-03, 0., 2.64620263e-04, 1.32310134e-03, 0.,
          7.93860760e-04, 5.29240526e-04, 5.29240526e-04, 0., 0.,
          2.11696210e-03, 7.93860760e-04, 2.11696210e-03, 0.,
          2.64620263e-04, 0., 0., 5.29240526e-04, 5.29240526e-04,
          2.91082286e-03, 2.64620269e-03, 0., 0., 1.05848105e-03,
          1.32310134e-03, 0., 0., 5.82164573e-03, 1.32310134e-03, 0.,
          2.64620263e-04, 2.38158228e-03, 1.85234181e-03, 2.38158228e-03,
          2.64620263e-04, 0., 2.64620263e-04, 1.32310134e-03,
          7.93860760e-04, 0., 1.05848105e-03, 7.93860760e-04,
          3.70468362e-03, 5.29240526e-04, 2.64620263e-04, 5.29240526e-04,
          2.64620263e-04, 7.93860760e-04, 4.76316456e-03, 0.,
          2.64620263e-04, 1.05848105e-03, 1.58772152e-03, 0.,
          2.64620263e-04, 2.64620263e-04, 1.32310134e-03, 2.11696210e-03,
          7.93860760e-04, 0., 1.32310134e-03, 5.29240526e-04, 0.,
          5.29240526e-04, 3.96930380e-03, 2.64620263e-04, 1.32310134e-03,
          5.29240526e-04, 1.85234181e-03, 0., 7.93860760e-04,
          1.85234181e-03, 7.93860760e-04, 1.58772152e-03, 2.64620263e-04,
          0., 2.64620263e-04, 1.05848105e-03, 5.29240526e-04, 0.,
          1.58772152e-03, 7.93860760e-04, 5.29240526e-04, 0.,
          5.29240526e-04, 7.93860760e-04, 2.64620263e-04, 5.29240526e-04,
          3.70468362e-03, 5.29240526e-04, 0., 1.32310134e-03,
          6.35088608e-03, 7.93860760e-04, 1.05848105e-03, 2.38158228e-03,
          0., 2.64620263e-04, 3.44006345e-03, 2.64620263e-04,
          5.29240526e-04, 1.85234181e-03, 2.64620269e-03, 1.05848105e-03,
          1.32310134e-03, 1.05848105e-03, 5.29240526e-04, 2.64620269e-03,
          2.64620263e-04, 5.29240526e-04, 0., 7.93860760e-04,
          5.29240526e-04, 1.58772152e-03, 0., 1.85234181e-03,
          7.93860760e-04, 0., 5.29240526e-04, 0., 0., 0., 4.49854461e-03,
          1.05848105e-03, 0., 0., 0., 2.64620263e-04, 3.44006345e-03,
          1.58772152e-03, 0., 0., 5.29240526e-04, 0., 1.05848105e-03, 0.,
          0., 2.11696210e-03, 2.64620263e-04, 0., 7.93860760e-04,
          3.17544304e-03, 2.64620263e-04, 5.29240526e-04, 1.58772152e-03,
          0., 1.85234181e-03, 7.93860760e-04, 2.64620263e-04,
          2.64620269e-03, 1.05848105e-03, 7.93860760e-04, 3.17544304e-03,
          1.32310134e-03, 2.64620263e-04, 3.17544304e-03, 1.58772152e-03,
          1.05848105e-03, 2.64620263e-04, 0., 2.64620263e-04, 0.,
          5.29240526e-04, 4.49854461e-03, 1.32310134e-03, 0., 0.,
          7.93860760e-04, 0., 1.85234181e-03, 0., 7.93860760e-04,
          7.93860760e-04, 0., 2.38158228e-03, 5.29240526e-04,
          1.58772152e-03, 0., 0., 7.93860760e-04, 2.64620263e-04,
          1.05848105e-03, 1.58772152e-03, 5.02778497e-03, 2.64620263e-04,
          5.82164573e-03, 6.61550649e-03, 2.64620263e-04, 5.29240526e-04,
          1.58772152e-03, 5.29240537e-03, 2.64620263e-04, 0.,
          1.05848105e-03, 2.64620269e-03, 0., 5.29240526e-04, 0.,
          1.85234181e-03, 5.29240526e-04, 5.29240526e-04, 2.64620263e-04,
          2.64620263e-04, 7.93860760e-04, 1.32310134e-03, 0.,
          1.85234181e-03, 0., 1.58772152e-03, 0., 7.93860760e-04,
          4.76316456e-03, 4.23392421e-03, 0., 7.93860760e-04,
          2.11696210e-03, 0., 4.76316456e-03, 2.64620263e-04, 0.,
          5.29240526e-04, 0., 5.29240526e-04, 5.29240526e-04,
          1.05848105e-03, 1.05848105e-03, 1.32310134e-03, 2.11696210e-03,
          1.05848105e-03, 2.64620263e-04, 1.85234181e-03, 5.29240526e-04,
          2.64620263e-04, 7.93860760e-04, 1.58772152e-03, 1.32310134e-03,
          0., 1.58772152e-03, 7.93860760e-04, 2.64620263e-04,
          1.32310134e-03, 0., 2.64620263e-04, 1.85234181e-03,
          3.70468362e-03, 1.32310134e-03, 2.91082286e-03, 2.64620263e-04,
          2.64620263e-04, 1.58772152e-03, 0., 5.02778497e-03, 0.,
          2.64620263e-04, 0., 0., 0., 0., 1.85234181e-03, 2.64620263e-04,
          1.32310134e-03, 0., 5.29240526e-04, 4.49854461e-03, 0., 0.,
          2.64620263e-04, 0., 0., 1.05848105e-03, 2.64620263e-04,
          5.29240526e-04, 0., 2.64620263e-04, 0., 1.32310134e-03,
          1.32310134e-03, 2.64620263e-04, 0., 2.64620263e-04,
          5.29240526e-04, 1.85234181e-03, 0., 0., 1.85234181e-03, 0.,
          7.93860760e-04, 0., 7.40936724e-03, 1.85234181e-03,
          7.93860760e-04, 7.93860760e-04, 3.44006345e-03, 2.38158228e-03,
          0., 1.05848105e-03, 1.05848105e-03, 2.64620263e-04, 0.,
          5.29240526e-04, 5.29240526e-04, 0., 1.05848105e-03, 0.,
          2.64620263e-04, 2.38158228e-03, 2.38158228e-03, 2.64620263e-04,
          2.64620263e-04, 5.29240526e-04, 0., 2.91082286e-03,
          1.32310134e-03, 2.38158228e-03, 5.29240526e-04, 1.58772152e-03,
          1.32310134e-03, 0., 7.93860760e-04, 2.64620263e-04,
          1.05848105e-03, 0., 0., 7.93860760e-04, 0., 1.05848105e-03,
          1.58772152e-03, 1.32310134e-03, 1.05848105e-03, 0.,
          2.64620263e-04, 0., 0., 1.58772152e-03, 1.32310134e-03,
          2.64620263e-04, 2.64620263e-04, 5.29240526e-04, 0., 0., 0.,
          2.64620269e-03, 1.05848105e-03, 3.44006345e-03, 2.64620263e-04,
          7.93860760e-04, 3.17544304e-03, 0., 2.64620263e-04,
          2.11696210e-03, 5.29240526e-04, 2.64620263e-04, 0.,
          2.64620263e-04, 3.70468362e-03, 0., 2.64620263e-04,
          1.05848105e-03, 3.70468362e-03, 1.85234181e-03, 5.29240526e-04,
          7.93860760e-04, 5.29240526e-04, 0., 7.93860760e-04,
          1.05848105e-03, 7.93860760e-04, 0., 7.93860760e-04,
          1.85234181e-03, 2.91082286e-03, 2.64620263e-04, 1.05848105e-03,
          1.05848105e-03, 2.64620263e-04, 1.58772152e-03, 7.93860760e-04,
          7.93860760e-04, 2.38158228e-03, 0., 2.64620263e-04,
          1.85234181e-03, 2.64620263e-04, 1.32310134e-03, 1.32310134e-03,
          2.11696210e-03, 2.64620263e-04, 0., 5.29240526e-04, 0., 0.,
          2.64620263e-04, 2.64620263e-04, 1.05848105e-03, 7.93860760e-04,
          7.93860760e-04, 0., 7.93860760e-04, 1.05848105e-03,
          5.29240526e-04, 0., 1.32310134e-03, 5.29240526e-04,
          7.93860760e-04, 2.64620263e-04, 2.64620263e-04, 7.93860760e-04,
          1.05848105e-03, 5.29240526e-04, 3.96930380e-03, 5.29240526e-04,
          0., 3.70468362e-03, 7.93860760e-04, 1.32310134e-03,
          1.32310134e-03, 0., 0., 3.96930380e-03, 0., 1.05848105e-03, 0.,
          5.29240526e-04, 1.05848105e-03, 2.64620263e-04, 0.,
          5.29240526e-04, 1.58772152e-03, 3.96930380e-03, 1.05848105e-03,
          3.44006345e-03, 1.32310134e-03, 5.29240526e-04, 2.38158228e-03,
          3.44006345e-03, 5.29240526e-04, 2.64620263e-04, 0.,
          5.29240526e-04, 1.05848105e-03, 2.64620263e-04, 0., 0.,
          1.64064560e-02, 1.05848105e-03, 7.93860760e-04, 2.64620263e-04,
