%YAML:1.0
my_svm: !!opencv-ml-svm
   svm_type: C_SVC
   kernel: { type:RBF, gamma:4. }
   C: 16.
   term_criteria: { epsilon:1.1920928955078125e-07, iterations:1000 }
   var_all: 1227
   var_count: 1227
   class_count: 2
   class_labels: !!opencv-matrix
      rows: 1
      cols: 2
      dt: i
      data: [ 0, 1 ]
   sv_total: 60
   support_vectors:
      - [ 0., 3.59066413e-04, 3.59066413e-04, 0., 3.59066413e-04, 0., 0.,
          0., 3.59066413e-04, 0., 4.66786325e-03, 7.18132826e-04, 0.,
          7.18132826e-04, 7.18132826e-04, 0., 7.18132826e-04, 0., 0.,
          1.79533206e-03, 0., 0., 1.43626565e-03, 0., 0., 0.,
          3.59066413e-04, 3.59066413e-04, 2.87253130e-03, 1.07719924e-03,
          1.43626565e-03, 1.07719924e-03, 0., 1.79533206e-03,
          3.59066413e-04, 0., 3.59066413e-04, 3.59066413e-04, 0.,
          2.15439848e-03, 0., 3.59066413e-04, 0., 4.30879695e-03,
          2.87253130e-03, 1.07719924e-03, 3.59066413e-04, 0., 0., 0.,
          7.18132826e-04, 7.18132826e-04, 0., 3.59066413e-04, 0., 0., 0.,
          1.79533206e-03, 0., 7.18132826e-04, 3.59066413e-04,
          7.18132826e-04, 3.59066413e-04, 1.07719924e-03, 9.69479326e-03,
          1.43626565e-03, 3.59066413e-04, 0., 0., 1.07719924e-03, 0., 0.,
          0., 1.43626565e-03, 0., 3.59066413e-04, 0., 0., 0., 0.,
          3.59066413e-04, 7.18132826e-04, 7.18132826e-04, 0., 0.,
          1.43626565e-03, 1.43626565e-03, 0., 0., 0., 0., 3.23159760e-03,
          2.15439848e-03, 1.07719924e-03, 0., 7.18132826e-04, 0.,
          2.15439848e-03, 1.07719924e-03, 0., 1.79533206e-03, 0.,
          1.07719924e-03, 0., 7.18132826e-04, 3.59066413e-04, 0.,
          3.59066413e-04, 3.23159760e-03, 0., 1.07719924e-03,
          7.18132826e-04, 2.15439848e-03, 0., 3.59066413e-04,
          1.79533206e-03, 1.07719924e-03, 3.59066413e-04, 0.,
          1.07719924e-03, 1.07719924e-03, 1.79533206e-03, 0.,
          7.18132826e-04, 7.18132826e-04, 0., 0., 1.07719924e-03,
          4.66786325e-03, 3.94973066e-03, 3.94973066e-03, 2.51346501e-03,
          3.59066413e-03, 1.07719924e-03, 8.25852714e-03, 0.,
          3.59066413e-04, 4.66786325e-03, 7.18132826e-04, 0.,
          7.18132826e-04, 0., 7.18132826e-04, 0., 0., 1.43626565e-03,
          1.07719924e-03, 0., 0., 3.59066413e-04, 1.07719924e-03,
          1.79533206e-03, 7.18132826e-04, 0., 2.15439848e-03, 0.,
          7.18132826e-04, 1.79533206e-03, 7.18132826e-04, 1.79533206e-03,
          3.59066413e-04, 0., 0., 2.87253130e-03, 0., 4.66786325e-03,
          3.59066413e-04, 3.59066413e-04, 1.07719924e-03, 0.,
          1.43626565e-03, 7.18132826e-04, 7.18132826e-04, 7.18132826e-04,
          3.59066413e-04, 3.59066413e-04, 1.79533206e-03, 0., 0.,
          3.59066413e-04, 7.18132826e-03, 1.43626565e-03, 2.15439848e-03,
          2.15439848e-03, 0., 0., 0., 1.79533206e-03, 3.59066413e-04, 0.,
          0., 3.59066413e-04, 1.43626565e-03, 0., 1.43626565e-03,
          7.18132826e-04, 0., 0., 2.87253130e-03, 1.07719924e-03,
          2.87253130e-03, 2.15439848e-03, 7.18132826e-04, 3.59066413e-04,
          3.59066413e-04, 0., 0., 3.59066413e-04, 2.15439848e-03,
          7.18132826e-04, 7.18132826e-04, 3.59066413e-04, 1.07719924e-03,
          2.51346501e-03, 1.79533206e-03, 2.15439848e-03, 3.59066413e-04,
          1.07719924e-03, 0., 3.59066413e-04, 3.59066413e-04,
          3.59066413e-04, 3.59066413e-04, 1.07719924e-03, 3.59066413e-04,
          2.15439848e-03, 6.82226196e-03, 1.43626565e-03, 4.66786325e-03,
          7.18132826e-04, 1.07719924e-03, 3.59066413e-04, 0.,
          3.94973066e-03, 3.59066413e-04, 0., 3.59066413e-04,
          1.07719924e-03, 3.59066413e-04, 1.43626565e-03, 3.59066413e-04,
          3.23159760e-03, 0., 0., 3.59066413e-04, 7.18132826e-04,
          3.59066413e-04, 0., 1.43626565e-03, 0., 1.43626565e-03,
          8.25852714e-03, 0., 0., 0., 3.59066413e-04, 5.38599631e-03, 0.,
          0., 1.43626565e-03, 1.79533206e-03, 5.02693001e-03,
          7.18132826e-04, 3.59066413e-04, 1.79533206e-03, 1.07719924e-03,
          1.79533206e-03, 0., 0., 2.15439848e-03, 6.82226196e-03,
          3.59066413e-04, 1.79533206e-03, 3.59066413e-04, 3.59066413e-04,
          0., 1.43626565e-03, 3.59066413e-04, 3.59066413e-04,
          3.59066413e-04, 1.14901252e-02, 0., 0., 0., 1.07719924e-03,
          3.59066413e-04, 0., 7.18132826e-04, 7.18132826e-04,
          1.07719924e-03, 3.59066413e-04, 3.59066413e-04, 2.15439848e-03,
          1.43626565e-03, 0., 7.18132826e-04, 3.59066413e-04,
          3.59066413e-04, 2.15439848e-03, 0., 3.59066413e-04, 0.,
          3.59066413e-04, 1.43626565e-03, 0., 4.30879695e-03, 0., 0.,
          1.07719924e-03, 3.59066413e-04, 0., 1.07719924e-03,
          7.18132826e-04, 1.43626565e-03, 3.59066413e-04, 1.07719924e-03,
          7.18132826e-04, 7.18132826e-04, 4.30879695e-03, 1.43626565e-03,
          0., 1.79533206e-03, 0., 1.07719924e-03, 0., 7.18132826e-04, 0.,
          7.18132826e-04, 1.43626565e-03, 3.59066413e-04, 3.59066413e-04,
          3.59066413e-04, 7.18132826e-04, 0., 0., 2.51346501e-03,
          1.43626565e-03, 0., 0., 2.15439848e-03, 0., 3.59066413e-04,
          7.18132826e-04, 7.18132826e-04, 7.18132826e-04, 5.02693001e-03,
          3.59066413e-04, 1.07719924e-03, 7.18132826e-04, 0.,
          3.59066413e-04, 5.74506260e-03, 0., 0., 0., 1.43626565e-03,
          1.79533206e-03, 1.43626565e-03, 3.59066413e-04, 7.18132826e-04,
          0., 2.87253130e-03, 6.82226196e-03, 3.59066413e-04,
          3.59066413e-04, 0., 3.59066413e-04, 3.59066413e-04,
          2.87253130e-03, 3.59066413e-04, 0., 0., 0., 1.43626565e-03, 0.,
          0., 3.59066413e-04, 4.30879695e-03, 3.94973066e-03, 0.,
          1.07719924e-03, 3.59066413e-04, 0., 1.07719924e-03,
          3.59066413e-04, 3.59066413e-04, 1.43626565e-03, 7.18132826e-04,
          1.43626565e-03, 0., 3.59066413e-04, 1.43626565e-03, 0., 0., 0.,
          7.18132826e-03, 2.87253130e-03, 3.94973066e-03, 0.,
          1.07719924e-03, 0., 2.87253130e-03, 7.18132826e-04, 0.,
          7.18132826e-04, 0., 1.07719924e-03, 1.07719924e-03,
          3.59066413e-04, 3.59066413e-04, 2.15439848e-03, 0., 0., 0., 0.,
          1.29263904e-02, 3.59066413e-04, 0., 1.07719924e-03,
          1.79533206e-03, 3.59066413e-04, 3.59066413e-04, 7.18132826e-04,
          7.18132826e-04, 0., 3.59066413e-04, 0., 3.59066413e-04, 0.,
          7.18132826e-04, 1.79533206e-03, 0., 7.18132826e-04,
          3.59066413e-04, 3.59066413e-04, 0., 0., 0., 3.59066413e-04,
          7.18132826e-04, 0., 4.30879695e-03, 3.59066413e-04,
          1.07719924e-03, 0., 1.07719924e-03, 2.15439848e-03, 0., 0.,
          3.59066413e-04, 0., 1.07719924e-03, 7.18132826e-04, 0.,
          7.18132826e-04, 3.59066413e-04, 7.18132826e-04, 7.18132826e-04,
          7.18132826e-04, 2.15439848e-03, 0., 7.18132826e-04,
          3.59066413e-04, 2.87253130e-03, 2.87253130e-03, 0.,
          2.87253130e-03, 5.02693001e-03, 1.07719924e-03, 0.,
          2.51346501e-03, 0., 0., 4.66786325e-03, 0., 0., 2.87253130e-03,
          3.59066413e-04, 0., 1.07719924e-03, 3.59066413e-04,
          3.59066413e-04, 1.07719924e-03, 0., 0., 0., 3.59066413e-04,
          3.59066413e-04, 3.59066413e-04, 7.18132826e-04, 7.18132826e-04,
          0., 0., 0., 7.18132826e-04, 1.07719924e-03, 7.18132826e-04,
          1.32854572e-02, 2.15439848e-03, 0., 7.18132826e-04,
          7.18132826e-04, 3.59066413e-04, 0., 0., 1.07719924e-03, 0.,
          3.59066413e-04, 0., 3.59066413e-04, 7.18132826e-04,
          2.51346501e-03, 3.59066413e-04, 1.79533206e-03, 2.15439848e-03,
          0., 0., 7.18132826e-04, 1.43626565e-03, 0., 0., 3.59066413e-04,
          0., 3.59066413e-04, 0., 5.02693001e-03, 2.15439848e-03,
          1.43626565e-03, 0., 7.18132826e-04, 0., 2.51346501e-03,
          3.59066413e-04, 0., 2.51346501e-03, 1.43626565e-03, 0.,
          3.59066413e-04, 7.18132826e-04, 7.18132826e-04, 3.59066413e-04,
          1.43626565e-03, 3.59066413e-04, 3.59066413e-04, 7.18132826e-04,
          0., 1.07719924e-03, 0., 1.43626565e-03, 1.79533206e-03,
          1.43626565e-03, 2.51346501e-03, 3.59066413e-03, 0.,
          7.18132826e-04, 7.18132826e-04, 2.51346501e-03, 3.59066413e-04,
          0., 2.15439848e-03, 0., 0., 3.59066413e-04, 3.59066413e-04,
          3.59066413e-04, 1.43626565e-03, 2.15439848e-03, 7.18132826e-04,
          1.43626565e-03, 1.43626565e-03, 1.43626565e-03, 2.51346501e-03,
          2.51346501e-03, 0., 0., 0., 1.43626565e-03, 0., 1.07719924e-03,
          3.23159760e-03, 7.18132826e-04, 0., 0., 1.07719924e-03,
          1.25673246e-02, 0., 0., 3.94973066e-03, 3.59066413e-04,
          1.07719924e-03, 0., 3.59066413e-04, 0., 7.18132826e-04,
          3.59066413e-04, 1.43626565e-03, 3.59066413e-04, 3.59066413e-04,
          0., 3.59066413e-04, 0., 1.43626565e-03, 1.07719924e-03,
          1.79533206e-03, 2.15439848e-03, 0., 5.74506260e-03, 0.,
          3.59066413e-04, 0., 1.07719924e-03, 7.18132826e-04,
          3.59066413e-04, 1.07719924e-03, 0., 1.07719924e-03, 0.,
          3.59066413e-04, 3.59066413e-04, 0., 0., 7.18132826e-04,
          1.07719924e-03, 2.87253130e-03, 2.51346501e-03, 3.59066413e-04,
          3.59066413e-04, 3.59066413e-04, 1.07719924e-03, 0., 0.,
          1.79533206e-03, 0., 5.02693001e-03, 3.94973066e-03,
          2.51346501e-03, 7.18132826e-04, 0., 2.15439848e-03,
          3.59066413e-04, 1.43626565e-03, 1.07719924e-03, 0., 0., 0., 0.,
          0., 2.87253130e-03, 3.59066413e-04, 2.51346501e-03, 0.,
          1.07719924e-03, 2.87253130e-03, 2.15439848e-03, 2.15439848e-03,
          1.43626565e-03, 0., 0., 7.18132826e-04, 0., 7.18132826e-04,
          3.59066413e-04, 0., 1.79533206e-03, 0., 0., 0., 3.59066413e-04,
          0., 3.23159760e-03, 1.79533206e-03, 1.43626565e-03,
          1.79533206e-03, 2.87253130e-03, 0., 1.43626565e-03,
          3.59066413e-04, 3.59066413e-04, 3.59066413e-04, 3.59066413e-04,
          2.15439848e-03, 0., 0., 0., 0., 3.59066413e-03, 0.,
          3.59066413e-04, 0., 1.79533206e-03, 1.43626565e-03,
          2.51346501e-03, 1.07719924e-03, 1.79533206e-03, 3.59066413e-04,
          1.79533206e-03, 1.43626565e-03, 0., 1.07719924e-03,
          3.59066413e-04, 3.59066413e-04, 1.07719924e-03, 7.18132826e-04,
          3.94973066e-03, 1.43626565e-03, 0., 3.59066413e-04,
          7.18132826e-04, 2.51346501e-03, 1.07719924e-03, 0.,
          1.79533206e-03, 0., 1.79533206e-03, 9.69479326e-03,
          3.59066413e-04, 0., 0., 1.43626565e-03, 7.18132826e-04,
          3.59066413e-04, 1.79533206e-03, 0., 0., 0., 0., 3.59066413e-04,
          1.07719924e-03, 7.18132826e-04, 7.18132826e-04, 3.59066413e-04,
          3.59066413e-04, 0., 7.18132826e-04, 2.51346501e-03, 0.,
          3.59066413e-04, 7.18132826e-04, 3.23159760e-03, 3.59066413e-04,
          7.18132826e-04, 3.59066413e-04, 3.94973066e-03, 0.,
          2.87253130e-03, 2.15439848e-03, 0., 1.07719924e-03,
          7.18132826e-04, 0., 0., 0., 1.43626565e-03, 1.07719924e-03, 0.,
          0., 0., 7.18132826e-04, 3.59066413e-04, 0., 3.59066413e-04,
          4.30879695e-03, 3.59066413e-04, 1.07719924e-03, 0.,
          1.79533206e-03, 7.18132826e-04, 0., 7.18132826e-04,
          1.07719924e-03, 0., 0., 0., 3.59066413e-04, 7.18132826e-04,
          3.59066413e-04, 3.59066413e-04, 1.43626565e-03, 2.51346501e-03,
          0., 2.15439848e-03, 4.66786325e-03, 0., 7.18132826e-04,
          3.59066413e-04, 0., 2.87253130e-03, 2.15439848e-03,
          2.15439848e-03, 3.59066413e-04, 3.59066413e-04, 3.59066413e-04,
          7.18132826e-04, 0., 4.66786325e-03, 1.79533206e-03,
          1.07719924e-03, 7.18132826e-04, 1.79533206e-03, 7.18132826e-04,
          1.79533206e-03, 3.59066413e-04, 2.15439848e-03, 1.43626565e-03,
          0., 3.94973066e-03, 3.59066413e-04, 3.59066413e-04,
          3.59066413e-04, 1.07719924e-03, 0., 3.59066413e-04,
          1.07719924e-03, 7.18132826e-04, 0., 0., 1.07719924e-03, 0., 0.,
          7.18132826e-04, 0., 3.59066413e-04, 1.79533206e-03,
          7.18132826e-04, 3.59066413e-04, 0., 3.23159760e-03,
          3.59066413e-04, 0., 0., 2.87253130e-03, 2.87253130e-03,
          3.59066413e-04, 7.18132826e-04, 1.43626565e-03, 0.,
          7.18132826e-04, 0., 3.59066413e-04, 0., 0., 3.94973066e-03,
          2.87253130e-03, 1.79533206e-03, 2.51346501e-03, 6.10412890e-03,
          6.10412890e-03, 0., 0., 2.15439848e-03, 4.66786325e-03,
          1.79533206e-03, 1.07719924e-03, 0., 7.18132826e-04,
          3.59066413e-04, 0., 3.59066413e-04, 0., 5.02693001e-03, 0., 0.,
          0., 3.59066413e-04, 0., 7.18132826e-04, 3.59066413e-04, 0.,
          1.43626565e-03, 3.23159760e-03, 0., 0., 3.59066413e-04, 0., 0.,
          0., 0., 1.79533206e-03, 3.59066413e-04, 3.59066413e-04,
          4.30879695e-03, 0., 3.23159760e-03, 1.07719924e-03, 0., 0., 0.,
          1.07719924e-03, 3.59066413e-04, 1.79533206e-03, 1.07719924e-03,
          0., 0., 3.94973066e-03, 7.18132826e-04, 0., 7.18132826e-04,
          2.15439848e-03, 1.07719924e-03, 3.59066413e-04, 7.18132826e-04,
          0., 3.59066413e-04, 0., 0., 3.59066413e-04, 7.18132826e-04,
          1.07719924e-03, 0., 3.59066413e-04, 3.59066413e-04,
          7.18132826e-04, 3.59066413e-04, 2.51346501e-03, 7.18132826e-04,
          2.87253130e-03, 1.07719924e-03, 0., 1.07719924e-03, 0.,
          3.59066413e-04, 1.43626565e-03, 0., 1.79533206e-03,
          5.38599631e-03, 1.43626565e-03, 0., 4.30879695e-03,
          3.59066413e-04, 0., 3.59066413e-03, 1.43626565e-03,
          1.43626565e-03, 3.59066413e-04, 3.59066413e-03, 7.18132826e-04,
          0., 0., 0., 2.51346501e-03, 2.51346501e-03, 0., 3.59066413e-04,
          3.23159760e-03, 5.02693001e-03, 1.79533206e-03, 1.07719924e-03,
          0., 0., 0., 1.43626565e-03, 0., 2.87253130e-03, 0.,
          2.15439848e-03, 3.23159760e-03, 0., 7.18132826e-04, 0., 0.,
          1.79533206e-03, 3.59066413e-04, 3.59066413e-04, 3.59066413e-04,
          1.07719924e-03, 1.43626565e-03, 1.07719924e-03, 1.43626565e-03,
          2.51346501e-03, 4.66786325e-03, 0., 7.18132826e-04,
          3.59066413e-04, 7.18132826e-04, 0., 0., 0., 0., 1.79533206e-03,
          3.59066413e-04, 3.59066413e-04, 3.59066413e-04, 3.59066413e-04,
          3.59066413e-04, 3.59066413e-04, 1.43626565e-03, 0.,
          2.15439848e-03, 0., 0., 1.07719924e-03, 3.59066413e-04,
          1.43626565e-03, 7.18132826e-04, 0., 1.43626565e-03, 0., 0.,
          1.07719924e-03, 3.59066413e-04, 8.20729416e-03, 5.60723729e-02,
          5.73179685e-02, 2.45706947e-03, 4.16336756e-04, 2.73007725e-04,
          1.39916461e-04, 3.41259656e-05, 7.16645227e-05, 0., 0., 0., 0.,
          0., 0., 0., 0., 0., 0., 0., 0., 0., 0., 0., 1.02377890e-05, 0.,
          0., 0., 0., 3.41259647e-06, 6.82519294e-06, 1.02377890e-05,
          4.43637546e-05, 7.16645227e-05, 1.46741644e-04, 1.39916461e-04,
          1.80867617e-04, 1.67217222e-04, 2.21818773e-04, 2.11580977e-04,
          3.24196677e-04, 4.06098989e-04, 3.51497438e-04, 5.22127259e-04,
          6.24505163e-04, 8.46323906e-04, 9.31638817e-04, 1.46059133e-03,
          1.79161318e-03, 2.57651042e-03, 3.20442813e-03, 5.18373400e-03,
          6.55901060e-03, 1.02036633e-02, 8.88094082e-02, 6.16974197e-03,
          5.63681014e-02, 6.13269955e-02, 1.11127051e-03, 1.99152419e-05,
          3.98304837e-06, 0., 0., 0., 0., 0., 0., 0., 0., 0., 0., 0., 0.,
          0., 0., 0., 0., 0., 0., 0., 0., 0., 0., 0., 0., 0., 0., 0., 0.,
          0., 3.18643870e-05, 1.99152419e-05, 2.78813386e-05,
          9.16101126e-05, 1.75254128e-04, 3.06694710e-04, 2.70847289e-04,
          2.78813386e-04, 4.02287871e-04, 5.45677613e-04, 7.80677481e-04,
          7.56779220e-04, 1.48169394e-03, 1.99152413e-03, 2.99525238e-03,
          3.63254012e-03, 6.10601297e-03, 7.68330041e-03, 1.06506711e-02,
          8.67707059e-02, 1.20219598e-02, 6.50840476e-02, 4.49516773e-02,
          2.02154461e-03, 5.46924770e-04, 1.80000556e-04, 8.30771751e-05,
          1.73077460e-05, 6.23078813e-05, 0., 0., 0., 0., 0., 0., 0., 0.,
          0., 0., 0., 0., 0., 3.46154911e-06, 3.46154911e-06,
          2.42308433e-05, 0., 0., 0., 0., 0., 0., 0., 2.76923929e-05,
          3.11539407e-05, 3.11539407e-05, 4.84616867e-05, 6.57694327e-05,
          7.61540796e-05, 1.41923520e-04, 1.28077314e-04, 2.00769849e-04,
          2.25000695e-04, 1.83462107e-04, 2.73462385e-04, 3.32308700e-04,
          5.08847705e-04, 5.74617181e-04, 7.30386877e-04, 1.14923436e-03,
          1.53692777e-03, 2.04923702e-03, 3.25039471e-03, 4.46886010e-03,
          6.78809779e-03, 1.02178007e-01, 8.71095993e-03, 6.31999895e-02,
          5.19660376e-02, 1.09266397e-03, 2.65578055e-05, 0., 0., 0., 0.,
          0., 0., 0., 0., 0., 0., 0., 0., 0., 0., 0., 0., 0., 0., 0.,
          3.79397216e-06, 0., 0., 0., 0., 0., 0., 0., 7.58794431e-06, 0.,
          0., 1.51758886e-05, 3.03517772e-05, 3.03517772e-05,
          6.82914979e-05, 1.13819166e-04, 1.55552858e-04, 1.51758883e-04,
          1.78316695e-04, 2.76959967e-04, 3.49045440e-04, 5.53919934e-04,
          6.18417456e-04, 1.05472421e-03, 1.57829246e-03, 2.33329297e-03,
          2.86824303e-03, 5.04598301e-03, 5.96791832e-03, 8.49090982e-03,
          9.51110870e-02, 2.08886862e-01, 7.31000211e-03, 2.25443789e-03,
          1.47257742e-04, -8.44923775e-08, -1.25270280e-05,
          -7.74906272e-09 ]
      - [ 0., 2.72479560e-03, 0., 0., 1.36239780e-03, 0., 1.36239780e-03,
          0., 1.36239780e-03, 0., 2.72479560e-03, 2.72479560e-03,
          1.36239780e-03, 0., 0., 0., 0., 0., 4.08719340e-03, 0.,
          8.17438681e-03, 0., 0., 0., 5.44959120e-03, 0., 0.,
          1.36239780e-03, 0., 0., 0., 1.36239780e-03, 2.72479560e-03,
          1.36239780e-03, 9.53678414e-03, 2.72479560e-03, 0., 0., 0., 0.,
          2.72479560e-03, 0., 0., 0., 1.36239780e-03, 2.72479560e-03,
          1.36239780e-03, 0., 0., 1.36239780e-03, 1.36239780e-03,
          4.08719340e-03, 0., 1.36239780e-03, 0., 2.72479560e-03, 0., 0.,
          0., 1.36239780e-03, 0., 0., 0., 0., 1.36239780e-03,
          1.36239780e-03, 0., 0., 0., 0., 0., 0., 0., 0., 8.17438681e-03,
          0., 0., 0., 0., 2.72479560e-03, 1.36239780e-03, 1.36239780e-03,
          0., 1.36239780e-03, 1.36239780e-03, 0., 0., 0., 2.72479560e-03,
          0., 0., 2.72479560e-03, 0., 2.72479560e-03, 0., 1.36239780e-03,
          1.77111719e-02, 1.36239780e-03, 2.72479560e-03, 0.,
          1.36239780e-03, 1.36239780e-03, 0., 1.36239780e-03, 0., 0., 0.,
          1.36239780e-03, 0., 0., 0., 0., 0., 0., 0., 0., 0., 0.,
          4.08719340e-03, 0., 1.36239780e-03, 0., 0., 0., 0., 0.,
          2.72479560e-03, 0., 0., 0., 2.72479560e-03, 0., 0.,
          1.36239780e-03, 0., 2.72479560e-03, 0., 0., 0., 0., 0.,
          2.72479560e-03, 1.36239780e-03, 1.36239780e-03, 2.72479560e-03,
          0., 0., 0., 1.36239780e-03, 0., 0., 0., 0., 0., 1.36239780e-03,
          0., 1.36239780e-03, 0., 0., 0., 0., 0., 0., 5.44959120e-03, 0.,
          1.36239780e-03, 0., 0., 0., 0., 0., 0., 0., 0., 0., 0., 0.,
          6.81198901e-03, 0., 0., 0., 1.36239780e-03, 0., 1.36239780e-03,
          1.36239780e-03, 0., 1.36239780e-03, 0., 0., 4.08719340e-03, 0.,
          0., 0., 0., 0., 2.72479560e-03, 0., 0., 1.36239780e-03, 0.,
          1.36239780e-03, 0., 0., 0., 0., 1.36239780e-03, 4.08719340e-03,
          0., 0., 1.36239780e-03, 1.36239780e-03, 0., 5.44959120e-03, 0.,
          2.72479560e-03, 0., 0., 0., 0., 1.36239780e-03, 0., 0., 0., 0.,
          0., 0., 0., 0., 0., 0., 0., 1.36239780e-03, 5.44959120e-03, 0.,
          0., 1.36239780e-03, 0., 1.36239780e-03, 5.44959120e-03, 0., 0.,
          4.08719340e-03, 0., 0., 1.36239780e-03, 4.08719340e-03, 0.,
          1.36239780e-03, 0., 8.17438681e-03, 0., 0., 0., 1.36239780e-03,
          6.81198901e-03, 1.36239780e-03, 1.36239780e-03, 0., 0., 0.,
          2.72479560e-03, 0., 0., 0., 2.72479560e-03, 1.36239780e-03, 0.,
          0., 1.36239780e-03, 0., 0., 0., 0., 0., 0., 0., 2.72479560e-03,
          0., 4.08719340e-03, 0., 0., 4.08719340e-03, 0., 0.,
          1.36239780e-03, 0., 0., 0., 1.36239780e-03, 0., 1.36239780e-03,
          4.08719340e-03, 1.36239780e-03, 4.08719340e-03, 0., 0., 0., 0.,
          1.36239780e-03, 0., 4.08719340e-03, 2.72479560e-03, 0., 0., 0.,
          1.36239780e-03, 0., 0., 0., 0., 9.53678414e-03, 0.,
          1.36239780e-03, 0., 0., 2.72479560e-03, 0., 0., 1.36239780e-03,
          0., 4.08719331e-02, 0., 0., 0., 0., 0., 0., 0., 1.36239780e-03,
          0., 0., 0., 1.36239780e-03, 2.72479560e-03, 1.36239780e-03,
          1.22615807e-02, 0., 0., 2.72479560e-03, 1.36239780e-03, 0., 0.,
          0., 4.08719340e-03, 0., 0., 0., 0., 0., 0., 0., 0., 0.,
          4.08719340e-03, 1.36239780e-03, 1.36239780e-03, 0., 0., 0.,
          1.22615807e-02, 0., 0., 1.36239780e-03, 1.36239780e-03,
          1.36239780e-03, 0., 0., 0., 0., 0., 0., 2.72479560e-03, 0., 0.,
          0., 1.36239780e-03, 0., 1.36239780e-03, 0., 0., 1.36239780e-03,
          1.36239780e-03, 0., 0., 1.36239780e-03, 0., 0., 4.08719340e-03,
          0., 0., 5.44959120e-03, 1.36239780e-03, 2.72479560e-03, 0., 0.,
          1.36239780e-03, 0., 0., 0., 1.36239780e-03, 0., 0.,
          9.53678414e-03, 0., 5.44959120e-03, 0., 1.36239780e-03,
          5.44959120e-03, 2.72479560e-03, 1.36239780e-03, 1.36239780e-03,
          0., 1.36239780e-03, 0., 0., 0., 1.36239780e-03, 0.,
          1.36239780e-03, 0., 0., 0., 0., 0., 0., 0., 0., 0., 0., 0., 0.,
          1.36239780e-03, 4.08719340e-03, 0., 0., 1.36239780e-03, 0., 0.,
          0., 0., 0., 0., 0., 2.72479560e-03, 0., 1.36239780e-03,
          8.17438681e-03, 0., 1.36239780e-03, 0., 1.36239780e-03, 0.,
          2.72479560e-03, 1.36239780e-03, 0., 2.72479560e-03, 0., 0.,
          1.36239780e-03, 0., 0., 0., 1.36239780e-03, 1.36239780e-03, 0.,
          5.44959120e-03, 0., 0., 1.36239780e-03, 2.72479560e-02, 0., 0.,
          0., 0., 2.72479560e-03, 0., 1.36239780e-03, 0., 0., 0., 0., 0.,
          0., 0., 0., 0., 1.36239780e-03, 1.36239780e-03, 0.,
          5.44959120e-03, 0., 1.36239780e-03, 0., 0., 1.36239780e-03,
          4.08719340e-03, 0., 0., 0., 0., 1.36239780e-03, 0., 0., 0., 0.,
          2.72479560e-03, 0., 0., 5.44959120e-03, 1.36239780e-03,
          2.72479560e-03, 2.72479560e-03, 0., 0., 0., 0., 0., 0., 0., 0.,
          4.08719340e-03, 0., 0., 0., 1.36239780e-03, 0., 1.36239780e-03,
          6.81198901e-03, 0., 0., 1.36239780e-03, 0., 0., 0., 0., 0., 0.,
          1.36239780e-03, 1.36239780e-03, 0., 0., 6.81198901e-03, 0., 0.,
          0., 0., 0., 0., 0., 0., 1.36239780e-03, 0., 1.36239780e-03, 0.,
          0., 0., 1.36239780e-03, 0., 0., 0., 1.36239780e-03, 0., 0., 0.,
          0., 0., 0., 0., 2.72479560e-03, 1.36239780e-03, 1.36239780e-03,
          0., 5.44959120e-03, 0., 0., 2.72479560e-03, 1.36239780e-03,
          1.36239780e-03, 0., 0., 1.36239780e-03, 0., 0., 2.72479560e-03,
          0., 0., 0., 0., 1.36239780e-03, 1.36239780e-03, 0.,
          8.17438681e-03, 0., 0., 1.36239780e-03, 0., 0., 1.36239780e-03,
          0., 6.81198901e-03, 0., 0., 0., 1.77111719e-02, 0., 0.,
          2.72479560e-03, 0., 2.72479560e-03, 0., 0., 2.72479560e-03,
          2.72479560e-03, 0., 8.17438681e-03, 0., 1.36239780e-03,
          6.81198901e-03, 0., 0., 0., 0., 0., 1.36239780e-03, 0.,
          4.08719340e-03, 0., 0., 1.36239780e-03, 1.36239780e-03, 0., 0.,
          1.36239780e-03, 0., 0., 1.36239780e-03, 0., 0., 0., 0., 0., 0.,
          0., 0., 0., 1.36239780e-03, 0., 0., 0., 0., 0., 1.36239780e-03,
          1.36239780e-03, 0., 0., 1.36239780e-03, 5.44959120e-03,
          4.08719340e-03, 0., 0., 0., 0., 2.72479560e-03, 0., 0.,
          2.72479560e-03, 0., 0., 0., 0., 1.36239780e-03, 2.72479560e-03,
          0., 0., 0., 0., 0., 0., 0., 0., 0., 0., 0., 0., 8.17438681e-03,
          0., 0., 0., 1.36239780e-03, 1.36239780e-03, 0., 0., 0., 0., 0.,
          4.08719340e-03, 0., 0., 0., 0., 4.08719340e-03, 0., 0.,
          1.36239780e-03, 0., 4.08719340e-03, 0., 0., 0., 4.08719340e-03,
          0., 1.36239780e-03, 1.36239780e-03, 1.36239780e-03, 0., 0., 0.,
          0., 0., 0., 1.36239780e-03, 1.36239780e-03, 0., 0., 0., 0., 0.,
          0., 0., 0., 1.36239780e-03, 0., 0., 2.72479560e-03, 0., 0., 0.,
          0., 0., 0., 1.36239780e-03, 2.72479560e-03, 0., 0., 0., 0., 0.,
          0., 0., 4.08719340e-03, 0., 0., 1.08991824e-02, 0.,
          2.72479560e-03, 0., 4.08719340e-03, 0., 0., 0., 1.36239780e-03,
          0., 0., 0., 0., 0., 0., 0., 1.36239780e-03, 1.36239780e-03, 0.,
          0., 0., 0., 0., 1.36239780e-03, 0., 1.36239780e-03, 0., 0., 0.,
          0., 0., 0., 1.08991824e-02, 0., 2.72479560e-03, 0., 0., 0., 0.,
          0., 1.36239780e-03, 0., 0., 1.36239780e-03, 1.36239780e-03, 0.,
          2.72479560e-03, 0., 1.36239780e-03, 1.36239780e-03, 0.,
          2.72479560e-03, 0., 2.72479560e-03, 0., 0., 4.08719340e-03,
          1.36239780e-03, 0., 0., 2.72479560e-03, 0., 0., 5.44959120e-03,
          0., 0., 0., 0., 0., 0., 0., 0., 0., 0., 0., 0., 0., 0.,
          6.81198901e-03, 0., 0., 0., 0., 0., 1.36239780e-03,
          1.36239780e-03, 0., 0., 0., 0., 0., 0., 0., 1.36239780e-03, 0.,
          0., 0., 2.72479560e-03, 2.72479560e-03, 0., 0., 0., 0., 0.,
          2.72479560e-03, 0., 0., 1.36239780e-03, 0., 0., 0., 0., 0., 0.,
          0., 0., 1.36239780e-03, 1.36239780e-03, 0., 0., 0., 0., 0., 0.,
          0., 2.72479560e-03, 1.49863753e-02, 0., 1.36239780e-03, 0., 0.,
          0., 1.36239780e-03, 5.44959120e-03, 0., 1.36239780e-03, 0., 0.,
          0., 0., 1.36239780e-03, 0., 6.81198901e-03, 0., 0., 0.,
          2.72479560e-03, 2.72479560e-03, 0., 0., 0., 0., 5.44959120e-03,
          0., 0., 0., 0., 0., 0., 0., 0., 0., 2.72479560e-03, 0., 0., 0.,
          0., 2.72479560e-03, 1.36239780e-03, 1.36239780e-03, 0., 0., 0.,
          0., 0., 0., 0., 0., 0., 5.44959120e-03, 0., 0., 1.36239780e-03,
          0., 2.72479560e-03, 4.08719340e-03, 1.36239780e-03, 0., 0.,
          6.81198901e-03, 2.72479560e-03, 0., 0., 0., 0., 1.36239780e-03,
          0., 0., 2.72479560e-03, 0., 0., 2.72479560e-03, 6.81198901e-03,
          1.49863753e-02, 0., 0., 0., 1.36239780e-03, 0., 1.36239780e-03,
          0., 0., 5.44959120e-03, 0., 4.08719340e-03, 1.36239780e-03, 0.,
          0., 1.36239780e-03, 0., 0., 0., 1.36239780e-03, 1.08991824e-02,
          0., 0., 0., 4.08719340e-03, 0., 0., 0., 2.72479560e-03, 0., 0.,
          5.44959120e-03, 1.36239780e-03, 0., 0., 0., 1.36239780e-03, 0.,
          1.36239780e-03, 0., 0., 4.08719340e-03, 0., 1.36239780e-03,
          1.36239780e-03, 1.20456959e-03, 5.60351536e-02, 6.18054308e-02,
          5.09027811e-03, 6.47618086e-04, 7.77141686e-05, 4.85713535e-05,
          0., 7.12379842e-05, 0., 3.23809036e-06, 3.23809036e-06, 0., 0.,
          0., 0., 0., 0., 0., 0., 0., 0., 0., 0., 1.29523614e-05, 0., 0.,
          0., 0., 1.94285421e-05, 2.91428132e-05, 1.29523614e-04,
          2.29904414e-04, 2.16952059e-04, 3.52951844e-04, 3.72380397e-04,
          7.96570210e-04, 1.06533174e-03, 1.15923630e-03, 8.61332053e-04,
          9.61712853e-04, 8.19236855e-04, 7.28570332e-04, 5.76380058e-04,
          7.02665595e-04, 8.48379685e-04, 7.35046517e-04, 9.35808115e-04,
          8.74284422e-04, 1.24990288e-03, 2.05942546e-03, 3.94075597e-03,
          6.85827527e-03, 1.38331223e-02, 8.46436843e-02, 5.23199618e-04,
          4.11091819e-02, 7.83368498e-02, 4.08721762e-03, 5.32143225e-04,
          2.19117792e-04, 1.25210165e-04, 4.91897081e-05, 1.78871669e-05,
          0., 0., 0., 0., 0., 0., 0., 0., 0., 0., 0., 0., 0., 0., 0., 0.,
          0., 0., 0., 8.94358345e-06, 7.15486676e-05, 1.83343465e-04,
          2.41476751e-04, 3.13025434e-04, 2.86194670e-04, 3.62215127e-04,
          4.38235584e-04, 4.51650965e-04, 6.39466220e-04, 6.66296983e-04,
          7.87035329e-04, 1.05087110e-03, 7.28902058e-04, 6.52881572e-04,
          7.55732821e-04, 7.28902058e-04, 9.30132694e-04, 9.43548046e-04,
          1.21632731e-03, 1.41308620e-03, 2.21800874e-03, 3.09000816e-03,
          6.39466196e-03, 9.98551119e-03, 1.46808922e-02, 7.57610947e-02,
          1.25160639e-03, 6.40025958e-02, 4.66440879e-02, 1.22851525e-02,
          6.05723937e-04, 1.40554723e-04, 4.68515755e-05, 6.69308201e-06,
          3.34654101e-06, 0., 0., 0., 0., 0., 0., 0., 0., 0., 0., 0., 0.,
          0., 3.34654101e-06, 0., 1.00396228e-05, 0., 0., 0., 0.,
          1.00396228e-05, 5.01981158e-05, 6.35842807e-05, 1.13782393e-04,
          2.07485544e-04, 3.14574863e-04, 5.01981180e-04, 5.15032653e-03,
          5.01646474e-03, 1.19806163e-03, 4.08277992e-04, 3.58079880e-04,
          2.87802541e-04, 3.21267929e-04, 3.27961025e-04, 3.41347186e-04,
          4.85248456e-04, 5.32100035e-04, 7.69704406e-04, 7.32892484e-04,
          9.57110722e-04, 1.09431893e-03, 2.31580646e-03, 3.60087818e-03,
          6.74997317e-03, 9.30907279e-02, 9.05569759e-04, 5.44372946e-02,
          6.69225007e-02, 2.40289792e-03, 3.00362241e-04, 2.68981112e-05,
          0., 0., 4.48301853e-06, 0., 0., 0., 0., 0., 0., 0., 0., 0., 0.,
          0., 0., 0., 0., 0., 0., 0., 0., 0., 0., 0., 6.27622576e-05,
          2.68981112e-05, 1.16558484e-04, 8.51773511e-05, 9.86264058e-05,
          1.30007538e-04, 2.19667912e-04, 1.79320748e-04, 3.18294304e-04,
          3.04845249e-04, 5.33479208e-04, 6.54520700e-04, 5.78309409e-04,
          7.71079212e-04, 6.14173536e-04, 8.92120705e-04, 8.60739558e-04,
          9.95230163e-04, 1.06247538e-03, 1.27766025e-03, 1.70354708e-03,
          3.32191680e-03, 5.05236210e-03, 9.41882189e-03, 9.57214087e-02,
          2.20785245e-01, 1.25290677e-02, 9.99718555e-04, 6.98098374e-05,
          -1.69850516e-08, -7.21081960e-06, -7.18501836e-09 ]
      - [ 4.35729837e-03, 7.26216414e-04, 8.71459674e-03, 0., 0., 0., 0.,
          2.17864919e-03, 2.17864919e-03, 7.26216414e-04, 1.45243283e-03,
          0., 0., 0., 7.26216414e-04, 0., 1.45243283e-03, 0.,
          5.08351484e-03, 2.17864919e-03, 0., 6.53594779e-03, 0., 0., 0.,
          1.45243283e-03, 0., 0., 7.26216414e-04, 1.45243283e-03, 0., 0.,
          0., 5.80973132e-03, 0., 7.26216414e-04, 1.45243283e-03, 0., 0.,
          2.17864919e-03, 0., 0., 2.90486566e-03, 1.45243283e-03,
          3.63108213e-03, 2.90486566e-03, 1.45243283e-03, 0., 0.,
          7.26216414e-04, 0., 1.45243283e-03, 0., 1.37981120e-02,
          4.35729837e-03, 7.26216414e-04, 0., 2.17864919e-03,
          7.26216414e-04, 1.45243283e-03, 7.26216414e-04, 2.17864919e-03,
          0., 0., 7.26216414e-04, 0., 0., 0., 0., 7.26216414e-04, 0.,
          7.26216414e-04, 1.30718956e-02, 0., 7.26216414e-04, 0., 0., 0.,
          7.26216414e-04, 7.26216414e-04, 1.45243283e-03, 1.45243283e-03,
          7.26216414e-04, 1.45243283e-03, 1.45243283e-03, 0., 0., 0.,
          1.45243283e-03, 2.17864919e-03, 1.45243283e-03, 1.45243283e-03,
          0., 0., 2.17864919e-03, 2.17864919e-03, 0., 1.45243283e-03,
          2.17864919e-03, 0., 0., 0., 0., 0., 0., 0., 0., 1.45243283e-03,
          7.26216414e-04, 7.26216414e-04, 0., 0., 0., 1.45243283e-03, 0.,
          1.45243283e-03, 4.35729837e-03, 7.26216414e-04, 0.,
          2.90486566e-03, 0., 2.17864919e-03, 0., 0., 0., 3.63108213e-03,
          2.17864919e-03, 7.26216414e-04, 7.26216414e-04, 0., 0.,
          7.26216414e-04, 0., 1.45243283e-03, 7.26216414e-04, 0.,
          1.45243283e-03, 3.63108213e-03, 7.26216414e-04, 4.35729837e-03,
          2.17864919e-03, 0., 2.17864919e-03, 1.45243283e-03,
          1.45243283e-03, 2.90486566e-03, 7.26216414e-04, 0.,
          7.26216414e-04, 1.45243283e-03, 1.45243283e-03, 7.26216414e-04,
          7.26216414e-04, 1.45243283e-03, 0., 7.26216414e-04,
          7.26216414e-04, 7.26216414e-04, 7.26216414e-04, 1.45243283e-03,
          5.80973132e-03, 0., 1.45243283e-03, 0., 7.26216414e-04,
          7.26216414e-04, 1.45243283e-03, 1.45243283e-03, 7.26216414e-04,
          2.90486566e-03, 7.26216414e-04, 7.26216414e-04, 0., 0.,
          2.17864919e-03, 1.45243283e-03, 0., 1.45243283e-03,
          1.08932462e-02, 2.90486566e-03, 0., 7.26216414e-04,
          3.63108213e-03, 0., 0., 5.08351484e-03, 0., 0., 0., 0.,
          1.45243283e-03, 0., 1.45243283e-03, 0., 7.26216414e-04, 0.,
          2.17864919e-03, 0., 2.90486566e-03, 0., 7.26216414e-04, 0.,
          3.63108213e-03, 7.26216414e-04, 7.26216414e-04, 0.,
          1.45243283e-03, 1.45243283e-03, 0., 0., 0., 0., 7.26216414e-04,
          0., 0., 0., 3.63108213e-03, 0., 1.45243283e-03, 1.45243283e-03,
          0., 0., 0., 1.45243283e-03, 0., 0., 0., 2.90486566e-03, 0.,
          7.26216414e-04, 0., 0., 7.26216414e-04, 0., 0., 0., 0.,
          7.26216414e-04, 0., 7.26216414e-04, 0., 0., 7.26216414e-04, 0.,
          0., 7.26216414e-04, 3.63108213e-03, 0., 6.53594779e-03, 0.,
          1.45243283e-03, 0., 1.45243283e-03, 7.26216414e-04,
          2.17864919e-03, 7.26216414e-04, 7.26216414e-04, 2.90486566e-03,
          1.45243283e-03, 0., 2.17864919e-03, 0., 0., 0., 0.,
          2.17864919e-03, 0., 2.90486566e-03, 7.26216414e-04,
          2.17864919e-03, 7.26216414e-04, 0., 0., 0., 2.17864919e-03, 0.,
          7.26216414e-04, 1.45243283e-03, 0., 2.17864919e-03,
          7.26216414e-04, 7.26216414e-04, 7.26216414e-04, 7.26216414e-04,
          7.26216414e-04, 7.26216414e-04, 3.63108213e-03, 7.26216414e-04,
          0., 2.17864919e-03, 1.45243283e-03, 7.26216414e-04, 0.,
          7.26216414e-04, 0., 7.26216414e-04, 7.26216414e-04,
          5.08351484e-03, 0., 3.63108213e-03, 7.26216414e-04,
          1.45243283e-03, 7.26216414e-04, 0., 0., 0., 7.26216414e-04, 0.,
          0., 7.26216414e-04, 0., 1.45243283e-03, 7.26216414e-04, 0., 0.,
          1.45243283e-03, 0., 7.26216414e-04, 0., 5.80973132e-03, 0.,
          7.26216414e-04, 7.26216414e-04, 0., 1.45243283e-03, 0.,
          3.63108213e-03, 1.45243283e-03, 0., 3.63108213e-03, 0.,
          2.90486566e-03, 0., 7.26216414e-04, 0., 1.45243283e-03,
          2.90486566e-03, 0., 0., 2.17864919e-03, 0., 1.45243283e-03,
          2.17864919e-03, 7.26216414e-04, 0., 0., 2.90486566e-03, 0., 0.,
          1.45243283e-03, 1.45243283e-03, 0., 0., 1.45243283e-03,
          7.26216414e-04, 0., 7.26216414e-04, 0., 7.26216414e-04, 0., 0.,
          7.26216414e-04, 0., 7.26216426e-03, 3.63108213e-03,
          7.26216414e-04, 7.26216414e-04, 0., 0., 0., 0., 0.,
          1.52505450e-02, 2.17864919e-03, 1.45243283e-03, 1.01670297e-02,
          0., 2.17864919e-03, 7.26216414e-04, 0., 0., 0., 0.,
          7.98838027e-03, 4.35729837e-03, 1.45243283e-03, 0., 0.,
          1.45243283e-03, 0., 3.63108213e-03, 6.53594779e-03,
          1.45243283e-03, 1.45243283e-03, 0., 5.08351484e-03, 0.,
          2.17864919e-03, 1.45243283e-03, 2.17864919e-03, 1.45243283e-03,
          2.17864919e-03, 0., 7.26216414e-04, 0., 0., 7.26216414e-04, 0.,
          0., 0., 7.26216414e-04, 0., 0., 2.90486566e-03, 0., 0., 0., 0.,
          2.17864919e-03, 0., 7.26216414e-04, 2.17864919e-03,
          2.17864919e-03, 0., 7.26216414e-04, 0., 0., 7.26216414e-04,
          7.26216414e-04, 0., 7.26216414e-04, 0., 0., 0., 0.,
          7.26216414e-04, 0., 0., 1.45243283e-03, 0., 1.45243283e-03, 0.,
          7.26216414e-04, 0., 7.26216414e-04, 1.45243283e-03, 0., 0., 0.,
          0., 0., 7.26216414e-04, 2.90486566e-03, 7.26216414e-04, 0.,
          7.26216414e-04, 0., 0., 1.45243283e-03, 0., 7.26216414e-04,
          1.45243283e-03, 0., 7.26216414e-04, 0., 1.45243283e-03, 0., 0.,
          0., 5.08351484e-03, 8.71459674e-03, 7.26216414e-04, 0.,
          7.26216414e-04, 7.26216414e-04, 0., 0., 0., 7.26216414e-04,
          3.63108213e-03, 1.45243283e-03, 2.17864919e-03, 0.,
          1.45243283e-03, 0., 0., 0., 0., 0., 7.26216414e-04,
          3.63108213e-03, 7.26216414e-04, 1.45243283e-03, 3.63108213e-03,
          1.45243283e-03, 0., 0., 7.26216414e-04, 0., 2.17864919e-03,
          7.26216414e-04, 0., 0., 0., 1.45243283e-03, 7.26216414e-04,
          5.08351484e-03, 0., 0., 0., 0., 0., 1.45243283e-03,
          7.26216414e-04, 7.26216414e-04, 7.26216414e-04, 0.,
          1.45243283e-03, 7.26216414e-04, 0., 0., 1.45243283e-03, 0.,
          7.26216414e-04, 7.26216414e-04, 0., 0., 0., 0., 1.45243283e-03,
          0., 1.45243283e-03, 7.26216414e-04, 0., 1.23456791e-02,
          2.17864919e-03, 0., 7.26216414e-04, 1.45243283e-03,
          1.45243283e-03, 7.26216414e-04, 7.26216426e-03, 2.17864919e-03,
          1.45243283e-03, 0., 7.26216414e-04, 2.17864919e-03,
          7.26216414e-04, 0., 2.17864919e-03, 0., 7.26216414e-04,
          1.45243283e-03, 7.26216414e-04, 1.45243283e-03, 0., 0., 0., 0.,
          0., 7.26216414e-04, 0., 0., 2.17864919e-03, 2.17864919e-03,
          1.45243283e-03, 7.26216414e-04, 0., 2.90486566e-03,
          7.26216414e-04, 0., 7.26216414e-04, 1.45243283e-03, 0.,
          7.26216414e-04, 0., 1.45243283e-03, 7.26216414e-04, 0., 0., 0.,
          1.45243283e-03, 1.45243283e-03, 2.17864919e-03, 7.26216414e-04,
          0., 2.90486566e-03, 0., 7.26216414e-04, 1.45243283e-03, 0.,
          7.26216414e-04, 7.26216414e-04, 0., 0., 0., 0., 7.26216414e-04,
          2.17864919e-03, 0., 7.26216414e-04, 7.26216414e-04,
          2.17864919e-03, 0., 0., 0., 7.26216414e-04, 0., 1.23456791e-02,
          0., 0., 1.45243283e-03, 0., 2.17864919e-03, 1.45243283e-03,
          7.26216414e-04, 0., 3.63108213e-03, 0., 7.26216414e-04, 0., 0.,
          1.45243283e-03, 0., 1.45243283e-03, 1.45243283e-03, 0.,
          1.45243283e-03, 0., 2.90486566e-03, 0., 1.45243283e-03,
          7.26216414e-04, 1.45243283e-03, 7.26216414e-04, 1.45243283e-03,
          0., 0., 1.45243283e-03, 0., 7.26216414e-04, 1.45243283e-03, 0.,
          7.26216414e-04, 0., 1.45243283e-03, 0., 0., 6.53594779e-03,
          7.26216414e-04, 7.26216414e-04, 0., 0., 7.26216414e-04, 0.,
          1.45243283e-03, 7.26216414e-04, 0., 7.26216414e-04, 0., 0.,
          7.26216414e-04, 2.17864919e-03, 1.45243283e-03, 0.,
          2.17864919e-03, 0., 0., 0., 0., 2.17864919e-03, 7.26216414e-04,
          2.90486566e-03, 0., 7.26216414e-04, 1.45243283e-03, 0., 0.,
          7.26216414e-04, 7.26216414e-04, 5.80973132e-03, 7.26216414e-04,
          0., 0., 0., 0., 0., 0., 0., 0., 0., 0., 1.45243283e-03, 0., 0.,
          7.26216414e-04, 0., 7.26216414e-04, 7.26216414e-04,
          1.45243283e-03, 0., 0., 4.35729837e-03, 2.90486566e-03, 0., 0.,
          7.26216414e-04, 2.17864919e-03, 2.17864919e-03, 2.90486566e-03,
          0., 7.26216414e-04, 0., 2.17864919e-03, 0., 0., 2.90486566e-03,
          0., 0., 0., 0., 7.26216414e-04, 0., 0., 0., 4.35729837e-03, 0.,
          0., 2.17864919e-03, 0., 7.26216414e-04, 0., 1.45243283e-03, 0.,
          1.45243283e-03, 0., 0., 1.45243283e-03, 7.26216414e-04,
          2.17864919e-03, 0., 0., 0., 3.63108213e-03, 2.90486566e-03, 0.,
          0., 0., 2.17864919e-03, 0., 7.26216414e-04, 7.26216414e-04, 0.,
          1.45243283e-03, 0., 0., 0., 0., 7.26216414e-04, 2.17864919e-03,
          0., 7.26216414e-04, 2.17864919e-03, 7.26216414e-04, 0., 0., 0.,
          2.17864919e-03, 7.26216414e-04, 3.63108213e-03, 0., 0., 0.,
          6.53594779e-03, 2.17864919e-03, 0., 2.17864919e-03, 0., 0., 0.,
          0., 0., 0., 0., 0., 0., 0., 0., 1.45243283e-03, 0.,
          2.17864919e-03, 1.45243283e-03, 1.45243283e-03, 6.53594779e-03,
          0., 0., 6.53594779e-03, 7.26216414e-04, 7.26216414e-04,
          7.26216414e-04, 0., 7.26216414e-04, 0., 7.26216414e-04,
          7.26216414e-04, 1.45243283e-03, 7.26216414e-04, 7.26216414e-04,
          7.26216414e-04, 1.45243283e-03, 0., 0., 2.17864919e-03,
          7.26216414e-04, 0., 0., 0., 0., 0., 2.17864919e-03,
          1.45243283e-03, 7.26216414e-04, 0., 5.08351484e-03,
          7.26216414e-04, 3.63108213e-03, 0., 7.26216414e-04, 0.,
          1.01670297e-02, 0., 3.63108213e-03, 7.26216414e-04,
          2.90486566e-03, 0., 7.26216414e-04, 0., 0., 0., 2.17864919e-03,
          0., 7.26216414e-04, 1.45243283e-03, 2.90486566e-03,
          7.26216414e-04, 7.26216414e-04, 7.26216414e-04, 0., 0.,
          8.71459674e-03, 7.26216414e-04, 7.26216414e-04, 0., 0.,
          1.45243283e-03, 0., 0., 7.26216414e-04, 1.45243283e-03,
          5.08351484e-03, 0., 0., 0., 0., 0., 1.45243283e-03,
          7.26216414e-04, 0., 0., 1.45243283e-03, 0., 2.90486566e-03, 0.,
          0., 0., 0., 7.26216414e-04, 7.26216414e-04, 0., 1.45243283e-03,
          7.26216414e-04, 2.17864923e-02, 0., 0., 0., 5.80973132e-03,
          7.26216414e-04, 0., 0., 7.26216414e-04, 0., 0., 0., 0., 0., 0.,
          7.26216414e-04, 1.45243283e-03, 0., 7.26216414e-04,
          2.17864919e-03, 7.26216414e-04, 2.17864919e-03, 7.26216414e-04,
          0., 1.45243283e-03, 0., 0., 7.26216414e-04, 0., 7.26216414e-04,
          0., 2.17864919e-03, 7.26216414e-04, 0., 0., 1.45243283e-03,
          7.26216414e-04, 1.45243283e-03, 0., 0., 7.26216414e-04,
          2.90486566e-03, 0., 7.26216414e-04, 0., 7.26216414e-04,
          7.26216414e-04, 0., 1.45243283e-03, 7.26216414e-04,
          7.26216414e-04, 2.17864919e-03, 7.26216414e-04, 7.26216414e-04,
          0., 0., 7.26216414e-04, 7.26216414e-04, 0., 7.26216414e-04, 0.,
          1.45243283e-03, 0., 0., 2.17864919e-03, 1.45243283e-03, 0., 0.,
          0., 0., 7.26216414e-04, 3.63108213e-03, 0., 7.26216414e-04,
          1.45243283e-03, 1.45243283e-03, 0., 0., 7.26216414e-04,
          7.26216414e-04, 0., 2.17864919e-03, 7.26216414e-04,
          1.45243283e-03, 7.26216414e-04, 0., 0., 5.08351484e-03,
          2.17864919e-03, 0., 7.26216414e-04, 0., 7.26216414e-04, 0.,
          7.26216414e-04, 0., 0., 7.26216414e-04, 1.45243283e-03, 0.,
          1.45243283e-03, 0., 0., 0., 7.26216414e-04, 7.26216414e-04,
          7.26216414e-04, 0., 1.45243283e-03, 1.45243283e-03,
          7.26216414e-04, 0., 1.45243283e-03, 1.45243283e-03,
          7.26216414e-04, 0., 2.17864919e-03, 7.26216414e-04,
          7.26216414e-04, 7.69517617e-03, 6.89563677e-02, 3.67282704e-02,
          6.47848519e-03, 1.64332311e-03, 7.45815865e-04, 1.99094909e-04,
          7.90059203e-05, 4.74035514e-05, 4.42433156e-05, 6.32047304e-05,
          6.95252093e-05, 3.79228404e-05, 7.58456808e-05, 2.21216571e-04,
          2.43338232e-04, 1.64332305e-04, 1.45370883e-04, 1.01127574e-04,
          1.16928757e-04, 8.84866313e-05, 9.48071029e-05, 1.61172065e-04,
          1.73813023e-04, 6.25726883e-04, 1.88350107e-03, 2.48078583e-03,
          1.98146841e-03, 2.14896095e-03, 1.70968811e-03, 1.22617185e-03,
          7.67937512e-04, 8.69065116e-04, 7.04732782e-04, 8.34302511e-04,
          6.32047362e-04, 7.77418201e-04, 6.03605236e-04, 8.62744637e-04,
          7.74257991e-04, 1.02075643e-03, 1.10608281e-03, 1.30517781e-03,
          1.70336757e-03, 1.69388682e-03, 2.44286307e-03, 2.83157220e-03,
          3.91869340e-03, 4.72139381e-03, 6.45952392e-03, 5.81799587e-03,
          6.49428647e-03, 4.98369336e-03, 6.44372264e-03, 5.58003001e-02,
          2.98479921e-03, 6.60050213e-02, 4.43476997e-02, 6.47136942e-03,
          4.46428574e-04, 2.76711915e-04, 1.84474615e-04, 1.03305785e-04,
          1.88164107e-04, 5.16528926e-05, 1.14374263e-04, 1.32821719e-04,
          9.22373074e-05, 1.54958674e-04, 2.10301063e-04, 4.02154663e-04,
          1.91853600e-04, 3.28364811e-04, 3.35743796e-04, 1.91853600e-04,
          3.13606841e-04, 2.47195974e-04, 3.35743796e-04, 4.46428574e-04,
          4.42739081e-04, 7.67414400e-04, 1.48317590e-03, 8.92857148e-04,
          8.89167655e-04, 5.82939771e-04, 5.64492308e-04, 5.31286874e-04,
          5.31286874e-04, 6.16145204e-04, 6.45661145e-04, 5.31286874e-04,
          9.40820551e-04, 8.22756789e-04, 1.09208969e-03, 1.19170605e-03,
          1.44628098e-03, 1.45734951e-03, 1.63813459e-03, 2.24690093e-03,
          2.29486427e-03, 3.01062572e-03, 3.73007683e-03, 6.33485848e-03,
          8.16115737e-03, 1.20904669e-02, 1.21863931e-02, 1.30866291e-02,
          9.70705412e-03, 9.45247896e-03, 2.60736421e-02, 2.58414429e-02,
          5.76130971e-02, 2.72891633e-02, 7.84351025e-03, 1.01612194e-03,
          6.49094640e-04, 1.34236855e-03, 7.13664267e-05, 7.78233923e-04,
          5.77728206e-05, 7.81632334e-05, 3.39840117e-05, 2.03904074e-05,
          1.69920058e-05, 1.69920058e-05, 1.63123259e-04, 7.81632334e-05,
          1.22342448e-04, 1.49529660e-04, 1.56326467e-04, 8.83584362e-05,
          1.66521670e-04, 2.37888089e-04, 4.92768188e-04, 6.76281867e-04,
          3.53433745e-04, 6.15110621e-04, 9.03974753e-04, 1.53267896e-03,
          9.14169941e-04, 9.10771545e-04, 8.05421092e-04, 9.44755564e-04,
          1.06369960e-03, 1.10448047e-03, 8.56397150e-04, 9.58349148e-04,
          8.25811527e-04, 1.14186283e-03, 9.20966733e-04, 1.17924530e-03,
          1.33897015e-03, 1.62443577e-03, 1.97107275e-03, 1.53267896e-03,
          1.85552717e-03, 1.86572236e-03, 2.53860583e-03, 2.74590822e-03,
          3.97612946e-03, 3.94214550e-03, 5.35248220e-03, 4.96846251e-03,
          5.77388378e-03, 7.04828426e-02, 5.26712323e-03, 7.03835636e-02,
          4.03013714e-02, 4.12671221e-03, 8.93835619e-04, 4.34931513e-04,
          9.58904100e-04, 2.73972601e-05, 9.17808211e-04, 1.36986300e-05,
          4.79452065e-05, 3.08219169e-05, 2.39726032e-05, 1.36986300e-05,
          1.36986300e-05, 4.45205478e-05, 5.82191788e-05, 6.84931501e-06,
          2.73972601e-05, 6.84931510e-05, 3.76712342e-05, 9.24657506e-05,
          2.15753418e-04, 4.52054781e-04, 5.41095913e-04, 3.04794521e-04,
          4.48630133e-04, 7.08904117e-04, 7.63698597e-04, 5.47945208e-04,
          4.96575318e-04, 3.69863003e-04, 3.69863003e-04, 2.84246576e-04,
          3.32191790e-04, 2.08904108e-04, 3.28767113e-04, 3.63013707e-04,
          5.75342448e-04, 5.75342448e-04, 1.00342464e-03, 1.18150678e-03,
          1.49315072e-03, 1.99315068e-03, 2.53082183e-03, 3.46232881e-03,
          3.49657540e-03, 4.76027373e-03, 5.48630115e-03, 7.71575328e-03,
          7.66438339e-03, 1.08150681e-02, 1.08253425e-02, 1.22808218e-02,
          4.36130129e-02, 2.10776508e-01, 6.40737545e-03, 2.15586484e-03,
          1.70712956e-04, -9.21712626e-08, -1.27460717e-05,
          -4.72233488e-08 ]
      - [ 2.73972610e-03, 0., 7.82778894e-04, 2.73972610e-03,
          3.91389447e-04, 0., 0., 7.82778894e-04, 3.91389447e-04,
          3.13111558e-03, 0., 3.91389447e-04, 7.82778894e-04,
          1.95694715e-03, 3.91389447e-04, 4.30528400e-03, 7.82778894e-04,
          0., 3.91389447e-04, 2.73972610e-03, 9.78473574e-03,
          1.56555779e-03, 3.91389447e-04, 7.82778894e-04, 1.17416831e-03,
          3.91389447e-04, 1.17416831e-03, 2.73972610e-03, 1.56555779e-03,
          1.56555779e-03, 3.91389447e-04, 3.91389447e-04, 0., 0., 0., 0.,
          5.87084191e-03, 7.82778894e-04, 7.82778894e-04, 2.34833662e-03,
          0., 1.17416831e-03, 7.82778894e-04, 7.82778894e-04,
          1.17416831e-03, 3.91389447e-04, 3.91389447e-04, 0., 0.,
          1.56555779e-03, 0., 3.91389447e-04, 3.91389447e-04,
          3.91389447e-04, 7.82778894e-04, 1.17416831e-03, 0.,
          3.91389447e-04, 0., 3.91389447e-04, 1.17416831e-03,
          7.82778894e-04, 1.95694715e-03, 7.82778894e-04, 4.69667325e-03,
          0., 0., 7.82778894e-04, 7.82778894e-04, 3.91389447e-04,
          1.95694715e-03, 0., 0., 4.30528400e-03, 8.21917877e-03,
          1.56555779e-03, 5.47945220e-03, 1.95694715e-03, 0., 0., 0.,
          7.82778894e-04, 3.52250505e-03, 1.56555779e-03, 0., 0.,
          3.91389447e-04, 0., 0., 2.34833662e-03, 7.82778894e-04,
          1.95694715e-03, 0., 0., 7.82778894e-04, 7.82778894e-04, 0.,
          1.95694715e-03, 0., 0., 0., 0., 2.34833662e-03, 0.,
          3.52250505e-03, 1.95694715e-03, 5.47945220e-03, 1.56555779e-03,
          3.91389447e-04, 0., 3.91389447e-04, 1.17416831e-03,
          3.91389447e-04, 3.91389447e-04, 7.82778894e-04, 1.95694715e-03,
          7.82778894e-04, 1.95694715e-03, 1.17416831e-03, 3.91389447e-04,
          1.56555779e-03, 0., 3.91389447e-04, 1.95694715e-03, 0., 0., 0.,
          0., 1.17416831e-03, 3.91389447e-04, 0., 1.56555779e-03, 0.,
          3.91389447e-04, 1.17416831e-03, 0., 0., 0., 0., 7.82778894e-04,
          0., 3.91389447e-04, 7.82778894e-04, 1.17416831e-03,
          3.91389447e-04, 0., 3.91389447e-04, 3.52250505e-03, 0.,
          3.91389447e-04, 3.91389447e-04, 1.95694715e-03, 0.,
          3.91389447e-04, 7.82778894e-04, 0., 0., 1.17416831e-03,
          3.91389447e-04, 1.95694715e-03, 7.82778894e-04, 1.95694715e-03,
          7.82778894e-04, 1.17416831e-03, 0., 3.52250505e-03,
          7.82778894e-04, 2.34833662e-03, 3.91389447e-04, 1.56555779e-03,
          1.17416831e-03, 0., 0., 7.82778894e-04, 7.82778894e-04,
          5.08806296e-03, 4.30528400e-03, 0., 7.82778894e-04,
          4.69667325e-03, 0., 0., 7.82778894e-04, 0., 3.91389447e-04,
          2.73972610e-03, 3.91389447e-04, 0., 1.17416831e-03, 0.,
          7.82778894e-04, 3.91389430e-03, 0., 0., 0., 0., 2.73972610e-03,
          0., 7.82778894e-04, 3.91389447e-04, 0., 3.91389447e-04,
          7.82778894e-04, 3.91389447e-04, 7.82778894e-04, 0., 0.,
          1.95694715e-03, 3.91389447e-04, 7.82778894e-04, 0., 0., 0.,
          7.82778894e-04, 3.91389447e-04, 1.17416831e-03, 2.34833662e-03,
          7.82778894e-04, 1.95694715e-03, 0., 0., 3.91389447e-04,
          3.91389447e-04, 0., 4.69667325e-03, 5.08806296e-03,
          7.82778894e-04, 1.95694715e-03, 0., 2.73972610e-03, 0.,
          3.91389447e-04, 0., 1.17416831e-03, 0., 6.65362040e-03, 0.,
          3.91389447e-04, 0., 1.56555779e-03, 1.17416831e-03, 0., 0., 0.,
          1.56555779e-03, 3.91389447e-04, 3.91389447e-04, 0.,
          3.91389447e-04, 0., 0., 3.91389447e-04, 7.82778894e-04,
          1.56555779e-03, 3.91389447e-04, 7.82778894e-04, 0.,
          1.95694715e-03, 0., 0., 3.91389447e-04, 0., 1.17416831e-03,
          3.91389430e-03, 0., 2.73972610e-03, 3.91389447e-04,
          1.17416831e-03, 0., 3.91389447e-04, 7.82778894e-04,
          7.82778894e-04, 3.91389447e-04, 3.91389447e-04, 4.30528400e-03,
          3.91389447e-04, 0., 0., 0., 0., 0., 0., 0., 0., 7.82778894e-04,
          1.17416831e-03, 3.91389447e-04, 0., 0., 7.82778894e-04, 0., 0.,
          3.91389447e-04, 0., 0., 1.56555779e-03, 0., 0., 1.17416831e-03,
          3.13111558e-03, 1.17416831e-03, 0., 1.95694715e-03,
          3.91389447e-04, 1.56555779e-03, 0., 0., 1.17416831e-03, 0.,
          2.73972610e-03, 0., 7.82778894e-04, 3.52250505e-03,
          4.69667325e-03, 1.95694715e-03, 0., 3.13111558e-03,
          3.91389447e-04, 7.82778894e-04, 7.82778894e-04, 0.,
          1.95694715e-03, 5.08806296e-03, 2.34833662e-03, 3.91389447e-04,
          0., 2.34833662e-03, 0., 2.34833662e-03, 0., 7.82778894e-04,
          7.82778894e-04, 3.91389447e-04, 2.34833662e-03, 0.,
          7.82778894e-04, 2.73972610e-03, 0., 3.91389447e-04,
          3.91389430e-03, 3.91389447e-04, 3.91389447e-04, 3.91389447e-04,
          0., 0., 0., 4.69667325e-03, 0., 7.82778894e-04, 7.82778894e-04,
          3.91389447e-04, 7.82778894e-04, 3.91389447e-04, 7.82778894e-04,
          0., 0., 0., 0., 3.91389447e-04, 0., 3.91389447e-04,
          7.82778894e-04, 3.91389447e-04, 7.82778894e-04, 1.17416831e-03,
          3.91389447e-04, 0., 0., 3.91389447e-04, 8.21917877e-03,
          1.56555779e-03, 7.04501010e-03, 0., 3.91389447e-04, 0., 0.,
          3.52250505e-03, 0., 7.82778894e-04, 3.91389447e-04, 0.,
          2.34833662e-03, 1.56555779e-03, 7.82778894e-04, 1.56555779e-03,
          1.56555779e-03, 0., 5.08806296e-03, 0., 0., 0., 2.73972610e-03,
          5.87084191e-03, 0., 7.82778894e-04, 4.69667325e-03, 0.,
          3.52250505e-03, 7.82778894e-04, 0., 3.91389447e-04,
          2.73972610e-03, 0., 1.17416831e-03, 7.82778894e-04,
          2.34833662e-03, 0., 3.91389447e-04, 0., 0., 3.91389447e-04, 0.,
          3.91389447e-04, 3.91389447e-04, 0., 0., 0., 3.91389447e-04,
          3.91389447e-04, 3.52250505e-03, 7.82778894e-04, 1.17416831e-03,
          3.91389447e-04, 3.13111558e-03, 3.91389447e-04, 1.95694715e-03,
          1.17416831e-03, 0., 0., 7.82778894e-04, 1.95694715e-03,
          7.82778894e-04, 7.82778894e-04, 3.91389447e-04, 3.91389447e-04,
          0., 3.91389430e-03, 3.91389447e-04, 1.56555779e-03,
          3.91389447e-04, 0., 7.82778894e-04, 1.56555779e-03,
          3.91389447e-04, 1.56555779e-03, 0., 0., 2.73972610e-03,
          3.91389447e-04, 0., 3.91389447e-04, 2.34833662e-03,
          1.17416831e-03, 0., 1.56555779e-03, 3.13111558e-03, 0.,
          5.47945220e-03, 3.91389447e-04, 7.82778894e-04, 7.82778894e-04,
          7.82778894e-04, 0., 1.56555779e-03, 3.91389447e-04, 0.,
          3.91389447e-04, 0., 0., 3.91389430e-03, 3.91389430e-03, 0.,
          7.82778894e-04, 3.91389447e-04, 0., 0., 3.91389447e-04,
          2.34833662e-03, 1.56555779e-03, 3.91389447e-04, 2.34833662e-03,
          3.91389447e-04, 0., 7.82778894e-04, 0., 0., 1.95694715e-03,
          3.91389447e-04, 7.82778894e-04, 7.82778894e-04, 5.47945220e-03,
          1.17416831e-03, 1.17416831e-03, 0., 7.82778894e-04,
          7.82778894e-04, 0., 4.69667325e-03, 3.91389447e-04, 0.,
          1.17416831e-03, 3.91389447e-04, 1.17416831e-03, 7.82778894e-04,
          7.82778894e-04, 0., 1.56555779e-03, 7.04501010e-03,
          3.91389447e-04, 0., 0., 1.17416831e-03, 1.95694715e-03,
          7.82778894e-04, 3.91389447e-04, 0., 7.82778894e-04, 0., 0.,
          3.91389430e-03, 0., 0., 0., 1.17416831e-03, 7.82778894e-04,
          7.82778894e-04, 0., 0., 7.82778894e-04, 1.56555779e-03, 0.,
          1.17416831e-03, 1.95694715e-03, 2.73972610e-03, 1.95694715e-03,
          3.91389447e-04, 3.91389447e-04, 0., 1.17416831e-03,
          3.91389447e-04, 1.17416831e-03, 0., 3.91389447e-04,
          3.91389447e-04, 0., 7.82778894e-04, 0., 1.56555779e-03,
          7.82778894e-04, 1.17416831e-03, 7.82778894e-04, 5.87084191e-03,
          0., 0., 0., 1.95694715e-03, 3.91389447e-04, 0., 7.82778894e-04,
          2.34833662e-03, 0., 1.56555779e-03, 0., 0., 0., 1.17416831e-03,
          0., 2.34833662e-03, 0., 0., 0., 0., 0., 3.91389447e-04,
          1.17416831e-03, 5.47945220e-03, 0., 7.82778894e-04,
          1.17416831e-03, 0., 0., 0., 7.82778894e-04, 0., 0.,
          1.17416831e-03, 0., 1.56555779e-03, 1.17416831e-03,
          1.17416831e-03, 0., 3.91389447e-04, 3.91389447e-04,
          1.56555779e-03, 7.82778894e-04, 1.56555779e-03, 3.91389447e-04,
          0., 0., 3.91389447e-04, 0., 3.91389447e-04, 0., 0.,
          7.82778894e-04, 0., 3.91389447e-04, 3.91389447e-04,
          2.34833662e-03, 0., 0., 1.17416831e-03, 3.91389447e-04,
          1.56555779e-03, 0., 1.17416831e-03, 1.17416831e-03, 0.,
          1.56555779e-03, 5.87084191e-03, 1.56555779e-03, 7.82778894e-04,
          0., 0., 0., 0., 1.17416831e-03, 1.17416831e-03, 3.91389447e-04,
          0., 0., 3.13111558e-03, 3.91389447e-04, 2.73972610e-03,
          7.82778894e-04, 7.82778894e-04, 0., 0., 3.52250505e-03,
          2.34833662e-03, 1.56555779e-03, 3.91389447e-04, 1.95694715e-03,
          0., 3.91389447e-04, 3.91389447e-04, 1.17416831e-03,
          1.17416831e-03, 0., 1.17416831e-03, 0., 0., 0., 1.56555779e-03,
          5.47945220e-03, 0., 0., 0., 2.73972610e-03, 2.34833662e-03, 0.,
          7.82778894e-04, 0., 5.08806296e-03, 0., 0., 1.17416831e-03, 0.,
          1.95694715e-03, 3.91389447e-04, 7.82778894e-04, 7.82778894e-04,
          1.17416831e-03, 0., 0., 1.56555779e-03, 3.91389447e-04, 0.,
          2.34833662e-03, 3.91389447e-04, 2.34833662e-03, 0., 0., 0., 0.,
          0., 0., 1.56555779e-03, 0., 0., 7.82778894e-04, 2.73972610e-03,
          2.34833662e-03, 5.87084191e-03, 6.65362040e-03, 3.91389447e-04,
          1.95694715e-03, 3.91389447e-04, 2.34833662e-03, 0.,
          1.56555779e-03, 3.52250505e-03, 3.91389447e-04, 7.82778894e-04,
          0., 0., 3.91389447e-04, 1.95694715e-03, 1.17416831e-03,
          1.17416831e-03, 5.47945220e-03, 7.82778894e-04, 0.,
          7.82778894e-04, 0., 6.26223115e-03, 0., 2.73972610e-03,
          3.91389447e-04, 0., 2.34833662e-03, 0., 8.61056801e-03, 0.,
          1.95694715e-03, 3.91389447e-04, 7.04501010e-03, 3.91389447e-04,
          3.13111558e-03, 1.95694715e-03, 3.91389447e-04, 7.82778894e-04,
          0., 3.52250505e-03, 1.17416831e-03, 1.17416831e-03, 0.,
          7.82778894e-04, 7.82778894e-04, 0., 2.34833662e-03,
          2.34833662e-03, 1.56555779e-03, 0., 0., 1.95694715e-03, 0., 0.,
          7.82778894e-04, 0., 0., 5.87084191e-03, 0., 2.34833662e-03,
          7.82778894e-04, 3.13111558e-03, 3.91389447e-04, 2.73972610e-03,
          0., 0., 7.82778894e-04, 7.82778894e-04, 3.91389447e-04,
          1.95694715e-03, 0., 7.82778894e-04, 0., 0., 2.34833662e-03,
          2.73972610e-03, 0., 3.91389447e-04, 0., 0., 0., 0., 0.,
          3.91389447e-04, 0., 7.82778894e-04, 0., 0., 2.73972610e-03, 0.,
          0., 3.13111558e-03, 0., 3.52250505e-03, 0., 1.17416831e-03,
          1.17416831e-03, 1.17416831e-03, 1.56555779e-03, 6.65362040e-03,
          0., 3.91389447e-04, 7.82778894e-04, 3.91389447e-04, 0.,
          7.82778894e-04, 0., 3.91389447e-04, 2.34833662e-03, 0.,
          7.82778894e-04, 0., 3.91389447e-04, 2.34833662e-03, 0., 0.,
          1.17416831e-03, 7.82778894e-04, 1.95694715e-03, 5.47945220e-03,
          4.69667325e-03, 0., 1.95694715e-03, 3.91389447e-04, 0.,
          3.91389447e-04, 0., 5.08806296e-03, 2.73972610e-03,
          1.17416831e-03, 3.91389447e-04, 0., 3.91389430e-03,
          3.91389447e-04, 3.91389447e-04, 0., 0., 0., 0., 1.17416831e-03,
          1.17416831e-03, 0., 7.82778894e-04, 0., 3.91389447e-04, 0.,
          7.82778894e-04, 0., 1.56555779e-03, 0., 0., 0., 4.69667325e-03,
          3.91389447e-04, 1.56555779e-03, 8.61056801e-03, 0.,
          7.82778894e-04, 0., 0., 2.34833662e-03, 1.17416831e-03, 0.,
          3.91389447e-04, 0., 3.13111558e-03, 3.91389447e-04, 0., 0.,
          2.34833662e-03, 1.17416831e-03, 2.34833662e-03, 7.82778894e-04,
          1.95694715e-03, 0., 7.82778894e-04, 0., 3.91389447e-04, 0., 0.,
          0., 0., 3.91389447e-04, 3.91389447e-04, 7.82778894e-04,
          1.56555779e-03, 0., 0., 0., 0., 0., 0., 0., 7.82778894e-04, 0.,
          0., 3.91389447e-04, 0., 7.82778894e-04, 5.08806296e-03, 0.,
          3.91389447e-04, 0., 2.34833662e-03, 0., 3.91389447e-04,
          3.13111558e-03, 0., 0., 3.91389447e-04, 0., 0., 6.65362040e-03,
          2.34833662e-03, 0., 3.91389447e-04, 3.91389447e-04, 0.,
          3.91389447e-04, 1.17416831e-03, 3.91389447e-04, 2.73972610e-03,
          3.91389447e-04, 3.91389447e-04, 7.82778894e-04, 1.17416831e-03,
          7.04501010e-03, 7.82778894e-04, 1.17416831e-03, 0.,
          5.08806296e-03, 7.82778894e-04, 7.82778894e-04, 0., 0., 0.,
          3.91389447e-04, 0., 3.91389447e-04, 0., 0., 1.17416831e-03, 0.,
          0., 3.91389447e-04, 0., 0., 0., 0., 4.69667325e-03,
          3.91389447e-04, 2.73972610e-03, 1.56555779e-03, 1.56555779e-03,
          3.91389447e-04, 7.43639935e-03, 3.91389447e-04, 2.34833662e-03,
          1.17416831e-03, 0., 0., 0., 1.95694715e-03, 2.34833662e-03, 0.,
          1.56555779e-03, 3.91389447e-04, 3.91389447e-04, 3.91389447e-04,
          0., 0., 1.95694715e-03, 3.91389447e-04, 1.56555779e-03,
          3.13111558e-03, 0., 3.91389447e-04, 3.13111558e-03,
          7.04501010e-03, 3.91389447e-04, 0., 3.91389447e-04, 0., 0.,
          3.52250505e-03, 0., 5.47945220e-03, 3.91389447e-04,
          2.73972610e-03, 1.17416831e-03, 1.95694715e-03, 7.82778894e-04,
          0., 0., 3.91389447e-04, 7.82778894e-04, 0., 2.34833662e-03, 0.,
          0., 0., 1.95694715e-03, 0., 3.91389447e-04, 3.91389447e-04, 0.,
          6.80394704e-04, 3.16150524e-02, 8.04947317e-02, 1.21911811e-02,
          1.24273001e-05, 0., 0., 0., 0., 0., 3.10682503e-06, 0., 0., 0.,
          0., 0., 0., 0., 0., 0., 0., 0., 0., 0., 3.10682503e-06,
          3.10682503e-06, 0., 0., 0., 0., 0., 0., 0., 0., 0.,
          6.21365007e-06, 9.32047533e-06, 1.24273001e-05, 1.86409507e-05,
          2.79614251e-05, 3.72819013e-05, 8.38842752e-05, 5.90296768e-05,
          1.27379826e-04, 2.01943622e-04, 2.98255211e-04, 4.69130580e-04,
          1.08117505e-03, 2.04429077e-03, 4.62606270e-03, 7.21094105e-03,
          1.30828405e-02, 1.71652082e-02, 2.19838936e-02, 5.64510114e-02,
          1.70898449e-04, 2.33194996e-02, 8.87166411e-02, 1.27929691e-02,
          0., 0., 0., 0., 0., 0., 0., 0., 0., 0., 0., 0., 0., 0., 0., 0.,
          0., 0., 0., 0., 0., 0., 0., 0., 0., 0., 0., 0., 0., 0.,
          1.22070323e-05, 4.06901063e-06, 7.73112042e-05, 1.46484381e-04,
          2.19726571e-04, 1.54622408e-04, 2.56347674e-04, 3.41796898e-04,
          3.33658885e-04, 5.77799510e-04, 8.70768272e-04, 1.36311853e-03,
          1.75374362e-03, 3.68652353e-03, 6.46972703e-03, 1.27482107e-02,
          1.70166027e-02, 2.10001636e-02, 1.58121753e-02, 1.47827156e-02,
          2.73722336e-02, 3.05547751e-03, 4.60716188e-02, 7.54418746e-02,
          2.77770683e-04, 9.89757609e-05, 2.87348976e-05, 0., 0., 0., 0.,
          0., 0., 0., 0., 0., 0., 0., 0., 0., 0., 0., 0., 3.19276637e-06,
          6.38553274e-06, 1.59638312e-05, 0., 0., 0., 0., 0., 0.,
          3.19276637e-06, 6.38553274e-06, 3.19276637e-06, 9.57829889e-06,
          2.23493644e-05, 1.27710655e-05, 1.59638312e-05, 2.87348976e-05,
          3.19276623e-05, 3.83131955e-05, 7.34336281e-05, 1.08554057e-04,
          1.30903427e-04, 1.72409389e-04, 2.61806854e-04, 3.70360911e-04,
          6.48131594e-04, 9.70600988e-04, 1.87096104e-03, 2.70108040e-03,
          5.04137808e-03, 7.48703722e-03, 1.50411222e-02, 8.99498090e-02,
          9.16213321e-04, 3.22262757e-02, 8.98051932e-02, 2.05231784e-03,
          0., 0., 0., 0., 0., 0., 0., 0., 0., 0., 0., 0., 0., 0., 0., 0.,
          0., 0., 0., 0., 0., 0., 0., 0., 0., 0., 0., 0., 0., 0., 0., 0.,
          0., 0., 0., 0., 2.03602958e-05, 4.07205916e-05, 4.88647129e-05,
          1.05873543e-04, 1.87314727e-04, 2.89116200e-04, 6.92250091e-04,
          1.45372516e-03, 2.52874871e-03, 5.78232436e-03, 1.06240027e-02,
          1.57710854e-02, 1.78234037e-02, 2.16918588e-02, 4.79403548e-02,
          2.22249940e-01, 8.37215316e-03, 3.12886131e-03, 2.59766181e-04,
          -2.33998946e-07, -2.37641980e-05, 9.44045553e-09 ]
      - [ 1.16459629e-03, 7.76397530e-04, 1.16459629e-03, 3.88198765e-04,
          7.76397530e-04, 0., 3.88198765e-04, 0., 0., 4.27018665e-03,
          7.76397530e-04, 0., 1.16459629e-03, 7.76397530e-04,
          3.88198765e-04, 9.70496889e-03, 1.55279506e-03, 0.,
          3.88198765e-04, 1.55279506e-03, 8.92857183e-03, 3.88198765e-04,
          3.49378888e-03, 3.88198765e-04, 1.94099382e-03, 3.88198765e-04,
          3.88198765e-04, 1.55279506e-03, 1.55279506e-03, 1.94099382e-03,
          1.16459629e-03, 3.88198765e-04, 0., 3.88198765e-04,
          3.88198765e-04, 3.88198765e-03, 2.32919259e-03, 1.94099382e-03,
          7.76397530e-04, 1.94099382e-03, 0., 1.16459629e-03, 0.,
          2.71739135e-03, 3.10559012e-03, 0., 0., 0., 0., 3.88198765e-04,
          0., 0., 0., 3.88198765e-04, 1.94099382e-03, 1.94099382e-03,
          7.76397530e-04, 1.16459629e-03, 7.76397530e-04, 0., 0.,
          1.16459629e-03, 3.88198765e-04, 1.94099382e-03, 4.27018665e-03,
          7.76397530e-04, 0., 0., 3.88198765e-04, 4.27018665e-03,
          1.94099382e-03, 3.88198765e-04, 0., 1.16459629e-03,
          1.55279506e-03, 0., 3.88198765e-04, 0., 0., 0., 7.76397530e-04,
          1.55279506e-03, 2.71739135e-03, 3.10559012e-03, 3.88198765e-04,
          7.76397530e-04, 1.55279506e-03, 0., 0., 0., 7.76397530e-04,
          2.32919259e-03, 3.88198765e-04, 0., 0., 0., 0., 2.32919259e-03,
          1.16459629e-03, 0., 3.88198765e-04, 0., 1.55279506e-03, 0.,
          2.32919259e-03, 0., 1.94099382e-03, 1.94099382e-03,
          3.49378888e-03, 2.32919259e-03, 0., 0., 7.76397530e-04, 0.,
          4.65838518e-03, 1.55279506e-03, 0., 3.88198765e-04,
          5.82298171e-03, 3.88198765e-04, 4.27018665e-03, 0.,
          1.16459629e-03, 1.16459629e-03, 3.88198765e-04, 0., 0.,
          3.88198765e-04, 3.49378888e-03, 1.16459629e-03, 1.55279506e-03,
          0., 7.76397530e-04, 7.76397530e-04, 0., 0., 1.94099382e-03, 0.,
          3.88198765e-04, 0., 0., 0., 0., 0., 7.76397530e-04,
          2.32919259e-03, 3.88198765e-04, 1.16459629e-03, 0.,
          3.88198765e-04, 1.16459629e-03, 2.32919259e-03, 7.76397530e-04,
          3.88198765e-04, 1.55279506e-03, 0., 0., 7.76397530e-04,
          3.88198765e-03, 3.49378888e-03, 3.88198765e-04, 2.71739135e-03,
          0., 0., 3.88198765e-04, 3.49378888e-03, 3.88198765e-04,
          2.71739135e-03, 1.55279506e-03, 7.76397530e-04, 0.,
          7.76397530e-04, 1.16459629e-03, 7.76397530e-04, 1.94099382e-03,
          7.37577677e-03, 0., 0., 3.88198765e-04, 1.16459629e-03, 0.,
          3.88198765e-04, 1.16459629e-03, 3.88198765e-04, 1.94099382e-03,
          1.16459629e-03, 0., 1.94099382e-03, 5.04658371e-03,
          3.88198765e-04, 7.76397530e-04, 0., 3.88198765e-04, 0., 0., 0.,
          3.10559012e-03, 0., 1.16459629e-03, 3.88198765e-04,
          3.88198765e-04, 1.55279506e-03, 7.76397530e-04, 3.88198765e-04,
          2.71739135e-03, 0., 0., 1.94099382e-03, 2.71739135e-03,
          3.88198765e-04, 3.88198765e-04, 0., 0., 0., 0., 7.76397530e-04,
          2.32919259e-03, 1.55279506e-03, 1.55279506e-03, 0.,
          3.88198765e-04, 3.88198765e-04, 0., 1.16459629e-03,
          1.16459629e-03, 7.37577677e-03, 1.16459629e-03, 0., 0.,
          1.16459629e-03, 3.88198765e-04, 7.76397530e-04, 0.,
          1.55279506e-03, 0., 2.32919259e-03, 0., 3.88198765e-04,
          7.76397530e-04, 1.55279506e-03, 3.88198765e-04, 3.88198765e-04,
          0., 0., 6.98757777e-03, 0., 3.88198765e-04, 0., 7.76397530e-04,
          0., 1.16459629e-03, 3.88198765e-04, 3.88198765e-04, 0.,
          3.88198765e-04, 1.16459629e-03, 1.16459629e-03, 1.94099382e-03,
          3.88198765e-04, 0., 1.55279506e-03, 3.10559012e-03,
          3.88198765e-04, 3.88198765e-04, 3.88198765e-04, 1.94099382e-03,
          5.82298171e-03, 0., 0., 3.88198765e-04, 2.71739135e-03,
          1.55279506e-03, 1.16459629e-03, 0., 7.76397530e-04, 0., 0.,
          3.88198765e-04, 0., 0., 1.55279506e-03, 0., 0., 0.,
          7.76397530e-04, 3.88198765e-04, 3.88198765e-04, 0., 0.,
          1.94099382e-03, 0., 0., 1.94099382e-03, 0., 0., 1.16459629e-03,
          3.88198765e-04, 0., 3.10559012e-03, 2.32919259e-03,
          8.15217383e-03, 0., 1.94099382e-03, 0., 0., 0., 0.,
          3.88198765e-04, 1.16459629e-03, 2.71739135e-03, 0.,
          7.76397530e-04, 1.94099382e-03, 6.98757777e-03, 1.94099382e-03,
          0., 1.55279506e-03, 3.88198765e-04, 1.16459629e-03, 0., 0.,
          3.88198765e-04, 6.59937877e-03, 0., 7.76397530e-04,
          3.88198765e-04, 5.43478271e-03, 1.55279506e-03, 3.88198765e-04,
          3.88198765e-04, 3.88198765e-04, 1.94099382e-03, 1.16459629e-03,
          7.76397530e-04, 0., 3.88198765e-04, 1.55279506e-03, 0.,
          7.76397530e-04, 1.16459634e-02, 3.88198765e-04, 7.76397530e-04,
          7.76397530e-04, 7.76397530e-04, 7.76397530e-04, 3.88198765e-04,
          2.71739135e-03, 7.76397530e-04, 7.76397530e-04, 7.76397530e-04,
          3.88198765e-04, 7.76397530e-04, 0., 0., 0., 7.76397530e-04,
          3.88198765e-04, 0., 3.10559012e-03, 0., 7.76397530e-04,
          1.16459629e-03, 3.88198765e-04, 7.76397530e-04, 0.,
          3.88198765e-04, 3.10559012e-03, 3.88198765e-04, 7.76397530e-04,
          1.55279506e-03, 0., 4.65838518e-03, 0., 3.49378888e-03, 0., 0.,
          2.32919259e-03, 7.76397530e-04, 3.88198765e-03, 0.,
          1.16459629e-03, 3.49378888e-03, 1.94099382e-03, 0.,
          3.88198765e-04, 1.16459629e-03, 3.88198765e-04, 1.47515535e-02,
          7.76397530e-04, 0., 0., 4.27018665e-03, 6.21118024e-03,
          3.88198765e-04, 0., 3.49378888e-03, 0., 2.71739135e-03, 0.,
          7.76397530e-04, 0., 3.88198765e-04, 0., 3.88198765e-04, 0., 0.,
          7.76397530e-04, 0., 0., 3.88198765e-04, 0., 0., 7.76397530e-04,
          7.76397530e-04, 0., 0., 0., 0., 5.43478271e-03, 1.94099382e-03,
          1.16459629e-03, 0., 3.88198765e-04, 1.94099382e-03, 0.,
          1.55279506e-03, 3.88198765e-04, 0., 7.76397530e-04,
          3.88198765e-04, 6.21118024e-03, 1.55279506e-03, 0.,
          3.88198765e-04, 0., 3.88198765e-04, 3.88198765e-04, 0.,
          1.55279506e-03, 3.88198765e-04, 0., 0., 0., 0., 1.94099382e-03,
          3.88198765e-04, 3.88198765e-04, 0., 0., 0., 0., 6.21118024e-03,
          1.55279506e-03, 0., 1.94099382e-03, 1.94099382e-03, 0.,
          3.88198765e-04, 7.76397530e-04, 1.16459629e-03, 7.76397530e-04,
          7.76397530e-04, 7.76397530e-04, 1.55279506e-03, 0., 0.,
          1.16459629e-03, 1.16459629e-03, 4.27018665e-03, 1.55279506e-03,
          3.88198765e-04, 0., 1.55279506e-03, 3.88198765e-04, 0.,
          3.88198765e-04, 0., 1.16459629e-03, 3.88198765e-04,
          1.16459629e-03, 1.16459629e-03, 1.55279506e-03, 1.55279506e-03,
          7.76397530e-04, 3.88198765e-04, 0., 2.71739135e-03,
          3.88198765e-04, 7.76397530e-04, 3.10559012e-03, 7.37577677e-03,
          0., 1.16459629e-03, 3.88198765e-04, 7.76397530e-04, 0., 0.,
          8.54037330e-03, 7.76397530e-04, 7.76397530e-04, 1.16459629e-03,
          0., 4.27018665e-03, 0., 7.76397530e-04, 0., 7.76397530e-04,
          3.49378888e-03, 4.27018665e-03, 7.76397530e-04, 7.76397530e-04,
          3.88198765e-04, 1.16459629e-03, 3.49378888e-03, 1.94099382e-03,
          0., 0., 3.88198765e-04, 0., 0., 3.88198765e-04, 0., 0., 0., 0.,
          0., 1.94099382e-03, 3.88198765e-04, 7.76397530e-04, 0., 0.,
          2.32919259e-03, 7.76397530e-04, 3.88198765e-04, 3.88198765e-04,
          7.76397530e-04, 0., 0., 1.16459629e-03, 0., 1.16459629e-03, 0.,
          0., 3.88198765e-03, 0., 0., 1.55279506e-03, 0., 1.16459629e-03,
          3.88198765e-04, 0., 3.49378888e-03, 0., 1.55279506e-03, 0.,
          1.55279506e-03, 3.88198765e-04, 0., 4.65838518e-03,
          3.88198765e-04, 3.88198765e-04, 1.16459629e-03, 0., 0.,
          3.88198765e-04, 7.76397530e-04, 3.88198765e-04, 0.,
          3.88198765e-04, 3.88198765e-04, 3.88198765e-04, 1.55279506e-03,
          0., 0., 0., 1.55279506e-03, 3.88198765e-04, 0., 1.94099382e-03,
          0., 0., 0., 0., 0., 3.88198765e-04, 0., 0., 3.10559012e-03,
          3.88198765e-04, 1.55279506e-03, 7.76397530e-04, 0., 0., 0.,
          1.94099382e-03, 1.94099382e-03, 1.16459629e-03, 1.55279506e-03,
          0., 3.88198765e-04, 7.76397530e-04, 3.88198765e-04,
          2.32919259e-03, 3.88198765e-04, 1.16459629e-03, 0.,
          3.88198765e-04, 0., 0., 0., 0., 0., 0., 1.94099382e-03, 0.,
          3.49378888e-03, 0., 0., 3.10559012e-03, 1.16459629e-03, 0.,
          3.88198765e-04, 0., 3.88198765e-04, 7.76397530e-04,
          7.76397530e-04, 1.16459629e-03, 7.76397530e-04, 3.88198765e-04,
          0., 0., 1.55279506e-03, 0., 2.32919259e-03, 3.88198765e-04,
          1.55279506e-03, 1.94099382e-03, 0., 3.88198765e-03,
          2.32919259e-03, 3.88198765e-04, 0., 0., 3.88198765e-04, 0., 0.,
          7.76397530e-04, 0., 0., 3.88198765e-04, 0., 7.76397530e-04,
          1.55279506e-03, 1.16459629e-03, 1.16459629e-03, 1.16459629e-03,
          0., 0., 0., 3.88198765e-04, 0., 0., 3.88198765e-04,
          5.43478271e-03, 0., 0., 3.10559012e-03, 0., 1.55279506e-03,
          1.16459629e-03, 7.76397530e-04, 1.94099382e-03, 7.76397530e-04,
          2.32919259e-03, 7.76397530e-04, 1.55279506e-03, 0., 0.,
          1.94099382e-03, 1.55279506e-03, 0., 3.88198765e-04, 0., 0.,
          1.55279506e-03, 3.88198765e-04, 0., 0., 0., 3.88198765e-04,
          1.55279506e-03, 3.10559012e-03, 1.16459629e-03, 4.65838518e-03,
          1.55279506e-03, 0., 8.15217383e-03, 3.88198765e-04,
          3.88198765e-03, 0., 0., 3.88198765e-03, 3.88198765e-04,
          3.10559012e-03, 0., 0., 0., 0., 1.55279506e-03, 3.49378888e-03,
          0., 7.76397530e-04, 3.88198765e-04, 0., 1.55279506e-03,
          5.04658371e-03, 0., 3.88198765e-04, 0., 7.76397530e-04,
          1.94099382e-03, 3.88198765e-04, 3.88198765e-04, 3.88198765e-04,
          0., 0., 7.76397530e-04, 7.76397530e-04, 7.37577677e-03, 0.,
          3.88198765e-04, 1.55279506e-03, 0., 5.82298171e-03,
          3.88198765e-04, 1.55279506e-03, 0., 3.10559012e-03,
          1.16459629e-03, 1.16459629e-03, 2.71739135e-03, 5.82298171e-03,
          1.94099382e-03, 3.88198765e-04, 0., 1.94099382e-03, 0., 0., 0.,
          7.76397530e-04, 0., 5.04658371e-03, 0., 0., 3.88198765e-04, 0.,
          0., 1.55279506e-03, 1.16459629e-03, 0., 7.76397530e-04,
          1.55279506e-03, 7.76397530e-04, 5.04658371e-03, 0.,
          1.55279506e-03, 7.76397530e-04, 0., 7.76397530e-04,
          1.16459629e-03, 0., 0., 0., 7.76397530e-04, 0., 0.,
          1.16459629e-03, 0., 3.88198765e-04, 0., 7.76397530e-04, 0., 0.,
          0., 1.16459629e-03, 0., 3.88198765e-04, 2.32919259e-03,
          1.16459629e-03, 3.88198765e-04, 2.32919259e-03, 7.76397530e-04,
          0., 2.71739135e-03, 3.88198765e-04, 0., 0., 0., 0.,
          7.76397530e-04, 3.88198765e-04, 7.76397530e-04, 0., 0.,
          3.88198765e-04, 1.94099382e-03, 1.55279506e-03, 3.88198765e-04,
          0., 3.88198765e-04, 0., 1.16459629e-03, 7.76397530e-04,
          3.49378888e-03, 1.94099382e-03, 3.88198765e-04, 3.88198765e-04,
          0., 0., 3.88198765e-04, 3.88198765e-04, 3.88198765e-04,
          1.55279506e-03, 3.88198765e-04, 3.88198765e-04, 3.88198765e-04,
          6.98757777e-03, 0., 0., 0., 0., 2.71739135e-03, 3.88198765e-04,
          1.55279506e-03, 1.94099382e-03, 3.88198765e-04, 1.55279506e-03,
          0., 3.88198765e-04, 1.16459629e-03, 0., 7.76397530e-04,
          2.32919259e-03, 0., 3.88198765e-04, 2.71739135e-03,
          2.71739135e-03, 0., 0., 3.88198765e-03, 0., 1.16459629e-03,
          3.88198765e-04, 1.16459629e-03, 0., 0., 0., 0., 0.,
          5.04658371e-03, 1.16459629e-03, 0., 1.94099382e-03,
          1.55279506e-03, 0., 1.55279506e-03, 7.76397530e-04, 0.,
          7.76397530e-04, 0., 0., 7.76397530e-04, 1.16459629e-03, 0.,
          3.88198765e-04, 0., 0., 4.65838518e-03, 0., 1.16459629e-03, 0.,
          0., 7.76397530e-04, 1.55279506e-03, 0., 0., 0., 1.16459629e-03,
          0., 3.88198765e-04, 3.88198765e-04, 0., 0., 3.88198765e-03, 0.,
          0., 1.16459629e-03, 9.31677036e-03, 0., 3.88198765e-04,
          3.49378888e-03, 1.55279506e-03, 3.88198765e-04, 3.88198765e-04,
          0., 0., 2.71739135e-03, 1.94099382e-03, 3.88198765e-04,
          7.76397530e-04, 1.94099382e-03, 0., 0., 6.98757777e-03, 0.,
          1.55279506e-03, 3.88198765e-04, 3.88198765e-04, 3.88198765e-04,
          0., 4.27018665e-03, 3.88198765e-04, 3.10559012e-03,
          7.76397530e-04, 2.32919259e-03, 0., 3.88198765e-04,
          1.94099382e-03, 0., 0., 0., 3.88198765e-04, 7.76397530e-04, 0.,
          3.88198765e-04, 7.76397530e-04, 0., 1.16459629e-03,
          3.88198765e-04, 3.88198765e-04, 3.88198765e-04, 0.,
          7.76397530e-04, 2.32919259e-03, 3.88198765e-04, 2.71739135e-03,
          0., 0., 0., 1.94099382e-03, 2.32919259e-03, 7.76397530e-04,
          7.76397530e-04, 0., 3.88198765e-04, 0., 0., 2.32919259e-03,
          3.88198765e-04, 1.16459629e-03, 1.16459629e-03, 3.88198765e-04,
          2.32919259e-03, 0., 0., 3.88198765e-03, 0., 3.88198765e-04,
          3.88198765e-04, 0., 7.76397530e-04, 2.32919259e-03,
          6.98757777e-03, 7.76397530e-04, 7.76397530e-04, 1.55279506e-03,
          0., 7.76397530e-04, 2.32919259e-03, 0., 0., 0., 1.55279506e-03,
          1.94099382e-03, 1.94099382e-03, 3.88198765e-04, 7.76397530e-04,
          3.88198765e-04, 0., 1.55279506e-03, 7.76397530e-04,
          1.55279506e-03, 7.76397530e-04, 0., 3.88198765e-04,
          7.76397530e-04, 0., 7.76397530e-04, 3.88198765e-04, 0.,
          1.60366774e-03, 2.37393826e-02, 9.84390527e-02, 1.07442553e-03,
          8.60815635e-05, 3.18820603e-05, 9.56461827e-06, 0.,
          6.37641233e-06, 3.18820616e-06, 0., 6.37641233e-06, 0., 0., 0.,
          0., 0., 0., 0., 0., 0., 0., 0., 0., 0., 0., 0., 0., 0., 0., 0.,
          3.18820616e-06, 6.37641233e-06, 1.91292365e-05, 1.91292365e-05,
          3.18820603e-05, 4.78230941e-05, 4.14466813e-05, 6.37641206e-05,
          7.97051543e-05, 1.11587215e-04, 1.37092866e-04, 1.72163127e-04,
          2.67809315e-04, 3.28385242e-04, 6.28076610e-04, 8.28933611e-04,
          1.47613941e-03, 2.19986215e-03, 3.54847335e-03, 5.10431826e-03,
          8.60178005e-03, 1.09259821e-02, 1.60398651e-02, 7.43170828e-02,
          2.66731338e-04, 1.47672165e-02, 1.08525008e-01, 1.33365660e-03,
          6.23527740e-05, 1.38561727e-05, 1.38561727e-05, 0.,
          6.92808635e-06, 0., 3.46404317e-06, 0., 3.46404317e-06, 0., 0.,
          0., 3.46404317e-06, 0., 0., 0., 0., 0., 0., 0., 0., 0.,
          3.46404317e-06, 3.46404317e-06, 0., 3.46404317e-06,
          1.73202152e-05, 3.11763870e-05, 3.11763870e-05, 4.15685172e-05,
          5.19606474e-05, 5.54246908e-05, 4.50325606e-05, 6.92808608e-05,
          1.14313421e-04, 8.66010814e-05, 1.38561722e-04, 2.56339204e-04,
          3.32548138e-04, 5.78495208e-04, 8.66010785e-04, 1.62463624e-03,
          2.16502696e-03, 4.12567565e-03, 5.60135767e-03, 8.83330964e-03,
          1.00803655e-02, 1.35686575e-02, 1.40085910e-02, 1.68802831e-02,
          4.53858934e-02, 7.36778369e-04, 1.47086531e-02, 1.04003496e-01,
          5.29874861e-03, 1.64849960e-04, 5.38285567e-05, 1.34571392e-05,
          6.72856959e-06, 3.36428479e-06, 3.36428479e-06, 3.36428479e-06,
          3.36428479e-06, 0., 0., 0., 0., 0., 0., 0., 0., 0., 0., 0., 0.,
          0., 0., 0., 0., 6.72856959e-06, 3.36428479e-06, 1.00928546e-05,
          1.34571392e-05, 1.00928546e-05, 3.36428493e-05, 4.03714184e-05,
          3.36428493e-05, 7.06499777e-05, 6.39214122e-05, 1.17749965e-04,
          1.27842824e-04, 1.64849960e-04, 2.35499931e-04, 2.99421343e-04,
          5.55106963e-04, 7.13228364e-04, 1.30197825e-03, 1.91091374e-03,
          2.82936357e-03, 4.14479896e-03, 7.30049796e-03, 9.39308293e-03,
          1.47052892e-02, 1.49542456e-02, 1.72991529e-02, 4.86610159e-02,
          1.39005671e-04, 5.49919950e-03, 1.11343540e-01, 7.91315176e-03,
          7.11980247e-05, 3.39038206e-06, 1.01711466e-05, 0.,
          1.01711466e-05, 3.39038206e-06, 3.39038206e-06, 3.39038206e-06,
          0., 0., 0., 0., 0., 0., 0., 0., 0., 0., 0., 0., 0., 0., 0.,
          3.39038206e-06, 6.78076412e-06, 3.39038206e-06, 0.,
          1.69519099e-05, 5.76364946e-05, 4.74653498e-05, 5.08557314e-05,
          5.42461130e-05, 1.18663374e-04, 1.15272989e-04, 2.20374830e-04,
          2.30545978e-04, 4.44140052e-04, 7.59445596e-04, 1.08492223e-03,
          1.38327584e-03, 1.65789679e-03, 2.78689410e-03, 3.93284298e-03,
          6.32984331e-03, 8.14030692e-03, 1.28122540e-02, 1.57822277e-02,
          2.07898226e-02, 1.59280151e-02, 1.12730199e-02, 2.09695138e-02,
          2.27956727e-01, 7.77229154e-03, 2.52395240e-03, 2.93904974e-04,
          -2.52834042e-07, -2.58896780e-05, 1.23253017e-08 ]
      - [ 1.92307692e-03, 0., 3.46153835e-03, 4.61538462e-03,
          7.69230770e-04, 0., 3.84615385e-04, 1.15384615e-03,
          3.84615385e-04, 1.53846154e-03, 0., 0., 3.84615385e-04,
          1.53846154e-03, 0., 3.84615385e-03, 0., 0., 0., 3.46153835e-03,
          1.03846155e-02, 7.69230770e-04, 3.84615385e-04, 0.,
          2.69230781e-03, 3.84615385e-04, 0., 1.15384615e-03,
          1.15384615e-03, 1.53846154e-03, 7.69230770e-04, 0., 0.,
          7.69230770e-04, 0., 1.15384615e-03, 2.69230781e-03,
          1.53846154e-03, 2.30769231e-03, 2.30769231e-03, 0.,
          7.69230770e-04, 7.69230770e-04, 3.84615385e-04, 3.84615385e-03,
          7.69230770e-04, 0., 0., 0., 3.84615385e-04, 3.84615385e-04, 0.,
          7.69230770e-04, 0., 7.69230770e-04, 7.69230770e-04,
          1.15384615e-03, 0., 3.84615385e-04, 7.69230770e-04,
          3.84615385e-04, 1.53846154e-03, 1.92307692e-03, 0.,
          3.84615385e-03, 1.53846154e-03, 0., 1.15384615e-03,
          1.15384615e-03, 7.69230770e-04, 1.15384615e-03, 0., 0.,
          4.23076935e-03, 5.76923089e-03, 1.92307692e-03, 5.38461562e-03,
          7.69230770e-04, 0., 0., 0., 7.69230770e-04, 2.69230781e-03,
          3.84615385e-04, 3.84615385e-04, 0., 3.84615385e-04,
          3.84615385e-04, 0., 2.69230781e-03, 3.84615385e-04,
          2.30769231e-03, 0., 3.84615385e-04, 1.15384615e-03,
          1.15384615e-03, 0., 1.15384615e-03, 0., 0., 0., 0.,
          3.46153835e-03, 0., 1.92307692e-03, 4.23076935e-03,
          3.84615385e-03, 2.30769231e-03, 0., 3.84615385e-04, 0., 0.,
          7.69230770e-04, 0., 3.84615385e-04, 1.53846154e-03,
          1.15384615e-03, 7.69230770e-04, 1.15384615e-03, 1.15384615e-03,
          1.92307692e-03, 0., 0., 3.07692308e-03, 0., 0., 7.69230770e-04,
          0., 7.69230770e-04, 0., 0., 1.15384615e-03, 0., 3.84615385e-04,
          7.69230770e-04, 0., 0., 0., 3.84615385e-04, 0., 3.84615385e-04,
          3.84615385e-04, 3.84615385e-04, 3.84615385e-04, 0.,
          3.84615385e-04, 0., 2.30769231e-03, 0., 3.84615385e-04, 0.,
          3.07692308e-03, 3.84615385e-04, 0., 1.53846154e-03, 0., 0.,
          2.30769231e-03, 1.15384615e-03, 1.92307692e-03, 0.,
          1.53846154e-03, 0., 1.15384615e-03, 0., 3.07692308e-03,
          3.84615385e-04, 1.92307692e-03, 3.84615385e-04, 1.15384615e-03,
          3.84615385e-04, 7.69230770e-04, 3.84615385e-04, 2.30769231e-03,
          3.84615385e-04, 3.84615385e-03, 2.69230781e-03, 0.,
          1.15384615e-03, 2.69230781e-03, 7.69230770e-04, 1.53846154e-03,
          7.69230770e-04, 0., 0., 1.92307692e-03, 3.84615385e-04,
          7.69230770e-04, 1.53846154e-03, 0., 1.15384615e-03,
          3.84615385e-03, 0., 0., 1.15384615e-03, 0., 1.92307692e-03, 0.,
          1.53846154e-03, 7.69230770e-04, 0., 3.84615385e-04, 0., 0.,
          1.15384615e-03, 0., 0., 1.92307692e-03, 3.84615385e-04, 0., 0.,
          0., 0., 7.69230770e-04, 7.69230770e-04, 7.69230770e-04,
          7.69230770e-04, 3.84615385e-04, 1.15384615e-03, 3.84615385e-04,
          0., 0., 7.69230770e-04, 1.15384615e-03, 2.30769231e-03,
          6.15384616e-03, 7.69230770e-04, 0., 0., 2.69230781e-03, 0.,
          7.69230770e-04, 3.84615385e-04, 3.46153835e-03, 0.,
          7.30769243e-03, 0., 0., 3.84615385e-04, 3.84615385e-04,
          7.69230770e-04, 0., 0., 0., 7.69230770e-04, 0., 1.15384615e-03,
          0., 3.84615385e-04, 0., 3.84615385e-04, 0., 7.69230770e-04,
          2.30769231e-03, 7.69230770e-04, 3.84615385e-04, 3.84615385e-04,
          1.15384615e-03, 0., 0., 3.84615385e-04, 1.92307692e-03,
          3.84615385e-04, 2.69230781e-03, 1.15384615e-03, 2.69230781e-03,
          3.84615385e-04, 1.15384615e-03, 0., 0., 7.69230770e-04,
          3.84615385e-04, 3.84615385e-04, 7.69230770e-04, 2.30769231e-03,
          1.92307692e-03, 0., 0., 0., 3.84615385e-04, 3.84615385e-04, 0.,
          0., 0., 7.69230770e-04, 7.69230770e-04, 0., 0., 0.,
          7.69230770e-04, 3.84615385e-04, 0., 3.84615385e-04, 0., 0.,
          1.15384615e-03, 0., 0., 1.15384615e-03, 4.61538462e-03,
          1.15384615e-03, 0., 1.15384615e-03, 0., 2.69230781e-03, 0., 0.,
          7.69230770e-04, 3.84615385e-04, 0., 0., 7.69230770e-04,
          3.07692308e-03, 7.30769243e-03, 4.23076935e-03, 0.,
          1.92307692e-03, 7.69230770e-04, 7.69230770e-04, 1.53846154e-03,
          0., 2.30769231e-03, 6.53846143e-03, 1.15384615e-03, 0., 0.,
          2.69230781e-03, 0., 1.92307692e-03, 7.69230770e-04,
          1.92307692e-03, 3.84615385e-04, 3.84615385e-04, 3.84615385e-03,
          7.69230770e-04, 7.69230770e-04, 1.15384615e-03, 7.69230770e-04,
          7.69230770e-04, 4.61538462e-03, 3.84615385e-04, 0.,
          3.84615385e-04, 0., 1.15384615e-03, 0., 2.30769231e-03, 0.,
          3.84615385e-04, 3.84615385e-04, 0., 0., 7.69230770e-04,
          3.84615385e-04, 0., 0., 0., 0., 3.84615385e-04, 0., 0., 0.,
          7.69230770e-04, 3.84615385e-04, 1.92307692e-03, 0.,
          1.53846154e-03, 3.84615385e-04, 3.84615385e-04, 8.07692297e-03,
          7.69230770e-04, 8.46153870e-03, 0., 3.84615385e-04, 0., 0.,
          3.84615385e-03, 3.84615385e-04, 2.69230781e-03, 7.69230770e-04,
          3.84615385e-04, 7.69230770e-04, 3.84615385e-04, 3.84615385e-04,
          1.15384615e-03, 1.53846154e-03, 7.69230770e-04, 4.61538462e-03,
          0., 0., 0., 1.15384615e-03, 1.53846154e-03, 0., 3.84615385e-04,
          3.84615385e-03, 0., 3.07692308e-03, 7.69230770e-04,
          7.69230770e-04, 0., 1.53846154e-03, 0., 0., 1.53846154e-03,
          1.15384615e-03, 3.84615385e-04, 0., 0., 3.84615385e-04, 0., 0.,
          1.15384615e-03, 3.84615385e-04, 0., 3.84615385e-04, 0., 0.,
          3.84615385e-04, 1.92307692e-03, 1.53846154e-03, 1.92307692e-03,
          3.84615385e-04, 3.07692308e-03, 0., 1.92307692e-03,
          1.53846154e-03, 0., 0., 7.69230770e-04, 2.30769231e-03,
          1.15384615e-03, 3.84615385e-04, 0., 7.69230770e-04, 0.,
          2.69230781e-03, 0., 3.07692308e-03, 0., 0., 0., 1.53846154e-03,
          0., 1.92307692e-03, 0., 0., 2.30769231e-03, 1.53846154e-03,
          7.69230770e-04, 0., 4.23076935e-03, 3.84615385e-04,
          3.84615385e-04, 1.92307692e-03, 2.30769231e-03, 0.,
          3.46153835e-03, 0., 1.53846154e-03, 1.15384615e-03, 0., 0.,
          1.15384615e-03, 3.84615385e-04, 0., 0., 3.84615385e-04, 0.,
          3.84615385e-03, 3.46153835e-03, 0., 0., 0., 0., 0.,
          3.84615385e-04, 4.23076935e-03, 1.53846154e-03, 3.84615385e-04,
          1.53846154e-03, 2.30769231e-03, 0., 3.84615385e-04,
          7.69230770e-04, 0., 1.92307692e-03, 0., 0., 7.69230770e-04,
          6.53846143e-03, 1.53846154e-03, 1.53846154e-03, 0.,
          7.69230770e-04, 1.53846154e-03, 0., 4.23076935e-03,
          1.15384615e-03, 3.84615385e-04, 1.53846154e-03, 0.,
          7.69230770e-04, 1.53846154e-03, 0., 3.84615385e-04,
          1.53846154e-03, 9.23076924e-03, 3.84615385e-04, 0.,
          7.69230770e-04, 0., 2.30769231e-03, 3.07692308e-03, 0.,
          3.84615385e-04, 3.84615385e-04, 0., 0., 3.07692308e-03, 0., 0.,
          0., 3.84615385e-04, 0., 7.69230770e-04, 7.69230770e-04, 0.,
          7.69230770e-04, 7.69230770e-04, 0., 7.69230770e-04,
          7.69230770e-04, 1.92307692e-03, 2.30769231e-03, 3.84615385e-04,
          0., 3.84615385e-04, 3.84615385e-04, 0., 3.07692308e-03,
          3.84615385e-04, 0., 7.69230770e-04, 0., 3.84615385e-04,
          7.69230770e-04, 2.30769231e-03, 1.15384615e-03, 3.84615385e-04,
          7.69230770e-04, 4.61538462e-03, 0., 0., 0., 1.15384615e-03,
          7.69230770e-04, 0., 7.69230770e-04, 1.53846154e-03, 0.,
          1.15384615e-03, 0., 0., 7.69230770e-04, 3.84615385e-04,
          3.84615385e-04, 1.53846154e-03, 0., 3.84615385e-04, 0.,
          1.15384615e-03, 0., 0., 1.15384615e-03, 6.53846143e-03, 0.,
          1.15384615e-03, 3.84615385e-03, 0., 0., 3.84615385e-04,
          7.69230770e-04, 0., 7.69230770e-04, 0., 0., 2.30769231e-03,
          3.84615385e-04, 1.92307692e-03, 0., 7.69230770e-04,
          3.84615385e-04, 2.30769231e-03, 1.15384615e-03, 3.07692308e-03,
          3.84615385e-04, 1.92307692e-03, 3.84615385e-04, 0., 0.,
          1.15384615e-03, 1.92307692e-03, 0., 0., 0., 3.84615385e-04,
          3.84615385e-04, 1.53846154e-03, 0., 3.84615385e-04,
          3.84615385e-04, 0., 1.15384615e-03, 0., 1.92307692e-03,
          1.15384615e-03, 0., 1.92307692e-03, 4.61538462e-03,
          7.69230770e-04, 7.69230770e-04, 0., 0., 0., 0., 1.92307692e-03,
          7.69230770e-04, 3.84615385e-04, 3.84615385e-04, 0.,
          7.69230770e-04, 3.84615385e-04, 2.30769231e-03, 0., 0.,
          7.69230770e-04, 7.69230770e-04, 2.69230781e-03, 4.99999989e-03,
          7.69230770e-04, 7.69230770e-04, 1.15384615e-03, 3.84615385e-04,
          1.53846154e-03, 1.15384615e-03, 0., 3.84615385e-04, 0., 0., 0.,
          0., 0., 2.30769231e-03, 4.99999989e-03, 3.84615385e-04, 0., 0.,
          7.69230770e-04, 3.84615385e-03, 0., 3.84615385e-04, 0.,
          4.99999989e-03, 0., 3.84615385e-04, 1.53846154e-03, 0.,
          7.69230770e-04, 0., 3.84615385e-04, 2.30769231e-03, 0.,
          7.69230770e-04, 0., 7.69230770e-04, 3.84615385e-04, 0.,
          3.46153835e-03, 1.53846154e-03, 1.92307692e-03, 3.84615385e-04,
          0., 3.84615385e-04, 0., 0., 0., 1.15384615e-03, 1.15384615e-03,
          3.84615385e-04, 1.15384615e-03, 3.84615385e-04, 2.30769231e-03,
          4.61538462e-03, 6.53846143e-03, 3.84615385e-04, 1.15384615e-03,
          0., 1.53846154e-03, 0., 3.84615385e-04, 4.23076935e-03,
          7.69230770e-04, 3.84615385e-04, 7.69230770e-04, 0.,
          1.53846154e-03, 1.15384615e-03, 2.30769231e-03, 0.,
          9.61538497e-03, 3.84615385e-04, 7.69230770e-04, 7.69230770e-04,
          3.84615385e-04, 6.15384616e-03, 0., 2.69230781e-03,
          3.84615385e-04, 3.84615385e-04, 3.84615385e-03, 0.,
          5.38461562e-03, 7.69230770e-04, 2.30769231e-03, 0.,
          6.15384616e-03, 0., 3.46153835e-03, 7.69230770e-04,
          3.84615385e-04, 1.53846154e-03, 0., 2.30769231e-03,
          3.84615385e-04, 1.15384615e-03, 3.84615385e-04, 7.69230770e-04,
          3.84615385e-04, 0., 1.92307692e-03, 3.84615385e-03,
          3.84615385e-04, 0., 0., 1.15384615e-03, 0., 0., 2.30769231e-03,
          0., 0., 5.76923089e-03, 0., 3.07692308e-03, 3.84615385e-04,
          4.61538462e-03, 0., 2.30769231e-03, 0., 3.84615385e-04,
          1.15384615e-03, 1.15384615e-03, 3.84615385e-04, 1.92307692e-03,
          0., 3.84615385e-04, 0., 0., 2.69230781e-03, 1.15384615e-03,
          7.69230770e-04, 2.30769231e-03, 0., 0., 7.69230770e-04, 0.,
          7.69230770e-04, 3.84615385e-04, 0., 3.84615385e-04, 0., 0.,
          2.30769231e-03, 3.84615385e-04, 0., 7.69230770e-04,
          7.69230770e-04, 1.92307692e-03, 7.69230770e-04, 7.69230770e-04,
          2.69230781e-03, 1.53846154e-03, 3.84615385e-04, 4.99999989e-03,
          3.84615385e-04, 3.84615385e-04, 1.15384615e-03, 0., 0.,
          3.84615385e-04, 3.84615385e-04, 0., 2.69230781e-03, 0., 0., 0.,
          7.69230770e-04, 2.30769231e-03, 0., 1.15384615e-03,
          7.69230770e-04, 1.15384615e-03, 2.30769231e-03, 6.92307670e-03,
          5.76923089e-03, 0., 4.99999989e-03, 3.84615385e-04, 0., 0., 0.,
          4.23076935e-03, 0., 7.69230770e-04, 3.84615385e-04, 0.,
          5.76923089e-03, 3.84615385e-04, 0., 0., 0., 3.84615385e-04,
          1.53846154e-03, 0., 1.92307692e-03, 0., 7.69230770e-04, 0., 0.,
          0., 3.84615385e-04, 3.84615385e-04, 1.53846154e-03, 0.,
          3.84615385e-04, 3.84615385e-04, 2.30769231e-03, 1.15384615e-03,
          7.69230770e-04, 7.69230770e-03, 0., 7.69230770e-04, 0., 0.,
          1.15384615e-03, 7.69230770e-04, 0., 7.69230770e-04, 0.,
          4.61538462e-03, 2.30769231e-03, 0., 7.69230770e-04,
          1.15384615e-03, 7.69230770e-04, 1.53846154e-03, 1.15384615e-03,
          2.30769231e-03, 3.84615385e-04, 1.15384615e-03, 0.,
          7.69230770e-04, 0., 0., 0., 0., 3.84615385e-04, 1.53846154e-03,
          3.84615385e-04, 2.30769231e-03, 0., 0., 0., 0., 0., 0., 0., 0.,
          3.84615385e-04, 3.84615385e-04, 3.84615385e-04, 0.,
          3.84615385e-04, 6.53846143e-03, 0., 1.15384615e-03,
          7.69230770e-04, 1.53846154e-03, 3.84615385e-04, 7.69230770e-04,
          3.46153835e-03, 0., 7.69230770e-04, 3.84615385e-04,
          3.84615385e-04, 0., 4.99999989e-03, 3.07692308e-03,
          3.84615385e-04, 0., 7.69230770e-04, 0., 3.84615385e-04,
          2.69230781e-03, 0., 3.46153835e-03, 0., 3.84615385e-04,
          1.53846154e-03, 2.30769231e-03, 9.23076924e-03, 1.15384615e-03,
          2.69230781e-03, 7.69230770e-04, 6.53846143e-03, 0., 0., 0., 0.,
          0., 0., 0., 7.69230770e-04, 0., 0., 3.84615385e-04,
          3.84615385e-04, 1.15384615e-03, 3.84615385e-04, 3.84615385e-04,
          3.84615385e-04, 0., 0., 2.30769231e-03, 0., 2.30769231e-03,
          3.84615385e-04, 7.69230770e-04, 0., 4.99999989e-03,
          3.84615385e-04, 3.84615385e-03, 3.84615385e-04, 0.,
          3.84615385e-04, 0., 2.30769231e-03, 3.84615385e-03, 0., 0.,
          1.15384615e-03, 0., 1.53846154e-03, 0., 0., 2.69230781e-03, 0.,
          7.69230770e-04, 3.07692308e-03, 0., 3.84615385e-04,
          2.30769231e-03, 8.46153870e-03, 7.69230770e-04, 0., 0., 0., 0.,
          2.69230781e-03, 0., 4.61538462e-03, 3.84615385e-04,
          1.15384615e-03, 2.69230781e-03, 7.69230770e-04, 7.69230770e-04,
          0., 3.84615385e-04, 3.84615385e-04, 7.69230770e-04, 0.,
          3.84615385e-04, 3.84615385e-04, 0., 0., 1.15384615e-03, 0., 0.,
          3.84615385e-04, 0., 3.05547751e-03, 4.60716188e-02,
          7.54418746e-02, 2.77770683e-04, 9.89757609e-05, 2.87348976e-05,
          0., 0., 0., 0., 0., 0., 0., 0., 0., 0., 0., 0., 0., 0., 0., 0.,
          3.19276637e-06, 6.38553274e-06, 1.59638312e-05, 0., 0., 0., 0.,
          0., 0., 3.19276637e-06, 6.38553274e-06, 3.19276637e-06,
          9.57829889e-06, 2.23493644e-05, 1.27710655e-05, 1.59638312e-05,
          2.87348976e-05, 3.19276623e-05, 3.83131955e-05, 7.34336281e-05,
          1.08554057e-04, 1.30903427e-04, 1.72409389e-04, 2.61806854e-04,
          3.70360911e-04, 6.48131594e-04, 9.70600988e-04, 1.87096104e-03,
          2.70108040e-03, 5.04137808e-03, 7.48703722e-03, 1.50411222e-02,
          8.99498090e-02, 9.16213321e-04, 3.22262757e-02, 8.98051932e-02,
          2.05231784e-03, 0., 0., 0., 0., 0., 0., 0., 0., 0., 0., 0., 0.,
          0., 0., 0., 0., 0., 0., 0., 0., 0., 0., 0., 0., 0., 0., 0., 0.,
          0., 0., 0., 0., 0., 0., 0., 0., 2.03602958e-05, 4.07205916e-05,
          4.88647129e-05, 1.05873543e-04, 1.87314727e-04, 2.89116200e-04,
          6.92250091e-04, 1.45372516e-03, 2.52874871e-03, 5.78232436e-03,
          1.06240027e-02, 1.57710854e-02, 1.78234037e-02, 2.16918588e-02,
          4.79403548e-02, 6.80394704e-04, 3.16150524e-02, 8.04947317e-02,
          1.21911811e-02, 1.24273001e-05, 0., 0., 0., 0., 0.,
          3.10682503e-06, 0., 0., 0., 0., 0., 0., 0., 0., 0., 0., 0., 0.,
          0., 3.10682503e-06, 3.10682503e-06, 0., 0., 0., 0., 0., 0., 0.,
          0., 0., 6.21365007e-06, 9.32047533e-06, 1.24273001e-05,
          1.86409507e-05, 2.79614251e-05, 3.72819013e-05, 8.38842752e-05,
          5.90296768e-05, 1.27379826e-04, 2.01943622e-04, 2.98255211e-04,
          4.69130580e-04, 1.08117505e-03, 2.04429077e-03, 4.62606270e-03,
          7.21094105e-03, 1.30828405e-02, 1.71652082e-02, 2.19838936e-02,
          5.64510114e-02, 1.70898449e-04, 2.33194996e-02, 8.87166411e-02,
          1.27929691e-02, 0., 0., 0., 0., 0., 0., 0., 0., 0., 0., 0., 0.,
          0., 0., 0., 0., 0., 0., 0., 0., 0., 0., 0., 0., 0., 0., 0., 0.,
          0., 0., 1.22070323e-05, 4.06901063e-06, 7.73112042e-05,
          1.46484381e-04, 2.19726571e-04, 1.54622408e-04, 2.56347674e-04,
          3.41796898e-04, 3.33658885e-04, 5.77799510e-04, 8.70768272e-04,
          1.36311853e-03, 1.75374362e-03, 3.68652353e-03, 6.46972703e-03,
          1.27482107e-02, 1.70166027e-02, 2.10001636e-02, 1.58121753e-02,
          1.47827156e-02, 2.73722336e-02, 2.22249940e-01, 8.37215316e-03,
          3.12886131e-03, 2.59766181e-04, -2.33998946e-07,
          -2.37641980e-05, -9.44045553e-09 ]
      - [ 3.92464688e-03, 2.35478813e-03, 1.41287288e-02, 7.84929376e-04,
          0., 7.84929376e-04, 7.84929376e-04, 7.84929376e-04,
          7.84929376e-04, 3.92464688e-03, 0., 7.84929376e-04,
          7.84929376e-04, 0., 7.84929376e-04, 0., 2.35478813e-03, 0.,
          2.35478813e-03, 1.56985875e-03, 0., 6.27943501e-03, 0., 0., 0.,
          0., 0., 0., 0., 7.84929376e-04, 7.84929376e-04, 0., 0.,
          3.92464688e-03, 0., 0., 7.84929376e-04, 0., 0., 7.84929376e-04,
          0., 0., 7.84929376e-04, 0., 3.13971750e-03, 0., 1.56985875e-03,
          0., 7.84929376e-04, 2.35478813e-03, 0., 7.84929376e-04, 0.,
          1.41287288e-02, 7.84929376e-04, 0., 0., 1.56985875e-03,
          7.84929376e-04, 7.84929376e-04, 3.92464688e-03, 7.06436438e-03,
          7.84929376e-04, 0., 2.35478813e-03, 1.56985875e-03, 0., 0., 0.,
          1.56985875e-03, 0., 7.84929376e-04, 7.84929376e-03,
          7.84929376e-04, 0., 0., 0., 0., 0., 0., 7.84929376e-04, 0.,
          7.84929376e-04, 2.35478813e-03, 0., 0., 0., 7.84929376e-04,
          1.56985875e-03, 3.13971750e-03, 7.84929376e-04, 2.35478813e-03,
          0., 0., 0., 3.13971750e-03, 0., 0., 2.35478813e-03, 0.,
          1.56985875e-03, 0., 7.84929376e-04, 0., 7.84929376e-04, 0., 0.,
          2.35478813e-03, 2.35478813e-03, 0., 0., 0., 2.35478813e-03,
          7.84929376e-04, 3.13971750e-03, 1.56985875e-03, 1.56985875e-03,
          0., 0., 3.92464688e-03, 2.35478813e-03, 3.13971750e-03, 0., 0.,
          0., 3.13971750e-03, 7.84929376e-04, 7.84929376e-04, 0., 0., 0.,
          0., 0., 3.13971750e-03, 0., 0., 7.84929376e-04, 0.,
          7.84929376e-04, 4.70957626e-03, 3.92464688e-03, 7.84929376e-04,
          1.56985875e-03, 0., 7.84929376e-04, 0., 0., 0., 7.84929376e-04,
          0., 7.84929376e-04, 0., 7.84929376e-04, 4.70957626e-03,
          7.84929376e-04, 0., 0., 0., 6.27943501e-03, 1.56985875e-03,
          1.56985875e-03, 0., 0., 7.84929376e-04, 7.84929376e-04, 0., 0.,
          0., 7.84929376e-04, 1.56985875e-03, 7.84929376e-04,
          2.35478813e-03, 0., 1.56985875e-03, 7.84929376e-04, 0., 0., 0.,
          1.64835174e-02, 0., 7.84929376e-04, 7.84929376e-04, 0., 0., 0.,
          5.49450563e-03, 7.84929376e-04, 7.84929376e-04, 0., 0., 0., 0.,
          0., 0., 1.56985875e-03, 0., 2.35478813e-03, 7.84929376e-04,
          3.13971750e-03, 0., 7.84929376e-04, 0., 7.84929376e-04,
          7.84929376e-04, 3.92464688e-03, 0., 0., 2.35478813e-03, 0.,
          7.84929376e-04, 0., 0., 0., 0., 0., 7.84929376e-04,
          1.56985875e-03, 0., 1.56985875e-03, 1.56985875e-03, 0., 0., 0.,
          7.84929376e-04, 0., 0., 0., 3.92464688e-03, 0., 2.35478813e-03,
          1.56985875e-03, 0., 7.84929376e-04, 0., 0., 0., 0.,
          7.84929376e-04, 0., 7.84929376e-04, 7.84929376e-04, 0.,
          2.35478813e-03, 0., 0., 7.84929376e-04, 3.92464688e-03, 0.,
          3.92464688e-03, 0., 1.56985875e-03, 0., 1.56985875e-03,
          3.92464688e-03, 5.49450563e-03, 0., 0., 5.49450563e-03, 0.,
          1.56985875e-03, 1.56985875e-03, 0., 0., 0., 0., 3.13971750e-03,
          0., 0., 0., 7.84929376e-04, 2.35478813e-03, 7.84929376e-04,
          2.35478813e-03, 0., 0., 0., 0., 3.92464688e-03, 7.84929376e-04,
          7.84929376e-04, 0., 0., 1.56985875e-03, 1.56985875e-03,
          7.84929376e-04, 1.56985875e-03, 1.56985875e-03, 0.,
          7.84929376e-04, 1.56985875e-03, 1.56985875e-03, 1.56985875e-03,
          7.84929376e-04, 0., 3.92464688e-03, 0., 0., 3.13971750e-03,
          7.84929376e-04, 7.84929376e-04, 7.84929376e-04, 7.84929376e-04,
          0., 7.84929376e-04, 0., 0., 7.84929376e-04, 7.84929376e-04,
          2.35478813e-03, 1.56985875e-03, 0., 0., 0., 0., 0.,
          1.56985875e-03, 0., 1.56985875e-03, 7.84929376e-04,
          2.35478813e-03, 0., 3.13971750e-03, 7.84929376e-04, 0.,
          1.56985875e-03, 0., 2.35478813e-03, 2.35478813e-03, 0.,
          7.06436438e-03, 0., 7.84929376e-04, 0., 0., 0., 7.84929376e-04,
          2.35478813e-03, 7.84929376e-04, 7.84929376e-04, 4.70957626e-03,
          2.35478813e-03, 1.56985875e-03, 1.56985875e-03, 1.56985875e-03,
          0., 0., 2.35478813e-03, 2.35478813e-03, 7.84929376e-04,
          2.35478813e-03, 3.13971750e-03, 7.84929376e-04, 7.84929376e-04,
          0., 7.84929376e-04, 0., 0., 0., 1.56985875e-03, 0.,
          7.84929376e-04, 0., 0., 1.56985875e-03, 1.09890113e-02,
          7.84929376e-04, 0., 0., 2.35478813e-03, 0., 0., 0.,
          7.84929376e-03, 0., 0., 1.56985875e-03, 0., 2.35478813e-03,
          1.56985875e-03, 0., 0., 0., 7.84929376e-04, 3.92464688e-03,
          2.35478813e-03, 3.13971750e-03, 0., 0., 1.56985875e-03, 0.,
          2.35478813e-03, 7.06436438e-03, 0., 1.56985875e-03, 0.,
          2.35478813e-03, 0., 7.84929376e-04, 0., 7.84929376e-04,
          1.56985875e-03, 7.84929376e-04, 0., 0., 1.56985875e-03, 0., 0.,
          0., 7.84929376e-04, 7.84929376e-04, 7.84929376e-04, 0.,
