%YAML:1.0
my_svm: !!opencv-ml-svm
   svm_type: C_SVC
   kernel: { type:RBF, gamma:4. }
   C: 32.
   term_criteria: { epsilon:1.1920928955078125e-07, iterations:1000 }
   var_all: 1110
   var_count: 1110
   class_count: 2
   class_labels: !!opencv-matrix
      rows: 1
      cols: 2
      dt: i
      data: [ 0, 1 ]
   sv_total: 19
   support_vectors:
      - [ 0., 6.90607761e-04, 0., 6.90607761e-04, 2.07182323e-03,
          6.90607761e-04, 8.97790119e-03, 0., 4.14364645e-03,
          6.90607761e-04, 0., 0., 6.90607761e-04, 0., 2.76243105e-03, 0.,
          1.38121552e-03, 0., 1.38121552e-03, 1.38121552e-03,
          6.90607761e-04, 0., 0., 0., 0., 0., 6.90607761e-04,
          2.07182323e-03, 6.90607761e-04, 6.90607761e-04, 2.76243105e-03,
          0., 0., 0., 0., 0., 0., 0., 0., 2.07182323e-03, 1.38121552e-03,
          0., 0., 0., 0., 0., 0., 4.14364645e-03, 0., 9.66850854e-03, 0.,
          0., 2.07182323e-03, 0., 0., 6.90607761e-04, 2.20994484e-02, 0.,
          0., 0., 6.90607761e-04, 0., 2.76243105e-03, 1.38121552e-03, 0.,
          0., 2.76243105e-03, 3.45303887e-03, 1.38121552e-03, 0.,
          3.45303887e-03, 2.07182323e-03, 4.83425427e-03, 6.90607761e-04,
          1.38121552e-03, 0., 1.38121552e-03, 2.76243105e-03, 0.,
          6.90607761e-04, 0., 4.14364645e-03, 0., 6.90607761e-04,
          5.52486209e-03, 6.90607761e-04, 6.90607761e-04, 6.90607761e-04,
          0., 0., 9.66850854e-03, 0., 6.90607761e-04, 6.90607761e-04,
          6.90607761e-04, 0., 0., 0., 0., 2.76243105e-03, 0., 0.,
          1.45027628e-02, 0., 1.38121552e-03, 2.76243105e-03,
          6.90607761e-04, 0., 0., 6.90607761e-04, 6.90607761e-04, 0., 0.,
          1.10497242e-02, 2.76243105e-03, 0., 6.90607761e-04,
          6.90607761e-04, 3.45303887e-03, 0., 0., 0., 6.90607761e-04, 0.,
          0., 2.07182323e-03, 0., 0., 6.90607761e-04, 0., 0., 0., 0., 0.,
          0., 2.76243105e-03, 2.07182323e-03, 0., 2.07182323e-03,
          1.38121552e-03, 6.90607761e-04, 5.52486209e-03, 4.83425427e-03,
          1.38121552e-03, 0., 0., 6.90607761e-04, 1.38121552e-03, 0., 0.,
          0., 6.90607761e-04, 0., 0., 0., 1.38121552e-03, 6.90607761e-04,
          0., 0., 6.90607761e-04, 0., 0., 6.90607761e-04, 0., 0., 0., 0.,
          0., 0., 0., 2.76243105e-03, 2.07182323e-03, 0., 0., 0.,
          2.07182323e-03, 0., 0., 0., 0., 0., 0., 0., 0., 0., 0.,
          6.90607761e-04, 0., 0., 2.07182323e-03, 0., 0., 6.90607761e-04,
          1.38121552e-03, 0., 6.90607761e-04, 0., 6.90607761e-04,
          6.90607761e-04, 6.90607761e-04, 6.90607773e-03, 6.90607761e-04,
          0., 0., 2.07182323e-03, 0., 0., 0., 0., 6.90607761e-04, 0.,
          6.90607761e-04, 1.38121552e-03, 0., 5.52486209e-03, 0.,
          6.90607761e-04, 0., 0., 0., 0., 0., 0., 1.38121552e-03,
          6.90607761e-04, 0., 6.90607761e-04, 3.45303887e-03, 0.,
          1.38121552e-03, 0., 0., 0., 0., 0., 9.66850854e-03,
          6.90607761e-04, 0., 0., 0., 0., 0., 3.45303887e-03,
          4.14364645e-03, 0., 0., 0., 2.07182337e-02, 0., 0., 0., 0.,
          2.07182323e-03, 6.90607761e-04, 2.07182323e-03, 6.90607761e-04,
          0., 0., 6.90607761e-04, 0., 4.14364645e-03, 6.90607761e-04,
          6.90607761e-04, 0., 0., 0., 6.90607761e-04, 0., 7.59668555e-03,
          0., 0., 0., 6.90607761e-04, 0., 0., 2.07182323e-03,
          6.90607761e-04, 0., 0., 0., 0., 1.38121552e-03, 0.,
          1.38121552e-03, 1.38121552e-03, 0., 6.90607761e-04, 0.,
          6.90607761e-04, 0., 2.76243105e-03, 0., 0., 0., 0.,
          2.07182323e-03, 0., 6.90607761e-04, 7.59668555e-03, 0.,
          2.07182323e-03, 1.38121552e-03, 0., 2.76243105e-03,
          6.90607761e-04, 0., 6.90607761e-04, 1.38121552e-03,
          6.90607761e-04, 0., 6.90607761e-04, 0., 2.76243105e-03,
          2.76243105e-03, 1.38121552e-03, 0., 0., 0., 3.45303863e-02, 0.,
          0., 0., 0., 6.90607761e-04, 0., 0., 6.90607761e-04,
          6.90607761e-04, 6.90607761e-04, 1.38121552e-03, 0., 0., 0.,
          6.90607761e-04, 0., 0., 0., 0., 6.90607761e-04, 0., 0., 0.,
          3.45303887e-03, 6.90607761e-04, 0., 0., 0., 4.83425427e-03,
          6.90607761e-04, 2.07182323e-03, 0., 6.90607761e-04, 0.,
          6.90607761e-04, 0., 2.07182323e-03, 6.90607761e-04, 0., 0., 0.,
          0., 6.90607761e-04, 0., 0., 6.90607761e-04, 0., 0., 0., 0., 0.,
          2.07182323e-03, 6.90607761e-04, 4.14364645e-03, 0.,
          6.90607761e-04, 0., 0., 6.90607761e-04, 0., 0., 0.,
          2.07182323e-03, 0., 0., 6.90607761e-04, 0., 6.90607773e-03, 0.,
          0., 2.07182323e-03, 6.90607761e-04, 6.90607761e-04, 0., 0.,
          6.90607761e-04, 0., 1.38121552e-03, 1.38121552e-03,
          1.38121552e-03, 0., 2.07182323e-03, 5.52486209e-03, 0., 0.,
          1.38121552e-03, 0., 0., 0., 0., 0., 1.38121552e-03, 0.,
          6.90607761e-04, 6.90607761e-04, 0., 0., 2.76243105e-03, 0.,
          5.52486209e-03, 0., 0., 0., 6.90607761e-04, 1.38121552e-03,
          6.90607761e-04, 6.90607761e-04, 1.38121552e-03, 6.90607761e-04,
          0., 0., 0., 0., 6.90607761e-04, 0., 0., 0., 2.76243105e-03, 0.,
          0., 0., 0., 0., 0., 2.76243105e-03, 6.90607761e-04, 0.,
          8.28729291e-03, 0., 0., 0., 6.90607761e-04, 0., 2.76243105e-03,
          0., 0., 0., 0., 0., 0., 0., 0., 0., 0., 6.90607761e-04, 0., 0.,
          0., 3.45303887e-03, 6.90607761e-04, 0., 6.90607761e-04,
          4.83425427e-03, 6.90607761e-04, 1.38121552e-03, 0.,
          5.52486209e-03, 0., 6.90607761e-04, 0., 0., 0., 6.90607761e-04,
          0., 0., 7.59668555e-03, 0., 0., 0., 0., 0., 2.07182323e-03, 0.,
          0., 0., 6.90607761e-04, 0., 2.76243105e-03, 0., 0.,
          3.45303887e-03, 6.21546991e-03, 0., 0., 6.90607761e-04,
          1.38121552e-03, 0., 6.90607761e-04, 9.66850854e-03, 0.,
          1.38121552e-03, 0., 6.90607761e-04, 6.90607761e-04,
          1.38121552e-03, 6.90607761e-04, 6.90607761e-04, 6.90607761e-04,
          1.38121552e-03, 1.38121552e-03, 0., 6.90607761e-04,
          6.90607761e-04, 2.07182323e-03, 0., 0., 0., 0., 6.90607761e-04,
          0., 0., 0., 6.90607761e-04, 0., 1.38121552e-03, 0., 0., 0., 0.,
          0., 0., 1.38121552e-03, 0., 0., 2.07182323e-03, 0.,
          2.07182323e-03, 0., 0., 6.90607761e-04, 0., 0., 0., 0.,
          3.45303887e-03, 0., 5.52486209e-03, 5.52486209e-03, 0., 0.,
          2.07182323e-03, 2.07182323e-03, 0., 6.90607761e-04,
          5.52486209e-03, 0., 0., 0., 6.90607761e-04, 1.38121552e-03,
          2.14088410e-02, 0., 0., 0., 6.90607761e-04, 3.45303887e-03,
          1.38121552e-03, 0., 4.14364645e-03, 0., 6.90607761e-04,
          2.07182323e-03, 0., 0., 0., 4.14364645e-03, 0., 6.90607761e-04,
          3.45303887e-03, 6.90607761e-04, 0., 0., 0., 0., 0., 0., 0., 0.,
          0., 1.38121552e-03, 0., 0., 6.90607761e-04, 6.90607761e-04, 0.,
          0., 0., 6.90607761e-04, 0., 0., 0., 0., 0., 0., 0.,
          6.90607761e-04, 0., 2.07182323e-03, 0., 6.90607761e-04, 0.,
          6.90607761e-04, 0., 1.38121552e-03, 6.90607761e-04, 0., 0.,
          6.90607761e-04, 0., 2.76243105e-03, 4.14364645e-03,
          2.76243105e-03, 0., 0., 6.90607761e-04, 0., 0., 0.,
          4.14364645e-03, 0., 0., 0., 2.76243105e-03, 0., 0., 0.,
          6.21546991e-03, 0., 2.76243105e-03, 6.90607761e-04, 0., 0.,
          4.83425427e-03, 0., 2.41712723e-02, 0., 0., 0., 0., 0.,
          1.10497242e-02, 1.38121552e-03, 6.90607761e-04, 6.90607761e-04,
          6.90607761e-04, 6.90607761e-04, 6.90607761e-04, 0., 0., 0.,
          6.90607761e-04, 0., 0., 6.90607761e-04, 0., 3.45303887e-03, 0.,
          0., 1.38121552e-03, 0., 2.76243105e-03, 1.38121552e-03,
          1.38121552e-03, 6.90607761e-04, 1.38121552e-03, 6.90607761e-04,
          0., 0., 2.76243105e-03, 0., 0., 0., 6.90607761e-04,
          9.66850854e-03, 0., 0., 0., 0., 4.83425427e-03, 0., 0., 0., 0.,
          2.07182323e-03, 4.14364645e-03, 6.90607761e-04, 0., 0., 0.,
          6.21546991e-03, 0., 0., 6.90607773e-03, 0., 1.38121552e-03, 0.,
          2.07182323e-03, 0., 0., 0., 6.90607761e-04, 0., 1.10497242e-02,
          0., 0., 0., 0., 0., 6.90607761e-04, 0., 0., 4.14364645e-03,
          2.07182323e-03, 0., 6.90607761e-04, 0., 0., 0., 0., 0., 0.,
          6.90607761e-04, 0., 0., 0., 0., 0., 2.07182323e-03,
          1.10497242e-02, 2.07182323e-03, 0., 0., 6.90607761e-04, 0., 0.,
          6.90607761e-04, 6.90607761e-04, 0., 0., 0., 0., 1.38121552e-03,
          6.90607761e-04, 0., 2.07182323e-03, 0., 0., 0., 0.,
          2.07182323e-03, 1.38121552e-03, 0., 0., 1.38121552e-03,
          6.90607761e-04, 6.90607761e-04, 4.14364645e-03, 7.59668555e-03,
          0., 6.90607761e-04, 6.90607761e-04, 1.38121552e-03, 0., 0., 0.,
          6.90607761e-04, 1.38121552e-03, 0., 0., 6.90607761e-04, 0.,
          2.76243105e-03, 0., 6.90607761e-04, 0., 0., 0., 0., 0., 0.,
          6.90607761e-04, 0., 0., 0., 0., 6.90607761e-04, 6.90607761e-04,
          0., 0., 1.38121552e-03, 6.90607761e-04, 0., 0., 0., 0., 0.,
          3.45303887e-03, 6.90607773e-03, 0., 0., 2.07182323e-03, 0.,
          6.90607761e-04, 0., 0., 6.90607761e-04, 1.38121552e-03,
          6.90607761e-04, 0., 0., 0., 1.38121552e-03, 0., 2.76243105e-03,
          0., 0., 0., 0., 0., 0., 6.90607761e-04, 7.59668555e-03,
          6.90607761e-04, 0., 6.90607761e-04, 0., 0., 0., 0., 0.,
          6.90607761e-04, 0., 6.90607761e-04, 2.76243105e-03,
          6.90607761e-04, 6.90607761e-04, 3.45303887e-03, 2.34806631e-02,
          0., 0., 0., 0., 0., 0., 0., 6.90607761e-04, 0., 6.90607761e-04,
          0., 6.90607761e-04, 0., 0., 1.38121552e-03, 0., 0.,
          7.59668555e-03, 2.07182323e-03, 0., 0., 4.83425427e-03,
          1.38121552e-03, 0., 0., 0., 2.76243105e-03, 1.38121552e-03, 0.,
          1.38121552e-03, 0., 6.90607761e-04, 6.90607761e-04, 0., 0., 0.,
          1.38121552e-03, 0., 0., 2.07182323e-03, 0., 1.38121552e-03, 0.,
          0., 0., 0., 0., 3.45303887e-03, 2.07182323e-03, 0., 0.,
          6.90607761e-04, 0., 0., 0., 0., 0., 0., 6.21546991e-03, 0., 0.,
          0., 2.07182323e-03, 0., 0., 2.07182323e-03, 0., 0., 0., 0.,
          6.90607761e-04, 6.90607761e-04, 0., 1.17403315e-02, 0.,
          2.76243105e-03, 2.07182323e-03, 6.90607761e-04, 6.90607761e-04,
          0., 0., 0., 1.38121552e-03, 4.83425427e-03, 0., 0., 0., 0.,
          1.38121552e-03, 1.38121552e-03, 0., 2.07182323e-03, 0., 0., 0.,
          0., 0., 6.90607761e-04, 0., 6.90607761e-04, 6.90607761e-04, 0.,
          6.90607761e-04, 0., 0., 0., 6.21546991e-03, 0., 6.90607761e-04,
          0., 5.52486209e-03, 0., 0., 0., 2.07182323e-03, 0., 0.,
          6.90607761e-04, 1.38121552e-03, 6.90607761e-04, 0., 0.,
          2.07182323e-03, 0., 6.90607761e-04, 0., 0., 0., 0.,
          3.45303887e-03, 0., 0., 0., 4.14364645e-03, 0., 0., 0., 0.,
          6.90607761e-04, 0., 1.38121552e-03, 2.07182323e-03,
          6.90607761e-04, 1.65680086e-03, 2.96967500e-03, 2.03975011e-02,
          2.63424724e-01, 1.31095603e-01, 2.61913426e-02, 1.37438411e-02,
          7.27537321e-03, 3.99484113e-03, 7.77803501e-03, 1.27980427e-03,
          1.50798645e-03, 5.78722858e-04, 8.46588868e-04, 1.14752480e-03,
          1.00201729e-03, 3.93200852e-03, 2.94321915e-04, 1.10453391e-03,
          7.60607189e-04, 1.06485002e-03, 5.12583123e-04, 4.64301091e-03,
          4.36522387e-04, 4.33215406e-04, 6.44862594e-04, 3.14163830e-04,
          4.62978278e-05, 2.14954198e-04, 3.30698786e-05, 1.38893491e-04,
          9.59026438e-05, 3.30698776e-06, 6.61397571e-05, 1.98419257e-05,
          3.30698786e-05, 1.32279511e-05, 6.61397553e-06, 2.97628903e-05,
          0., 3.30698776e-06, 9.92096284e-06, 0., 2.64559021e-05,
          1.98419257e-05, 7.93677027e-05, 9.92096284e-06, 2.97628903e-05,
          4.96048160e-05, 3.96838514e-05, 1.27980427e-03, 1.24342740e-02,
          1.00929262e-02, 7.39773177e-03, 5.97903365e-03, 3.24415509e-03,
          2.65881815e-03, 2.03710445e-03, 1.62703800e-03, 1.28972519e-03,
          1.40546984e-03, 1.60058204e-03, 1.16736663e-03, 9.65640415e-04,
          9.95403272e-04, 1.18059467e-03, 9.55719443e-04, 9.16035613e-04,
          1.22358545e-03, 8.86272697e-04, 8.92886717e-04, 9.65640415e-04,
          1.27319025e-03, 1.00532430e-03, 1.06485002e-03, 1.03839417e-03,
          1.44515361e-03, 1.29303220e-03, 1.21366454e-03, 1.31287414e-03,
          1.87175511e-03, 1.68325682e-03, 1.57081918e-03, 2.34465441e-03,
          2.12970003e-03, 2.32811947e-03, 2.64559011e-03, 4.10727877e-03,
          3.62776569e-03, 4.54049418e-03, 5.40361786e-03, 8.15833919e-03,
          7.75488652e-03, 9.80521832e-03, 1.25830881e-02, 1.77056119e-02,
          1.72426347e-02, 1.96864977e-02, 2.97232065e-02, 2.47263480e-02,
          2.42336057e-02, 2.56225411e-02, 2.91709397e-02, 2.23585442e-02,
          2.08803210e-02, 1.76626220e-02, 2.05000173e-02, 1.39356460e-02,
          1.40778469e-02, 6.10767566e-02 ]
      - [ 0., 0., 3.56294541e-03, 0., 0., 2.37529702e-03, 0.,
          1.78147270e-03, 0., 2.96912133e-03, 1.18764851e-03, 0.,
          5.93824254e-04, 1.18764851e-03, 5.93824254e-04, 1.78147270e-03,
          0., 0., 0., 1.78147270e-03, 5.93824254e-04, 1.78147270e-03, 0.,
          5.93824254e-04, 2.96912133e-03, 0., 0., 0., 5.93824254e-04,
          2.96912133e-03, 0., 3.56294541e-03, 1.18764851e-03, 0.,
          1.18764851e-03, 5.93824254e-04, 5.93824254e-04, 3.56294541e-03,
          5.93824254e-04, 0., 1.18764851e-03, 1.78147270e-03,
          1.18764851e-03, 5.93824254e-04, 1.78147270e-03, 1.18764851e-03,
          1.18764851e-03, 5.93824254e-04, 0., 1.78147270e-03,
          1.78147270e-03, 5.93824254e-04, 0., 5.93824254e-04, 0.,
          1.18764851e-03, 5.93824254e-04, 0., 7.12589081e-03, 0., 0.,
          5.93824254e-04, 2.96912133e-03, 1.78147270e-03, 1.18764851e-03,
          0., 1.18764851e-03, 0., 5.93824254e-04, 1.18764851e-03,
          5.93824254e-04, 1.18764851e-03, 0., 0., 0., 2.37529702e-03, 0.,
          1.18764851e-03, 0., 5.93824254e-04, 5.93824254e-04, 0., 0.,
          1.78147270e-03, 0., 0., 5.93824254e-04, 0., 4.75059403e-03,
          5.93824254e-04, 5.93824254e-04, 0., 1.18764851e-03,
          5.93824254e-04, 0., 0., 1.18764851e-03, 1.78147270e-03,
          5.93824254e-04, 5.93824254e-04, 2.96912133e-03, 0., 0.,
          8.90736375e-03, 0., 1.78147270e-03, 0., 0., 0., 5.93824254e-04,
          5.93824254e-04, 1.18764851e-03, 5.93824254e-04, 0.,
          1.18764851e-03, 1.78147270e-03, 0., 0., 5.93824254e-04, 0., 0.,
          0., 0., 1.18764851e-03, 1.18764851e-03, 1.78147270e-03,
          1.78147270e-03, 0., 0., 0., 0., 5.93824254e-04, 2.37529702e-03,
          0., 5.93824254e-04, 0., 0., 0., 1.18764851e-03, 5.93824254e-04,
          0., 5.93824254e-04, 4.75059403e-03, 0., 5.93824254e-04,
          5.93824254e-04, 1.18764851e-03, 0., 0., 0., 5.93824254e-04,
          9.50118806e-03, 4.15676972e-03, 0., 5.93824254e-04, 0., 0.,
          5.93824254e-04, 5.93824254e-04, 5.93824254e-04, 0.,
          1.18764851e-03, 5.93824254e-04, 5.93824254e-04, 2.96912133e-03,
          0., 0., 1.18764851e-03, 5.93824254e-04, 0., 0., 5.93824254e-04,
          0., 5.93824254e-04, 5.93824254e-04, 0., 0., 0., 0.,
          1.18764851e-03, 5.93824254e-04, 1.18764851e-03, 1.18764851e-03,
          5.34441834e-03, 1.18764851e-03, 1.18764851e-03, 2.37529702e-03,
          4.15676972e-03, 1.78147270e-03, 0., 3.56294541e-03,
          1.18764851e-03, 1.18764851e-03, 3.56294541e-03, 5.93824254e-04,
          5.93824254e-04, 2.37529702e-03, 5.93824254e-04, 3.56294541e-03,
          5.93824254e-04, 5.93824254e-04, 3.56294541e-03, 0.,
          5.93824254e-04, 0., 0., 1.18764851e-03, 1.18764851e-03,
          5.93824254e-04, 0., 5.93824254e-04, 1.18764851e-03,
          2.37529702e-03, 3.56294541e-03, 0., 2.96912133e-03,
          2.37529702e-03, 1.78147270e-03, 5.93824254e-04, 1.12826610e-02,
          0., 1.18764851e-03, 4.15676972e-03, 2.37529702e-03, 0.,
          1.78147270e-03, 0., 0., 5.93824254e-04, 0., 0., 2.96912133e-03,
          5.93824254e-04, 0., 5.93824254e-04, 0., 5.93824254e-04, 0., 0.,
          2.37529702e-03, 2.37529702e-03, 1.18764851e-03, 0.,
          1.18764851e-03, 0., 0., 0., 0., 4.15676972e-03, 8.90736375e-03,
          0., 5.93824254e-04, 5.93824254e-04, 1.18764851e-03, 0., 0.,
          1.18764851e-03, 2.96912133e-03, 4.15676972e-03, 0.,
          5.93824254e-04, 5.93824254e-04, 0., 2.96912133e-03, 0., 0.,
          1.18764851e-03, 1.18764851e-03, 0., 0., 5.93824254e-04,
          1.18764851e-03, 1.18764851e-03, 1.78147270e-03, 5.93824254e-04,
          5.93824254e-04, 5.93824254e-04, 1.18764851e-03, 0.,
          1.18764851e-03, 4.75059403e-03, 1.18764851e-03, 0., 0., 0.,
          1.18764851e-03, 5.93824254e-04, 5.93824254e-04, 5.93824254e-04,
          0., 5.93824254e-04, 1.78147270e-03, 0., 5.93824254e-04,
          2.37529702e-03, 1.78147270e-03, 0., 1.78147270e-03,
          5.93824254e-04, 5.93824254e-04, 0., 0., 1.78147270e-03,
          1.78147270e-03, 2.96912133e-03, 0., 0., 0., 0., 0.,
          5.93824254e-04, 0., 0., 0., 5.93824254e-04, 1.18764851e-03, 0.,
          1.78147270e-03, 0., 0., 1.78147270e-03, 2.37529702e-03, 0., 0.,
          0., 1.18764851e-03, 0., 1.18764851e-03, 0., 1.18764851e-03, 0.,
          0., 1.78147270e-03, 2.37529702e-03, 1.78147270e-03,
          5.93824254e-04, 0., 2.37529702e-03, 0., 0., 5.93824254e-04,
          1.78147270e-03, 1.18764851e-03, 5.93824254e-04, 1.18764851e-03,
          0., 5.93824254e-04, 1.18764851e-03, 0., 0., 2.37529702e-03,
          2.96912133e-03, 0., 1.18764851e-03, 1.18764851e-03, 0.,
          1.18764851e-03, 0., 1.18764851e-03, 3.56294541e-03, 0., 0., 0.,
          0., 0., 1.18764851e-03, 2.96912133e-03, 1.18764851e-03,
          1.78147270e-03, 5.93824254e-04, 5.93824254e-04, 0., 0., 0.,
          1.18764851e-03, 1.78147270e-03, 0., 0., 0., 0., 0., 0.,
          6.53206697e-03, 0., 0., 0., 1.18764851e-03, 2.96912133e-03,
          5.93824254e-04, 0., 1.18764851e-03, 1.18764851e-03, 0.,
          5.93824254e-04, 5.93824254e-04, 1.12826610e-02, 2.37529702e-03,
          0., 2.37529702e-03, 0., 0., 0., 1.78147270e-03, 1.78147270e-03,
          0., 0., 0., 1.18764851e-03, 1.78147270e-03, 0., 5.93824254e-04,
          0., 0., 5.93824254e-04, 5.93824254e-04, 2.37529702e-03,
          5.93824254e-04, 0., 0., 2.37529702e-03, 3.56294541e-03, 0.,
          2.96912133e-03, 0., 1.18764851e-03, 5.93824254e-04,
          2.96912133e-03, 1.18764851e-03, 0., 1.18764851e-03,
          1.18764851e-03, 0., 5.93824254e-04, 5.93824254e-04, 0.,
          5.93824254e-04, 1.78147270e-03, 5.93824254e-04, 1.18764851e-03,
          0., 1.18764851e-03, 5.93824254e-04, 1.78147270e-03,
          5.93824254e-04, 5.93824254e-04, 0., 0., 0., 3.56294541e-03,
          5.93824254e-04, 2.37529702e-03, 5.93824254e-04, 0.,
          5.93824254e-04, 1.78147270e-03, 0., 8.31353944e-03,
          1.78147270e-03, 1.78147270e-03, 0., 5.93824254e-04, 0., 0.,
          2.96912133e-03, 3.56294541e-03, 1.78147270e-03, 1.18764851e-03,
          0., 0., 1.78147270e-03, 5.93824254e-04, 5.93824254e-04,
          1.18764851e-03, 1.78147270e-03, 2.96912133e-03, 1.78147270e-03,
          1.18764851e-03, 5.93824254e-04, 1.18764851e-03, 0.,
          1.18764851e-03, 1.18764851e-03, 4.75059403e-03, 0., 0., 0., 0.,
          2.37529702e-03, 5.93824254e-04, 5.93824254e-04, 5.93824254e-04,
          0., 2.96912133e-03, 1.78147270e-03, 5.93824254e-04, 0., 0., 0.,
          2.96912133e-03, 0., 0., 2.37529702e-03, 3.56294541e-03,
          1.78147270e-03, 5.93824254e-04, 2.37529702e-03, 5.93824254e-04,
          0., 0., 5.93824254e-04, 0., 1.78147270e-03, 2.96912133e-03,
          2.37529702e-03, 2.37529702e-03, 0., 1.78147270e-03, 0.,
          2.37529702e-03, 1.18764851e-03, 0., 1.18764851e-03, 0.,
          5.93824254e-04, 0., 0., 0., 1.78147270e-03, 0., 0.,
          2.37529702e-03, 5.93824254e-04, 2.96912133e-03, 0.,
          2.96912133e-03, 1.18764851e-03, 5.93824254e-04, 5.93824254e-04,
          1.78147270e-03, 1.78147270e-03, 0., 1.78147270e-03,
          2.37529702e-03, 1.18764851e-03, 1.78147270e-03, 0., 0.,
          5.93824266e-03, 2.96912133e-03, 3.56294541e-03, 1.18764851e-03,
          0., 0., 0., 5.93824254e-04, 1.18764851e-03, 1.78147270e-03,
          2.37529702e-03, 0., 5.93824254e-04, 1.18764851e-03,
          5.93824254e-04, 1.18764851e-03, 1.18764851e-03, 1.18764851e-03,
          0., 2.96912133e-03, 1.18764851e-03, 1.78147270e-03, 0., 0.,
          2.96912133e-03, 0., 5.93824254e-04, 0., 5.93824254e-04,
          1.78147270e-03, 5.93824254e-04, 1.18764851e-03, 5.93824254e-04,
          0., 1.78147270e-03, 6.53206697e-03, 5.93824254e-04, 0.,
          5.93824254e-04, 5.93824254e-04, 0., 0., 5.93824254e-04,
          2.37529702e-03, 0., 5.34441834e-03, 5.93824254e-04, 0.,
          3.56294541e-03, 1.78147270e-03, 1.18764851e-03, 5.93824254e-04,
          0., 2.96912133e-03, 2.37529702e-03, 2.96912133e-03,
          5.93824254e-04, 5.93824254e-04, 1.18764851e-03, 5.93824254e-04,
          7.12589081e-03, 5.93824254e-04, 0., 1.18764851e-03, 0.,
          1.78147270e-03, 0., 5.93824254e-04, 0., 0., 0., 0.,
          5.93824254e-04, 0., 3.56294541e-03, 0., 1.78147270e-03,
          1.78147270e-03, 4.75059403e-03, 1.18764851e-03, 5.93824254e-04,
          1.78147270e-03, 1.18764851e-03, 1.18764851e-03, 5.93824254e-04,
          0., 1.18764851e-03, 0., 5.93824254e-04, 3.56294541e-03,
          1.18764851e-03, 5.93824254e-04, 5.93824254e-04, 0., 0.,
          5.93824254e-04, 0., 0., 0., 5.93824254e-04, 5.93824254e-04,
          5.93824254e-04, 1.78147270e-03, 5.93824254e-04, 0.,
          1.18764851e-03, 5.93824254e-04, 0., 1.78147270e-03, 0., 0.,
          5.93824254e-04, 5.93824254e-04, 1.18764851e-03, 0., 0., 0.,
          5.93824254e-04, 5.93824254e-04, 0., 0., 0., 5.93824254e-04, 0.,
          0., 0., 0., 1.18764851e-03, 0., 0., 1.18764851e-03, 0.,
          1.18764851e-03, 5.93824254e-04, 0., 5.93824254e-04, 0.,
          1.18764851e-03, 0., 2.96912133e-03, 0., 0., 0., 4.75059403e-03,
          5.93824254e-04, 0., 5.93824254e-04, 5.93824254e-04,
          1.18764851e-03, 0., 5.93824254e-04, 1.18764851e-03, 0.,
          1.18764851e-03, 1.78147270e-03, 2.37529702e-03, 5.93824254e-04,
          0., 0., 0., 1.78147270e-03, 0., 0., 5.34441834e-03, 0., 0., 0.,
          0., 2.96912133e-03, 0., 5.93824254e-04, 2.37529702e-03, 0.,
          1.78147270e-03, 5.93824254e-04, 1.18764851e-03, 5.93824254e-04,
          0., 5.93824254e-04, 5.93824254e-04, 5.34441834e-03,
          3.56294541e-03, 5.93824254e-04, 5.93824254e-04, 1.78147270e-03,
          0., 1.18764851e-03, 1.78147270e-03, 5.93824254e-04,
          4.15676972e-03, 0., 0., 0., 0., 2.96912133e-03, 0.,
          1.78147270e-03, 5.93824254e-04, 0., 0., 0., 0., 0.,
          2.37529702e-03, 5.93824254e-04, 1.18764851e-03, 0., 0.,
          4.15676972e-03, 8.90736375e-03, 0., 0., 2.37529702e-03,
          1.18764851e-03, 5.93824254e-04, 1.78147270e-03, 4.15676972e-03,
          0., 0., 1.18764851e-03, 0., 0., 1.18764851e-03, 1.18764851e-03,
          5.93824254e-04, 1.78147270e-03, 1.78147270e-03, 0., 0., 0.,
          5.93824254e-04, 0., 0., 5.93824254e-04, 5.93824254e-04, 0.,
          1.78147270e-03, 0., 6.53206697e-03, 4.75059403e-03,
          1.18764851e-03, 0., 0., 1.18764851e-03, 1.78147270e-03, 0., 0.,
          0., 0., 0., 2.96912133e-03, 5.93824254e-04, 1.18764851e-03,
          5.93824254e-04, 1.18764851e-03, 1.18764851e-03, 0., 0., 0., 0.,
          1.18764851e-03, 0., 1.18764851e-03, 4.15676972e-03, 0.,
          5.34441834e-03, 0., 0., 1.78147270e-03, 0., 0., 5.93824254e-04,
          5.93824254e-04, 5.93824254e-04, 0., 0., 0., 1.18764851e-03, 0.,
          1.18764851e-03, 0., 0., 5.93824254e-04, 1.18764851e-03,
          5.93824254e-04, 0., 0., 1.18764851e-03, 1.78147270e-03, 0.,
          1.18764851e-03, 0., 1.78147270e-03, 5.93824254e-04,
          1.78147270e-03, 5.93824254e-04, 0., 0., 1.18764851e-03, 0.,
          5.93824254e-04, 0., 0., 2.37529702e-03, 5.93824254e-04, 0.,
          1.78147270e-03, 1.18764851e-03, 1.18764851e-03, 0.,
          3.56294541e-03, 5.93824254e-04, 0., 5.93824254e-04,
          5.93824254e-04, 1.78147270e-03, 0., 0., 0., 8.31353944e-03, 0.,
          0., 0., 0., 2.37529702e-03, 0., 2.37529702e-03, 0.,
          2.96912133e-03, 0., 0., 5.93824254e-04, 5.93824254e-04, 0., 0.,
          1.78147270e-03, 0., 0., 5.93824254e-04, 1.18764851e-03,
          1.18764851e-03, 2.37529702e-03, 1.18764851e-03, 1.78147270e-03,
          0., 1.18764851e-03, 1.78147270e-03, 5.93824254e-04, 0.,
          1.18764851e-03, 5.93824254e-04, 0., 2.96912133e-03,
          2.96912133e-03, 1.78147270e-03, 5.93824254e-04, 0.,
          7.71971513e-03, 5.93824254e-04, 0., 4.15676972e-03,
          2.37529702e-03, 0., 0., 0., 0., 0., 1.78147270e-03, 0.,
          5.93824254e-04, 4.75059403e-03, 5.93824254e-04, 2.37529702e-03,
          2.37529702e-03, 5.93824254e-04, 1.78147270e-03, 2.96912133e-03,
          1.78147270e-03, 0., 5.93824254e-04, 0., 0., 0., 2.37529702e-03,
          0., 1.78147270e-03, 0., 0., 2.37529702e-03, 1.18764851e-03,
          1.18764851e-03, 1.78147270e-03, 1.18764851e-03, 5.93824254e-04,
          3.56294541e-03, 0., 5.93824254e-04, 2.96912133e-03,
          5.93824254e-04, 5.93824254e-04, 0., 2.37529702e-03,
          1.78147270e-03, 5.93824254e-04, 5.93824254e-04, 5.93824254e-04,
          0., 5.93824254e-04, 5.93824254e-04, 1.18764851e-03,
          1.18764851e-03, 5.93824254e-04, 5.93824254e-04, 1.78147270e-03,
          5.93824254e-04, 0., 1.18764851e-03, 1.78147270e-03, 0., 0., 0.,
          2.96912133e-03, 1.18764851e-03, 0., 0., 0., 1.18764851e-03,
          1.18764851e-03, 0., 1.18764851e-03, 8.90736375e-03,
          5.93824254e-04, 0., 1.18764851e-03, 0., 3.56294541e-03, 0., 0.,
          0., 0., 0., 0., 0., 1.18764851e-03, 0., 0., 0., 0.,
          2.37529702e-03, 5.93824254e-04, 2.96912133e-03, 0.,
          5.93824254e-04, 5.69905760e-03, 6.84685400e-03, 1.92230921e-02,
          2.23555773e-01, 1.86207473e-01, 4.76584956e-02, 7.34090526e-03,
          1.49712549e-03, 6.18811871e-04, 2.79463420e-04, 2.14587984e-04,
          2.49520905e-04, 1.29750872e-04, 9.98083706e-05, 2.49520926e-05,
          6.48754358e-05, 1.49712549e-04, 9.98083669e-06, 4.99041835e-06,
          4.99041835e-06, 0., 0., 0., 0., 0., 0., 0., 0., 0., 0., 0., 0.,
          0., 4.99041835e-06, 0., 0., 0., 0., 0., 0., 0., 0., 0.,
          4.99041835e-06, 0., 9.98083669e-06, 0., 1.99616734e-05,
          4.49137660e-05, 3.49329275e-05, 2.99425101e-05, 0., 0.,
          1.14779621e-04, 1.99616734e-05, 9.98083669e-06, 1.04798783e-04,
          2.99425101e-05, 1.99616741e-04, 4.49137660e-05, 6.98658550e-05,
          3.99233482e-04, 1.79655064e-04, 4.64108918e-04, 2.79463420e-04,
          8.43380694e-04, 6.28792739e-04, 9.63150756e-04, 1.04798784e-03,
          1.05796871e-03, 9.18236969e-04, 6.98658579e-04, 1.00806449e-03,
          1.04299746e-03, 1.03800697e-03, 7.88486097e-04, 1.81152183e-03,
          1.06794958e-03, 1.38234592e-03, 1.70173263e-03, 2.56507494e-03,
          2.28062109e-03, 2.46526673e-03, 3.74281383e-03, 4.01229644e-03,
          3.84761253e-03, 4.88062901e-03, 7.15126935e-03, 6.88178698e-03,
          9.01768636e-03, 9.26221628e-03, 1.43524436e-02, 1.30848773e-02,
          1.62488017e-02, 1.86641645e-02, 2.87098773e-02, 2.60799266e-02,
          2.98826247e-02, 3.85459922e-02, 2.70330962e-02, 2.25067865e-02,
          2.16983389e-02, 2.44131275e-02, 2.44430695e-02, 7.18121231e-02,
          4.84719351e-02, 0., 0., 0., 0. ]
      - [ 0., 0., 1.92678231e-03, 0., 1.28452154e-03, 1.28452154e-03,
          6.42260769e-04, 1.28452154e-03, 6.42260769e-04, 1.92678231e-03,
          6.42260769e-04, 0., 1.28452154e-03, 0., 1.41297374e-02,
          1.28452154e-03, 0., 0., 0., 1.92678231e-03, 0., 0., 0.,
          6.42260769e-04, 2.56904308e-03, 6.42260769e-04, 0., 0., 0.,
          6.42260769e-04, 0., 6.42260769e-04, 6.42260769e-04, 0., 0.,
          6.42260769e-04, 2.56904308e-03, 5.13808616e-03, 1.28452154e-03,
          1.28452154e-03, 5.13808616e-03, 1.92678231e-03, 0.,
          6.42260769e-04, 1.28452154e-03, 1.28452154e-03, 6.42260769e-04,
          1.28452154e-03, 0., 6.42260769e-04, 0., 2.56904308e-03, 0.,
          1.28452154e-03, 0., 1.28452154e-03, 1.28452154e-03,
          1.92678231e-03, 2.56904308e-03, 6.42260769e-04, 0.,
          4.49582562e-03, 6.42260769e-03, 6.42260769e-04, 1.28452154e-03,
          3.21130385e-03, 0., 6.42260769e-04, 6.42260769e-04,
          6.42260769e-04, 6.42260769e-04, 1.92678231e-03, 0., 0., 0.,
          2.56904308e-03, 1.28452154e-03, 0., 0., 0., 6.42260769e-04, 0.,
          0., 0., 0., 0., 6.42260769e-04, 6.42260769e-04, 0.,
          1.92678231e-03, 2.56904308e-03, 0., 6.42260769e-04, 0., 0.,
          4.49582562e-03, 1.92678231e-03, 1.92678231e-03, 6.42260769e-04,
          0., 1.28452154e-03, 0., 0., 3.21130385e-03, 6.42260769e-04, 0.,
          2.56904308e-03, 0., 1.28452154e-03, 6.42260769e-04,
          1.92678231e-03, 1.28452154e-03, 0., 0., 2.56904308e-03,
          6.42260769e-04, 0., 0., 5.13808616e-03, 0., 1.92678231e-03, 0.,
          0., 0., 8.99165124e-03, 3.85356462e-03, 2.56904308e-03,
          2.56904308e-03, 0., 0., 6.42260769e-03, 1.28452154e-03,
          1.92678231e-03, 0., 0., 1.28452154e-03, 3.21130385e-03, 0., 0.,
          0., 6.42260769e-04, 0., 2.56904308e-03, 0., 0., 1.28452154e-03,
          6.42260769e-04, 6.42260769e-04, 0., 1.28452154e-03,
          6.42260769e-04, 3.85356462e-03, 1.28452154e-03, 1.28452154e-03,
          6.42260769e-04, 0., 0., 0., 1.28452154e-03, 3.21130385e-03, 0.,
          1.92678231e-03, 6.42260769e-04, 0., 0., 0., 0., 0.,
          1.92678231e-03, 6.42260769e-04, 1.28452154e-03, 3.21130385e-03,
          6.42260769e-04, 9.63391177e-03, 1.28452154e-03, 1.28452154e-03,
          1.92678231e-03, 2.56904308e-03, 6.42260769e-04, 6.42260769e-04,
          6.42260769e-04, 0., 6.42260769e-04, 0., 6.42260769e-03, 0.,
          3.21130385e-03, 0., 1.28452154e-03, 0., 1.92678231e-03, 0.,
          6.42260769e-04, 0., 0., 6.42260769e-04, 6.42260769e-04, 0.,
          6.42260769e-04, 1.92678231e-03, 0., 1.92678231e-03, 0., 0.,
          6.42260769e-04, 1.28452154e-03, 1.28452154e-03, 6.42260769e-04,
          0., 0., 4.49582562e-03, 6.42260769e-04, 2.56904308e-03,
          3.85356462e-03, 1.28452154e-03, 1.92678231e-03, 1.28452154e-03,
          6.42260769e-04, 6.42260769e-04, 6.42260769e-04, 0.,
          2.56904308e-03, 6.42260769e-04, 0., 0., 1.92678231e-03,
          1.28452154e-03, 0., 0., 2.56904308e-03, 1.28452154e-03,
          1.92678231e-03, 6.42260769e-04, 0., 0., 0., 1.28452154e-03, 0.,
          0., 6.42260769e-04, 2.56904308e-03, 6.42260769e-04, 0., 0., 0.,
          1.28452154e-03, 6.42260769e-04, 0., 6.42260769e-04,
          4.49582562e-03, 0., 0., 0., 6.42260769e-04, 0., 0.,
          6.42260769e-04, 6.42260769e-04, 0., 0., 0., 0., 6.42260769e-04,
          1.92678231e-03, 3.21130385e-03, 0., 0., 1.28452154e-03, 0., 0.,
          6.42260769e-04, 6.42260769e-04, 2.56904308e-03, 6.42260769e-04,
          1.28452154e-03, 1.92678231e-03, 0., 3.21130385e-03, 0., 0.,
          6.42260769e-04, 0., 6.42260769e-04, 1.28452154e-03,
          1.28452154e-03, 0., 6.42260769e-04, 6.42260769e-04,
          1.28452154e-03, 0., 6.42260769e-04, 0., 1.28452154e-03,
          6.42260769e-04, 0., 2.56904308e-03, 0., 2.56904308e-03,
          1.28452154e-03, 6.42260769e-04, 0., 0., 2.56904308e-03,
          1.28452154e-03, 1.92678231e-03, 0., 1.28452154e-03,
          6.42260769e-04, 1.28452154e-03, 0., 1.92678231e-03, 0.,
          1.92678231e-03, 1.28452154e-03, 0., 0., 0., 6.42260769e-04, 0.,
          6.42260769e-04, 1.28452154e-03, 1.28452154e-03, 1.92678231e-03,
          6.42260769e-04, 0., 6.42260769e-04, 1.28452154e-03,
          6.42260769e-04, 6.42260769e-04, 6.42260769e-04, 0.,
          1.28452154e-03, 0., 6.42260769e-04, 1.28452154e-03, 0., 0.,
          6.42260769e-04, 0., 0., 1.92678231e-03, 1.28452154e-03,
          6.42260769e-04, 1.92678231e-03, 0., 0., 0., 1.28452154e-03,
          1.28452154e-03, 6.42260769e-04, 1.28452154e-03, 1.92678231e-03,
          0., 0., 2.56904308e-03, 1.92678231e-03, 1.92678231e-03, 0.,
          6.42260769e-04, 1.92678231e-03, 0., 0., 0., 0., 0., 0.,
          6.42260769e-04, 1.92678231e-03, 1.28452154e-03, 0., 0.,
          6.42260769e-04, 1.92678231e-03, 6.42260769e-04, 6.42260769e-04,
          0., 0., 1.28452154e-03, 6.42260769e-04, 0., 0., 0., 0., 0.,
          1.28452154e-03, 1.92678231e-03, 0., 1.28452154e-03, 0.,
          1.28452154e-03, 0., 6.42260769e-04, 0., 6.42260769e-04, 0.,
          5.78034669e-03, 1.92678231e-03, 1.28452154e-03, 0.,
          6.42260769e-04, 0., 1.28452154e-03, 0., 1.28452154e-03, 0., 0.,
          1.92678231e-03, 1.92678231e-03, 0., 0., 6.42260769e-04, 0.,
          6.42260769e-04, 0., 6.42260769e-04, 1.28452154e-03,
          2.56904308e-03, 0., 1.28452154e-03, 6.42260769e-04,
          1.28452154e-03, 0., 0., 6.42260769e-04, 0., 0., 1.28452154e-03,
          6.42260769e-04, 0., 1.92678231e-03, 0., 0., 6.42260769e-04,
          4.49582562e-03, 0., 0., 3.21130385e-03, 0., 6.42260769e-04,
          1.92678231e-03, 0., 1.28452154e-03, 6.42260769e-04,
          1.28452154e-03, 1.28452154e-03, 0., 0., 6.42260769e-04, 0.,
          1.28452154e-03, 0., 2.56904308e-03, 6.42260769e-04,
          1.28452154e-03, 1.28452154e-03, 3.21130385e-03, 1.28452154e-03,
          6.42260769e-04, 6.42260769e-04, 0., 6.42260769e-04, 0.,
          2.56904308e-03, 0., 1.92678231e-03, 1.28452154e-03,
          2.56904308e-03, 0., 0., 2.56904308e-03, 0., 1.92678231e-03, 0.,
          6.42260769e-04, 6.42260769e-04, 1.28452154e-03, 2.56904308e-03,
          0., 6.42260769e-04, 1.92678231e-03, 0., 6.42260769e-04,
          4.49582562e-03, 6.42260769e-04, 2.56904308e-03, 1.92678231e-03,
          6.42260769e-04, 6.42260769e-04, 0., 2.56904308e-03, 0.,
          6.42260769e-04, 3.21130385e-03, 6.42260769e-04, 1.92678231e-03,
          6.42260769e-04, 1.28452154e-03, 0., 6.42260769e-04, 0.,
          6.42260769e-04, 3.85356462e-03, 1.28452154e-03, 0.,
          6.42260769e-04, 1.28452154e-03, 3.85356462e-03, 0.,
          2.56904308e-03, 6.42260769e-04, 6.42260769e-04, 1.28452154e-03,
          6.42260769e-04, 6.42260769e-04, 3.21130385e-03, 0.,
          1.92678231e-03, 0., 0., 6.42260769e-04, 6.42260769e-04,
          6.42260769e-04, 0., 6.42260769e-04, 0., 6.42260769e-04, 0.,
          6.42260769e-04, 1.28452154e-03, 0., 0., 6.42260769e-04, 0., 0.,
          6.42260769e-04, 1.28452154e-03, 1.92678231e-03, 1.92678231e-03,
          0., 0., 2.56904308e-03, 6.42260769e-04, 1.28452154e-03,
          3.85356462e-03, 6.42260769e-04, 0., 1.28452154e-03,
          6.42260769e-04, 1.92678231e-03, 0., 6.42260769e-04,
          6.42260769e-04, 1.28452154e-03, 0., 1.28452154e-03,
          3.85356462e-03, 0., 1.92678231e-03, 0., 1.28452154e-03,
          1.28452154e-03, 6.42260769e-04, 4.49582562e-03, 7.06486870e-03,
          2.56904308e-03, 0., 0., 1.92678231e-03, 6.42260769e-04, 0.,
          6.42260769e-04, 1.28452154e-03, 3.85356462e-03, 0., 0.,
          3.21130385e-03, 6.42260769e-04, 1.92678231e-03, 6.42260769e-04,
          6.42260769e-04, 0., 6.42260769e-04, 2.56904308e-03,
          6.42260769e-04, 0., 6.42260769e-04, 1.28452154e-03, 0.,
          1.28452154e-03, 6.42260769e-04, 6.42260769e-04, 0.,
          1.92678231e-03, 0., 1.28452154e-03, 1.92678231e-03,
          2.56904308e-03, 6.42260769e-04, 6.42260769e-04, 0.,
          6.42260769e-04, 0., 4.49582562e-03, 1.28452154e-03,
          6.42260769e-04, 0., 6.42260769e-04, 1.28452154e-03,
          1.28452154e-03, 0., 6.42260769e-04, 0., 6.42260769e-04,
          6.42260769e-04, 1.92678231e-03, 4.49582562e-03, 0.,
          6.42260769e-04, 1.92678231e-03, 6.42260769e-04, 1.28452154e-03,
          2.56904308e-03, 6.42260769e-04, 6.42260769e-04, 6.42260769e-04,
          0., 2.56904308e-03, 0., 0., 1.28452154e-03, 0., 0.,
          1.28452154e-03, 0., 0., 1.28452154e-03, 2.56904308e-03,
          6.42260769e-04, 0., 0., 0., 0., 6.42260769e-04, 0., 0., 0., 0.,
          1.92678231e-03, 3.21130385e-03, 1.28452154e-03, 6.42260769e-04,
          6.42260769e-04, 1.28452154e-03, 1.34874759e-02, 0.,
          1.28452154e-03, 0., 0., 6.42260769e-04, 0., 6.42260769e-04,
          1.28452154e-03, 6.42260769e-04, 0., 0., 1.28452154e-03,
          1.28452154e-03, 0., 1.28452154e-03, 0., 1.92678231e-03, 0.,
          6.42260769e-04, 0., 1.92678231e-03, 0., 6.42260769e-04, 0., 0.,
          0., 1.28452154e-03, 6.42260769e-04, 1.28452154e-03,
          6.42260769e-04, 3.85356462e-03, 0., 6.42260769e-04,
          1.92678231e-03, 6.42260769e-04, 0., 3.21130385e-03, 0., 0.,
          1.28452154e-03, 6.42260769e-04, 1.28452154e-03, 6.42260769e-04,
          0., 1.92678231e-03, 1.92678231e-03, 1.28452154e-03,
          2.56904308e-03, 0., 3.85356462e-03, 0., 6.42260769e-04,
          1.92678231e-03, 0., 3.21130385e-03, 0., 5.13808616e-03,
          8.34938977e-03, 1.28452154e-03, 1.28452154e-03, 5.13808616e-03,
          1.92678231e-03, 6.42260769e-04, 2.56904308e-03, 1.92678231e-03,
          4.49582562e-03, 1.28452154e-03, 1.28452154e-03, 1.28452154e-03,
          6.42260769e-04, 2.56904308e-03, 1.92678231e-03, 1.92678231e-03,
          0., 1.28452154e-03, 0., 1.28452154e-03, 6.42260769e-04, 0.,
          6.42260769e-04, 0., 6.42260769e-04, 6.42260769e-04, 0., 0., 0.,
          6.42260769e-04, 1.28452154e-03, 6.42260769e-04, 1.92678231e-03,
          0., 0., 6.42260769e-04, 6.42260769e-04, 0., 1.28452154e-03,
          6.42260769e-04, 6.42260769e-04, 1.92678231e-03, 1.92678231e-03,
          0., 6.42260769e-04, 1.92678231e-03, 0., 0., 4.49582562e-03,
          6.42260769e-04, 0., 3.85356462e-03, 3.85356462e-03,
          1.28452154e-03, 6.42260769e-04, 3.21130385e-03, 0.,
          6.42260769e-04, 2.56904308e-03, 4.49582562e-03, 0.,
          1.28452154e-03, 1.28452154e-03, 1.28452154e-03, 0., 0., 0., 0.,
          0., 0., 6.42260769e-04, 0., 1.92678231e-03, 0., 5.78034669e-03,
          3.21130385e-03, 0., 0., 0., 6.42260769e-04, 0., 1.92678231e-03,
          6.42260769e-04, 0., 6.42260769e-04, 0., 3.21130385e-03, 0., 0.,
          1.92678231e-03, 1.28452154e-03, 0., 1.28452154e-03,
          6.42260769e-04, 0., 0., 0., 6.42260769e-04, 1.28452154e-03,
          3.21130385e-03, 6.42260769e-04, 1.28452154e-03, 0., 0.,
          1.92678231e-03, 0., 0., 1.28452154e-03, 0., 0., 0., 0.,
          1.28452154e-03, 1.92678231e-03, 0., 0., 0., 6.42260769e-04, 0.,
          0., 0., 0., 0., 1.92678231e-03, 0., 0., 0., 0., 1.28452154e-03,
          0., 1.28452154e-03, 6.42260769e-04, 0., 6.42260769e-04, 0.,
          6.42260769e-04, 0., 1.92678231e-03, 0., 1.28452154e-03, 0., 0.,
          3.21130385e-03, 6.42260769e-04, 3.85356462e-03, 0., 0.,
          1.28452154e-03, 0., 1.92678231e-03, 2.56904308e-03,
          6.42260769e-04, 0., 0., 6.42260769e-04, 3.21130385e-03, 0.,
          6.42260769e-04, 1.92678231e-03, 6.42260769e-04, 1.28452154e-03,
          6.42260769e-04, 6.42260769e-04, 0., 3.85356462e-03, 0.,
          6.42260769e-04, 3.21130385e-03, 0., 0., 0., 0., 0.,
          1.28452154e-03, 6.42260769e-04, 1.92678231e-03, 1.28452154e-03,
          0., 1.92678231e-03, 1.92678231e-03, 1.92678231e-03,
          6.42260769e-04, 6.42260769e-04, 3.85356462e-03, 0.,
          6.42260769e-04, 6.42260769e-04, 6.42260769e-04, 1.28452154e-03,
          0., 1.28452154e-03, 6.42260769e-04, 0., 6.42260769e-04,
          6.42260769e-04, 0., 0., 1.92678231e-03, 0., 1.28452154e-03, 0.,
          4.49582562e-03, 1.28452154e-03, 2.56904308e-03, 0.,
          1.92678231e-03, 0., 6.42260769e-04, 0., 0., 6.42260769e-04,
          2.56904308e-03, 3.21130385e-03, 7.06486870e-03, 0., 0., 0.,
          6.42260769e-04, 0., 8.99165124e-03, 6.42260769e-04,
          2.56904308e-03, 2.56904308e-03, 6.42260769e-04, 5.13808616e-03,
          1.28452154e-03, 0., 6.42260769e-04, 0., 0., 6.42260769e-04, 0.,
          6.42260769e-04, 0., 6.42260769e-04, 1.28452154e-03,
          6.42260769e-04, 2.56904308e-03, 0., 1.28452154e-03,
          1.28452154e-03, 6.42260769e-04, 0., 6.42260769e-04, 0.,
          7.70712923e-03, 6.42260769e-04, 0., 0., 0., 0., 0.,
          6.42260769e-04, 3.85356462e-03, 0., 0., 0., 1.92678231e-03,
          6.42260769e-04, 1.28452154e-03, 6.42260769e-04, 0., 0.,
          6.42260769e-04, 0., 6.42260769e-04, 6.42260769e-04,
          6.42260769e-04, 2.56904308e-03, 6.42260769e-04, 1.28452154e-03,
          1.92678231e-03, 1.28452154e-03, 0., 0., 0., 0., 6.42260769e-04,
          0., 1.92678231e-03, 0., 3.21130385e-03, 0., 1.28452154e-03,
          6.42260769e-04, 0., 6.42260769e-03, 0., 1.28452154e-03,
          4.04406199e-03, 7.15571269e-03, 3.21681798e-02, 2.12063879e-01,
          1.94559500e-01, 4.17796038e-02, 4.95478883e-03, 1.14382990e-03,
          6.61361322e-04, 4.87889512e-04, 2.76470731e-04, 1.30103872e-04,
          9.75779039e-05, 3.25259680e-05, 7.58939204e-05, 3.79469602e-05,
          2.33102764e-04, 5.42099451e-06, 0., 0., 1.08419890e-05,
          5.42099451e-06, 5.42099451e-06, 0., 0., 0., 0., 0., 0., 0., 0.,
          0., 0., 1.08419890e-05, 0., 0., 0., 0., 0., 0., 0., 0., 0.,
          5.42099451e-06, 1.62629840e-05, 5.42099451e-06, 0.,
          5.42099451e-06, 1.62629840e-05, 1.08419890e-05, 1.08419890e-05,
          0., 0., 2.60207744e-04, 5.42099451e-06, 0., 1.35524868e-04,
          2.16839780e-05, 2.71049721e-05, 2.27681769e-04, 3.25259680e-05,
          5.90888376e-04, 2.16839777e-04, 2.81891727e-04, 3.84890620e-04,
          3.95732612e-04, 5.36678475e-04, 3.08996678e-04, 8.29412136e-04,
          7.20992277e-04, 3.68627632e-04, 6.83045306e-04, 8.83622095e-04,
          6.01730368e-04, 1.06793595e-03, 1.16009277e-03, 1.53414148e-03,
          1.63171929e-03, 1.86482212e-03, 1.79977017e-03, 3.48569942e-03,
          2.93817907e-03, 3.19296587e-03, 5.03610400e-03, 4.31511179e-03,
          5.23668062e-03, 5.65951830e-03, 8.58685561e-03, 7.71949627e-03,
          8.66817031e-03, 1.01752067e-02, 1.60407219e-02, 1.65502969e-02,
          1.88487973e-02, 2.37331148e-02, 3.40546891e-02, 3.10351942e-02,
          3.54966708e-02, 4.70162854e-02, 3.24229673e-02, 2.63731387e-02,
          2.42643710e-02, 2.92137396e-02, 2.31313836e-02, 2.97883656e-02,
          2.83843279e-02, 2.04913598e-03, 0., 0., 0. ]
      - [ 0., 0., 0., 0., 1.58604281e-03, 7.93021405e-04, 1.58604281e-03,
          0., 0., 0., 7.93021405e-04, 0., 0., 7.93021405e-04,
          1.66534502e-02, 0., 0., 0., 0., 7.93021405e-04, 0.,
          7.93021405e-04, 7.93021405e-04, 7.93021405e-04, 1.58604281e-03,
          0., 3.17208562e-03, 1.58604281e-03, 1.58604272e-02,
          7.93021405e-04, 3.17208562e-03, 0., 2.37906422e-03,
          7.93021405e-04, 0., 7.93021405e-04, 7.93021405e-04, 0., 0., 0.,
          1.58604281e-03, 0., 0., 7.93021405e-04, 3.96510679e-03, 0., 0.,
          0., 0., 0., 0., 7.93021405e-04, 3.17208562e-03, 0., 0.,
          7.93021405e-04, 0., 0., 0., 0., 3.17208562e-03, 2.37906422e-03,
          1.58604272e-02, 2.37906422e-03, 3.17208562e-03, 0.,
          7.93021405e-04, 1.58604281e-03, 4.75812843e-03, 0.,
          1.58604281e-03, 0., 0., 0., 7.93021405e-04, 7.93021405e-04,
          7.93021405e-04, 1.58604281e-03, 0., 0., 0., 0., 0., 0., 0., 0.,
          8.72323569e-03, 0., 0., 0., 7.93021359e-03, 0., 0.,
          7.93021405e-04, 0., 1.58604281e-03, 7.93021405e-04, 0., 0.,
          1.58604281e-03, 0., 0., 0., 7.93021405e-04, 0., 7.93021405e-04,
          2.37906422e-03, 0., 0., 7.93021405e-04, 0., 7.93021405e-04, 0.,
          0., 0., 0., 0., 1.58604281e-03, 7.93021405e-04, 0., 0., 0., 0.,
          0., 0., 0., 7.93021405e-04, 2.37906422e-03, 1.58604281e-03, 0.,
          9.51625686e-03, 0., 0., 0., 0., 3.17208562e-03, 1.58604281e-03,
          1.58604281e-03, 7.93021405e-04, 3.17208562e-03, 0.,
          2.37906422e-03, 0., 1.58604281e-03, 0., 0., 0., 2.37906422e-03,
          0., 0., 3.17208562e-03, 6.34417124e-03, 0., 0., 0.,
          7.93021405e-04, 0., 7.93021405e-04, 0., 0., 0., 7.93021405e-04,
          7.93021405e-04, 0., 0., 0., 0., 7.93021405e-04, 0.,
          7.93021405e-04, 1.58604281e-03, 0., 0., 0., 1.58604281e-03,
          1.58604281e-03, 0., 1.58604281e-03, 0., 0., 0., 0., 0., 0., 0.,
          0., 0., 3.96510679e-03, 0., 1.58604281e-03, 0., 0., 0., 0., 0.,
          7.93021405e-04, 7.93021405e-04, 0., 1.58604281e-03, 0.,
          1.58604281e-03, 0., 0., 0., 0., 7.93021405e-04, 0., 0.,
          3.96510679e-03, 7.93021405e-04, 0., 0., 7.93021405e-04, 0., 0.,
          0., 0., 0., 7.93021405e-04, 7.93021405e-04, 0., 0., 0., 0., 0.,
          1.58604281e-03, 1.58604281e-03, 0., 0., 7.93021405e-04, 0.,
          1.58604281e-03, 0., 7.93021405e-04, 0., 0., 2.37906422e-03, 0.,
          1.58604281e-03, 0., 1.58604281e-03, 7.93021405e-04, 0., 0., 0.,
          0., 7.93021405e-04, 0., 1.58604281e-03, 7.93021405e-04, 0., 0.,
          0., 4.75812843e-03, 7.93021405e-04, 0., 0., 0., 0., 0.,
          7.93021405e-04, 7.93021405e-04, 0., 7.93021405e-04,
          1.58604281e-03, 0., 0., 1.58604281e-03, 0., 0., 0.,
          2.37906422e-03, 0., 7.93021405e-04, 0., 7.93021405e-04, 0., 0.,
          1.58604281e-03, 7.93021405e-04, 0., 7.93021405e-04, 0.,
          7.93021405e-04, 7.93021405e-04, 0., 0., 0., 7.93021405e-04, 0.,
          7.93021405e-04, 0., 2.37906422e-03, 0., 7.93021405e-04,
          1.58604281e-03, 0., 0., 7.93021359e-03, 0., 0., 7.93021405e-04,
          0., 7.93021405e-04, 1.58604281e-03, 1.58604281e-03,
          7.93021405e-04, 0., 0., 0., 4.75812843e-03, 0., 5.55115007e-03,
          7.93021405e-04, 7.93021405e-04, 2.37906422e-03, 0., 0., 0.,
          7.93021405e-04, 7.93021405e-04, 7.93021405e-04, 7.93021405e-04,
          0., 2.37906422e-03, 0., 7.93021405e-04, 1.58604281e-03,
          1.58604281e-03, 3.96510679e-03, 1.58604281e-03, 0., 0., 0., 0.,
          0., 0., 0., 0., 0., 1.58604281e-03, 0., 2.37906422e-03, 0., 0.,
          7.93021405e-04, 0., 7.93021359e-03, 1.58604281e-03, 0.,
          7.93021405e-04, 0., 2.37906422e-03, 7.93021405e-04, 0., 0.,
          7.93021405e-04, 2.37906422e-03, 7.93021405e-04, 7.93021405e-04,
          0., 7.93021405e-04, 1.58604281e-03, 0., 1.58604281e-03, 0., 0.,
          2.37906422e-03, 3.17208562e-03, 1.58604281e-03, 0., 0., 0., 0.,
          7.93021405e-04, 7.93021405e-04, 0., 0., 3.96510679e-03, 0., 0.,
          2.37906422e-03, 0., 0., 0., 7.93021405e-04, 3.17208562e-03,
          1.58604281e-03, 0., 0., 0., 1.58604281e-03, 0., 3.96510679e-03,
          7.93021405e-04, 0., 0., 0., 0., 3.96510679e-03, 0.,
          7.93021405e-04, 0., 3.17208562e-03, 2.37906422e-03, 0., 0., 0.,
          0., 0., 4.75812843e-03, 0., 7.93021405e-04, 1.58604281e-03,
          1.58604281e-03, 0., 0., 0., 0., 1.58604281e-03, 7.93021405e-04,
          0., 0., 0., 0., 7.93021405e-04, 3.17208562e-03, 0., 0.,
          5.55115007e-03, 7.93021405e-04, 0., 3.17208562e-03, 0., 0., 0.,
          5.55115007e-03, 0., 0., 2.37906422e-03, 0., 0., 0.,
          1.58604281e-03, 2.37906422e-03, 3.17208562e-03, 7.93021405e-04,
          0., 7.93021405e-04, 1.58604281e-03, 7.93021405e-04, 0.,
          2.37906422e-03, 0., 0., 0., 0., 7.93021405e-04, 7.93021405e-04,
          0., 0., 0., 1.03092780e-02, 2.37906422e-03, 3.17208562e-03, 0.,
          1.58604281e-03, 0., 0., 0., 0., 1.58604281e-03, 0.,
          7.93021405e-04, 0., 1.03092780e-02, 0., 0., 0., 1.58604281e-03,
          0., 8.72323569e-03, 7.93021405e-04, 0., 0., 7.93021405e-04, 0.,
          0., 0., 0., 7.93021405e-04, 0., 1.58604281e-03, 7.93021405e-04,
          7.93021405e-04, 0., 7.93021405e-04, 0., 7.93021405e-04, 0., 0.,
          7.93021405e-04, 7.93021405e-04, 0., 3.96510679e-03, 0., 0., 0.,
          0., 2.37906422e-03, 7.93021405e-04, 7.93021405e-04,
          1.58604281e-03, 2.37906422e-03, 0., 7.93021405e-04,
          2.37906422e-03, 4.75812843e-03, 2.37906422e-03, 1.58604281e-03,
          0., 1.58604281e-03, 7.93021405e-04, 3.17208562e-03, 0.,
          3.96510679e-03, 0., 1.58604281e-03, 0., 1.58604281e-03,
          3.96510679e-03, 7.93021405e-04, 1.58604281e-03, 0., 0.,
          1.58604281e-03, 7.93021405e-04, 7.93021405e-04, 7.93021405e-04,
          0., 0., 0., 0., 1.58604281e-03, 7.93021405e-04, 7.93021405e-04,
          5.55115007e-03, 0., 0., 0., 0., 0., 0., 0., 2.37906422e-03, 0.,
          3.96510679e-03, 7.13719241e-03, 0., 1.58604281e-03, 0., 0.,
          1.98255349e-02, 2.53766850e-02, 2.37906422e-03, 0.,
          2.37906422e-03, 0., 1.58604281e-03, 0., 7.93021405e-04, 0., 0.,
          7.93021405e-04, 0., 1.58604281e-03, 1.58604281e-03,
          1.66534502e-02, 0., 7.93021405e-04, 0., 7.93021405e-04, 0., 0.,
          0., 1.58604281e-03, 7.93021405e-04, 0., 0., 0., 0., 0., 0.,
          7.93021405e-04, 2.37906422e-03, 0., 7.93021405e-04,
          1.58604281e-03, 7.93021405e-04, 0., 0., 0., 0., 1.58604281e-03,
          1.58604281e-03, 0., 0., 3.17208562e-03, 7.93021405e-04, 0., 0.,
          0., 0., 1.58604281e-03, 0., 0., 7.93021405e-04, 0., 0., 0.,
          7.93021405e-04, 7.93021405e-04, 0., 3.17208562e-03, 0., 0.,
          1.58604281e-03, 1.58604281e-03, 3.17208562e-03, 0.,
          1.58604281e-03, 7.93021405e-04, 0., 7.93021405e-04, 0.,
          4.75812843e-03, 7.93021405e-04, 3.17208562e-03, 0.,
          7.93021405e-04, 0., 0., 0., 0., 0., 0., 0., 7.93021405e-04,
          7.93021405e-04, 7.93021405e-04, 1.58604281e-03, 1.58604272e-02,
          0., 7.13719241e-03, 1.58604281e-03, 0., 0., 3.17208562e-03, 0.,
          5.55115007e-03, 1.58604281e-03, 1.58604281e-03, 0.,
          7.93021405e-04, 0., 0., 0., 1.58604281e-03, 0., 0., 0., 0., 0.,
          7.93021405e-04, 2.37906422e-03, 0., 0., 1.58604281e-03, 0., 0.,
          0., 3.17208562e-03, 0., 0., 1.66534502e-02, 0., 0.,
          3.17208562e-03, 0., 0., 0., 1.58604281e-03, 0., 0., 0., 0.,
          7.93021405e-04, 3.17208562e-03, 1.58604281e-03, 7.93021405e-04,
          0., 0., 3.17208562e-03, 2.37906422e-03, 0., 1.58604281e-03, 0.,
          7.93021405e-04, 1.18953213e-02, 0., 0., 1.42743848e-02, 0.,
          1.58604281e-03, 0., 0., 0., 0., 0., 7.93021405e-04,
          1.58604281e-03, 4.75812843e-03, 0., 7.93021405e-04,
          1.58604281e-03, 0., 0., 0., 1.58604281e-03, 0., 2.37906422e-03,
          3.17208562e-03, 1.58604281e-03, 0., 7.93021405e-04, 0., 0., 0.,
          7.93021405e-04, 0., 0., 0., 0., 7.93021405e-04, 7.93021405e-04,
          0., 2.37906422e-03, 7.93021405e-04, 7.93021405e-04,
          7.93021405e-04, 0., 0., 2.37906422e-03, 7.93021405e-04, 0., 0.,
          0., 0., 0., 0., 0., 0., 0., 1.58604281e-03, 4.75812843e-03,
          7.93021405e-04, 0., 0., 0., 3.17208562e-03, 2.37906422e-03, 0.,
          2.37906422e-03, 7.93021405e-04, 0., 7.93021405e-04, 0., 0., 0.,
          2.37906422e-03, 7.93021405e-04, 7.93021405e-04, 7.93021405e-04,
          7.93021405e-04, 0., 1.58604281e-03, 7.93021405e-04,
          7.93021405e-04, 0., 0., 7.93021405e-04, 0., 7.93021405e-04, 0.,
          0., 0., 7.93021405e-04, 1.58604281e-03, 0., 0., 0., 0., 0.,
          7.93021405e-04, 0., 7.13719241e-03, 0., 7.93021405e-04,
          7.93021405e-04, 0., 7.93021405e-04, 1.58604281e-03, 0., 0., 0.,
          4.75812843e-03, 0., 0., 0., 7.93021405e-04, 0., 7.93021405e-04,
          0., 1.58604281e-03, 7.93021405e-04, 0., 0., 0., 0., 0.,
          2.37906422e-03, 7.93021405e-04, 2.37906422e-03, 0., 0., 0.,
          1.58604281e-03, 1.58604281e-03, 0., 0., 0., 0., 2.37906422e-03,
          0., 0., 0., 0., 0., 0., 0., 7.93021405e-04, 3.17208562e-03,
          7.93021405e-04, 0., 0., 2.37906422e-03, 2.37906422e-03,
          7.93021405e-04, 7.93021405e-04, 0., 2.37906422e-03,
          7.93021405e-04, 3.17208562e-03, 7.93021405e-04, 0.,
          2.37906422e-03, 0., 0., 0., 1.58604281e-03, 7.93021405e-04, 0.,
          0., 7.93021405e-04, 7.93021405e-04, 7.93021405e-04,
          7.93021405e-04, 0., 1.11023001e-02, 7.93021405e-04, 0., 0.,
          2.37906422e-03, 0., 0., 0., 0., 1.58604281e-03, 0., 0.,
          7.93021405e-04, 0., 1.58604281e-03, 0., 3.96510679e-03, 0.,
          7.93021405e-04, 0., 0., 1.58604281e-03, 7.93021405e-04, 0.,
          7.93021405e-04, 1.82394926e-02, 7.93021405e-04, 0., 0.,
          2.37906422e-03, 0., 0., 7.93021405e-04, 7.93021405e-04, 0.,
          7.93021405e-04, 7.93021405e-04, 7.93021405e-04, 7.93021405e-04,
          0., 1.58604281e-03, 0., 7.93021405e-04, 0., 0., 1.58604281e-03,
          0., 0., 2.37906422e-03, 2.37906422e-03, 2.37906422e-03, 0.,
          3.96510679e-03, 0., 0., 5.55115007e-03, 0., 0., 3.17208562e-03,
          0., 0., 0., 7.93021405e-04, 2.37906422e-03, 0., 7.93021405e-04,
          0., 2.37906422e-03, 0., 0., 7.93021405e-04, 0., 0.,
          7.93021405e-04, 0., 0., 0., 7.93021405e-04, 7.93021405e-04, 0.,
          0., 0., 1.58604281e-03, 0., 1.58604281e-03, 0., 0., 0., 0.,
          1.58604281e-03, 0., 0., 1.58604281e-03, 7.93021405e-04, 0.,
          7.93021405e-04, 1.58604281e-03, 0., 1.58604281e-03,
          2.37906422e-03, 0., 5.55115007e-03, 3.96510679e-03, 0., 0., 0.,
          3.17208562e-03, 0., 0., 0., 0., 1.58604281e-03, 8.72323569e-03,
          0., 0., 7.93021405e-04, 0., 7.93021405e-04, 1.58604281e-03,
          7.93021405e-04, 0., 3.96510679e-03, 9.03403619e-04,
          8.84582696e-04, 4.02767444e-03, 1.98244393e-01, 2.75165439e-01,
          1.56251173e-02, 2.67633307e-03, 8.84582696e-04, 6.96373580e-04,
          3.65125627e-04, 1.95737448e-04, 1.12925452e-04, 7.15194547e-05,
          2.63492711e-05, 7.52836331e-06, 7.52836331e-06, 8.28119955e-05,
          0., 0., 0., 3.76418166e-06, 0., 3.76418166e-06, 0., 0., 0., 0.,
          0., 0., 3.76418166e-06, 3.76418166e-06, 0., 0., 0., 0., 0., 0.,
          0., 0., 0., 0., 0., 0., 0., 0., 7.52836331e-06, 0., 0., 0., 0.,
          2.25850890e-05, 0., 0., 3.76418166e-06, 0., 0., 3.76418166e-06,
          3.76418166e-06, 2.25850890e-05, 1.50567266e-05, 1.88209087e-05,
          7.52836349e-05, 6.02269065e-05, 7.90478152e-05, 1.05397085e-04,
          1.12925452e-04, 1.50567270e-04, 1.31746361e-04, 2.03265809e-04,
          1.54331443e-04, 2.03265809e-04, 1.54331443e-04, 2.55964347e-04,
          1.99501621e-04, 2.33379265e-04, 2.71021068e-04, 2.93606165e-04,
          2.78549443e-04, 2.67256895e-04, 3.16191261e-04, 5.38277964e-04,
          3.80182348e-04, 4.36645059e-04, 6.66260137e-04, 6.54967618e-04,
          6.36146695e-04, 8.09299061e-04, 1.15560379e-03, 1.00127235e-03,
          1.37769047e-03, 1.47555920e-03, 2.40531215e-03, 2.29615089e-03,
          2.85701384e-03, 3.83570115e-03, 6.80940459e-03, 7.66763790e-03,
          1.09500047e-02, 1.92951951e-02, 2.04545632e-02, 2.57507674e-02,
          3.00419331e-02, 4.24562059e-02, 3.47396322e-02, 3.48826721e-02,
          3.55677530e-02, 4.05063592e-02, 2.79151704e-02, 2.36465894e-02,
          1.15153842e-01 ]
      - [ 0., 0., 9.97008989e-04, 9.97008989e-04, 1.49551348e-03, 0.,
          9.97008989e-04, 1.49551348e-03, 1.49551348e-03, 1.99401798e-03,
          9.97008989e-04, 4.98504494e-04, 4.98504494e-04, 4.98504494e-04,
          9.97008989e-04, 2.49252236e-03, 4.48654033e-03, 1.49551348e-03,
          0., 2.49252236e-03, 1.99401798e-03, 4.98504494e-04,
          2.99102697e-03, 2.49252236e-03, 1.49551348e-03, 0.,
          9.97008989e-04, 4.98504494e-04, 0., 4.98504494e-04,
          4.98504494e-04, 4.98504494e-04, 9.97008989e-04, 4.98504494e-04,
          0., 2.99102697e-03, 0., 9.97008989e-04, 4.98504494e-04,
          4.98504494e-04, 4.98504494e-04, 0., 0., 4.98504494e-04,
          9.97008989e-04, 2.49252236e-03, 4.98504494e-04, 1.49551348e-03,
          2.49252236e-03, 1.49551348e-03, 0., 9.97008989e-04,
          4.98504494e-04, 4.98504494e-04, 1.49551348e-03, 4.98504494e-04,
          4.48654033e-03, 9.97008989e-04, 0., 0., 3.98803595e-03,
          9.97008989e-04, 1.19641079e-02, 0., 0., 0., 1.49551348e-03, 0.,
          0., 3.48953158e-03, 1.99401798e-03, 1.49551348e-03, 0.,
          3.98803595e-03, 1.99401798e-03, 1.49551348e-03, 4.98504494e-04,
          3.48953158e-03, 0., 0., 0., 0., 0., 0., 9.97008989e-04,
          6.97906315e-03, 4.98504494e-04, 1.49551348e-03, 0.,
          1.99401798e-03, 1.49551348e-03, 0., 4.98504494e-04, 0.,
          4.98504494e-04, 2.49252236e-03, 1.99401798e-03, 0.,
          4.98504494e-04, 0., 0., 6.48055831e-03, 1.99401798e-03, 0.,
          1.49551348e-03, 4.98504494e-04, 2.49252236e-03, 1.49551348e-03,
          0., 4.98504494e-04, 1.49551348e-03, 2.99102697e-03,
          1.99401798e-03, 0., 4.98504494e-04, 9.97008989e-04,
          4.98504494e-04, 2.49252236e-03, 4.98504494e-04, 1.49551348e-03,
          1.49551348e-03, 1.99401798e-03, 4.98504494e-04, 1.99401798e-03,
          9.97008989e-04, 0., 9.97008989e-04, 9.97008989e-04,
          4.98504494e-04, 0., 1.49551348e-03, 9.97008989e-04, 0.,
          4.98504494e-04, 1.99401798e-03, 1.49551348e-03, 1.49551348e-03,
          0., 0., 1.99401798e-03, 4.98504494e-04, 9.97008989e-04,
          1.99401798e-03, 0., 0., 4.98504494e-04, 0., 4.98504494e-04,
          4.98504494e-04, 0., 0., 6.48055831e-03, 1.99401798e-03,
          2.99102697e-03, 0., 4.98504494e-04, 2.49252236e-03,
          2.99102697e-03, 6.97906315e-03, 1.99401798e-03, 0.,
          4.98504494e-04, 4.98504494e-04, 0., 4.98504494e-04, 0., 0., 0.,
          4.98504494e-04, 4.98504494e-04, 0., 0., 4.98504494e-04,
          4.98504494e-04, 0., 1.49551348e-03, 1.99401798e-03,
          9.97008989e-04, 0., 0., 2.49252236e-03, 9.97008989e-04,
          4.98504494e-04, 1.99401798e-03, 0., 9.97008989e-04,
          2.49252236e-03, 0., 4.98504494e-04, 0., 0., 0., 0.,
          3.98803595e-03, 0., 0., 9.97008989e-04, 9.97008989e-04,
          9.97008989e-04, 4.98504494e-04, 0., 0., 1.99401798e-03,
          1.49551348e-03, 0., 9.97008989e-04, 1.49551348e-03, 0.,
          2.49252236e-03, 1.49551348e-03, 4.98504494e-04, 1.99401798e-03,
          0., 4.98504494e-04, 9.97008989e-04, 4.98504494e-04,
          1.49551348e-03, 4.98504494e-04, 4.98504494e-04, 0., 0., 0., 0.,
          2.49252236e-03, 5.48354955e-03, 0., 0., 3.98803595e-03,
          9.97008989e-04, 1.99401798e-03, 9.97008989e-04, 0.,
          4.98504494e-04, 0., 0., 1.04685947e-02, 0., 0., 2.49252236e-03,
          0., 9.97008989e-04, 2.49252236e-03, 0., 1.49551348e-03,
          1.49551348e-03, 0., 2.49252236e-03, 9.97008989e-04,
          4.98504494e-04, 0., 1.49551348e-03, 0., 2.99102697e-03,
          2.99102697e-03, 5.48354955e-03, 0., 9.97008989e-04, 0.,
          4.98504494e-04, 9.97008989e-04, 1.49551348e-03, 1.49551348e-03,
          4.98504494e-04, 4.98504494e-04, 9.97008989e-04, 0.,
          9.97008989e-04, 4.98504494e-04, 0., 0., 4.98504494e-04, 0.,
          2.99102697e-03, 4.98504494e-04, 9.97008989e-04, 0., 0.,
          1.49551348e-03, 9.97008989e-04, 0., 9.97008989e-04,
          4.98504494e-04, 4.98504494e-04, 0., 1.49551348e-03,
          4.98504494e-04, 4.98504494e-04, 0., 0., 4.48654033e-03,
          2.99102697e-03, 0., 1.49551348e-03, 9.97008989e-04,
          1.99401798e-03, 1.49551348e-03, 0., 2.49252236e-03,
          1.49551348e-03, 4.98504494e-04, 9.97008989e-04, 4.48654033e-03,
          0., 0., 4.98504494e-04, 9.97008989e-04, 0., 4.98504494e-04, 0.,
          2.49252236e-03, 4.98504494e-04, 0., 3.98803595e-03,
          4.98504494e-04, 0., 9.97008989e-04, 0., 2.99102697e-03,
          9.97008989e-04, 1.49551348e-03, 0., 1.49551348e-03,
          1.49551348e-03, 2.99102697e-03, 1.49551348e-03, 0.,
          4.98504494e-04, 0., 0., 4.98504494e-04, 0., 9.97008989e-04,
          4.98504494e-04, 0., 4.98504494e-04, 2.49252236e-03, 0.,
          4.98504494e-04, 0., 1.49551348e-03, 4.98504494e-04,
          9.97008989e-04, 1.49551348e-03, 9.97008989e-04, 0.,
          2.99102697e-03, 4.98504494e-04, 4.98504494e-04, 1.99401798e-03,
          5.98205393e-03, 0., 3.48953158e-03, 0., 0., 2.49252236e-03, 0.,
          0., 4.98504494e-04, 9.97008989e-04, 0., 2.99102697e-03,
          2.49252236e-03, 9.97008989e-04, 3.48953158e-03, 0.,
          9.97008989e-04, 0., 9.97008989e-04, 0., 1.49551348e-03,
          1.49551348e-03, 9.97008989e-04, 1.49551348e-03, 1.99401798e-03,
          1.99401798e-03, 4.98504494e-04, 0., 4.98504494e-04,
          9.97008989e-04, 0., 0., 4.98504471e-03, 4.98504494e-04,
          4.98504494e-04, 1.49551348e-03, 0., 3.48953158e-03,
          9.97008989e-04, 0., 3.48953158e-03, 0., 4.98504494e-04,
          9.97008989e-04, 4.98504494e-04, 9.97008989e-04, 0., 0.,
          4.98504494e-04, 0., 1.49551348e-03, 0., 0., 1.49551348e-03,
          4.98504494e-04, 1.49551348e-03, 4.98504494e-04, 4.98504494e-04,
          4.98504494e-04, 0., 2.49252236e-03, 4.98504494e-04,
          4.98504494e-04, 0., 1.99401798e-03, 4.98504494e-04, 0., 0.,
          1.99401798e-03, 9.97008989e-04, 4.98504494e-04, 0., 0.,
          1.49551348e-03, 2.49252236e-03, 9.97008942e-03, 3.48953158e-03,
          9.97008989e-04, 0., 4.98504494e-04, 1.99401798e-03, 0.,
          2.99102697e-03, 1.49551348e-03, 0., 0., 4.98504494e-04,
          4.98504494e-04, 3.98803595e-03, 4.98504494e-04, 9.97008989e-04,
          2.49252236e-03, 0., 4.98504494e-04, 1.49551348e-03,
          1.49551348e-03, 2.99102697e-03, 0., 0., 4.98504494e-04, 0., 0.,
          4.98504494e-04, 1.99401798e-03, 0., 0., 0., 9.97008989e-04,
          4.98504494e-04, 4.98504494e-04, 4.98504494e-04, 0., 0., 0.,
          9.97008989e-04, 4.98504494e-04, 0., 4.98504494e-04,
          4.98504494e-04, 9.97008989e-04, 4.98504494e-04, 4.98504494e-04,
          0., 4.98504494e-04, 2.99102697e-03, 0., 4.98504494e-04, 0.,
          1.49551348e-03, 1.49551348e-03, 0., 5.48354955e-03,
          1.49551348e-03, 0., 4.98504494e-04, 4.98504471e-03,
          9.97008989e-04, 0., 6.48055831e-03, 0., 9.97008989e-04,
          4.98504494e-04, 1.99401798e-03, 4.98504494e-04, 4.98504494e-04,
          9.97008989e-04, 2.49252236e-03, 0., 0., 4.98504494e-04,
          1.49551348e-03, 2.49252236e-03, 0., 0., 4.98504494e-04, 0., 0.,
          1.49551348e-03, 1.49551348e-03, 9.97008989e-04, 2.99102697e-03,
          0., 4.98504494e-04, 4.98504494e-04, 0., 0., 0., 2.99102697e-03,
          1.99401798e-03, 4.98504494e-04, 0., 4.98504494e-04,
          4.98504494e-04, 2.99102697e-03, 4.98504494e-04, 1.49551348e-03,
          1.99401798e-03, 1.99401798e-03, 2.49252236e-03, 0.,
          4.98504494e-04, 0., 4.98504494e-04, 4.98504494e-04,
          3.98803595e-03, 0., 0., 0., 9.97008989e-04, 3.48953158e-03,
          1.49551348e-03, 2.99102697e-03, 9.97008989e-04, 9.97008989e-04,
          4.98504494e-04, 0., 1.99401798e-03, 2.99102697e-03, 0.,
          1.49551348e-03, 1.49551348e-03, 9.97008989e-04, 0.,
          1.49551348e-03, 0., 9.97008989e-04, 1.49551348e-03,
          1.49551348e-03, 4.98504494e-04, 9.97008989e-04, 2.99102697e-03,
          4.98504494e-04, 4.98504494e-04, 1.49551348e-03, 9.97008989e-04,
          9.97008989e-04, 0., 1.99401798e-03, 1.99401798e-03,
          4.98504494e-04, 0., 9.97008989e-04, 1.49551348e-03,
          1.49551348e-03, 0., 4.98504494e-04, 0., 9.97008989e-04,
          2.49252236e-03, 4.98504494e-04, 1.99401798e-03, 3.48953158e-03,
          0., 4.98504494e-04, 9.97008989e-04, 3.48953158e-03, 0., 0.,
          9.97008989e-04, 1.99401798e-03, 9.97008989e-04, 9.97008989e-04,
          4.98504494e-04, 0., 0., 0., 0., 9.97008989e-04, 1.49551348e-03,
          0., 0., 0., 4.98504494e-04, 0., 0., 1.49551348e-03,
          9.97008989e-04, 4.98504494e-04, 0., 4.98504494e-04,
          3.98803595e-03, 4.98504494e-04, 9.97008989e-04, 0.,
          9.97008989e-04, 4.98504494e-04, 9.97008989e-04, 3.48953158e-03,
          9.97008989e-04, 9.97008989e-04, 1.49551348e-03, 1.99401798e-03,
          4.98504494e-04, 4.98504494e-04, 1.49551348e-03, 0.,
          4.98504494e-04, 2.49252236e-03, 4.98504494e-04, 0.,
          9.97008989e-04, 1.99401798e-03, 0., 4.98504494e-04,
          3.48953158e-03, 1.49551348e-03, 4.98504494e-04, 1.49551348e-03,
          4.98504494e-04, 4.98504494e-04, 4.98504494e-04, 0.,
          1.99401798e-03, 0., 0., 0., 0., 0., 0., 9.97008989e-04,
          2.49252236e-03, 0., 7.47756753e-03, 9.97008989e-04,
          2.49252236e-03, 1.49551348e-03, 1.49551348e-03, 0.,
          9.97008989e-04, 1.49551348e-03, 0., 0., 0., 0., 4.98504494e-04,
          0., 0., 9.97008989e-04, 0., 4.98504494e-04, 0., 0., 0.,
          2.99102697e-03, 0., 1.99401798e-03, 2.49252236e-03, 0.,
          4.98504494e-04, 9.97008989e-04, 4.98504494e-04, 1.99401798e-03,
          0., 0., 4.98504494e-04, 9.97008989e-04, 0., 0., 1.49551348e-03,
          4.98504494e-04, 1.49551348e-03, 0., 4.98504494e-04,
          4.98504494e-04, 4.98504494e-04, 9.97008989e-04, 2.99102697e-03,
          4.98504494e-04, 1.99401798e-03, 0., 4.98504494e-04,
          9.97008989e-04, 0., 0., 9.97008989e-04, 0., 4.98504494e-04, 0.,
          1.99401798e-03, 1.49551348e-03, 4.98504494e-04, 0.,
          3.98803595e-03, 9.97008989e-04, 9.97008989e-04, 4.98504494e-04,
          0., 0., 0., 0., 0., 9.97008989e-04, 0., 0., 1.99401798e-03,
          1.49551348e-03, 4.98504494e-04, 4.98504494e-04, 0.,
          9.97008989e-04, 9.97008989e-04, 1.49551348e-03, 0.,
          1.49551348e-03, 2.49252236e-03, 4.98504494e-04, 1.99401798e-03,
          0., 0., 0., 0., 4.98504494e-04, 9.97008989e-04, 0., 0., 0.,
          4.98504494e-04, 4.98504494e-04, 4.98504494e-04, 1.99401798e-03,
          0., 0., 1.99401798e-03, 9.97008989e-04, 4.98504494e-04, 0., 0.,
          9.97008989e-04, 4.98504494e-04, 4.98504494e-04, 4.98504494e-04,
          4.98504494e-04, 0., 1.99401798e-03, 0., 9.97008989e-04,
          2.99102697e-03, 4.98504494e-04, 1.99401798e-03, 4.98504494e-04,
          9.97008989e-04, 1.49551348e-03, 1.49551348e-03, 1.49551348e-03,
          0., 9.97008989e-04, 9.97008989e-04, 1.99401798e-03,
          9.97008989e-04, 9.97008989e-04, 0., 9.97008989e-04, 0.,
          3.98803595e-03, 4.98504494e-04, 0., 0., 2.49252236e-03,
          1.49551348e-03, 4.98504494e-04, 0., 1.49551348e-03,
          1.49551348e-03, 4.98504494e-04, 0., 4.98504494e-04, 0., 0.,
          1.99401798e-03, 9.97008989e-04, 0., 4.98504494e-04, 0.,
          9.97008989e-04, 9.97008989e-04, 1.49551348e-03, 0.,
          9.97008989e-04, 0., 9.97008989e-04, 3.48953158e-03, 0.,
          4.98504494e-04, 9.97008989e-04, 0., 9.97008989e-04,
          3.48953158e-03, 0., 1.99401798e-03, 4.98504494e-04,
          1.49551348e-03, 0., 0., 9.97008989e-04, 0., 9.97008989e-04, 0.,
          4.98504494e-04, 9.97008989e-04, 4.98504494e-04, 1.49551348e-03,
          1.49551348e-03, 4.98504494e-04, 9.97008989e-04, 9.97008989e-04,
          9.97008989e-04, 2.99102697e-03, 9.97008989e-04, 4.98504494e-04,
          0., 0., 4.48654033e-03, 0., 4.98504494e-04, 1.99401798e-03, 0.,
          1.99401798e-03, 9.97008989e-04, 1.49551348e-03, 0., 0., 0.,
          9.97008989e-04, 1.99401798e-03, 1.99401798e-03, 0.,
          1.49551348e-03, 0., 1.49551348e-03, 4.98504494e-04, 0., 0., 0.,
          9.97008989e-04, 0., 1.99401798e-03, 1.49551348e-03, 0., 0., 0.,
          4.98504494e-04, 1.99401798e-03, 0., 4.98504494e-04,
          2.49252236e-03, 4.98504494e-04, 4.98504494e-04, 0.,
          2.49252236e-03, 9.97008989e-04, 0., 0., 4.98504494e-04, 0.,
          4.98504471e-03, 9.97008989e-04, 9.97008989e-04, 4.98504494e-04,
          1.49551348e-03, 4.98504494e-04, 0., 9.97008989e-04, 0.,
          9.97008989e-04, 4.98504494e-04, 4.98504494e-04, 1.49551348e-03,
          1.99401798e-03, 9.97008989e-04, 1.99401798e-03, 0.,
          1.99401798e-03, 1.49551348e-03, 0., 4.98504494e-04,
          4.48654033e-03, 1.49551348e-03, 0., 4.98504494e-04,
          1.49551348e-03, 3.48953158e-03, 0., 4.98504494e-04, 0.,
          9.97008989e-04, 4.98504494e-04, 5.48354955e-03, 0., 0.,
          9.97008989e-04, 4.48654033e-03, 0., 7.47756753e-03,
          1.49551348e-03, 9.97008989e-04, 4.98504494e-04, 0.,
          9.97008989e-04, 4.98504494e-04, 0., 2.49252236e-03,
          1.99401798e-03, 4.98504494e-04, 0., 2.99102697e-03,
          4.98504494e-04, 0., 1.99401798e-03, 0., 9.97008989e-04, 0.,
          9.97008989e-04, 1.99401798e-03, 4.98504494e-04, 1.49551348e-03,
          1.49551348e-03, 9.97008989e-04, 0., 4.98504494e-04,
          1.49551348e-03, 2.99102697e-03, 0., 0., 1.49551348e-03, 0.,
          3.48953158e-03, 0., 4.98504494e-04, 1.49551348e-03,
          9.97008989e-04, 4.98504494e-04, 0., 0., 4.98504494e-04,
          9.97008989e-04, 0., 9.97008989e-04, 4.98504494e-04,
          4.98504494e-04, 0., 9.97008989e-04, 4.98504494e-04,
          2.49252236e-03, 1.99401798e-03, 4.98504494e-04, 9.97008989e-04,
          4.48654033e-03, 0., 0., 4.98504494e-04, 1.49551348e-03,
          1.99401798e-03, 9.97008989e-04, 1.99401798e-03, 0., 0., 0., 0.,
          0., 0., 4.98504494e-04, 2.49252236e-03, 3.98803595e-03,
          9.97008989e-04, 0., 0., 4.98504494e-04, 0., 1.99401798e-03,
          1.49551348e-03, 9.97008989e-04, 8.88972718e-04, 3.43173277e-03,
          2.32225507e-02, 2.96961576e-01, 1.12949200e-01, 4.33262475e-02,
          1.70891341e-02, 1.49486482e-03, 3.67508270e-04, 1.48989842e-04,
          4.46969534e-05, 1.48989839e-05, 0., 0., 4.96632811e-06, 0.,
          4.46969534e-05, 0., 0., 0., 0., 0., 0., 0., 0., 0., 0., 0., 0.,
          0., 0., 0., 0., 0., 0., 0., 0., 0., 0., 0., 0., 0., 0., 0., 0.,
          0., 0., 0., 0., 9.93265621e-06, 0., 0., 0., 0., 0.,
          1.48989839e-05, 2.48316410e-05, 5.46296105e-05, 1.58922499e-04,
          2.33417421e-04, 2.18518442e-04, 2.48316413e-04, 2.23484763e-04,
          1.34090864e-04, 2.73148034e-04, 2.18518442e-04, 1.73821478e-04,
          2.28451099e-04, 2.58249056e-04, 1.58922499e-04, 1.83754135e-04,
          1.88720471e-04, 3.17844999e-04, 2.48316413e-04, 2.83080706e-04,
          2.58249056e-04, 3.97306256e-04, 3.47642956e-04, 4.07238898e-04,
          4.91666491e-04, 7.59848219e-04, 7.15151255e-04, 8.88972718e-04,
          1.23661570e-03, 1.14722177e-03, 1.24158198e-03, 1.43030251e-03,
          2.05605989e-03, 1.74814754e-03, 1.99646386e-03, 2.39377003e-03,
          3.70984711e-03, 3.28274281e-03, 4.17171558e-03, 5.10041881e-03,
          7.55378511e-03, 7.65311159e-03, 8.60664621e-03, 1.45712066e-02,
          1.44520150e-02, 1.55893043e-02, 1.96169969e-02, 2.75035258e-02,
          2.53630374e-02, 2.49011684e-02, 2.73098387e-02, 3.67259979e-02,
          2.51594186e-02, 3.41882035e-02, 1.73180833e-01 ]
      - [ 0., 0., 1.40548137e-03, 0., 1.40548137e-03, 7.02740683e-04,
          7.73014734e-03, 1.40548137e-03, 7.02740683e-04, 7.02740683e-04,
          1.40548137e-03, 7.02740683e-04, 7.02740683e-04, 0.,
          3.51370336e-03, 7.02740683e-04, 0., 7.02740683e-04,
          1.40548137e-03, 7.02740683e-04, 0., 0., 0., 0., 0., 0.,
          7.02740683e-04, 7.02740671e-03, 5.62192546e-03, 7.02740683e-04,
          2.10822211e-03, 0., 3.51370336e-03, 0., 0., 0., 0., 0.,
          1.40548137e-03, 1.40548137e-03, 2.81096273e-03, 0., 0.,
          7.02740683e-04, 7.02740683e-04, 0., 1.40548137e-03,
          7.02740683e-04, 0., 1.40548137e-03, 0., 0., 0., 7.02740683e-04,
          0., 1.40548137e-03, 7.02740683e-04, 0., 0., 7.02740683e-04,
          2.10822211e-03, 2.10822211e-03, 9.83836967e-03, 2.10822211e-03,
          0., 0., 1.40548137e-03, 7.02740683e-04, 4.21644421e-03,
          7.02740683e-04, 7.02740683e-04, 2.10822211e-03, 0., 0.,
          7.02740683e-04, 7.02740683e-04, 0., 0., 0., 0., 0., 0., 0., 0.,
          0., 0., 7.02740671e-03, 7.02740683e-04, 0., 0., 8.43288843e-03,
          0., 0., 0., 2.10822211e-03, 7.02740683e-04, 7.02740683e-04, 0.,
          0., 7.02740683e-04, 0., 0., 0., 0., 7.02740683e-04, 0.,
          1.40548137e-03, 7.02740683e-04, 0., 1.40548137e-03,
          7.02740683e-04, 0., 0., 0., 1.40548137e-03, 0., 0.,
          2.81096273e-03, 0., 2.81096273e-03, 7.02740683e-04, 0., 0., 0.,
          0., 0., 0., 1.40548137e-03, 7.02740683e-04, 0., 7.02740671e-03,
          1.40548137e-03, 0., 0., 2.10822211e-03, 2.81096273e-03,
          7.02740683e-04, 0., 2.10822211e-03, 3.51370336e-03,
          2.81096273e-03, 2.81096273e-03, 7.02740683e-04, 3.51370336e-03,
          0., 1.40548137e-03, 0., 7.02740683e-04, 7.02740683e-04, 0., 0.,
          4.91918484e-03, 0., 1.40548137e-03, 0., 1.40548137e-03,
          2.10822211e-03, 0., 0., 0., 0., 1.40548137e-03, 2.10822211e-03,
          0., 0., 0., 0., 7.02740683e-04, 7.02740683e-04, 0.,
          2.81096273e-03, 7.02740683e-04, 7.02740683e-04, 7.02740683e-04,
          2.81096273e-03, 2.10822211e-03, 0., 1.40548137e-03, 0., 0.,
          7.02740683e-04, 0., 0., 0., 0., 0., 0., 7.02740683e-04, 0., 0.,
          0., 0., 2.10822211e-03, 7.02740683e-04, 0., 7.02740683e-04,
          7.02740683e-04, 0., 2.10822211e-03, 1.40548137e-03,
          2.10822211e-03, 0., 0., 7.02740683e-04, 0., 0., 0., 0.,
          1.40548137e-03, 2.81096273e-03, 2.81096273e-03, 7.02740683e-04,
          1.40548137e-03, 0., 7.02740683e-04, 0., 0., 1.40548137e-03, 0.,
          0., 0., 1.40548137e-03, 7.02740683e-04, 0., 0., 0., 0.,
          7.02740683e-04, 0., 7.02740683e-04, 7.02740683e-04,
          1.40548137e-03, 0., 7.02740683e-04, 0., 0., 0., 0., 0., 0., 0.,
          1.40548137e-03, 7.02740683e-04, 7.02740683e-04, 0.,
          7.02740683e-04, 0., 0., 7.02740683e-04, 2.81096273e-03,
          7.02740683e-04, 0., 7.02740683e-04, 3.51370336e-03,
          7.02740683e-04, 7.02740683e-04, 2.81096273e-03, 0.,
          7.02740683e-04, 0., 0., 2.81096273e-03, 2.10822211e-03,
          7.02740683e-04, 1.40548137e-03, 0., 7.02740683e-04,
          2.10822211e-03, 0., 0., 2.10822211e-03, 2.10822211e-03, 0.,
          7.02740683e-04, 0., 0., 7.02740683e-04, 0., 0., 1.40548137e-03,
          0., 7.02740683e-04, 0., 7.02740683e-04, 7.02740683e-04, 0., 0.,
          0., 3.51370336e-03, 0., 4.21644421e-03, 7.02740683e-04, 0.,
          7.02740683e-04, 2.81096273e-03, 1.40548137e-03, 0., 0.,
          9.83836967e-03, 7.02740683e-04, 0., 0., 3.51370336e-03, 0.,
          1.40548137e-03, 1.40548137e-03, 0., 7.02740683e-04, 0., 0.,
          1.40548137e-03, 0., 1.40548137e-03, 2.81096273e-03,
          1.40548137e-03, 0., 0., 7.02740683e-04, 4.91918484e-03, 0.,
          7.02740683e-04, 0., 2.81096273e-03, 0., 1.40548137e-03,
          1.40548137e-03, 2.10822211e-03, 0., 1.40548137e-03,
          2.81096273e-03, 0., 0., 7.02740683e-04, 7.02740683e-04,
          7.02740683e-04, 3.51370336e-03, 0., 0., 7.02740683e-04,
          1.40548137e-03, 7.02740683e-04, 0., 2.10822211e-03, 0., 0., 0.,
          0., 7.73014734e-03, 0., 0., 7.02740683e-04, 1.40548137e-03, 0.,
          0., 1.40548137e-03, 1.40548137e-03, 7.02740683e-04, 0.,
          1.40548137e-03, 7.02740683e-04, 0., 1.40548137e-03,
          7.02740683e-04, 7.02740683e-04, 2.81096273e-03, 0., 0.,
          7.02740683e-04, 4.21644421e-03, 0., 1.40548137e-03,
          1.40548137e-03, 7.02740683e-04, 0., 1.40548137e-03,
          7.02740683e-04, 0., 0., 0., 0., 0., 1.40548137e-03,
          2.10822211e-03, 0., 1.40548137e-03, 1.40548137e-03,
          4.21644421e-03, 7.02740683e-04, 7.02740683e-04, 7.02740683e-04,
          7.02740683e-04, 7.02740683e-04, 0., 0., 7.02740683e-04, 0.,
          7.02740683e-04, 1.40548137e-03, 7.02740683e-04, 2.10822211e-03,
          0., 2.81096273e-03, 7.02740683e-04, 7.02740683e-04, 0., 0., 0.,
          0., 0., 0., 7.02740683e-04, 0., 7.02740683e-04, 7.02740683e-04,
          1.40548137e-03, 0., 2.81096273e-03, 0., 7.02740683e-04,
          1.40548137e-03, 0., 0., 0., 2.81096273e-03, 0., 7.02740683e-04,
          2.10822211e-03, 7.02740683e-04, 7.02740683e-04, 7.02740683e-04,
          1.40548137e-03, 7.02740683e-04, 1.40548137e-03, 0., 0.,
          7.02740683e-04, 0., 0., 0., 2.10822211e-03, 2.10822211e-03,
          2.10822211e-03, 7.02740683e-04, 2.81096273e-03, 0.,
          1.40548137e-03, 0., 0., 0., 1.40548137e-03, 1.40548137e-03,
          3.51370336e-03, 2.10822211e-03, 2.81096273e-03, 7.02740683e-04,
          0., 7.02740683e-04, 1.40548137e-03, 0., 0., 0., 0., 0., 0., 0.,
          0., 0., 0., 1.40548137e-03, 0., 0., 2.81096273e-03, 0.,
          7.02740683e-04, 0., 2.81096273e-03, 7.02740683e-04,
          7.02740683e-04, 0., 3.51370336e-03, 0., 2.10822211e-03, 0., 0.,
          0., 0., 0., 0., 7.02740683e-04, 7.02740683e-04, 2.81096273e-03,
          1.40548137e-03, 2.81096273e-03, 0., 0., 0., 2.10822211e-03,
          4.21644421e-03, 1.40548137e-03, 0., 0., 0., 0., 0.,
          2.10822211e-03, 0., 1.40548137e-03, 7.02740683e-04, 0.,
          1.40548137e-03, 2.10822211e-03, 7.02740683e-04, 7.02740683e-04,
          1.40548137e-03, 1.40548137e-03, 0., 0., 4.21644421e-03, 0.,
          1.40548137e-03, 0., 2.81096273e-03, 0., 0., 0., 2.10822211e-03,
          7.02740683e-04, 2.10822211e-03, 0., 2.10822211e-03,
          2.10822211e-03, 0., 7.02740683e-04, 7.02740683e-04, 0., 0.,
          7.02740683e-04, 0., 1.40548137e-03, 2.10822211e-03,
          1.40548137e-03, 7.02740683e-04, 1.40548137e-03, 0., 0., 0.,
          1.40548137e-03, 0., 0., 0., 0., 0., 0., 0., 3.51370336e-03,
          7.02740683e-04, 2.81096273e-03, 4.21644421e-03, 0.,
          2.10822211e-03, 7.02740683e-04, 0., 2.24877018e-02,
          1.26493322e-02, 1.40548137e-03, 0., 0., 1.40548137e-03,
          2.10822211e-03, 1.40548137e-03, 1.40548137e-03, 2.81096273e-03,
          0., 0., 0., 7.02740683e-04, 7.02740683e-04, 1.12438509e-02, 0.,
          7.02740683e-04, 0., 0., 0., 7.02740683e-04, 2.10822211e-03, 0.,
          7.02740683e-04, 4.91918484e-03, 0., 3.51370336e-03, 0., 0., 0.,
          0., 7.02740683e-04, 0., 7.02740683e-04, 0., 7.02740683e-04, 0.,
          0., 0., 0., 2.10822211e-03, 7.02740683e-04, 1.40548137e-03,
          7.02740683e-04, 2.10822211e-03, 7.02740683e-04, 7.02740683e-04,
          0., 0., 0., 0., 1.40548137e-03, 7.02740683e-04, 0.,
          7.02740683e-04, 1.40548137e-03, 2.10822211e-03, 1.40548137e-03,
          0., 0., 2.10822211e-03, 7.02740683e-04, 0., 2.81096273e-03,
          2.81096273e-03, 1.40548137e-03, 1.40548137e-03, 7.02740683e-04,
          0., 1.40548137e-03, 1.40548137e-03, 0., 2.81096273e-03,
          7.02740683e-04, 5.62192546e-03, 0., 7.02740683e-04, 0.,
          7.02740683e-04, 1.40548137e-03, 4.91918484e-03, 0., 0., 0.,
          2.81096273e-03, 7.02740683e-04, 2.10822211e-03, 0.,
          1.89739987e-02, 0., 1.61630362e-02, 7.02740683e-04,
          7.02740683e-04, 4.21644421e-03, 2.81096273e-03, 7.02740683e-04,
          3.51370336e-03, 7.02740683e-04, 1.40548137e-03, 0.,
          1.40548137e-03, 0., 0., 0., 2.81096273e-03, 7.02740683e-04,
          7.02740683e-04, 0., 7.02740683e-04, 7.02740683e-04,
          7.02740683e-04, 2.81096273e-03, 0., 0., 7.02740683e-04,
          1.40548137e-03, 0., 0., 2.10822211e-03, 0., 0., 1.19465915e-02,
          0., 2.10822211e-03, 1.40548137e-03, 0., 0., 0., 1.40548137e-03,
          7.02740683e-04, 0., 0., 0., 0., 0., 2.10822211e-03,
          1.40548137e-03, 0., 1.40548137e-03, 0., 7.02740683e-04,
          3.51370336e-03, 0., 0., 7.02740683e-04, 8.43288843e-03,
          7.02740683e-04, 0., 2.60014050e-02, 7.02740683e-04,
          1.40548137e-03, 0., 1.40548137e-03, 0., 0., 1.40548137e-03,
          7.02740683e-04, 1.40548137e-03, 2.10822211e-03, 0.,
          7.02740683e-04, 7.02740683e-04, 7.02740683e-04, 0., 0., 0.,
          1.40548137e-03, 7.02740683e-04, 2.10822211e-03, 7.02740683e-04,
          0., 0., 0., 0., 0., 7.02740683e-04, 0., 7.02740683e-04, 0., 0.,
          1.40548137e-03, 0., 0., 7.02740683e-04, 1.40548137e-03, 0., 0.,
          0., 0., 1.40548137e-03, 0., 0., 0., 0., 7.02740683e-04,
          7.02740683e-04, 0., 0., 7.02740683e-04, 7.02740683e-04,
          7.02740683e-04, 4.91918484e-03, 0., 0., 0., 1.40548137e-03,
          2.81096273e-03, 0., 1.40548137e-03, 0., 1.40548137e-03, 0.,
          1.40548137e-03, 7.02740683e-04, 0., 1.40548137e-03,
          7.02740683e-04, 1.40548137e-03, 2.81096273e-03, 0.,
          2.10822211e-03, 0., 0., 1.40548137e-03, 0., 7.02740683e-04, 0.,
          0., 0., 0., 0., 0., 7.02740683e-04, 1.40548137e-03,
          2.81096273e-03, 1.40548137e-03, 0., 0., 0., 2.10822211e-03,
          1.40548137e-03, 0., 4.21644421e-03, 7.02740683e-04, 0.,
          1.40548137e-03, 0., 7.02740683e-04, 2.81096273e-03,
          2.10822211e-03, 2.10822211e-03, 0., 1.40548137e-03, 0., 0., 0.,
          0., 0., 3.51370336e-03, 0., 7.02740683e-04, 1.40548137e-03,
          7.02740683e-04, 7.02740683e-04, 0., 0., 7.02740683e-04,
          7.02740683e-04, 0., 1.40548137e-03, 2.10822211e-03, 0.,
          7.02740683e-04, 4.21644421e-03, 2.10822211e-03, 0.,
          2.10822211e-03, 3.51370336e-03, 0., 7.02740683e-04, 0., 0., 0.,
          0., 1.40548137e-03, 0., 0., 0., 2.10822211e-03, 1.40548137e-03,
          0., 2.10822211e-03, 1.40548137e-03, 6.32466609e-03,
          7.02740683e-04, 7.02740683e-04, 0., 0., 0., 2.10822211e-03,
          7.02740683e-04, 0., 7.02740683e-04, 2.10822211e-03, 0.,
          2.81096273e-03, 1.40548137e-03, 7.02740683e-04, 2.81096273e-03,
          0., 0., 0., 0., 0., 2.10822211e-03, 7.02740671e-03,
          2.81096273e-03, 0., 7.02740683e-04, 1.40548137e-03,
          7.02740683e-04, 0., 0., 2.10822211e-03, 1.40548137e-03,
          7.02740683e-04, 7.02740683e-04, 7.02740683e-04, 2.10822211e-03,
          1.40548137e-03, 0., 2.10822211e-03, 7.02740683e-04,
          4.21644421e-03, 0., 0., 2.10822211e-03, 7.02740683e-04,
          7.02740683e-04, 7.02740683e-04, 7.02740683e-04, 0.,
          2.10822211e-03, 0., 7.02740683e-04, 7.02740683e-04, 0.,
          7.02740683e-04, 7.02740683e-04, 1.40548137e-03, 0.,
          7.02740683e-04, 0., 0., 0., 1.40548137e-03, 2.10822211e-03,
          2.81096273e-03, 2.81096273e-03, 0., 1.40548137e-03, 0., 0.,
          2.10822211e-03, 7.02740683e-04, 2.10822211e-03, 1.40548137e-03,
          7.02740683e-04, 0., 2.10822211e-03, 8.43288843e-03,
          2.10822211e-03, 0., 3.51370336e-03, 0., 0., 0., 7.02740683e-04,
          7.02740683e-04, 0., 0., 0., 1.40548137e-03, 0., 0., 0., 0., 0.,
          1.40548137e-03, 0., 0., 0., 0., 0., 0., 7.02740683e-04,
          7.02740683e-04, 0., 7.02740683e-04, 7.02740683e-04,
          7.02740683e-04, 0., 1.40548137e-03, 0., 7.02740683e-04,
          1.40548137e-03, 0., 7.02740683e-04, 0., 0., 7.02740683e-04,
          1.40548137e-03, 0., 2.10822211e-03, 1.40548137e-03,
          7.02740683e-04, 3.51370336e-03, 2.10822211e-03, 7.02740683e-04,
          7.02740683e-04, 7.02740683e-04, 1.40548137e-03, 0., 0., 0.,
          2.81096273e-03, 0., 9.83836967e-03, 0., 0., 0., 0., 0.,
          7.02740683e-04, 0., 7.02740683e-04, 7.02740683e-04,
          2.66611576e-04, 5.16559929e-04, 2.40950217e-03, 2.16238648e-01,
          2.47052282e-01, 2.67411396e-02, 3.92252253e-03, 1.68965082e-03,
          7.69840903e-04, 1.79962808e-04, 8.66487608e-05, 5.66549570e-05,
          3.33264470e-05, 6.66528922e-06, 1.33305784e-05, 3.33264461e-06,
          1.33305784e-05, 0., 0., 0., 0., 0., 0., 0., 0., 0., 0., 0., 0.,
          0., 0., 0., 0., 0., 0., 0., 0., 0., 0., 0., 0., 0., 0., 0., 0.,
          0., 0., 0., 0., 0., 0., 0., 0., 2.33285118e-05, 6.66528940e-05,
          6.66528940e-05, 9.33140473e-05, 1.39971075e-04, 1.46636361e-04,
          1.69964871e-04, 2.63278926e-04, 3.66590917e-04, 2.83274800e-04,
          2.93272722e-04, 2.86607450e-04, 3.56592966e-04, 2.56613625e-04,
          2.63278926e-04, 3.13268596e-04, 2.86607450e-04, 1.99958682e-04,
          2.76609499e-04, 3.26599169e-04, 2.69944227e-04, 2.53281003e-04,
          2.33285129e-04, 3.49927694e-04, 2.79942149e-04, 2.33285129e-04,
          2.96605373e-04, 4.29911161e-04, 3.13268596e-04, 3.19933868e-04,
          4.53239656e-04, 3.79921490e-04, 4.89898783e-04, 5.39888453e-04,
          7.33181834e-04, 7.26516533e-04, 6.99855387e-04, 1.00312603e-03,
          1.40637602e-03, 1.42970448e-03, 1.65965699e-03, 2.23620445e-03,
          4.19579959e-03, 4.38576052e-03, 6.01875596e-03, 1.05844792e-02,
          1.08444253e-02, 1.44203529e-02, 1.81095917e-02, 2.88673677e-02,
          2.84507871e-02, 3.22166756e-02, 3.63291577e-02, 4.90631945e-02,
          3.97717804e-02, 4.06516008e-02, 1.56874254e-01 ]
      - [ 0., 7.22543336e-04, 7.22543336e-04, 0., 0., 1.44508667e-03,
          3.61271668e-03, 0., 2.16763001e-03, 0., 0., 0., 7.22543336e-04,
          0., 0., 1.44508667e-03, 0., 0., 0., 3.61271668e-03, 0., 0., 0.,
          0., 0., 0., 0., 5.78034669e-03, 0., 0., 1.44508667e-03, 0., 0.,
          1.44508667e-03, 7.22543336e-04, 0., 0., 0., 7.22543336e-04, 0.,
          0., 0., 0., 0., 0., 1.44508667e-03, 0., 2.16763001e-03, 0.,
          6.50289003e-03, 0., 0., 2.89017335e-03, 0., 0., 1.44508667e-03,
          2.23988444e-02, 0., 0., 0., 0., 0., 9.39306337e-03, 0.,
          7.22543336e-04, 0., 0., 3.61271668e-03, 0., 0., 6.50289003e-03,
          0., 3.61271668e-03, 0., 2.16763001e-03, 0., 1.44508667e-03, 0.,
          0., 0., 0., 4.33526002e-03, 0., 0., 3.61271668e-03,
          7.22543336e-04, 0., 7.22543336e-04, 0., 0., 6.50289003e-03, 0.,
          0., 0., 2.89017335e-03, 0., 0., 0., 0., 2.16763001e-03,
          7.22543336e-04, 7.22543336e-04, 1.37283234e-02, 0.,
          2.16763001e-03, 1.44508667e-03, 7.22543336e-04, 7.22543336e-04,
          0., 0., 2.89017335e-03, 7.22543336e-04, 0., 1.08381500e-02,
          2.16763001e-03, 7.22543336e-04, 0., 0., 2.16763001e-03,
          2.16763001e-03, 0., 0., 7.22543336e-04, 0., 0., 0., 0., 0.,
          3.61271668e-03, 0., 0., 0., 0., 0., 2.16763001e-03,
          7.22543336e-04, 0., 0., 2.16763001e-03, 2.16763001e-03,
          7.22543336e-04, 7.22543336e-03, 3.61271668e-03, 1.44508667e-03,
          0., 0., 0., 0., 7.22543336e-04, 0., 0., 0., 0., 2.89017335e-03,
          0., 5.05780336e-03, 0., 7.22543336e-04, 0., 2.89017335e-03, 0.,
          0., 7.22543336e-04, 0., 0., 0., 0., 0., 7.22543336e-04, 0.,
          1.44508667e-03, 2.16763001e-03, 0., 7.22543336e-04,
          1.44508667e-03, 0., 0., 0., 0., 0., 0., 0., 7.22543336e-04,
          7.22543336e-04, 0., 0., 0., 0., 2.16763001e-03, 3.61271668e-03,
          0., 7.22543336e-04, 0., 3.61271668e-03, 0., 0., 0., 0., 0., 0.,
          7.94797670e-03, 0., 0., 7.22543336e-04, 1.44508667e-03,
          5.05780336e-03, 7.22543336e-04, 0., 1.44508667e-03,
          7.22543336e-04, 0., 1.44508667e-03, 0., 1.44508667e-03,
          4.33526002e-03, 0., 0., 0., 0., 0., 0., 7.22543336e-04, 0.,
          7.22543336e-04, 0., 0., 0., 1.44508667e-03, 0., 7.22543336e-04,
          0., 7.22543336e-04, 0., 0., 0., 7.94797670e-03, 0., 0., 0.,
          2.89017335e-03, 0., 0., 4.33526002e-03, 7.22543336e-04,
          5.78034669e-03, 0., 7.22543336e-04, 2.52890177e-02, 0., 0., 0.,
          0., 0., 0., 2.89017335e-03, 0., 0., 0., 0., 0., 2.89017335e-03,
          0., 0., 0., 1.44508667e-03, 0., 0., 0., 6.50289003e-03, 0.,
          7.22543336e-04, 0., 1.44508667e-03, 0., 0., 2.89017335e-03, 0.,
          0., 7.22543336e-04, 7.22543336e-04, 0., 0., 1.44508667e-03, 0.,
          0., 0., 7.22543336e-04, 0., 1.44508667e-03, 7.22543336e-04,
          2.16763001e-03, 7.22543336e-04, 0., 7.22543336e-04, 0., 0.,
          7.22543336e-04, 0., 1.08381500e-02, 0., 0., 0., 0.,
          2.89017335e-03, 0., 0., 0., 2.16763001e-03, 0., 7.22543336e-04,
          0., 0., 6.50289003e-03, 0., 2.89017335e-03, 7.22543336e-04, 0.,
          7.22543336e-04, 2.38439292e-02, 0., 7.22543336e-04, 0., 0., 0.,
          0., 7.22543336e-04, 0., 2.16763001e-03, 5.05780336e-03,
          1.44508667e-03, 2.16763001e-03, 0., 0., 0., 0., 0., 0., 0.,
          7.22543336e-04, 0., 3.61271668e-03, 0., 0., 7.22543336e-04, 0.,
          7.22543336e-04, 0., 1.44508667e-03, 2.16763001e-03,
          7.22543336e-04, 0., 1.44508667e-03, 0., 7.22543336e-04,
          7.22543336e-04, 0., 7.22543336e-04, 0., 0., 7.22543336e-04, 0.,
          0., 7.22543336e-04, 0., 0., 0., 0., 7.22543336e-04,
          2.89017335e-03, 7.22543336e-04, 3.61271668e-03, 7.22543336e-04,
          4.33526002e-03, 0., 0., 0., 0., 7.22543336e-04, 7.22543336e-04,
          0., 0., 2.16763001e-03, 0., 0., 2.89017335e-03, 0.,
          5.05780336e-03, 1.44508667e-03, 0., 2.16763001e-03,
          5.78034669e-03, 0., 0., 7.22543336e-04, 1.44508667e-03, 0., 0.,
          0., 0., 0., 2.89017335e-03, 2.16763001e-03, 0., 0.,
          1.44508667e-03, 7.22543336e-04, 0., 0., 0., 0., 0., 0., 0.,
          3.61271668e-03, 7.22543336e-04, 0., 2.16763001e-03, 0.,
          2.89017335e-03, 0., 0., 0., 0., 0., 1.44508667e-03, 0., 0., 0.,
          0., 0., 1.44508667e-03, 7.22543336e-04, 1.44508667e-03, 0., 0.,
          0., 0., 0., 0., 0., 0., 0., 7.22543336e-04, 0., 1.44508667e-03,
          7.22543336e-04, 7.94797670e-03, 7.22543336e-04, 0., 0., 0., 0.,
          4.33526002e-03, 0., 0., 0., 0., 7.22543336e-04, 2.89017335e-03,
          7.22543336e-04, 0., 0., 1.44508667e-03, 7.22543336e-04, 0., 0.,
          0., 7.22543336e-03, 0., 0., 0., 7.22543336e-04, 0.,
          2.16763001e-03, 0., 1.44508667e-03, 7.22543336e-04,
          7.22543336e-04, 0., 1.44508667e-03, 0., 0., 0., 0.,
          9.39306337e-03, 0., 0., 0., 1.44508667e-03, 7.22543336e-04,
          7.22543336e-04, 0., 0., 0., 7.22543336e-04, 0., 3.61271668e-03,
          0., 0., 7.22543336e-04, 1.08381500e-02, 7.22543336e-04, 0.,
          5.05780336e-03, 7.22543336e-04, 0., 0., 6.50289003e-03, 0., 0.,
          0., 0., 0., 0., 0., 7.22543336e-04, 0., 7.22543336e-04,
          1.44508667e-03, 0., 7.22543336e-04, 0., 0., 0., 0., 0., 0.,
          1.44508667e-03, 0., 2.16763001e-03, 0., 0., 0., 7.22543336e-04,
          0., 0., 0., 0., 1.44508667e-03, 0., 1.44508667e-03,
          7.22543336e-04, 7.22543336e-04, 2.89017335e-03, 7.22543336e-04,
          0., 0., 0., 7.22543336e-04, 0., 0., 0., 0., 2.89017335e-03, 0.,
          5.05780336e-03, 1.08381500e-02, 0., 0., 4.33526002e-03,
          7.22543336e-04, 0., 2.89017335e-03, 6.50289003e-03,
          7.22543336e-04, 0., 0., 0., 7.22543336e-04, 2.45664734e-02, 0.,
          0., 0., 2.16763001e-03, 1.08381500e-02, 7.22543336e-04, 0.,
          3.61271668e-03, 0., 0., 1.44508667e-03, 0., 0., 0.,
          7.22543336e-03, 0., 0., 5.05780336e-03, 0., 0., 7.22543336e-04,
          0., 0., 0., 0., 0., 0., 0., 0., 0., 0., 0., 0., 2.16763001e-03,
          0., 0., 0., 1.44508667e-03, 0., 0., 0., 0., 0., 0., 0., 0.,
          2.89017335e-03, 0., 7.22543336e-04, 0., 1.44508667e-03,
          7.22543336e-04, 7.22543336e-04, 0., 0., 0., 7.22543336e-04,
          7.22543336e-04, 2.16763001e-03, 7.22543336e-04, 2.89017335e-03,
          0., 0., 0., 0., 0., 0., 2.89017335e-03, 0., 0., 0.,
          1.44508667e-03, 0., 0., 0., 1.44508667e-03, 0., 3.61271668e-03,
          0., 7.22543336e-04, 0., 7.22543336e-03, 0., 1.58959534e-02, 0.,
          7.22543336e-04, 0., 7.22543336e-04, 1.44508667e-03,
          7.94797670e-03, 1.44508667e-03, 7.22543336e-04, 0., 0., 0., 0.,
          0., 0., 0., 0., 0., 0., 1.44508667e-03, 0., 5.78034669e-03,
          1.44508667e-03, 7.22543336e-04, 2.16763001e-03, 0.,
          4.33526002e-03, 7.22543336e-04, 0., 0., 0., 2.16763001e-03, 0.,
          7.22543336e-04, 7.22543336e-04, 0., 0., 0., 0., 1.30057801e-02,
          0., 0., 0., 0., 1.44508667e-03, 0., 0., 0., 0., 2.16763001e-03,
          2.16763001e-03, 0., 0., 0., 0., 7.22543336e-04, 7.22543336e-04,
          7.22543336e-04, 4.33526002e-03, 0., 0., 2.16763001e-03, 0., 0.,
          0., 7.22543336e-04, 0., 0., 7.22543336e-03, 0., 0.,
          2.89017335e-03, 0., 7.22543336e-04, 2.16763001e-03, 0.,
          7.22543336e-04, 2.89017335e-03, 3.61271668e-03, 0., 0., 0.,
          7.22543336e-04, 0., 0., 0., 0., 0., 0., 0., 7.22543336e-04, 0.,
          0., 7.22543336e-04, 1.37283234e-02, 2.89017335e-03, 0., 0.,
          1.44508667e-03, 7.22543336e-04, 0., 0., 0., 0., 0., 0., 0.,
          7.22543336e-04, 0., 0., 7.22543336e-04, 0., 1.44508667e-03, 0.,
          0., 0., 7.22543336e-04, 0., 0., 0., 0., 0., 2.89017335e-03,
          7.22543336e-03, 1.44508667e-03, 0., 0., 4.33526002e-03, 0.,
          1.44508667e-03, 0., 7.22543336e-04, 7.22543336e-04, 0., 0., 0.,
          0., 0., 7.22543336e-04, 7.22543336e-04, 0., 0., 0.,
          5.78034669e-03, 7.22543336e-04, 0., 0., 0., 0., 0., 0.,
          7.22543336e-04, 0., 0., 0., 0., 0., 0., 0., 1.44508667e-03, 0.,
          0., 3.61271668e-03, 6.50289003e-03, 7.22543336e-04, 0.,
          7.22543336e-04, 0., 0., 7.22543336e-04, 0., 0., 7.22543336e-04,
          0., 7.22543336e-04, 0., 0., 0., 0., 1.44508667e-03, 0., 0., 0.,
          0., 7.22543336e-04, 0., 0., 5.78034669e-03, 7.22543336e-04, 0.,
          0., 0., 0., 0., 0., 0., 7.22543336e-04, 7.22543336e-04, 0.,
          1.44508667e-03, 1.44508667e-03, 0., 7.22543336e-04,
          1.73410401e-02, 0., 1.44508667e-03, 0., 0., 0., 0., 0., 0., 0.,
          0., 0., 0., 7.22543336e-04, 0., 2.89017335e-03, 0., 0.,
          6.50289003e-03, 1.44508667e-03, 0., 0., 1.01156067e-02,
          7.22543336e-04, 0., 0., 7.22543336e-04, 7.22543336e-04,
          2.16763001e-03, 0., 0., 0., 0., 0., 0., 0., 7.22543336e-04, 0.,
          1.44508667e-03, 7.22543336e-04, 4.33526002e-03, 0.,
          2.89017335e-03, 0., 7.22543336e-04, 0., 7.22543336e-04, 0.,
          1.44508667e-03, 6.50289003e-03, 0., 0., 2.16763001e-03, 0., 0.,
          0., 7.22543336e-04, 0., 0., 9.39306337e-03, 0., 0., 0.,
          7.22543336e-04, 0., 0., 2.16763001e-03, 0., 0., 0.,
          7.22543336e-04, 7.22543336e-04, 7.22543336e-04, 0.,
          2.16763001e-03, 0., 1.44508667e-03, 5.78034669e-03, 0., 0.,
          2.16763001e-03, 0., 7.22543336e-04, 0., 5.05780336e-03, 0., 0.,
          0., 0., 4.33526002e-03, 1.44508667e-03, 7.22543336e-04, 0., 0.,
          0., 0., 0., 0., 7.22543336e-04, 0., 2.89017335e-03, 0., 0.,
          2.89017335e-03, 0., 0., 0., 8.67052004e-03, 0., 0., 0.,
          1.44508667e-03, 0., 0., 0., 8.67052004e-03, 0., 0.,
          2.16763001e-03, 7.22543336e-04, 2.16763001e-03, 0., 0.,
          2.89017335e-03, 0., 0., 7.22543336e-04, 0., 0., 0.,
          2.89017335e-03, 0., 1.44508667e-03, 0., 7.22543336e-04, 0., 0.,
          7.22543336e-04, 0., 0., 0., 7.22543336e-04, 4.33526002e-03,
          7.22543336e-04, 1.49028283e-03, 1.66223850e-03, 9.38675832e-03,
          2.46746331e-01, 1.51735738e-01, 2.71521434e-02, 1.17739085e-02,
          5.56327309e-03, 4.91928216e-03, 9.13725421e-03, 2.51527363e-03,
          3.23344162e-03, 2.40737991e-03, 1.91174285e-03, 4.97660041e-03,
          7.35026365e-03, 1.69595529e-03, 3.57398152e-04, 1.44645094e-03,
          6.06902526e-04, 7.82229879e-04, 2.49504374e-04, 6.23760920e-04,
          7.75486522e-04, 2.86592840e-04, 2.89964519e-04, 2.22530914e-04,
          2.69734446e-05, 1.18008822e-04, 2.36017640e-05, 9.77787349e-05,
          6.40619328e-05, 0., 6.74336115e-05, 3.03451252e-05,
          1.68584029e-05, 3.03451252e-05, 0., 3.37168058e-05, 0.,
          1.34867223e-05, 6.74336115e-06, 0., 2.36017640e-05, 0.,
          5.05752105e-05, 1.68584029e-05, 3.03451252e-05, 3.03451252e-05,
          2.02300835e-05, 1.54422969e-03, 1.68246869e-02, 8.35165288e-03,
          1.07017141e-02, 3.68524692e-03, 3.06485756e-03, 2.28937110e-03,
          2.27588438e-03, 1.70607038e-03, 1.47342437e-03, 1.42959261e-03,
          1.57794647e-03, 1.19694660e-03, 1.15985807e-03, 1.05196435e-03,
          1.31158379e-03, 1.00813247e-03, 8.80008622e-04, 1.25763682e-03,
          1.03847764e-03, 9.54185612e-04, 1.11602631e-03, 1.31158379e-03,
          1.03173428e-03, 1.06545107e-03, 1.07219443e-03, 1.36553065e-03,
          1.27449527e-03, 1.19694660e-03, 1.26775191e-03, 1.71281374e-03,
          1.42622087e-03, 1.52062799e-03, 2.16799066e-03, 1.78361905e-03,
          1.83082256e-03, 1.99266314e-03, 3.21995490e-03, 2.87604355e-03,
          3.05811432e-03, 3.91114969e-03, 5.42840594e-03, 5.62396320e-03,
          6.87485654e-03, 9.22154635e-03, 1.37665719e-02, 1.41610587e-02,
          1.74248461e-02, 2.62316745e-02, 2.32477374e-02, 2.47683655e-02,
          2.62788776e-02, 3.19871344e-02, 2.51392499e-02, 2.41007730e-02,
          2.04964466e-02, 2.40738001e-02, 1.64301991e-02, 1.56918019e-02,
          6.80674911e-02 ]
      - [ 0., 0., 0., 5.21920680e-04, 1.56576210e-03, 5.21920680e-04,
          1.56576210e-03, 1.56576210e-03, 1.04384136e-03, 2.08768272e-03,
          1.04384136e-03, 0., 0., 0., 0., 0., 7.30688963e-03,
          1.04384136e-03, 5.21920680e-04, 1.56576210e-03, 2.08768272e-03,
          5.21920680e-04, 1.04384136e-03, 2.60960334e-03, 0., 0., 0.,
          5.21920680e-04, 1.04384136e-03, 0., 1.04384136e-03, 0., 0., 0.,
          0., 2.08768272e-03, 0., 0., 1.04384136e-03, 5.21920680e-04, 0.,
          1.04384136e-03, 5.21920680e-04, 1.04384136e-03, 1.04384136e-03,
          3.13152419e-03, 2.08768272e-03, 5.21920680e-04, 5.21920680e-04,
          5.21920680e-04, 0., 0., 1.04384136e-03, 1.04384136e-03,
          2.60960334e-03, 5.21920680e-04, 3.13152419e-03, 0., 0., 0.,
          3.13152419e-03, 2.08768272e-03, 1.09603340e-02, 5.21920680e-04,
          1.56576210e-03, 0., 5.21920680e-04, 5.21920680e-04,
          1.56576210e-03, 2.60960334e-03, 0., 1.56576210e-03, 0.,
          2.08768272e-03, 5.21920680e-04, 2.60960334e-03, 1.04384136e-03,
          3.13152419e-03, 0., 0., 0., 5.21920680e-04, 1.04384136e-03, 0.,
          0., 3.65344482e-03, 1.56576210e-03, 2.08768272e-03, 0.,
          5.21920680e-04, 3.13152419e-03, 0., 5.21920680e-04,
          5.21920680e-04, 5.21920680e-04, 1.04384136e-03, 0.,
          5.21920680e-04, 0., 5.21920680e-04, 0., 8.35073087e-03,
          5.21920680e-04, 0., 1.04384136e-03, 1.56576210e-03,
          1.04384136e-03, 0., 1.04384136e-03, 0., 5.21920680e-04,
          3.13152419e-03, 0., 0., 3.13152419e-03, 0., 0., 2.60960334e-03,
          2.08768272e-03, 1.04384136e-03, 5.21920680e-04, 2.08768272e-03,
          5.21920680e-04, 0., 0., 2.60960334e-03, 0., 1.04384136e-03,
          2.08768272e-03, 0., 0., 2.60960334e-03, 1.04384136e-03,
          5.21920680e-04, 4.69728606e-03, 3.13152419e-03, 2.08768272e-03,
          0., 0., 1.04384136e-03, 0., 5.21920680e-04, 1.56576210e-03,
          5.21920680e-04, 0., 0., 0., 0., 0., 0., 0., 7.82881025e-03, 0.,
          4.17536544e-03, 0., 5.21920680e-04, 5.21920680e-04,
          1.56576210e-03, 5.74112730e-03, 3.13152419e-03, 0.,
          1.04384136e-03, 0., 0., 1.04384136e-03, 5.21920680e-04, 0., 0.,
          2.08768272e-03, 1.04384136e-03, 0., 1.56576210e-03, 0.,
          1.56576210e-03, 1.04384136e-03, 1.04384136e-03, 1.56576210e-03,
          0., 0., 0., 1.04384136e-03, 0., 1.04384136e-03, 0.,
          5.21920680e-04, 5.21920680e-04, 2.08768272e-03, 0., 0., 0., 0.,
          1.56576210e-03, 0., 3.65344482e-03, 0., 0., 5.21920680e-04,
          5.21920680e-04, 1.56576210e-03, 1.04384136e-03, 5.21920680e-04,
          0., 3.13152419e-03, 5.21920680e-04, 1.56576210e-03, 0.,
          1.56576210e-03, 1.04384136e-03, 1.56576210e-03, 0.,
          5.21920680e-04, 2.60960334e-03, 2.60960334e-03, 5.21920680e-04,
          1.04384136e-03, 1.04384136e-03, 2.08768272e-03, 0., 0.,
          5.21920680e-04, 0., 0., 1.56576210e-03, 1.56576210e-03,
          1.04384136e-03, 0., 5.21920680e-04, 2.60960334e-03,
          1.04384136e-03, 5.74112730e-03, 0., 5.21920680e-04, 0.,
          5.21920680e-04, 0., 1.40918586e-02, 0., 0., 2.08768272e-03, 0.,
          2.08768272e-03, 0., 0., 5.21920680e-04, 5.21920680e-04, 0., 0.,
          0., 5.21920680e-04, 5.21920680e-04, 5.21920680e-04, 0.,
          1.56576210e-03, 5.21920680e-04, 4.69728606e-03, 1.04384136e-03,
          5.21920680e-04, 0., 0., 5.21920680e-04, 3.65344482e-03,
          5.21920680e-04, 5.21920680e-04, 0., 4.69728606e-03,
          1.04384136e-03, 0., 1.04384136e-03, 0., 0., 0., 1.04384136e-03,
          3.13152419e-03, 1.04384136e-03, 0., 1.56576210e-03, 0.,
          5.21920680e-04, 0., 0., 1.04384136e-03, 0., 0., 0.,
          2.08768272e-03, 5.21920680e-04, 1.56576210e-03, 0.,
          5.21920680e-04, 1.56576210e-03, 2.60960334e-03, 5.21920680e-04,
