%YAML:1.0
my_svm: !!opencv-ml-svm
   svm_type: C_SVC
   kernel: { type:RBF, gamma:2. }
   C: 128.
   term_criteria: { epsilon:1.1920928955078125e-07, iterations:1000 }
   var_all: 1090
   var_count: 1090
   class_count: 2
   class_labels: !!opencv-matrix
      rows: 1
      cols: 2
      dt: i
      data: [ 0, 1 ]
   sv_total: 30
   support_vectors:
      - [ 0., 6.95410278e-03, 0., 0., 0., 8.34492408e-03, 0.,
          2.78164120e-03, 0., 0., 1.39082060e-03, 0., 0., 0., 0., 0., 0.,
          0., 0., 0., 0., 0., 2.78164120e-03, 0., 5.56328241e-03, 0., 0.,
          0., 0., 0., 0., 0., 0., 0., 0., 0., 1.66898482e-02,
          2.78164120e-03, 0., 9.73574445e-03, 1.39082060e-03,
          1.39082060e-03, 0., 6.95410278e-03, 0., 0., 1.39082060e-03,
          1.39082060e-03, 0., 0., 0., 0., 1.39082060e-03, 0., 0.,
          2.78164120e-03, 0., 0., 0., 0., 0., 0., 0., 0., 0., 0., 0.,
          1.39082060e-03, 4.17246204e-03, 0., 0., 0., 0., 0., 0., 0., 0.,
          0., 0., 0., 2.78164120e-03, 4.17246204e-03, 0., 4.17246204e-03,
          0., 4.17246204e-03, 4.17246204e-03, 0., 0., 2.78164120e-03, 0.,
          4.17246204e-03, 0., 0., 0., 0., 4.17246204e-03, 0., 0., 0., 0.,
          0., 0., 1.39082060e-03, 0., 0., 1.39082060e-03, 1.39082060e-03,
          0., 2.78164120e-03, 0., 0., 1.39082060e-03, 0., 0., 0., 0., 0.,
          0., 0., 0., 0., 2.78164120e-03, 0., 0., 2.78164120e-03,
          5.56328241e-03, 0., 0., 0., 2.78164120e-03, 0., 0., 0., 0., 0.,
          0., 6.95410278e-03, 2.78164120e-03, 0., 1.39082060e-03, 0., 0.,
          0., 0., 0., 0., 2.78164120e-03, 0., 0., 0., 0., 0., 0., 0., 0.,
          2.78164120e-03, 0., 0., 0., 0., 1.39082060e-03, 6.95410278e-03,
          1.39082060e-03, 0., 0., 0., 0., 0., 1.39082060e-03, 0., 0., 0.,
          0., 0., 0., 0., 0., 0., 0., 0., 0., 1.39082060e-03,
          1.39082060e-03, 0., 2.78164120e-03, 0., 0., 0., 0.,
          2.78164120e-03, 1.39082060e-03, 0., 1.39082060e-03, 0., 0.,
          1.39082060e-03, 1.39082060e-03, 0., 0., 2.78164120e-03, 0., 0.,
          0., 0., 0., 0., 0., 0., 1.39082060e-03, 1.39082060e-03, 0., 0.,
          0., 0., 0., 6.95410278e-03, 0., 0., 0., 0., 1.39082060e-03, 0.,
          0., 0., 0., 1.39082060e-03, 2.78164120e-03, 1.39082060e-03, 0.,
          1.39082060e-03, 0., 0., 0., 0., 0., 1.39082060e-03, 0., 0., 0.,
          0., 0., 1.39082060e-03, 0., 2.78164120e-03, 1.39082060e-03,
          4.17246204e-03, 0., 1.39082060e-03, 2.78164120e-03, 0., 0.,
          1.39082060e-03, 2.78164120e-03, 0., 2.78164120e-03,
          1.39082060e-03, 1.39082060e-03, 2.78164120e-03, 0., 0., 0., 0.,
          0., 0., 0., 0., 1.39082060e-03, 0., 0., 1.39082060e-03, 0., 0.,
          0., 1.39082060e-03, 2.78164120e-03, 0., 0., 0., 2.78164120e-03,
          0., 1.39082060e-03, 0., 0., 0., 1.11265648e-02, 1.39082060e-03,
          2.78164120e-03, 1.39082060e-03, 0., 1.39082060e-03,
          2.78164120e-03, 1.39082060e-03, 0., 0., 0., 2.78164120e-03,
          1.39082060e-03, 0., 0., 0., 0., 1.39082060e-03, 0.,
          4.17246204e-03, 1.39082060e-03, 1.39082060e-03, 0.,
          1.39082060e-03, 1.39082060e-03, 1.39082060e-03, 0., 0.,
          1.39082060e-03, 0., 0., 4.17246204e-03, 1.39082060e-03, 0., 0.,
          1.39082060e-03, 0., 2.78164120e-03, 1.39082060e-03, 0., 0., 0.,
          0., 2.78164120e-03, 0., 0., 0., 0., 1.39082060e-03, 0., 0.,
          1.39082060e-03, 0., 0., 2.78164120e-03, 1.39082060e-03, 0.,
          1.39082060e-03, 0., 0., 0., 0., 2.78164120e-03, 1.39082060e-03,
          0., 0., 0., 0., 0., 0., 0., 8.34492408e-03, 4.17246204e-03,
          1.39082060e-03, 1.39082060e-03, 0., 0., 4.17246204e-03, 0., 0.,
          1.39082060e-03, 0., 4.17246204e-03, 0., 0., 0., 0., 0., 0.,
          1.39082060e-03, 2.78164120e-03, 0., 2.78164120e-03,
          1.39082060e-03, 0., 0., 0., 0., 0., 0., 0., 0., 0., 0., 0.,
          2.78164120e-03, 8.34492408e-03, 0., 0., 0., 0., 0.,
          1.39082060e-03, 0., 0., 0., 4.17246204e-03, 0., 2.78164120e-03,
          0., 8.34492408e-03, 9.73574445e-03, 1.39082060e-03,
          1.39082060e-03, 0., 1.11265648e-02, 0., 4.17246204e-03, 0.,
          4.17246204e-03, 1.39082060e-03, 0., 0., 4.17246204e-03,
          5.56328241e-03, 0., 0., 0., 1.39082060e-03, 0., 0., 0., 0., 0.,
          1.39082060e-03, 0., 0., 0., 0., 0., 0., 1.66898482e-02, 0., 0.,
          0., 0., 2.78164120e-03, 4.17246204e-03, 1.39082060e-03, 0.,
          2.78164120e-03, 1.39082060e-03, 0., 0., 0., 0., 1.39082060e-03,
          2.78164120e-03, 1.39082060e-03, 1.39082060e-03, 0., 0., 0.,
          1.39082060e-03, 0., 1.39082060e-03, 0., 0., 1.39082060e-03, 0.,
          1.39082060e-03, 1.39082060e-03, 0., 0., 0., 1.39082060e-03,
          5.56328241e-03, 0., 0., 0., 1.39082060e-03, 0., 0.,
          1.39082060e-03, 0., 1.39082060e-03, 1.39082060e-03, 0.,
          2.78164120e-03, 0., 0., 0., 0., 0., 4.17246204e-03, 0.,
          1.39082060e-03, 1.39082060e-03, 0., 1.39082060e-03, 0., 0., 0.,
          1.39082060e-03, 1.39082060e-03, 0., 1.39082060e-03, 0., 0.,
          1.39082060e-03, 0., 1.25173852e-02, 0., 1.39082060e-03,
          1.39082060e-03, 0., 0., 0., 1.39082060e-03, 1.39082060e-03, 0.,
          1.39082060e-03, 0., 0., 0., 0., 0., 1.39082060e-03,
          4.17246204e-03, 0., 0., 0., 0., 0., 0., 0., 1.39082060e-03,
          1.39082060e-03, 0., 0., 0., 0., 1.39082060e-03, 0.,
          1.39082060e-03, 0., 0., 2.78164120e-03, 1.39082060e-03,
          4.17246204e-03, 0., 2.78164120e-03, 3.19888741e-02, 0.,
          1.39082060e-03, 4.17246204e-03, 0., 0., 0., 0., 0.,
          1.39082060e-03, 0., 0., 0., 0., 0., 1.39082060e-03, 0., 0.,
          4.17246204e-03, 0., 0., 0., 0., 0., 0., 1.39082060e-03,
          1.39082060e-03, 0., 1.39082060e-03, 1.39082060e-03, 0.,
          4.17246204e-03, 0., 0., 1.39082060e-03, 1.39082060e-03, 0., 0.,
          0., 1.39082060e-03, 1.39082060e-03, 0., 0., 0., 0., 0., 0., 0.,
          0., 0., 1.39082060e-03, 4.17246204e-03, 0., 0., 0., 0., 0.,
          4.17246204e-03, 2.78164120e-03, 2.78164120e-03, 8.34492408e-03,
          1.39082060e-03, 0., 0., 0., 0., 0., 0., 4.17246204e-03, 0.,
          1.39082060e-03, 0., 0., 0., 0., 0., 0., 0., 2.78164120e-03, 0.,
          0., 2.78164120e-03, 1.39082060e-03, 0., 5.56328241e-03, 0.,
          1.39082060e-03, 0., 1.39082060e-03, 0., 0., 5.56328241e-03, 0.,
          0., 0., 4.17246204e-03, 0., 0., 0., 0., 0., 0., 0.,
          3.33796963e-02, 0., 5.56328241e-03, 0., 8.34492408e-03,
          2.78164120e-03, 0., 1.39082060e-03, 1.39082060e-03, 0., 0.,
          1.39082060e-03, 0., 6.95410278e-03, 0., 1.39082060e-03, 0.,
          1.39082060e-03, 0., 2.78164120e-03, 0., 0., 0., 1.39082060e-03,
          0., 1.39082060e-03, 0., 0., 0., 0., 0., 0., 0., 0.,
          1.39082060e-03, 0., 1.39082060e-03, 0., 0., 0., 0.,
          2.78164120e-03, 0., 0., 0., 0., 0., 0., 0., 0., 0., 0., 0.,
          5.56328241e-03, 0., 1.39082060e-03, 0., 0., 0., 0.,
          1.39082060e-03, 0., 0., 5.56328241e-03, 0., 0., 0., 0.,
          1.39082060e-03, 0., 1.39082060e-03, 2.78164120e-03, 0., 0., 0.,
          1.39082060e-03, 0., 9.73574445e-03, 0., 1.39082060e-03, 0., 0.,
          0., 0., 1.39082060e-03, 0., 0., 0., 0., 0., 1.39082060e-03, 0.,
          0., 2.78164120e-03, 0., 0., 0., 0., 1.39082060e-03,
          2.78164120e-03, 0., 1.39082060e-03, 0., 6.95410278e-03,
          5.56328222e-02, 2.78164120e-03, 0., 0., 0., 0., 0.,
          1.39082060e-03, 0., 2.78164120e-03, 1.39082060e-03,
          1.39082060e-03, 1.39082060e-03, 0., 0., 4.17246204e-03, 0., 0.,
          1.39082060e-03, 0., 2.78164120e-03, 0., 0., 0., 0., 0.,
          1.39082060e-03, 1.39082060e-03, 2.78164120e-03, 1.39082060e-03,
          4.17246204e-03, 1.39082060e-03, 0., 0., 0., 5.56328241e-03, 0.,
          0., 1.39082060e-03, 0., 0., 0., 0., 0., 0., 0., 0.,
          1.39082060e-03, 0., 0., 0., 0., 0., 1.39082060e-03,
          1.39082060e-03, 0., 2.78164120e-03, 0., 0., 0., 0., 0.,
          2.78164120e-03, 0., 4.17246204e-03, 4.17246204e-03,
          4.17246204e-03, 0., 5.56328241e-03, 0., 0., 0., 6.95410278e-03,
          0., 0., 1.39082060e-03, 2.78164120e-03, 1.39082060e-03,
          2.78164120e-03, 0., 0., 0., 1.39082060e-03, 0., 0.,
          1.39082060e-03, 1.39082060e-03, 1.39082060e-03, 0., 0.,
          5.56328241e-03, 1.39082060e-03, 2.78164120e-03, 0., 0., 0., 0.,
          1.39082060e-03, 0., 0., 0., 2.78164120e-03, 0., 0., 0., 0., 0.,
          0., 0., 0., 0., 0., 0., 0., 0., 1.39082060e-03, 0., 0., 0., 0.,
          0., 0., 0., 0., 1.39082060e-03, 0., 0., 0., 1.39082060e-03, 0.,
          0., 0., 1.39082060e-03, 1.39082060e-03, 0., 1.39082060e-03,
          1.39082060e-03, 5.56328241e-03, 0., 1.39082060e-03, 0., 0., 0.,
          0., 0., 2.78164120e-03, 1.39082060e-03, 2.78164120e-03, 0., 0.,
          0., 0., 0., 0., 0., 1.39082060e-03, 1.39082060e-03, 0., 0., 0.,
          2.78164120e-03, 0., 1.39082060e-03, 1.39082060e-03,
          1.39082060e-03, 1.39082060e-03, 0., 0., 0., 2.78164120e-03, 0.,
          2.78164120e-03, 0., 6.95410278e-03, 0., 0., 5.56328241e-03,
          1.39082060e-03, 0., 0., 1.39082060e-03, 0., 0., 0., 0., 0., 0.,
          0., 1.39082060e-03, 0., 0., 0., 0., 1.39082060e-03, 0., 0., 0.,
          0., 2.78164120e-03, 0., 0., 0., 0., 0., 0., 0., 0., 0.,
          1.39082060e-03, 0., 0., 0., 0., 0., 0., 0., 0., 1.39082060e-03,
          0., 1.39082060e-03, 0., 0., 0., 1.39082060e-03, 2.78164120e-03,
          0., 1.39082060e-03, 0., 0., 1.39082060e-03, 2.78164120e-03, 0.,
          0., 1.39082060e-03, 0., 1.39082060e-03, 0., 0., 0., 0., 0., 0.,
          2.78164120e-03, 0., 0., 0., 1.41593173e-01, 6.35287985e-02,
          3.60791944e-02, 2.13007126e-02, 1.24844536e-02, 1.29882395e-02,
          1.11755086e-02, 9.97676700e-03, 6.84834458e-03, 6.27708668e-03,
          4.36539808e-03, 3.94257717e-03, 1.77449710e-03, 8.16403597e-04,
          1.41689889e-04, 3.59847327e-05, 4.49809158e-06, 0., 0., 0., 0.,
          0., 0., 0., 0., 0., 0., 0., 0., 0., 4.72299609e-04,
          6.92706089e-04, 9.69338755e-04, 1.51810586e-03, 1.92293420e-03,
          2.83154869e-03, 3.38481390e-03, 4.71400004e-03, 6.11965358e-03,
          1.66204479e-02, 3.19656879e-02, 7.14341924e-02, 6.98103830e-02,
          4.60762009e-02, 1.91528741e-02, 1.49269169e-02, 1.18277315e-02,
          1.01611884e-02, 8.47890228e-03, 5.35722729e-03, 3.53999808e-03,
          1.15600950e-03, 1.82172706e-04, 1.34942748e-05, 4.49809158e-06,
          0., 0., 0., 0., 0., 1.23697522e-04, 2.74383579e-04,
          3.77839693e-04, 5.87000977e-04, 6.65717525e-04, 8.95120203e-04,
          9.37852077e-04, 1.46187982e-03, 1.65979576e-03, 2.56391219e-03,
          2.78656767e-03, 3.80988349e-03, 3.66144651e-03, 4.34290757e-03,
          5.08509250e-03, 8.83875042e-03, 1.33300945e-02, 1.83477160e-02,
          2.84954105e-02, 3.74353677e-02, 5.57111129e-02, 6.36479929e-02,
          5.24927303e-02, 2.29132790e-02, 2.58640270e-03, 2.76632636e-04,
          2.47395037e-05, 0., 0., 0. ]
      - [ 0., 0., 3.53606796e-04, 0., 2.12164083e-03, 1.41442718e-03,
          3.53606796e-04, 7.07213592e-04, 0., 1.41442718e-03,
          3.53606796e-04, 0., 1.06082042e-03, 3.53606796e-04,
          1.41442718e-03, 7.07213592e-04, 4.95049497e-03, 3.53606796e-04,
          7.07213592e-04, 3.53606790e-03, 7.07213592e-04, 0., 0., 0.,
          1.41442718e-03, 0., 0., 1.06082042e-03, 1.06082042e-03,
          1.06082042e-03, 0., 7.42574269e-03, 0., 0., 0., 0., 0., 0.,
          1.76803395e-03, 3.53606796e-04, 2.12164083e-03, 0.,
          2.12164083e-03, 3.18246125e-03, 0., 3.18246125e-03,
          2.47524749e-03, 1.06082042e-03, 0., 7.07213592e-04, 0., 0., 0.,
          4.95049497e-03, 1.06082042e-03, 3.53606796e-04, 2.12164083e-03,
          1.76803395e-03, 7.42574269e-03, 0., 0., 1.06082042e-03,
          1.76803395e-03, 3.88967479e-03, 0., 7.07213592e-04,
          3.53606796e-04, 0., 3.53606796e-04, 6.01131562e-03,
          2.12164083e-03, 0., 0., 0., 3.53606796e-04, 3.53606796e-04,
          1.41442718e-03, 0., 3.53606796e-04, 0., 3.53606796e-04, 0.,
          7.07213592e-04, 7.07213592e-04, 0., 1.41442718e-03, 0.,
          3.53606796e-04, 7.77934957e-03, 0., 3.53606796e-04, 0., 0., 0.,
          2.47524749e-03, 0., 0., 1.41442718e-03, 0., 7.07213592e-04,
          7.07213581e-03, 0., 0., 9.19377711e-03, 0., 2.12164083e-03,
          7.07213592e-04, 2.12164083e-03, 0., 0., 7.07213592e-04,
          2.47524749e-03, 7.07213592e-04, 0., 0., 1.06082042e-03, 0.,
          3.53606796e-04, 0., 1.41442718e-03, 3.53606796e-04,
          3.53606796e-04, 3.53606796e-04, 0., 7.07213592e-04, 0.,
          3.53606796e-04, 1.41442718e-03, 3.53606796e-04, 0., 0.,
          1.76803395e-03, 2.47524749e-03, 1.41442718e-03, 1.41442718e-03,
          7.07213592e-04, 0., 0., 0., 3.53606796e-04, 3.53606796e-04, 0.,
          1.06082042e-03, 0., 0., 2.82885437e-03, 2.82885437e-03,
          2.12164083e-03, 3.53606796e-04, 1.41442718e-03, 0.,
          6.71852892e-03, 5.65770874e-03, 2.47524749e-03, 8.13295599e-03,
          1.06082042e-03, 7.07213581e-03, 0., 1.41442718e-03,
          7.07213592e-04, 1.41442718e-03, 0., 3.53606796e-04, 0.,
          8.48656334e-03, 3.53606796e-04, 3.53606796e-04, 3.53606796e-04,
          1.06082042e-03, 0., 3.53606796e-04, 3.53606790e-03,
          1.06082042e-03, 3.53606796e-04, 0., 7.07213592e-04, 0., 0.,
          1.41442718e-03, 1.06082042e-03, 3.53606796e-04, 6.01131562e-03,
          1.41442718e-03, 1.41442718e-03, 2.82885437e-03, 0., 0.,
          1.06082042e-03, 0., 0., 0., 1.06082042e-03, 0., 2.47524749e-03,
          0., 0., 3.53606796e-04, 1.06082042e-03, 0., 1.41442718e-03, 0.,
          0., 1.41442718e-03, 3.53606796e-04, 1.41442718e-03,
          7.07213592e-04, 4.95049497e-03, 3.18246125e-03, 3.53606796e-04,
          0., 1.76803395e-03, 7.07213592e-04, 7.07213592e-04, 0.,
          1.06082042e-03, 7.07213592e-04, 0., 3.18246125e-03,
          1.06082042e-03, 7.07213592e-04, 0., 3.53606796e-04,
          1.41442718e-03, 3.53606796e-04, 0., 2.82885437e-03, 0.,
          2.82885437e-03, 2.82885437e-03, 3.88967479e-03, 7.07213592e-04,
          3.53606796e-04, 7.07213592e-04, 1.06082042e-03, 1.76803395e-03,
          0., 7.07213592e-04, 0., 7.07213592e-04, 3.53606796e-04,
          4.95049497e-03, 2.12164083e-03, 0., 0., 2.47524749e-03, 0.,
          3.88967479e-03, 0., 0., 2.82885437e-03, 0., 0., 2.12164083e-03,
          0., 0., 3.53606796e-04, 2.47524749e-03, 1.06082042e-03,
          3.53606796e-04, 9.54738352e-03, 0., 7.07213592e-04,
          3.53606796e-04, 3.53606796e-04, 1.76803395e-03, 7.07213592e-04,
          3.53606796e-04, 3.53606796e-04, 0., 0., 3.53606796e-04, 0.,
          7.07213592e-04, 1.06082042e-03, 7.07213592e-04, 3.53606796e-04,
          0., 0., 7.07213592e-04, 0., 3.53606796e-04, 7.07213592e-04,
          3.53606796e-04, 7.07213592e-04, 0., 7.07213592e-04,
          3.53606790e-03, 0., 7.07213592e-04, 1.41442718e-03,
          3.18246125e-03, 2.47524749e-03, 3.53606796e-04, 2.47524749e-03,
          1.41442718e-03, 3.53606796e-04, 3.53606796e-04, 3.53606790e-03,
          1.06082042e-03, 1.41442718e-03, 0., 0., 3.53606796e-04,
          3.53606796e-04, 3.53606796e-04, 2.82885437e-03, 1.41442718e-03,
          3.53606796e-04, 1.41442718e-03, 2.12164083e-03, 1.06082042e-03,
          0., 7.07213592e-04, 7.07213592e-04, 0., 3.53606796e-04,
          7.07213592e-04, 0., 0., 3.53606796e-04, 0., 3.53606796e-04, 0.,
          3.53606790e-03, 3.53606796e-04, 2.12164083e-03, 7.07213592e-04,
          0., 7.07213592e-04, 1.06082042e-03, 1.41442718e-03, 0.,
          1.76803395e-03, 3.53606796e-04, 2.47524749e-03, 0.,
          3.53606796e-04, 5.65770874e-03, 1.06082042e-03, 0., 0.,
          3.53606796e-04, 3.53606796e-04, 0., 0., 7.07213592e-04,
          7.07213592e-04, 7.07213592e-04, 3.53606790e-03, 2.82885437e-03,
          5.65770874e-03, 2.82885437e-03, 1.06082042e-03, 3.53606796e-04,
          3.53606796e-04, 1.06082042e-03, 1.06082042e-03, 7.07213592e-04,
          3.53606796e-04, 2.12164083e-03, 0., 0., 0., 3.53606796e-04, 0.,
          0., 7.42574269e-03, 0., 2.12164083e-03, 0., 1.76803395e-03,
          1.06082042e-03, 0., 7.07213592e-04, 7.07213592e-04,
          1.06082042e-03, 0., 0., 0., 3.53606796e-04, 0., 0.,
          2.47524749e-03, 1.41442718e-03, 2.82885437e-03, 0.,
          3.53606790e-03, 7.07213592e-04, 3.53606796e-04, 7.07213592e-04,
          0., 0., 7.07213592e-04, 3.53606796e-04, 0., 0., 7.07213592e-04,
          2.12164083e-03, 0., 1.76803395e-03, 3.53606796e-04,
          1.06082042e-03, 1.06082042e-03, 7.07213592e-04, 0.,
          1.06082042e-03, 0., 2.47524749e-03, 0., 0., 0., 0., 0., 0.,
          2.47524749e-03, 3.53606790e-03, 1.06082042e-03, 7.07213592e-04,
          1.06082042e-03, 7.07213592e-04, 2.47524749e-03, 0.,
          3.53606796e-04, 2.82885437e-03, 7.42574269e-03, 2.47524749e-03,
          0., 7.07213592e-04, 0., 3.53606796e-04, 0., 0., 7.07213592e-04,
          7.07213592e-04, 0., 4.59688855e-03, 3.53606796e-04,
          1.41442718e-03, 0., 1.06082042e-03, 7.07213592e-04, 0.,
          7.07213592e-04, 0., 0., 7.07213592e-04, 0., 7.07213592e-04,
          3.18246125e-03, 1.76803395e-03, 1.06082042e-03, 1.41442718e-03,
          3.53606796e-04, 7.07213592e-04, 1.41442718e-03, 1.06082042e-03,
          2.82885437e-03, 7.07213592e-04, 0., 7.07213592e-04,
          1.06082042e-03, 0., 1.76803395e-03, 1.76803395e-03,
          3.53606796e-04, 1.76803395e-03, 0., 0., 0., 0., 0.,
          3.53606796e-04, 3.53606796e-04, 2.12164083e-03, 0.,
          2.47524749e-03, 0., 1.76803395e-03, 3.53606796e-04,
          3.53606796e-04, 1.41442718e-03, 3.53606796e-04, 7.77934957e-03,
          0., 1.76803395e-03, 0., 2.47524749e-03, 3.53606796e-04,
          1.06082042e-03, 0., 3.53606796e-04, 0., 3.53606796e-04,
          7.07213592e-04, 7.07213592e-04, 0., 3.53606796e-04, 0.,
          1.06082042e-03, 3.53606796e-04, 3.53606796e-04, 1.76803395e-03,
          2.47524749e-03, 3.53606796e-04, 0., 0., 3.53606796e-04, 0.,
          1.06082042e-03, 3.53606796e-04, 1.06082042e-03, 0.,
          1.76803395e-03, 3.53606796e-04, 2.47524749e-03, 0.,
          7.07213592e-04, 3.53606796e-04, 1.06082042e-03, 7.07213592e-04,
          0., 0., 3.53606790e-03, 3.53606796e-04, 0., 0., 1.76803395e-03,
          7.07213592e-04, 1.41442718e-03, 1.41442718e-03, 1.41442718e-03,
          3.53606796e-04, 0., 3.88967479e-03, 2.47524749e-03, 0., 0.,
          1.06082042e-03, 1.06082042e-03, 0., 0., 1.41442718e-03,
          1.41442718e-03, 2.47524749e-03, 7.07213592e-04, 0., 0.,
          1.06082042e-03, 2.47524749e-03, 2.12164083e-03, 2.12164083e-03,
          3.18246125e-03, 1.06082042e-03, 7.07213592e-04, 2.82885437e-03,
          7.07213592e-04, 1.76803395e-03, 0., 0., 2.47524749e-03,
          1.06082042e-03, 3.53606796e-04, 1.41442718e-03, 3.18246125e-03,
          0., 0., 0., 1.76803395e-03, 3.53606796e-04, 0., 3.53606796e-04,
          2.47524749e-03, 0., 0., 0., 1.76803395e-03, 1.41442718e-03,
          3.53606796e-04, 0., 1.06082042e-03, 3.53606796e-04,
          7.07213592e-04, 1.41442718e-03, 1.41442718e-03, 3.53606796e-04,
          7.07213592e-04, 3.53606796e-04, 1.06082042e-03, 0., 0.,
          1.41442718e-03, 1.41442718e-03, 2.47524749e-03, 0.,
          2.12164083e-03, 1.06082042e-03, 7.07213592e-04, 7.07213592e-04,
          0., 2.47524749e-03, 6.36492250e-03, 2.47524749e-03,
          1.06082042e-03, 7.77934957e-03, 1.06082042e-03, 1.06082042e-03,
          1.41442718e-03, 1.41442718e-03, 0., 0., 1.06082042e-03,
          1.41442718e-03, 6.01131562e-03, 0., 3.53606796e-04,
          2.12164083e-03, 0., 3.53606796e-04, 1.76803395e-03, 0., 0.,
          1.06082042e-03, 1.76803395e-03, 7.07213592e-04, 5.30410185e-03,
          7.07213592e-04, 0., 3.53606796e-04, 3.53606796e-04,
          1.41442718e-03, 3.53606796e-04, 0., 5.30410185e-03,
          1.41442718e-03, 2.47524749e-03, 0., 7.07213592e-04, 0., 0., 0.,
          7.07213592e-04, 0., 1.76803395e-03, 0., 0., 0., 0., 0.,
          7.07213592e-04, 1.41442718e-03, 3.53606796e-04, 3.18246125e-03,
          3.53606796e-04, 0., 7.07213592e-04, 1.06082042e-03, 0., 0.,
          7.07213592e-04, 0., 3.53606796e-04, 0., 3.53606796e-04,
          1.41442718e-03, 0., 3.53606796e-04, 7.07213592e-04,
          7.07213592e-04, 0., 7.07213592e-04, 1.06082042e-03,
          3.53606796e-04, 3.18246125e-03, 3.53606790e-03, 1.76803395e-03,
          0., 0., 0., 7.07213592e-04, 3.53606796e-04, 2.47524749e-03, 0.,
          1.76803395e-03, 7.07213592e-04, 1.06082042e-03, 0.,
          1.41442718e-03, 7.07213592e-04, 0., 0., 6.01131562e-03,
          7.07213592e-04, 3.53606796e-04, 1.06082042e-03, 2.12164083e-03,
          0., 1.06082042e-03, 0., 1.76803395e-03, 3.53606796e-04,
          2.12164083e-03, 2.47524749e-03, 0., 0., 1.76803395e-03,
          3.53606796e-04, 0., 1.06082042e-03, 2.47524749e-03,
          7.07213592e-04, 3.53606796e-04, 3.53606796e-04, 0., 0.,
          1.41442718e-03, 0., 7.07213592e-04, 0., 3.53606796e-04, 0.,
          1.41442718e-03, 7.07213592e-04, 2.12164083e-03, 7.07213592e-04,
          0., 1.06082042e-03, 1.06082042e-03, 0., 3.53606796e-04,
          7.07213592e-04, 3.53606796e-04, 3.53606796e-04, 3.53606796e-04,
          3.53606796e-04, 0., 3.88967479e-03, 1.41442718e-03,
          7.07213592e-04, 0., 7.07213592e-04, 1.06082042e-03,
          2.82885437e-03, 2.47524749e-03, 7.07213592e-04, 1.06082042e-03,
          3.53606796e-04, 7.07213592e-04, 7.07213592e-04, 1.76803395e-03,
          0., 1.41442718e-03, 3.53606796e-04, 3.88967479e-03, 0.,
          7.07213592e-04, 1.06082042e-03, 2.12164083e-03, 0.,
          3.53606796e-04, 0., 7.07213592e-04, 0., 7.07213592e-04,
          3.53606796e-04, 0., 0., 0., 0., 1.06082042e-03, 3.53606796e-04,
          7.07213592e-04, 2.82885437e-03, 3.53606796e-04, 1.41442718e-03,
          3.53606796e-04, 1.06082042e-03, 0., 0., 3.53606796e-04, 0.,
          3.53606796e-04, 0., 2.82885437e-03, 3.53606796e-04,
          7.07213592e-04, 3.53606796e-04, 1.76803395e-03, 1.06082042e-03,
          1.06082042e-03, 0., 0., 1.41442718e-03, 0., 2.12164083e-03,
          2.82885437e-03, 3.53606796e-04, 0., 1.06082042e-03,
          7.07213592e-04, 3.53606796e-04, 1.76803395e-03, 3.53606796e-04,
          0., 1.06082042e-03, 0., 3.53606796e-04, 7.07213592e-04,
          7.07213592e-04, 1.06082042e-03, 0., 1.76803395e-03, 0.,
          1.76803395e-03, 4.95049497e-03, 2.12164083e-03, 1.41442718e-03,
          0., 0., 2.12164083e-03, 0., 0., 0., 0., 3.88967479e-03,
          7.07213592e-04, 0., 7.07213592e-04, 0., 1.76803395e-03,
          3.53606796e-04, 7.07213592e-04, 0., 7.07213592e-04, 0.,
          3.53606796e-04, 2.82885437e-03, 0., 3.53606796e-04,
          3.53606796e-04, 7.07213592e-04, 3.53606796e-04, 0.,
          1.06082042e-03, 0., 3.53606796e-04, 1.06082042e-03,
          1.76803395e-03, 0., 1.41442718e-03, 1.06082042e-03,
          1.41442718e-03, 1.06082042e-03, 7.07213592e-04, 7.07213592e-04,
          2.12164083e-03, 0., 0., 3.53606796e-04, 0., 0., 5.30410185e-03,
          1.06082042e-03, 3.53606796e-04, 7.07213581e-03, 0.,
          3.53606796e-04, 3.53606790e-03, 0., 0., 3.53606796e-04, 0., 0.,
          1.41442718e-03, 0., 0., 0., 7.07213592e-04, 0., 0.,
          7.07213592e-04, 3.53606796e-04, 0., 3.53606796e-04, 0.,
          1.06082042e-03, 0., 1.06082042e-03, 3.53606796e-04, 0.,
          3.53606796e-04, 0., 3.53606796e-04, 1.76803395e-03,
          3.18246125e-03, 7.07213592e-04, 0., 0., 3.53606796e-04,
          2.47524749e-03, 2.47524749e-03, 2.12164083e-03, 7.07213592e-04,
          6.71852892e-03, 0., 5.30410185e-03, 0., 0., 1.41442718e-03,
          6.01131562e-03, 7.07213592e-04, 1.06082042e-03, 0., 0.,
          1.41442718e-03, 0., 3.53606796e-04, 3.53606796e-04, 0., 0.,
          1.41442718e-03, 3.88967479e-03, 7.07213592e-04, 3.53606790e-03,
          0., 1.76803395e-03, 0., 0., 0., 1.06082042e-03, 0.,
          2.12164083e-03, 0., 1.44978790e-02, 1.41442718e-03,
          3.53606796e-04, 7.07213592e-04, 1.06082042e-03, 3.53606796e-04,
          0., 0., 7.07213592e-04, 7.07213592e-04, 0., 3.53606796e-04,
          3.53606796e-04, 7.07213592e-04, 3.53606796e-04, 0.,
          2.82885437e-03, 1.06082042e-03, 3.53606796e-04, 3.53606796e-04,
          7.07213592e-04, 1.06082042e-03, 3.18246125e-03, 7.07213592e-04,
          3.53606796e-04, 0., 1.41442718e-03, 0., 0., 0., 7.07213592e-04,
          1.06082042e-03, 0., 0., 3.53606796e-04, 0., 2.82885437e-03,
          2.47524749e-03, 1.06082042e-03, 0., 0., 3.18246125e-03, 0., 0.,
          7.07213592e-04, 3.53606790e-03, 1.06082042e-03, 1.41442718e-03,
          3.53606796e-04, 7.07213592e-04, 2.12164083e-03, 3.18246125e-03,
          0., 0., 0., 1.41442718e-03, 0., 7.07213592e-04, 2.12164083e-03,
          7.07213592e-04, 1.76803395e-03, 0., 2.47524749e-03,
          4.24328167e-03, 7.07213592e-04, 1.41442718e-03, 0., 0.,
          1.65204421e-01, 6.42025098e-02, 4.26260531e-02, 2.91042142e-02,
          1.36245312e-02, 8.13274924e-03, 3.83755029e-03, 2.43335078e-03,
          1.48010231e-03, 1.09165919e-03, 6.18383638e-04, 4.68810671e-04,
          1.89756698e-04, 1.29481050e-04, 8.92972748e-05, 4.24162063e-05,
          2.90216140e-05, 1.11621594e-05, 1.11621594e-05, 6.69729525e-06,
          0., 0., 0., 0., 0., 0., 0., 0., 0., 0., 1.10728620e-03,
          4.19697165e-03, 1.03875054e-02, 1.52698336e-02, 1.69173684e-02,
          2.10406706e-02, 1.72075853e-02, 1.88417248e-02, 1.92100760e-02,
          2.68784799e-02, 2.81554293e-02, 3.40066329e-02, 2.85371765e-02,
          2.43759230e-02, 1.55421905e-02, 1.34637961e-02, 1.09121269e-02,
          8.48993845e-03, 8.59932695e-03, 5.06538758e-03, 2.55390210e-03,
          1.20997801e-03, 8.43859219e-04, 2.90216150e-04, 1.45108075e-04,
          5.58107968e-05, 2.00918857e-05, 8.92972730e-06, 0., 0.,
          1.11621594e-04, 2.76821549e-04, 7.81351118e-04, 2.46683718e-03,
          3.85540980e-03, 6.54772250e-03, 7.99433794e-03, 1.13720074e-02,
          1.20796887e-02, 1.37406178e-02, 1.17760776e-02, 1.29056880e-02,
          1.15305101e-02, 1.27092348e-02, 1.22002400e-02, 1.53993145e-02,
          1.73973404e-02, 1.74419899e-02, 2.17014700e-02, 2.10429020e-02,
          2.42866259e-02, 2.12594476e-02, 2.14134865e-02, 1.33544076e-02,
          1.12202028e-02, 1.10683972e-02, 1.12447590e-02, 4.72829072e-03,
          1.17872399e-03, 2.47799937e-04 ]
      - [ 9.31098708e-04, 0., 0., 9.31098708e-04, 1.39664812e-03,
          2.32774671e-03, 9.31098708e-04, 1.39664812e-03, 4.65549354e-04,
          4.65549354e-04, 4.65549354e-04, 4.65549354e-04, 1.39664812e-03,
          9.31098708e-04, 4.65549354e-04, 1.39664812e-03, 2.79329624e-03,
          4.65549354e-04, 4.65549354e-04, 1.39664812e-03, 1.39664812e-03,
          0., 6.51769107e-03, 1.39664812e-03, 4.65549354e-04, 0.,
          9.31098708e-04, 0., 4.65549354e-04, 4.65549354e-04, 0.,
          1.39664812e-03, 0., 0., 0., 3.25884554e-03, 9.31098708e-04, 0.,
          0., 1.86219742e-03, 4.65549354e-04, 4.65549354e-04,
          9.31098708e-04, 1.39664812e-03, 4.65549354e-04, 0.,
          3.25884554e-03, 5.58659248e-03, 4.65549354e-04, 3.25884554e-03,
          0., 9.31098708e-04, 4.65549354e-04, 1.39664812e-03,
          2.79329624e-03, 9.31098708e-04, 0., 4.65549354e-04,
          1.86219742e-03, 9.31098708e-04, 1.39664812e-03, 9.31098708e-04,
          4.65549354e-04, 1.39664812e-03, 0., 0., 9.31098708e-04,
          1.39664812e-03, 2.32774671e-03, 1.39664812e-03, 3.25884554e-03,
          4.65549354e-04, 0., 0., 4.65549354e-04, 0., 0., 2.32774671e-03,
          9.31098708e-04, 0., 4.65549354e-04, 0., 0., 1.86219742e-03,
          9.31098708e-04, 2.32774671e-03, 4.65549354e-04, 4.65549354e-04,
          9.31098708e-04, 0., 1.39664812e-03, 4.65549354e-04,
          1.86219742e-03, 0., 1.86219742e-03, 4.65549354e-04, 0.,
          4.65549354e-04, 0., 0., 4.65549354e-04, 1.39664812e-03,
          9.31098708e-04, 9.31098708e-04, 4.65549354e-04, 4.65549354e-04,
          4.65549354e-04, 0., 4.65549354e-04, 4.65549354e-04,
          1.39664812e-03, 4.65549354e-04, 9.31098708e-04, 4.65549354e-04,
          1.39664812e-03, 0., 4.65549354e-04, 9.31098708e-04,
          1.39664812e-03, 0., 0., 0., 9.31098708e-04, 0., 0., 0.,
          9.31098708e-04, 0., 9.31098708e-04, 0., 9.31098708e-04, 0.,
          9.31098708e-04, 9.31098708e-04, 2.79329624e-03, 4.65549354e-04,
          9.31098708e-04, 9.31098708e-04, 4.65549354e-04, 0.,
          9.31098708e-04, 4.65549354e-04, 4.65549354e-04, 4.65549354e-04,
          1.86219742e-03, 1.39664812e-03, 9.31098708e-04, 1.86219742e-03,
          4.65549354e-04, 4.65549354e-04, 4.65549354e-04, 4.65549354e-04,
          1.39664812e-03, 1.86219742e-03, 6.51769107e-03, 0.,
          1.86219742e-03, 0., 9.31098708e-04, 4.65549354e-04, 0.,
          4.65549354e-04, 0., 0., 9.31098708e-04, 9.31098708e-04, 0.,
          1.86219742e-03, 1.39664812e-03, 4.65549354e-04, 1.39664812e-03,
          9.31098708e-04, 1.39664812e-03, 9.31098708e-04, 9.31098708e-04,
          1.39664812e-03, 4.65549354e-04, 0., 4.65549354e-04,
          4.65549354e-04, 9.31098708e-04, 1.86219742e-03, 4.65549354e-04,
          4.18994436e-03, 9.31098708e-04, 0., 1.86219742e-03,
          1.39664812e-03, 9.31098708e-04, 9.31098708e-04, 0.,
          9.31098708e-04, 9.31098708e-04, 1.39664812e-03, 0.,
          4.65549354e-04, 1.86219742e-03, 4.65549354e-04, 2.79329624e-03,
          0., 0., 0., 0., 2.79329624e-03, 1.39664812e-03, 3.25884554e-03,
          4.65549354e-04, 2.32774671e-03, 5.12104295e-03, 4.65549354e-04,
          1.39664812e-03, 4.65549354e-04, 1.39664812e-03, 0.,
          2.32774671e-03, 9.31098708e-04, 4.65549354e-04, 1.86219742e-03,
          0., 1.39664812e-03, 8.37988872e-03, 0., 9.31098708e-04, 0.,
          9.31098708e-04, 9.31098708e-04, 4.65549354e-04, 1.39664812e-03,
          1.86219742e-03, 2.79329624e-03, 9.31098708e-04, 4.65549354e-04,
          9.31098708e-04, 0., 9.31098708e-04, 0., 4.65549354e-04,
          1.39664812e-03, 9.31098708e-04, 9.31098708e-04, 4.65549342e-03,
          4.65549354e-04, 0., 9.31098708e-04, 2.32774671e-03,
          4.65549354e-04, 9.31098708e-04, 0., 4.65549354e-04,
          1.86219742e-03, 0., 1.86219742e-03, 9.31098708e-04,
          4.65549354e-04, 1.39664812e-03, 9.31098708e-04, 9.31098708e-04,
          0., 1.39664812e-03, 5.12104295e-03, 9.31098708e-04,
          9.31098708e-04, 1.86219742e-03, 1.86219742e-03, 4.65549354e-04,
          0., 0., 9.31098708e-04, 1.39664812e-03, 0., 4.65549354e-04,
          9.31098708e-04, 1.39664812e-03, 9.31098708e-04, 0.,
          9.31098708e-04, 9.31098708e-04, 4.65549354e-04, 9.31098708e-04,
          1.39664812e-03, 4.65549354e-04, 3.72439483e-03, 0.,
          9.31098708e-04, 9.31098708e-04, 1.39664812e-03, 4.65549354e-04,
          1.39664812e-03, 0., 7.44878966e-03, 4.65549354e-04,
          2.79329624e-03, 4.65549354e-04, 4.65549354e-04, 2.32774671e-03,
          1.39664812e-03, 0., 6.98324014e-03, 4.65549354e-04,
          4.65549354e-04, 1.86219742e-03, 1.86219742e-03, 4.65549354e-04,
          9.31098708e-04, 1.86219742e-03, 9.31098708e-04, 0.,
          4.65549354e-04, 4.65549354e-04, 9.31098708e-04, 1.86219742e-03,
          0., 0., 9.31098708e-04, 0., 2.32774671e-03, 3.72439483e-03,
          4.65549354e-04, 4.65549354e-04, 0., 9.31098708e-04,
          9.31098708e-04, 0., 2.79329624e-03, 9.31098708e-04, 0., 0., 0.,
          4.65549354e-04, 9.31098708e-04, 1.86219742e-03, 0.,
          9.31098708e-04, 2.32774671e-03, 0., 4.65549354e-04,
          5.58659248e-03, 4.65549342e-03, 1.39664812e-03, 4.65549354e-04,
          1.39664812e-03, 9.31098708e-04, 9.31098708e-04, 0., 0.,
          1.86219742e-03, 9.31098708e-04, 4.65549354e-04, 1.86219742e-03,
          3.72439483e-03, 2.79329624e-03, 4.65549354e-04, 2.32774671e-03,
          1.39664812e-03, 0., 0., 3.72439483e-03, 0., 9.31098708e-04,
          4.65549354e-04, 9.31098708e-04, 4.65549354e-04, 4.65549354e-04,
          4.65549354e-04, 0., 3.72439483e-03, 0., 0., 3.25884554e-03,
          4.65549354e-04, 1.39664812e-03, 2.79329624e-03, 9.31098708e-04,
          4.65549354e-04, 1.39664812e-03, 0., 0., 2.32774671e-03,
          4.65549354e-04, 0., 0., 9.31098708e-04, 9.31098708e-04,
          1.86219742e-03, 1.86219742e-03, 9.31098708e-04, 9.31098708e-04,
          9.31098708e-04, 0., 9.31098708e-04, 0., 9.31098708e-04, 0., 0.,
          1.39664812e-03, 0., 4.65549354e-04, 1.39664812e-03,
          9.31098708e-04, 4.65549354e-04, 0., 4.65549354e-04,
          4.65549354e-04, 1.86219742e-03, 4.65549354e-04, 9.31098708e-04,
          4.65549342e-03, 4.65549354e-04, 2.79329624e-03, 9.31098708e-04,
          0., 4.65549354e-04, 0., 9.31098708e-04, 9.31098708e-04,
          4.65549354e-04, 9.31098708e-04, 0., 4.65549354e-04, 0.,
          9.31098708e-04, 0., 0., 1.39664812e-03, 9.31098708e-04,
          3.72439483e-03, 0., 9.31098708e-04, 9.31098708e-04, 0., 0., 0.,
          4.65549354e-04, 4.65549354e-04, 9.31098708e-04, 3.72439483e-03,
          6.05214154e-03, 3.25884554e-03, 0., 3.25884554e-03,
          4.65549354e-04, 9.31098708e-04, 4.65549354e-04, 9.31098708e-04,
          0., 1.86219742e-03, 0., 1.39664812e-03, 1.86219742e-03,
          1.86219742e-03, 1.39664812e-03, 0., 9.31098708e-04,
          4.65549354e-04, 4.65549354e-04, 9.31098708e-04, 9.31098708e-04,
          0., 4.65549354e-04, 9.31098708e-04, 3.72439483e-03,
          9.31098708e-04, 4.65549354e-04, 0., 0., 1.39664812e-03,
          9.31098708e-04, 1.39664812e-03, 1.86219742e-03, 0.,
          4.65549354e-04, 4.65549354e-04, 4.65549354e-04, 2.32774671e-03,
          1.39664812e-03, 3.25884554e-03, 9.31098708e-04, 9.31098708e-04,
          0., 4.65549354e-04, 4.65549354e-04, 1.86219742e-03,
          1.86219742e-03, 9.31098708e-04, 3.25884554e-03, 0., 0.,
          3.72439483e-03, 4.65549354e-04, 0., 0., 1.39664812e-03, 0.,
          9.31098708e-04, 4.65549354e-04, 9.31098708e-04, 9.31098708e-04,
          0., 0., 2.32774671e-03, 2.32774671e-03, 2.79329624e-03,
          9.31098708e-04, 0., 0., 9.31098708e-04, 9.31098708e-04,
          4.65549354e-04, 9.31098708e-04, 1.39664812e-03, 4.65549354e-04,
          4.65549354e-04, 1.39664812e-03, 0., 4.65549354e-04, 0., 0., 0.,
          9.31098708e-04, 1.39664812e-03, 1.86219742e-03, 1.86219742e-03,
          1.39664812e-03, 9.31098708e-04, 9.31098708e-04, 0.,
          9.31098708e-04, 4.65549354e-04, 0., 9.31098708e-04, 0.,
          3.25884554e-03, 4.65549354e-04, 0., 9.31098708e-04,
          9.31098708e-04, 2.32774671e-03, 0., 1.39664812e-03,
          1.39664812e-03, 2.32774671e-03, 9.31098708e-04, 4.65549354e-04,
          2.32774671e-03, 1.39664812e-03, 1.86219742e-03, 0.,
          4.65549354e-04, 2.79329624e-03, 1.39664812e-03, 2.32774671e-03,
          0., 0., 0., 2.32774671e-03, 1.86219742e-03, 0., 2.79329624e-03,
          2.32774671e-03, 9.31098708e-04, 9.31098708e-04, 3.72439483e-03,
          4.65549354e-04, 0., 0., 4.65549354e-04, 0., 4.65549354e-04,
          9.31098708e-04, 0., 4.65549354e-04, 1.86219742e-03, 0.,
          4.65549354e-04, 4.65549342e-03, 2.32774671e-03, 0.,
          1.86219742e-03, 9.31098708e-04, 1.39664812e-03, 2.32774671e-03,
          9.31098708e-04, 4.65549354e-04, 1.39664812e-03, 2.32774671e-03,
          1.86219742e-03, 1.39664812e-03, 0., 4.65549354e-04, 0., 0.,
          4.65549354e-04, 1.86219742e-03, 1.39664812e-03, 4.65549354e-04,
          0., 2.79329624e-03, 0., 9.31098708e-04, 4.65549354e-04,
          1.39664812e-03, 2.79329624e-03, 0., 4.65549342e-03, 0., 0.,
          4.65549354e-04, 4.65549354e-04, 4.65549354e-04, 9.31098708e-04,
          0., 4.65549354e-04, 0., 9.31098708e-04, 1.39664812e-03,
          2.32774671e-03, 1.86219742e-03, 1.86219742e-03, 1.86219742e-03,
          4.65549354e-04, 4.65549354e-04, 1.39664812e-03, 1.86219742e-03,
          0., 1.86219742e-03, 2.79329624e-03, 9.31098708e-04, 0., 0.,
          4.65549354e-04, 4.65549354e-04, 0., 9.31098708e-04, 0.,
          4.65549354e-04, 9.31098708e-04, 9.31098708e-04, 9.31098708e-04,
          9.31098708e-04, 0., 4.65549354e-04, 4.65549354e-04,
          4.65549354e-04, 4.65549354e-04, 0., 9.31098708e-04,
          9.31098708e-04, 0., 4.65549354e-04, 0., 4.65549354e-04,
          4.65549354e-04, 0., 2.79329624e-03, 1.39664812e-03,
          1.86219742e-03, 0., 9.31098708e-04, 4.65549354e-04, 0.,
          4.65549354e-04, 4.65549354e-04, 9.31098708e-04, 1.39664812e-03,
          0., 0., 0., 9.31098708e-04, 0., 3.25884554e-03, 4.65549354e-04,
          0., 2.79329624e-03, 4.18994436e-03, 1.39664812e-03, 0., 0., 0.,
          0., 1.86219742e-03, 4.65549354e-04, 9.31098708e-04, 0., 0.,
          9.31098708e-04, 0., 1.39664812e-03, 0., 0., 1.39664812e-03, 0.,
          4.65549354e-04, 9.31098708e-04, 4.65549354e-04, 4.65549354e-04,
          9.31098708e-04, 0., 4.65549354e-04, 0., 0., 4.65549354e-04,
          1.39664812e-03, 1.39664812e-03, 0., 0., 4.65549354e-04, 0.,
          1.39664812e-03, 4.65549354e-04, 1.39664812e-03, 9.31098708e-04,
          0., 0., 9.31098708e-04, 9.31098708e-04, 0., 4.65549354e-04,
          9.31098708e-04, 1.86219742e-03, 4.65549354e-04, 1.86219742e-03,
          4.65549354e-04, 1.39664812e-03, 4.65549354e-04, 4.65549354e-04,
          9.31098708e-04, 2.79329624e-03, 4.65549354e-04, 9.31098708e-04,
          4.65549354e-04, 1.39664812e-03, 4.65549354e-04, 9.31098708e-04,
          4.65549354e-04, 1.39664812e-03, 2.79329624e-03, 4.65549354e-04,
          0., 4.65549354e-04, 9.31098708e-04, 9.31098708e-04,
          3.25884554e-03, 9.31098708e-04, 4.65549354e-04, 9.31098708e-04,
          1.86219742e-03, 4.65549354e-04, 4.65549354e-04, 1.86219742e-03,
          0., 9.31098708e-04, 4.65549354e-04, 9.31098708e-04,
          4.65549354e-04, 2.32774671e-03, 1.86219742e-03, 4.18994436e-03,
          1.86219742e-03, 0., 0., 0., 9.31098708e-04, 9.31098708e-04,
          4.65549354e-04, 4.65549354e-04, 0., 0., 3.25884554e-03,
          4.65549354e-04, 0., 0., 4.65549354e-04, 0., 1.39664812e-03,
          9.31098708e-04, 2.79329624e-03, 1.39664812e-03, 1.39664812e-03,
          0., 0., 2.79329624e-03, 0., 6.98324014e-03, 1.39664812e-03,
          1.86219742e-03, 9.31098708e-04, 1.39664812e-03, 4.65549354e-04,
          4.65549354e-04, 1.39664812e-03, 0., 4.65549342e-03, 0., 0., 0.,
          4.65549354e-04, 0., 4.65549354e-04, 9.31098708e-04,
          9.31098708e-04, 1.39664812e-03, 9.31098708e-04, 1.39664812e-03,
          9.31098708e-04, 2.79329624e-03, 4.65549354e-04, 9.31098708e-04,
          0., 9.31098708e-04, 1.39664812e-03, 0., 1.86219742e-03,
          1.86219742e-03, 1.39664812e-03, 0., 1.86219742e-03, 0.,
          4.65549354e-04, 0., 4.65549354e-04, 9.31098708e-04,
          4.65549354e-04, 9.31098708e-04, 1.39664812e-03, 4.65549354e-04,
          0., 1.39664812e-03, 0., 0., 9.31098708e-04, 2.32774671e-03,
          9.31098708e-04, 9.31098708e-04, 0., 9.31098708e-04,
          9.31098708e-04, 4.65549354e-04, 4.65549354e-04, 4.65549354e-04,
          0., 9.31098708e-04, 0., 1.39664812e-03, 4.18994436e-03,
          9.31098708e-04, 2.79329624e-03, 3.25884554e-03, 0.,
          4.65549354e-04, 0., 9.31098708e-04, 2.32774671e-03,
          4.65549354e-04, 1.86219742e-03, 4.65549354e-04, 9.31098708e-04,
          0., 9.31098708e-04, 0., 0., 4.65549354e-04, 4.65549354e-04,
          9.31098708e-04, 5.12104295e-03, 1.39664812e-03, 0.,
          2.79329624e-03, 4.65549354e-04, 9.31098708e-04, 9.31098708e-04,
          0., 1.86219742e-03, 0., 0., 0., 9.31098708e-04, 0.,
          4.65549354e-04, 4.65549354e-04, 4.65549354e-04, 4.65549354e-04,
          0., 1.39664812e-03, 0., 0., 1.39664812e-03, 1.86219742e-03,
          1.39664812e-03, 0., 0., 9.31098708e-04, 9.31098708e-04,
          4.65549354e-04, 2.32774671e-03, 9.31098708e-04, 9.31098708e-04,
          0., 2.32774671e-03, 2.32774671e-03, 3.25884554e-03,
          2.32774671e-03, 4.65549354e-04, 1.86219742e-03, 0.,
          1.39664812e-03, 0., 0., 4.65549354e-04, 1.39664812e-03,
          3.25884554e-03, 1.39664812e-03, 0., 0., 0., 9.31098708e-04,
          2.32774671e-03, 4.65549354e-04, 0., 0., 4.65549354e-04,
          4.65549354e-04, 0., 2.32774671e-03, 0., 9.31098708e-04,
          4.65549354e-04, 0., 5.12104295e-03, 4.65549354e-04,
          4.65549354e-04, 9.31098708e-04, 0., 1.86219742e-03, 0.,
          4.65549354e-04, 4.65549354e-04, 2.32774671e-03, 9.31098708e-04,
          0., 4.65549342e-03, 4.65549354e-04, 9.31098708e-04,
          1.39664812e-03, 1.39664812e-03, 2.32774671e-03, 9.31098708e-04,
          9.31098708e-04, 6.05214154e-03, 4.65549342e-03, 4.65549354e-04,
          1.86219742e-03, 1.39664812e-03, 8.84543732e-03, 4.65549354e-04,
          0., 1.39664812e-03, 0., 4.65549354e-04, 4.65549354e-04, 0.,
          4.65549354e-04, 9.31098708e-04, 2.32774671e-03, 1.39664812e-03,
          0., 4.65549354e-04, 9.31098708e-04, 4.65549354e-04,
          2.79329624e-03, 4.65549354e-04, 9.31098708e-04, 9.31098708e-04,
          9.31098708e-04, 4.65549354e-04, 0., 1.86219742e-03,
          4.65549354e-04, 5.12104295e-03, 1.86219742e-03, 1.86219742e-03,
          1.86219742e-03, 4.65549354e-04, 4.65549354e-04, 4.65549354e-04,
          0., 1.86219742e-03, 0., 9.31098708e-04, 0., 0., 9.31098708e-04,
          1.39664812e-03, 2.32774671e-03, 4.65549354e-04, 5.58659248e-03,
          0., 1.86219742e-03, 9.31098708e-04, 1.39664812e-03, 0.,
          8.48204643e-02, 3.72725166e-02, 2.85143182e-02, 3.35423201e-02,
          3.00476048e-02, 2.97773406e-02, 2.04384718e-02, 1.62185896e-02,
          9.92221199e-03, 8.37822165e-03, 5.16714994e-03, 4.27875342e-03,
          2.54477444e-03, 2.21563969e-03, 1.78214489e-03, 1.80890388e-03,
          1.46906544e-03, 1.50385196e-03, 1.61623955e-03, 1.67510915e-03,
          2.17550131e-03, 1.67778507e-03, 1.12922699e-03, 1.03824656e-03,
          1.09711627e-03, 1.41019572e-03, 1.37540908e-03, 3.55893804e-04,
          7.76009038e-05, 2.67589326e-06, 4.93434723e-03, 1.72113460e-02,
          1.89881381e-02, 1.88918058e-02, 1.34865018e-02, 1.46772750e-02,
          1.16668949e-02, 1.28389355e-02, 1.20789818e-02, 1.48726143e-02,
          1.47414962e-02, 1.84770431e-02, 1.77384969e-02, 2.06578951e-02,
          1.70721989e-02, 1.63175967e-02, 1.32884858e-02, 1.00800898e-02,
          9.41646844e-03, 7.62094418e-03, 7.95007870e-03, 5.63275535e-03,
          6.09568506e-03, 5.15109440e-03, 6.11709198e-03, 6.99478481e-03,
          5.91639988e-03, 3.15487804e-03, 1.18274486e-03, 8.02767972e-05,
          1.22555916e-03, 4.52493550e-03, 7.59953680e-03, 1.03102168e-02,
          9.44857951e-03, 9.75363050e-03, 9.50744841e-03, 1.05724540e-02,
          9.13282391e-03, 1.05483709e-02, 8.91340058e-03, 1.01095252e-02,
          8.98297410e-03, 1.04707703e-02, 9.81785264e-03, 1.14528229e-02,
          1.26516232e-02, 1.23091089e-02, 1.44685544e-02, 1.38129611e-02,
          1.60473324e-02, 1.39226727e-02, 1.59777589e-02, 1.50545752e-02,
          1.76047012e-02, 1.57396048e-02, 1.40805505e-02, 1.13832504e-02,
          1.40056256e-02, 3.90412821e-03 ]
      - [ 0., 0., 0., 0., 3.50672100e-03, 2.92226765e-03, 0., 0.,
          1.16890704e-03, 1.16890704e-03, 5.84453519e-04, 0.,
          5.84453519e-04, 0., 0., 5.84453519e-04, 0., 0., 5.84453519e-04,
          1.22735240e-02, 5.84453519e-04, 0., 0., 0., 5.84453519e-04, 0.,
          5.84453519e-04, 5.26008150e-03, 0., 5.84453519e-04,
          2.92226765e-03, 2.92226765e-03, 5.84453519e-04, 1.75336050e-03,
          0., 2.33781408e-03, 0., 0., 0., 1.16890704e-03, 1.75336050e-03,
          0., 1.75336050e-03, 2.92226765e-03, 1.75336050e-03,
          2.92226765e-03, 0., 0., 0., 1.16890704e-03, 0., 1.16890704e-03,
          5.84453519e-04, 1.16890704e-03, 4.67562815e-03, 0.,
          5.84453531e-03, 0., 0., 0., 0., 0., 5.26008150e-03,
          2.33781408e-03, 1.16890704e-03, 5.84453519e-04, 2.33781408e-03,
          2.33781408e-03, 0., 5.84453519e-04, 1.16890704e-03, 0.,
          1.16890704e-03, 0., 1.16890704e-03, 5.84453519e-04,
          5.84453519e-04, 5.84453519e-04, 0., 0., 5.84453519e-04,
          5.84453519e-04, 0., 5.84453519e-04, 0., 0., 0., 0.,
          5.84453519e-04, 0., 5.84453519e-04, 5.84453519e-04, 0., 0.,
          5.84453519e-04, 5.84453519e-04, 0., 0., 0., 1.16890704e-03, 0.,
          0., 5.84453519e-04, 1.16890704e-03, 3.50672100e-03,
          6.42898865e-03, 5.84453519e-04, 0., 1.16890704e-03, 0.,
          3.50672100e-03, 1.16890704e-03, 5.84453519e-04, 0.,
          7.01344199e-03, 5.84453519e-04, 0., 0., 6.42898865e-03, 0., 0.,
          0., 0., 0., 5.84453519e-04, 0., 5.84453519e-04, 5.84453519e-04,
          5.84453519e-04, 0., 1.16890704e-03, 1.16890704e-03, 0.,
          5.84453519e-04, 1.16890704e-03, 1.16890704e-03, 1.75336050e-03,
          5.84453519e-04, 0., 7.59789580e-03, 3.50672100e-03,
          2.33781408e-03, 2.33781408e-03, 0., 0., 1.16890704e-03,
          1.75336050e-03, 5.84453519e-04, 8.18234961e-03, 0., 0.,
          1.75336050e-03, 0., 1.16890704e-03, 0., 1.16890704e-03,
          5.84453519e-04, 0., 0., 1.75336050e-03, 0., 1.75336050e-03,
          1.16890704e-03, 0., 2.33781408e-03, 0., 0., 2.33781408e-03, 0.,
          0., 1.16890704e-03, 2.92226765e-03, 1.75336050e-03,
          1.75336050e-03, 2.33781408e-03, 5.84453519e-04, 0.,
          1.75336050e-03, 5.84453519e-04, 0., 0., 0., 5.84453519e-04,
          5.84453531e-03, 0., 0., 2.33781408e-03, 0., 0., 2.33781408e-03,
          0., 1.16890704e-03, 1.16890704e-03, 2.33781408e-03, 0., 0.,
          5.84453519e-04, 0., 5.84453519e-04, 5.84453519e-04,
          2.33781408e-03, 0., 5.84453519e-04, 0., 0., 5.84453519e-04,
          5.84453519e-04, 7.01344199e-03, 5.84453519e-04, 0., 0., 0., 0.,
          0., 1.16890704e-03, 1.16890704e-03, 6.42898865e-03,
          1.16890704e-03, 5.84453519e-04, 0., 5.84453519e-04,
          3.50672100e-03, 1.75336050e-03, 1.16890704e-03, 0., 0.,
          5.84453519e-04, 5.84453519e-04, 0., 0., 5.84453519e-04,
          2.33781408e-03, 0., 0., 5.84453519e-04, 1.16890706e-02,
          7.59789580e-03, 1.75336050e-03, 0., 1.75336050e-03,
          1.16890704e-03, 5.84453519e-04, 1.75336050e-03, 1.75336050e-03,
          0., 0., 1.16890704e-03, 1.75336050e-03, 0., 5.84453519e-04, 0.,
          0., 1.75336050e-03, 0., 5.84453519e-04, 0., 1.75336050e-03,
          1.16890704e-03, 5.84453519e-04, 0., 5.84453519e-04,
          5.84453519e-04, 2.33781408e-03, 3.50672100e-03, 1.75336050e-03,
          0., 0., 5.84453519e-04, 1.16890704e-03, 0., 1.16890704e-03, 0.,
          5.84453519e-04, 0., 0., 1.16890704e-03, 0., 0., 0.,
          1.16890704e-03, 5.84453519e-04, 5.84453519e-04, 2.33781408e-03,
          0., 5.26008150e-03, 0., 1.16890704e-03, 0., 0., 0.,
          1.16890704e-03, 1.16890704e-03, 0., 5.84453519e-04,
          1.16890704e-03, 1.16890704e-03, 0., 0., 4.09117481e-03, 0.,
          5.84453519e-04, 0., 1.16890704e-03, 1.75336050e-03,
          1.75336050e-03, 1.75336050e-03, 1.75336050e-03, 1.16890704e-03,
          5.84453519e-04, 5.84453519e-04, 1.16890704e-03, 0.,
          5.84453531e-03, 5.84453519e-04, 3.50672100e-03, 1.75336050e-03,
          1.75336050e-03, 0., 5.84453519e-04, 0., 5.84453519e-04,
          5.84453519e-04, 5.84453531e-03, 1.16890704e-03, 1.16890704e-03,
          5.84453519e-04, 5.84453519e-04, 5.84453519e-04, 0., 0.,
          2.92226765e-03, 0., 5.84453519e-04, 0., 0., 1.16890704e-03, 0.,
          0., 2.33781408e-03, 0., 0., 5.84453519e-04, 1.16890704e-03, 0.,
          0., 1.75336050e-03, 2.33781408e-03, 1.75336050e-03, 0.,
          5.84453519e-04, 0., 4.67562815e-03, 1.16890704e-03,
          1.75336050e-03, 5.84453519e-04, 1.75336050e-03, 2.92226765e-03,
          2.33781408e-03, 1.16890704e-03, 5.84453519e-04, 5.84453519e-04,
          0., 0., 5.84453519e-04, 5.84453519e-04, 5.84453519e-04, 0.,
          5.84453519e-04, 1.16890704e-03, 0., 1.16890704e-03,
          1.75336050e-03, 2.92226765e-03, 0., 1.16890704e-03,
          5.84453519e-04, 0., 0., 0., 0., 0., 5.84453519e-04,
          5.84453519e-04, 5.84453519e-04, 5.84453519e-04, 5.26008150e-03,
          7.59789580e-03, 1.16890704e-03, 1.16890704e-03, 5.84453519e-04,
          5.84453519e-04, 0., 0., 3.50672100e-03, 5.84453519e-04,
          5.84453519e-04, 2.33781408e-03, 2.92226765e-03, 5.84453519e-04,
          5.84453519e-04, 5.84453519e-04, 1.16890704e-03, 5.84453519e-04,
          1.16890704e-03, 1.16890704e-03, 0., 0., 2.33781408e-03,
          3.50672100e-03, 1.75336050e-03, 0., 0., 5.84453519e-04, 0.,
          1.16890704e-03, 0., 2.33781408e-03, 0., 1.75336050e-03,
          1.75336050e-03, 5.84453519e-04, 0., 1.16890704e-03,
          1.75336050e-03, 5.84453519e-04, 0., 5.84453519e-04, 0., 0.,
          1.16890704e-03, 1.16890704e-03, 0., 5.84453519e-04,
          5.84453519e-04, 0., 0., 0., 0., 9.35125630e-03, 3.50672100e-03,
          0., 1.16890704e-03, 1.16890704e-03, 1.16890704e-03,
          1.75336050e-03, 5.84453519e-04, 0., 0., 5.84453519e-04, 0.,
          1.75336050e-03, 5.84453519e-04, 2.33781408e-03, 0.,
          5.84453519e-04, 0., 2.92226765e-03, 1.16890704e-03,
          5.84453519e-04, 0., 0., 0., 0., 1.16890704e-03, 5.84453519e-04,
          5.84453519e-04, 1.16890704e-03, 4.09117481e-03, 0., 0., 0.,
          1.16890704e-03, 1.16890704e-03, 1.75336050e-03, 0., 0., 0., 0.,
          5.84453519e-04, 2.33781408e-03, 5.84453519e-04, 0.,
          3.50672100e-03, 0., 7.01344199e-03, 0., 5.84453519e-04,
          5.84453519e-04, 2.92226765e-03, 0., 5.84453519e-04,
          5.84453519e-04, 0., 0., 5.84453519e-04, 0., 2.33781408e-03, 0.,
          0., 0., 5.84453519e-04, 0., 0., 4.67562815e-03, 5.84453519e-04,
          0., 0., 2.33781408e-03, 0., 0., 0., 0., 5.84453519e-04,
          5.84453519e-04, 1.16890704e-03, 5.84453519e-04, 5.84453519e-04,
          1.16890704e-03, 4.67562815e-03, 0., 0., 0., 0., 0.,
          6.42898865e-03, 0., 2.33781408e-03, 5.84453519e-04, 0.,
          2.33781408e-03, 5.84453519e-04, 1.75336050e-03, 0., 0.,
          5.84453519e-04, 2.33781408e-03, 1.75336050e-03, 0.,
          5.84453519e-04, 5.84453519e-04, 2.92226765e-03, 5.84453519e-04,
          2.33781408e-03, 1.11046173e-02, 0., 5.84453519e-04, 0., 0.,
          1.16890704e-03, 5.84453519e-04, 0., 0., 0., 1.16890704e-03,
          1.16890704e-03, 5.84453519e-04, 7.01344199e-03, 1.16890704e-03,
          0., 1.11046173e-02, 1.16890704e-03, 5.84453519e-04,
          1.75336050e-03, 0., 0., 5.84453519e-04, 1.75336050e-03,
          1.75336050e-03, 1.16890704e-03, 2.92226765e-03, 1.16890704e-03,
          5.84453519e-04, 0., 0., 5.26008150e-03, 5.84453519e-04,
          1.16890704e-03, 0., 0., 1.16890704e-03, 0., 0., 0.,
          5.84453519e-04, 1.16890704e-03, 2.33781408e-03, 0.,
          3.50672100e-03, 2.92226765e-03, 1.16890704e-03, 6.42898865e-03,
          1.16890704e-03, 5.84453519e-04, 0., 0., 1.16890704e-03,
          2.33781408e-03, 5.84453519e-04, 1.75336050e-03, 5.84453519e-04,
          0., 1.16890704e-03, 5.84453519e-04, 0., 2.33781408e-03, 0.,
          4.67562815e-03, 0., 5.84453519e-04, 0., 0., 0., 5.84453519e-04,
          0., 2.92226765e-03, 5.84453519e-04, 0., 1.16890704e-03,
          2.92226765e-03, 0., 0., 0., 1.16890704e-03, 1.16890704e-03,
          5.84453519e-04, 0., 0., 2.33781408e-03, 2.33781408e-03,
          3.50672100e-03, 0., 0., 0., 0., 0., 0., 0., 1.16890704e-03,
          1.75336050e-03, 0., 0., 0., 5.84453519e-04, 0., 0.,
          1.16890704e-03, 0., 2.33781408e-03, 1.16890704e-03,
          2.33781408e-03, 0., 8.18234961e-03, 0., 2.92226765e-03,
          1.16890704e-03, 0., 0., 2.33781408e-03, 2.33781408e-03,
          3.50672100e-03, 1.75336050e-03, 1.16890704e-03, 5.84453519e-04,
          1.75336050e-03, 0., 0., 0., 5.84453519e-04, 0., 1.75336050e-03,
          0., 0., 1.75336050e-03, 5.84453519e-04, 6.42898865e-03,
          5.84453519e-04, 0., 5.84453519e-04, 0., 5.84453519e-04,
          1.75336050e-03, 5.84453519e-04, 1.16890704e-03, 0.,
          5.84453519e-04, 0., 2.33781408e-03, 1.75336050e-03, 0., 0.,
          2.33781408e-03, 5.84453519e-04, 1.75336050e-03, 0.,
          5.84453519e-04, 1.16890704e-03, 1.16890704e-03, 0.,
          5.84453519e-04, 5.84453519e-04, 5.84453519e-04, 1.75336050e-03,
          1.75336050e-03, 0., 0., 5.84453519e-04, 0., 0., 0.,
          5.84453519e-04, 0., 1.16890704e-03, 0., 5.84453519e-04,
          5.84453519e-04, 0., 5.84453519e-04, 0., 0., 0., 1.16890704e-03,
          5.84453519e-04, 0., 5.84453519e-04, 0., 0., 5.84453519e-04, 0.,
          0., 0., 1.75336050e-03, 0., 5.84453519e-04, 0., 0.,
          1.75336050e-03, 1.75336050e-03, 5.84453519e-04, 1.16890704e-03,
          0., 5.84453519e-04, 5.84453519e-04, 0., 1.75336050e-03, 0., 0.,
          5.84453519e-04, 2.92226765e-03, 5.84453519e-04, 0.,
          1.16890704e-03, 1.75336050e-03, 1.75336050e-03, 0., 0.,
          1.16890704e-03, 0., 0., 0., 0., 0., 5.84453519e-04,
          5.26008150e-03, 0., 0., 5.84453519e-04, 0., 0., 5.84453519e-04,
          5.84453519e-04, 0., 0., 0., 0., 2.92226765e-03, 0., 0., 0.,
          1.75336050e-03, 3.50672100e-03, 2.33781408e-03, 0., 0.,
          5.84453519e-04, 5.84453519e-04, 0., 2.33781408e-03, 0., 0., 0.,
          1.16890704e-03, 5.26008150e-03, 5.84453519e-04, 0.,
          5.84453519e-04, 0., 0., 1.16890704e-03, 5.84453519e-04,
          5.84453519e-04, 5.84453519e-04, 5.84453519e-04, 0.,
          4.67562815e-03, 0., 1.75336050e-03, 5.84453519e-04, 0.,
          1.75336050e-03, 0., 1.75336050e-03, 5.84453519e-04,
          3.50672100e-03, 0., 0., 0., 1.16890704e-03, 0., 0.,
          5.84453519e-04, 0., 5.84453519e-04, 0., 5.84453519e-04,
          5.84453519e-04, 2.33781408e-03, 1.16890704e-03, 5.84453519e-04,
          0., 0., 0., 0., 1.16890704e-03, 0., 0., 5.84453519e-04, 0.,
          5.84453519e-04, 0., 1.16890704e-03, 1.16890704e-03, 0.,
          1.75336050e-03, 9.35125630e-03, 5.84453519e-04, 4.67562815e-03,
          0., 0., 0., 5.84453519e-04, 5.84453519e-04, 5.84453519e-04, 0.,
          1.22735240e-02, 0., 5.84453519e-04, 1.16890704e-03,
          5.84453519e-04, 0., 1.75336050e-03, 0., 0., 5.84453519e-04, 0.,
          0., 1.75336050e-03, 1.16890704e-03, 0., 1.16890704e-03, 0., 0.,
          4.09117481e-03, 0., 0., 5.84453519e-04, 2.33781408e-03,
          5.84453519e-04, 0., 5.84453519e-04, 1.75336050e-03, 0., 0.,
          5.84453519e-04, 0., 7.59789580e-03, 2.33781408e-03,
          1.16890704e-03, 1.16890704e-03, 5.84453519e-04, 0.,
          5.84453519e-04, 4.67562815e-03, 0., 1.16890704e-03,
          2.33781408e-03, 0., 2.92226765e-03, 0., 0., 0., 3.50672100e-03,
          1.75336050e-03, 0., 0., 7.01344199e-03, 2.92226765e-03, 0.,
          5.84453519e-04, 0., 2.92226765e-03, 0., 0., 5.84453519e-04, 0.,
          5.84453519e-04, 5.84453519e-04, 5.84453519e-04, 0., 0.,
          5.84453519e-04, 0., 0., 2.33781408e-03, 5.84453519e-04,
          1.16890704e-03, 0., 1.75336050e-03, 5.84453519e-04, 0.,
          5.84453519e-04, 0., 5.84453519e-04, 0., 1.16890704e-03, 0., 0.,
          1.16890704e-03, 6.42898865e-03, 1.16890704e-03, 0.,
          2.33781408e-03, 5.84453519e-04, 0., 1.16890704e-03, 0., 0.,
          5.26008150e-03, 0., 2.33781408e-03, 0., 6.42898865e-03, 0., 0.,
          0., 5.84453519e-04, 1.16890704e-03, 5.84453519e-04,
          5.84453519e-04, 5.84453519e-04, 1.16890704e-03, 0.,
          4.09117481e-03, 0., 1.16890704e-03, 0., 0., 1.16890704e-03,
          2.33781408e-03, 1.16890704e-03, 1.16890704e-03, 1.75336050e-03,
          5.84453519e-04, 0., 0., 0., 0., 4.09117481e-03, 0.,
          5.84453519e-04, 1.16890704e-03, 1.16890704e-03, 5.84453519e-04,
          2.33781408e-03, 5.84453519e-04, 5.84453519e-04, 0.,
          1.75336050e-03, 2.33781408e-03, 5.84453519e-04, 5.84453519e-04,
          0., 0., 1.75336050e-03, 0., 0., 1.16890704e-03, 5.84453519e-04,
          5.84453519e-04, 5.84453519e-04, 5.84453519e-04, 1.60883233e-01,
          4.03111577e-02, 2.74658874e-02, 2.30681822e-02, 1.42569635e-02,
          1.02929315e-02, 6.36955583e-03, 5.97428204e-03, 4.34123632e-03,
          4.27799253e-03, 3.21188243e-03, 3.32707656e-03, 2.65398179e-03,
          2.82112602e-03, 2.50038947e-03, 2.74433009e-03, 2.39874772e-03,
          1.72565272e-03, 1.57657801e-03, 1.20840874e-03, 1.23325444e-03,
          1.19033898e-03, 1.62175216e-03, 1.65563286e-03, 2.35131476e-03,
          1.69403083e-03, 1.07740366e-03, 5.78229199e-04, 4.90139588e-04,
          3.16219084e-05, 1.92103107e-02, 8.77959747e-03, 6.56832242e-03,
          1.52982278e-02, 2.63139457e-02, 3.01718190e-02, 2.72061359e-02,
          3.42284590e-02, 3.10346447e-02, 2.60067619e-02, 1.75433829e-02,
          1.60594117e-02, 1.03652105e-02, 8.32107943e-03, 6.14142651e-03,
          6.23855088e-03, 5.51802339e-03, 4.32090787e-03, 4.17635078e-03,
          2.99278786e-03, 3.01989238e-03, 2.57944432e-03, 2.83016078e-03,
          2.48909602e-03, 3.13508650e-03, 3.28641990e-03, 4.64842049e-03,
          2.85500661e-03, 1.66015024e-03, 3.34288750e-04, 1.07740359e-02,
          6.26565563e-03, 3.75623116e-03, 3.63426097e-03, 3.09894723e-03,
          3.30900704e-03, 3.07410141e-03, 3.97758465e-03, 5.28989360e-03,
          7.80835282e-03, 7.84223340e-03, 1.08033996e-02, 1.22309029e-02,
          1.77308563e-02, 1.70464683e-02, 1.97365880e-02, 2.27519646e-02,
          2.23589484e-02, 2.57334579e-02, 1.89392641e-02, 1.75049864e-02,
          1.31343855e-02, 1.35929035e-02, 1.27210421e-02, 1.46838594e-02,
          1.07175689e-02, 6.49152603e-03, 4.83815232e-03, 8.00486002e-03,
          5.48188388e-03 ]
      - [ 0., 0., 1.57728710e-03, 0., 0., 1.57728710e-03, 7.88643549e-04,
          3.15457419e-03, 0., 0., 7.88643549e-04, 0., 1.57728710e-03, 0.,
          3.15457419e-03, 2.36593070e-03, 0., 0., 7.88643549e-04,
          2.36593070e-03, 0., 7.88643549e-04, 4.73186141e-03, 0.,
          7.88643549e-04, 0., 3.15457419e-03, 7.88643549e-04,
          3.94321792e-03, 0., 0., 7.88643549e-04, 2.36593070e-03,
          1.57728710e-03, 0., 0., 5.52050490e-03, 0., 0., 7.88643549e-04,
          7.88643549e-04, 0., 0., 5.52050490e-03, 0., 0., 1.57728710e-03,
          7.88643549e-04, 0., 1.02523658e-02, 0., 1.57728710e-03, 0.,
          3.15457419e-03, 0., 0., 7.09779188e-03, 7.88643549e-04, 0.,
          7.88643549e-04, 0., 0., 1.02523658e-02, 0., 1.10410098e-02, 0.,
          0., 1.57728710e-03, 5.52050490e-03, 0., 1.57728710e-03,
          7.88643549e-04, 0., 7.88643549e-04, 0., 7.88643549e-04, 0., 0.,
          0., 0., 7.88643549e-04, 0., 7.88643549e-04, 7.88643549e-04, 0.,
          0., 0., 1.57728710e-03, 7.88643549e-04, 7.88643549e-04,
          7.09779188e-03, 2.36593070e-03, 3.94321792e-03, 0.,
          1.57728710e-03, 1.57728710e-03, 7.88643549e-04, 1.57728710e-03,
          7.88643549e-04, 0., 1.57728710e-03, 0., 0., 0., 2.36593070e-03,
          5.52050490e-03, 2.36593070e-03, 0., 0., 0., 0., 1.57728710e-03,
          3.15457419e-03, 0., 7.88643549e-04, 7.88643549e-04, 0.,
          7.88643549e-04, 7.88643549e-04, 0., 1.57728710e-03,
          1.57728710e-03, 1.57728710e-03, 0., 7.88643549e-04, 0.,
          3.94321792e-03, 7.88643549e-04, 1.57728710e-03, 0.,
          3.94321792e-03, 0., 0., 0., 0., 1.57728710e-03, 7.88643549e-04,
          0., 3.15457419e-03, 7.88643549e-04, 0., 1.57728710e-03, 0.,
          7.88643549e-04, 0., 7.88643549e-04, 0., 7.88643549e-04,
          7.88643549e-04, 0., 7.88643549e-04, 4.73186141e-03,
          7.88643549e-04, 0., 0., 0., 0., 1.57728710e-03, 0., 0., 0.,
          1.57728710e-03, 0., 1.57728710e-03, 3.94321792e-03, 0., 0.,
          7.88643549e-04, 1.57728710e-03, 7.88643549e-04, 0., 0., 0., 0.,
          1.57728710e-03, 0., 0., 7.88643549e-04, 0., 0., 7.88643549e-04,
          0., 7.88643549e-04, 0., 7.88643549e-04, 7.88643549e-04,
          7.88643549e-04, 7.88643549e-04, 0., 0., 0., 3.15457419e-03,
          1.57728710e-03, 1.57728710e-03, 0., 7.88643549e-04,
          7.88643549e-04, 7.88643549e-04, 7.88643549e-04, 0.,
          7.88643549e-04, 1.57728710e-03, 0., 0., 7.88643549e-04,
          7.88643549e-04, 0., 0., 0., 0., 2.36593070e-03, 0.,
          1.57728710e-03, 0., 3.15457419e-03, 2.36593070e-03,
          1.57728710e-03, 0., 0., 0., 0., 2.36593070e-03, 0.,
          2.36593070e-03, 0., 7.88643549e-04, 1.57728710e-03,
          7.88643549e-04, 7.88643549e-04, 0., 0., 1.57728710e-03,
          2.36593070e-03, 0., 0., 7.88643549e-04, 3.15457419e-03, 0., 0.,
          0., 7.88643549e-04, 1.57728710e-03, 0., 7.88643549e-04,
          7.88643549e-04, 3.94321792e-03, 7.88643549e-04, 7.88643549e-04,
          7.88643549e-04, 1.57728710e-03, 7.88643549e-04, 3.94321792e-03,
          7.88643549e-04, 0., 0., 0., 1.57728710e-03, 0., 1.57728710e-03,
          0., 0., 1.57728710e-03, 7.88643549e-04, 7.88643549e-04,
          1.57728710e-03, 0., 0., 1.57728710e-03, 0., 0., 3.15457419e-03,
          2.36593070e-03, 7.88643549e-04, 0., 1.57728710e-03,
          7.88643549e-04, 0., 7.88643549e-04, 7.88643549e-04,
          1.57728710e-03, 4.73186141e-03, 0., 2.36593070e-03, 0.,
          1.57728710e-03, 0., 7.88643549e-04, 3.15457419e-03,
          2.36593070e-03, 0., 6.30914839e-03, 0., 7.88643549e-04, 0., 0.,
          0., 0., 7.09779188e-03, 7.88643549e-04, 0., 0., 0.,
          2.36593070e-03, 1.57728710e-03, 0., 1.57728710e-03,
          1.57728710e-03, 3.94321792e-03, 0., 0., 1.57728710e-03,
          1.10410098e-02, 7.88643584e-03, 7.88643549e-04, 0.,
          7.88643549e-04, 0., 0., 0., 0., 7.88643549e-04, 7.88643549e-04,
          2.36593070e-03, 0., 0., 0., 2.36593070e-03, 0., 7.88643549e-04,
          1.57728710e-03, 1.57728710e-03, 0., 7.88643549e-04, 0., 0., 0.,
          0., 0., 0., 0., 1.57728710e-03, 0., 0., 0., 7.88643549e-04, 0.,
          1.57728710e-03, 5.52050490e-03, 7.88643549e-04, 7.88643549e-04,
          1.57728710e-03, 7.88643549e-04, 1.57728710e-03, 2.36593070e-03,
          1.57728710e-03, 1.57728710e-03, 0., 2.36593070e-03,
          7.88643549e-04, 7.88643549e-04, 0., 0., 7.88643549e-04, 0., 0.,
          7.88643549e-04, 0., 3.15457419e-03, 0., 7.88643549e-04, 0., 0.,
          0., 0., 3.15457419e-03, 7.88643549e-04, 0., 0., 6.30914839e-03,
          0., 0., 0., 0., 0., 0., 0., 7.88643584e-03, 0., 0.,
          3.15457419e-03, 0., 7.88643549e-04, 7.88643549e-04,
          1.57728710e-03, 7.88643549e-04, 0., 0., 0., 7.88643549e-04,
          2.36593070e-03, 1.57728710e-03, 1.57728710e-03, 2.36593070e-03,
          0., 0., 7.88643549e-04, 7.88643549e-04, 7.88643549e-04, 0., 0.,
          3.15457419e-03, 0., 2.36593070e-03, 0., 7.88643549e-04, 0., 0.,
          1.57728710e-03, 2.36593070e-03, 7.88643549e-04, 0., 0.,
          7.88643549e-04, 1.57728710e-03, 0., 0., 1.57728710e-03,
          7.88643549e-04, 0., 0., 0., 0., 7.88643549e-04, 0.,
          1.57728710e-03, 0., 1.57728710e-03, 0., 7.88643549e-04,
          1.57728710e-03, 0., 7.88643549e-04, 1.57728710e-03, 0., 0.,
          3.94321792e-03, 0., 0., 1.57728710e-03, 1.57728710e-03,
          7.88643549e-04, 7.88643549e-04, 4.73186141e-03, 2.36593070e-03,
          0., 3.15457419e-03, 1.57728710e-03, 7.88643549e-04, 0., 0., 0.,
          0., 0., 7.88643549e-04, 0., 0., 2.36593070e-03, 7.88643549e-04,
          0., 0., 0., 7.88643549e-04, 0., 2.36593070e-03, 1.57728710e-03,
          3.15457419e-03, 0., 0., 0., 3.15457419e-03, 7.88643549e-04,
          7.88643584e-03, 7.88643549e-04, 7.88643549e-04, 0.,
          7.88643549e-04, 7.88643549e-04, 0., 0., 0., 1.57728710e-03,
          7.88643549e-04, 0., 7.88643549e-04, 2.36593070e-03, 0.,
          7.88643549e-04, 0., 0., 0., 7.09779188e-03, 7.88643549e-04,
          7.88643549e-04, 0., 0., 0., 2.36593070e-03, 0., 0., 0.,
          3.15457419e-03, 1.57728710e-03, 1.57728710e-03, 7.88643549e-04,
          0., 0., 7.88643549e-04, 0., 2.36593070e-03, 7.88643549e-04,
          1.57728710e-03, 1.57728710e-03, 7.88643549e-04, 7.88643549e-04,
          0., 1.57728710e-03, 7.88643549e-04, 1.57728710e-03, 0., 0., 0.,
          7.88643549e-04, 0., 0., 0., 0., 7.88643549e-04, 0.,
          1.57728710e-03, 0., 2.36593070e-03, 0., 7.88643549e-04, 0., 0.,
          0., 1.57728710e-03, 7.88643584e-03, 0., 0., 0., 0., 0., 0., 0.,
          7.88643549e-04, 3.15457419e-03, 0., 1.57728710e-03,
          7.88643549e-04, 1.57728710e-03, 2.36593070e-03, 8.67507886e-03,
          2.36593070e-03, 0., 0., 0., 7.88643549e-04, 0., 0.,
          2.36593070e-03, 0., 0., 0., 0., 3.94321792e-03, 7.88643549e-04,
          4.73186141e-03, 1.57728710e-03, 2.36593070e-03, 0.,
          1.57728710e-03, 0., 0., 3.94321792e-03, 0., 7.88643549e-04,
          7.88643549e-04, 0., 7.88643549e-04, 2.36593070e-03,
          7.88643549e-04, 0., 0., 7.88643549e-04, 1.57728710e-03, 0.,
          7.88643549e-04, 7.88643549e-04, 7.88643549e-04, 0.,
          7.88643549e-04, 7.88643549e-04, 0., 1.57728710e-03,
          2.36593070e-03, 1.57728710e-03, 2.36593070e-03, 0., 0.,
          7.88643549e-04, 0., 7.88643549e-04, 0., 1.57728710e-03,
          3.94321792e-03, 0., 0., 1.57728710e-03, 0., 7.88643549e-04, 0.,
          0., 7.88643549e-04, 0., 0., 0., 0., 0., 5.52050490e-03, 0.,
          2.36593070e-03, 0., 7.88643549e-04, 0., 7.88643549e-04,
          7.88643549e-04, 1.57728710e-03, 7.88643549e-04, 7.88643549e-04,
          0., 0., 0., 0., 0., 2.36593070e-03, 0., 0., 0., 1.57728710e-03,
          7.88643549e-04, 5.52050490e-03, 7.88643549e-04, 7.88643584e-03,
          4.73186141e-03, 7.88643549e-04, 0., 2.36593070e-03,
          2.36593070e-03, 2.36593070e-03, 3.94321792e-03, 7.88643549e-04,
          0., 2.36593070e-03, 7.88643549e-04, 0., 0., 1.57728710e-03, 0.,
          0., 2.36593070e-03, 0., 7.88643549e-04, 0., 3.94321792e-03,
          7.88643549e-04, 0., 0., 0., 0., 0., 1.57728710e-03, 0., 0.,
          8.67507886e-03, 0., 0., 7.88643549e-04, 0., 0., 0.,
          3.15457419e-03, 0., 0., 0., 7.88643549e-04, 0., 7.88643549e-04,
          0., 0., 0., 7.88643549e-04, 7.88643549e-04, 0., 7.88643549e-04,
          7.88643549e-04, 2.36593070e-03, 7.88643549e-04, 5.52050490e-03,
          7.88643549e-04, 0., 3.94321792e-03, 1.57728710e-03,
          1.57728710e-03, 7.88643549e-04, 0., 0., 0., 1.57728710e-03,
          3.15457419e-03, 1.57728710e-03, 3.94321792e-03, 0.,
          7.88643549e-04, 0., 1.57728710e-03, 0., 0., 7.88643549e-04,
          1.57728710e-03, 1.57728710e-03, 0., 1.57728710e-03,
          1.57728710e-03, 1.57728710e-03, 0., 3.15457419e-03, 0., 0., 0.,
          0., 0., 0., 3.15457419e-03, 7.88643549e-04, 0., 7.88643549e-04,
          3.94321792e-03, 0., 0., 0., 1.57728710e-03, 0., 1.57728710e-03,
          0., 1.57728710e-03, 0., 0., 0., 0., 0., 7.88643549e-04,
          3.15457419e-03, 0., 1.57728710e-03, 0., 7.88643549e-04, 0., 0.,
          0., 3.15457419e-03, 0., 0., 0., 1.57728710e-03, 4.73186141e-03,
          0., 2.36593070e-03, 0., 0., 0., 7.88643549e-04, 2.36593070e-03,
          0., 0., 1.57728710e-03, 3.15457419e-03, 7.88643549e-04, 0., 0.,
          0., 0., 0., 0., 0., 0., 1.57728710e-03, 3.15457419e-03,
          7.88643549e-04, 0., 0., 0., 0., 0., 0., 7.88643549e-04, 0.,
          1.57728710e-03, 1.57728710e-03, 3.15457419e-03, 7.88643549e-04,
          0., 0., 0., 0., 2.36593070e-03, 0., 0., 1.57728710e-03,
          7.88643549e-04, 0., 7.88643549e-04, 5.52050490e-03, 0.,
          7.88643549e-04, 0., 0., 0., 0., 0., 6.30914839e-03, 0.,
          1.57728710e-03, 0., 2.36593070e-03, 0., 0., 0., 0.,
          2.36593070e-03, 3.15457419e-03, 0., 7.88643549e-04, 0., 0., 0.,
          0., 0., 7.88643549e-04, 1.02523658e-02, 7.88643549e-04, 0., 0.,
          0., 7.88643549e-04, 0., 1.57728710e-03, 3.15457419e-03, 0., 0.,
          0., 7.88643549e-04, 2.36593070e-03, 0., 0., 7.88643549e-04,
          3.15457419e-03, 0., 7.88643549e-04, 3.15457419e-03,
          7.88643549e-04, 0., 0., 0., 0., 3.15457419e-03, 0., 0.,
          5.52050490e-03, 0., 3.94321792e-03, 0., 0., 0., 3.94321792e-03,
          0., 7.88643549e-04, 1.57728710e-03, 7.88643549e-04,
          1.57728710e-03, 7.88643549e-04, 5.52050490e-03, 1.57728710e-03,
          0., 7.88643549e-04, 0., 0., 0., 4.73186141e-03, 0.,
          2.36593070e-03, 0., 7.88643549e-04, 0., 7.88643549e-04,
          7.88643584e-03, 0., 0., 7.88643549e-04, 7.88643549e-04,
          1.57728710e-03, 0., 7.88643549e-04, 0., 0., 9.46372282e-03, 0.,
          0., 0., 7.88643549e-04, 0., 0., 3.15457419e-03, 2.36593070e-03,
          2.36593070e-03, 0., 7.88643549e-04, 7.88643549e-04, 0., 0.,
          1.57728710e-03, 0., 0., 2.36593070e-03, 3.15457419e-03, 0.,
          7.88643549e-04, 1.57728710e-03, 1.57728710e-03, 0.,
          3.15457419e-03, 7.88643549e-04, 0., 7.88643549e-04, 0.,
          2.36593070e-03, 1.57728710e-03, 1.57728710e-03, 0., 0.,
          7.88643549e-04, 0., 3.94321792e-03, 0., 0., 7.88643549e-04, 0.,
          0., 0., 0., 0., 0., 7.88643549e-04, 7.88643549e-04, 0., 0., 0.,
          2.36593070e-03, 0., 7.88643549e-04, 0., 2.36593070e-03, 0., 0.,
          7.88643549e-04, 0., 2.36593070e-03, 7.88643549e-04, 0.,
          5.52050490e-03, 4.73186141e-03, 0., 7.09779188e-03, 0., 0.,
          3.15457419e-03, 0., 7.88643549e-04, 7.88643549e-04,
          7.88643549e-04, 4.73186141e-03, 0., 0., 0., 0., 3.15457419e-03,
          7.88643549e-04, 0., 1.57728710e-03, 7.88643549e-04,
          1.18161961e-01, 7.90137649e-02, 5.41712753e-02, 3.57434340e-02,
          1.70325916e-02, 9.80405137e-03, 4.46436414e-03, 3.08008236e-03,
          2.04022555e-03, 1.68921892e-03, 1.14077120e-03, 9.25779692e-04,
          7.63439224e-04, 6.84462721e-04, 5.50641504e-04, 6.38393103e-04,
          6.09873852e-04, 5.55029081e-04, 6.95431663e-04, 4.91409155e-04,
          4.71665029e-04, 2.89580377e-04, 1.88666003e-04, 8.33640515e-05,
          3.29068607e-05, 4.38758161e-06, 4.38758161e-06, 2.19379081e-06,
          0., 0., 2.08410132e-03, 1.55759149e-03, 1.18464709e-03,
          1.61243626e-03, 3.18757794e-03, 1.09141096e-02, 2.03210842e-02,
          3.66911516e-02, 4.04447280e-02, 4.78487723e-02, 3.98809239e-02,
          3.93302813e-02, 2.35876385e-02, 1.47247240e-02, 1.13309296e-02,
          1.20131988e-02, 1.26033286e-02, 5.09836990e-03, 2.41097598e-03,
          1.16051536e-03, 9.71849309e-04, 8.99454230e-04, 1.12980232e-03,
          9.27973539e-04, 7.02013029e-04, 3.66363063e-04, 2.63254886e-04,
          6.58137214e-05, 1.75503264e-05, 2.19379081e-06, 8.81903921e-04,
          9.21392115e-04, 7.87570898e-04, 7.78795744e-04, 7.17369607e-04,
          8.66547343e-04, 9.71849309e-04, 1.56636664e-03, 2.17404659e-03,
          5.05668763e-03, 8.16528965e-03, 1.52468458e-02, 1.81777515e-02,
          2.40593031e-02, 2.61587612e-02, 3.11825424e-02, 3.02940570e-02,
          2.35986076e-02, 2.17975061e-02, 1.58852395e-02, 1.60563551e-02,
          1.58720762e-02, 2.00841557e-02, 1.23005854e-02, 1.08987531e-02,
          1.45667708e-02, 1.20395236e-02, 1.81865261e-03, 3.15905869e-04,
          9.21392129e-05 ]
      - [ 5.83819859e-03, 5.56018902e-04, 5.56018902e-04, 0.,
          5.56018902e-04, 2.78009451e-04, 0., 2.78009451e-04,
          8.34028353e-04, 4.72616078e-03, 1.11203780e-03, 1.66805671e-03,
          1.66805671e-03, 8.34028353e-04, 5.56018902e-04, 2.78009451e-04,
          3.05810384e-03, 1.94606616e-03, 5.56018902e-04, 1.39004725e-03,
          8.34028353e-04, 1.11203780e-03, 0., 1.39004725e-03,
          8.34028353e-04, 0., 2.78009451e-04, 5.56018902e-04,
          5.56018902e-04, 2.78009451e-04, 0., 5.56018902e-03,
          2.78009451e-04, 2.78009451e-04, 0., 1.39004725e-03, 0., 0.,
          2.78009451e-04, 2.78009451e-04, 8.34028353e-04, 5.56018902e-04,
          1.11203780e-03, 2.78009451e-04, 0., 2.50208518e-03,
          8.34028353e-04, 5.56018902e-04, 0., 5.56018902e-04, 0.,
          1.11203780e-03, 0., 1.39004725e-03, 0., 2.78009451e-04,
          2.78009451e-04, 4.17014165e-03, 5.00417035e-03, 5.56018902e-04,
          2.78009451e-04, 1.66805671e-03, 5.56018902e-03, 2.78009451e-04,
          5.56018902e-04, 5.56018902e-04, 2.78009451e-04, 5.56018902e-04,
          0., 6.39421726e-03, 8.34028353e-04, 2.78009451e-04, 0.,
          1.11203780e-03, 2.78009451e-04, 1.39004725e-03, 0., 0.,
          1.39004725e-03, 0., 8.34028353e-04, 0., 3.33611341e-03, 0., 0.,
          5.56018902e-04, 5.56018902e-04, 0., 2.22407561e-03,
          8.34028353e-04, 2.78009451e-04, 0., 8.34028353e-04,
          2.78009451e-04, 8.34028353e-04, 1.39004725e-03, 0.,
          1.39004725e-03, 0., 1.11203780e-03, 1.94606616e-03, 0., 0.,
          4.44815122e-03, 8.34028353e-04, 2.78009451e-04, 2.78009451e-04,
          1.94606616e-03, 5.56018902e-04, 0., 0., 2.50208518e-03,
          5.56018902e-04, 0., 0., 1.66805671e-03, 0., 0., 1.11203780e-03,
          2.78009451e-03, 0., 0., 5.56018902e-04, 2.78009451e-04,
          8.34028353e-04, 0., 0., 1.39004725e-03, 1.11203780e-03, 0.,
          5.56018902e-04, 5.00417035e-03, 4.17014165e-03, 3.61412298e-03,
          5.56018902e-04, 1.11203780e-03, 1.39004725e-03, 0., 0.,
          2.78009451e-04, 0., 5.56018902e-04, 0., 0., 0., 1.11203780e-03,
          8.34028353e-04, 2.78009451e-04, 0., 1.11203780e-03, 0.,
          3.05810384e-03, 5.83819859e-03, 5.56018902e-04, 3.89213231e-03,
          0., 9.45232157e-03, 0., 2.78009451e-04, 1.11203780e-03, 0.,
          1.11203780e-03, 8.34028353e-04, 0., 1.11203780e-03,
          4.17014165e-03, 5.56018902e-03, 5.56018902e-04, 1.11203780e-03,
          0., 5.56018902e-04, 3.89213231e-03, 8.34028353e-04,
          1.11203780e-03, 5.56018902e-04, 2.78009451e-04, 2.78009451e-04,
          2.78009451e-04, 5.28217945e-03, 5.56018902e-03, 0.,
          1.11203780e-03, 5.56018902e-04, 1.66805671e-03, 2.22407561e-03,
          0., 1.11203780e-03, 1.39004725e-03, 0., 0., 1.39004725e-03,
          8.34028353e-04, 0., 8.34028353e-04, 8.34028353e-04,
          2.78009451e-04, 0., 4.17014165e-03, 2.78009451e-04,
          1.11203780e-03, 1.11203780e-03, 0., 0., 1.94606616e-03,
          1.66805671e-03, 5.56018902e-04, 5.00417035e-03, 2.50208518e-03,
          8.34028353e-04, 5.56018902e-04, 5.56018902e-04, 3.05810384e-03,
          8.34028353e-04, 0., 2.78009451e-04, 1.39004725e-03,
          5.56018902e-04, 1.39004725e-03, 1.39004725e-03, 1.94606616e-03,
          0., 2.50208518e-03, 8.34028353e-04, 5.56018902e-04,
          5.56018902e-04, 2.50208518e-03, 5.56018902e-04, 1.11203780e-03,
          3.61412298e-03, 3.89213231e-03, 2.22407561e-03, 5.56018902e-04,
          0., 0., 1.94606616e-03, 0., 0., 5.56018902e-04, 2.78009451e-04,
          1.11203780e-03, 8.34028353e-04, 2.78009451e-04, 0.,
          5.56018902e-04, 3.05810384e-03, 8.34028353e-04, 1.11203780e-03,
          1.11203780e-03, 8.34028353e-04, 6.11620769e-03, 2.78009451e-04,
          2.78009451e-04, 1.39004725e-03, 0., 8.34028353e-04,
          8.34028353e-04, 5.56018902e-04, 2.50208518e-03, 1.11203780e-03,
          4.44815122e-03, 5.56018902e-04, 5.56018902e-04, 1.11203780e-03,
          8.34028353e-04, 0., 2.22407561e-03, 5.56018902e-04,
          2.78009451e-04, 2.78009451e-04, 0., 0., 8.34028353e-04,
          1.66805671e-03, 1.94606616e-03, 5.56018902e-04, 0., 0.,
          5.56018902e-04, 0., 2.78009451e-04, 0., 1.94606616e-03,
          1.94606616e-03, 5.56018902e-04, 5.56018902e-04, 0.,
          2.78009451e-03, 0., 2.78009451e-04, 0., 2.78009451e-03,
          8.34028353e-04, 2.78009451e-04, 1.39004725e-03, 5.56018902e-04,
          0., 2.78009451e-04, 8.34028353e-04, 8.34028353e-04,
          2.78009451e-03, 0., 2.78009451e-04, 8.34028353e-04,
          2.78009451e-04, 1.11203780e-03, 0., 1.39004725e-03,
          5.56018902e-04, 1.39004725e-03, 2.78009451e-03, 2.78009451e-04,
          0., 5.28217945e-03, 5.56018902e-04, 2.78009451e-04, 0., 0.,
          8.34028353e-04, 0., 0., 3.05810384e-03, 5.56018902e-04,
          1.11203780e-03, 1.11203780e-03, 8.34028353e-04, 2.78009451e-03,
          2.78009451e-04, 0., 2.78009451e-04, 1.11203780e-03, 0., 0.,
          5.56018902e-04, 8.34028353e-04, 5.56018902e-04, 0., 0.,
          2.78009451e-04, 8.34028353e-04, 5.56018902e-04, 0.,
          2.78009451e-04, 5.56018902e-04, 2.78009451e-04, 0.,
          1.11203780e-03, 2.78009451e-04, 5.56018902e-04, 2.50208518e-03,
          2.78009451e-04, 2.50208518e-03, 5.56018902e-04, 5.56018902e-04,
          1.66805671e-03, 5.56018902e-04, 2.78009451e-04, 1.66805671e-03,
          1.11203780e-03, 1.11203780e-03, 1.66805671e-03, 2.78009451e-04,
          5.56018902e-04, 0., 1.66805671e-03, 2.78009451e-04,
          5.56018902e-04, 8.34028353e-04, 8.34028353e-04, 4.72616078e-03,
          0., 2.78009451e-03, 8.34028353e-04, 5.56018902e-04,
          8.34028353e-04, 1.11203780e-03, 1.11203780e-03, 0.,
          8.34028353e-04, 2.78009451e-04, 8.34028353e-04, 0.,
          5.56018902e-04, 8.34028353e-04, 1.11203780e-03, 1.66805671e-03,
          8.34028353e-04, 1.11203780e-03, 5.56018902e-04, 5.56018902e-04,
          1.11203780e-03, 8.34028353e-04, 5.56018902e-04, 2.50208518e-03,
          0., 5.56018902e-04, 2.78009451e-04, 1.39004725e-03,
          1.66805671e-03, 8.34028353e-04, 5.56018902e-04, 0., 0.,
          8.34028353e-04, 2.78009451e-04, 0., 2.78009451e-04, 0.,
          5.56018902e-03, 0., 0., 0., 1.94606616e-03, 2.22407561e-03,
          2.78009451e-04, 2.78009451e-04, 5.56018902e-04, 2.78009451e-04,
          0., 0., 1.11203780e-03, 3.89213231e-03, 0., 2.78009451e-04,
          1.39004725e-03, 3.05810384e-03, 8.34028353e-04, 1.39004725e-03,
          2.78009451e-03, 5.56018902e-04, 8.34028353e-04, 5.56018902e-04,
          0., 8.34028353e-04, 1.11203780e-03, 2.78009451e-04,
          1.94606616e-03, 5.56018902e-04, 5.00417035e-03, 5.56018902e-04,
          5.56018902e-04, 5.56018902e-04, 0., 2.78009451e-04,
          2.78009451e-04, 0., 5.56018902e-04, 0., 3.61412298e-03,
          1.66805671e-03, 2.78009451e-03, 5.56018902e-04, 1.39004725e-03,
          1.11203780e-03, 1.11203780e-03, 2.78009451e-04, 1.11203780e-03,
          8.34028353e-04, 1.11203780e-03, 5.56018902e-04, 1.66805671e-03,
          7.22824596e-03, 2.22407561e-03, 2.78009451e-04, 0.,
          2.78009451e-04, 2.22407561e-03, 8.34028353e-04, 2.78009451e-04,
          1.11203780e-03, 0., 0., 1.39004725e-03, 5.56018902e-04,
          1.94606616e-03, 1.39004725e-03, 8.34028353e-04, 5.56018902e-04,
          0., 2.78009451e-04, 8.34028353e-04, 0., 5.56018902e-04,
          4.17014165e-03, 0., 0., 5.56018902e-04, 5.00417035e-03,
          1.11203780e-03, 1.39004725e-03, 1.11203780e-03, 8.34028353e-04,
          0., 0., 2.22407561e-03, 1.39004725e-03, 1.11203780e-03,
          2.78009451e-04, 0., 5.56018902e-04, 1.39004725e-03,
          2.78009451e-04, 1.94606616e-03, 3.05810384e-03, 5.56018902e-04,
          2.78009451e-04, 0., 0., 0., 2.78009451e-03, 2.78009451e-04,
          2.78009451e-04, 0., 1.11203780e-03, 1.11203780e-03,
          5.56018902e-04, 0., 0., 5.56018902e-04, 0., 5.56018902e-04,
          2.78009451e-04, 1.11203780e-03, 1.39004725e-03, 2.78009451e-04,
          1.11203780e-03, 0., 2.78009451e-04, 2.78009451e-04,
          1.94606616e-03, 1.11203780e-03, 2.78009451e-04, 8.34028353e-04,
          5.56018902e-04, 8.34028353e-04, 2.78009451e-03, 8.34028353e-04,
          1.39004725e-03, 5.56018902e-04, 3.33611341e-03, 0., 0.,
          4.17014165e-03, 8.34028353e-04, 1.94606616e-03, 2.22407561e-03,
          0., 2.78009451e-04, 2.78009451e-04, 8.34028353e-04, 0.,
          2.22407561e-03, 5.56018902e-04, 1.94606616e-03, 0.,
          1.11203780e-03, 0., 1.94606616e-03, 8.34028353e-04, 0.,
          8.34028353e-04, 5.56018902e-04, 1.11203780e-03, 8.34028353e-04,
          2.78009451e-04, 8.34028353e-04, 0., 2.78009451e-04,
          8.34028353e-04, 2.78009451e-04, 0., 2.78009451e-04,
          5.56018902e-04, 0., 2.78009451e-04, 2.78009451e-04,
          2.78009451e-04, 8.34028353e-04, 5.56018902e-04, 0.,
          1.66805671e-03, 2.78009451e-04, 8.34028353e-04, 0.,
          1.66805671e-03, 2.78009451e-04, 1.39004725e-03, 5.56018902e-04,
          2.78009451e-04, 1.94606616e-03, 0., 1.39004725e-03,
          8.34028353e-04, 5.83819859e-03, 0., 2.78009451e-04,
          2.78009451e-04, 5.56018902e-04, 2.78009451e-04, 2.78009451e-04,
          2.50208518e-03, 2.50208518e-03, 2.78009451e-03, 0.,
          1.08423689e-02, 1.66805671e-03, 0., 1.11203780e-03, 0.,
          8.34028353e-04, 5.56018902e-04, 2.78009451e-04, 5.56018902e-04,
          1.66805671e-03, 2.78009451e-04, 1.11203780e-03, 8.34028353e-04,
          0., 2.78009451e-04, 1.39004725e-03, 5.56018902e-04,
          8.34028353e-04, 1.11203780e-03, 0., 0., 1.94606616e-03,
          2.78009451e-04, 2.78009451e-04, 0., 8.34028353e-04, 0., 0., 0.,
          8.34028353e-04, 5.56018902e-04, 5.56018902e-04, 2.78009451e-04,
          5.56018902e-04, 1.11203780e-03, 8.34028353e-04, 8.34028353e-04,
          5.56018902e-03, 8.34028353e-04, 8.34028353e-04, 1.11203780e-03,
          0., 0., 9.45232157e-03, 5.56018902e-04, 8.34028353e-04,
          2.78009451e-04, 2.78009451e-04, 2.78009451e-03, 2.78009451e-04,
          0., 8.34028353e-04, 3.05810384e-03, 2.78009451e-04, 0.,
          3.61412298e-03, 1.11203780e-03, 2.78009451e-04, 5.56018902e-04,
          0., 1.11203780e-03, 0., 5.56018902e-04, 2.22407561e-03,
          2.78009451e-04, 5.56018902e-04, 5.56018902e-04, 1.94606616e-03,
          8.34028353e-04, 1.94606616e-03, 1.66805671e-03, 3.05810384e-03,
          2.78009451e-04, 0., 5.56018902e-04, 2.22407561e-03,
          8.34028353e-04, 1.66805671e-03, 5.56018902e-04, 1.11203780e-03,
          2.78009451e-04, 2.78009451e-04, 0., 5.56018902e-04, 0., 0.,
          5.56018902e-04, 5.56018902e-04, 8.34028353e-04, 2.78009451e-04,
          8.34028353e-04, 3.33611341e-03, 8.34028353e-04, 8.34028353e-04,
          5.56018902e-04, 3.89213231e-03, 1.11203780e-03, 4.44815122e-03,
          8.34028353e-04, 0., 2.78009451e-04, 8.34028353e-04,
          1.39004725e-03, 0., 2.78009451e-04, 0., 5.56018902e-04,
          2.78009451e-04, 5.56018902e-04, 8.34028353e-04, 0.,
          1.39004725e-03, 2.78009451e-04, 5.56018902e-04, 8.34028353e-04,
          1.39004725e-03, 0., 2.78009451e-04, 2.78009451e-04,
          1.94606616e-03, 5.56018902e-04, 8.34028353e-04, 1.39004725e-03,
          1.94606616e-03, 0., 1.39004725e-03, 5.56018902e-04, 0., 0.,
          1.66805671e-03, 5.56018902e-04, 2.78009451e-04, 1.11203780e-03,
          2.78009451e-04, 5.00417035e-03, 1.94606616e-03, 7.50625506e-03,
          1.11203780e-03, 2.22407561e-03, 5.00417035e-03, 0.,
          4.72616078e-03, 3.61412298e-03, 2.78009451e-04, 2.78009451e-04,
          2.78009451e-04, 0., 2.78009451e-03, 5.56018902e-04,
          2.50208518e-03, 0., 5.56018902e-04, 8.34028353e-04,
          5.56018902e-04, 5.56018902e-04, 0., 5.56018902e-04,
          2.50208518e-03, 5.56018902e-04, 2.78009451e-03, 0.,
          5.56018902e-04, 1.11203780e-03, 8.34028353e-04, 0.,
          5.56018902e-04, 1.11203780e-03, 1.11203780e-03, 1.11203780e-03,
          2.78009451e-04, 5.56018902e-04, 0., 0., 0., 5.56018902e-04,
          1.11203780e-03, 0., 8.34028353e-04, 1.11203780e-03,
          5.56018902e-04, 5.56018902e-04, 1.39004725e-03, 0.,
          5.56018902e-04, 2.78009451e-04, 1.39004725e-03, 0.,
          2.78009451e-04, 0., 0., 6.95023639e-03, 1.66805671e-03,
          1.94606616e-03, 0., 0., 5.56018902e-04, 0., 2.78009451e-04, 0.,
          5.56018902e-04, 2.78009451e-04, 1.39004725e-03, 2.78009451e-04,
          8.34028353e-04, 2.78009451e-04, 1.11203780e-03, 5.28217945e-03,
          2.78009451e-04, 5.56018902e-04, 1.11203780e-03, 2.50208518e-03,
          1.11203780e-03, 5.56018902e-04, 0., 5.56018902e-04,
          2.22407561e-03, 2.78009451e-04, 0., 2.78009451e-04, 0.,
          1.11203780e-03, 8.34028353e-04, 2.78009451e-04, 2.78009451e-04,
          0., 3.05810384e-03, 2.78009451e-04, 5.56018902e-04,
          2.78009451e-04, 1.39004725e-03, 2.78009451e-04, 5.56018902e-04,
          1.39004725e-03, 5.56018902e-04, 8.34028353e-04, 2.78009451e-04,
          8.34028353e-04, 2.78009451e-04, 2.78009451e-04, 1.94606616e-03,
          1.94606616e-03, 8.34028353e-04, 0., 5.56018902e-04,
          5.56018902e-04, 3.61412298e-03, 0., 2.78009451e-04,
          2.78009451e-04, 1.11203780e-03, 0., 2.78009451e-03,
          2.78009451e-04, 0., 5.56018902e-04, 1.11203780e-03, 0.,
          2.78009451e-03, 0., 1.66805671e-03, 1.00083407e-02, 0.,
          5.56018902e-04, 5.83819859e-03, 0., 5.56018902e-04,
          2.78009451e-04, 2.78009451e-04, 8.34028353e-04, 5.28217945e-03,
          1.11203780e-03, 0., 0., 8.34028353e-04, 5.56018902e-04,
          1.11203780e-03, 8.34028353e-04, 8.34028353e-04, 1.39004725e-03,
          1.11203780e-03, 0., 0., 8.34028353e-04, 2.78009451e-04,
          1.66805671e-03, 0., 2.78009451e-04, 1.11203780e-03,
          5.56018902e-04, 5.56018902e-04, 1.66805671e-03, 5.56018902e-04,
          0., 2.78009451e-04, 2.78009451e-04, 2.22407561e-03,
          2.22407561e-03, 5.56018902e-04, 2.78009451e-04, 4.44815122e-03,
          1.11203780e-03, 2.50208518e-03, 0., 0., 5.56018902e-04,
          1.66805671e-03, 2.22407561e-03, 2.78009451e-04, 0., 0.,
          1.11203780e-03, 5.56018902e-04, 0., 1.39004725e-03, 0.,
          2.78009451e-04, 1.11203780e-03, 4.44815122e-03, 5.56018902e-04,
          1.11203780e-03, 1.39004725e-03, 1.66805671e-03, 2.78009451e-04,
          1.66805671e-03, 0., 2.78009451e-04, 0., 2.78009451e-04, 0.,
          5.00417035e-03, 1.39004725e-03, 1.39004725e-03, 0.,
          1.66805671e-03, 1.11203780e-03, 5.56018902e-04, 2.78009451e-04,
          1.11203780e-03, 8.34028353e-04, 0., 5.56018902e-04,
          5.56018902e-04, 2.78009451e-04, 0., 0., 1.11203780e-03,
          2.78009451e-03, 5.56018902e-04, 2.78009451e-04, 2.78009451e-04,
          3.05810384e-03, 2.50208518e-03, 0., 0., 2.78009451e-04,
          2.78009451e-04, 0., 0., 2.78009451e-04, 5.56018902e-04,
          2.78009451e-04, 1.11203780e-03, 0., 2.50208518e-03, 0.,
          1.11203780e-03, 2.78009451e-04, 4.17014165e-03, 0.,
          5.56018902e-04, 1.66805671e-03, 5.56018902e-04, 5.56018902e-04,
          5.56018902e-04, 6.67222682e-03, 2.50208518e-03, 1.39004725e-03,
          2.78009451e-04, 1.11203780e-03, 0., 1.11203780e-03, 0., 0.,
          8.34028353e-04, 3.89213231e-03, 0., 8.34028353e-04, 0.,
          7.50625506e-03, 5.56018902e-04, 0., 2.22407561e-03,
          1.94606616e-03, 1.39004725e-03, 8.34028353e-04, 0., 0.,
          1.67980209e-01, 4.56726104e-02, 3.69585231e-02, 3.19264121e-02,
          1.91240497e-02, 1.34559814e-02, 7.25290552e-03, 4.83527035e-03,
          2.31669005e-03, 1.47379842e-03, 7.79800874e-04, 6.38477737e-04,
          3.00311658e-04, 2.70028133e-04, 1.31228633e-04, 1.23657752e-04,
          4.03780396e-05, 4.03780396e-05, 1.26181376e-05, 0., 0., 0., 0.,
          0., 0., 0., 0., 0., 0., 0., 6.80117588e-03, 1.12957563e-02,
          1.49045438e-02, 1.74332187e-02, 1.57953836e-02, 1.73297506e-02,
          1.51064340e-02, 1.73146073e-02, 1.59468018e-02, 1.72262806e-02,
          1.50559619e-02, 1.68729741e-02, 1.34988837e-02, 1.47808865e-02,
          1.40187507e-02, 1.60527937e-02, 1.71909500e-02, 1.36402063e-02,
          1.50004420e-02, 1.12049058e-02, 1.17424382e-02, 1.03393020e-02,
          8.80493596e-03, 3.34380637e-03, 1.82458269e-03, 5.52674406e-04,
          2.32173727e-04, 2.27126475e-05, 0., 0., 4.03780396e-05,
          2.29650104e-04, 8.27749784e-04, 2.52110395e-03, 3.57598020e-03,
          5.52169699e-03, 6.38225395e-03, 9.11281910e-03, 9.30713769e-03,
          1.19190924e-02, 1.06698973e-02, 1.21462187e-02, 1.11468630e-02,
          1.19216163e-02, 1.10307755e-02, 1.19317109e-02, 1.18080527e-02,
          1.02408798e-02, 1.17172021e-02, 1.00844158e-02, 1.12932334e-02,
          9.95318685e-03, 1.07355108e-02, 1.02484515e-02, 1.38749043e-02,
          1.69613007e-02, 2.62432024e-02, 2.12590378e-02, 1.82609688e-02,
          3.23680453e-02 ]
      - [ 0., 1.28164049e-03, 2.24287086e-03, 4.80615161e-03,
          1.60205062e-03, 1.60205062e-03, 0., 9.61230369e-04,
          9.61230369e-04, 2.24287086e-03, 6.40820246e-04, 0.,
          6.40820246e-04, 3.20410123e-03, 3.20410123e-04, 6.40820246e-04,
          2.88369111e-03, 0., 1.60205062e-03, 3.20410123e-04,
          3.20410123e-04, 9.61230369e-04, 3.20410123e-04, 0.,
          6.40820246e-04, 0., 9.61230369e-04, 0., 1.60205062e-03,
          3.20410123e-04, 9.61230369e-04, 6.40820246e-04, 0.,
          2.24287086e-03, 0., 0., 6.40820246e-04, 0., 1.92246074e-03,
          3.20410123e-04, 1.28164049e-03, 9.61230369e-04, 3.20410123e-04,
          9.61230369e-04, 9.61230369e-04, 6.40820246e-04, 1.92246074e-03,
          9.61230369e-04, 0., 0., 6.40820246e-04, 3.20410123e-04,
          9.61230369e-04, 9.61230369e-04, 9.61230369e-04, 3.20410123e-04,
          3.20410123e-04, 9.61230369e-04, 3.20410123e-04, 9.61230369e-04,
          3.20410123e-04, 1.60205062e-03, 2.56328098e-03, 9.61230369e-04,
          0., 0., 6.40820246e-04, 9.61230369e-04, 0., 8.65107309e-03,
          1.92246074e-03, 1.28164049e-03, 0., 4.48574172e-03,
          6.40820246e-04, 9.61230369e-04, 0., 4.48574172e-03, 0., 0.,
          1.28164049e-03, 0., 0., 6.40820246e-04, 0., 3.20410123e-03,
          9.61230369e-04, 3.20410123e-04, 3.20410123e-04, 0.,
          1.60205062e-03, 3.20410123e-04, 3.52451135e-03, 3.20410123e-04,
          6.40820246e-04, 1.28164049e-03, 6.40820246e-04, 1.28164049e-03,
          0., 9.61230369e-04, 6.40820246e-04, 3.20410123e-04, 0.,
          6.40820246e-04, 0., 1.92246074e-03, 1.60205062e-03,
          1.60205062e-03, 0., 0., 9.61230369e-04, 6.40820246e-04,
          6.40820246e-04, 0., 3.20410123e-04, 0., 2.56328098e-03, 0.,
          1.28164049e-03, 0., 5.76738222e-03, 1.15347644e-02,
          3.20410123e-04, 9.61230369e-04, 1.28164049e-03, 0.,
          3.20410123e-04, 1.92246074e-03, 0., 0., 3.20410123e-04,
          9.61230369e-04, 9.61230369e-04, 3.20410123e-04, 2.56328098e-03,
          9.61230369e-04, 9.61230369e-04, 2.24287086e-03, 3.20410123e-04,
          6.40820246e-04, 0., 6.40820246e-04, 9.61230369e-04,
          3.20410123e-04, 0., 9.61230369e-04, 3.20410123e-04, 0., 0.,
          2.24287086e-03, 3.20410123e-04, 2.56328098e-03, 3.20410123e-04,
          1.28164049e-03, 2.56328098e-03, 0., 1.60205062e-03, 0.,
          3.52451135e-03, 1.60205062e-03, 0., 1.28164049e-03,
          3.20410123e-04, 0., 1.60205062e-03, 0., 0., 0., 6.40820246e-04,
          0., 3.20410123e-04, 1.92246074e-03, 1.28164049e-03,
          1.60205062e-03, 0., 6.40820246e-04, 2.56328098e-03, 0.,
          6.40820246e-04, 6.40820246e-04, 2.56328098e-03, 0.,
          9.61230369e-04, 6.40820246e-04, 9.61230369e-04, 3.20410123e-04,
          1.28164049e-03, 0., 0., 9.61230369e-04, 1.28164049e-03,
          3.20410123e-04, 3.20410123e-04, 6.40820246e-04, 3.20410123e-04,
          6.40820246e-04, 3.20410123e-03, 3.20410123e-04, 1.28164049e-03,
          9.61230369e-04, 2.88369111e-03, 1.92246074e-03, 8.65107309e-03,
          9.61230369e-04, 1.60205062e-03, 3.20410123e-04, 4.48574172e-03,
          1.60205062e-03, 0., 3.20410123e-04, 3.20410123e-04,
          9.61230369e-04, 1.60205062e-03, 0., 6.40820246e-04,
          4.48574172e-03, 9.61230369e-04, 3.20410123e-04, 3.20410123e-04,
          0., 0., 9.61230369e-04, 1.92246074e-03, 0., 0., 6.40820246e-04,
          1.28164049e-03, 0., 0., 3.20410123e-04, 1.28164049e-03,
          3.20410123e-04, 3.20410123e-04, 3.20410123e-03, 2.24287086e-03,
          0., 3.20410123e-04, 0., 0., 9.61230369e-04, 9.61230369e-04,
          1.28164049e-03, 0., 9.61230369e-04, 6.40820246e-04,
          6.40820246e-04, 3.20410123e-04, 3.20410123e-04, 2.24287086e-03,
          3.20410123e-04, 0., 1.28164049e-03, 4.16533183e-03, 0., 0.,
          1.60205062e-03, 1.28164049e-03, 3.20410123e-04, 1.28164049e-03,
          2.24287086e-03, 6.40820246e-04, 2.56328098e-03, 2.24287086e-03,
          6.40820246e-04, 2.24287086e-03, 6.40820246e-04, 0.,
          1.60205062e-03, 9.61230369e-04, 0., 3.20410123e-04,
          6.40820246e-04, 1.60205062e-03, 9.61230369e-04, 4.16533183e-03,
          0., 0., 1.60205062e-03, 3.20410123e-04, 0., 6.40820246e-04,
          3.20410123e-04, 1.28164049e-03, 3.20410123e-04, 3.20410123e-04,
          3.20410123e-04, 6.40820246e-04, 1.92246074e-03, 6.40820246e-04,
          3.20410123e-04, 0., 6.40820246e-04, 1.28164049e-03,
          6.40820246e-04, 6.40820246e-04, 1.28164049e-03, 6.40820246e-04,
          0., 0., 9.61230369e-04, 3.20410123e-04, 9.61230369e-04,
          9.61230369e-04, 6.40820246e-04, 6.40820246e-04, 6.40820246e-04,
          0., 0., 9.61230369e-04, 2.24287086e-03, 0., 3.20410123e-04,
          1.60205062e-03, 9.61230369e-04, 6.40820246e-04, 0., 0.,
          6.40820246e-04, 3.20410123e-04, 3.20410123e-04, 9.61230369e-04,
          6.40820246e-04, 6.40820246e-04, 4.80615161e-03, 6.40820246e-04,
          9.61230369e-04, 6.40820246e-04, 9.61230369e-04, 9.61230369e-04,
          1.28164049e-03, 6.40820246e-04, 0., 3.20410123e-03,
          6.40820246e-04, 1.60205062e-03, 0., 0., 1.28164049e-03, 0.,
          3.20410123e-04, 3.20410123e-04, 3.52451135e-03, 1.60205062e-03,
          3.20410123e-04, 2.24287086e-03, 9.61230369e-04, 0.,
          9.61230369e-04, 9.61230369e-04, 4.48574172e-03, 3.20410123e-04,
          0., 1.60205062e-03, 6.40820246e-04, 3.20410123e-04,
          9.61230369e-04, 9.61230369e-04, 1.92246074e-03, 1.60205062e-03,
          0., 3.20410123e-04, 0., 3.20410123e-04, 0., 0., 0.,
          1.28164049e-03, 3.20410123e-04, 3.20410123e-04, 2.88369111e-03,
          3.20410123e-04, 1.28164049e-03, 3.20410123e-04, 3.84492148e-03,
          6.40820246e-04, 1.92246074e-03, 0., 3.20410123e-04,
          6.40820246e-04, 6.40820246e-04, 0., 0., 1.60205062e-03, 0.,
          2.56328098e-03, 6.40820246e-04, 9.61230369e-04, 9.61230369e-04,
          0., 3.20410123e-04, 2.24287086e-03, 2.24287086e-03, 0., 0.,
          6.40820246e-04, 6.40820246e-04, 3.84492148e-03, 9.61230369e-04,
          0., 3.20410123e-04, 0., 3.20410123e-04, 1.28164049e-03, 0.,
          2.24287086e-03, 9.61230369e-04, 0., 6.40820246e-04, 0., 0., 0.,
          0., 3.20410123e-04, 5.44697233e-03, 1.28164049e-03,
          2.24287086e-03, 0., 6.40820246e-04, 0., 0., 3.20410123e-04, 0.,
          0., 1.28164049e-03, 6.40820246e-04, 2.88369111e-03,
          1.28164049e-03, 2.56328098e-03, 0., 6.40820246e-04, 0.,
          1.28164049e-03, 1.60205062e-03, 1.60205062e-03, 3.20410123e-04,
          0., 0., 3.20410123e-03, 0., 0., 0., 3.20410123e-04,
          3.20410123e-04, 6.40820246e-04, 1.92246074e-03, 3.20410123e-04,
          0., 3.20410123e-04, 9.61230369e-04, 6.40820246e-04,
          1.60205062e-03, 6.40820246e-04, 9.61230369e-04, 6.40820246e-04,
          6.40820246e-04, 0., 1.60205062e-03, 3.20410123e-04,
          3.20410123e-04, 0., 3.20410123e-04, 1.02531239e-02, 0.,
          1.60205062e-03, 0., 0., 1.60205062e-03, 0., 0., 3.20410123e-04,
          1.60205062e-03, 3.52451135e-03, 1.92246074e-03, 1.28164049e-03,
          3.20410123e-04, 2.88369111e-03, 4.16533183e-03, 3.52451135e-03,
          6.40820246e-04, 1.60205062e-03, 0., 9.61230369e-04,
          2.56328098e-03, 1.60205062e-03, 4.48574172e-03, 1.60205062e-03,
          3.20410123e-04, 2.24287086e-03, 3.20410123e-04, 0.,
          3.20410123e-04, 3.20410123e-04, 9.61230369e-04, 3.84492148e-03,
          0., 3.20410123e-04, 6.40820246e-04, 0., 3.20410123e-04,
          6.40820246e-04, 0., 6.40820246e-04, 9.61230369e-04,
          1.28164049e-03, 9.61230369e-04, 0., 0., 0., 6.40820246e-04,
          3.20410123e-04, 6.40820246e-04, 2.24287086e-03, 6.40820246e-04,
          6.40820246e-04, 0., 0., 0., 0., 3.20410123e-04, 6.40820246e-04,
          3.20410123e-04, 6.40820246e-04, 3.20410123e-04, 0.,
          6.40820246e-04, 0., 0., 3.20410123e-04, 2.24287086e-03,
          3.20410123e-04, 0., 1.28164049e-03, 3.20410123e-04,
          1.60205062e-03, 3.20410123e-04, 9.61230369e-04, 0.,
          2.88369111e-03, 3.20410123e-04, 9.61230369e-04, 6.40820246e-04,
          5.76738222e-03, 0., 9.61230369e-04, 0., 3.20410123e-04,
          1.92246074e-03, 0., 6.40820246e-04, 3.20410123e-04,
          9.61230369e-04, 2.88369111e-03, 1.60205062e-03, 0., 0.,
          6.40820246e-04, 1.92246074e-03, 3.20410123e-04, 3.52451135e-03,
          6.40820246e-04, 1.60205062e-03, 3.20410123e-04, 3.84492148e-03,
          1.92246074e-03, 6.40820246e-04, 0., 0., 0., 1.60205062e-03, 0.,
          9.61230369e-04, 0., 0., 0., 0., 6.40820246e-04, 6.40820246e-04,
          0., 3.20410123e-04, 1.92246074e-03, 1.92246074e-03,
          3.84492148e-03, 3.20410123e-04, 9.61230369e-04, 3.20410123e-04,
          0., 0., 0., 6.40820246e-04, 0., 3.20410123e-04, 2.88369111e-03,
          0., 0., 6.40820246e-04, 1.92246074e-03, 1.60205062e-03,
          9.61230369e-04, 9.61230369e-04, 1.92246074e-03, 9.61230369e-04,
          6.40820246e-04, 5.12656197e-03, 1.28164049e-03, 3.20410123e-04,
          0., 3.20410123e-03, 0., 6.40820246e-04, 0., 5.76738222e-03,
          6.40820246e-04, 3.20410123e-04, 0., 3.20410123e-04, 0., 0., 0.,
          2.56328098e-03, 6.40820246e-04, 2.24287086e-03, 9.61230369e-04,
          0., 0., 0., 0., 1.60205062e-03, 0., 1.28164049e-03, 0.,
          1.28164049e-03, 0., 3.20410123e-04, 6.40820246e-04,
          7.36943260e-03, 3.20410123e-04, 1.60205062e-03, 3.20410123e-04,
          3.20410123e-04, 0., 0., 0., 3.20410123e-04, 0., 0.,
          6.40820246e-04, 0., 1.28164049e-03, 4.16533183e-03,
          1.60205062e-03, 0., 1.28164049e-03, 3.52451135e-03,
          1.28164049e-03, 6.40820246e-04, 3.20410123e-04, 0.,
          3.20410123e-04, 6.40820246e-04, 6.40820246e-03, 3.20410123e-04,
          3.20410123e-04, 1.92246074e-03, 2.88369111e-03, 9.61230369e-04,
          2.56328098e-03, 0., 1.28164049e-03, 6.40820246e-04, 0.,
          3.20410123e-04, 0., 3.20410123e-04, 6.40820246e-04,
          9.61230369e-04, 3.20410123e-04, 3.20410123e-04, 6.40820246e-04,
          0., 3.20410123e-04, 9.61230369e-04, 3.20410123e-04,
          6.40820246e-04, 2.24287086e-03, 6.40820246e-04, 0.,
          9.61230369e-04, 9.61230369e-04, 3.20410123e-03, 0.,
          1.60205062e-03, 0., 0., 6.40820246e-04, 1.92246074e-03,
          1.60205062e-03, 3.20410123e-04, 0., 0., 6.40820246e-04,
          6.40820246e-04, 4.16533183e-03, 9.61230369e-04, 1.28164049e-03,
          0., 6.40820246e-04, 3.20410123e-03, 3.20410123e-03,
          6.40820246e-04, 9.61230369e-04, 1.28164049e-03, 3.20410123e-04,
          3.20410123e-04, 0., 2.88369111e-03, 0., 6.40820246e-04,
          3.20410123e-04, 3.20410123e-04, 0., 6.40820246e-04, 0.,
          2.56328098e-03, 3.52451135e-03, 6.40820246e-04, 0.,
          3.20410123e-04, 0., 6.40820246e-04, 3.20410123e-04, 0.,
          6.40820246e-04, 1.92246074e-03, 4.16533183e-03, 1.28164049e-03,
          3.84492148e-03, 2.56328098e-03, 0., 0., 3.20410123e-04,
          9.61230369e-04, 1.40980454e-02, 0., 0., 6.40820246e-04, 0.,
          6.40820246e-04, 6.40820246e-04, 9.61230369e-04, 3.20410123e-04,
          2.56328098e-03, 3.20410123e-04, 0., 9.61230369e-04, 0.,
          1.92246074e-03, 3.20410123e-04, 5.44697233e-03, 0.,
          8.33066367e-03, 0., 0., 6.40820246e-04, 1.60205062e-03,
          1.60205062e-03, 2.56328098e-03, 0., 9.61230369e-04,
          2.24287086e-03, 3.20410123e-04, 2.88369111e-03, 7.68984295e-03,
          6.40820246e-04, 3.52451135e-03, 6.40820246e-04, 0., 0.,
          3.20410123e-04, 0., 0., 0., 1.92246074e-03, 0., 1.28164049e-03,
          1.28164049e-03, 2.56328098e-03, 1.28164049e-03, 3.20410123e-03,
          2.88369111e-03, 0., 1.92246074e-03, 2.24287086e-03, 0., 0.,
          1.60205062e-03, 0., 6.40820246e-04, 9.61230369e-04,
          1.92246074e-03, 0., 1.60205062e-03, 6.40820246e-04,
          1.60205062e-03, 1.60205062e-03, 6.40820246e-04, 6.40820246e-04,
          7.36943260e-03, 2.88369111e-03, 3.20410123e-04, 6.40820246e-04,
          9.61230369e-04, 3.20410123e-04, 2.24287086e-03, 0.,
