%YAML:1.0
my_svm: !!opencv-ml-svm
   svm_type: C_SVC
   kernel: { type:RBF, gamma:3.0517578125000000e-05 }
   C: 3.1250000000000000e-02
   term_criteria: { epsilon:1.1920928955078125e-07, iterations:1000 }
   var_all: 1090
   var_count: 1090
   class_count: 2
   class_labels: !!opencv-matrix
      rows: 1
      cols: 2
      dt: i
      data: [ 0, 1 ]
   sv_total: 9
   support_vectors:
      - [ 6.28072070e-03, 0., 5.46149618e-04, 0., 8.19224399e-04,
          1.91152364e-03, 0., 1.63844880e-03, 5.46149618e-04,
          5.18842135e-03, 2.73074809e-04, 0., 1.09229924e-03,
          1.09229924e-03, 0., 2.73074809e-04, 4.64227190e-03, 0.,
          2.73074809e-04, 2.73074809e-04, 5.46149618e-04, 1.36537408e-03,
          2.73074809e-04, 2.73074809e-04, 1.09229924e-03, 0.,
          2.73074809e-04, 0., 1.63844880e-03, 1.09229924e-03,
          1.09229924e-03, 2.45767320e-03, 1.09229924e-03, 5.46149618e-04,
          0., 1.36537408e-03, 0., 1.36537408e-03, 5.46149618e-04,
          2.73074809e-04, 2.73074809e-04, 8.19224399e-04, 4.36919695e-03,
          1.36537408e-03, 5.46149618e-04, 8.19224399e-04, 8.19224399e-04,
          0., 0., 1.36537408e-03, 2.73074809e-04, 1.63844880e-03, 0.,
          1.91152364e-03, 2.73074809e-04, 2.73074809e-04, 0.,
          3.27689759e-03, 3.00382287e-03, 5.46149618e-04, 0.,
          2.73074809e-04, 3.27689759e-03, 1.09229924e-03, 2.73074809e-04,
          0., 0., 5.46149618e-04, 5.46149618e-04, 3.00382287e-03,
          2.73074809e-04, 2.18459847e-03, 0., 0., 5.46149618e-04, 0., 0.,
          0., 0., 0., 8.19224399e-04, 0., 2.45767320e-03, 1.09229924e-03,
          0., 2.73074809e-04, 2.73074809e-04, 0., 2.73074809e-04,
          2.73074809e-04, 8.19224399e-04, 0., 1.09229924e-03, 0.,
          5.46149618e-04, 0., 5.46149618e-04, 3.27689759e-03, 0.,
          8.19224399e-04, 5.18842135e-03, 0., 0., 3.82304727e-03,
          5.46149618e-04, 8.19224399e-04, 5.46149618e-04, 1.63844880e-03,
          8.19224399e-04, 0., 8.19224399e-04, 2.18459847e-03,
          2.73074809e-04, 0., 0., 1.36537408e-03, 0., 0., 1.36537408e-03,
          1.09229924e-03, 1.09229924e-03, 5.46149618e-04, 2.18459847e-03,
          0., 1.63844880e-03, 0., 5.46149618e-04, 1.36537408e-03,
          8.19224399e-04, 0., 5.46149618e-04, 2.45767320e-03,
          5.73457079e-03, 3.54997255e-03, 1.63844880e-03, 2.73074809e-04,
          2.73074809e-04, 0., 0., 0., 0., 1.09229924e-03, 8.19224399e-04,
          0., 2.73074809e-04, 2.18459847e-03, 2.73074815e-03,
          5.46149618e-04, 0., 2.73074815e-03, 0., 3.82304727e-03,
          5.73457079e-03, 1.09229924e-03, 6.00764574e-03, 8.19224399e-04,
          1.06499176e-02, 0., 0., 1.09229924e-03, 0., 2.73074809e-04,
          2.73074809e-04, 2.73074809e-04, 1.09229924e-03, 3.00382287e-03,
          1.91152364e-03, 2.73074809e-04, 1.63844880e-03, 5.46149618e-04,
          5.46149618e-04, 3.54997255e-03, 2.73074815e-03, 3.00382287e-03,
          8.19224399e-04, 5.46149618e-04, 1.36537408e-03, 1.09229924e-03,
          2.73074815e-03, 4.64227190e-03, 8.19224399e-04, 5.46149618e-04,
          8.19224399e-04, 8.19224399e-04, 6.00764574e-03, 2.73074809e-04,
          0., 6.00764574e-03, 2.73074809e-04, 0., 5.46149618e-04,
          2.73074809e-04, 2.73074809e-04, 5.46149618e-04, 0.,
          5.46149618e-04, 1.63844880e-03, 4.09612199e-03, 0.,
          1.09229924e-03, 0., 0., 5.46149618e-04, 1.36537408e-03,
          2.18459847e-03, 5.46149618e-04, 4.36919695e-03, 4.09612199e-03,
          0., 0., 1.36537408e-03, 2.18459847e-03, 8.19224399e-04,
          2.73074809e-04, 2.73074809e-04, 1.09229924e-03, 2.73074809e-04,
          1.91152364e-03, 2.18459847e-03, 2.45767320e-03, 1.36537408e-03,
          8.19224399e-04, 2.73074809e-04, 0., 0., 3.00382287e-03,
          2.73074809e-04, 8.19224399e-04, 2.18459847e-03, 2.73074815e-03,
          2.45767320e-03, 2.73074809e-04, 2.73074809e-04, 0.,
          1.63844880e-03, 0., 2.73074809e-04, 0., 2.73074809e-04,
          1.63844880e-03, 8.19224399e-04, 2.73074809e-04, 0.,
          2.73074809e-04, 2.18459847e-03, 0., 2.73074809e-04, 0.,
          5.46149618e-04, 4.36919695e-03, 0., 1.63844880e-03,
          1.36537408e-03, 0., 0., 1.09229924e-03, 2.73074815e-03,
          1.91152364e-03, 8.19224399e-04, 4.36919695e-03, 0.,
          8.19224399e-04, 5.46149618e-04, 0., 5.46149618e-04, 0.,
          2.73074809e-04, 1.09229924e-03, 0., 2.73074809e-04,
          2.73074809e-04, 2.73074809e-04, 2.73074809e-04, 1.91152364e-03,
          5.46149618e-04, 5.46149618e-04, 0., 1.36537408e-03, 0., 0., 0.,
          1.91152364e-03, 1.63844880e-03, 5.46149618e-04, 0.,
          1.09229924e-03, 1.36537408e-03, 8.19224399e-04, 2.73074809e-04,
          2.73074809e-04, 1.09229924e-03, 3.00382287e-03, 5.46149618e-04,
          1.63844880e-03, 5.46149618e-04, 8.19224399e-04, 2.73074809e-04,
          5.46149618e-04, 5.46149618e-04, 1.63844880e-03, 0., 0.,
          5.46149618e-04, 0., 0., 1.09229924e-03, 8.19224399e-04,
          5.46149618e-04, 5.46149618e-04, 1.36537408e-03, 5.46149618e-04,
          0., 4.91534639e-03, 1.09229924e-03, 0., 2.73074809e-04, 0.,
          5.46149618e-04, 0., 2.73074809e-04, 2.18459847e-03,
          1.09229924e-03, 1.09229924e-03, 2.73074809e-04, 5.46149618e-04,
          1.91152364e-03, 5.46149618e-04, 0., 0., 0., 0., 0.,
          8.19224399e-04, 1.36537408e-03, 8.19224399e-04, 2.73074809e-04,
          0., 2.73074815e-03, 0., 5.46149618e-04, 0., 1.09229924e-03,
          2.73074809e-04, 2.73074809e-04, 2.73074809e-04, 0.,
          1.36537408e-03, 2.73074809e-04, 1.09229924e-03, 0.,
          6.55379519e-03, 1.09229924e-03, 0., 1.91152364e-03,
          1.36537408e-03, 1.36537408e-03, 1.36537408e-03, 1.63844880e-03,
          2.45767320e-03, 1.36537408e-03, 0., 2.73074809e-04,
          2.73074809e-04, 0., 0., 2.73074809e-04, 6.82687014e-03,
          5.46149618e-04, 2.45767320e-03, 5.46149618e-04, 2.45767320e-03,
          5.46149618e-04, 0., 8.19224399e-04, 8.19224399e-04,
          5.46149618e-04, 0., 1.09229924e-03, 2.73074809e-04,
          2.73074809e-04, 0., 0., 3.00382287e-03, 1.63844880e-03,
          8.19224399e-04, 1.63844880e-03, 8.19224399e-04, 1.36537408e-03,
          0., 1.09229924e-03, 1.09229924e-03, 8.19224399e-04,
          4.36919695e-03, 0., 2.73074809e-04, 2.73074809e-04,
          2.73074815e-03, 0., 1.09229924e-03, 1.09229924e-03, 0., 0.,
          1.09229924e-03, 5.46149618e-04, 2.73074809e-04, 0., 0.,
          2.45767320e-03, 0., 2.73074809e-04, 0., 5.46149618e-04,
          1.36537408e-03, 0., 1.91152364e-03, 1.63844880e-03, 0.,
          2.73074809e-04, 8.19224399e-04, 2.73074809e-04, 2.45767320e-03,
          0., 8.19224399e-04, 2.73074809e-04, 2.45767320e-03,
          2.73074809e-04, 2.73074809e-04, 5.46149618e-04, 0.,
          2.73074809e-04, 0., 0., 5.46149618e-04, 1.63844880e-03, 0.,
          3.54997255e-03, 1.36537408e-03, 1.91152364e-03, 0.,
          2.73074809e-04, 0., 8.19224399e-04, 0., 2.73074809e-04,
          8.19224399e-04, 1.36537408e-03, 0., 8.19224399e-04,
          1.91152364e-03, 1.36537408e-03, 8.19224399e-04, 5.46149618e-04,
          0., 5.46149618e-04, 2.18459847e-03, 1.09229924e-03,
          8.19224399e-04, 1.09229924e-03, 2.73074809e-04, 0.,
          9.28454380e-03, 2.73074809e-04, 0., 1.36537408e-03, 0.,
          6.82687014e-03, 8.19224399e-04, 0., 2.73074809e-04, 0., 0.,
          1.91152364e-03, 8.19224399e-04, 1.63844880e-03, 1.36537408e-03,
          1.09229924e-03, 5.46149618e-04, 2.73074809e-04, 2.73074809e-04,
          8.19224399e-04, 2.73074809e-04, 2.73074809e-04, 4.64227190e-03,
          2.73074809e-04, 8.19224399e-04, 1.09229924e-03, 4.64227190e-03,
          1.09229924e-03, 1.36537408e-03, 8.19224399e-04, 2.73074809e-04,
          0., 8.19224399e-04, 2.45767320e-03, 5.46149618e-04, 0.,
          1.09229924e-03, 5.46149618e-04, 1.09229924e-03, 8.19224399e-04,
          1.36537408e-03, 2.18459847e-03, 5.18842135e-03, 5.46149618e-04,
          0., 0., 8.19224399e-04, 2.73074809e-04, 3.82304727e-03,
          5.46149618e-04, 1.36537408e-03, 0., 2.73074809e-04,
          2.18459847e-03, 1.63844880e-03, 0., 5.46149618e-04,
          5.46149618e-04, 0., 0., 2.73074809e-04, 0., 2.45767320e-03,
          2.73074809e-04, 0., 5.46149618e-04, 1.09229924e-03,
          2.73074809e-04, 1.36537408e-03, 5.46149618e-04, 8.19224399e-04,
          5.46149618e-04, 2.73074809e-04, 0., 4.09612199e-03,
          5.46149618e-04, 5.46149618e-04, 8.19224399e-04, 2.18459847e-03,
          1.09229924e-03, 2.73074809e-04, 5.18842135e-03, 1.09229924e-03,
          2.73074809e-04, 4.09612199e-03, 0., 2.73074809e-04,
          2.73074809e-04, 3.54997255e-03, 0., 2.73074815e-03,
          2.73074809e-04, 1.63844880e-03, 0., 8.19224399e-04,
          8.19224399e-04, 8.19224399e-04, 2.73074809e-04, 0.,
          1.36537408e-03, 2.73074809e-04, 1.36537408e-03, 1.91152364e-03,
          2.73074809e-04, 5.46149618e-04, 0., 0., 1.36537408e-03,
          2.73074809e-04, 0., 5.46149618e-04, 5.46149618e-04, 0., 0., 0.,
          5.46149618e-04, 1.09229924e-03, 0., 0., 5.46149618e-04, 0.,
          1.09229924e-03, 8.19224399e-04, 1.09229924e-03, 0.,
          1.09229924e-03, 0., 0., 0., 1.09229924e-03, 2.73074809e-04,
          5.46149618e-04, 3.27689759e-03, 0., 1.09229924e-03,
          1.36537408e-03, 1.09229924e-03, 5.46149618e-04, 5.46149618e-04,
          2.45767320e-03, 2.45767320e-03, 5.18842135e-03, 0.,
          1.36537403e-02, 8.19224399e-04, 8.19224399e-04, 5.46149618e-04,
          2.73074809e-04, 8.19224399e-04, 0., 1.09229924e-03,
          3.82304727e-03, 1.20152915e-02, 0., 8.19224399e-04,
          5.46149618e-04, 0., 0., 2.18459847e-03, 0., 2.73074809e-04,
          1.91152364e-03, 2.73074809e-04, 2.73074809e-04, 3.00382287e-03,
          1.09229924e-03, 5.46149618e-04, 2.73074809e-04, 8.19224399e-04,
          2.73074809e-04, 0., 5.46149618e-04, 2.73074809e-04, 0.,
          2.18459847e-03, 0., 1.09229924e-03, 1.36537408e-03,
          2.73074809e-04, 2.73074809e-04, 1.36537408e-03, 2.73074809e-04,
          5.46149618e-04, 0., 0., 2.73074809e-04, 7.91916903e-03, 0.,
          1.63844880e-03, 2.73074809e-04, 2.73074809e-04, 2.73074815e-03,
          8.19224399e-04, 0., 1.63844880e-03, 3.54997255e-03, 0., 0.,
          1.63844880e-03, 1.63844880e-03, 0., 0., 0., 1.09229924e-03, 0.,
          8.19224399e-04, 5.46149618e-04, 2.73074809e-04, 0.,
          1.63844880e-03, 8.19224399e-04, 0., 3.54997255e-03,
          4.64227190e-03, 8.19224399e-04, 0., 0., 0., 5.46149618e-04, 0.,
          5.46149618e-04, 2.73074809e-04, 1.63844880e-03, 2.73074809e-04,
          2.73074809e-04, 0., 8.19224399e-04, 0., 0., 0., 2.73074815e-03,
          5.46149618e-04, 2.73074809e-04, 1.63844880e-03, 1.36537408e-03,
          1.09229924e-03, 0., 0., 3.82304727e-03, 5.46149618e-04,
          4.36919695e-03, 2.73074809e-04, 0., 5.46149618e-04,
          2.73074809e-04, 1.09229924e-03, 5.46149618e-04, 8.19224399e-04,
          5.46149618e-04, 1.36537408e-03, 1.36537408e-03, 1.09229924e-03,
          1.09229924e-03, 0., 1.36537408e-03, 0., 1.91152364e-03,
          2.73074809e-04, 8.19224399e-04, 0., 8.19224399e-04,
          5.46149618e-04, 3.00382287e-03, 1.09229924e-03, 5.46149618e-04,
          8.19224399e-04, 1.91152364e-03, 2.73074809e-04, 3.00382287e-03,
          2.73074809e-04, 8.19224399e-04, 5.46149618e-04, 1.09229924e-03,
          5.46149618e-04, 2.73074809e-04, 1.36537408e-03, 8.19224399e-04,
          3.27689759e-03, 0., 4.91534639e-03, 2.73074809e-04,
          3.27689759e-03, 3.54997255e-03, 0., 1.91152364e-03,
          1.09229924e-03, 0., 2.73074809e-04, 0., 0., 3.27689759e-03,
          5.46149618e-04, 2.45767320e-03, 8.19224399e-04, 2.73074809e-04,
          1.63844880e-03, 2.73074809e-04, 2.73074809e-04, 0.,
          2.73074809e-04, 2.73074809e-04, 1.09229924e-03, 8.19224399e-04,
          2.73074809e-04, 1.09229924e-03, 8.19224399e-04, 5.46149618e-04,
          0., 2.73074809e-04, 5.46149618e-04, 1.63844880e-03,
          1.63844880e-03, 0., 1.36537408e-03, 5.46149618e-04, 0., 0.,
          2.73074809e-04, 0., 5.46149618e-04, 5.46149618e-04,
          5.46149618e-04, 1.91152364e-03, 1.09229924e-03, 2.18459847e-03,
          2.73074809e-04, 2.18459847e-03, 1.36537408e-03, 1.91152364e-03,
          0., 1.09229924e-03, 2.73074809e-04, 2.73074809e-04,
          9.55761876e-03, 8.19224399e-04, 3.00382287e-03, 0.,
          1.36537408e-03, 5.46149618e-04, 0., 2.73074809e-04, 0., 0.,
          1.36537408e-03, 3.00382287e-03, 2.73074809e-04, 8.19224399e-04,
          1.09229924e-03, 1.09229924e-03, 1.36537408e-03, 1.36537408e-03,
          5.46149618e-04, 3.27689759e-03, 3.27689759e-03, 2.73074815e-03,
          2.73074809e-04, 0., 0., 2.18459847e-03, 0., 0., 2.73074809e-04,
          0., 2.18459847e-03, 0., 0., 1.36537408e-03, 0., 1.63844880e-03,
          2.73074809e-04, 1.09229924e-03, 5.46149618e-04, 8.19224399e-04,
          0., 1.09229924e-03, 8.19224399e-04, 0., 8.19224399e-04,
          5.46149618e-04, 5.46149618e-04, 0., 0., 2.73074815e-03,
          1.09229924e-03, 5.46149618e-04, 1.09229924e-03, 8.19224399e-04,
          0., 1.63844880e-03, 0., 1.09229924e-03, 2.73074809e-04,
          8.19224399e-04, 0., 1.09229924e-03, 5.46149618e-04, 0.,
          1.63844880e-03, 1.09229924e-03, 0., 5.46149618e-04,
          2.73074809e-04, 5.46149618e-04, 6.00764574e-03, 0., 0.,
          4.36919695e-03, 0., 2.73074809e-04, 8.19224399e-04, 0.,
          1.09229924e-03, 4.64227190e-03, 8.19224399e-04, 0.,
          2.73074809e-04, 2.73074809e-04, 0., 5.46149618e-04,
          2.73074809e-04, 2.73074809e-04, 2.73074809e-04, 1.09229924e-03,
          0., 0., 0., 2.18459847e-03, 5.46149618e-04, 2.73074809e-04,
          2.73074809e-04, 2.73074809e-04, 5.46149618e-04, 5.46149618e-04,
          1.63844880e-03, 2.73074809e-04, 0., 5.46149618e-04, 0.,
          1.36537408e-03, 4.64227190e-03, 8.19224399e-04, 5.46149618e-04,
          3.54997255e-03, 2.73074809e-04, 8.19224399e-04, 0., 0.,
          2.73074815e-03, 1.91152364e-03, 5.46149618e-04, 0., 0.,
          5.46149618e-04, 0., 8.19224399e-04, 0., 5.46149618e-04,
          5.46149618e-04, 0., 1.09229924e-03, 4.64227190e-03,
          2.73074809e-04, 1.36537408e-03, 2.73074809e-04, 2.18459847e-03,
          0., 2.73074809e-04, 5.46149618e-04, 2.73074809e-04, 0., 0., 0.,
          9.01146885e-03, 1.09229924e-03, 2.73074809e-04, 0., 0.,
          5.46149618e-04, 5.46149618e-04, 2.18459847e-03, 2.73074809e-04,
          2.73074809e-04, 2.73074809e-04, 2.73074809e-04, 0., 0., 0., 0.,
          5.46149618e-04, 4.09612199e-03, 5.46149618e-04, 1.36537408e-03,
          1.36537408e-03, 2.45767320e-03, 1.09229924e-03, 8.19224399e-04,
          0., 5.46149618e-04, 2.73074809e-04, 5.46149618e-04, 0.,
          5.46149618e-04, 8.19224399e-04, 2.73074809e-04, 1.36537408e-03,
          0., 2.73074809e-04, 5.46149618e-04, 0., 1.36537408e-03,
          2.45767320e-03, 0., 5.46149618e-04, 3.82304727e-03,
          5.46149618e-04, 0., 1.36537408e-03, 5.46149630e-03,
          8.19224399e-04, 5.46149618e-04, 1.09229924e-03, 1.63844880e-03,
          0., 2.45767320e-03, 2.73074809e-04, 0., 5.46149618e-04,
          4.91534639e-03, 1.36537408e-03, 8.19224399e-04, 0.,
          9.55761876e-03, 1.36537408e-03, 2.73074809e-04, 1.36537408e-03,
          1.09229924e-03, 8.19224399e-04, 3.54997255e-03, 0., 0.,
          2.25760028e-01, 5.21869808e-02, 2.60709282e-02, 1.51100829e-02,
          6.51378371e-03, 3.51523212e-03, 1.44174148e-03, 1.14842947e-03,
          8.41579924e-04, 4.80580493e-04, 1.73730979e-04, 6.31748990e-05,
          2.25624644e-05, 4.51249298e-06, 0., 0., 0., 0., 0., 0., 0., 0.,
          0., 0., 0., 0., 0., 0., 0., 0., 6.47317106e-03, 1.54846199e-02,
          1.91419944e-02, 2.28196774e-02, 2.11613365e-02, 2.46517491e-02,
          2.12042052e-02, 2.24158093e-02, 1.81469899e-02, 2.03468315e-02,
          1.91690698e-02, 2.65266895e-02, 2.15110537e-02, 1.83071848e-02,
          1.53582701e-02, 1.70324054e-02, 1.45121776e-02, 5.85044734e-03,
          2.02385313e-03, 6.52055256e-04, 2.66237097e-04, 1.44399775e-04,
          7.21998877e-05, 2.93312041e-05, 2.03062191e-05, 9.02498596e-06,
          2.25624649e-06, 0., 0., 0., 5.43755421e-04, 2.05318420e-03,
          3.69121926e-03, 5.93392830e-03, 7.46817607e-03, 1.06043583e-02,
          1.15226507e-02, 1.46520650e-02, 1.37427971e-02, 1.53605258e-02,
          1.38917100e-02, 1.46407839e-02, 1.29170110e-02, 1.35916285e-02,
          1.19423131e-02, 1.28786545e-02, 1.20957373e-02, 1.02772024e-02,
          1.22175748e-02, 1.22243436e-02, 1.72286984e-02, 2.19984036e-02,
          2.24428847e-02, 1.35826040e-02, 1.99587569e-02, 1.75310355e-02,
          6.82965806e-03, 1.20483560e-03, 2.39162124e-04, 6.76873969e-05 ]
      - [ 0., 0., 0., 0., 0., 2.16450216e-03, 0., 4.32900432e-03, 0., 0.,
          2.16450216e-03, 7.57575780e-03, 4.32900432e-03, 0.,
          1.08225108e-03, 1.08225108e-03, 0., 3.24675324e-03,
          1.08225108e-03, 0., 2.16450216e-03, 0., 0., 0., 1.08225108e-03,
          0., 0., 0., 1.08225108e-03, 1.08225108e-03, 0., 0., 0.,
          1.08225108e-03, 0., 1.08225108e-03, 0., 3.24675324e-03,
          2.16450216e-03, 2.16450216e-03, 2.16450216e-03, 0., 0., 0., 0.,
          1.08225108e-03, 0., 0., 0., 0., 0., 0., 0., 0., 0., 0., 0., 0.,
          0., 1.08225108e-03, 1.08225108e-03, 0., 0., 1.08225108e-03,
          1.08225108e-03, 3.24675324e-03, 0., 0., 1.08225108e-03, 0., 0.,
          0., 3.24675324e-03, 0., 1.08225108e-03, 2.16450216e-03, 0., 0.,
          0., 0., 0., 0., 1.08225108e-03, 3.24675324e-03, 0., 0., 0.,
          1.08225108e-03, 0., 0., 1.08225108e-03, 1.08225108e-03,
          4.32900432e-03, 1.94805190e-02, 1.08225108e-03, 0.,
          1.08225108e-03, 4.32900432e-03, 0., 1.08225108e-03,
          1.08225108e-03, 0., 0., 1.08225108e-03, 0., 0., 1.08225108e-03,
          1.08225108e-03, 0., 2.16450216e-03, 1.08225108e-03, 0., 0.,
          1.08225108e-03, 0., 4.32900432e-03, 0., 0., 1.08225108e-03,
          2.16450216e-03, 0., 0., 1.08225108e-03, 0., 2.16450207e-02, 0.,
          2.16450216e-03, 1.08225108e-03, 0., 0., 0., 0., 1.08225108e-03,
          0., 2.16450216e-03, 0., 1.08225108e-03, 0., 0., 0., 0., 0.,
          1.08225108e-03, 1.08225108e-03, 3.24675324e-03, 0., 0.,
          2.16450216e-03, 0., 0., 4.32900432e-03, 0., 1.08225108e-03, 0.,
          0., 0., 1.08225108e-03, 3.24675324e-03, 0., 0., 0., 0.,
          1.08225108e-03, 1.08225108e-03, 0., 0., 2.16450216e-03, 0., 0.,
          0., 0., 0., 2.16450216e-03, 3.24675324e-03, 2.16450216e-03, 0.,
          0., 0., 0., 4.32900432e-03, 0., 0., 0., 0., 0., 0.,
          1.08225108e-03, 0., 0., 0., 0., 1.08225108e-03, 0.,
          1.08225108e-03, 0., 0., 1.08225108e-03, 0., 3.24675324e-03,
          1.08225108e-03, 3.24675324e-03, 0., 0., 0., 0., 0., 0., 0., 0.,
          1.08225108e-03, 2.16450216e-03, 0., 2.16450216e-03, 0., 0., 0.,
          1.08225108e-03, 0., 3.24675324e-03, 1.08225108e-03,
          1.08225108e-03, 0., 2.16450216e-03, 0., 1.08225108e-03,
          2.16450216e-03, 0., 0., 0., 0., 1.08225108e-03, 0., 0., 0., 0.,
          0., 1.08225108e-03, 1.08225108e-03, 2.16450216e-03,
          1.08225108e-03, 0., 1.08225108e-03, 0., 0., 0., 0., 0., 0.,
          2.16450216e-03, 0., 1.08225108e-03, 0., 3.24675324e-03, 0., 0.,
          0., 1.08225108e-03, 2.16450216e-03, 0., 0., 1.08225108e-03,
          1.08225108e-03, 0., 0., 0., 3.24675324e-03, 0., 1.08225108e-03,
          0., 2.92207785e-02, 0., 1.08225108e-03, 0., 0., 0., 0., 0.,
          1.08225108e-03, 1.08225108e-03, 0., 0., 3.24675324e-03, 0., 0.,
          1.08225108e-03, 1.08225108e-03, 0., 1.08225108e-03, 0., 0.,
          1.08225108e-03, 0., 0., 0., 0., 0., 0., 0., 0., 0., 0., 0., 0.,
          0., 0., 0., 1.08225108e-03, 1.08225108e-03, 1.08225108e-03, 0.,
          3.24675324e-03, 0., 0., 0., 0., 1.08225108e-03, 0., 0.,
          1.08225108e-03, 0., 1.08225108e-03, 1.08225108e-03,
          2.16450216e-03, 0., 0., 0., 0., 1.08225108e-03, 0.,
          1.08225108e-03, 0., 4.32900432e-03, 1.08225108e-03,
          2.16450216e-03, 1.08225108e-03, 1.08225108e-03, 0., 0., 0., 0.,
          0., 1.08225108e-03, 0., 0., 0., 1.08225108e-03, 2.16450216e-03,
          0., 0., 0., 0., 0., 0., 1.08225108e-03, 0., 0., 3.24675324e-03,
          1.08225108e-03, 1.08225108e-03, 1.08225108e-03, 1.08225108e-03,
          1.08225108e-03, 0., 0., 1.08225108e-03, 3.24675324e-03, 0., 0.,
          0., 0., 0., 5.41125517e-03, 0., 1.08225108e-03, 0.,
          2.16450216e-03, 4.32900432e-03, 0., 1.08225108e-03,
          2.16450216e-03, 5.41125517e-03, 0., 0., 0., 1.08225108e-03, 0.,
          1.08225108e-03, 1.08225108e-03, 3.03030312e-02, 0.,
          1.08225108e-03, 1.08225108e-03, 0., 0., 0., 0., 0.,
          1.08225108e-03, 2.16450216e-03, 0., 0., 0., 2.16450216e-03, 0.,
          0., 1.08225108e-03, 6.49350649e-03, 2.16450216e-03,
          1.08225108e-03, 0., 0., 0., 0., 0., 0., 2.05627698e-02, 0.,
          1.08225108e-03, 0., 0., 0., 5.41125517e-03, 0., 0., 0.,
          1.08225108e-03, 0., 1.08225108e-03, 4.32900432e-03, 0., 0.,
          1.08225108e-03, 1.08225108e-03, 0., 3.03030312e-02, 0.,
          2.16450216e-03, 0., 0., 0., 3.24675324e-03, 0., 0.,
          1.08225108e-03, 0., 0., 1.40692638e-02, 1.08225108e-03, 0.,
          1.08225108e-03, 0., 3.24675324e-03, 1.08225108e-03,
          1.08225108e-03, 2.16450216e-03, 1.08225108e-03, 0.,
          1.08225108e-03, 3.24675324e-03, 0., 0., 0., 0., 0., 0., 0.,
          3.24675324e-03, 0., 2.16450216e-03, 0., 0., 1.08225108e-03,
          2.16450216e-03, 0., 0., 1.08225108e-03, 0., 1.08225108e-03,
          4.32900432e-03, 0., 1.08225108e-03, 0., 1.08225108e-03,
          1.08225108e-03, 0., 1.08225108e-03, 1.08225108e-03, 0., 0.,
          2.16450216e-03, 1.08225108e-03, 1.08225103e-02, 0., 0.,
          2.16450216e-03, 2.16450216e-03, 1.08225108e-03, 7.57575780e-03,
          0., 1.08225108e-03, 1.08225108e-03, 5.41125517e-03, 0., 0.,
          5.41125517e-03, 1.29870130e-02, 1.08225108e-03, 0., 0., 0.,
          1.08225108e-03, 0., 2.16450216e-03, 1.08225108e-03,
          2.16450216e-03, 1.08225108e-03, 0., 0., 0., 0., 0., 0., 0.,
          3.24675324e-03, 3.24675324e-03, 1.08225108e-03, 0.,
          1.08225108e-03, 0., 0., 0., 6.49350649e-03, 0., 4.32900432e-03,
          0., 0., 0., 1.08225108e-03, 0., 1.08225108e-03, 0.,
          1.08225108e-03, 0., 1.08225108e-03, 3.24675324e-03, 0., 0.,
          1.08225108e-03, 0., 0., 0., 0., 0., 2.16450216e-03, 0., 0., 0.,
          0., 0., 0., 0., 4.32900432e-03, 0., 1.08225108e-03,
          1.08225108e-03, 1.08225108e-03, 0., 1.08225108e-03, 0., 0.,
          1.08225108e-03, 0., 0., 1.08225108e-03, 0., 0., 0., 0., 0., 0.,
          1.08225108e-03, 0., 1.08225108e-03, 1.08225108e-03, 0.,
          1.08225108e-03, 0., 0., 0., 5.41125517e-03, 0., 2.16450216e-03,
          1.08225108e-03, 3.24675324e-03, 0., 0., 4.32900432e-03, 0., 0.,
          0., 2.16450216e-03, 1.08225108e-03, 0., 0., 1.08225108e-03, 0.,
          3.24675324e-03, 0., 1.08225108e-03, 0., 0., 0., 0.,
          1.08225108e-03, 0., 0., 0., 1.08225108e-03, 0., 2.16450216e-03,
          0., 0., 1.08225108e-03, 1.08225108e-03, 0., 0., 0.,
          1.08225108e-03, 1.08225108e-03, 0., 0., 0., 2.16450216e-03, 0.,
          0., 0., 0., 0., 0., 3.24675324e-03, 3.24675324e-03,
          1.08225108e-03, 1.08225108e-03, 4.32900432e-03, 5.41125517e-03,
          0., 0., 1.08225108e-03, 2.16450216e-03, 1.08225108e-03, 0., 0.,
          1.08225108e-03, 0., 0., 0., 1.19047621e-02, 0., 0.,
          7.57575780e-03, 2.16450216e-03, 0., 1.08225108e-03,
          2.16450216e-03, 3.03030312e-02, 0., 0., 1.08225108e-03, 0.,
          1.08225108e-03, 1.08225108e-03, 0., 0., 0., 0., 0., 0., 0.,
          4.32900432e-03, 0., 0., 0., 0., 0., 1.08225108e-03,
          2.16450216e-03, 0., 0., 0., 3.24675324e-03, 0., 0., 0.,
          4.32900432e-03, 0., 2.16450216e-03, 1.08225108e-03, 0., 0., 0.,
          0., 3.24675324e-03, 0., 1.08225108e-03, 0., 2.16450216e-03,
          1.08225108e-03, 0., 0., 0., 0., 0., 1.08225108e-03, 0., 0., 0.,
          0., 5.41125517e-03, 0., 0., 1.08225108e-03, 0., 0., 0., 0.,
          3.24675324e-03, 1.08225108e-03, 0., 1.08225108e-03, 0., 0., 0.,
          3.24675324e-03, 0., 0., 0., 2.16450216e-03, 1.08225108e-03,
          2.16450216e-03, 1.08225108e-03, 2.16450216e-03, 1.08225108e-03,
          0., 4.32900432e-03, 0., 0., 0., 1.08225108e-03, 0., 0., 0., 0.,
          0., 0., 1.08225103e-02, 0., 0., 0., 1.08225108e-03, 0., 0., 0.,
          0., 1.08225108e-03, 0., 0., 2.16450216e-03, 0., 1.08225108e-03,
          1.08225108e-03, 2.16450216e-03, 3.24675324e-03, 1.08225108e-03,
          0., 0., 1.08225108e-03, 0., 0., 1.08225108e-03, 0., 0., 0., 0.,
          3.24675324e-03, 3.24675324e-03, 3.24675324e-03, 0., 0.,
          2.16450216e-03, 0., 0., 1.08225108e-03, 0., 0., 0., 0., 0.,
          1.08225108e-03, 3.24675324e-03, 0., 0., 0., 0., 1.08225108e-03,
          0., 0., 0., 0., 1.08225108e-03, 0., 0., 1.08225108e-03, 0., 0.,
          0., 2.16450216e-03, 8.65800865e-03, 0., 0., 0., 0., 0.,
          1.08225108e-03, 1.08225108e-03, 1.08225108e-03, 2.16450216e-03,
          1.08225108e-03, 0., 0., 3.24675324e-03, 0., 0., 2.16450216e-03,
          0., 0., 0., 1.08225108e-03, 0., 4.32900432e-03, 0., 0.,
          1.08225108e-03, 0., 0., 3.24675324e-03, 0., 0., 1.08225108e-03,
          0., 0., 2.16450216e-03, 3.24675324e-03, 0., 0., 0., 0., 0., 0.,
          1.08225108e-03, 0., 0., 5.41125517e-03, 0., 0., 0.,
          1.08225108e-03, 1.08225108e-03, 0., 0., 0., 1.08225108e-03, 0.,
          0., 0., 1.08225108e-03, 0., 2.16450216e-03, 0., 0., 0.,
          1.83982681e-02, 0., 0., 1.08225108e-03, 0., 3.24675324e-03,
          2.16450216e-03, 1.08225108e-03, 2.16450216e-03, 5.41125517e-03,
          0., 0., 2.16450216e-03, 0., 2.16450216e-03, 0., 0., 0., 0., 0.,
          1.08225108e-03, 0., 1.08225108e-03, 0., 0., 0., 0., 0., 0., 0.,
          0., 0., 0., 1.08225108e-03, 1.08225108e-03, 0., 1.08225108e-03,
          1.08225108e-03, 2.16450216e-03, 0., 0., 2.16450216e-03,
          1.08225108e-03, 1.08225108e-03, 8.65800865e-03, 7.57575780e-03,
          0., 0., 0., 0., 0., 0., 0., 0., 0., 0., 0., 0., 0.,
          1.08225108e-03, 0., 0., 3.24675324e-03, 0., 0., 0., 0., 0.,
          1.08225108e-03, 0., 0., 3.24675324e-03, 2.16450216e-03, 0., 0.,
          0., 0., 1.08225108e-03, 0., 0., 0., 1.08225108e-03, 0., 0., 0.,
          3.24675324e-03, 0., 2.16450216e-03, 0., 0., 1.08225108e-03, 0.,
          0., 0., 0., 0., 0., 0., 4.32900432e-03, 0., 0., 0., 0., 0., 0.,
          3.24675324e-03, 0., 0., 1.08225108e-03, 2.16450216e-03, 0., 0.,
          3.24675324e-03, 3.24675324e-03, 2.16450216e-03, 0.,
          1.08225108e-03, 0., 0., 0., 0., 0., 2.68769450e-03,
          2.66795279e-03, 3.16995638e-03, 4.47573047e-03, 4.32343688e-03,
          5.91687625e-03, 6.44708239e-03, 9.01632663e-03, 9.29553062e-03,
          1.19691240e-02, 1.55592971e-02, 2.94800308e-02, 3.14626656e-02,
          4.39789146e-02, 5.07249460e-02, 2.84393597e-02, 2.86001153e-02,
          1.83710828e-02, 2.25591473e-02, 4.04141238e-03, 1.43832542e-04,
          2.82024598e-06, 0., 0., 0., 0., 0., 0., 0., 0., 7.05061466e-05,
          2.17158944e-04, 3.41249775e-04, 8.48894066e-04, 1.37063954e-03,
          2.33234349e-03, 2.65949196e-03, 3.26866517e-03, 3.02894413e-03,
          3.73400562e-03, 3.56479082e-03, 4.10627807e-03, 4.19934606e-03,
          5.56716556e-03, 6.55989209e-03, 5.88585343e-03, 6.55707205e-03,
          6.81935484e-03, 1.18224714e-02, 1.90874245e-02, 2.54837424e-02,
          3.02217565e-02, 5.24734966e-02, 4.68753092e-02, 3.03176437e-02,
          4.13250625e-02, 1.44960647e-02, 9.87086096e-05, 0., 0.,
          1.69214763e-05, 7.33263951e-05, 1.94596971e-04, 2.53822131e-04,
          4.99183545e-04, 1.14501989e-03, 1.56241632e-03, 2.34926492e-03,
          2.36618635e-03, 2.95561785e-03, 2.83434731e-03, 3.18687805e-03,
          2.97253928e-03, 3.34763201e-03, 3.75092705e-03, 4.08653636e-03,
          5.49101876e-03, 5.75894210e-03, 7.24239182e-03, 6.77705090e-03,
          1.06830914e-02, 1.88674461e-02, 3.34763192e-02, 4.13842909e-02,
          7.53287673e-02, 4.57472093e-02, 4.76085730e-02, 3.37301427e-03 ]
      - [ 0., 0., 1.90972220e-02, 0., 0., 0., 0., 1.04166670e-02, 0.,
          3.47222225e-03, 0., 0., 0., 0., 0., 1.73611112e-03, 0., 0., 0.,
          0., 0., 0., 0., 1.73611112e-03, 1.73611112e-03, 0., 0., 0., 0.,
          5.20833349e-03, 0., 5.20833349e-03, 3.47222225e-03, 0., 0.,
          1.73611112e-03, 0., 0., 1.73611112e-03, 0., 0., 0., 0., 0., 0.,
          0., 0., 0., 0., 0., 0., 0., 0., 1.73611112e-03, 0., 0., 0., 0.,
          6.94444450e-03, 0., 0., 0., 0., 0., 0., 5.20833349e-03, 0., 0.,
          0., 0., 0., 0., 0., 0., 0., 1.73611112e-03, 0., 5.20833349e-03,
          1.73611112e-03, 0., 0., 0., 0., 5.20833349e-03, 0.,
          1.73611112e-03, 0., 0., 3.47222225e-03, 0., 0., 0.,
          1.73611112e-03, 1.04166664e-01, 0., 0., 0., 6.94444450e-03, 0.,
          1.73611112e-03, 1.73611112e-03, 0., 0., 0., 0., 0., 0.,
          8.68055597e-03, 3.47222225e-03, 0., 0., 0., 0., 0., 0., 0., 0.,
          0., 0., 0., 1.73611112e-03, 0., 0., 0., 6.59722239e-02, 0., 0.,
          0., 0., 0., 0., 0., 0., 0., 0., 0., 1.73611112e-03, 0., 0., 0.,
          0., 0., 0., 0., 0., 6.94444450e-03, 0., 3.47222225e-03, 0., 0.,
          1.56250000e-02, 0., 0., 0., 1.73611112e-03, 0., 1.73611112e-03,
          0., 0., 0., 0., 0., 1.73611112e-03, 0., 0., 0., 0., 0.,
          1.73611112e-03, 0., 0., 0., 0., 0., 0., 0., 0., 0., 0., 0.,
          3.47222225e-03, 0., 0., 0., 0., 0., 0., 0., 0., 0., 0., 0., 0.,
          0., 0., 0., 0., 0., 1.73611112e-03, 0., 1.73611112e-03, 0., 0.,
          0., 0., 0., 0., 1.73611112e-03, 0., 0., 1.73611112e-03, 0., 0.,
          0., 0., 1.73611112e-03, 0., 1.73611112e-03, 1.04166670e-02, 0.,
          0., 1.73611112e-03, 0., 0., 0., 3.47222225e-03, 1.73611112e-03,
          0., 0., 0., 1.21527780e-02, 0., 0., 0., 0., 0., 0., 0.,
          1.73611112e-03, 0., 0., 3.47222225e-03, 0., 0., 0., 0., 0., 0.,
          0., 0., 1.73611112e-03, 0., 0., 0., 0., 0., 1.73611112e-03,
          2.43055560e-02, 0., 0., 0., 0., 0., 0., 0., 0., 0., 0., 0.,
          1.73611112e-03, 0., 0., 0., 0., 0., 0., 0., 1.73611112e-03,
          6.94444450e-03, 0., 0., 3.47222225e-03, 0., 0., 0., 0., 0.,
          1.73611112e-03, 0., 0., 3.47222225e-03, 0., 0., 0., 0., 0., 0.,
          0., 0., 0., 0., 0., 0., 0., 0., 0., 0., 1.73611112e-03, 0.,
          8.68055597e-03, 1.73611112e-03, 0., 0., 1.73611112e-03,
          1.73611112e-03, 1.73611112e-03, 0., 0., 0., 0., 0., 0., 0., 0.,
          0., 0., 0., 0., 0., 0., 0., 0., 1.38888890e-02, 0.,
          1.73611112e-03, 0., 0., 0., 0., 0., 0., 0., 0., 0., 0., 0.,
          1.73611112e-03, 0., 0., 0., 0., 0., 0., 0., 1.73611112e-03, 0.,
          5.20833349e-03, 0., 1.73611112e-03, 0., 0., 0., 0., 0., 0.,
          1.73611112e-03, 0., 1.73611112e-03, 0., 0., 0., 0., 0.,
          1.73611112e-03, 0., 0., 0., 1.73611112e-03, 0., 6.94444450e-03,
          8.68055597e-03, 0., 1.73611112e-03, 0., 0., 1.73611112e-03, 0.,
          1.73611112e-03, 0., 0., 0., 1.38888890e-02, 0., 0., 0., 0., 0.,
          0., 0., 0., 0., 0., 3.47222225e-03, 0., 1.73611112e-03, 0., 0.,
          0., 0., 0., 0., 0., 6.94444450e-03, 0., 1.73611112e-03,
          1.56250000e-02, 0., 1.73611112e-03, 0., 0., 6.94444450e-03,
          8.68055597e-03, 0., 1.73611112e-03, 0., 0., 0., 0., 0., 0., 0.,
          0., 0., 0., 3.47222225e-03, 0., 0., 0., 0., 0., 1.73611112e-03,
          0., 1.73611112e-03, 0., 1.73611112e-03, 0., 0., 1.73611112e-03,
          3.47222225e-03, 1.73611112e-03, 0., 3.47222225e-03, 0.,
          6.94444450e-03, 0., 0., 0., 0., 0., 0., 0., 0., 0., 0., 0., 0.,
          3.47222225e-03, 0., 0., 0., 0., 0., 0., 0., 1.73611112e-03,
          1.73611112e-03, 0., 0., 0., 0., 0., 0., 3.47222225e-03, 0., 0.,
          3.47222225e-03, 0., 0., 0., 0., 0., 1.73611112e-03, 0.,
          3.47222225e-03, 1.73611112e-03, 1.73611112e-03, 0., 0., 0., 0.,
          0., 3.47222225e-03, 5.20833349e-03, 0., 1.73611112e-03, 0., 0.,
          0., 0., 0., 6.94444450e-03, 1.73611112e-03, 0., 0.,
          1.73611112e-03, 0., 0., 0., 0., 0., 0., 0., 0., 0.,
          1.73611112e-03, 0., 0., 0., 0., 0., 0., 0., 0., 0.,
          8.68055597e-03, 0., 0., 0., 0., 1.73611112e-03, 0., 0., 0., 0.,
          0., 0., 0., 0., 0., 0., 0., 0., 0., 0., 0., 3.47222225e-03, 0.,
          0., 0., 0., 0., 0., 0., 0., 0., 0., 0., 0., 1.73611112e-03, 0.,
          1.73611112e-03, 0., 0., 0., 0., 3.47222225e-03, 3.47222225e-03,
          0., 0., 0., 0., 0., 0., 0., 0., 6.94444450e-03, 0.,
          1.73611112e-03, 0., 1.73611112e-03, 0., 0., 0., 1.73611112e-03,
          3.47222225e-03, 0., 1.73611112e-03, 1.73611112e-03, 0.,
          1.73611112e-03, 0., 1.73611112e-03, 0., 0., 0., 0., 0., 0., 0.,
          0., 0., 0., 0., 0., 0., 0., 0., 0., 0., 0., 0., 0., 0., 0., 0.,
          0., 0., 0., 6.94444450e-03, 0., 0., 0., 0., 0., 0.,
          3.47222225e-03, 5.20833349e-03, 0., 0., 0., 0., 1.73611112e-03,
          0., 0., 6.94444450e-03, 0., 0., 0., 1.73611119e-02,
          1.73611112e-03, 0., 0., 8.68055597e-03, 0., 0., 6.94444450e-03,
          1.73611112e-03, 0., 0., 0., 0., 0., 0., 0., 1.04166670e-02, 0.,
          0., 0., 0., 0., 1.73611112e-03, 0., 0., 0., 0., 0., 0., 0., 0.,
          0., 0., 0., 0., 0., 0., 0., 1.73611112e-03, 0., 0., 0., 0., 0.,
          0., 3.47222225e-03, 0., 0., 0., 0., 0., 1.73611112e-03, 0., 0.,
          0., 0., 0., 3.47222225e-03, 0., 0., 0., 0., 0., 0., 0., 0., 0.,
          3.47222225e-03, 0., 3.47222225e-03, 0., 1.73611112e-03,
          1.73611112e-03, 0., 1.73611112e-03, 0., 0., 5.20833349e-03, 0.,
          0., 0., 0., 0., 0., 0., 1.73611112e-03, 0., 0., 0., 0., 0., 0.,
          0., 0., 0., 1.73611112e-03, 0., 0., 0., 0., 0., 0., 0., 0., 0.,
          0., 0., 5.20833349e-03, 0., 0., 0., 0., 0., 0., 0., 0., 0., 0.,
          0., 0., 0., 1.73611112e-03, 3.47222225e-03, 0., 0.,
          1.73611112e-03, 0., 0., 0., 0., 0., 0., 1.73611112e-03, 0., 0.,
          1.73611112e-03, 0., 0., 0., 0., 0., 0., 0., 0., 0., 0., 0.,
          1.73611112e-03, 0., 0., 1.73611112e-03, 0., 0., 0., 0., 0., 0.,
          0., 0., 1.73611112e-03, 6.94444450e-03, 0., 0., 0., 0., 0., 0.,
          0., 0., 0., 0., 0., 0., 0., 0., 0., 1.73611112e-03, 0., 0., 0.,
          0., 0., 0., 0., 1.73611112e-03, 0., 0., 0., 0., 0., 0., 0., 0.,
          0., 0., 0., 0., 0., 0., 3.47222225e-03, 0., 0., 0., 0., 0., 0.,
          0., 0., 0., 0., 0., 0., 0., 7.46527761e-02, 1.73611112e-03, 0.,
          0., 0., 0., 0., 0., 0., 0., 0., 0., 8.68055597e-03, 0., 0.,
          1.73611112e-03, 0., 0., 0., 1.21527780e-02, 5.20833349e-03,
          3.47222225e-03, 0., 0., 0., 0., 0., 0., 0., 0., 0., 0., 0., 0.,
          0., 1.73611112e-03, 0., 0., 0., 0., 1.73611112e-03, 0., 0., 0.,
          0., 3.47222225e-03, 0., 0., 0., 0., 0., 0., 1.73611112e-03, 0.,
          0., 5.20833349e-03, 0., 0., 0., 0., 0., 0., 0., 1.04166670e-02,
          0., 0., 0., 0., 0., 0., 0., 0., 0., 0., 0., 0., 0., 0., 0., 0.,
          1.73611112e-03, 2.43055560e-02, 0., 0., 0., 0., 0., 0., 0., 0.,
          1.73611112e-03, 0., 0., 0., 0., 0., 3.47222225e-03,
          8.68055597e-03, 0., 0., 0., 0., 0., 0., 5.20833349e-03, 0., 0.,
          0., 0., 1.73611112e-03, 0., 0., 0., 0., 0., 0., 0.,
          3.47222225e-03, 0., 1.73611112e-03, 1.73611112e-03, 0., 0., 0.,
          0., 0., 0., 0., 0., 1.73611112e-03, 0., 3.47222225e-03, 0.,
          3.47222225e-03, 0., 0., 0., 0., 0., 0., 0., 0., 1.93970057e-03,
          1.98608474e-03, 2.52793590e-03, 2.61227065e-03, 3.68543109e-03,
          5.66308200e-03, 1.16613954e-02, 2.05819085e-02, 5.25405854e-02,
          6.62955940e-02, 6.14800751e-02, 4.49504517e-02, 2.96373591e-02,
          1.58507265e-02, 9.99367423e-03, 1.66139565e-03, 2.12945379e-04,
          4.63841425e-05, 4.21674031e-06, 2.10837015e-06, 0., 0., 0., 0.,
          0., 0., 0., 0., 0., 0., 2.36137450e-04, 2.55112798e-04,
          4.02698701e-04, 5.92452008e-04, 8.85515474e-04, 1.09213579e-03,
          1.57284411e-03, 1.39995781e-03, 1.81319832e-03, 1.42947491e-03,
          1.76681415e-03, 1.75205560e-03, 2.26017274e-03, 2.92009255e-03,
          3.33333318e-03, 7.18743401e-03, 2.00252999e-02, 6.27999157e-02,
          6.45772666e-02, 4.63946834e-02, 3.51739377e-02, 4.83280607e-02,
          2.00674664e-02, 6.19017472e-03, 7.59013230e-04, 1.11743619e-04,
          6.32511046e-06, 0., 0., 0., 2.19270500e-04, 1.91861691e-04,
          2.59329536e-04, 3.83723382e-04, 5.46067895e-04, 6.93653768e-04,
          9.99367447e-04, 1.14062824e-03, 1.25026354e-03, 1.23972166e-03,
          1.54121860e-03, 1.52856833e-03, 1.84904062e-03, 1.81530672e-03,
          1.64663710e-03, 2.33818241e-03, 3.49778612e-03, 1.28779253e-02,
          3.87223251e-02, 7.72928521e-02, 5.86843751e-02, 6.12818860e-02,
          4.15791683e-02, 1.81277674e-02, 2.95593496e-03, 6.19860832e-04,
          5.06008837e-05 ]
      - [ 0., 0., 0., 0., 0., 0., 0., 7.66871125e-03, 0., 0., 0.,
          1.53374230e-03, 0., 0., 0., 0., 0., 0., 0., 0., 1.53374230e-03,
          3.06748459e-03, 3.06748459e-03, 0., 3.06748459e-03,
          1.53374230e-03, 0., 0., 1.53374230e-03, 1.53374230e-03, 0.,
          1.53374230e-03, 7.66871125e-03, 0., 1.53374230e-03,
          3.06748459e-03, 0., 1.53374230e-03, 3.06748459e-03, 0.,
          3.06748459e-03, 0., 0., 0., 0., 0., 0., 0., 0., 0., 0., 0., 0.,
          1.53374230e-03, 0., 6.13496918e-03, 0., 0., 0., 1.53374230e-03,
          0., 0., 0., 0., 0., 0., 0., 0., 1.53374230e-03, 0.,
          1.53374230e-03, 0., 0., 0., 0., 0., 0., 0., 0., 0., 0.,
          1.53374230e-03, 3.06748459e-03, 1.38036804e-02, 0., 0., 0.,
          1.53374230e-03, 0., 0., 0., 0., 6.13496918e-03, 3.06748450e-02,
          1.53374230e-03, 3.06748459e-03, 0., 9.20245424e-03, 0., 0., 0.,
          0., 0., 0., 0., 0., 0., 0., 1.53374230e-03, 0., 0., 0., 0., 0.,
          0., 3.06748459e-03, 0., 6.13496918e-03, 0., 0., 0., 0., 0., 0.,
          2.30061337e-02, 0., 0., 0., 1.53374230e-03, 6.13496918e-03, 0.,
          0., 0., 0., 0., 0., 0., 1.53374230e-03, 3.06748459e-03, 0., 0.,
          0., 0., 1.53374230e-03, 0., 3.06748459e-03, 0., 0.,
          1.53374230e-03, 0., 9.20245424e-03, 0., 0., 0., 1.53374230e-03,
          0., 0., 1.53374230e-03, 0., 0., 0., 0., 0., 1.53374230e-03, 0.,
          0., 1.53374230e-03, 4.60122712e-03, 0., 0., 1.53374230e-03,
          3.06748459e-03, 1.53374230e-03, 1.53374230e-03, 1.53374230e-03,
          0., 0., 1.53374230e-03, 0., 1.53374230e-03, 4.60122712e-03,
          1.53374230e-03, 0., 1.53374230e-03, 0., 0., 1.53374230e-03, 0.,
          0., 0., 0., 0., 9.20245424e-03, 0., 0., 0., 1.53374230e-03,
          3.06748459e-03, 3.06748459e-03, 0., 1.53374230e-03, 0., 0., 0.,
          4.60122712e-03, 0., 0., 0., 1.53374230e-03, 0., 3.06748459e-03,
          0., 0., 0., 0., 1.53374230e-03, 0., 0., 1.53374230e-03, 0., 0.,
          0., 0., 0., 0., 0., 1.53374230e-03, 0., 0., 0., 4.60122712e-03,
          3.06748459e-03, 0., 1.53374230e-03, 0., 0., 0., 3.06748459e-03,
          0., 1.53374230e-03, 0., 3.06748459e-03, 1.53374230e-03, 0., 0.,
          0., 0., 1.53374230e-03, 0., 0., 1.53374230e-03, 0., 0.,
          1.53374230e-03, 0., 0., 0., 6.13496918e-03, 1.53374230e-03, 0.,
          0., 0., 0., 0., 0., 0., 4.60122712e-03, 0., 0., 7.66871125e-03,
          3.06748459e-03, 1.53374230e-03, 0., 0., 0., 0., 0., 0.,
          1.53374230e-03, 0., 0., 0., 0., 3.06748459e-03, 0.,
          3.06748459e-03, 0., 1.53374230e-03, 1.53374230e-03, 0.,
          1.53374230e-03, 0., 0., 0., 1.53374230e-03, 0., 0., 0., 0., 0.,
          0., 0., 0., 0., 0., 0., 0., 0., 0., 0., 3.06748459e-03, 0., 0.,
          0., 0., 0., 0., 0., 0., 0., 0., 0., 0., 0., 1.53374230e-03, 0.,
          0., 0., 0., 0., 0., 0., 0., 0., 0., 0., 0., 0., 0.,
          1.53374230e-03, 0., 0., 1.53374230e-03, 1.53374230e-03, 0.,
          1.53374230e-03, 0., 0., 1.53374230e-03, 0., 0., 0., 0., 0.,
          1.53374230e-03, 0., 0., 1.53374230e-03, 0., 0., 0., 0., 0., 0.,
          0., 3.06748459e-03, 0., 0., 0., 0., 0., 1.53374230e-03, 0., 0.,
          0., 0., 0., 0., 0., 3.06748459e-03, 7.66871125e-03, 0.,
          1.53374230e-03, 0., 0., 0., 0., 0., 3.06748459e-03, 0.,
          4.60122712e-03, 6.13496918e-03, 1.53374230e-03, 0., 0., 0., 0.,
          0., 0., 0., 0., 0., 0., 0., 0., 1.53374230e-03, 3.06748459e-03,
          0., 0., 1.53374230e-03, 0., 3.06748459e-03, 0., 0., 0.,
          3.83435562e-02, 0., 0., 1.53374230e-03, 1.53374230e-03, 0.,
          6.13496918e-03, 0., 0., 0., 0., 1.53374230e-03, 0.,
          1.53374230e-03, 0., 0., 1.53374230e-03, 0., 0., 1.53374225e-02,
          0., 0., 0., 0., 0., 4.60122712e-03, 4.60122712e-03,
          3.06748459e-03, 0., 6.13496918e-03, 0., 0., 3.06748459e-03, 0.,
          0., 1.53374230e-03, 1.53374230e-03, 0., 1.53374230e-03, 0., 0.,
          0., 0., 0., 0., 0., 0., 0., 0., 0., 1.53374230e-03,
          4.60122712e-03, 0., 0., 0., 3.06748459e-03, 0., 1.53374230e-03,
          0., 0., 0., 0., 0., 0., 0., 1.53374230e-03, 0., 3.06748459e-03,
          1.53374230e-03, 0., 1.53374230e-03, 0., 0., 0., 3.06748459e-03,
          4.60122712e-03, 1.53374230e-03, 0., 0., 0., 3.06748459e-03, 0.,
          1.53374230e-03, 0., 0., 0., 1.53374230e-03, 0., 1.53374230e-03,
          0., 1.68711655e-02, 0., 1.53374230e-03, 0., 1.53374230e-03, 0.,
          1.53374230e-03, 1.53374230e-03, 0., 0., 0., 0., 1.53374230e-03,
          0., 0., 0., 0., 0., 1.53374230e-03, 1.07361963e-02, 0., 0.,
          1.53374230e-03, 0., 0., 0., 0., 0., 0., 1.53374230e-03, 0., 0.,
          4.60122712e-03, 0., 0., 0., 0., 0., 0., 1.53374230e-03, 0., 0.,
          0., 0., 3.06748459e-03, 0., 0., 0., 0., 0., 0., 1.53374230e-03,
          0., 0., 0., 0., 0., 0., 0., 3.06748459e-03, 0., 0., 0., 0., 0.,
          1.53374230e-03, 0., 0., 0., 0., 0., 3.06748459e-03, 0., 0., 0.,
          0., 0., 1.53374230e-03, 0., 0., 0., 0., 0., 0., 3.06748459e-03,
          0., 0., 3.06748459e-03, 1.84049085e-02, 0., 0., 0., 0., 0., 0.,
          0., 0., 0., 0., 0., 0., 0., 0., 0., 0., 0., 0., 0., 0.,
          1.53374230e-03, 0., 0., 1.53374230e-03, 0., 1.53374230e-03,
          1.53374230e-03, 0., 0., 1.53374230e-03, 0., 0., 1.53374230e-03,
          0., 4.60122712e-03, 0., 0., 1.53374230e-03, 0., 0., 0.,
          4.60122712e-03, 0., 0., 0., 4.60122712e-03, 1.53374230e-03, 0.,
          0., 1.53374230e-03, 0., 1.53374230e-03, 0., 1.53374230e-03,
          1.53374230e-03, 0., 0., 0., 3.06748459e-03, 0., 0.,
          3.06748459e-03, 1.53374230e-03, 1.53374230e-03, 0.,
          6.13496918e-03, 0., 0., 0., 0., 2.76073609e-02, 3.06748459e-03,
          0., 1.53374230e-03, 0., 0., 1.53374230e-03, 9.20245424e-03, 0.,
          0., 0., 1.53374230e-03, 1.53374230e-03, 0., 4.60122712e-03, 0.,
          0., 0., 0., 0., 0., 7.66871125e-03, 3.06748459e-03, 0., 0., 0.,
          0., 0., 0., 0., 0., 0., 0., 0., 0., 0., 0., 3.06748459e-03, 0.,
          0., 0., 1.53374230e-03, 1.53374230e-03, 0., 0., 1.53374230e-03,
          0., 0., 3.06748459e-03, 0., 0., 0., 0., 3.06748459e-03, 0., 0.,
          1.53374230e-03, 0., 0., 0., 0., 3.06748459e-03, 0., 0.,
          7.66871125e-03, 0., 1.53374230e-03, 0., 0., 0., 0., 0., 0., 0.,
          1.53374230e-03, 1.53374230e-03, 0., 0., 0., 1.53374230e-03,
          3.06748459e-03, 0., 1.53374230e-03, 0., 0., 1.53374230e-03, 0.,
          0., 0., 0., 1.07361963e-02, 4.60122712e-03, 1.53374230e-03, 0.,
          0., 0., 0., 0., 0., 0., 0., 0., 0., 0., 0., 1.53374230e-03,
          4.60122712e-03, 0., 0., 0., 1.53374230e-03, 0., 0., 0.,
          9.20245424e-03, 0., 0., 0., 0., 4.60122712e-03, 0., 0., 0.,
          1.53374230e-03, 0., 0., 0., 0., 1.53374230e-03, 0., 0.,
          1.53374230e-03, 0., 0., 3.06748459e-03, 0., 0., 1.53374230e-03,
          0., 0., 0., 1.53374230e-03, 0., 0., 1.53374230e-03,
          1.53374230e-03, 0., 3.06748459e-03, 0., 0., 0., 0.,
          1.53374230e-03, 0., 0., 0., 1.53374230e-03, 0., 0., 0.,
          4.60122712e-03, 1.53374230e-03, 0., 0., 0., 6.13496918e-03,
          3.06748459e-03, 0., 0., 1.53374230e-03, 0., 0., 0., 0.,
          3.06748459e-03, 0., 0., 1.53374230e-03, 1.53374230e-03, 0.,
          3.06748459e-03, 0., 1.53374230e-03, 0., 0., 0., 0., 0.,
          1.53374230e-03, 0., 0., 0., 0., 1.53374230e-03, 4.60122712e-03,
          0., 0., 4.29447852e-02, 1.53374230e-03, 0., 0., 0., 0., 0., 0.,
          3.06748459e-03, 1.53374230e-03, 0., 0., 0., 0., 0., 0., 0., 0.,
          0., 1.84049085e-02, 3.06748459e-03, 0., 0., 0., 6.13496918e-03,
          0., 3.06748459e-03, 4.60122712e-03, 0., 0., 0., 0., 0., 0.,
          1.53374230e-03, 0., 0., 1.53374230e-03, 0., 1.53374230e-03, 0.,
          1.53374230e-03, 0., 0., 0., 1.53374230e-03, 0., 0., 0.,
          1.53374230e-03, 3.06748459e-03, 0., 0., 1.53374230e-03, 0., 0.,
          4.60122712e-03, 1.53374230e-03, 0., 0., 0., 0., 0.,
          6.13496918e-03, 4.60122712e-03, 4.60122712e-03, 0.,
          1.53374230e-03, 0., 0., 0., 0., 0., 0., 1.53374230e-03, 0., 0.,
          0., 7.66871125e-03, 0., 0., 0., 1.53374230e-03, 1.53374230e-03,
          0., 0., 0., 0., 0., 0., 0., 3.06748459e-03, 0., 0., 0., 0., 0.,
          0., 0., 0., 1.53374230e-03, 0., 0., 0., 3.06748459e-03,
          4.60122712e-03, 0., 0., 6.13496918e-03, 3.06748459e-03, 0., 0.,
          0., 1.53374230e-03, 0., 0., 0., 0., 1.53374230e-03,
          1.53374230e-03, 1.53374230e-03, 0., 3.06748459e-03,
          1.53374230e-03, 0., 1.53374230e-03, 0., 0., 0., 0., 0., 0.,
          1.53374230e-03, 3.06748459e-03, 0., 0., 0., 0., 1.53374230e-03,
          0., 0., 0., 0., 0., 0., 0., 3.77540221e-03, 2.06113467e-03,
          2.41660140e-03, 2.55133491e-03, 4.72426973e-03, 6.53027045e-03,
          1.06296064e-02, 1.47690754e-02, 3.07106189e-02, 5.01179621e-02,
          6.81407079e-02, 4.20196243e-02, 2.44727489e-02, 3.19232196e-02,
          2.32171472e-02, 1.37198754e-02, 1.06640067e-03, 3.87000240e-04,
          8.88667200e-05, 1.14666736e-05, 0., 0., 0., 0., 0., 0., 0., 0.,
          0., 0., 3.69800226e-04, 4.75866953e-04, 7.22400437e-04,
          7.48200458e-04, 9.20200546e-04, 1.15240074e-03, 1.49066758e-03,
          1.39320083e-03, 1.55086757e-03, 1.56233425e-03, 1.61393429e-03,
          2.49113492e-03, 4.03053593e-03, 6.34680409e-03, 8.16713832e-03,
          1.00505399e-02, 1.43333422e-02, 2.45444141e-02, 2.86494847e-02,
          6.12091050e-02, 5.09578958e-02, 2.49514822e-02, 8.56015831e-02,
          0., 0., 0., 0., 0., 0., 0., 1.23266742e-04, 2.17866793e-04,
          4.58666938e-04, 4.98800306e-04, 7.05200422e-04, 6.96600415e-04,
          1.06353394e-03, 1.12373405e-03, 1.17246737e-03, 1.15526735e-03,
          1.04920065e-03, 1.21546746e-03, 1.06926728e-03, 1.65693439e-03,
          2.14140140e-03, 5.25173638e-03, 6.38980372e-03, 7.71420449e-03,
          9.24213883e-03, 2.14942805e-02, 3.47010195e-02, 7.52041787e-02,
          1.58988297e-01 ]
      - [ 0., 3.98406386e-03, 0., 0., 1.99203193e-03, 0., 0.,
          1.99203193e-03, 0., 0., 0., 1.99203193e-03, 0., 0., 0., 0., 0.,
          0., 0., 0., 0., 0., 0., 1.99203193e-03, 0., 0., 1.99203193e-03,
          0., 0., 0., 0., 0., 3.98406386e-03, 0., 0., 0., 0., 0., 0., 0.,
          7.96812773e-03, 0., 0., 0., 3.98406386e-03, 0., 0., 0., 0., 0.,
          0., 1.99203193e-03, 0., 0., 0., 0., 0., 0., 1.99203193e-03, 0.,
          0., 0., 0., 1.99203193e-03, 0., 0., 0., 0., 0., 0., 0., 0., 0.,
          0., 0., 0., 0., 0., 0., 0., 0., 0., 0., 2.19123513e-02, 0., 0.,
          0., 0., 0., 0., 0., 0., 3.98406386e-03, 7.17131495e-02, 0., 0.,
          0., 1.59362555e-02, 0., 0., 0., 0., 0., 0., 0., 0., 0., 0., 0.,
          0., 0., 0., 0., 0., 0., 0., 0., 0., 0., 0., 0., 0., 0., 0.,
          5.57768941e-02, 0., 0., 0., 0., 1.19521916e-02, 0., 0., 0., 0.,
          1.99203193e-03, 0., 1.99203193e-03, 0., 0., 0., 0., 0., 0.,
          1.99203193e-03, 0., 0., 0., 3.98406386e-03, 0., 0., 0., 0.,
          1.99203193e-03, 0., 0., 0., 0., 1.99203193e-03, 0., 0., 0., 0.,
          0., 0., 0., 0., 1.99203193e-03, 0., 0., 0., 0., 0., 0.,
          1.99203193e-03, 0., 0., 0., 5.97609580e-03, 0., 0., 0., 0., 0.,
          0., 1.99203193e-03, 0., 0., 0., 0., 0., 0., 0., 1.99203193e-03,
          0., 0., 0., 1.99203193e-03, 0., 0., 1.99203193e-03, 0., 0., 0.,
          1.99203193e-03, 0., 0., 0., 0., 0., 0., 0., 0., 0., 0., 0.,
          1.99203193e-03, 0., 3.98406386e-03, 5.97609580e-03, 0., 0., 0.,
          0., 0., 0., 7.96812773e-03, 0., 0., 0., 0., 0., 0.,
          1.99203193e-03, 0., 0., 0., 1.99203193e-03, 0., 0., 0., 0., 0.,
          0., 0., 1.99203193e-03, 0., 0., 0., 0., 0., 1.99203193e-03, 0.,
          0., 0., 0., 0., 0., 1.79282874e-02, 0., 0., 1.99203193e-03, 0.,
          0., 0., 0., 0., 1.99203193e-03, 0., 0., 0., 1.99203193e-03, 0.,
          0., 0., 0., 0., 0., 0., 0., 0., 0., 0., 0., 1.99203193e-03, 0.,
          0., 0., 0., 0., 0., 0., 0., 0., 0., 0., 1.99203193e-03,
          1.99203193e-03, 1.99203193e-03, 0., 0., 0., 0., 0., 0.,
          1.99203193e-03, 0., 3.98406386e-03, 0., 0., 0., 0., 0., 0.,
          1.99203193e-03, 0., 0., 0., 0., 0., 0., 1.99203193e-03, 0., 0.,
          0., 0., 0., 0., 0., 0., 0., 0., 0., 0., 0., 0., 0., 0., 0., 0.,
          0., 0., 0., 0., 0., 0., 0., 0., 0., 0., 0., 0., 0., 0., 0., 0.,
          0., 1.99203193e-03, 0., 5.97609580e-03, 0., 0., 0., 0., 0.,
          1.99203193e-03, 0., 0., 0., 0., 0., 0., 0., 1.99203193e-03, 0.,
          0., 0., 0., 0., 0., 7.96812773e-03, 1.39442235e-02, 0., 0., 0.,
          0., 0., 0., 0., 1.99203193e-03, 0., 1.99203193e-03, 0., 0.,
          3.98406386e-03, 0., 0., 0., 0., 0., 0., 0., 0., 0., 0.,
          1.99203193e-03, 0., 0., 0., 0., 0., 0., 1.99203193e-03, 0., 0.,
          0., 6.37450218e-02, 0., 0., 0., 0., 0., 5.97609580e-03, 0., 0.,
          0., 0., 0., 0., 0., 0., 0., 0., 0., 0., 3.98406386e-03, 0.,
          3.98406386e-03, 0., 0., 0., 0., 0., 1.99203193e-03, 0.,
          3.98406386e-03, 0., 0., 0., 0., 3.98406386e-03, 0.,
          3.98406386e-03, 0., 1.99203193e-03, 0., 0., 0., 0., 0., 0., 0.,
          0., 0., 0., 0., 0., 5.97609580e-03, 0., 1.99203193e-03, 0., 0.,
          0., 0., 0., 0., 0., 0., 0., 0., 0., 0., 0., 0., 0., 0., 0., 0.,
          0., 0., 1.99203193e-03, 0., 1.99203193e-03, 0., 1.19521916e-02,
          0., 0., 0., 1.99203193e-03, 5.97609580e-03, 1.99203193e-03, 0.,
          1.99203193e-03, 1.99203193e-03, 0., 0., 1.59362555e-02, 0.,
          1.99203193e-03, 0., 0., 0., 0., 0., 0., 1.99203193e-03, 0., 0.,
          0., 0., 0., 0., 0., 0., 0., 1.99203193e-03, 0., 0., 0., 0., 0.,
          0., 0., 0., 0., 0., 0., 0., 0., 0., 0., 0., 0., 0.,
          1.99203193e-03, 5.97609580e-03, 0., 1.99203193e-03,
          1.99203193e-03, 0., 0., 0., 0., 0., 1.99203193e-03, 0., 0., 0.,
          0., 0., 0., 0., 1.99203193e-03, 0., 0., 0., 0., 0., 0., 0., 0.,
          0., 0., 0., 0., 0., 0., 5.97609580e-03, 0., 0., 0., 0., 0., 0.,
          0., 0., 0., 0., 0., 0., 0., 0., 0., 0., 5.97609580e-03, 0., 0.,
          1.99203193e-03, 0., 1.99203193e-03, 0., 0., 0., 0., 0.,
          1.99203193e-03, 0., 1.99203193e-03, 0., 0., 0., 0., 0., 0., 0.,
          1.99203193e-03, 0., 0., 0., 0., 0., 1.99203193e-03, 0., 0.,
          1.99203193e-03, 0., 0., 1.99203193e-03, 0., 0., 0., 0., 0., 0.,
          0., 0., 0., 0., 0., 0., 1.99203193e-03, 0., 0., 0., 0.,
          3.98406386e-03, 0., 0., 0., 0., 5.97609580e-03, 0., 0., 0., 0.,
          0., 3.98406386e-03, 0., 0., 0., 0., 0., 0., 0., 0.,
          4.18326706e-02, 1.99203193e-03, 1.99203193e-03, 0., 0., 0.,
          1.99203193e-03, 0., 0., 0., 0., 0., 0., 0., 1.99203193e-03, 0.,
          0., 0., 0., 0., 0., 1.19521916e-02, 0., 0., 0., 0., 0., 0., 0.,
          5.97609580e-03, 0., 0., 0., 0., 0., 1.99203193e-03, 0., 0., 0.,
          0., 0., 0., 0., 0., 0., 0., 0., 0., 0., 0., 0., 0., 0.,
          7.96812773e-03, 0., 0., 0., 0., 0., 0., 0., 3.98406386e-03, 0.,
          1.99203193e-03, 0., 0., 0., 0., 0., 0., 0., 0., 0., 0.,
          1.99203193e-03, 0., 0., 0., 0., 3.98406386e-03, 0., 0., 0., 0.,
          0., 1.99203193e-03, 0., 0., 0., 0., 0., 1.19521916e-02, 0., 0.,
          1.99203193e-03, 0., 0., 0., 0., 7.96812773e-03, 0., 0., 0., 0.,
          0., 0., 9.96015966e-03, 0., 0., 0., 0., 0., 0., 0., 0., 0., 0.,
          0., 1.99203193e-03, 0., 0., 1.99203193e-03, 0., 0., 0., 0., 0.,
          0., 0., 0., 0., 0., 0., 0., 0., 0., 0., 0., 0., 0., 0.,
          1.99203193e-03, 0., 0., 0., 0., 3.98406386e-03, 0., 0., 0., 0.,
          0., 0., 0., 0., 0., 0., 0., 0., 0., 0., 0., 1.99203193e-03, 0.,
          0., 0., 0., 0., 0., 1.99203193e-03, 0., 0., 0., 0.,
          7.96812773e-03, 0., 0., 0., 0., 0., 0., 0., 1.99203193e-03, 0.,
          0., 0., 0., 0., 3.98406386e-03, 0., 0., 0., 0., 0., 0., 0., 0.,
          7.96812773e-02, 0., 0., 0., 0., 0., 0., 0., 0., 0., 0., 0., 0.,
          0., 0., 0., 0., 0., 0., 4.18326706e-02, 1.99203193e-03, 0., 0.,
          0., 0., 0., 0., 5.97609580e-03, 0., 0., 1.99203193e-03,
          1.99203193e-03, 0., 0., 0., 0., 0., 0., 0., 0., 1.99203193e-03,
          5.97609580e-03, 0., 0., 0., 3.98406386e-03, 0., 0., 0., 0.,
          3.98406386e-03, 0., 0., 0., 0., 0., 1.99203193e-03,
          1.99203193e-03, 0., 0., 3.98406386e-03, 0., 1.99203193e-03,
          2.98804790e-02, 1.79282874e-02, 1.99203193e-03, 0., 0., 0., 0.,
          0., 0., 0., 0., 0., 0., 0., 3.98406386e-03, 1.99203193e-03, 0.,
          0., 0., 0., 0., 0., 0., 0., 3.98406386e-03, 0., 0., 0., 0., 0.,
          0., 0., 1.99203193e-03, 0., 0., 0., 0., 1.99203193e-03,
          1.99203193e-03, 0., 0., 0., 3.98406386e-03, 3.98406386e-03, 0.,
          1.59362555e-02, 0., 1.99203193e-03, 0., 1.99203193e-03,
          3.98406386e-03, 0., 0., 0., 0., 0., 0., 0., 0., 0., 0., 0.,
          1.99203193e-03, 0., 0., 0., 0., 0., 1.99203193e-03,
          5.97609580e-03, 1.99203193e-03, 0., 0., 0., 0., 0., 0., 0., 0.,
          0., 1.35660765e-03, 6.30372320e-04, 5.60653745e-04,
          7.61094678e-04, 7.69809529e-04, 1.42342132e-03, 1.89983181e-03,
          3.11990711e-03, 4.76119900e-03, 1.13467015e-02, 2.11654045e-02,
          4.98458929e-02, 7.42125437e-02, 3.59341279e-02, 2.36927029e-02,
          2.22431365e-02, 2.42533572e-02, 2.31407639e-02, 2.06425153e-02,
          9.16509051e-03, 2.24551978e-03, 1.62676733e-04, 0., 0., 0., 0.,
          0., 0., 0., 0., 1.36532253e-04, 1.59771778e-04, 1.94631080e-04,
          3.57307814e-04, 4.21216537e-04, 4.67695587e-04, 4.96744993e-04,
          5.17079607e-04, 4.56075824e-04, 3.25353467e-04, 4.06691805e-04,
          5.19984518e-04, 7.43665034e-04, 1.02544436e-03, 2.06541340e-03,
          3.04147368e-03, 3.58469784e-03, 6.20495528e-03, 1.59306992e-02,
          3.69189009e-02, 7.73469731e-02, 4.07708548e-02, 3.28519829e-02,
          3.12426463e-02, 3.51701267e-02, 4.19764034e-02, 0., 0., 0., 0.,
          3.77642391e-05, 8.42433074e-05, 9.29581292e-05, 1.80106377e-04,
          2.03345902e-04, 3.13733675e-04, 3.22448497e-04, 4.35741240e-04,
          4.88030171e-04, 5.80988300e-04, 3.86357220e-04, 2.90494150e-04,
          2.93399091e-04, 3.51497933e-04, 6.39087113e-04, 6.85566221e-04,
          1.44085102e-03, 2.32395320e-03, 2.90203653e-03, 5.06331306e-03,
          1.69735737e-02, 5.52490838e-02, 7.46076107e-02, 4.34724502e-02,
          4.81813587e-02, 7.77333304e-02 ]
      - [ 0., 0., 0., 0., 1.24378107e-03, 3.73134320e-03, 0.,
          4.97512426e-03, 0., 0., 2.48756213e-03, 0., 2.48756213e-03, 0.,
          1.24378107e-03, 1.24378107e-03, 0., 0., 1.24378107e-03, 0.,
          2.48756213e-03, 0., 0., 1.24378107e-03, 0., 0., 3.73134320e-03,
          0., 2.48756213e-03, 2.48756213e-03, 0., 3.73134320e-03,
          1.24378107e-03, 1.24378107e-03, 0., 0., 0., 1.24378107e-03, 0.,
          3.73134320e-03, 0., 2.48756213e-03, 0., 0., 0., 0., 0.,
          1.24378107e-03, 0., 0., 1.24378107e-03, 1.24378107e-03, 0.,
          1.24378107e-03, 0., 0., 0., 1.24378107e-03, 0., 2.48756213e-03,
          0., 1.24378107e-03, 0., 0., 0., 3.73134320e-03, 0., 0., 0.,
          1.24378107e-03, 1.24378107e-03, 0., 0., 0., 2.48756213e-03,
          4.97512426e-03, 0., 2.48756213e-03, 0., 3.73134320e-03,
          3.73134320e-03, 0., 1.24378107e-03, 2.48756213e-03, 0., 0.,
          1.24378107e-03, 0., 1.24378107e-03, 0., 0., 0., 6.21890556e-03,
          2.23880596e-02, 0., 0., 0., 1.24378107e-03, 0., 0.,
          1.24378107e-03, 0., 0., 1.24378107e-03, 0., 0., 0., 0.,
          2.48756213e-03, 0., 1.24378107e-03, 3.73134320e-03, 0.,
          1.24378107e-03, 0., 0., 0., 0., 0., 0., 0., 0., 0., 0.,
          1.61691532e-02, 0., 0., 0., 0., 1.49253728e-02, 0., 0., 0., 0.,
          1.24378107e-03, 1.24378107e-03, 0., 0., 1.24378107e-03, 0.,
          1.24378107e-03, 0., 0., 0., 0., 3.73134320e-03, 0.,
          3.73134320e-03, 0., 1.24378107e-03, 0., 0., 0., 0.,
          2.48756213e-03, 0., 1.24378107e-03, 0., 0., 0., 0.,
          1.24378107e-03, 0., 0., 0., 0., 1.24378107e-03, 0.,
          1.24378107e-03, 0., 0., 0., 2.48756213e-03, 0., 2.48756213e-03,
          0., 0., 0., 0., 1.24378107e-03, 3.73134320e-03, 1.24378107e-03,
          0., 0., 0., 0., 0., 0., 1.24378107e-03, 3.73134320e-03, 0.,
          1.24378107e-03, 0., 0., 0., 1.24378107e-03, 2.48756213e-03, 0.,
          0., 0., 6.21890556e-03, 0., 0., 1.24378107e-03, 0.,
          1.24378107e-03, 0., 0., 0., 0., 1.24378107e-03, 1.24378107e-03,
          1.24378107e-03, 0., 1.24378107e-03, 1.24378107e-03, 0.,
          8.70646723e-03, 2.48756213e-03, 0., 1.24378107e-03,
          1.24378107e-03, 0., 0., 0., 4.97512426e-03, 1.24378107e-03, 0.,
          0., 0., 0., 0., 0., 3.73134320e-03, 1.24378107e-03, 0.,
          1.24378107e-03, 0., 2.48756213e-03, 0., 0., 1.24378107e-03,
          1.24378107e-03, 0., 0., 0., 0., 0., 0., 0., 1.24378107e-03,
          7.46268639e-03, 1.24378107e-03, 0., 0., 0., 1.24378107e-03,
          4.97512426e-03, 0., 0., 1.24378107e-03, 1.24378107e-03, 0., 0.,
          0., 0., 2.48756213e-03, 0., 0., 0., 0., 0., 0., 0.,
          1.24378107e-03, 0., 0., 0., 2.48756213e-03, 0., 0.,
          2.48756213e-03, 0., 0., 0., 1.24378107e-03, 0., 1.24378107e-03,
          0., 0., 0., 0., 1.24378107e-03, 0., 0., 0., 0., 2.48756213e-03,
          0., 0., 0., 0., 0., 0., 0., 0., 3.73134320e-03, 1.24378107e-03,
          0., 1.24378107e-03, 2.48756213e-03, 0., 0., 1.24378107e-03,
          1.24378107e-03, 0., 0., 0., 1.24378107e-03, 2.48756213e-03, 0.,
          1.24378107e-03, 0., 0., 0., 0., 0., 0., 0., 1.24378107e-03, 0.,
          0., 0., 0., 0., 0., 0., 0., 0., 1.24378107e-03, 0.,
          2.48756213e-03, 0., 0., 4.97512426e-03, 1.24378107e-03,
          1.24378107e-03, 0., 2.48756213e-03, 0., 1.24378107e-03, 0., 0.,
          0., 0., 0., 1.24378107e-03, 3.73134320e-03, 1.24378107e-03,
          1.24378107e-03, 1.24378107e-03, 0., 0., 0., 0., 7.46268639e-03,
          0., 1.24378107e-03, 0., 0., 2.48756213e-03, 2.48756213e-03, 0.,
          1.24378107e-03, 0., 2.48756213e-03, 9.95024852e-03,
          1.24378107e-03, 0., 3.73134320e-03, 1.49253728e-02, 0.,
          1.24378107e-03, 1.24378107e-03, 1.24378107e-03, 1.24378107e-03,
          0., 0., 3.73134320e-03, 0., 0., 1.24378107e-03, 0., 0., 0.,
          2.48756213e-03, 0., 0., 0., 1.24378107e-03, 0., 0., 0., 0.,
          1.24378107e-03, 0., 3.73134320e-03, 0., 0., 1.24378107e-03, 0.,
          0., 1.24378107e-03, 0., 0., 3.48258689e-02, 0., 0., 0., 0.,
          1.24378107e-03, 1.24378107e-03, 0., 1.24378107e-03, 0., 0., 0.,
          2.48756213e-03, 1.24378107e-03, 0., 0., 0., 0., 1.24378107e-03,
          6.21890556e-03, 1.24378107e-03, 3.73134320e-03, 0., 0.,
          1.24378107e-03, 0., 0., 0., 0., 1.24378107e-03, 1.24378107e-03,
          7.46268639e-03, 2.48756213e-03, 1.24378107e-03, 1.24378107e-03,
          1.24378107e-03, 1.24378107e-03, 0., 0., 0., 1.24378107e-03, 0.,
          1.24378107e-03, 2.48756213e-03, 1.24378107e-03, 0., 0., 0.,
          2.48756213e-03, 0., 0., 1.24378107e-03, 0., 0., 0., 0.,
          1.24378107e-03, 1.24378107e-03, 0., 1.24378107e-03, 0., 0., 0.,
          1.24378107e-03, 0., 1.24378107e-03, 0., 1.24378107e-03,
          1.24378107e-03, 0., 0., 0., 1.24378107e-03, 0., 0., 0.,
          2.48756213e-03, 0., 3.73134320e-03, 1.24378107e-03,
          2.48756213e-03, 1.24378107e-03, 0., 1.24378107e-03, 0., 0.,
          1.24378107e-03, 2.48756213e-03, 0., 2.48756213e-03,
          1.49253728e-02, 0., 0., 0., 1.24378107e-03, 3.73134320e-03,
          1.24378107e-03, 0., 1.24378107e-03, 1.24378107e-03,
          1.24378107e-03, 0., 0., 0., 0., 1.24378107e-03, 0., 0., 0.,
          2.48756213e-03, 0., 0., 0., 0., 0., 0., 2.48756213e-03, 0., 0.,
          0., 0., 0., 2.48756213e-03, 0., 1.24378107e-03, 0., 0.,
          1.24378107e-03, 0., 3.73134320e-03, 0., 1.24378107e-03,
          1.24378107e-03, 1.24378107e-03, 0., 1.24378107e-03, 0., 0.,
          6.21890556e-03, 0., 1.24378107e-03, 1.24378107e-03, 0., 0.,
          1.24378107e-03, 0., 3.73134320e-03, 0., 1.24378107e-03,
          1.24378107e-03, 0., 0., 0., 0., 0., 1.24378107e-03,
          1.24378107e-03, 0., 0., 1.24378107e-03, 3.73134320e-03,
          1.24378107e-03, 0., 0., 2.48756213e-03, 0., 0., 9.95024852e-03,
          2.48756213e-03, 0., 0., 0., 0., 0., 3.73134320e-03,
          1.24378107e-03, 0., 0., 6.21890556e-03, 2.48756213e-03, 0., 0.,
          0., 0., 3.73134320e-03, 0., 0., 0., 0., 0., 0., 4.97512426e-03,
          0., 0., 0., 3.73134320e-03, 0., 0., 0., 0., 2.48756213e-03, 0.,
          0., 2.48756213e-03, 0., 1.24378107e-03, 2.48756213e-03, 0., 0.,
          0., 0., 1.24378107e-03, 0., 2.48756213e-03, 0., 0., 0., 0., 0.,
          0., 0., 0., 1.24378107e-03, 0., 1.24378107e-03, 0., 0.,
          3.73134320e-03, 2.48756213e-03, 3.73134320e-03, 0., 0.,
          1.24378107e-03, 0., 0., 0., 0., 1.24378107e-03, 1.24378107e-03,
          1.24378107e-03, 2.48756213e-03, 0., 0., 1.24378107e-03,
          1.24378107e-03, 0., 0., 0., 0., 2.48756222e-02, 2.48756213e-03,
          0., 2.48756213e-03, 0., 2.48756213e-03, 0., 0., 0., 0.,
          1.24378107e-03, 2.48756213e-03, 1.24378107e-03, 0., 0., 0.,
          3.73134320e-03, 1.24378107e-03, 2.48756213e-03, 0.,
          1.24378107e-03, 7.46268639e-03, 3.73134320e-03, 0., 0., 0., 0.,
          1.24378107e-03, 0., 1.24378107e-03, 0., 1.24378107e-03, 0.,
          2.48756213e-03, 0., 0., 0., 0., 3.73134320e-03, 1.24378107e-03,
          0., 2.48756213e-03, 0., 0., 0., 1.24378107e-03, 0.,
          1.24378107e-03, 0., 0., 0., 0., 0., 1.24378111e-02, 0., 0., 0.,
          1.24378107e-03, 0., 0., 0., 1.24378107e-03, 0., 0., 0., 0., 0.,
          0., 0., 0., 0., 0., 0., 0., 1.24378107e-03, 0., 3.73134320e-03,
          0., 0., 0., 0., 0., 0., 0., 0., 2.48756213e-03, 1.24378107e-03,
          0., 2.48756213e-03, 0., 0., 4.97512426e-03, 0., 0., 0., 0., 0.,
          0., 0., 0., 0., 1.24378107e-03, 0., 0., 2.48756213e-03, 0.,
          2.48756213e-03, 0., 4.97512426e-03, 1.24378107e-03,
          1.24378107e-03, 1.24378107e-03, 0., 0., 4.97512426e-03, 0., 0.,
          0., 0., 0., 0., 0., 0., 2.48756213e-03, 1.24378107e-03, 0.,
          1.24378107e-03, 0., 0., 0., 1.24378107e-03, 0., 0.,
          2.48756213e-03, 0., 0., 0., 1.24378107e-03, 0., 0., 0.,
          2.48756213e-03, 0., 0., 0., 0., 0., 0., 0., 0., 0., 0., 0., 0.,
          0., 0., 0., 0., 0., 1.24378107e-03, 0., 0., 3.73134320e-03, 0.,
          0., 0., 0., 0., 3.73134320e-03, 1.24378107e-03, 1.24378107e-03,
          0., 0., 0., 9.95024852e-03, 0., 0., 3.73134320e-03,
          1.24378107e-03, 0., 0., 0., 4.97512426e-03, 0., 1.24378107e-03,
          0., 1.24378107e-03, 0., 1.24378107e-03, 0., 0., 1.24378107e-03,
          0., 1.24378107e-03, 0., 0., 0., 2.61194017e-02, 1.24378107e-03,
          0., 0., 0., 0., 0., 0., 0., 0., 0., 0., 0., 1.24378107e-03, 0.,
          0., 0., 0., 3.73134320e-03, 2.98507456e-02, 0., 0., 0., 0., 0.,
          0., 1.24378107e-03, 2.48756213e-03, 2.48756213e-03, 0., 0., 0.,
          2.48756213e-03, 0., 0., 1.24378107e-03, 0., 0., 0., 0., 0.,
          1.24378107e-03, 0., 3.73134320e-03, 0., 3.73134320e-03,
          1.24378107e-03, 0., 0., 3.73134320e-03, 1.24378107e-03,
          4.97512426e-03, 1.24378107e-03, 0., 1.24378107e-03,
          2.48756213e-03, 3.73134320e-03, 0., 0., 0., 0., 0., 0.,
          9.95024852e-03, 6.21890556e-03, 0., 0., 0., 0., 1.24378107e-03,
          0., 0., 0., 0., 2.48756213e-03, 0., 0., 0., 2.48756213e-03, 0.,
          0., 0., 1.24378107e-03, 0., 0., 0., 0., 0., 0., 0.,
          1.24378107e-03, 0., 0., 0., 0., 0., 0., 0., 0., 6.21890556e-03,
          0., 0., 0., 0., 2.48756213e-03, 1.24378107e-03, 1.24378107e-03,
          0., 8.70646723e-03, 2.48756213e-03, 0., 0., 1.24378107e-03, 0.,
          0., 0., 1.24378107e-03, 2.48756213e-03, 0., 1.24378107e-03, 0.,
          0., 1.24378107e-03, 2.48756213e-03, 1.11940298e-02,
          4.97512426e-03, 0., 0., 1.24378107e-03, 0., 0., 0., 0.,
          2.48756213e-03, 1.24378107e-03, 0., 0., 1.24378107e-03, 0., 0.,
          0., 0., 7.28858681e-03, 4.15299879e-03, 4.43738373e-03,
          4.53054439e-03, 5.45969792e-03, 5.07970108e-03, 6.22214377e-03,
          6.83994498e-03, 1.19809359e-02, 1.55038759e-02, 2.88184788e-02,
          4.17310186e-02, 4.30254601e-02, 2.46287063e-02, 1.36087937e-02,
          1.22653209e-02, 1.17063578e-02, 1.91493947e-02, 2.51141209e-02,
          2.67150104e-02, 1.16524221e-02, 3.13313608e-03, 2.69675249e-04,
          1.71611518e-05, 2.45159322e-06, 0., 0., 0., 0., 0.,
          8.13928957e-04, 1.74798595e-03, 2.92475079e-03, 2.57907598e-03,
          2.86836410e-03, 2.88552511e-03, 3.73622798e-03, 3.66268028e-03,
          4.34667477e-03, 3.88822681e-03, 4.45454475e-03, 4.23390139e-03,
          4.44228714e-03, 4.77815513e-03, 4.58938256e-03, 6.56291516e-03,
          7.17581343e-03, 1.18804211e-02, 1.75043754e-02, 3.23781930e-02,
          4.24615927e-02, 3.53642330e-02, 1.63987074e-02, 1.43859489e-02,
          2.10248642e-02, 4.26381081e-02, 3.36064398e-02, 0., 0., 0.,
          2.91739590e-04, 1.05418509e-03, 1.58618076e-03, 1.90243637e-03,
          2.75804242e-03, 2.50307657e-03, 2.96887942e-03, 3.26797366e-03,
          3.82693694e-03, 3.72151844e-03, 4.01570974e-03, 3.51803633e-03,
          4.43493202e-03, 4.11377335e-03, 3.95932328e-03, 4.33932012e-03,
          4.38344851e-03, 5.69259934e-03, 6.76639751e-03, 1.09463641e-02,
          1.94803588e-02, 4.48371880e-02, 4.98752110e-02, 2.97598895e-02,
          1.96862929e-02, 3.63644809e-02, 5.72790243e-02 ]
      - [ 0., 5.40054031e-03, 9.00090032e-04, 0., 0., 2.70027015e-03,
          9.00090032e-04, 9.00090032e-04, 3.60036013e-03, 0.,
          1.80018006e-03, 9.00090032e-04, 9.00090032e-04, 0., 0., 0., 0.,
          0., 0., 0., 9.00090032e-04, 0., 0., 1.80018006e-03, 0., 0., 0.,
          9.00090032e-04, 0., 4.50045010e-03, 1.80018006e-03,
          9.00090032e-04, 2.70027015e-03, 9.00090032e-04, 9.00090032e-04,
          3.60036013e-03, 0., 1.80018006e-03, 0., 0., 1.80018006e-03, 0.,
          9.00090032e-04, 9.00090032e-04, 0., 0., 2.70027015e-03, 0., 0.,
          0., 0., 9.00090032e-04, 9.00090032e-04, 0., 0., 9.00090032e-04,
          0., 0., 0., 0., 9.00090032e-04, 0., 0., 9.00090032e-04, 0.,
          3.60036013e-03, 0., 0., 9.00090032e-04, 9.00090032e-04, 0.,
          9.00090032e-04, 0., 0., 9.00090032e-04, 0., 0., 9.00090032e-04,
          0., 0., 0., 0., 9.00090032e-04, 2.70027015e-03, 0.,
          1.80018006e-03, 0., 0., 1.80018006e-03, 9.00090032e-04, 0.,
          9.00090032e-04, 1.17011704e-02, 2.52025202e-02, 9.00090032e-04,
          0., 0., 9.00090032e-04, 0., 9.00090032e-04, 0., 0., 0., 0., 0.,
          0., 0., 9.00090032e-04, 0., 0., 0., 3.60036013e-03, 0., 0., 0.,
          0., 0., 2.70027015e-03, 0., 0., 0., 0., 9.00090032e-04, 0.,
          1.17011704e-02, 0., 9.00090032e-04, 0., 0., 1.26012601e-02, 0.,
          0., 0., 0., 9.00090032e-04, 9.00090032e-04, 0., 0., 0.,
          9.00090032e-04, 0., 0., 0., 9.00090032e-04, 0., 0., 0.,
          9.00090032e-04, 9.00090032e-04, 0., 0., 0., 0., 0., 0., 0.,
          1.80018006e-03, 0., 0., 0., 0., 0., 9.00090032e-04,
          9.00090032e-04, 0., 0., 1.80018006e-03, 0., 9.00090032e-04, 0.,
          0., 0., 9.00090032e-04, 0., 0., 0., 0., 0., 0., 1.80018006e-03,
          9.00090032e-04, 9.00090032e-04, 0., 1.80018006e-03, 0., 0.,
          9.00090032e-04, 9.00090032e-04, 1.80018006e-03, 2.70027015e-03,
          0., 0., 0., 9.00090032e-04, 0., 0., 3.60036013e-03, 0., 0., 0.,
          9.00090032e-04, 2.70027015e-03, 1.80018006e-03, 9.00090032e-04,
          0., 9.00090032e-04, 0., 0., 9.00090032e-04, 1.80018006e-03,
          9.00090032e-04, 0., 0., 0., 0., 2.70027015e-03, 0.,
          1.80018006e-03, 2.70027015e-03, 9.00090032e-04, 0.,
          1.80018006e-03, 0., 0., 0., 9.00090032e-04, 0., 0., 0.,
          1.80018006e-03, 0., 1.80018006e-03, 9.00090032e-04, 0., 0., 0.,
          9.00090032e-04, 1.80018006e-03, 1.80018006e-03, 2.70027015e-03,
          0., 0., 0., 0., 0., 0., 0., 0., 0., 9.00090032e-04,
          1.80018006e-03, 2.70027015e-03, 1.80018006e-03, 0., 0., 0., 0.,
          5.40054031e-03, 9.00090032e-04, 9.00090032e-04, 0., 0.,
          9.00090032e-04, 9.00090032e-04, 3.60036013e-03, 0.,
          2.70027015e-03, 0., 9.90098994e-03, 2.70027015e-03,
          9.00090032e-04, 9.00090032e-04, 0., 0., 0., 0., 9.00090032e-04,
          1.80018006e-03, 1.80018006e-03, 0., 0., 9.00090032e-04,
          9.00090032e-04, 0., 0., 0., 0., 9.00090032e-04, 0., 0., 0., 0.,
          9.00090032e-04, 0., 0., 0., 0., 0., 0., 0., 9.00090032e-04, 0.,
          0., 0., 0., 0., 0., 0., 9.00090032e-04, 1.80018006e-03,
          1.80018006e-03, 0., 0., 2.70027015e-03, 0., 0., 0., 0.,
          4.50045010e-03, 1.80018006e-03, 9.00090032e-04, 0.,
          9.00090032e-04, 9.00090032e-04, 0., 9.00090032e-04, 0., 0., 0.,
          0., 0., 0., 9.00090032e-04, 0., 0., 0., 0., 0., 1.80018006e-03,
          0., 1.80018006e-03, 0., 0., 9.00090032e-04, 3.60036013e-03,
          1.80018006e-03, 0., 9.00090032e-04, 0., 0., 0., 0., 0.,
          9.00090032e-04, 9.00090032e-04, 1.80018006e-03, 9.00090032e-04,
          2.70027015e-03, 1.80018006e-03, 1.80018006e-03, 9.00090032e-04,
          0., 0., 9.00090032e-04, 9.00090032e-04, 9.00090020e-03, 0., 0.,
          0., 1.80018006e-03, 0., 9.00090032e-04, 0., 9.00090032e-04, 0.,
          1.80018006e-03, 3.60036013e-03, 0., 0., 5.40054031e-03,
          6.30063005e-03, 0., 0., 0., 0., 9.00090032e-04, 0.,
          9.00090032e-04, 4.50045010e-03, 0., 6.30063005e-03,
          1.80018006e-03, 0., 1.80018006e-03, 0., 3.60036013e-03, 0.,
          9.00090032e-04, 0., 9.00090032e-04, 0., 0., 0., 9.00090032e-04,
          0., 0., 1.80018006e-03, 0., 0., 0., 0., 0., 1.80018006e-03, 0.,
          9.00090032e-04, 3.87038700e-02, 0., 0., 0., 9.00090032e-04, 0.,
          9.00090032e-04, 0., 0., 9.00090032e-04, 0., 0., 1.80018006e-03,
          1.80018006e-03, 9.00090032e-04, 0., 0., 0., 9.00090032e-04,
          5.40054031e-03, 0., 0., 0., 5.40054031e-03, 0., 9.00090032e-04,
          3.60036013e-03, 9.00090032e-04, 0., 0., 2.70027015e-03,
          2.61026118e-02, 1.80018006e-03, 9.00090032e-04, 1.80018006e-03,
          0., 1.80018006e-03, 0., 9.00090032e-04, 0., 3.60036013e-03,
          9.00090032e-04, 0., 1.80018006e-03, 2.70027015e-03, 0., 0., 0.,
          0., 0., 9.00090032e-04, 1.80018006e-03, 0., 9.00090032e-04, 0.,
          0., 9.00090032e-04, 0., 9.00090032e-04, 9.00090032e-04,
          2.70027015e-03, 0., 0., 0., 9.00090032e-04, 0., 0.,
          9.00090032e-04, 0., 0., 0., 0., 0., 0., 0., 9.00090032e-04,
          9.00090032e-04, 0., 4.50045010e-03, 9.00090032e-04,
          1.80018006e-03, 0., 6.30063005e-03, 9.00090032e-04, 0., 0.,
          9.00090032e-04, 1.80018006e-03, 1.80018006e-03, 0.,
          5.40054031e-03, 9.00090032e-04, 9.00090032e-04, 0., 0.,
          1.80018006e-03, 0., 9.00090032e-04, 9.00090032e-04,
          9.00090032e-04, 5.40054031e-03, 0., 9.00090032e-04,
          1.80018006e-03, 0., 0., 0., 9.00090032e-04, 1.80018006e-03,
          3.60036013e-03, 0., 0., 1.80018006e-03, 0., 0., 0., 0., 0.,
          2.70027015e-03, 9.00090032e-04, 9.00090032e-04, 0., 0.,
          4.50045010e-03, 0., 9.00090032e-04, 9.00090032e-04, 0.,
          9.00090032e-04, 1.80018006e-03, 0., 0., 0., 9.00090032e-04,
          9.00090032e-04, 9.00090032e-04, 0., 0., 1.71017107e-02,
          9.00090032e-04, 9.00090032e-04, 0., 0., 0., 0., 0., 0., 0.,
          9.00090032e-04, 1.80018006e-03, 0., 0., 0., 0., 9.00090032e-04,
          0., 0., 0., 0., 0., 9.00090032e-04, 0., 0., 0., 9.00090032e-04,
          0., 0., 8.10081046e-03, 0., 0., 0., 0., 0., 0., 0., 0., 0., 0.,
          1.17011704e-02, 2.70027015e-03, 9.00090032e-04, 0., 0., 0.,
          5.40054031e-03, 9.00090032e-04, 1.80018006e-03, 0.,
          9.00090032e-04, 9.00090032e-04, 0., 0., 0., 0., 0.,
          1.80018006e-03, 0., 0., 0., 9.00090032e-04, 9.00090032e-04, 0.,
          0., 9.00090032e-04, 0., 0., 1.80018006e-03, 0., 1.80018006e-03,
          1.80018006e-03, 0., 0., 9.00090032e-04, 7.20072025e-03,
          9.00090032e-04, 0., 0., 0., 0., 0., 0., 0., 0., 9.00090032e-04,
          8.10081046e-03, 0., 9.00090032e-04, 9.00090032e-04,
          2.70027015e-03, 4.50045010e-03, 0., 0., 9.00090020e-03, 0., 0.,
          0., 0., 0., 9.00090032e-04, 0., 9.00090032e-04, 2.70027015e-03,
          0., 0., 8.10081046e-03, 1.80018006e-03, 0., 0., 9.00090032e-04,
          1.62016209e-02, 0., 0., 9.00090032e-04, 0., 9.00090032e-04,
          9.90098994e-03, 0., 0., 0., 0., 9.00090032e-04, 0.,
          9.00090032e-04, 0., 0., 0., 9.00090032e-04, 0., 0., 0.,
          5.40054031e-03, 0., 0., 0., 9.00090032e-04, 0., 0.,
          9.00090032e-04, 6.30063005e-03, 0., 0., 9.00090032e-04,
          9.00090032e-04, 0., 1.80018006e-03, 0., 1.80018006e-03,
          9.00090032e-04, 9.00090032e-04, 0., 0., 9.00090032e-04, 0., 0.,
          0., 4.50045010e-03, 0., 9.00090032e-04, 0., 0., 0., 0.,
          9.00090020e-03, 1.80018006e-03, 1.80018006e-03, 0., 0., 0., 0.,
          0., 1.80018006e-03, 9.00090032e-04, 0., 9.00090032e-04,
          9.00090032e-04, 0., 1.80018006e-03, 9.00090032e-04, 0.,
          9.00090032e-04, 0., 0., 0., 9.00090032e-04, 0., 1.80018006e-03,
          2.70027015e-03, 0., 3.60036013e-03, 0., 0., 0., 0., 0., 0.,
          9.00090032e-04, 0., 9.00090032e-04, 0., 3.60036013e-03,
          3.60036013e-03, 0., 0., 9.00090032e-04, 0., 0., 0.,
          9.00090032e-04, 0., 9.00090032e-04, 0., 9.00090032e-04, 0.,
          1.80018006e-03, 0., 1.80018006e-03, 9.00090032e-04, 0.,
          9.00090032e-04, 1.80018006e-03, 0., 0., 0., 4.50045010e-03, 0.,
          9.00090032e-04, 1.80018006e-03, 0., 9.00090032e-04,
          9.00090032e-04, 9.00090032e-04, 0., 9.00090032e-04,
          9.00090032e-04, 0., 0., 0., 0., 0., 9.00090032e-04,
          9.00090032e-04, 2.70027015e-03, 0., 2.70027015e-03, 0., 0.,
          2.70027015e-03, 0., 0., 0., 0., 2.70027015e-03, 0., 0., 0., 0.,
          9.00090032e-04, 0., 0., 0., 0., 3.60036013e-03, 0.,
          9.00090032e-04, 0., 0., 0., 0., 0., 1.80018006e-03, 0., 0., 0.,
          0., 9.00090032e-04, 0., 0., 0., 0., 9.00090032e-04,
          9.00090032e-04, 9.00090032e-04, 9.00090032e-04, 1.80018006e-03,
          0., 0., 2.70027015e-03, 0., 0., 4.50045010e-03, 0.,
          9.00090020e-03, 9.00090032e-04, 0., 0., 0., 0., 1.80018006e-03,
          0., 0., 0., 0., 0., 9.00090032e-04, 0., 0., 1.80018004e-02, 0.,
          9.00090032e-04, 1.80018006e-03, 9.00090032e-04, 0., 0.,
          9.00090032e-04, 0., 0., 0., 0., 0., 0., 0., 9.00090032e-04, 0.,
          0., 1.80018006e-03, 3.06030605e-02, 9.00090032e-04, 0., 0., 0.,
          2.70027015e-03, 9.00090032e-04, 0., 6.30063005e-03,
          4.50045010e-03, 9.00090032e-04, 0., 9.00090032e-04, 0., 0., 0.,
          0., 0., 0., 0., 9.00090032e-04, 1.80018006e-03, 9.00090032e-04,
          0., 0., 0., 1.08010806e-02, 3.60036013e-03, 0., 9.00090032e-04,
          2.70027015e-03, 1.80018006e-03, 4.50045010e-03, 0., 0.,
          1.80018006e-03, 9.00090032e-04, 2.70027015e-03, 9.00090032e-04,
          0., 0., 2.70027015e-03, 0., 9.00090032e-04, 4.50045010e-03,
          1.80018006e-03, 9.00090032e-04, 0., 9.00090032e-04, 0., 0., 0.,
          0., 0., 9.00090032e-04, 0., 0., 0., 0., 0., 0., 0., 0., 0.,
          9.00090032e-04, 0., 0., 0., 2.70027015e-03, 9.00090032e-04, 0.,
          0., 0., 0., 0., 0., 0., 0., 1.80018006e-03, 0., 6.30063005e-03,
          9.00090032e-04, 0., 0., 0., 3.60036013e-03, 1.80018006e-03, 0.,
          0., 5.40054031e-03, 9.00090032e-04, 9.00090032e-04, 0.,
          9.00090032e-04, 9.00090032e-04, 0., 0., 9.00090032e-04,
          3.60036013e-03, 9.00090032e-04, 0., 0., 0., 9.00090032e-04, 0.,
          1.26012601e-02, 5.40054031e-03, 0., 9.00090032e-04,
          9.00090032e-04, 9.00090032e-04, 0., 9.00090032e-04,
          9.00090032e-04, 6.30063005e-03, 0., 9.00090032e-04, 0.,
          9.00090032e-04, 1.80018006e-03, 0., 0., 0., 1.83491446e-02,
          4.10522427e-03, 3.79253551e-03, 3.54854367e-03, 4.46529035e-03,
          4.36342927e-03, 5.85343875e-03, 6.89810328e-03, 1.09962216e-02,
          1.41491666e-02, 2.34753452e-02, 2.90990043e-02, 4.33381870e-02,
          4.61665988e-02, 3.44241895e-02, 3.03497594e-02, 1.99812856e-02,
          1.60868894e-02, 8.12753849e-03, 4.14075702e-03, 1.10862381e-03,
          3.55328142e-04, 1.06598440e-04, 3.79016674e-05, 1.42131248e-05,
          0., 0., 0., 0., 0., 6.59489026e-03, 7.59928441e-03,
          3.19321547e-03, 1.74821436e-03, 2.13433756e-03, 2.17697700e-03,
          2.65311683e-03, 2.57968227e-03, 3.32587142e-03, 3.07477266e-03,
          3.83517495e-03, 3.38509260e-03, 4.06495389e-03, 4.11233073e-03,
          3.83754377e-03, 4.50319191e-03, 4.90826601e-03, 7.67745636e-03,
          1.10720247e-02, 2.01139413e-02, 2.66732983e-02, 4.60505262e-02,
          5.01510128e-02, 4.72823307e-02, 3.24793607e-02, 2.10449006e-02,
          7.06155458e-03, 0., 0., 0., 3.91334714e-03, 7.23211188e-03,
          4.47713444e-03, 1.94719818e-03, 1.77427183e-03, 1.63450942e-03,
          2.33805901e-03, 2.10117362e-03, 2.69575603e-03, 2.85210041e-03,
          3.22874822e-03, 3.11504328e-03, 3.54854367e-03, 3.52248619e-03,
          3.29033844e-03, 3.61487153e-03, 3.58170760e-03, 4.24972456e-03,
          4.95801168e-03, 8.94953124e-03, 1.48598226e-02, 3.03023830e-02,
          4.49182130e-02, 6.55675158e-02, 5.09540550e-02, 3.77405845e-02,
          1.59660783e-02 ]
      - [ 0., 1.17233291e-03, 0., 0., 0., 0., 3.51699861e-03,
          1.17233293e-02, 0., 2.34466582e-03, 0., 2.34466582e-03, 0.,
          1.17233291e-03, 0., 1.17233291e-03, 0., 1.17233291e-03,
          2.34466582e-03, 0., 0., 1.17233291e-03, 0., 3.51699861e-03,
          2.34466582e-03, 0., 0., 2.34466582e-03, 2.34466582e-03,
          3.51699861e-03, 0., 1.17233291e-03, 2.34466582e-03,
          1.17233291e-03, 0., 3.51699861e-03, 0., 0., 0., 1.17233291e-03,
          1.17233291e-03, 0., 0., 0., 0., 0., 5.86166466e-03, 0., 0., 0.,
          0., 0., 0., 1.17233291e-03, 0., 0., 1.17233291e-03, 0., 0.,
          1.17233291e-03, 0., 0., 0., 0., 0., 2.34466582e-03,
          1.17233291e-03, 1.17233291e-03, 1.17233291e-03, 0., 0., 0.,
          2.34466582e-03, 0., 0., 1.17233291e-03, 0., 0., 1.17233291e-03,
          0., 2.34466582e-03, 0., 0., 2.34466582e-03, 1.17233291e-03, 0.,
          0., 0., 4.68933163e-03, 0., 1.17233291e-03, 0., 2.34466582e-03,
          3.28253210e-02, 0., 0., 3.51699861e-03, 1.17233293e-02, 0.,
          2.34466582e-03, 1.17233291e-03, 0., 0., 0., 0., 0., 0.,
          1.17233291e-03, 0., 0., 2.34466582e-03, 3.51699861e-03, 0.,
          2.34466582e-03, 0., 1.17233291e-03, 0., 2.34466582e-03, 0., 0.,
          1.17233291e-03, 0., 0., 0., 2.46189907e-02, 0., 0.,
          1.17233291e-03, 0., 5.86166466e-03, 0., 0., 0., 0.,
          1.17233291e-03, 0., 1.17233291e-03, 1.17233291e-03,
          1.17233291e-03, 3.51699861e-03, 0., 0., 0., 1.17233291e-03, 0.,
          0., 2.34466582e-03, 2.34466582e-03, 0., 0., 3.51699861e-03, 0.,
          0., 1.17233291e-03, 0., 0., 0., 1.17233291e-03, 0., 0., 0., 0.,
          2.34466582e-03, 0., 0., 0., 1.17233291e-03, 1.17233291e-03,
          2.34466582e-03, 0., 0., 0., 0., 0., 1.17233291e-03, 0., 0., 0.,
          0., 1.17233291e-03, 0., 0., 0., 3.51699861e-03, 1.17233291e-03,
          0., 0., 0., 1.17233291e-03, 0., 0., 1.17233291e-03, 0.,
          1.17233291e-03, 0., 0., 2.34466582e-03, 0., 0., 0.,
          1.17233291e-03, 0., 0., 0., 0., 0., 0., 0., 0., 0.,
          4.68933163e-03, 0., 0., 0., 0., 2.34466582e-03, 0.,
          4.68933163e-03, 2.34466582e-03, 0., 0., 0., 0., 0.,
          1.17233291e-03, 3.51699861e-03, 1.17233291e-03, 1.17233291e-03,
          0., 1.17233291e-03, 2.34466582e-03, 0., 0., 0., 0., 0., 0.,
          1.17233291e-03, 2.34466582e-03, 1.17233291e-03, 0., 0., 0., 0.,
          0., 0., 0., 0., 1.17233291e-03, 0., 2.34466582e-03,
          2.34466582e-03, 1.17233291e-03, 0., 0., 0., 0., 4.68933163e-03,
          0., 0., 1.17233291e-03, 1.17233291e-03, 1.17233291e-03, 0.,
          1.17233291e-03, 1.17233291e-03, 3.51699861e-03, 0., 0.,
          1.17233291e-03, 0., 1.17233291e-03, 0., 1.17233291e-03, 0., 0.,
          0., 1.17233291e-03, 2.34466582e-03, 0., 0., 1.17233291e-03,
          2.34466582e-03, 0., 1.17233291e-03, 0., 1.17233291e-03, 0., 0.,
          0., 0., 0., 0., 0., 0., 0., 0., 0., 0., 0., 1.17233291e-03, 0.,
          0., 0., 1.17233291e-03, 0., 1.17233291e-03, 0., 1.17233291e-03,
          0., 0., 0., 0., 0., 0., 0., 0., 0., 0., 0., 1.17233291e-03, 0.,
          0., 0., 0., 0., 0., 2.34466582e-03, 0., 0., 0., 0., 0., 0., 0.,
          0., 0., 0., 0., 0., 0., 0., 1.17233291e-03, 0., 0.,
          4.68933163e-03, 0., 1.17233291e-03, 3.51699861e-03,
          1.17233291e-03, 0., 0., 0., 0., 0., 0., 1.17233291e-03, 0., 0.,
          1.17233291e-03, 0., 1.17233291e-03, 0., 0., 1.17233291e-03,
          1.28956623e-02, 0., 0., 0., 0., 1.17233291e-03, 0., 0.,
          1.17233291e-03, 0., 1.17233291e-03, 4.68933163e-03, 0.,
          1.17233291e-03, 2.34466582e-03, 1.17233293e-02, 0., 0., 0., 0.,
          0., 0., 0., 1.17233291e-03, 0., 0., 1.17233291e-03, 0., 0.,
          1.17233291e-03, 0., 0., 0., 0., 0., 0., 0., 0., 0., 0., 0., 0.,
          0., 0., 0., 0., 0., 0., 0., 2.34466582e-03, 2.46189907e-02, 0.,
          2.34466582e-03, 0., 1.17233291e-03, 1.17233291e-03,
          5.86166466e-03, 0., 0., 0., 0., 0., 0., 2.34466582e-03, 0., 0.,
          3.51699861e-03, 0., 2.34466582e-03, 7.03399722e-03, 0., 0., 0.,
          2.34466582e-03, 0., 1.17233291e-03, 0., 0., 0., 1.17233291e-03,
          1.17233291e-03, 1.05509963e-02, 1.17233291e-03, 0., 0., 0.,
          5.86166466e-03, 0., 0., 0., 0., 0., 0., 0., 1.17233291e-03, 0.,
          0., 1.17233291e-03, 0., 0., 0., 1.17233291e-03, 0., 0., 0., 0.,
          0., 0., 0., 0., 1.17233291e-03, 0., 0., 4.68933163e-03,
          2.34466582e-03, 0., 2.34466582e-03, 2.34466582e-03, 0., 0., 0.,
          0., 0., 0., 0., 0., 5.86166466e-03, 1.17233291e-03,
          4.68933163e-03, 0., 0., 0., 4.68933163e-03, 0., 0., 0.,
          7.03399722e-03, 2.34466582e-03, 1.17233291e-03, 3.51699861e-03,
          3.51699861e-03, 1.17233291e-03, 0., 0., 1.17233291e-03,
          1.17233291e-03, 1.17233291e-03, 0., 0., 0., 0., 0., 0., 0., 0.,
          1.17233291e-03, 1.17233291e-03, 0., 0., 7.03399722e-03,
          1.17233291e-03, 0., 1.17233291e-03, 0., 0., 0., 0., 0., 0.,
          1.17233291e-03, 0., 0., 0., 0., 0., 1.17233291e-03, 0.,
          2.34466582e-03, 2.34466582e-03, 0., 0., 0., 1.17233291e-03,
          1.17233291e-03, 7.03399722e-03, 0., 0., 0., 1.17233291e-03,
          1.17233291e-03, 0., 0., 0., 0., 0., 0., 1.17233291e-03,
          3.51699861e-03, 1.17233291e-03, 1.17233291e-03, 0., 0., 0., 0.,
          0., 1.17233291e-03, 0., 1.17233291e-03, 0., 0., 1.17233291e-03,
          1.17233291e-03, 0., 0., 0., 0., 1.17233291e-03, 1.17233291e-03,
          4.68933163e-03, 0., 1.17233291e-03, 1.17233291e-03,
          1.17233291e-03, 0., 0., 0., 0., 0., 1.52403275e-02,
          5.86166466e-03, 0., 1.17233291e-03, 1.17233291e-03, 0.,
          3.51699861e-03, 0., 0., 0., 0., 0., 0., 0., 0., 1.17233291e-03,
          0., 0., 0., 0., 0., 0., 1.17233291e-03, 0., 0., 0.,
          1.17233291e-03, 0., 1.17233291e-03, 0., 0., 0., 0., 0., 0.,
          2.34466582e-03, 0., 0., 0., 0., 0., 0., 0., 0., 0., 0.,
          4.68933163e-03, 0., 0., 1.17233291e-03, 0., 5.86166466e-03, 0.,
          0., 0., 0., 0., 0., 1.17233291e-03, 1.17233291e-03,
          1.17233291e-03, 1.17233291e-03, 0., 3.51699861e-03, 0.,
          1.17233291e-03, 0., 2.34466582e-03, 1.17233291e-03,
          1.17233291e-03, 0., 3.63423191e-02, 2.34466582e-03, 0., 0.,
          2.34466582e-03, 0., 2.34466582e-03, 0., 0., 0., 1.17233291e-03,
          0., 0., 1.17233291e-03, 0., 0., 0., 1.17233291e-03,
          1.17233291e-03, 0., 1.17233291e-03, 1.28956623e-02, 0., 0., 0.,
          0., 0., 2.34466582e-03, 0., 1.17233293e-02, 0., 0.,
          2.34466582e-03, 0., 0., 1.17233291e-03, 0., 1.17233291e-03, 0.,
          0., 0., 1.17233291e-03, 0., 0., 2.34466582e-03, 1.17233291e-03,
          1.17233291e-03, 0., 0., 2.34466582e-03, 0., 1.17233291e-03, 0.,
          1.28956623e-02, 2.34466582e-03, 2.34466582e-03, 1.17233291e-03,
          0., 0., 0., 0., 1.17233291e-03, 0., 0., 0., 2.34466582e-03, 0.,
          0., 0., 0., 0., 1.17233291e-03, 0., 0., 1.17233291e-03, 0.,
          1.17233291e-03, 0., 0., 2.34466582e-03, 0., 0., 0., 0., 0., 0.,
          0., 0., 0., 0., 1.17233291e-03, 4.68933163e-03, 0., 0., 0., 0.,
          0., 1.17233291e-03, 0., 0., 1.17233291e-03, 0., 0., 0., 0., 0.,
          4.68933163e-03, 0., 0., 0., 0., 0., 0., 0., 2.34466582e-03, 0.,
          0., 0., 0., 0., 0., 0., 0., 0., 0., 0., 0., 0., 0., 0., 0., 0.,
          0., 0., 3.51699861e-03, 0., 0., 1.17233291e-03, 2.34466582e-03,
          2.34466582e-03, 0., 0., 0., 1.17233291e-03, 2.34466582e-03,
          1.17233291e-03, 0., 0., 0., 0., 0., 0., 2.34466582e-03, 0., 0.,
          0., 0., 1.17233291e-03, 0., 0., 0., 0., 0., 0., 0.,
          3.51699861e-03, 0., 0., 1.17233291e-03, 3.51699861e-03,
          1.17233291e-03, 0., 2.34466582e-03, 0., 8.20633024e-03, 0.,
          1.17233291e-03, 2.34466582e-03, 1.17233291e-03, 2.34466582e-03,
          1.17233291e-03, 0., 1.99296586e-02, 0., 1.17233291e-03, 0., 0.,
          0., 1.17233291e-03, 0., 0., 0., 0., 1.17233291e-03,
          1.17233291e-03, 0., 0., 4.33763191e-02, 1.17233291e-03, 0., 0.,
          0., 0., 0., 0., 1.17233291e-03, 0., 0., 0., 1.17233291e-03, 0.,
          1.17233291e-03, 3.51699861e-03, 0., 0., 0., 2.22743247e-02,
          5.86166466e-03, 0., 0., 0., 4.68933163e-03, 2.34466582e-03,
          1.17233291e-03, 1.17233291e-03, 0., 0., 0., 0., 1.17233291e-03,
          1.17233291e-03, 0., 0., 0., 0., 0., 0., 0., 2.34466582e-03, 0.,
          5.86166466e-03, 0., 1.17233291e-03, 0., 0., 0., 0., 0.,
          2.34466582e-03, 1.17233291e-03, 1.17233291e-03, 0.,
          2.34466582e-03, 1.17233291e-03, 1.17233291e-03, 0., 0., 0., 0.,
          0., 2.11019926e-02, 7.03399722e-03, 1.17233291e-03, 0., 0.,
          2.34466582e-03, 1.17233291e-03, 0., 0., 0., 0., 0., 0., 0., 0.,
          0., 0., 0., 1.17233291e-03, 1.17233291e-03, 0., 0., 0., 0., 0.,
          0., 0., 0., 1.17233291e-03, 0., 0., 0., 0., 0., 0., 0.,
          7.03399722e-03, 1.17233291e-03, 0., 0., 0., 2.34466582e-03, 0.,
          0., 0., 2.34466582e-03, 3.51699861e-03, 1.17233291e-03, 0.,
          1.17233291e-03, 0., 0., 0., 0., 1.17233291e-03, 1.17233291e-03,
          0., 1.17233291e-03, 0., 0., 0., 1.52403275e-02, 1.17233291e-03,
          0., 2.34466582e-03, 0., 1.17233291e-03, 0., 0., 1.17233291e-03,
          1.17233291e-03, 1.17233291e-03, 4.68933163e-03, 0., 0.,
          2.34466582e-03, 0., 0., 0., 1.06595121e-02, 6.11792784e-03,
          4.47157538e-03, 3.67662846e-03, 3.79406381e-03, 3.41465743e-03,
          3.98602523e-03, 3.92956613e-03, 4.94583324e-03, 6.27375534e-03,
          1.16757797e-02, 1.96658969e-02, 3.73421684e-02, 4.37536873e-02,
          2.89568361e-02, 2.49437112e-02, 2.24120766e-02, 3.31799909e-02,
          3.34284119e-02, 2.21455898e-02, 3.90020711e-03, 5.44267474e-04,
          1.06143452e-04, 6.77511389e-06, 2.25837130e-06, 0., 0., 0., 0.,
          0., 4.62966127e-04, 2.08899355e-03, 5.21457940e-03,
          4.61836951e-03, 3.91375739e-03, 2.82296422e-03, 3.14816949e-03,
          2.75069615e-03, 2.92233238e-03, 2.53163418e-03, 2.91781570e-03,
          2.67617009e-03, 2.86813150e-03, 2.94491625e-03, 2.94491625e-03,
          3.65856150e-03, 3.45756649e-03, 5.41331619e-03, 7.96527602e-03,
          1.63393170e-02, 2.71998234e-02, 4.69718650e-02, 3.80287133e-02,
          3.16826925e-02, 3.76447923e-02, 5.86363524e-02, 1.15086604e-02,
          0., 0., 0., 1.67119477e-04, 6.72994647e-04, 2.28095497e-03,
          2.93136598e-03, 3.86181497e-03, 3.48692527e-03, 3.87084833e-03,
          3.05783469e-03, 3.10074375e-03, 2.61519407e-03, 2.82973913e-03,
          2.35999795e-03, 2.56325142e-03, 2.66939495e-03, 2.35096458e-03,
          2.84103118e-03, 2.80038035e-03, 3.56370979e-03, 3.79406381e-03,
          5.95532497e-03, 1.00700781e-02, 2.57318821e-02, 4.32387777e-02,
          5.33811226e-02, 3.98263782e-02, 6.17732294e-02, 4.15382236e-02 ]
      - [ 0., 0., 0., 0., 0., 0., 0., 4.72440943e-03, 0., 0., 0.,
          9.44881886e-03, 0., 0., 0., 0., 0., 1.57480314e-03,
          1.57480314e-03, 0., 1.57480314e-03, 0., 0., 0., 0.,
          1.57480314e-03, 0., 0., 0., 0., 0., 0., 1.57480314e-03, 0., 0.,
          7.87401572e-03, 0., 0., 1.57480314e-03, 1.57480314e-03, 0., 0.,
          0., 0., 1.57480314e-03, 0., 0., 0., 0., 0., 1.57480314e-03, 0.,
          0., 1.57480314e-03, 0., 0., 0., 0., 0., 1.57480314e-03, 0., 0.,
          0., 0., 0., 6.29921257e-03, 1.57480314e-03, 0., 0., 0., 0., 0.,
          3.14960629e-03, 0., 0., 1.57480314e-03, 0., 0., 0., 0., 0., 0.,
          0., 9.44881886e-03, 0., 0., 0., 0., 0., 0., 0., 0.,
          4.72440943e-03, 4.72440943e-02, 0., 4.72440943e-03, 0.,
          3.14960629e-03, 0., 1.57480314e-03, 0., 4.72440943e-03, 0., 0.,
          0., 0., 0., 0., 1.57480314e-03, 0., 0., 3.14960629e-03, 0., 0.,
          0., 3.14960629e-03, 0., 0., 0., 0., 0., 0., 0., 0.,
          2.20472440e-02, 0., 0., 0., 0., 0., 0., 0., 0., 0., 0., 0., 0.,
          0., 0., 0., 0., 1.57480314e-03, 0., 0., 0., 0., 0., 0., 0., 0.,
          3.14960629e-03, 0., 0., 0., 0., 0., 0., 4.72440943e-03, 0., 0.,
          0., 0., 1.57480314e-03, 0., 1.57480314e-03, 0., 0., 0., 0., 0.,
          0., 0., 1.57480314e-03, 0., 0., 0., 0., 1.57480314e-03, 0.,
          3.14960629e-03, 0., 0., 0., 0., 0., 0., 0., 0., 1.57480314e-03,
          0., 0., 0., 0., 0., 0., 0., 1.57480314e-03, 0., 0., 0.,
          4.72440943e-03, 0., 0., 0., 0., 0., 0., 0., 0., 1.57480314e-03,
          4.72440943e-03, 0., 0., 0., 0., 3.14960629e-03, 0., 0.,
          4.72440943e-03, 0., 0., 0., 0., 0., 1.57480314e-03,
          3.14960629e-03, 0., 0., 0., 0., 3.14960629e-03, 0., 0.,
          1.57480314e-03, 0., 0., 0., 3.14960629e-03, 0., 0., 0., 0., 0.,
          0., 0., 0., 0., 0., 0., 0., 1.57480314e-03, 0., 0., 0., 0.,
          6.29921257e-03, 0., 1.10236220e-02, 0., 0., 0., 0., 0.,
          1.57480314e-03, 0., 1.57480314e-03, 0., 0., 0., 6.29921257e-03,
          0., 1.57480314e-03, 0., 0., 0., 0., 0., 1.57480314e-03, 0., 0.,
          0., 0., 1.57480314e-03, 0., 0., 0., 0., 1.57480314e-03, 0., 0.,
          0., 0., 0., 0., 0., 0., 0., 0., 0., 0., 1.57480314e-03, 0.,
          1.57480314e-03, 0., 3.14960629e-03, 0., 0., 1.57480314e-03, 0.,
          0., 0., 0., 0., 0., 0., 1.57480314e-03, 0., 0., 0., 0.,
          1.57480314e-03, 0., 3.14960629e-03, 0., 0., 0., 0., 0., 0., 0.,
          0., 0., 0., 0., 0., 0., 0., 0., 1.57480314e-03, 0., 0., 0., 0.,
          3.14960629e-03, 0., 1.57480314e-03, 1.57480314e-03, 0.,
          1.57480314e-03, 0., 0., 0., 0., 0., 3.14960629e-03, 0., 0.,
          3.14960629e-03, 3.14960629e-03, 3.14960629e-03, 1.57480314e-03,
          1.57480314e-03, 0., 0., 0., 1.57480314e-03, 0., 0., 0., 0., 0.,
          0., 0., 0., 0., 0., 1.41732283e-02, 0., 0., 9.44881886e-03,
          1.57480314e-02, 0., 0., 0., 0., 0., 0., 0., 1.57480314e-03, 0.,
          1.57480314e-03, 0., 0., 0., 0., 1.57480314e-03, 0., 0., 0.,
          3.14960629e-03, 0., 0., 0., 1.57480314e-03, 0., 0.,
          1.57480314e-03, 0., 0., 1.57480314e-03, 0., 0., 3.14960629e-03,
          0., 1.57480314e-03, 5.03937006e-02, 0., 0., 0., 0.,
          1.57480314e-03, 4.72440943e-03, 0., 3.14960629e-03, 0., 0., 0.,
          0., 1.57480314e-03, 0., 0., 1.57480314e-03, 0., 0.,
          1.57480314e-03, 0., 0., 0., 0., 1.57480314e-03, 1.57480314e-03,
          0., 0., 0., 0., 1.57480314e-03, 9.44881886e-03, 1.57480314e-03,
          0., 1.57480314e-03, 1.57480314e-03, 3.14960629e-03, 0.,
          1.57480314e-03, 0., 1.57480314e-03, 0., 0., 0., 0., 0., 0., 0.,
          0., 0., 0., 4.72440943e-03, 0., 0., 0., 0., 0., 0., 0., 0.,
          1.57480314e-03, 0., 0., 1.57480314e-03, 1.57480314e-03, 0.,
          1.57480314e-03, 9.44881886e-03, 0., 0., 0., 0., 0., 0., 0.,
          1.57480314e-03, 7.87401572e-03, 1.57480314e-03, 7.87401572e-03,
          1.57480314e-03, 0., 0., 0., 1.57480314e-03, 0., 0.,
          3.14960629e-03, 1.57480314e-03, 0., 0., 3.14960629e-03, 0., 0.,
          0., 7.87401572e-03, 0., 0., 0., 0., 3.14960629e-03, 0., 0., 0.,
          0., 0., 3.14960629e-03, 0., 0., 1.57480314e-03, 4.72440943e-03,
          1.57480314e-03, 0., 0., 0., 0., 0., 3.14960629e-03, 0., 0., 0.,
          0., 0., 0., 0., 0., 0., 0., 1.57480314e-03, 0., 0.,
          1.57480314e-03, 0., 0., 1.57480314e-03, 7.87401572e-03, 0., 0.,
          1.57480314e-03, 0., 0., 0., 0., 0., 0., 0., 0., 0., 0.,
          1.57480314e-03, 1.57480314e-03, 0., 0., 0., 0., 1.57480314e-03,
          0., 0., 0., 0., 0., 0., 3.14960629e-03, 0., 0., 0., 0., 0.,
          3.14960629e-03, 0., 0., 0., 0., 0., 0., 1.57480314e-03, 0., 0.,
          0., 9.44881886e-03, 1.57480314e-03, 0., 0., 0., 1.57480314e-03,
          3.14960629e-03, 0., 0., 0., 0., 0., 0., 0., 0., 0., 0., 0., 0.,
          0., 0., 0., 3.14960629e-03, 0., 0., 0., 1.57480314e-03, 0.,
          1.57480314e-03, 0., 0., 1.57480314e-03, 0., 0., 0.,
          1.57480314e-03, 0., 0., 0., 0., 0., 0., 4.72440943e-03, 0.,
          1.57480314e-03, 0., 1.57480314e-03, 1.57480314e-03,
          1.57480314e-03, 6.29921257e-03, 1.57480314e-03, 7.87401572e-03,
          1.57480314e-03, 0., 3.14960629e-03, 0., 0., 0., 0., 0., 0., 0.,
          0., 0., 0., 0., 0., 0., 1.57480314e-03, 0., 1.57480314e-03,
          4.72440943e-02, 0., 0., 3.14960629e-03, 0., 3.14960629e-03, 0.,
          1.10236220e-02, 0., 0., 0., 0., 0., 0., 1.57480314e-03, 0.,
          1.57480314e-03, 0., 1.57480314e-03, 0., 1.57480314e-03,
          2.04724409e-02, 0., 0., 0., 1.57480314e-03, 0., 1.57480314e-03,
          0., 4.72440943e-03, 0., 0., 0., 0., 0., 0., 0., 0., 0., 0., 0.,
          0., 1.57480314e-03, 0., 6.29921257e-03, 0., 1.57480314e-03, 0.,
          0., 0., 0., 1.57480314e-03, 0., 2.20472440e-02, 0., 0., 0., 0.,
          0., 0., 0., 3.14960629e-03, 0., 0., 0., 0., 0., 0., 0., 0., 0.,
          0., 0., 0., 1.57480314e-03, 0., 0., 0., 0., 0., 0., 0.,
          1.57480314e-03, 0., 0., 1.57480314e-03, 0., 0., 0., 0.,
          1.57480314e-03, 6.29921257e-03, 0., 0., 1.57480314e-03, 0., 0.,
          0., 1.57480314e-03, 0., 0., 0., 0., 0., 0., 0., 4.72440943e-03,
          0., 0., 0., 0., 0., 0., 0., 4.72440943e-03, 0., 0., 0., 0.,
          1.57480314e-03, 0., 0., 0., 0., 1.57480314e-03, 0., 0., 0., 0.,
          0., 0., 0., 0., 0., 0., 0., 1.57480314e-03, 1.57480314e-03, 0.,
          0., 0., 0., 0., 0., 1.57480314e-03, 0., 0., 0., 0., 0., 0.,
          3.14960629e-03, 3.14960629e-03, 0., 0., 0., 0., 0., 0., 0., 0.,
          1.57480314e-03, 0., 0., 0., 1.57480314e-03, 0., 0., 0.,
          1.57480314e-03, 0., 0., 1.57480314e-03, 0., 6.29921257e-03, 0.,
          0., 1.57480314e-03, 1.57480314e-03, 0., 1.57480314e-03, 0.,
          3.14960629e-03, 1.57480314e-03, 0., 0., 6.29921257e-03, 0.,
          1.57480314e-03, 0., 0., 0., 0., 1.57480314e-03, 4.72440943e-03,
          0., 0., 4.72440943e-02, 1.57480314e-03, 0., 1.57480314e-03, 0.,
          0., 0., 0., 3.14960629e-03, 0., 0., 0., 0., 0., 1.57480314e-03,
          1.57480314e-03, 0., 0., 0., 3.14960629e-02, 1.57480314e-03, 0.,
          0., 0., 1.57480314e-03, 0., 1.57480314e-03, 0., 0., 0., 0., 0.,
          0., 0., 0., 1.57480314e-03, 0., 0., 0., 0., 0., 0., 0., 0., 0.,
          4.72440943e-03, 0., 0., 0., 0., 0., 0., 0., 0., 1.57480314e-03,
          0., 1.57480314e-03, 0., 0., 0., 0., 0., 0., 2.99212597e-02,
          4.72440943e-03, 0., 0., 0., 0., 1.57480314e-03, 0., 0.,
          1.57480314e-03, 0., 0., 0., 0., 0., 0., 0., 0., 0.,
          1.57480314e-03, 0., 0., 0., 0., 0., 1.57480314e-03, 0.,
          6.29921257e-03, 0., 0., 0., 0., 0., 0., 1.57480314e-03, 0.,
          3.14960629e-03, 0., 0., 0., 0., 3.14960629e-03, 0.,
          1.57480314e-03, 0., 4.72440943e-03, 0., 0., 1.57480314e-03, 0.,
          9.44881886e-03, 0., 0., 0., 1.57480314e-03, 0., 3.14960629e-03,
          0., 0., 1.57480314e-03, 0., 1.57480314e-03, 0., 0.,
          1.57480314e-03, 0., 4.72440943e-03, 0., 0., 3.14960629e-03,
          1.57480314e-03, 0., 0., 0., 0., 0., 0., 0., 0., 6.31046062e-03,
          6.74643787e-03, 8.79428536e-03, 6.84608985e-03, 6.76636817e-03,
          5.56057924e-03, 6.38021668e-03, 7.90987443e-03, 2.42527965e-02,
          6.08001538e-02, 5.17268404e-02, 1.63952392e-02, 1.53713152e-02,
          2.25960817e-02, 2.96589155e-02, 3.43425572e-02, 1.49577595e-02,
          5.39366249e-03, 1.39761879e-03, 8.89393734e-04, 2.29199504e-04,
          7.47389731e-06, 0., 0., 0., 0., 0., 0., 0., 0., 1.49228808e-03,
          1.24315824e-03, 1.32287981e-03, 1.35277538e-03, 2.46140338e-03,
          3.63978790e-03, 6.03143498e-03, 5.66023123e-03, 6.19087787e-03,
          5.23421913e-03, 5.17691951e-03, 4.10815189e-03, 4.38717753e-03,
          4.50675981e-03, 4.47188178e-03, 6.40263828e-03, 1.23967044e-02,
          4.27606553e-02, 6.24419190e-02, 2.20255740e-02, 9.30251088e-03,
          1.21699953e-02, 2.11685672e-02, 5.04762083e-02, 3.16718854e-02,
          4.63630771e-03, 6.00403058e-04, 0., 0., 0., 1.57948362e-03,
          1.09368027e-03, 1.13104971e-03, 9.99010867e-04, 1.24814082e-03,
          1.54211407e-03, 2.63579446e-03, 3.69210518e-03, 6.23572152e-03,
          5.56556182e-03, 5.12709329e-03, 4.59146407e-03, 5.22176269e-03,
          5.29151922e-03, 4.34233434e-03, 5.09470655e-03, 5.27906278e-03,
          9.94277466e-03, 2.55931150e-02, 6.99257776e-02, 3.58024575e-02,
          1.48830200e-02, 1.56902019e-02, 4.03266586e-02, 4.85579111e-02,
          1.11410888e-02, 7.99706962e-04 ]
   decision_functions:
      -
         sv_count: 9
         rho: -1.0000000791624188e+00
         alpha: [ 5.7091346153846159e-03, 2.5540865384615384e-02,
             3.1250000000000000e-02, 3.1250000000000000e-02,
             3.1250000000000000e-02, -3.1250000000000000e-02,
             -3.1250000000000000e-02, -3.1250000000000000e-02,
             -3.1250000000000000e-02 ]
         index: [ 0, 1, 2, 3, 4, 5, 6, 7, 8 ]
