%YAML:1.0
my_svm: !!opencv-ml-svm
   svm_type: C_SVC
   kernel: { type:RBF, gamma:1. }
   C: 1.
   term_criteria: { epsilon:1.1920928955078125e-07, iterations:1000 }
   var_all: 1000
   var_count: 1000
   class_count: 2
   class_labels: !!opencv-matrix
      rows: 1
      cols: 2
      dt: i
      data: [ 0, 1 ]
   sv_total: 20
   support_vectors:
      - [ 6.64010644e-03, 0., 0., 3.98406386e-03, 0., 0., 0., 0., 0.,
          1.32802129e-03, 2.65604258e-03, 0., 0., 0., 0., 0., 0.,
          1.32802129e-03, 0., 0., 1.32802129e-03, 0., 0., 0., 0., 0., 0.,
          0., 0., 0., 0., 0., 1.32802129e-03, 2.65604258e-03, 0., 0., 0.,
          0., 1.32802129e-03, 0., 1.32802129e-03, 0., 0., 0.,
          3.98406386e-03, 0., 0., 0., 1.32802129e-03, 0., 3.98406386e-03,
          1.32802129e-03, 3.98406386e-03, 0., 0., 0., 0., 0.,
          1.32802129e-03, 0., 2.65604258e-03, 0., 1.32802129e-03,
          1.32802129e-03, 0., 0., 0., 0., 0., 0., 0., 0., 0., 0., 0.,
          1.32802129e-03, 1.32802129e-03, 2.65604258e-03, 0., 0.,
          1.32802129e-03, 0., 3.98406386e-03, 0., 1.32802129e-03, 0.,
          1.32802129e-03, 0., 0., 0., 0., 0., 0., 0., 0., 0., 0., 0., 0.,
          0., 0., 0., 0., 0., 0., 0., 0., 0., 1.32802129e-03,
          5.31208515e-03, 0., 0., 0., 1.32802129e-03, 0., 0., 0.,
          3.98406386e-03, 0., 0., 0., 2.65604258e-03, 3.98406386e-03, 0.,
          0., 3.98406386e-03, 1.32802129e-03, 0., 0., 0., 0., 0., 0.,
          1.32802129e-03, 0., 2.65604258e-03, 0., 0., 0., 1.32802129e-03,
          2.65604258e-03, 2.65604258e-03, 0., 1.32802129e-03, 0., 0.,
          5.31208515e-03, 0., 5.31208515e-03, 1.32802129e-03,
          1.32802129e-03, 0., 0., 2.65604258e-03, 0., 1.32802129e-03, 0.,
          0., 1.32802129e-03, 0., 0., 0., 9.29614902e-03, 0.,
          2.65604258e-03, 1.32802129e-03, 3.98406386e-03, 0., 0., 0., 0.,
          0., 0., 0., 0., 1.32802129e-03, 0., 0., 0., 0., 0.,
          5.31208515e-03, 0., 0., 1.32802129e-03, 0., 0., 0.,
          2.65604258e-03, 0., 0., 0., 0., 0., 0., 0., 0., 0., 0., 0.,
          2.65604258e-03, 0., 0., 0., 5.31208515e-03, 2.65604258e-03, 0.,
          0., 0., 0., 1.32802129e-03, 0., 0., 0., 0., 0., 0., 0., 0., 0.,
          2.65604258e-03, 0., 0., 0., 0., 0., 1.32802129e-03, 0., 0., 0.,
          0., 0., 2.65604258e-03, 0., 2.65604258e-03, 2.65604258e-03, 0.,
          3.98406386e-03, 0., 0., 0., 1.32802129e-03, 0., 0.,
          1.32802129e-03, 3.98406386e-03, 1.32802129e-03, 0.,
          6.64010644e-03, 0., 0., 0., 0., 0., 1.32802129e-03, 0., 0., 0.,
          0., 2.65604258e-03, 0., 0., 0., 1.32802129e-03, 0., 0.,
          1.32802129e-03, 5.31208515e-03, 0., 0., 5.31208515e-03, 0.,
          1.32802129e-03, 0., 5.31208515e-03, 1.32802129e-03,
          2.65604258e-03, 1.32802129e-03, 1.32802129e-03, 2.65604258e-03,
          0., 0., 1.32802129e-03, 1.32802129e-03, 0., 0., 1.32802129e-03,
          0., 1.32802129e-03, 0., 0., 1.32802129e-03, 0., 0.,
          1.32802129e-03, 0., 0., 1.32802129e-03, 0., 0., 0.,
          1.32802129e-03, 0., 0., 0., 0., 2.65604258e-03, 0., 0., 0.,
          1.32802129e-03, 0., 0., 2.12483406e-02, 1.32802129e-03, 0.,
          1.32802129e-03, 0., 5.31208515e-03, 2.65604258e-03,
          1.32802129e-03, 0., 0., 1.32802129e-03, 1.32802129e-03, 0.,
          1.85922980e-02, 5.31208515e-03, 0., 1.32802129e-03,
          1.32802129e-03, 0., 0., 0., 0., 6.64010644e-03, 0., 0.,
          3.98406386e-03, 1.32802129e-03, 0., 1.32802129e-03,
          1.32802129e-03, 0., 1.72642767e-02, 0., 0., 0., 1.32802129e-03,
          0., 0., 2.65604258e-03, 1.32802129e-03, 0., 0., 0., 0., 0., 0.,
          0., 0., 6.64010644e-03, 1.32802129e-03, 1.32802129e-03,
          1.32802129e-03, 0., 0., 1.32802129e-03, 0., 0., 0., 0., 0., 0.,
          0., 0., 0., 2.65604258e-03, 0., 0., 0., 0., 0., 6.64010644e-03,
          0., 1.32802129e-03, 0., 0., 0., 0., 1.32802129e-03, 0., 0., 0.,
          0., 0., 0., 0., 0., 0., 0., 0., 1.32802129e-03, 0.,
          2.65604258e-03, 0., 0., 0., 0., 2.65604258e-03, 1.32802129e-03,
          0., 0., 0., 6.64010644e-03, 0., 3.98406386e-03, 1.32802129e-03,
          2.65604258e-03, 0., 0., 2.65604258e-03, 1.32802129e-03, 0.,
          1.32802129e-03, 0., 0., 0., 0., 0., 0., 5.31208515e-03, 0., 0.,
          0., 0., 0., 0., 0., 0., 0., 0., 0., 1.32802129e-03, 0.,
          1.32802129e-03, 0., 0., 0., 0., 0., 2.65604258e-03, 0., 0.,
          3.98406386e-03, 1.32802129e-03, 0., 0., 0., 0., 0.,
          2.92164683e-02, 0., 9.29614902e-03, 1.32802129e-03, 0., 0.,
          1.32802129e-03, 1.32802129e-03, 0., 1.32802129e-03,
          1.32802129e-03, 0., 0., 0., 0., 0., 0., 1.32802129e-03, 0., 0.,
          1.32802129e-03, 1.32802129e-03, 0., 0., 0., 0., 5.31208515e-03,
          0., 0., 3.98406386e-03, 0., 1.32802129e-03, 1.32802129e-03,
          1.32802129e-03, 1.32802129e-03, 0., 1.32802129e-03, 0., 0., 0.,
          0., 0., 6.64010644e-03, 0., 0., 0., 0., 0., 0., 0.,
          3.98406386e-03, 5.31208515e-03, 0., 0., 0., 0., 0., 0., 0.,
          3.18725109e-02, 0., 0., 0., 0., 0., 0., 0., 0., 0., 0., 0., 0.,
          0., 0., 5.31208515e-03, 2.52324045e-02, 0., 0., 0.,
          1.32802129e-03, 0., 1.32802129e-03, 0., 1.32802129e-03, 0., 0.,
          0., 0., 0., 0., 1.32802129e-03, 0., 0., 0., 2.65604258e-03, 0.,
          0., 0., 1.32802129e-03, 0., 0., 0., 0., 0., 0., 1.32802129e-03,
          1.32802129e-03, 0., 0., 0., 5.31208515e-03, 2.65604258e-03, 0.,
          0., 1.32802129e-03, 1.32802129e-03, 3.98406386e-03, 0.,
          2.65604258e-03, 0., 0., 0., 1.32802129e-03, 0., 0.,
          3.98406386e-03, 0., 0., 0., 0., 0., 1.32802129e-03, 0., 0., 0.,
          0., 1.32802129e-03, 2.65604258e-03, 0., 0., 1.32802129e-03, 0.,
          0., 0., 1.32802129e-03, 0., 0., 2.65604258e-03, 0.,
          2.65604258e-03, 0., 1.32802129e-03, 0., 0., 0., 0., 0.,
          2.65604258e-03, 1.32802129e-03, 0., 0., 0., 0., 0.,
          1.32802129e-03, 0., 0., 0., 0., 0., 0., 0., 0., 0., 0., 0., 0.,
          5.31208515e-03, 2.65604258e-03, 0., 0., 1.32802129e-03,
          2.65604258e-03, 0., 0., 0., 0., 0., 0., 0., 1.32802129e-03,
          1.32802129e-03, 1.32802129e-03, 0., 1.32802129e-03,
          1.32802129e-03, 0., 7.96812773e-03, 0., 0., 1.32802129e-03, 0.,
          0., 0., 0., 0., 0., 2.65604258e-03, 0., 0., 0., 0., 0., 0., 0.,
          1.32802129e-03, 0., 1.32802129e-03, 0., 0., 0., 0.,
          1.32802129e-03, 1.32802129e-03, 0., 0., 0., 5.31208515e-03, 0.,
          0., 0., 0., 0., 0., 0., 0., 0., 1.32802129e-03, 1.32802129e-03,
          1.06241703e-02, 0., 0., 0., 0., 0., 0., 0., 0., 0.,
          3.98406386e-03, 1.32802129e-03, 0., 0., 0., 0., 3.58565748e-02,
          0., 2.65604258e-03, 2.65604258e-03, 1.32802129e-03, 0., 0., 0.,
          0., 0., 0., 1.32802129e-03, 0., 0., 0., 1.59362555e-02,
          2.65604258e-03, 0., 0., 0., 0., 0., 0., 0., 2.65604258e-03,
          3.98406386e-03, 0., 0., 0., 0., 0., 0., 0., 0., 0.,
          3.98406386e-03, 0., 0., 1.32802129e-03, 0., 0., 0., 0.,
          2.65604258e-03, 0., 0., 0., 0., 6.64010644e-03, 0., 0., 0., 0.,
          0., 0., 0., 0., 6.64010644e-03, 0., 0., 1.32802129e-03, 0., 0.,
          0., 0., 0., 0., 0., 0., 0., 0., 0., 2.65604258e-03, 0.,
          2.65604258e-03, 0., 0., 0., 0., 6.64010644e-03, 1.32802129e-03,
          0., 0., 0., 0., 0., 0., 0., 0., 1.32802129e-03, 0., 0., 0.,
          1.32802129e-03, 0., 2.65604258e-03, 0., 0., 0., 0.,
          5.31208515e-03, 0., 1.32802129e-03, 0., 0., 2.65604258e-03,
          1.32802129e-03, 0., 2.65604258e-03, 1.06241703e-02, 0., 0., 0.,
          1.32802129e-03, 0., 2.65604258e-03, 0., 0., 0., 0.,
          1.59362555e-02, 0., 0., 0., 0., 0., 3.98406386e-03,
          6.64010644e-03, 0., 0., 0., 0., 0., 0., 0., 0., 0., 0., 0., 0.,
          3.98406386e-03, 0., 0., 0., 0., 0., 0., 0., 0., 0., 0., 0.,
          2.65604258e-03, 6.64010644e-03, 3.98406386e-03, 2.65604258e-03,
          0., 0., 0., 0., 0., 2.65604258e-03, 2.65604258e-03, 0., 0., 0.,
          0., 0., 0., 2.65604258e-02, 0., 0., 1.32802129e-03, 0., 0., 0.,
          0., 0., 0., 1.32802129e-02, 0., 0., 0., 0., 0., 0., 0.,
          3.98406386e-03, 1.32802129e-03, 0., 0., 1.32802129e-03,
          3.98406386e-03, 1.72642767e-02, 0., 0., 0., 1.32802129e-03, 0.,
          1.32802129e-03, 2.65604258e-03, 0., 3.98406386e-03,
          1.32802129e-03, 0., 0., 0., 1.99203193e-02, 0., 2.65604258e-03,
          1.32802129e-03, 0., 0., 0., 0., 0., 3.98406386e-03, 0., 0., 0.,
          6.64010644e-03, 1.32802129e-03, 2.65604258e-03, 1.32802129e-03,
          0., 2.65604258e-03, 0., 1.32802129e-03, 0., 0., 0.,
          1.32802129e-03, 0., 0., 1.32802129e-03, 5.31208515e-03,
          1.32802129e-03, 0., 0., 9.29614902e-03, 2.65604258e-03, 0., 0.,
          1.32802129e-03, 0., 0., 0., 0., 0., 0., 0., 1.32802129e-03, 0.,
          0., 0., 0., 0., 2.65604258e-03, 0., 2.65604258e-03, 0., 0., 0.,
          0., 0., 0., 0., 0., 0., 1.32802129e-03, 0., 0., 0., 0., 0., 0.,
          0., 0., 0., 0., 0., 0., 0., 0. ]
      - [ 1.52801359e-02, 0., 8.48896452e-04, 1.69779290e-03,
          8.48896452e-04, 8.48896452e-04, 0., 8.48896452e-04,
          8.48896452e-04, 8.48896452e-04, 8.48896452e-04, 8.48896452e-04,
          1.69779290e-03, 0., 0., 0., 0., 0., 5.09337895e-03, 0.,
          8.48896452e-04, 8.48896452e-04, 0., 0., 5.94227528e-03, 0., 0.,
          0., 8.48896452e-04, 1.69779290e-03, 8.48896452e-04, 0., 0., 0.,
          8.48896452e-04, 0., 0., 0., 0., 0., 5.94227528e-03, 0., 0., 0.,
          1.69779290e-03, 0., 0., 0., 0., 8.48896452e-04, 0., 0.,
          8.48896452e-04, 8.48896452e-04, 0., 1.69779290e-03,
          8.48896452e-04, 3.39558581e-03, 8.48896452e-04, 0.,
          1.69779290e-03, 0., 0., 0., 0., 1.69779290e-03, 0., 0.,
          2.54668947e-03, 2.54668947e-03, 1.69779290e-03, 0., 0.,
          8.48896452e-04, 0., 8.48896452e-04, 0., 8.48896452e-04, 0.,
          4.24448214e-03, 0., 0., 0., 5.09337895e-03, 8.48896452e-04,
          1.69779290e-03, 0., 1.01867579e-02, 0., 0., 0., 8.48896452e-04,
          0., 0., 8.48896452e-04, 8.48896452e-04, 0., 4.24448214e-03, 0.,
          8.48896452e-04, 3.39558581e-03, 1.69779290e-03, 0.,
          1.69779290e-03, 0., 0., 0., 8.48896452e-04, 2.54668947e-03, 0.,
          0., 0., 8.48896452e-04, 2.54668947e-03, 0., 0., 0.,
          1.69779290e-03, 0., 8.48896452e-04, 0., 8.48896452e-04, 0., 0.,
          8.48896452e-04, 8.48896452e-04, 3.39558581e-03, 8.48896452e-04,
          3.39558581e-03, 0., 1.69779290e-03, 1.69779290e-03,
          7.64006795e-03, 0., 8.48896452e-04, 8.48896452e-04, 0., 0.,
          3.39558581e-03, 0., 8.48896452e-04, 0., 0., 1.69779290e-03, 0.,
          0., 0., 0., 3.39558581e-03, 0., 0., 0., 0., 0., 0.,
          8.48896452e-04, 0., 0., 2.54668947e-03, 0., 8.48896452e-04, 0.,
          8.48896452e-04, 0., 0., 2.54668947e-03, 8.48896452e-04,
          1.69779290e-03, 0., 8.48896452e-04, 0., 0., 0., 3.39558581e-03,
          0., 3.90492380e-02, 2.54668947e-03, 0., 1.69779290e-03, 0., 0.,
          2.54668947e-03, 9.33786109e-03, 1.69779290e-03, 1.69779290e-03,
          8.48896452e-04, 0., 8.48896452e-04, 0., 0., 8.48896452e-04, 0.,
          8.48896452e-04, 0., 0., 0., 0., 0., 0., 8.48896452e-04, 0.,
          1.69779290e-03, 0., 1.69779290e-03, 3.39558581e-03,
          5.09337895e-03, 1.69779290e-03, 0., 8.48896452e-04,
          8.48896452e-04, 0., 8.48896452e-04, 8.48896452e-04,
          8.48896452e-04, 8.48896452e-04, 0., 0., 0., 8.48896452e-04,
          1.69779290e-03, 0., 0., 1.69779290e-03, 0., 8.48896452e-04,
          8.48896452e-04, 0., 8.48896452e-04, 0., 0., 8.48896452e-04, 0.,
          0., 8.48896452e-04, 1.69779290e-03, 3.39558581e-03, 0.,
          8.48896452e-04, 0., 0., 0., 8.48896452e-04, 8.48896452e-04, 0.,
          0., 2.12224107e-02, 0., 8.48896452e-04, 8.48896452e-04,
          2.54668947e-03, 0., 0., 0., 2.54668947e-03, 0., 0., 0., 0.,
          1.69779290e-03, 0., 0., 0., 8.48896452e-04, 0., 0.,
          8.48896429e-03, 1.69779290e-03, 0., 0., 8.48896452e-04,
          1.86757222e-02, 0., 8.48896452e-04, 0., 8.48896452e-04, 0.,
          8.48896452e-04, 8.48896452e-04, 0., 1.69779290e-03, 0.,
          8.48896452e-04, 8.48896452e-04, 1.69779290e-03, 0., 0., 0., 0.,
          0., 0., 0., 1.69779290e-03, 0., 0., 0., 0., 2.54668947e-03, 0.,
          2.54668947e-03, 0., 8.48896452e-04, 0., 1.69779290e-03,
          8.48896452e-04, 0., 0., 1.69779290e-03, 8.48896452e-04,
          8.48896452e-04, 8.48896452e-04, 0., 0., 0., 1.01867579e-02,
          1.69779290e-03, 1.69779290e-03, 1.69779290e-03, 0.,
          4.24448214e-03, 0., 0., 0., 8.48896452e-04, 0., 0.,
          8.48896452e-04, 1.69779290e-03, 7.64006795e-03, 0.,
          8.48896452e-04, 0., 0., 8.48896452e-04, 0., 1.69779290e-03,
          2.54668947e-03, 0., 8.48896452e-04, 1.69779290e-03,
          8.48896452e-04, 0., 0., 8.48896452e-04, 8.48896452e-04, 0.,
          8.48896452e-04, 8.48896452e-04, 0., 3.39558581e-03, 0., 0., 0.,
          8.48896452e-04, 0., 4.24448214e-03, 0., 0., 0., 0., 0.,
          4.24448214e-03, 8.48896452e-04, 1.69779290e-03, 0.,
          2.54668947e-03, 0., 0., 8.48896452e-04, 0., 2.54668947e-03,
          8.48896452e-04, 8.48896452e-04, 0., 0., 0., 0., 0., 0., 0., 0.,
          0., 0., 0., 1.69779290e-03, 0., 8.48896452e-04, 0.,
          8.48896452e-04, 0., 0., 0., 0., 0., 2.54668947e-03, 0., 0.,
          8.48896452e-04, 8.48896452e-04, 8.48896452e-04, 8.48896452e-04,
          0., 0., 8.48896452e-04, 8.48896452e-04, 0., 0., 0., 0., 0., 0.,
          0., 0., 2.54668947e-03, 0., 5.09337895e-03, 1.69779290e-03,
          1.69779290e-03, 0., 0., 0., 0., 0., 3.39558581e-03, 0.,
          5.09337895e-03, 0., 2.54668947e-03, 0., 0., 8.48896452e-04, 0.,
          0., 8.48896452e-04, 8.48896452e-04, 0., 8.48896452e-04,
          1.69779290e-03, 0., 8.48896452e-04, 0., 8.48896452e-04, 0.,
          8.48896452e-04, 0., 0., 0., 0., 8.48896452e-04, 0., 0.,
          1.69779290e-03, 8.48896452e-04, 0., 0., 0., 1.69779290e-03,
          8.48896452e-04, 0., 1.69779290e-03, 6.79117162e-03, 0.,
          8.48896452e-04, 0., 8.48896452e-04, 0., 8.48896452e-04, 0., 0.,
          0., 0., 1.69779290e-03, 0., 0., 0., 0., 0., 0., 8.48896452e-04,
          0., 0., 0., 1.69779290e-03, 0., 1.69779290e-03, 0.,
          8.48896452e-04, 3.39558581e-03, 5.94227528e-03, 0., 0., 0.,
          8.48896429e-03, 8.48896452e-04, 2.54668947e-03, 8.48896452e-04,
          0., 0., 0., 8.48896452e-04, 0., 0., 0., 8.48896452e-04,
          4.24448214e-03, 0., 7.64006795e-03, 0., 0., 2.54668947e-03,
          8.48896452e-04, 8.48896452e-04, 0., 0., 0., 0., 0.,
          1.69779290e-03, 8.48896452e-04, 8.48896452e-04, 0., 0.,
          1.69779290e-03, 8.48896452e-04, 0., 0., 0., 0., 8.48896452e-04,
          1.69779290e-03, 0., 2.54668947e-03, 8.48896452e-04, 0., 0.,
          2.54668947e-03, 0., 2.54668947e-03, 0., 0., 1.69779290e-03, 0.,
          1.69779290e-03, 0., 0., 0., 0., 3.39558581e-03, 0., 0.,
          8.48896452e-04, 8.48896452e-04, 0., 2.54668947e-03, 0., 0.,
          8.48896452e-04, 0., 2.54668947e-03, 0., 1.69779290e-03, 0.,
          8.48896452e-04, 0., 0., 0., 1.69779290e-03, 1.69779290e-03, 0.,
          0., 8.48896452e-04, 0., 3.39558581e-03, 8.48896452e-04,
          1.69779290e-03, 0., 2.54668947e-03, 0., 0., 0., 1.69779290e-03,
          1.69779290e-03, 0., 1.69779290e-03, 0., 2.54668947e-03,
          8.48896452e-04, 0., 0., 0., 0., 0., 8.48896452e-04, 0.,
          2.37691011e-02, 8.48896452e-04, 0., 8.48896452e-04,
          8.48896452e-04, 6.79117162e-03, 0., 0., 1.69779290e-03,
          2.54668947e-03, 0., 1.69779290e-03, 0., 8.48896452e-04, 0.,
          1.69779290e-03, 0., 2.54668947e-03, 0., 1.69779290e-03,
          4.24448214e-03, 8.48896452e-04, 0., 8.48896452e-04, 0., 0., 0.,
          0., 0., 0., 8.48896452e-04, 0., 8.48896452e-04, 0., 0., 0., 0.,
          3.39558581e-03, 0., 1.69779290e-03, 8.48896452e-04, 0., 0.,
          1.69779290e-03, 0., 3.39558581e-03, 8.48896452e-04,
          2.54668947e-03, 0., 0., 8.48896452e-04, 5.09337895e-03,
          2.54668947e-03, 0., 2.54668947e-03, 0., 0., 2.54668947e-03,
          8.48896452e-04, 8.48896452e-04, 8.48896452e-04, 0.,
          8.48896452e-04, 0., 8.48896452e-04, 8.48896452e-04,
          1.69779290e-03, 1.69779290e-03, 0., 1.69779290e-03, 0., 0., 0.,
          2.54668947e-03, 0., 1.69779290e-03, 0., 0., 2.54668947e-03, 0.,
          5.09337895e-03, 0., 0., 3.39558581e-03, 0., 0., 0., 0., 0.,
          1.69779290e-03, 1.69779290e-03, 0., 8.48896452e-04,
          1.52801359e-02, 8.48896452e-04, 3.39558581e-03, 0., 0.,
          8.48896452e-04, 0., 0., 8.48896452e-04, 1.69779290e-03, 0., 0.,
          0., 0., 0., 8.48896452e-04, 0., 0., 3.39558581e-03,
          1.69779290e-03, 1.69779290e-03, 0., 0., 0., 0., 7.64006795e-03,
          2.54668947e-03, 2.54668947e-03, 1.69779290e-03, 0., 0.,
          3.39558581e-03, 1.69779290e-03, 0., 0., 0., 8.48896452e-04, 0.,
          0., 1.69779290e-03, 1.69779290e-03, 0., 0., 2.54668947e-03, 0.,
          1.69779290e-03, 0., 2.54668947e-03, 0., 0., 0., 1.69779290e-03,
          8.48896452e-04, 0., 0., 1.69779290e-03, 0., 1.69779290e-03, 0.,
          3.39558581e-03, 0., 8.48896452e-04, 0., 1.69779290e-03, 0., 0.,
          0., 0., 0., 0., 8.48896452e-04, 1.69779290e-03, 8.48896452e-04,
          0., 8.48896452e-04, 8.48896452e-04, 1.69779290e-03,
          8.48896452e-04, 8.48896429e-03, 1.69779290e-03, 0., 0.,
          1.69779290e-03, 0., 8.48896452e-04, 2.54668947e-03,
          1.44312400e-02, 2.54668929e-02, 8.48896452e-04, 0., 0., 0., 0.,
          0., 0., 0., 0., 8.48896452e-04, 0., 0., 8.48896452e-04, 0.,
          8.48896452e-04, 0., 0., 0., 5.94227528e-03, 0., 8.48896452e-04,
          0., 0., 1.69779290e-03, 8.48896452e-04, 0., 1.69779290e-03,
          3.39558581e-03, 8.48896452e-04, 0., 0., 0., 0., 0., 0.,
          8.48896452e-04, 0., 1.69779290e-03, 0., 8.48896452e-04, 0.,
          3.39558581e-03, 0., 0., 0., 8.48896452e-04, 0., 0.,
          1.01867579e-02, 0., 0., 8.48896452e-04, 4.24448214e-03, 0.,
          8.48896452e-04, 2.54668947e-03, 0., 3.39558581e-03, 0., 0., 0.,
          6.79117162e-03, 0., 0., 0., 0., 8.48896452e-04, 0.,
          2.54668947e-03, 0., 1.69779290e-03, 8.48896452e-04, 0.,
          8.48896452e-04, 8.48896452e-04, 0., 0., 1.69779290e-03, 0., 0.,
          0., 0., 8.48896452e-04, 8.48896452e-04, 8.48896452e-04,
          4.24448214e-03, 0., 0., 8.48896452e-04, 0., 0., 8.48896452e-04,
          1.69779290e-03, 0., 0., 2.54668947e-03, 2.54668947e-03,
          8.48896452e-04, 8.48896452e-04, 0., 1.69779290e-03,
          1.69779290e-03, 0., 1.69779290e-03, 8.48896452e-04, 0.,
          2.54668947e-03, 0., 8.48896452e-04, 8.48896452e-04,
          8.48896452e-04, 0., 8.48896452e-04, 2.54668947e-03, 0.,
          8.48896452e-04, 8.48896452e-04, 0., 0., 8.48896452e-04, 0.,
          1.69779290e-03, 1.69779290e-03, 0., 8.48896452e-04, 0., 0.,
          8.48896452e-04, 0., 0., 8.48896452e-04, 0., 8.48896452e-04,
          1.69779290e-03, 8.48896452e-04, 2.54668947e-03, 0.,
          2.54668947e-03, 0., 8.48896452e-04, 0., 8.48896452e-04, 0.,
          8.48896452e-04, 0., 8.48896452e-04, 5.09337895e-03,
          8.48896429e-03, 8.48896452e-04, 8.48896452e-04, 0., 0., 0.,
          2.54668947e-03, 1.69779290e-03, 8.48896452e-04, 0., 0.,
          8.48896452e-04, 0., 0., 0., 0., 8.48896452e-04, 8.48896452e-04,
          0., 0., 0., 1.69779290e-03, 1.69779290e-03, 8.48896452e-04, 0.,
          8.48896452e-04, 8.48896452e-04, 0., 1.69779290e-03,
          1.69779290e-03, 3.39558581e-03, 0., 2.54668947e-03, 0., 0., 0.,
          1.69779290e-03, 8.48896452e-04, 0., 0., 0., 0., 0., 0., 0., 0.,
          0., 0., 1.10356538e-02, 0., 8.48896452e-04, 0., 0., 0., 0., 0.,
          0., 0., 8.48896452e-04, 0., 1.69779290e-03, 2.54668947e-03, 0.,
          8.48896452e-04, 8.48896452e-04, 0., 0., 0., 1.69779290e-03, 0.,
          1.69779290e-03, 1.69779290e-03, 0., 0., 0., 0., 0., 0., 0. ]
      - [ 2.09944732e-02, 0., 1.10497233e-03, 0., 0., 1.10497233e-03, 0.,
          0., 0., 3.31491698e-03, 0., 0., 0., 0., 1.10497233e-03, 0., 0.,
          0., 0., 0., 0., 1.10497233e-03, 0., 0., 2.20994465e-03,
          5.52486163e-03, 0., 0., 0., 1.10497233e-03, 0., 1.10497233e-03,
          0., 0., 2.20994465e-03, 0., 0., 0., 0., 0., 1.10497233e-03, 0.,
          0., 0., 1.10497233e-03, 0., 0., 1.10497233e-03, 0., 0., 0., 0.,
          0., 0., 0., 1.10497233e-03, 0., 4.41988930e-03, 0., 0.,
          3.31491698e-03, 0., 0., 1.10497233e-03, 0., 0., 0., 0., 0., 0.,
          0., 1.10497233e-03, 0., 1.10497233e-03, 0., 1.10497233e-03, 0.,
          2.20994465e-03, 2.20994465e-03, 3.31491698e-03, 0., 0., 0.,
          1.10497233e-03, 1.10497233e-03, 0., 0., 3.31491698e-03,
          5.52486163e-03, 1.10497233e-03, 0., 0., 0., 0., 0.,
          4.41988930e-03, 0., 0., 0., 0., 0., 1.10497233e-03, 0.,
          1.10497233e-03, 1.10497233e-03, 0., 2.20994465e-03, 0.,
          1.10497233e-03, 0., 0., 0., 0., 0., 0., 0., 0., 0., 0.,
          5.52486163e-03, 0., 0., 0., 0., 1.10497233e-03, 5.52486163e-03,
          2.20994465e-03, 2.20994465e-03, 3.31491698e-03, 1.10497233e-03,
          0., 1.10497233e-03, 1.10497233e-03, 1.10497233e-03, 0.,
          1.10497233e-03, 0., 0., 3.31491698e-03, 0., 0., 0., 0., 0., 0.,
          1.10497233e-03, 0., 0., 0., 0., 0., 0., 0., 0., 1.10497233e-03,
          2.20994465e-03, 0., 0., 4.41988930e-03, 1.10497233e-03, 0., 0.,
          1.10497233e-03, 0., 0., 0., 0., 1.10497233e-03, 0., 0., 0.,
          2.20994465e-03, 0., 0., 0., 1.98895019e-02, 0., 0.,
          4.41988930e-03, 0., 0., 1.10497233e-03, 0., 0., 8.83977860e-03,
          0., 0., 0., 0., 0., 0., 1.10497233e-03, 0., 0., 0., 0., 0., 0.,
          0., 0., 4.41988930e-03, 0., 0., 0., 6.62983395e-03,
          5.52486163e-03, 0., 0., 1.10497233e-03, 0., 0., 0.,
          1.10497233e-03, 0., 0., 0., 0., 0., 0., 5.52486163e-03, 0.,
          1.10497233e-03, 1.10497233e-03, 0., 1.10497233e-03, 0.,
          4.41988930e-03, 0., 0., 0., 1.10497233e-03, 0., 1.10497233e-03,
          0., 0., 2.20994465e-03, 0., 0., 0., 0., 0., 0., 0., 0., 0.,
          6.62983395e-03, 0., 2.20994465e-03, 2.20994465e-03,
          4.41988930e-03, 1.10497233e-03, 1.10497233e-03, 0., 0., 0., 0.,
          1.10497233e-03, 0., 0., 2.20994465e-03, 0., 0., 1.10497233e-03,
          1.10497233e-03, 0., 5.52486163e-03, 0., 0., 0., 4.41988930e-03,
          1.65745839e-02, 0., 1.10497233e-03, 0., 5.52486163e-03, 0., 0.,
          0., 0., 1.10497233e-03, 2.20994465e-03, 0., 2.20994465e-03,
          3.31491698e-03, 1.10497233e-03, 0., 0., 0., 0., 0., 0.,
          5.52486163e-03, 0., 0., 0., 1.10497233e-03, 0., 2.20994465e-03,
          1.10497233e-03, 0., 0., 1.10497233e-03, 4.41988930e-03, 0., 0.,
          0., 1.10497233e-03, 0., 1.10497233e-03, 0., 0., 0., 0.,
          3.31491679e-02, 4.41988930e-03, 1.10497233e-03, 0., 0.,
          2.20994465e-03, 1.10497233e-03, 0., 0., 0., 0., 0.,
          2.20994465e-03, 2.43093912e-02, 6.62983395e-03, 1.10497233e-03,
          6.62983395e-03, 0., 0., 0., 0., 5.52486163e-03, 0., 0., 0., 0.,
          0., 0., 2.20994465e-03, 0., 0., 0., 1.10497233e-03, 0., 0.,
          3.31491698e-03, 3.31491698e-03, 0., 0., 1.10497233e-03, 0., 0.,
          0., 0., 0., 0., 0., 0., 5.52486163e-03, 1.10497233e-03,
          1.10497233e-03, 4.41988930e-03, 0., 0., 1.10497233e-03, 0., 0.,
          0., 1.10497233e-03, 1.10497233e-03, 0., 1.10497233e-03, 0.,
          1.10497233e-03, 0., 1.10497233e-03, 0., 2.20994465e-03, 0., 0.,
          0., 0., 0., 0., 0., 0., 2.20994465e-03, 1.10497233e-03, 0., 0.,
          4.41988930e-03, 0., 0., 0., 0., 0., 0., 1.10497233e-03, 0., 0.,
          0., 0., 1.10497233e-03, 0., 1.10497233e-03, 0., 0.,
          2.20994465e-03, 0., 1.10497233e-03, 0., 2.20994465e-03, 0.,
          1.10497233e-03, 0., 1.10497233e-03, 0., 0., 0., 0., 0.,
          8.83977860e-03, 0., 1.10497233e-03, 0., 0., 1.10497233e-03, 0.,
          1.10497233e-03, 0., 0., 0., 1.10497233e-03, 2.20994465e-03, 0.,
          1.10497233e-03, 0., 1.10497233e-03, 0., 0., 0., 0., 0., 0., 0.,
          0., 2.20994465e-03, 0., 0., 0., 0., 0., 1.10497233e-03, 0., 0.,
          1.10497233e-03, 2.20994465e-03, 2.20994465e-03, 5.52486163e-03,
          0., 9.94475093e-03, 1.10497233e-03, 0., 1.10497233e-03, 0., 0.,
          3.31491698e-03, 4.41988930e-03, 1.10497233e-03, 0., 0.,
          2.20994465e-03, 0., 0., 0., 0., 0., 0., 0., 0., 0., 0., 0.,
          3.31491698e-03, 6.62983395e-03, 0., 1.10497233e-03, 0., 0., 0.,
          4.41988930e-03, 3.31491698e-03, 0., 0., 0., 1.10497233e-03, 0.,
          1.10497233e-03, 0., 0., 1.10497233e-03, 0., 4.41988930e-03, 0.,
          0., 0., 1.10497233e-03, 0., 1.10497233e-03, 5.52486163e-03,
          2.20994465e-03, 0., 1.10497233e-03, 2.20994465e-03,
          3.31491698e-03, 2.20994465e-03, 1.10497233e-03, 9.94475093e-03,
          0., 0., 0., 0., 0., 3.31491698e-03, 0., 0., 0., 2.20994465e-03,
          0., 2.20994465e-03, 0., 1.10497233e-03, 0., 1.54696126e-02,
          2.20994465e-03, 0., 1.10497233e-03, 1.10497233e-03, 0.,
          3.31491698e-03, 0., 0., 0., 0., 0., 0., 0., 0., 0.,
          7.73480628e-03, 0., 0., 1.10497233e-03, 0., 0., 0.,
          6.62983395e-03, 1.10497233e-03, 0., 0., 0., 0., 0.,
          1.10497233e-03, 0., 0., 1.10497233e-03, 2.20994465e-03,
          2.20994465e-03, 0., 2.20994465e-03, 0., 4.41988930e-03, 0.,
          1.21546956e-02, 0., 0., 0., 0., 3.31491698e-03, 0.,
          3.31491698e-03, 1.10497233e-03, 0., 1.10497233e-03, 0., 0., 0.,
          0., 1.10497233e-03, 1.10497233e-02, 0., 0., 1.10497233e-03,
          2.20994465e-03, 6.62983395e-03, 0., 4.41988930e-03, 0., 0., 0.,
          0., 2.20994465e-03, 0., 1.10497233e-03, 1.10497233e-03, 0., 0.,
          0., 0., 0., 2.20994465e-03, 0., 1.10497233e-03, 1.10497233e-03,
          0., 4.41988930e-03, 0., 1.10497233e-03, 0., 1.10497233e-03, 0.,
          0., 1.10497233e-03, 0., 3.31491698e-03, 0., 0., 0., 0.,
          1.10497233e-03, 0., 0., 0., 0., 8.83977860e-03, 0., 0.,
          2.20994465e-03, 0., 0., 3.31491698e-03, 0., 0., 1.10497233e-03,
          0., 0., 0., 0., 0., 1.10497233e-03, 0., 0., 0., 0.,
          2.20994465e-03, 0., 0., 1.10497233e-03, 2.20994465e-03, 0., 0.,
          0., 3.31491698e-03, 1.10497233e-03, 0., 0., 0., 0.,
          1.10497233e-03, 0., 0., 0., 6.62983395e-03, 0., 0.,
          2.20994465e-03, 0., 1.10497233e-03, 0., 5.52486163e-03, 0., 0.,
          1.76795572e-02, 1.10497233e-03, 0., 0., 0., 2.20994465e-03, 0.,
          0., 0., 0., 0., 4.41988930e-03, 0., 0., 0., 3.31491698e-03, 0.,
          2.20994465e-03, 0., 0., 4.41988930e-03, 0., 0., 1.10497233e-03,
          0., 4.41988930e-03, 1.10497233e-03, 0., 0., 1.10497233e-03, 0.,
          1.10497233e-03, 2.20994465e-03, 0., 0., 0., 0., 0., 0., 0., 0.,
          1.10497233e-03, 1.10497233e-03, 1.10497233e-03, 0.,
          2.20994465e-03, 0., 0., 0., 1.10497233e-03, 1.10497233e-03, 0.,
          0., 0., 1.10497233e-03, 0., 0., 0., 0., 1.10497233e-03, 0.,
          1.10497233e-03, 0., 3.31491698e-03, 0., 0., 0., 0., 0., 0., 0.,
          2.20994465e-03, 0., 4.41988930e-03, 0., 0., 1.10497233e-03, 0.,
          1.10497233e-02, 0., 0., 0., 0., 1.10497233e-03, 0., 0.,
          1.32596679e-02, 3.09392251e-02, 0., 0., 0., 0., 0., 0., 0., 0.,
          0., 0., 0., 0., 1.10497233e-03, 2.20994465e-03, 0., 0., 0., 0.,
          0., 0., 0., 0., 0., 0., 2.20994465e-03, 0., 0., 2.20994465e-03,
          0., 0., 0., 0., 0., 1.10497233e-03, 0., 3.31491698e-03,
          1.10497233e-03, 0., 1.10497233e-03, 0., 1.10497233e-03,
          4.41988930e-03, 0., 0., 1.10497233e-03, 0., 0., 0.,
          1.21546956e-02, 1.10497233e-03, 3.31491698e-03, 6.62983395e-03,
          0., 0., 0., 0., 0., 0., 0., 0., 0., 1.10497233e-03,
          3.31491698e-03, 0., 0., 2.20994465e-03, 0., 0., 9.94475093e-03,
          0., 0., 1.10497233e-03, 0., 0., 0., 0., 0., 5.52486163e-03, 0.,
          0., 0., 0., 3.31491698e-03, 0., 0., 0., 0., 1.10497233e-03, 0.,
          0., 0., 3.31491698e-03, 2.20994465e-03, 0., 1.10497233e-03, 0.,
          0., 0., 0., 0., 0., 1.10497233e-03, 0., 0., 0., 0.,
          4.41988930e-03, 0., 0., 0., 0., 4.41988930e-03, 0., 0., 0.,
          1.10497233e-03, 0., 0., 0., 0., 0., 0., 0., 0., 2.20994465e-03,
          0., 0., 0., 0., 2.20994465e-03, 0., 0., 0., 0., 4.41988930e-03,
          4.41988930e-03, 0., 5.52486163e-03, 1.10497233e-03, 0., 0., 0.,
          2.20994465e-03, 1.10497233e-03, 0., 0., 2.20994465e-03,
          2.20994465e-03, 4.41988930e-03, 0., 0., 0., 0., 0., 0.,
          1.10497233e-03, 3.31491698e-03, 1.10497233e-03, 0., 0., 0., 0.,
          0., 1.10497233e-03, 1.10497233e-03, 0., 0., 0., 0., 0., 0.,
          3.31491698e-03, 0., 0., 0., 0., 1.10497233e-03, 6.62983395e-03,
          0., 1.10497233e-03, 0., 0., 0., 0., 2.20994465e-03, 0., 0., 0.,
          0., 0., 0., 0., 0., 0., 0., 0., 1.10497233e-03, 0., 0.,
          1.10497233e-03, 0., 0., 0., 0., 4.41988930e-03, 1.10497233e-03,
          0., 0., 2.20994465e-03, 0., 1.10497233e-03, 2.20994465e-03, 0.,
          0., 0., 0., 0., 0., 0., 2.20994465e-03, 0., 0., 4.41988930e-03,
          0., 0., 0. ]
      - [ 2.37868689e-02, 1.90294953e-03, 9.51474765e-04, 0., 0., 0., 0.,
          9.51474765e-04, 9.51474765e-04, 1.90294953e-03, 0., 0.,
          9.51474765e-04, 0., 0., 0., 0., 9.51474765e-04, 1.90294953e-03,
          0., 1.90294953e-03, 0., 0., 0., 9.51474765e-04, 2.85442430e-03,
          0., 0., 0., 0., 1.90294953e-03, 0., 0., 1.90294953e-03, 0., 0.,
          0., 0., 0., 9.51474765e-04, 2.85442430e-03, 0., 0., 0.,
          9.51474765e-04, 0., 0., 0., 0., 0., 0., 9.51474765e-04, 0., 0.,
          0., 9.51474765e-04, 9.51474765e-04, 9.51474765e-04, 0., 0.,
          9.51474765e-04, 0., 0., 1.90294953e-03, 0., 0., 0., 0., 0.,
          2.85442430e-03, 0., 0., 0., 9.51474765e-04, 0., 9.51474765e-04,
          0., 3.80589906e-03, 1.90294953e-03, 0., 0., 0., 0., 0.,
          1.90294953e-03, 0., 0., 6.66032359e-03, 2.85442430e-03,
          9.51474765e-04, 9.51474765e-04, 0., 1.90294953e-03, 0.,
          1.90294953e-03, 1.90294953e-03, 0., 3.80589906e-03,
          1.90294953e-03, 0., 0., 9.51474765e-04, 0., 9.51474765e-04, 0.,
          9.51474765e-04, 0., 0., 6.66032359e-03, 0., 0., 0.,
          2.85442430e-03, 0., 0., 0., 0., 0., 0., 2.85442430e-03, 0.,
          2.85442430e-03, 0., 0., 0., 9.51474765e-04, 1.90294953e-03,
          9.51474765e-04, 2.85442430e-03, 1.90294953e-03, 0.,
          2.85442430e-03, 9.51474765e-04, 0., 0., 9.51474765e-04, 0., 0.,
          2.85442430e-03, 0., 9.51474765e-04, 0., 0., 0., 0., 0., 0., 0.,
          3.80589906e-03, 0., 9.51474765e-04, 0., 0., 0., 0.,
          4.75737359e-03, 0., 0., 0., 9.51474765e-04, 1.90294953e-03, 0.,
          9.51474765e-04, 0., 0., 9.51474765e-04, 0., 0., 0.,
          2.85442430e-03, 0., 9.51474765e-04, 0., 3.80589906e-03, 0.,
          2.28353944e-02, 2.85442430e-03, 0., 1.90294953e-03, 0., 0.,
          7.61179812e-03, 1.90294953e-03, 0., 4.75737359e-03, 0., 0., 0.,
          0., 0., 0., 0., 0., 0., 1.90294953e-03, 0., 0., 0., 0., 0.,
          1.90294953e-03, 0., 0., 0., 2.85442430e-03, 3.80589906e-03, 0.,
          0., 0., 0., 9.51474765e-04, 0., 0., 0., 0., 0., 9.51474765e-04,
          0., 0., 0., 0., 0., 0., 0., 0., 0., 1.90294953e-03,
          9.51474765e-04, 9.51474765e-04, 0., 0., 0., 2.85442430e-03, 0.,
          9.51474765e-04, 0., 0., 0., 9.51474765e-04, 9.51474765e-04, 0.,
          0., 0., 0., 0., 4.75737359e-03, 9.51474765e-04, 2.85442430e-03,
          3.80589906e-03, 1.04662227e-02, 0., 0., 9.51474765e-04,
          2.85442430e-03, 0., 0., 0., 0., 0., 0., 9.51474765e-04, 0.,
          1.90294953e-03, 2.85442430e-03, 0., 5.70884859e-03, 0., 0., 0.,
          5.70884859e-03, 1.14176972e-02, 0., 3.80589906e-03, 0.,
          1.14176972e-02, 0., 9.51474765e-04, 0., 0., 9.51474765e-04, 0.,
          9.51474765e-04, 9.51474765e-04, 3.80589906e-03, 0., 0., 0., 0.,
          1.90294953e-03, 9.51474765e-04, 0., 9.51474765e-04,
          9.51474765e-04, 0., 0., 0., 0., 0., 0., 0., 0., 0.,
          3.80589906e-03, 0., 0., 0., 1.90294953e-03, 9.51474765e-04,
          9.51474765e-04, 0., 0., 0., 0., 3.33016180e-02, 6.66032359e-03,
          0., 9.51474765e-04, 0., 9.51474765e-04, 9.51474765e-04, 0., 0.,
          0., 1.90294953e-03, 0., 0., 1.90294953e-03, 6.66032359e-03,
          9.51474765e-04, 6.66032359e-03, 0., 0., 1.90294953e-03, 0.,
          1.90294953e-03, 0., 0., 0., 1.90294953e-03, 0., 1.90294953e-03,
          0., 0., 0., 0., 0., 1.90294953e-03, 0., 1.90294953e-03,
          2.85442430e-03, 9.51474765e-04, 0., 1.90294953e-03, 0., 0., 0.,
          0., 0., 0., 0., 0., 2.85442430e-03, 0., 0., 9.51474765e-04, 0.,
          1.90294953e-03, 9.51474765e-04, 0., 4.75737359e-03,
          9.51474765e-04, 0., 0., 0., 0., 0., 9.51474765e-04, 0., 0., 0.,
          0., 0., 0., 0., 0., 0., 0., 0., 0., 1.90294953e-03, 0., 0.,
          1.90294953e-03, 9.51474765e-04, 0., 0., 0., 9.51474765e-04, 0.,
          0., 0., 9.51474765e-04, 9.51474765e-04, 9.51474765e-04,
          9.51474765e-04, 0., 0., 0., 0., 0., 9.51474765e-04,
          1.90294953e-03, 0., 9.51474765e-04, 1.23691717e-02, 0., 0., 0.,
          2.85442430e-03, 0., 0., 0., 0., 0., 6.66032359e-03, 0., 0.,
          1.90294953e-03, 0., 0., 0., 0., 0., 0., 0., 0., 2.85442430e-03,
          0., 0., 0., 0., 0., 0., 9.51474765e-04, 0., 0., 2.85442430e-03,
          4.75737359e-03, 9.51474765e-04, 0., 0., 0., 0., 0., 0.,
          9.51474765e-04, 0., 9.51474765e-04, 0., 6.66032359e-03,
          9.51474765e-04, 1.90294953e-03, 0., 2.28353944e-02, 0.,
          9.51474765e-04, 0., 0., 0., 0., 1.90294953e-03, 9.51474765e-04,
          0., 0., 0., 0., 0., 0., 0., 0., 0., 1.90294953e-03, 0.,
          9.51474765e-04, 0., 0., 1.90294953e-03, 5.70884859e-03, 0.,
          1.90294953e-03, 0., 0., 0., 0., 0., 0., 0., 0., 9.51474765e-04,
          0., 0., 9.51474765e-04, 9.51474765e-04, 0., 9.51474765e-04,
          2.85442430e-03, 9.51474765e-04, 0., 0., 1.90294953e-03, 0.,
          9.51474765e-04, 4.75737359e-03, 1.90294953e-03, 0.,
          9.51474765e-04, 4.75737359e-03, 1.90294953e-03, 0., 0.,
          1.52235962e-02, 0., 0., 0., 9.51474765e-04, 1.90294953e-03,
          1.90294953e-03, 0., 0., 0., 2.85442430e-03, 1.90294953e-03, 0.,
          9.51474765e-04, 2.85442430e-03, 0., 1.61750708e-02, 0., 0., 0.,
          0., 9.51474765e-04, 0., 0., 9.51474765e-04, 0., 0., 0., 0., 0.,
          0., 0., 1.33206472e-02, 9.51474765e-04, 0., 9.51474765e-04, 0.,
          2.85442430e-03, 3.80589906e-03, 1.90294953e-03, 0.,
          1.90294953e-03, 0., 0., 0., 0., 9.51474765e-04, 0., 0., 0., 0.,
          9.51474765e-04, 1.90294953e-03, 1.90294953e-03, 9.51474765e-04,
          0., 0., 1.14176972e-02, 0., 9.51474765e-04, 1.90294953e-03, 0.,
          1.90294953e-03, 0., 1.90294953e-03, 2.85442430e-03,
          9.51474765e-04, 0., 9.51474765e-04, 0., 9.51474765e-04, 0.,
          1.90294953e-03, 2.47383434e-02, 0., 0., 0., 9.51474765e-04,
          1.90294953e-03, 0., 9.51474765e-04, 0., 1.90294953e-03, 0., 0.,
          3.80589906e-03, 0., 9.51474765e-04, 9.51474765e-04, 0., 0., 0.,
          9.51474765e-04, 9.51474765e-04, 0., 9.51474765e-04,
          2.85442430e-03, 0., 0., 1.90294953e-03, 0., 1.90294953e-03, 0.,
          0., 9.51474765e-04, 0., 0., 0., 9.51474765e-04, 9.51474765e-04,
          0., 0., 0., 0., 0., 0., 0., 0., 1.23691717e-02, 1.90294953e-03,
          0., 1.90294953e-03, 0., 9.51474765e-04, 0., 0., 0., 0.,
          1.90294953e-03, 0., 0., 0., 0., 0., 9.51474765e-04, 0., 0., 0.,
          3.80589906e-03, 0., 0., 9.51474765e-04, 0., 0., 0., 0.,
          2.85442430e-03, 0., 0., 0., 0., 0., 0., 3.80589906e-03, 0., 0.,
          3.80589906e-03, 0., 0., 0., 0., 0., 9.51474765e-04,
          3.80589906e-03, 0., 0., 1.23691717e-02, 1.90294953e-03, 0., 0.,
          0., 0., 0., 0., 9.51474765e-04, 0., 0., 0., 0., 0., 0.,
          1.90294953e-03, 0., 3.80589906e-03, 1.90294953e-03, 0.,
          3.80589906e-03, 0., 0., 0., 0., 8.56327266e-03, 0., 0., 0.,
          6.66032359e-03, 0., 1.90294953e-03, 1.90294953e-03, 0., 0., 0.,
          0., 0., 0., 0., 0., 0., 0., 0., 0., 9.51474765e-04,
          1.90294953e-03, 9.51474765e-04, 0., 9.51474765e-04,
          1.90294953e-03, 0., 0., 9.51474765e-04, 0., 0., 9.51474765e-04,
          0., 0., 9.51474765e-04, 0., 0., 0., 3.80589906e-03,
          9.51474765e-04, 0., 9.51474765e-04, 0., 0., 0., 0., 0., 0., 0.,
          0., 0., 0., 9.51474765e-04, 1.52235962e-02, 0., 0., 0.,
          1.90294953e-03, 0., 0., 9.51474765e-04, 7.61179812e-03,
          1.90294944e-02, 9.51474765e-04, 0., 0., 0., 0., 0., 0.,
          1.90294953e-03, 0., 0., 0., 0., 1.90294953e-03, 2.85442430e-03,
          9.51474765e-04, 9.51474765e-04, 0., 0., 0., 9.51474765e-04, 0.,
          0., 9.51474765e-04, 9.51474765e-04, 0., 3.80589906e-03,
          9.51474765e-04, 0., 3.80589906e-03, 0., 0., 0., 0., 0., 0., 0.,
          2.85442430e-03, 9.51474765e-04, 0., 0., 1.90294953e-03,
          2.85442430e-03, 0., 0., 0., 0., 0., 0., 8.56327266e-03,
          9.51474765e-04, 0., 0., 9.51474765e-04, 0., 0., 9.51474765e-04,
          9.51474765e-04, 0., 0., 0., 0., 1.90294953e-03, 9.51474765e-04,
          0., 0., 2.85442430e-03, 0., 0., 3.80589906e-03, 9.51474765e-04,
          0., 0., 0., 0., 0., 9.51474765e-04, 0., 2.85442430e-03, 0., 0.,
          0., 0., 2.85442430e-03, 9.51474765e-04, 0., 0., 0., 0., 0., 0.,
          0., 5.70884859e-03, 0., 0., 0., 0., 2.85442430e-03, 0., 0., 0.,
          0., 0., 0., 1.90294953e-03, 2.85442430e-03, 0., 6.66032359e-03,
          0., 2.85442430e-03, 0., 0., 2.85442430e-03, 0., 0.,
          9.51474765e-04, 9.51474765e-04, 9.51474765e-04, 0.,
          9.51474765e-04, 9.51474765e-04, 0., 9.51474765e-04,
          9.51474765e-04, 0., 2.85442430e-03, 0., 9.51474765e-04,
          9.51474765e-04, 1.90294953e-03, 4.75737359e-03, 0., 0.,
          9.51474765e-04, 9.51474765e-04, 2.85442430e-03, 1.90294953e-03,
          0., 0., 1.90294953e-03, 0., 9.51474765e-04, 1.90294953e-03,
          2.85442430e-03, 9.51474765e-04, 0., 0., 0., 7.61179812e-03,
          5.70884859e-03, 0., 0., 0., 0., 0., 9.51474765e-04, 0., 0., 0.,
          0., 0., 9.51474765e-04, 0., 0., 2.85442430e-03, 6.66032359e-03,
          9.51474765e-04, 1.90294953e-03, 2.85442430e-03, 9.51474765e-04,
          1.90294953e-03, 0., 0., 0., 0., 0., 0., 0., 5.70884859e-03, 0.,
          9.51474765e-04, 9.51474765e-04, 0., 0., 0., 9.51474765e-04, 0.,
          0., 0., 0., 0., 0., 0., 0., 0., 0., 4.75737359e-03, 0., 0., 0.,
          1.90294953e-03, 0., 2.85442430e-03, 0., 9.51474765e-04, 0., 0.,
          0., 0., 1.90294953e-03, 0., 0., 2.85442430e-03, 0.,
          9.51474765e-04, 1.90294953e-03, 9.51474765e-04, 0., 0., 0., 0.,
          0., 0., 1.90294953e-03, 0., 0., 9.51474765e-04 ]
      - [ 9.31315497e-03, 0., 1.16414437e-03, 1.16414437e-03, 0., 0.,
          4.65657748e-03, 0., 0., 2.32828874e-03, 0., 0., 1.16414437e-03,
          0., 0., 0., 0., 1.16414437e-03, 0., 0., 1.16414437e-03, 0., 0.,
          0., 0., 1.16414437e-03, 0., 0., 1.16414437e-03, 0.,
          1.16414437e-03, 0., 0., 0., 0., 0., 0., 0., 1.16414437e-03,
          1.16414437e-03, 0., 0., 0., 1.16414437e-03, 3.49243311e-03, 0.,
          0., 1.16414437e-03, 1.16414437e-03, 0., 1.16414437e-03, 0.,
          2.32828874e-03, 0., 0., 1.16414437e-03, 1.16414437e-03,
          4.65657748e-03, 0., 0., 2.32828874e-03, 0., 2.32828874e-03, 0.,
          0., 3.49243311e-03, 0., 0., 0., 0., 0., 0., 0., 2.32828874e-03,
          0., 1.16414437e-03, 0., 2.32828874e-03, 0., 2.32828874e-03, 0.,
          1.16414437e-03, 3.49243311e-03, 0., 1.16414437e-03, 0., 0.,
          3.49243311e-03, 5.82072185e-03, 0., 2.32828874e-03, 0., 0., 0.,
          0., 2.32828874e-03, 0., 1.16414437e-03, 2.32828874e-03, 0., 0.,
          0., 0., 0., 3.49243311e-03, 0., 2.32828874e-03, 1.16414437e-03,
          1.16414437e-03, 0., 0., 2.32828874e-03, 1.16414437e-03,
          1.16414437e-03, 0., 0., 0., 0., 1.16414437e-03, 0., 0.,
          4.65657748e-03, 2.32828874e-03, 0., 0., 1.16414437e-03,
          1.16414437e-03, 0., 1.16414437e-03, 0., 1.16414437e-03,
          1.16414437e-03, 0., 0., 5.82072185e-03, 0., 0., 0., 0., 0., 0.,
          0., 0., 0., 0., 0., 1.86263099e-02, 0., 4.65657748e-03, 0., 0.,
          0., 0., 1.16414437e-03, 0., 1.16414437e-03, 0., 0.,
          1.16414437e-03, 0., 0., 0., 5.82072185e-03, 0., 0., 0., 0., 0.,
          0., 1.16414437e-03, 0., 0., 0., 3.49243311e-03, 0.,
          1.97904538e-02, 0., 1.16414437e-03, 0., 0., 0., 1.16414437e-03,
          0., 0., 0., 0., 6.98486622e-03, 0., 2.32828874e-03, 0., 0., 0.,
          0., 0., 2.32828874e-03, 0., 0., 0., 0., 0., 6.98486622e-03, 0.,
          1.16414437e-03, 0., 1.16414437e-03, 2.32828874e-03, 0., 0., 0.,
          0., 0., 0., 0., 0., 0., 4.65657748e-03, 0., 0., 0.,
          1.16414437e-03, 1.16414437e-03, 0., 0., 0., 1.16414437e-03, 0.,
          3.49243311e-03, 1.16414437e-03, 0., 0., 0., 0., 2.32828874e-03,
          0., 0., 0., 0., 0., 1.16414437e-03, 1.16414437e-03, 0., 0., 0.,
          0., 0., 1.28055885e-02, 0., 2.32828874e-03, 2.32828874e-03,
          4.65657748e-03, 0., 0., 0., 3.49243311e-03, 0., 0., 0., 0., 0.,
          1.16414437e-03, 0., 0., 1.16414437e-03, 1.16414437e-03, 0.,
          1.16414437e-03, 0., 8.14901106e-03, 0., 0., 0., 0., 0.,
          1.16414437e-03, 1.16414437e-03, 1.16414437e-03, 0., 0.,
          2.32828874e-03, 1.16414437e-03, 2.32828874e-03, 0., 0.,
          6.98486622e-03, 0., 0., 0., 0., 1.16414437e-03, 0., 0.,
          8.14901106e-03, 0., 0., 0., 1.16414437e-03, 0., 0.,
          1.16414437e-03, 0., 0., 1.16414437e-03, 1.16414437e-03, 0., 0.,
          0., 1.16414437e-03, 4.65657748e-03, 0., 3.49243311e-03, 0., 0.,
          0., 8.14901106e-03, 1.28055885e-02, 1.16414437e-03,
          2.32828874e-03, 0., 1.16414437e-03, 0., 0., 0., 1.16414437e-03,
          4.65657748e-03, 0., 0., 1.28055885e-02, 1.16414437e-03,
          1.16414437e-03, 5.82072185e-03, 5.82072185e-03, 0.,
          1.16414437e-03, 0., 2.32828874e-03, 0., 0., 0., 6.98486622e-03,
          1.16414437e-03, 0., 2.32828874e-03, 1.16414437e-03, 0., 0.,
          1.16414437e-03, 1.16414437e-03, 0., 1.16414437e-03,
          3.49243311e-03, 0., 0., 0., 0., 0., 0., 0., 0., 0., 0.,
          1.16414437e-03, 3.49243311e-03, 1.16414437e-03, 0., 0.,
          1.16414437e-03, 0., 1.16414437e-03, 0., 1.16414437e-03, 0., 0.,
          1.16414437e-03, 0., 0., 0., 0., 0., 0., 0., 0., 0.,
          5.82072185e-03, 3.49243311e-03, 1.16414437e-03, 0.,
          1.16414437e-03, 0., 0., 0., 1.16414437e-03, 0., 1.16414437e-03,
          1.16414437e-03, 0., 0., 0., 0., 0., 0., 0., 0., 0., 0., 0.,
          1.16414437e-03, 2.32828874e-03, 0., 0., 0., 1.16414437e-03, 0.,
          0., 0., 1.39697324e-02, 1.16414437e-03, 1.16414437e-03, 0., 0.,
          0., 0., 4.65657748e-03, 2.32828874e-03, 0., 2.32828874e-03, 0.,
          1.16414437e-03, 2.32828874e-03, 0., 0., 0., 0., 0., 0., 0., 0.,
          0., 0., 0., 0., 0., 0., 0., 0., 1.16414437e-03, 0.,
          1.16414437e-03, 2.32828874e-03, 0., 1.16414437e-03, 0.,
          1.16414437e-03, 0., 0., 0., 5.82072185e-03, 0., 0., 0.,
          4.65657748e-03, 0., 9.31315497e-03, 0., 8.14901106e-03,
          1.16414437e-03, 0., 0., 1.16414437e-02, 3.49243311e-03,
          1.16414437e-03, 4.65657748e-03, 1.16414437e-03, 0., 0., 0., 0.,
          1.16414437e-03, 0., 0., 0., 0., 1.16414437e-03, 0.,
          1.16414437e-03, 3.49243311e-03, 0., 0., 1.16414437e-03, 0., 0.,
          2.32828874e-03, 0., 1.16414437e-03, 1.16414437e-03, 0., 0., 0.,
          0., 0., 1.16414437e-03, 0., 4.65657748e-03, 0., 0.,
          1.16414437e-03, 2.32828874e-03, 0., 0., 4.65657748e-03,
          1.16414437e-03, 0., 0., 0., 2.32828874e-03, 0., 0.,
          2.32828874e-03, 1.16414437e-03, 0., 0., 6.98486622e-03,
          1.16414437e-03, 0., 1.16414437e-03, 0., 1.16414437e-03,
          3.49243311e-03, 0., 0., 4.65657748e-03, 0., 1.16414437e-03,
          3.49243311e-03, 1.16414437e-03, 1.16414437e-03, 0.,
          1.04772989e-02, 0., 0., 1.16414437e-03, 1.16414437e-03, 0.,
          4.65657748e-03, 0., 1.16414437e-03, 0., 0., 0., 0., 0., 0.,
          1.16414437e-03, 2.32828874e-03, 0., 0., 0., 0., 0., 0., 0., 0.,
          2.32828874e-03, 0., 0., 0., 1.16414437e-03, 2.32828874e-03, 0.,
          0., 0., 0., 3.49243311e-03, 3.49243311e-03, 0., 1.16414437e-03,
          0., 1.16414437e-03, 0., 0., 0., 1.16414437e-03, 0., 0., 0.,
          1.16414437e-03, 0., 0., 0., 0., 0., 0., 0., 0., 6.98486622e-03,
          0., 0., 1.16414437e-03, 1.16414437e-03, 5.82072185e-03, 0., 0.,
          0., 0., 0., 0., 2.32828874e-03, 0., 0., 0., 0., 0., 0.,
          2.32828874e-03, 0., 0., 0., 0., 1.16414437e-03, 4.65657748e-03,
          0., 0., 1.16414437e-03, 1.16414437e-03, 0., 0., 1.16414437e-03,
          0., 1.16414437e-03, 2.32828874e-03, 3.49243311e-03,
          1.16414437e-03, 0., 0., 0., 0., 0., 1.16414437e-03, 0., 0.,
          3.49243311e-03, 0., 1.16414437e-03, 0., 4.65657748e-03, 0.,
          1.16414437e-03, 0., 0., 0., 0., 0., 0., 1.16414437e-03, 0.,
          1.16414437e-03, 1.16414437e-03, 1.16414437e-03, 0., 0., 0., 0.,
          0., 1.16414437e-03, 3.49243311e-03, 0., 1.16414437e-03,
          2.32828874e-03, 0., 0., 0., 0., 0., 1.16414437e-03, 0., 0., 0.,
          2.32828874e-03, 0., 0., 1.16414437e-03, 1.16414437e-03, 0.,
          3.49243311e-03, 0., 1.16414437e-03, 1.16414437e-03,
          4.65657748e-03, 2.32828874e-03, 0., 0., 0., 2.32828874e-03, 0.,
          0., 0., 1.16414437e-03, 0., 0., 0., 0., 1.28055885e-02,
          1.16414437e-03, 0., 0., 0., 0., 6.98486622e-03, 0., 0., 0.,
          1.16414437e-03, 0., 1.16414437e-03, 0., 1.16414437e-03,
          1.16414437e-03, 1.16414437e-03, 4.65657748e-03, 2.32828874e-03,
          3.49243311e-03, 0., 0., 0., 0., 0., 1.16414437e-03, 0., 0.,
          1.16414437e-03, 1.16414437e-03, 0., 1.16414437e-03, 0., 0., 0.,
          0., 1.16414437e-03, 1.16414437e-03, 0., 0., 0., 1.16414437e-03,
          0., 0., 3.49243311e-03, 0., 0., 0., 0., 0., 0., 9.31315497e-03,
          0., 0., 4.65657748e-03, 1.86263099e-02, 0., 0., 0., 0., 0., 0.,
          0., 0., 6.98486622e-03, 0., 0., 0., 0., 0., 0., 0.,
          5.82072185e-03, 1.39697324e-02, 0., 0., 3.49243311e-03, 0.,
          1.16414437e-03, 0., 0., 0., 0., 0., 2.32828874e-03, 0.,
          1.16414437e-03, 0., 1.16414437e-03, 0., 3.49243311e-03, 0.,
          1.16414437e-03, 0., 1.16414437e-03, 2.32828874e-03, 0., 0., 0.,
          5.82072185e-03, 0., 0., 2.32828874e-03, 0., 0., 0., 0., 0., 0.,
          2.32828874e-03, 2.32828874e-03, 0., 0., 1.16414437e-03,
          1.16414437e-03, 1.16414437e-03, 2.32828874e-03, 1.16414437e-03,
          0., 2.32828874e-03, 1.16414437e-03, 0., 5.82072185e-03, 0., 0.,
          9.31315497e-03, 0., 0., 0., 1.16414437e-03, 1.16414437e-03, 0.,
          0., 0., 0., 0., 5.82072185e-03, 0., 0., 0., 1.16414437e-03,
          1.16414437e-03, 2.32828874e-03, 0., 0., 0., 1.16414437e-03,
          1.16414437e-03, 0., 0., 3.49243311e-03, 0., 0., 0., 0.,
          2.32828874e-03, 4.65657748e-03, 0., 0., 2.32828874e-03, 0., 0.,
          0., 0., 0., 4.65657748e-03, 2.32828874e-03, 0., 1.16414437e-03,
          2.32828874e-03, 1.16414437e-03, 1.16414437e-03, 5.82072185e-03,
          0., 0., 0., 0., 2.32828874e-03, 0., 0., 3.49243311e-03, 0.,
          1.16414437e-03, 0., 0., 9.31315497e-03, 1.16414437e-03, 0., 0.,
          3.49243311e-03, 2.32828874e-03, 0., 0., 0., 1.16414437e-03,
          2.32828874e-03, 0., 0., 1.16414437e-03, 0., 0., 0.,
          1.16414437e-03, 0., 0., 0., 0., 0., 0., 3.49243311e-03, 0., 0.,
          0., 0., 2.32828874e-03, 1.16414437e-03, 0., 2.32828874e-03,
          1.16414437e-03, 0., 4.65657748e-03, 1.16414437e-03, 0., 0.,
          2.32828874e-03, 0., 1.16414437e-03, 0., 0., 0., 0., 0., 0.,
          3.49243311e-03, 0., 0., 5.82072185e-03, 0., 6.98486622e-03,
          1.16414437e-03, 3.49243311e-03, 0., 0., 0., 0., 1.16414437e-03,
          0., 1.16414437e-03, 0., 1.16414437e-03, 0., 0., 0., 0.,
          1.16414437e-03, 1.28055885e-02, 0., 0., 0., 0., 1.16414437e-03,
          1.16414437e-03, 0., 2.32828874e-03, 0., 0., 5.82072185e-03,
          1.16414437e-03, 0., 0., 1.16414437e-03, 0., 1.16414437e-03, 0.,
          0., 3.49243311e-03, 0., 0., 0., 0., 0., 0., 0., 0., 0.,
          1.16414437e-03, 0., 0., 0., 0., 3.49243311e-03, 0.,
          1.16414437e-03, 1.16414437e-03, 0., 0., 0., 1.16414437e-03, 0.,
          0. ]
      - [ 5.97014930e-03, 9.95024922e-04, 1.99004984e-03, 2.98507465e-03,
          0., 0., 0., 9.95024922e-04, 0., 9.95024922e-04, 0.,
          9.95024922e-04, 9.95024922e-04, 0., 0., 3.98009969e-03, 0.,
          1.99004984e-03, 0., 0., 0., 0., 0., 0., 0., 0., 0., 0., 0., 0.,
          0., 2.98507465e-03, 9.95024922e-04, 0., 1.99004984e-03,
          9.95024922e-04, 0., 0., 0., 0., 0., 0., 0., 1.99004984e-03, 0.,
          0., 9.95024922e-04, 0., 1.99004984e-03, 0., 0., 0.,
          9.95024922e-04, 0., 1.99004984e-03, 9.95024922e-04,
          9.95024922e-04, 0., 0., 0., 1.99004984e-03, 0., 0., 0.,
          1.99004984e-03, 0., 0., 0., 9.95024922e-04, 0., 0., 0.,
          2.28855740e-02, 1.99004984e-03, 6.46766201e-02, 2.98507465e-03,
          0., 0., 0., 0., 0., 0., 2.98507465e-03, 1.99004984e-03,
          9.95024922e-04, 0., 9.95024922e-04, 2.98507465e-03,
          3.98009969e-03, 0., 0., 0., 0., 0., 0., 0., 0., 0.,
          2.98507465e-03, 1.99004984e-03, 1.99004984e-03, 0., 0., 0., 0.,
          9.95024922e-04, 0., 0., 2.98507465e-03, 1.99004984e-03, 0.,
          9.95024922e-04, 0., 0., 0., 0., 9.95024922e-04, 9.95024922e-04,
          0., 0., 0., 7.96019938e-03, 0., 1.99004984e-03, 0.,
          9.95024922e-04, 1.99004984e-03, 0., 9.95024922e-04, 0., 0.,
          9.95024922e-04, 0., 1.99004984e-03, 9.95024922e-04,
          9.95024922e-04, 0., 2.98507465e-03, 2.98507465e-03,
          9.95024922e-04, 3.98009969e-03, 0., 0., 2.98507465e-03, 0.,
          9.95024922e-04, 0., 0., 7.96019938e-03, 0., 9.95024922e-04, 0.,
          0., 9.95024922e-04, 1.99004984e-03, 1.99004984e-03, 0.,
          9.95024922e-04, 0., 9.95024922e-04, 0., 0., 1.99004984e-03, 0.,
          0., 0., 0., 0., 0., 0., 9.95024922e-04, 0., 9.95024922e-04,
          3.98009969e-03, 0., 8.95522442e-03, 0., 9.95024922e-04, 0., 0.,
          0., 4.97512473e-03, 0., 1.99004984e-03, 3.98009969e-03, 0., 0.,
          0., 0., 0., 0., 0., 0., 9.95024922e-04, 9.95024922e-04,
          9.95024922e-04, 0., 0., 9.95024922e-04, 9.95024922e-04,
          9.95024922e-04, 0., 0., 2.98507465e-03, 2.98507465e-03,
          6.96517434e-03, 0., 0., 0., 0., 0., 0., 0., 0., 0., 0., 0., 0.,
          1.99004984e-03, 0., 0., 0., 0., 0., 1.99004984e-03, 0.,
          9.95024922e-04, 0., 0., 0., 9.95024922e-04, 0., 1.99004984e-03,
          0., 0., 0., 0., 0., 9.95024922e-04, 1.99004984e-03, 0., 0., 0.,
          0., 0., 1.99004984e-03, 9.95024922e-04, 0., 3.98009969e-03, 0.,
          0., 0., 0., 0., 0., 9.95024922e-04, 3.98009969e-03, 0., 0.,
          9.95024922e-04, 9.95024922e-04, 0., 9.95024922e-04,
          1.99004984e-03, 0., 0., 0., 5.97014930e-03, 0., 0., 0.,
          1.19402986e-02, 0., 9.95024922e-04, 5.97014930e-03,
          9.95024922e-04, 9.95024922e-04, 0., 9.95024922e-04, 0.,
          9.95024922e-04, 1.99004984e-03, 1.99004984e-03, 1.99004984e-03,
          2.98507465e-03, 0., 0., 0., 0., 9.95024922e-04, 0.,
          2.98507465e-03, 0., 0., 1.99004984e-03, 9.95024922e-04, 0.,
          9.95024922e-04, 0., 0., 4.97512473e-03, 0., 1.99004984e-03, 0.,
          0., 0., 0., 0., 0., 0., 0., 1.99004984e-03, 0., 3.98009969e-03,
          0., 2.98507465e-03, 2.98507465e-03, 0., 0., 0., 0., 0., 0.,
          1.99004984e-03, 9.95024922e-04, 0., 2.88557224e-02, 0., 0.,
          1.99004984e-03, 9.95024922e-04, 6.96517434e-03, 3.98009969e-03,
          0., 0., 3.98009969e-03, 0., 0., 4.97512473e-03, 0., 0.,
          1.99004984e-03, 0., 0., 1.09452745e-02, 0., 9.95024922e-04,
          1.99004984e-03, 1.99004984e-03, 1.99004984e-03, 0.,
          1.99004984e-03, 9.95024922e-04, 0., 0., 9.95024922e-04, 0., 0.,
          0., 0., 0., 1.99004984e-03, 2.98507465e-03, 2.98507465e-03,
          9.95024922e-04, 0., 0., 0., 0., 9.95024922e-04, 0., 0.,
          9.95024922e-04, 2.98507465e-03, 0., 0., 0., 1.99004984e-03, 0.,
          0., 0., 1.99004984e-03, 0., 9.95024922e-04, 0., 9.95024922e-04,
          0., 0., 0., 0., 0., 0., 9.95024922e-04, 9.95024922e-04, 0., 0.,
          0., 9.95024922e-04, 0., 0., 0., 0., 0., 0., 0., 0., 0., 0., 0.,
          0., 0., 9.95024922e-04, 0., 0., 9.95024922e-04, 9.95024922e-04,
          0., 0., 9.95024922e-04, 0., 0., 0., 0., 0., 0., 0.,
          9.95024922e-04, 0., 0., 0., 0., 1.99004984e-03, 9.95024922e-04,
          0., 0., 9.95024922e-04, 0., 9.95024922e-04, 4.97512473e-03, 0.,
          0., 0., 0., 0., 0., 0., 3.98009969e-03, 0., 0., 0., 0.,
          9.95024922e-04, 0., 0., 0., 9.95024922e-04, 9.95024922e-04, 0.,
          0., 0., 0., 2.18905490e-02, 0., 9.95024922e-04, 1.99004984e-03,
          0., 0., 0., 0., 0., 9.95024922e-04, 9.95024922e-04, 0., 0.,
          1.99004984e-03, 0., 0., 0., 0., 0., 0., 9.95024922e-04, 0., 0.,
          0., 9.95024922e-04, 0., 0., 9.95024922e-04, 0., 4.97512473e-03,
          0., 0., 2.98507465e-03, 9.95024922e-04, 9.95024922e-04,
          1.99004984e-03, 0., 9.95024922e-04, 0., 9.95024922e-04,
          2.98507465e-03, 0., 4.97512473e-03, 0., 0., 1.99004984e-03, 0.,
          2.98507465e-03, 1.99004984e-03, 0., 0., 0., 0., 0., 0.,
          1.99004984e-03, 0., 0., 0., 6.96517434e-03, 9.95024922e-04,
          9.95024922e-04, 9.95024922e-04, 1.99004984e-03, 0., 0.,
          9.95024922e-04, 9.95024922e-04, 0., 0., 0., 0., 9.95024922e-04,
          0., 0., 6.96517434e-03, 0., 9.95024922e-04, 0., 2.98507465e-03,
          0., 9.95024922e-04, 0., 9.95024922e-04, 0., 0., 2.98507465e-03,
          0., 2.98507465e-03, 9.95024922e-04, 9.95024922e-04, 0., 0., 0.,
          1.99004984e-03, 2.98507465e-03, 1.99004984e-03, 0., 0.,
          9.95024922e-04, 1.99004984e-03, 0., 0., 9.95024922e-04, 0.,
          9.95024922e-04, 0., 0., 9.95024922e-04, 0., 2.98507465e-03, 0.,
          0., 9.95024922e-04, 0., 0., 0., 0., 9.95024922e-04,
          9.95024922e-04, 0., 9.95024922e-04, 0., 9.95024922e-04, 0.,
          5.97014930e-03, 0., 0., 0., 9.95024922e-04, 0., 0.,
          8.95522442e-03, 0., 0., 9.95024922e-04, 0., 2.18905490e-02, 0.,
          0., 0., 9.95024922e-04, 0., 0., 0., 0., 1.99004984e-03,
          3.98009969e-03, 0., 9.95024922e-04, 0., 1.99004984e-03,
          2.98507465e-03, 0., 9.95024922e-04, 0., 1.99004984e-03, 0.,
          9.95024922e-04, 0., 0., 0., 0., 0., 4.97512473e-03, 0.,
          9.95024922e-04, 1.99004984e-03, 0., 9.95024922e-04, 0., 0.,
          2.98507465e-03, 9.95024922e-04, 0., 9.95024922e-04, 0., 0., 0.,
          9.95024922e-04, 0., 0., 9.95024922e-04, 9.95024922e-04, 0., 0.,
          0., 0., 2.98507465e-03, 9.95024922e-04, 0., 1.99004984e-03, 0.,
          9.95024922e-04, 9.95024922e-04, 0., 0., 1.99004984e-03,
          1.99004984e-03, 1.99004984e-03, 2.98507465e-03, 9.95024922e-04,
          0., 3.98009969e-03, 0., 0., 0., 0., 0., 0., 0., 1.99004984e-03,
          0., 0., 0., 9.95024922e-04, 0., 0., 0., 9.95024922e-04, 0., 0.,
          1.99004984e-03, 0., 1.99004984e-03, 2.98507465e-03,
          1.99004984e-03, 9.95024922e-04, 0., 0., 0., 0., 0., 0.,
          9.95024922e-04, 0., 0., 0., 0., 0., 9.95024922e-04, 0., 0., 0.,
          0., 4.97512473e-03, 9.95024922e-04, 0., 0., 9.95024922e-04, 0.,
          0., 0., 0., 0., 0., 0., 0., 9.95024922e-04, 9.95024922e-04, 0.,
          0., 0., 0., 0., 0., 9.95024922e-04, 0., 0., 9.95024922e-04,
          4.97512473e-03, 1.99004984e-03, 0., 0., 9.95024922e-04, 0.,
          9.95024922e-04, 0., 0., 6.96517434e-03, 9.95024922e-04,
          9.95024922e-04, 0., 0., 9.95024922e-04, 0., 2.98507465e-03, 0.,
          9.95024922e-04, 0., 1.99004984e-03, 0., 0., 0., 0., 0.,
          9.95024922e-04, 0., 0., 0., 0., 9.95024922e-04, 0.,
          4.97512473e-03, 0., 0., 0., 9.95024922e-04, 0., 0., 0.,
          9.95024922e-04, 3.98009969e-03, 0., 0., 9.95024922e-04, 0., 0.,
          0., 0., 4.97512473e-03, 1.99004984e-03, 1.99004984e-03, 0.,
          9.95024922e-04, 0., 1.99004984e-03, 9.95024922e-04, 0., 0., 0.,
          0., 0., 1.99004984e-03, 0., 0., 9.95024922e-04, 0.,
          3.98009969e-03, 2.98507465e-03, 0., 2.98507465e-03,
          1.99004984e-03, 0., 0., 1.49253737e-02, 0., 0., 0., 0., 0., 0.,
          0., 2.98507465e-03, 0., 0., 0., 0., 9.95024922e-04,
          9.95024922e-04, 9.95024922e-04, 7.96019938e-03, 0.,
          9.95024922e-04, 1.29353236e-02, 0., 0., 0., 0., 0.,
          2.98507465e-03, 9.95024922e-04, 0., 0., 0., 8.95522442e-03,
          9.95024922e-04, 0., 0., 0., 9.95024922e-04, 9.95024922e-04,
          9.95024922e-04, 0., 0., 1.99004984e-03, 9.95024922e-04,
          9.95024922e-04, 9.95024922e-04, 0., 9.95024922e-04, 0., 0., 0.,
          0., 1.99004984e-03, 1.99004984e-03, 0., 0., 0., 0.,
          1.99004984e-03, 0., 1.99004984e-03, 9.95024922e-04,
          9.95024922e-04, 0., 3.98009969e-03, 0., 3.98009969e-03,
          2.98507465e-03, 0., 0., 0., 0., 0., 1.99004984e-03, 0., 0.,
          3.98009969e-03, 0., 0., 0., 9.95024922e-04, 6.96517434e-03, 0.,
          0., 3.98009969e-03, 0., 0., 2.98507465e-03, 1.99004984e-03,
          9.95024922e-04, 9.95024922e-04, 1.19402986e-02, 0.,
          9.95024922e-04, 9.95024922e-04, 0., 0., 9.95024922e-04, 0.,
          1.99004984e-03, 0., 0., 0., 0., 4.97512473e-03, 0.,
          9.95024922e-04, 3.98009969e-03, 9.95024922e-04, 9.95024922e-04,
          9.95024922e-04, 0., 9.95024922e-04, 9.95024922e-04, 0.,
          9.95024922e-04, 9.95024922e-04, 0., 0., 6.96517434e-03,
          9.95024922e-04, 0., 9.95024922e-04, 0., 2.98507465e-03, 0., 0.,
          9.95024922e-04, 9.95024922e-04, 0., 0., 9.95024922e-04, 0., 0.,
          1.99004984e-03, 0., 0., 0., 0., 9.95024922e-04, 9.95024922e-04,
          9.95024922e-04, 1.99004984e-03, 2.98507465e-03, 0., 0.,
          9.95024922e-04, 6.96517434e-03, 3.98009969e-03, 9.95024922e-04,
          0., 7.96019938e-03, 0., 0., 9.95024922e-04, 0., 9.95024922e-04,
          0., 1.99004984e-03, 9.95024922e-04, 0., 0., 0., 9.95024922e-04,
          9.95024922e-04, 0., 0., 0., 0., 0., 0., 1.99004984e-03, 0., 0.,
          0., 0., 0., 0., 1.99004984e-03, 0., 1.99004984e-03,
          9.95024922e-04, 0., 9.95024922e-04, 9.95024922e-04, 0.,
          9.95024922e-04, 0., 0., 0., 9.95024922e-04, 0., 9.95024922e-04,
          9.95024922e-04, 9.95024922e-04, 9.95024922e-04 ]
      - [ 1.29270544e-02, 0., 9.23361047e-04, 3.69344419e-03, 0., 0., 0.,
          9.23361047e-04, 0., 0., 1.84672209e-03, 1.84672209e-03, 0., 0.,
          0., 7.38688838e-03, 0., 0., 0., 0., 0., 0., 0., 0.,
          9.23361047e-04, 1.84672209e-03, 0., 0., 0., 0., 0.,
          5.54016605e-03, 9.23361047e-04, 0., 1.84672209e-03,
          9.23361047e-04, 0., 1.84672209e-03, 0., 9.23361047e-04,
          1.84672209e-03, 0., 0., 9.23361047e-04, 2.77008303e-03, 0., 0.,
          0., 9.23361070e-03, 0., 0., 1.84672209e-03, 2.77008303e-03, 0.,
          0., 0., 1.84672209e-03, 9.23361047e-04, 9.23361047e-04, 0., 0.,
          0., 9.23361047e-04, 0., 2.77008303e-03, 0., 0., 0., 0., 0., 0.,
          0., 2.77008303e-03, 1.84672209e-03, 3.13942768e-02, 0., 0.,
          1.84672209e-03, 2.77008303e-03, 0., 0., 0., 7.38688838e-03,
          9.23361047e-04, 9.23361047e-04, 0., 9.23361047e-04,
          2.77008303e-03, 0., 0., 0., 0., 9.23361047e-04, 0., 0.,
          9.23361047e-04, 0., 1.84672209e-03, 0., 0., 0., 0., 0., 0., 0.,
          1.01569714e-02, 9.23361047e-04, 0., 1.84672209e-03,
          3.69344419e-03, 0., 0., 0., 0., 2.77008303e-03, 0.,
          9.23361047e-04, 1.84672209e-03, 0., 0., 0., 1.84672209e-03,
          9.23361047e-04, 0., 0., 9.23361047e-04, 0., 0., 2.77008303e-03,
          0., 0., 9.23361047e-04, 0., 3.69344419e-03, 1.84672209e-03, 0.,
          0., 9.23361047e-04, 4.61680535e-03, 9.23361047e-04,
          1.84672209e-03, 9.23361047e-04, 9.23361047e-04, 9.23361047e-04,
          0., 2.77008303e-03, 0., 9.23361047e-04, 0., 0., 2.77008303e-03,
          0., 0., 9.23361047e-04, 0., 2.77008303e-03, 0., 0., 0., 0., 0.,
          0., 2.77008303e-03, 0., 0., 9.23361047e-04, 0., 0., 0.,
          9.23361047e-04, 0., 0., 0., 0., 0., 1.20036937e-02, 0., 0., 0.,
          0., 0., 3.69344419e-03, 0., 0., 3.69344419e-03, 0., 0., 0.,
          1.84672209e-03, 0., 0., 0., 0., 0., 9.23361047e-04, 0., 0.,
          9.23361047e-04, 0., 9.23361047e-04, 9.23361047e-04,
          9.23361047e-04, 0., 9.23361047e-04, 3.69344419e-03,
          9.23361070e-03, 0., 0., 0., 0., 0., 0., 9.23361047e-04, 0., 0.,
          2.77008303e-03, 0., 0., 0., 9.23361047e-04, 0., 0., 0., 0., 0.,
          0., 1.84672209e-03, 9.23361047e-04, 0., 0., 3.69344419e-03, 0.,
          3.69344419e-03, 0., 2.77008303e-03, 0., 0., 1.84672209e-03,
          1.84672209e-03, 9.23361047e-04, 0., 0., 0., 0., 9.23361047e-04,
          9.23361047e-04, 0., 0., 1.84672209e-03, 0., 9.23361047e-04,
          1.84672209e-03, 0., 0., 9.23361047e-04, 0., 1.84672209e-03, 0.,
          0., 0., 2.77008303e-03, 0., 3.69344419e-03, 2.77008303e-03, 0.,
          0., 0., 3.69344419e-03, 0., 0., 9.23361047e-04, 1.10803321e-02,
          1.84672209e-03, 9.23361047e-04, 4.61680535e-03, 0., 0.,
          3.69344419e-03, 3.69344419e-03, 0., 0., 0., 9.23361047e-04,
          1.84672209e-03, 0., 0., 0., 0., 0., 0., 9.23361047e-04,
          3.69344419e-03, 0., 0., 0., 0., 0., 3.69344419e-03, 0.,
          9.23361047e-04, 9.23361070e-03, 0., 1.84672209e-03, 0., 0., 0.,
          9.23361047e-04, 9.23361047e-04, 9.23361047e-04, 0., 0., 0., 0.,
          1.38504161e-02, 9.23361047e-04, 0., 9.23361047e-04, 0.,
          1.84672209e-03, 1.84672209e-03, 0., 0., 0., 0., 9.23361047e-04,
          0., 1.20036937e-02, 0., 0., 1.84672209e-03, 1.84672209e-03,
          5.54016605e-03, 1.84672209e-03, 0., 0., 0., 0., 0.,
          3.69344419e-03, 0., 0., 2.77008303e-03, 0., 0., 0.,
          9.23361047e-04, 0., 9.23361047e-04, 2.77008303e-03,
          4.61680535e-03, 9.23361047e-04, 9.23361047e-04, 9.23361047e-04,
          0., 0., 0., 0., 0., 9.23361047e-04, 0., 0., 2.77008303e-03,
          1.84672209e-03, 9.23361047e-04, 9.23361047e-04, 0., 0.,
          1.84672209e-03, 0., 0., 0., 0., 0., 4.61680535e-03, 0., 0., 0.,
          0., 0., 1.84672209e-03, 0., 9.23361047e-04, 9.23361047e-04,
          1.01569714e-02, 9.23361047e-04, 1.84672209e-03, 0., 0., 0.,
          9.23361047e-04, 1.84672209e-03, 0., 0., 9.23361047e-04, 0., 0.,
          0., 0., 0., 0., 0., 9.23361047e-04, 0., 1.84672209e-03,
          1.38504161e-02, 0., 0., 0., 0., 0., 2.77008303e-03, 0.,
          1.84672209e-03, 0., 3.69344419e-03, 0., 0., 1.84672209e-03,
          2.77008303e-03, 0., 0., 0., 9.23361047e-04, 0., 0.,
          1.84672209e-03, 0., 0., 0., 3.69344419e-03, 9.23361047e-04,
          1.84672209e-03, 0., 0., 0., 2.77008303e-03, 9.23361047e-04, 0.,
          2.77008303e-03, 0., 0., 0., 0., 0., 0., 0., 0., 0., 0.,
          9.23361047e-04, 0., 2.77008303e-03, 0., 0., 0., 1.84672209e-03,
          9.23361047e-04, 0., 0., 9.23361047e-04, 2.77008303e-03,
          6.46352721e-03, 0., 1.29270544e-02, 0., 0., 0., 2.77008303e-03,
          0., 0., 9.23361047e-04, 0., 0., 0., 0., 9.23361047e-04,
          1.84672209e-03, 9.23361047e-04, 9.23361047e-04, 0., 0., 0., 0.,
          0., 0., 0., 1.84672209e-03, 9.23361047e-04, 0., 0., 0., 0., 0.,
          1.84672209e-03, 9.23361047e-04, 0., 1.01569714e-02, 0., 0., 0.,
          0., 2.77008303e-03, 0., 4.61680535e-03, 0., 0., 0., 0., 0.,
          9.23361047e-04, 0., 9.23361047e-04, 1.84672209e-03, 0., 0.,
          9.23361047e-04, 0., 0., 4.61680535e-03, 0., 6.46352721e-03,
          9.23361047e-04, 9.23361047e-04, 0., 0., 0., 1.84672209e-03, 0.,
          9.23361047e-04, 0., 0., 0., 3.69344419e-03, 9.23361047e-04, 0.,
          3.69344419e-03, 1.20036937e-02, 0., 0., 0., 0., 0., 0.,
          9.23361047e-04, 0., 0., 9.23361047e-04, 0., 0., 0.,
          9.23361047e-04, 9.23361047e-04, 0., 0., 0., 9.23361047e-04, 0.,
          0., 0., 9.23361047e-04, 0., 0., 0., 0., 0., 1.84672209e-03, 0.,
          0., 0., 1.84672209e-03, 0., 5.54016605e-03, 9.23361047e-04, 0.,
          0., 1.84672209e-03, 0., 1.84672209e-03, 0., 9.23361047e-04, 0.,
          9.23361047e-04, 0., 1.84672209e-03, 1.84672209e-03, 0.,
          2.77008303e-03, 9.23361047e-04, 0., 0., 9.23361047e-04,
          1.84672209e-03, 4.61680535e-03, 1.56971384e-02, 0., 0., 0., 0.,
          1.10803321e-02, 0., 0., 0., 9.23361047e-04, 0., 0., 0.,
          9.23361047e-04, 0., 0., 0., 1.84672209e-03, 0., 2.77008303e-03,
          9.23361047e-04, 9.23361047e-04, 1.84672209e-03, 0.,
          3.69344419e-03, 9.23361047e-04, 9.23361047e-04, 0., 0., 0., 0.,
          9.23361047e-04, 9.23361047e-04, 0., 0., 0., 0., 1.84672209e-03,
          0., 0., 9.23361047e-04, 0., 0., 2.77008303e-03, 0., 0.,
          9.23361047e-04, 9.23361047e-04, 0., 9.23361047e-04, 0., 0., 0.,
          0., 0., 0., 0., 0., 0., 0., 0., 0., 0., 9.23361047e-04,
          1.84672209e-03, 1.84672209e-03, 9.23361047e-04, 0., 0., 0., 0.,
          9.23361047e-04, 0., 0., 2.77008303e-03, 0., 0., 0., 0., 0.,
          5.54016605e-03, 0., 1.84672209e-03, 9.23361047e-04, 0., 0., 0.,
          2.77008303e-03, 0., 2.77008303e-03, 7.38688838e-03, 0., 0., 0.,
          0., 3.69344419e-03, 9.23361047e-04, 0., 6.46352721e-03,
          1.84672209e-03, 0., 0., 0., 0., 3.69344419e-03, 0.,
          9.23361047e-04, 0., 0., 0., 1.84672209e-03, 0., 0., 0., 0., 0.,
          0., 0., 0., 9.23361047e-04, 0., 9.23361047e-04, 2.77008303e-03,
          0., 0., 9.23361047e-04, 1.84672209e-03, 0., 0., 0., 0., 0., 0.,
          9.23361047e-04, 0., 0., 0., 0., 6.46352721e-03, 2.77008303e-03,
          0., 0., 1.84672209e-03, 1.84672209e-03, 0., 0., 0.,
          1.84672209e-03, 0., 0., 0., 0., 2.77008303e-03, 0.,
          9.23361047e-04, 0., 9.23361047e-04, 9.23361047e-04,
          2.77008303e-03, 0., 9.23361047e-04, 0., 0., 0., 0., 0., 0., 0.,
          0., 0., 0., 1.10803321e-02, 0., 0., 0., 0., 9.23361047e-04, 0.,
          0., 1.84672209e-03, 1.10803321e-02, 0., 0., 0., 0.,
          9.23361047e-04, 0., 0., 1.84672209e-03, 5.54016605e-03,
          9.23361047e-04, 0., 0., 0., 0., 0., 0., 0., 0., 9.23361047e-04,
          0., 0., 0., 1.84672209e-03, 2.77008303e-03, 0., 4.61680535e-03,
          1.84672209e-03, 9.23361047e-04, 0., 9.23361047e-04, 0., 0.,
          1.20036937e-02, 0., 9.23361047e-04, 3.69344419e-03,
          9.23361047e-04, 2.77008303e-03, 0., 0., 0., 0., 0., 0., 0., 0.,
          0., 4.61680535e-03, 1.84672209e-03, 9.23361047e-04, 0.,
          8.31024908e-03, 0., 0., 0., 0., 9.23361047e-04, 7.38688838e-03,
          0., 0., 0., 0., 3.69344419e-03, 9.23361047e-04, 0., 0.,
          9.23361047e-04, 0., 9.23361047e-04, 4.61680535e-03, 0., 0., 0.,
          0., 0., 0., 0., 1.84672209e-03, 0., 0., 0., 0., 1.84672209e-03,
          9.23361047e-04, 1.84672209e-03, 0., 0., 1.84672209e-03,
          5.54016605e-03, 9.23361047e-04, 0., 9.23361047e-04,
          9.23361047e-04, 0., 1.84672209e-03, 3.69344419e-03,
          9.23361047e-04, 2.77008303e-03, 9.23361047e-04, 0.,
          2.77008303e-03, 1.84672209e-03, 0., 0., 9.23361047e-04, 0.,
          4.61680535e-03, 0., 0., 0., 0., 1.20036937e-02, 0.,
          9.23361047e-04, 0., 0., 0., 0., 9.23361047e-04, 0., 0.,
          7.38688838e-03, 0., 0., 3.69344419e-03, 1.84672209e-03, 0., 0.,
          9.23361047e-04, 2.77008303e-03, 1.84672209e-03, 0., 0.,
          3.69344419e-03, 4.61680535e-03, 2.77008303e-03, 0.,
          2.77008303e-03, 1.84672209e-03, 1.84672209e-03, 0.,
          9.23361047e-04, 0., 0., 0., 9.23361047e-04, 0., 0.,
          9.23361047e-04, 5.54016605e-03, 0., 2.77008303e-03, 0.,
          9.23361047e-04, 1.84672209e-03, 0., 9.23361047e-04, 0.,
          9.23361047e-04, 0., 0., 0., 0., 0., 3.69344419e-03,
          1.84672209e-03, 9.23361047e-04, 9.23361047e-04, 0., 0.,
          9.23361047e-04, 0., 9.23361047e-04, 3.69344419e-03,
          9.23361047e-04, 0., 0., 4.61680535e-03, 2.77008303e-03, 0., 0.,
          8.31024908e-03, 0., 0., 9.23361047e-04, 0., 0., 0., 0.,
          2.77008303e-03, 0., 0., 0., 9.23361047e-04, 0., 0., 0.,
          9.23361047e-04, 0., 3.69344419e-03, 0., 0., 0., 0., 0.,
          9.23361047e-04, 0., 0., 9.23361047e-04, 9.23361047e-04, 0.,
          1.84672209e-03, 0., 0., 0., 9.23361047e-04, 0., 0.,
          1.84672209e-03, 2.77008303e-03, 0., 9.23361047e-04,
          1.84672209e-03, 0., 9.23361047e-04, 1.84672209e-03 ]
      - [ 1.20370369e-02, 1.85185182e-03, 9.25925910e-04, 6.48148125e-03,
          0., 0., 9.25925910e-04, 9.25925910e-04, 0., 0., 9.25925910e-04,
          9.25925910e-04, 1.85185182e-03, 0., 0., 9.25925910e-04, 0.,
          9.25925910e-04, 9.25925910e-04, 9.25925910e-04, 9.25925910e-04,
          9.25925910e-04, 9.25925910e-04, 0., 9.25925910e-04,
          9.25925910e-04, 0., 2.77777761e-03, 9.25925910e-04, 0., 0.,
          9.25925910e-04, 0., 3.70370364e-03, 9.25925910e-04, 0., 0., 0.,
          9.25925910e-04, 0., 1.85185182e-03, 0., 0., 0., 5.55555522e-03,
          0., 0., 1.85185182e-03, 0., 0., 0., 9.25925910e-04,
          1.85185182e-03, 0., 6.48148125e-03, 9.25925910e-04,
          2.77777761e-03, 2.77777761e-03, 0., 0., 1.85185182e-03, 0., 0.,
          3.70370364e-03, 0., 0., 9.25925910e-04, 0., 2.77777761e-03, 0.,
          9.25925910e-04, 0., 0., 2.77777761e-03, 0., 1.85185182e-03,
          9.25925910e-04, 0., 9.25925910e-04, 2.77777761e-03,
          9.25925910e-04, 0., 9.25925910e-04, 9.25925910e-04, 0., 0., 0.,
          1.01851849e-02, 9.25925910e-04, 0., 9.25925910e-04,
          1.85185182e-03, 2.77777761e-03, 0., 0., 2.77777761e-03, 0., 0.,
          0., 2.77777761e-03, 2.77777761e-03, 0., 0., 9.25925910e-04, 0.,
          1.85185182e-03, 1.85185182e-03, 0., 9.25925910e-04,
          3.70370364e-03, 0., 1.85185182e-03, 9.25925910e-04, 0.,
          9.25925910e-04, 0., 9.25925910e-04, 9.25925910e-04,
          9.25925910e-04, 9.25925910e-04, 0., 1.85185182e-03, 0., 0., 0.,
          2.77777761e-03, 9.25925910e-04, 0., 1.85185182e-03,
          9.25925910e-04, 0., 0., 0., 1.11111104e-02, 9.25925910e-04, 0.,
          0., 9.25925910e-04, 0., 1.85185182e-03, 9.25925910e-04,
          1.85185182e-03, 0., 2.77777761e-03, 2.77777761e-03, 0., 0.,
          9.25925910e-04, 0., 0., 0., 9.25925910e-04, 0., 1.85185182e-03,
          9.25925910e-04, 9.25925910e-04, 0., 0., 0., 9.25925910e-04,
          9.25925910e-04, 0., 8.33333284e-03, 0., 1.85185182e-03,
          1.85185182e-03, 9.25925910e-04, 0., 0., 1.85185182e-03, 0., 0.,
          0., 0., 0., 9.25925933e-03, 2.77777761e-03, 0., 9.25925910e-04,
          0., 1.85185182e-03, 2.77777761e-03, 0., 1.85185182e-03,
          9.25925910e-04, 9.25925910e-04, 0., 0., 0., 0., 0., 0., 0., 0.,
          9.25925910e-04, 0., 0., 0., 0., 0., 1.85185182e-03,
          9.25925910e-04, 3.70370364e-03, 0., 5.55555522e-03,
          1.85185182e-03, 0., 0., 1.85185182e-03, 0., 0., 0.,
          2.77777761e-03, 0., 0., 9.25925910e-04, 0., 0., 0.,
          1.85185182e-03, 0., 0., 0., 0., 9.25925910e-04, 9.25925910e-04,
          9.25925910e-04, 0., 0., 1.85185182e-03, 9.25925910e-04,
          1.85185182e-03, 0., 3.70370364e-03, 9.25925910e-04, 0., 0.,
          1.85185182e-03, 9.25925910e-04, 9.25925933e-03, 0.,
          1.85185182e-03, 0., 0., 0., 9.25925910e-04, 0., 0.,
          1.85185182e-03, 6.48148125e-03, 9.25925910e-04, 0., 0., 0.,
          4.62962966e-03, 0., 0., 0., 0., 1.85185182e-03, 0.,
          9.25925910e-04, 2.77777761e-03, 0., 0., 0., 0., 3.70370364e-03,
          0., 0., 0., 5.55555522e-03, 0., 1.85185182e-03, 3.70370364e-03,
          9.25925910e-04, 1.85185182e-03, 9.25925910e-04, 9.25925910e-04,
          9.25925910e-04, 9.25925910e-04, 0., 2.77777761e-03,
          2.77777761e-03, 0., 0., 0., 0., 9.25925910e-04, 0.,
          9.25925910e-04, 9.25925910e-04, 0., 0., 1.85185182e-03, 0., 0.,
          5.55555522e-03, 1.85185182e-03, 0., 5.55555522e-03,
          9.25925910e-04, 4.62962966e-03, 0., 0., 0., 9.25925910e-04, 0.,
          9.25925910e-04, 0., 0., 0., 0., 1.85185182e-03, 0., 0., 0., 0.,
          1.85185182e-03, 9.25925910e-04, 9.25925910e-04, 0., 0.,
          9.25925910e-04, 3.70370364e-03, 0., 9.25925933e-03, 0., 0.,
          3.70370364e-03, 6.48148125e-03, 4.62962966e-03, 1.85185182e-03,
          0., 0., 2.77777761e-03, 0., 0., 3.70370364e-03, 0., 0., 0.,
          2.77777761e-03, 0., 0., 0., 9.25925910e-04, 0., 3.70370364e-03,
          9.25925910e-04, 9.25925910e-04, 3.70370364e-03, 9.25925910e-04,
          9.25925910e-04, 7.40740728e-03, 0., 0., 0., 0., 0.,
          4.62962966e-03, 8.33333284e-03, 1.85185182e-03, 1.85185182e-03,
          9.25925910e-04, 0., 1.85185182e-03, 0., 9.25925910e-04,
          9.25925910e-04, 0., 0., 0., 0., 0., 0., 0., 9.25925910e-04,
          1.85185182e-03, 0., 0., 9.25925910e-04, 0., 4.62962966e-03,
          9.25925910e-04, 0., 0., 2.77777761e-03, 0., 0., 6.48148125e-03,
          9.25925910e-04, 0., 9.25925910e-04, 0., 0., 0., 9.25925910e-04,
          0., 0., 0., 9.25925910e-04, 9.25925910e-04, 0., 4.62962966e-03,
          0., 0., 0., 9.25925910e-04, 0., 9.25925910e-04, 0., 0.,
          9.25925910e-04, 9.25925910e-04, 9.25925910e-04, 0.,
          1.85185182e-03, 4.62962966e-03, 9.25925910e-04, 0.,
          9.25925910e-04, 0., 0., 2.77777761e-03, 3.70370364e-03,
          1.85185182e-03, 0., 0., 2.77777761e-03, 0., 1.85185182e-03, 0.,
          9.25925910e-04, 0., 9.25925910e-04, 1.85185182e-03, 0., 0., 0.,
          0., 0., 0., 0., 7.40740728e-03, 0., 9.25925910e-04, 0., 0., 0.,
          0., 0., 0., 0., 0., 9.25925910e-04, 0., 9.25925910e-04,
          9.25925910e-04, 2.77777761e-03, 0., 7.40740728e-03, 0., 0.,
          9.25925910e-04, 0., 0., 1.85185182e-03, 9.25925910e-04, 0.,
          2.77777761e-03, 0., 1.85185182e-03, 1.85185182e-03,
          3.70370364e-03, 0., 0., 0., 9.25925910e-04, 9.25925910e-04, 0.,
          9.25925910e-04, 0., 9.25925910e-04, 9.25925910e-04,
          9.25925910e-04, 3.70370364e-03, 0., 0., 0., 0., 1.85185182e-03,
          9.25925910e-04, 9.25925910e-04, 3.70370364e-03, 0.,
          2.77777761e-03, 0., 0., 0., 9.25925910e-04, 0., 0.,
          9.25925910e-04, 0., 0., 9.25925910e-04, 0., 2.77777761e-03, 0.,
          9.25925910e-04, 9.25925910e-04, 1.85185182e-03, 0.,
          9.25925910e-04, 1.85185182e-03, 0., 9.25925910e-04, 0.,
          1.85185182e-03, 9.25925910e-04, 0., 0., 0., 1.85185182e-03, 0.,
          9.25925910e-04, 0., 0., 0., 2.77777761e-03, 9.25925910e-04, 0.,
          9.25925910e-04, 2.77777761e-03, 3.70370364e-03, 1.85185182e-03,
          0., 2.77777761e-03, 0., 9.25925910e-04, 0., 9.25925910e-04, 0.,
          9.25925910e-04, 0., 9.25925910e-04, 0., 0., 0., 1.85185182e-03,
          2.77777761e-03, 0., 0., 1.85185182e-03, 0., 0., 2.77777761e-03,
          1.85185182e-03, 0., 6.48148125e-03, 0., 0., 0., 0.,
          1.85185182e-03, 2.77777761e-03, 9.25925910e-04, 0.,
          9.25925910e-04, 1.85185182e-03, 1.85185182e-03, 2.77777761e-03,
          1.85185182e-03, 0., 0., 9.25925910e-04, 0., 0., 0.,
          9.25925910e-04, 0., 0., 1.85185182e-03, 0., 0., 1.85185182e-03,
          9.25925910e-04, 1.85185182e-03, 0., 9.25925910e-04, 0.,
          4.62962966e-03, 1.75925922e-02, 0., 0., 0., 9.25925910e-04,
          7.40740728e-03, 0., 9.25925910e-04, 0., 9.25925910e-04, 0., 0.,
          0., 2.77777761e-03, 9.25925910e-04, 0., 0., 1.85185182e-03, 0.,
          1.85185182e-03, 3.70370364e-03, 0., 1.85185182e-03,
          1.85185182e-03, 0., 9.25925910e-04, 9.25925910e-04, 0.,
          9.25925910e-04, 0., 9.25925910e-04, 0., 0., 0., 0.,
          2.77777761e-03, 1.85185182e-03, 0., 9.25925910e-04, 0., 0.,
          9.25925910e-04, 0., 0., 0., 0., 0., 0., 2.77777761e-03,
          2.77777761e-03, 9.25925910e-04, 2.77777761e-03, 1.85185182e-03,
          0., 0., 0., 0., 9.25925910e-04, 0., 9.25925910e-04,
          3.70370364e-03, 9.25925910e-04, 1.85185182e-03, 0.,
          9.25925910e-04, 0., 9.25925910e-04, 0., 9.25925910e-04,
          9.25925910e-04, 4.62962966e-03, 0., 0., 9.25925910e-04,
          4.62962966e-03, 1.85185182e-03, 0., 0., 0., 9.25925910e-04,
          9.25925910e-04, 2.77777761e-03, 0., 2.77777761e-03, 0.,
          9.25925910e-04, 9.25925910e-04, 0., 0., 1.85185182e-03,
          2.77777761e-03, 0., 9.25925910e-04, 1.11111104e-02, 0.,
          4.62962966e-03, 9.25925910e-04, 0., 0., 0., 0., 9.25925910e-04,
          3.70370364e-03, 0., 3.70370364e-03, 0., 0., 0., 1.85185182e-03,
          9.25925910e-04, 9.25925910e-04, 0., 0., 3.70370364e-03, 0., 0.,
          0., 9.25925910e-04, 0., 9.25925910e-04, 0., 0., 0., 0.,
          9.25925910e-04, 9.25925910e-04, 0., 0., 0., 0., 0., 0., 0., 0.,
          1.85185182e-03, 0., 0., 2.77777761e-03, 2.77777761e-03,
          2.77777761e-03, 9.25925910e-04, 9.25925910e-04, 9.25925910e-04,
          9.25925910e-04, 1.85185182e-03, 0., 0., 1.85185182e-03,
          3.70370364e-03, 0., 0., 0., 0., 0., 9.25925910e-04, 0.,
          9.25925910e-04, 0., 3.70370364e-03, 1.85185182e-03, 0., 0., 0.,
          0., 9.25925910e-04, 1.85185182e-03, 9.25925910e-04, 0., 0.,
          1.85185182e-03, 0., 9.25925910e-04, 0., 9.25925910e-04, 0.,
          1.85185182e-03, 2.77777761e-03, 0., 9.25925910e-04,
          9.25925910e-04, 5.55555522e-03, 9.25925910e-04, 0.,
          9.25925910e-04, 0., 0., 0., 0., 0., 9.25925910e-04,
          1.85185182e-03, 0., 0., 0., 9.25925910e-04, 0., 0., 0., 0.,
          9.25925910e-04, 0., 9.25925910e-04, 0., 0., 0., 0., 0.,
          9.25925910e-04, 9.25925910e-04, 9.25925910e-04, 0., 0., 0.,
          1.85185182e-03, 0., 0., 9.25925910e-04, 0., 1.85185182e-03, 0.,
          0., 1.85185182e-03, 0., 0., 0., 0., 9.25925910e-04,
          9.25925910e-04, 9.25925910e-04, 2.77777761e-03, 0., 0.,
          6.48148125e-03, 0., 0., 9.25925910e-04, 0., 0., 1.85185182e-03,
          0., 9.25925910e-04, 0., 1.85185182e-03, 7.40740728e-03, 0., 0.,
          0., 0., 9.25925910e-04, 1.85185182e-03, 9.25925910e-04,
          9.25925910e-04, 9.25925910e-04, 0., 9.25925910e-04, 0., 0.,
          1.85185182e-03, 9.25925910e-04, 0., 0., 0., 0., 3.70370364e-03,
          0., 1.85185182e-03, 0., 0., 1.85185182e-03, 9.25925910e-04, 0.,
          9.25925910e-04, 1.85185182e-03, 1.85185182e-03, 0., 0.,
          1.85185182e-03, 2.77777761e-03, 4.62962966e-03, 9.25925910e-04,
          0., 0., 0., 0., 4.62962966e-03, 0., 0., 0., 0., 0., 0., 0.,
          2.77777761e-03, 9.25925910e-04, 9.25925910e-04, 9.25925910e-04,
          0., 0., 4.62962966e-03, 9.25925910e-04, 1.85185182e-03, 0.,
          3.70370364e-03, 0., 9.25925910e-04, 1.85185182e-03, 0.,
          9.25925910e-04, 0., 0., 5.55555522e-03, 2.77777761e-03, 0., 0.,
          1.85185182e-03, 2.77777761e-03, 9.25925910e-04, 0.,
          9.25925910e-04, 9.25925910e-04, 0., 0., 0., 1.85185182e-03,
          1.85185182e-03, 9.25925910e-04, 0., 9.25925910e-04,
          9.25925910e-04, 0., 2.77777761e-03, 0., 3.70370364e-03, 0., 0.,
          0., 3.70370364e-03, 0., 9.25925910e-04, 0., 0., 0., 0., 0.,
          9.25925910e-04, 2.77777761e-03, 9.25925910e-04, 9.25925910e-04,
          9.25925910e-04, 9.25925910e-04, 0., 5.55555522e-03,
          9.25925910e-04, 9.25925910e-04, 3.70370364e-03, 0., 0.,
          1.85185182e-03, 3.70370364e-03, 0., 9.25925910e-04,
          1.85185182e-03, 5.55555522e-03, 0., 0., 9.25925910e-04, 0., 0.,
          9.25925910e-04, 0., 9.25925910e-04, 0., 0., 0., 1.85185182e-03,
          0., 6.48148125e-03, 0., 0., 9.25925910e-04, 0., 0., 0., 0., 0.,
          0., 0., 0., 9.25925910e-04, 1.85185182e-03, 6.48148125e-03, 0.,
          9.25925910e-04, 9.25925910e-04, 9.25925910e-04, 2.77777761e-03,
          0., 0., 0., 1.85185182e-03, 0., 0., 0., 0., 4.62962966e-03,
          1.85185182e-03, 9.25925910e-04 ]
      - [ 4.53514745e-03, 0., 0., 7.93650839e-03, 0., 0., 0., 0., 0.,
          1.13378686e-03, 0., 1.13378686e-03, 1.13378686e-03, 0., 0., 0.,
          0., 0., 2.26757373e-03, 0., 0., 1.13378686e-03, 0., 0.,
          5.66893443e-03, 0., 0., 0., 0., 0., 0., 0., 2.26757373e-03,
          1.13378686e-03, 4.53514745e-03, 0., 1.13378686e-03, 0., 0., 0.,
          1.13378686e-03, 0., 0., 0., 0., 0., 0., 0., 0., 0.,
          1.13378686e-03, 1.13378686e-03, 2.26757373e-03, 0.,
          2.26757373e-03, 0., 0., 1.13378686e-03, 0., 0., 2.26757373e-03,
          0., 4.53514745e-03, 1.13378686e-03, 0., 1.13378686e-03, 0., 0.,
          0., 0., 0., 0., 0., 3.40136047e-03, 0., 2.26757373e-03, 0.,
          2.26757373e-03, 0., 1.13378686e-03, 0., 1.13378686e-03,
          5.66893443e-03, 2.26757373e-03, 5.66893443e-03, 0.,
          1.13378686e-03, 2.26757373e-03, 1.13378686e-03, 1.13378686e-03,
          0., 1.13378686e-03, 0., 0., 1.13378686e-03, 1.13378686e-03, 0.,
          0., 0., 1.13378686e-03, 0., 1.13378686e-03, 0., 0., 0., 0., 0.,
          0., 3.40136047e-03, 0., 2.26757373e-03, 1.13378686e-03,
          1.13378686e-03, 1.13378686e-03, 0., 0., 0., 0., 0., 0., 0.,
          6.80272095e-03, 1.13378686e-03, 0., 1.13378686e-03, 0.,
          3.40136047e-03, 1.13378686e-03, 3.40136047e-03, 1.13378686e-03,
          2.26757373e-03, 2.26757373e-03, 1.13378686e-03, 3.40136047e-03,
          1.13378686e-03, 0., 0., 2.26757373e-03, 0., 1.13378686e-03, 0.,
          0., 0., 4.53514745e-03, 2.26757373e-03, 0., 0., 1.13378686e-03,
          0., 1.13378686e-03, 0., 1.13378686e-03, 0., 1.13378686e-03,
          1.13378686e-03, 2.26757373e-03, 0., 0., 0., 0., 0.,
          2.26757373e-03, 7.93650839e-03, 0., 1.13378686e-03,
          1.13378686e-03, 0., 0., 5.66893443e-03, 0., 0., 0., 0., 0., 0.,
          2.49433108e-02, 0., 0., 0., 0., 0., 3.40136047e-03, 0.,
          1.13378686e-03, 3.40136047e-03, 0., 0., 0., 0., 0., 0.,
          2.26757373e-03, 0., 0., 0., 0., 0., 0., 0., 0., 2.26757373e-03,
          0., 0., 1.13378686e-03, 2.26757373e-03, 3.40136047e-03, 0., 0.,
          1.13378686e-03, 0., 0., 0., 0., 0., 0., 3.40136047e-03,
          1.13378686e-03, 0., 0., 0., 0., 0., 0., 0., 3.40136047e-03,
          1.13378686e-03, 0., 0., 0., 1.13378686e-03, 2.26757373e-03,
          1.13378686e-03, 3.40136047e-03, 0., 2.26757373e-03, 0., 0.,
          1.13378686e-03, 0., 0., 0., 0., 0., 0., 1.13378686e-03,
          1.13378686e-03, 1.13378686e-03, 1.13378686e-03, 2.26757373e-03,
          2.26757373e-03, 0., 1.13378686e-03, 0., 0., 4.53514745e-03, 0.,
          0., 0., 0., 0., 0., 0., 2.26757373e-03, 1.13378686e-03, 0.,
          1.13378686e-03, 1.13378686e-03, 1.02040814e-02, 0., 0.,
          2.26757373e-03, 3.40136047e-03, 0., 0., 4.53514745e-03, 0., 0.,
          0., 1.13378686e-03, 1.13378686e-03, 2.26757373e-03, 0.,
          1.13378686e-03, 1.13378686e-03, 0., 0., 0., 0., 0., 0.,
          1.13378686e-03, 2.26757373e-03, 0., 0., 4.53514745e-03, 0., 0.,
          2.26757373e-03, 0., 0., 0., 2.26757373e-03, 0., 0., 0., 0., 0.,
          2.26757373e-03, 0., 0., 0., 0., 0., 1.02040814e-02,
          1.13378686e-03, 1.13378686e-03, 2.26757373e-03, 0.,
          1.13378686e-03, 0., 0., 1.13378686e-03, 0., 0., 1.13378686e-03,
          0., 1.81405898e-02, 1.13378686e-03, 1.13378686e-03,
          4.53514745e-03, 1.13378686e-03, 0., 0., 0., 2.26757373e-03, 0.,
          0., 1.13378686e-03, 0., 0., 0., 1.13378686e-03, 0.,
          1.13378686e-03, 1.13378686e-03, 0., 3.40136047e-03,
          1.13378686e-03, 3.40136047e-03, 3.40136047e-03, 2.26757373e-03,
          5.66893443e-03, 0., 1.13378686e-03, 3.40136047e-03, 0., 0., 0.,
          0., 0., 0., 5.66893443e-03, 1.13378686e-03, 1.13378686e-03,
          6.80272095e-03, 0., 0., 3.40136047e-03, 0., 2.26757373e-03, 0.,
          0., 0., 0., 0., 0., 0., 1.13378686e-03, 0., 0., 0.,
          1.13378686e-03, 0., 6.80272095e-03, 3.40136047e-03, 0., 0., 0.,
          0., 0., 1.13378686e-03, 0., 0., 0., 0., 0., 0., 0., 0., 0., 0.,
          3.40136047e-03, 3.40136047e-03, 0., 0., 0., 1.13378686e-03, 0.,
          0., 0., 0., 1.13378686e-03, 2.26757373e-03, 0., 4.53514745e-03,
          1.13378686e-03, 1.13378686e-03, 1.13378686e-03, 1.13378686e-03,
          0., 0., 0., 0., 0., 0., 0., 0., 0., 0., 1.13378686e-03, 0.,
          2.26757373e-03, 0., 0., 0., 1.13378686e-03, 2.26757373e-03, 0.,
          0., 0., 0., 5.66893443e-03, 0., 0., 0., 0., 0., 0., 0.,
          2.26757373e-03, 0., 1.13378686e-03, 0., 0., 0., 0., 0., 0.,
          1.13378686e-03, 3.40136047e-03, 2.26757373e-03, 9.07029491e-03,
          0., 2.26757373e-03, 0., 0., 0., 0., 1.13378686e-03, 0.,
          3.40136047e-03, 0., 1.13378686e-03, 0., 6.80272095e-03, 0., 0.,
          0., 0., 0., 0., 2.26757373e-03, 0., 0., 0., 0., 1.13378686e-03,
          0., 0., 0., 1.13378686e-03, 0., 0., 4.53514745e-03,
          1.13378686e-03, 0., 2.26757373e-03, 0., 1.13378686e-03, 0., 0.,
          0., 0., 4.53514745e-03, 0., 0., 2.26757373e-03, 0., 0.,
          3.40136047e-03, 0., 1.13378686e-03, 7.93650839e-03,
          2.26757373e-03, 1.13378686e-03, 0., 0., 1.13378686e-03,
          1.13378686e-03, 0., 2.26757373e-03, 3.40136047e-03, 0., 0.,
          2.26757373e-03, 0., 3.40136047e-03, 0., 1.13378686e-03, 0., 0.,
          0., 1.13378686e-03, 0., 0., 0., 5.66893443e-03, 0.,
          1.13378686e-03, 0., 0., 0., 3.40136047e-03, 1.13378686e-03,
          3.40136047e-03, 0., 0., 1.13378686e-03, 0., 1.13378686e-03,
          1.13378686e-03, 0., 0., 0., 0., 1.13378686e-03, 0., 0.,
          1.13378686e-03, 1.13378686e-03, 1.13378686e-03, 1.13378686e-03,
          0., 0., 0., 0., 1.13378686e-03, 0., 0., 4.53514745e-03,
          1.13378686e-03, 2.26757373e-03, 2.26757373e-03, 0.,
          1.13378686e-03, 0., 0., 0., 0., 0., 0., 0., 5.66893443e-03, 0.,
          6.80272095e-03, 0., 1.13378686e-03, 1.13378686e-03,
          1.13378686e-03, 0., 0., 0., 0., 3.28798182e-02, 0., 0.,
          1.13378686e-03, 0., 5.66893443e-03, 0., 0., 1.13378686e-03, 0.,
          0., 0., 1.13378686e-03, 0., 1.13378686e-03, 1.13378686e-03, 0.,
          3.40136047e-03, 0., 1.13378686e-03, 4.53514745e-03, 0.,
          1.13378686e-03, 0., 1.13378686e-03, 0., 1.13378686e-03, 0.,
          1.13378686e-03, 0., 0., 0., 2.26757373e-03, 0., 0.,
          1.13378686e-03, 0., 0., 2.26757373e-03, 0., 0., 1.13378686e-03,
          0., 1.13378686e-03, 2.26757373e-03, 1.13378686e-03, 0., 0., 0.,
          0., 1.13378686e-03, 0., 0., 0., 0., 0., 1.13378686e-03, 0., 0.,
          0., 1.13378686e-03, 0., 1.13378686e-03, 2.26757373e-03,
          1.13378686e-03, 0., 1.13378686e-03, 0., 3.40136047e-03,
          1.13378686e-03, 1.13378686e-03, 0., 0., 0., 3.40136047e-03,
          1.13378686e-03, 0., 0., 1.13378686e-03, 0., 1.13378686e-03, 0.,
          0., 0., 0., 0., 0., 0., 1.13378686e-03, 1.13378686e-03, 0.,
          1.13378686e-03, 0., 2.26757373e-03, 0., 3.40136047e-03,
          1.13378686e-03, 0., 3.40136047e-03, 1.13378686e-03, 0., 0.,
          1.13378686e-03, 0., 3.40136047e-03, 1.13378686e-03,
          1.13378686e-03, 0., 0., 0., 0., 0., 0., 2.26757373e-03,
          1.13378686e-03, 1.13378686e-03, 0., 0., 2.26757373e-03, 0., 0.,
          0., 0., 0., 0., 3.40136047e-03, 0., 0., 0., 0., 0., 0., 0.,
          1.13378686e-03, 0., 0., 1.13378686e-03, 1.13378686e-03,
          1.13378686e-03, 0., 0., 0., 2.26757373e-03, 3.40136047e-03, 0.,
          2.26757373e-03, 0., 1.13378686e-03, 1.13378686e-03, 0., 0., 0.,
          3.40136047e-03, 0., 1.13378686e-03, 2.26757373e-03,
          1.13378686e-03, 1.13378686e-03, 4.53514745e-03, 2.26757373e-03,
          0., 1.13378686e-03, 0., 0., 1.13378686e-03, 0., 0., 0.,
          3.40136047e-03, 1.13378686e-03, 0., 0., 0., 0., 0.,
          5.66893443e-03, 0., 0., 1.13378686e-03, 2.26757373e-03,
          1.13378689e-02, 0., 0., 2.26757373e-03, 0., 0., 0., 0., 0., 0.,
          2.26757373e-03, 0., 1.13378686e-03, 0., 2.26757373e-03,
          1.13378686e-03, 4.53514745e-03, 0., 0., 0., 0., 0., 0., 0., 0.,
          0., 4.53514745e-03, 1.13378686e-03, 1.13378686e-03,
          2.26757373e-03, 0., 0., 3.40136047e-03, 2.26757373e-03,
          4.53514745e-03, 3.40136047e-03, 0., 0., 2.26757373e-03, 0., 0.,
          2.26757373e-03, 0., 0., 0., 1.13378686e-03, 1.13378686e-03, 0.,
          0., 4.53514745e-03, 2.26757373e-03, 0., 9.07029491e-03, 0., 0.,
          0., 1.13378686e-03, 0., 1.02040814e-02, 0., 0., 0., 0.,
          1.24716554e-02, 1.13378686e-03, 2.26757373e-03, 0., 0.,
          1.13378686e-03, 5.66893443e-03, 1.13378686e-03, 0., 0.,
          1.13378686e-03, 0., 0., 0., 0., 0., 0., 0., 0., 0.,
          4.53514745e-03, 0., 0., 0., 0., 0., 0., 0., 0., 1.13378686e-03,
          3.40136047e-03, 0., 5.66893443e-03, 1.13378686e-03,
          1.13378686e-03, 2.26757373e-03, 2.26757373e-03, 0.,
          1.13378686e-03, 0., 0., 0., 2.26757373e-03, 0., 3.40136047e-03,
          0., 0., 0., 2.26757373e-03, 7.93650839e-03, 1.13378686e-03,
          2.26757373e-03, 2.26757373e-03, 0., 1.13378686e-03,
          2.26757373e-03, 2.26757373e-03, 2.26757373e-03, 0.,
          2.26757373e-03, 0., 1.13378686e-03, 1.13378686e-03,
          5.66893443e-03, 0., 0., 0., 4.53514745e-03, 0., 0., 0., 0., 0.,
          5.66893443e-03, 0., 0., 2.26757373e-03, 1.13378686e-03,
          1.13378686e-03, 1.13378686e-03, 0., 1.13378686e-03,
          4.53514745e-03, 0., 0., 1.13378686e-03, 0., 3.40136047e-03, 0.,
          6.80272095e-03, 0., 0., 2.26757373e-03, 0., 0., 0.,
          2.26757373e-03, 0., 0., 0., 0., 0., 4.53514745e-03, 0., 0.,
          1.13378686e-03, 0., 1.13378686e-03, 0., 0., 1.13378686e-03,
          2.26757373e-03, 2.26757373e-03, 0., 1.13378686e-03,
          1.13378686e-03, 0., 0., 1.13378686e-03, 5.66893443e-03,
          3.40136047e-03, 1.13378686e-03, 2.26757373e-03, 0., 0., 0., 0.,
          2.26757373e-03, 0., 0., 0., 0., 0., 5.66893443e-03, 0., 0., 0.,
          2.26757373e-03, 0., 0., 0., 0., 1.13378686e-03, 0., 0., 0., 0.,
          2.26757373e-03, 0., 0., 2.26757373e-03, 1.13378686e-03,
          1.13378686e-03, 0., 0., 0., 3.40136047e-03, 0., 0., 0., 0., 0.,
          3.40136047e-03, 2.26757373e-03 ]
      - [ 9.56284162e-03, 0., 0., 1.36612018e-03, 0., 0., 0.,
          1.36612018e-03, 0., 2.73224036e-03, 1.36612018e-03, 0., 0., 0.,
          0., 1.36612018e-03, 0., 2.73224036e-03, 2.73224036e-03, 0.,
          1.36612018e-03, 0., 0., 0., 1.36612018e-03, 4.09836043e-03, 0.,
          0., 1.36612018e-03, 0., 0., 0., 0., 1.36612018e-03, 0., 0., 0.,
          0., 1.36612018e-03, 2.73224036e-03, 1.36612018e-03, 0., 0., 0.,
          1.36612018e-03, 0., 0., 1.36612018e-03, 1.36612018e-03, 0.,
          1.36612018e-03, 1.36612018e-03, 2.73224036e-03, 0.,
          6.83060102e-03, 2.73224036e-03, 0., 0., 0., 0., 0., 0., 0., 0.,
          0., 0., 0., 0., 0., 0., 0., 0., 0., 1.36612018e-03, 0.,
          1.36612018e-03, 2.73224036e-03, 0., 2.73224036e-03,
          4.09836043e-03, 0., 0., 6.83060102e-03, 2.73224036e-03, 0., 0.,
          0., 0., 0., 0., 2.73224036e-03, 0., 0., 0., 0., 2.73224036e-03,
          0., 0., 1.36612018e-03, 0., 4.09836043e-03, 1.36612018e-03, 0.,
          0., 0., 2.73224036e-03, 1.36612018e-03, 1.36612018e-03,
          2.73224036e-03, 0., 4.09836043e-03, 1.36612018e-03, 0.,
          1.36612018e-03, 0., 0., 0., 1.36612018e-03, 0., 0., 0.,
          8.19672085e-03, 2.73224036e-03, 0., 0., 0., 2.73224036e-03, 0.,
          1.36612018e-03, 1.36612018e-03, 1.36612018e-03, 0., 0.,
          1.36612018e-03, 4.09836043e-03, 0., 0., 1.36612018e-03, 0.,
          2.73224036e-03, 0., 0., 0., 4.09836043e-03, 0., 0., 0., 0., 0.,
          1.36612018e-03, 4.09836043e-03, 0., 0., 0., 0., 1.36612018e-03,
          0., 0., 0., 0., 0., 0., 6.83060102e-03, 0., 0., 0.,
          2.73224036e-03, 0., 2.73224036e-03, 4.09836043e-03, 0., 0., 0.,
          0., 0., 3.41530032e-02, 0., 1.36612018e-03, 0., 0., 0.,
          1.36612018e-03, 0., 0., 1.36612018e-03, 0., 0., 0., 0., 0., 0.,
          0., 0., 0., 0., 0., 0., 0., 1.36612018e-03, 1.36612018e-03,
          1.36612018e-03, 0., 0., 0., 8.19672085e-03, 4.09836043e-03, 0.,
          0., 0., 0., 4.09836043e-03, 0., 2.73224036e-03, 0.,
          2.73224036e-03, 1.36612018e-03, 0., 0., 0., 0., 0., 0., 0., 0.,
          0., 1.36612018e-03, 0., 1.36612018e-03, 0., 2.73224036e-03, 0.,
          0., 0., 0., 4.09836043e-03, 1.36612018e-03, 1.36612018e-03, 0.,
          1.36612018e-03, 0., 0., 1.36612018e-03, 0., 0., 0.,
          1.36612018e-03, 0., 0., 4.09836043e-03, 1.36612018e-03,
          1.36612018e-03, 0., 0., 0., 2.73224036e-03, 0., 2.73224036e-03,
          0., 0., 1.36612018e-03, 0., 0., 6.83060102e-03, 0., 0.,
          1.36612018e-03, 0., 2.32240427e-02, 0., 0., 1.36612018e-03, 0.,
          0., 0., 2.73224036e-03, 0., 0., 1.36612018e-03, 0.,
          1.36612018e-03, 0., 0., 1.36612018e-03, 2.73224036e-03, 0., 0.,
          0., 1.36612018e-03, 0., 0., 1.36612018e-03, 0., 0.,
          2.73224036e-03, 6.83060102e-03, 0., 0., 9.56284162e-03, 0., 0.,
          8.19672085e-03, 0., 2.73224036e-03, 0., 0., 0., 1.36612018e-03,
          0., 1.36612018e-03, 0., 0., 0., 0., 4.09836043e-03, 0.,
          1.36612018e-03, 5.46448072e-03, 0., 1.36612018e-03,
          4.09836043e-03, 2.73224036e-03, 0., 0., 0., 5.46448072e-03, 0.,
          1.22950813e-02, 0., 0., 5.46448072e-03, 0., 0., 0., 0.,
          1.36612018e-03, 0., 0., 0., 0., 4.09836043e-03, 0., 0., 0., 0.,
          1.36612018e-03, 0., 2.73224036e-03, 1.36612018e-03,
          1.36612018e-03, 1.36612018e-03, 0., 4.09836043e-03,
          1.36612018e-03, 0., 0., 0., 0., 0., 0., 0., 0., 2.73224036e-03,
          1.36612018e-03, 2.73224036e-03, 4.09836043e-03, 0., 0.,
          4.09836043e-03, 0., 1.36612018e-03, 1.36612018e-03, 0., 0., 0.,
          0., 0., 0., 2.73224036e-03, 0., 0., 1.36612018e-03,
          1.36612018e-03, 0., 4.09836043e-03, 0., 1.36612018e-03, 0., 0.,
          0., 1.36612018e-03, 2.73224036e-03, 0., 1.36612018e-03, 0., 0.,
          0., 0., 0., 0., 0., 1.36612018e-03, 0., 1.36612018e-03, 0.,
          2.73224036e-03, 0., 0., 0., 0., 0., 0., 0., 0., 0.,
          1.36612018e-03, 0., 0., 0., 1.36612018e-03, 0., 0., 0., 0., 0.,
          0., 0., 0., 0., 0., 4.09836043e-03, 0., 1.36612018e-03, 0., 0.,
          0., 0., 1.36612018e-03, 0., 0., 0., 0., 0., 0., 0., 0.,
          4.09836043e-03, 1.36612018e-03, 1.36612018e-03, 0., 0., 0.,
          1.36612018e-03, 0., 0., 0., 0., 0., 0., 0., 1.36612018e-03, 0.,
          8.19672085e-03, 0., 4.09836043e-03, 2.73224036e-03, 0., 0.,
          1.22950813e-02, 2.73224036e-03, 0., 1.36612018e-03, 0., 0., 0.,
          0., 0., 0., 0., 1.36612018e-03, 0., 0., 0., 1.36612018e-03, 0.,
          1.36612018e-03, 0., 0., 0., 0., 0., 0., 0., 0., 2.73224036e-03,
          0., 0., 0., 0., 1.36612018e-03, 0., 1.36612018e-03,
          4.09836043e-03, 0., 5.46448072e-03, 0., 2.73224036e-03,
          1.36612018e-03, 0., 1.36612018e-03, 0., 0., 0., 5.46448072e-03,
          1.36612018e-03, 0., 1.36612018e-03, 0., 0., 1.36612018e-03, 0.,
          1.36612018e-03, 1.36612018e-03, 0., 0., 0., 0., 1.36612018e-03,
          0., 0., 0., 1.36612018e-03, 1.36612018e-03, 0., 2.73224036e-03,
          0., 5.46448072e-03, 4.09836043e-03, 0., 0., 0., 0.,
          1.36612018e-03, 0., 1.36612018e-03, 1.36612018e-03, 0.,
          4.09836043e-03, 0., 0., 1.36612018e-03, 0., 1.36612018e-03, 0.,
          0., 0., 0., 0., 1.36612018e-03, 5.46448072e-03, 0., 0.,
          1.36612018e-03, 0., 0., 0., 0., 0., 0., 0., 6.83060102e-03, 0.,
          2.73224036e-03, 2.73224036e-03, 0., 1.36612018e-03, 0.,
          2.73224036e-03, 0., 0., 0., 0., 0., 4.09836043e-03, 0.,
          6.83060102e-03, 0., 2.73224036e-03, 0., 2.73224036e-03,
          1.36612018e-03, 0., 0., 0., 8.19672085e-03, 0., 0., 0.,
          4.09836043e-03, 1.09289614e-02, 0., 0., 0., 0., 1.36612018e-03,
          0., 0., 1.36612018e-03, 2.73224036e-03, 0., 0., 0., 0.,
          2.73224036e-03, 4.09836043e-03, 1.36612018e-03, 0., 0., 0., 0.,
          0., 0., 0., 0., 2.73224036e-03, 0., 0., 0., 0., 1.36612018e-03,
          0., 0., 0., 0., 2.73224036e-03, 0., 0., 0., 0., 0.,
          1.36612018e-03, 0., 1.36612018e-03, 2.73224036e-03,
          2.73224036e-03, 0., 0., 0., 0., 0., 0., 0., 0., 0.,
          1.36612018e-03, 0., 1.36612018e-03, 1.36612018e-03, 0., 0., 0.,
          0., 5.46448072e-03, 0., 6.83060102e-03, 0., 0., 0.,
          1.36612018e-03, 1.36612018e-03, 0., 0., 0., 1.36612018e-03,
          1.36612018e-03, 1.36612018e-03, 0., 0., 0., 0., 0.,
          2.73224036e-03, 0., 0., 0., 0., 0., 2.73224036e-03, 0.,
          4.09836043e-03, 0., 0., 5.46448072e-03, 1.36612018e-03, 0., 0.,
          0., 0., 5.46448072e-03, 1.36612018e-03, 0., 0., 1.36612018e-03,
          0., 0., 1.36612018e-03, 0., 2.73224036e-03, 0., 0., 0., 0., 0.,
          0., 0., 0., 0., 1.36612018e-03, 0., 2.73224036e-03, 0., 0., 0.,
          0., 0., 0., 0., 1.36612018e-03, 2.73224036e-03, 0., 0., 0.,
          2.73224036e-03, 1.36612018e-03, 0., 0., 1.36612018e-03, 0., 0.,
          1.36612018e-03, 0., 1.36612018e-03, 5.46448072e-03, 0., 0., 0.,
          1.36612018e-03, 0., 0., 0., 1.36612018e-03, 2.73224036e-03,
          2.18579229e-02, 0., 0., 0., 0., 0., 0., 1.36612018e-03,
          5.46448072e-03, 0., 1.36612018e-03, 0., 0., 1.36612018e-03,
          1.36612018e-03, 0., 1.36612018e-03, 2.73224036e-03,
          2.73224036e-03, 0., 0., 0., 6.83060102e-03, 0., 0.,
          4.09836043e-03, 0., 1.36612018e-03, 0., 0., 0., 0.,
          1.36612018e-03, 0., 0., 0., 2.73224036e-03, 0., 0., 0., 0., 0.,
          0., 1.36612018e-03, 1.36612018e-03, 0., 2.73224036e-03,
          1.36612018e-03, 2.73224036e-03, 0., 0., 0., 2.73224036e-03, 0.,
          0., 2.73224036e-03, 0., 0., 0., 1.36612018e-03, 0., 0., 0., 0.,
          0., 0., 0., 1.36612018e-03, 0., 0., 1.36612018e-03,
          5.46448072e-03, 0., 1.36612018e-03, 5.46448072e-03, 0., 0., 0.,
          0., 0., 1.36612018e-03, 0., 0., 1.36612018e-03, 2.73224036e-03,
          5.46448072e-03, 1.36612018e-03, 0., 1.36612018e-03, 0., 0.,
          8.19672085e-03, 0., 0., 0., 0., 0., 2.73224036e-03,
          1.36612018e-03, 0., 0., 0., 0., 0., 0., 2.73224036e-03, 0.,
          2.73224036e-03, 0., 1.36612018e-03, 1.36612018e-03, 0., 0., 0.,
          1.36612018e-03, 0., 0., 1.36612018e-03, 1.36612018e-03,
          1.36612018e-03, 5.46448072e-03, 4.09836043e-03, 0.,
          4.09836043e-03, 0., 0., 6.83060102e-03, 0., 0., 0., 0., 0.,
          1.36612018e-03, 0., 6.83060102e-03, 0., 0., 1.36612018e-03, 0.,
          0., 1.36612018e-03, 0., 0., 0., 6.83060102e-03, 0., 0., 0.,
          1.36612018e-03, 0., 1.36612018e-03, 0., 4.09836043e-03,
          1.36612018e-03, 1.36612018e-03, 1.36612018e-03, 1.36612018e-03,
          0., 0., 0., 0., 0., 0., 0., 0., 0., 0., 1.36612018e-03, 0., 0.,
          5.46448072e-03, 0., 4.09836043e-03, 0., 0., 0., 0.,
          2.73224036e-03, 5.46448072e-03, 0., 0., 1.36612018e-03, 0., 0.,
          0., 1.36612018e-03, 0., 4.09836043e-03, 0., 0., 0., 0., 0.,
          1.36612018e-03, 0., 1.36612018e-03, 5.46448072e-03, 0., 0.,
          1.36612018e-03, 5.46448072e-03, 0., 0., 0., 3.00546438e-02, 0.,
          0., 1.36612018e-03, 0., 0., 0., 0., 1.36612018e-03, 0., 0., 0.,
          0., 0., 9.56284162e-03, 0., 0., 0., 0., 0., 0., 1.36612018e-03,
          0., 0., 0., 0., 0., 0., 0., 0., 1.36612018e-03, 0., 0.,
          5.46448072e-03, 0., 0., 0., 1.36612018e-03, 0., 0., 0.,
          2.73224036e-03, 0., 0., 1.36612018e-03 ]
      - [ 3.42075247e-03, 1.14025082e-03, 0., 1.14025082e-03, 0., 0., 0.,
