%YAML:1.0
my_svm: !!opencv-ml-svm
   svm_type: C_SVC
   kernel: { type:RBF, gamma:4. }
   C: 64.
   term_criteria: { epsilon:1.1920928955078125e-07, iterations:1000 }
   var_all: 1090
   var_count: 1090
   class_count: 2
   class_labels: !!opencv-matrix
      rows: 1
      cols: 2
      dt: i
      data: [ 0, 1 ]
   sv_total: 37
   support_vectors:
      - [ 0., 0., 0., 0., 0., 2.09863577e-03, 1.04931789e-03,
          1.15424972e-02, 0., 1.04931789e-03, 0., 0., 0., 0., 0., 0.,
          1.04931789e-03, 0., 4.19727154e-03, 1.04931789e-03, 0.,
          1.04931789e-03, 0., 2.83315834e-02, 0., 1.04931789e-03, 0.,
          2.09863577e-03, 0., 0., 3.14795366e-03, 0., 1.04931789e-03,
          3.14795366e-03, 0., 1.04931789e-03, 0., 2.09863577e-03,
          1.04931789e-03, 0., 0., 0., 0., 0., 0., 0., 0., 2.09863577e-03,
          1.04931789e-03, 0., 4.19727154e-03, 2.09863577e-03,
          7.34522520e-03, 6.29590731e-03, 0., 0., 1.04931789e-03,
          2.09863577e-03, 3.14795366e-03, 1.04931789e-03, 0., 0.,
          1.04931789e-03, 0., 0., 0., 5.24658943e-03, 0., 1.04931789e-03,
          3.14795366e-03, 0., 0., 1.04931789e-03, 2.09863577e-03,
          1.04931789e-03, 1.04931789e-03, 1.04931789e-03, 0., 0., 0., 0.,
          0., 0., 0., 0., 2.09863577e-03, 1.04931789e-03, 0., 0., 0., 0.,
          0., 0., 2.09863577e-03, 0., 0., 0., 0., 0., 1.04931789e-03, 0.,
          0., 3.14795366e-03, 2.09863577e-03, 1.04931789e-03, 0., 0., 0.,
          1.04931789e-03, 3.14795366e-03, 0., 2.09863577e-03, 0., 0., 0.,
          0., 3.14795366e-03, 0., 1.04931789e-03, 0., 2.09863577e-03, 0.,
          0., 0., 0., 0., 0., 2.09863577e-03, 0., 0., 0., 4.19727154e-03,
          3.14795366e-03, 0., 1.04931789e-03, 3.14795366e-03,
          1.04931789e-03, 2.09863577e-03, 1.04931789e-03, 0.,
          1.04931789e-03, 0., 0., 0., 5.24658943e-03, 0., 4.19727154e-03,
          0., 0., 1.04931789e-03, 2.09863577e-03, 0., 1.04931789e-03, 0.,
          0., 1.04931789e-03, 1.04931789e-03, 0., 0., 0., 3.14795366e-03,
          0., 2.09863577e-03, 1.04931789e-03, 0., 0., 1.04931789e-03,
          2.09863577e-03, 0., 2.09863577e-03, 0., 0., 0., 0., 0., 0.,
          1.04931789e-03, 1.04931789e-03, 0., 0., 1.04931789e-03,
          1.04931789e-03, 0., 0., 0., 0., 0., 0., 0., 0., 0., 0.,
          2.09863577e-03, 3.14795366e-03, 0., 0., 5.24658943e-03, 0., 0.,
          1.04931789e-03, 1.04931789e-03, 1.04931789e-03, 0., 0.,
          1.04931789e-03, 0., 1.04931789e-03, 0., 0., 0., 1.04931789e-03,
          0., 0., 0., 0., 0., 0., 1.04931789e-03, 0., 0., 1.04931789e-03,
          0., 2.09863577e-03, 2.09863577e-03, 9.44386050e-03, 0., 0.,
          1.04931789e-03, 0., 0., 0., 0., 0., 0., 0., 0., 0.,
          1.04931789e-03, 1.04931789e-03, 1.04931789e-03, 0., 0.,
          2.09863577e-03, 1.04931789e-03, 0., 0., 2.09863577e-03, 0., 0.,
          1.04931789e-03, 0., 1.04931789e-03, 0., 3.14795366e-03, 0., 0.,
          1.04931789e-03, 0., 0., 4.19727154e-03, 0., 0., 0.,
          2.09863577e-03, 0., 0., 0., 1.04931789e-03, 0., 0., 0.,
          1.04931789e-03, 3.14795366e-03, 0., 1.04931789e-03, 0., 0., 0.,
          0., 3.14795366e-03, 1.04931789e-03, 0., 0., 6.29590731e-03, 0.,
          0., 0., 0., 1.04931789e-03, 4.19727154e-03, 0., 0., 0.,
          2.09863577e-03, 0., 0., 0., 0., 0., 1.04931789e-03,
          1.04931789e-03, 4.19727154e-03, 0., 0., 0., 1.04931789e-03,
          1.04931789e-03, 0., 0., 0., 0., 2.09863577e-03, 0.,
          3.14795366e-03, 0., 0., 0., 1.25918146e-02, 1.04931789e-03, 0.,
          0., 3.14795366e-03, 2.09863577e-03, 6.29590731e-03, 0.,
          1.04931789e-03, 0., 0., 0., 3.14795366e-03, 0., 0.,
          2.09863577e-03, 5.24658943e-03, 0., 1.04931789e-03,
          1.04931789e-03, 5.24658943e-03, 2.09863577e-02, 0., 0., 0., 0.,
          0., 0., 1.15424972e-02, 0., 1.04931789e-03, 2.09863577e-03, 0.,
          0., 0., 0., 1.04931789e-03, 0., 1.04931789e-03, 2.09863577e-03,
          0., 0., 0., 1.04931789e-03, 1.04931789e-03, 1.04931789e-03, 0.,
          0., 0., 0., 0., 0., 0., 1.04931789e-03, 0., 1.04931789e-03, 0.,
          0., 0., 2.09863577e-03, 1.04931789e-03, 0., 0., 0., 0., 0.,
          1.04931789e-03, 0., 1.04931789e-03, 0., 2.09863577e-03, 0., 0.,
          0., 0., 0., 2.09863577e-03, 0., 0., 2.09863577e-03,
          1.04931789e-03, 1.04931789e-03, 0., 1.04931789e-03, 0.,
          1.04931789e-03, 0., 1.04931789e-03, 0., 0., 0., 0., 0.,
          1.04931789e-03, 0., 1.04931789e-03, 1.04931789e-03, 0.,
          1.04931789e-03, 6.29590731e-03, 0., 3.14795366e-03, 0., 0., 0.,
          3.14795366e-03, 0., 2.09863577e-03, 0., 6.29590731e-03, 0., 0.,
          0., 0., 0., 0., 2.30849944e-02, 0., 0., 0., 1.04931789e-03, 0.,
          0., 0., 0., 1.04931789e-03, 0., 0., 0., 4.19727154e-03, 0.,
          1.04931789e-03, 0., 0., 0., 0., 0., 1.04931789e-03,
          1.04931789e-03, 2.09863577e-03, 0., 0., 2.09863577e-03, 0.,
          1.04931789e-03, 0., 0., 0., 6.29590731e-03, 0., 0., 0., 0., 0.,
          1.04931789e-03, 1.04931789e-03, 4.19727154e-03, 0., 0., 0., 0.,
          0., 0., 2.09863577e-03, 0., 6.29590731e-03, 0., 1.57397687e-02,
          0., 0., 1.04931789e-03, 0., 0., 0., 2.09863577e-03, 0.,
          2.09863577e-03, 0., 1.04931789e-03, 1.04931789e-03, 0., 0.,
          1.04931789e-03, 0., 0., 9.44386050e-03, 0., 1.04931789e-03,
          1.04931789e-03, 0., 0., 0., 0., 1.04931789e-03, 5.24658943e-03,
          0., 0., 0., 0., 1.04931789e-03, 0., 0., 1.04931789e-03, 0., 0.,
          0., 3.14795366e-03, 0., 2.09863577e-03, 0., 0., 1.04931789e-03,
          1.04931789e-03, 1.04931789e-03, 0., 1.04931789e-03,
          1.78384036e-02, 0., 6.29590731e-03, 1.04931789e-03, 0., 0., 0.,
          0., 0., 0., 1.04931789e-03, 0., 0., 0., 0., 0., 0.,
          3.14795366e-03, 0., 0., 0., 0., 4.19727154e-03, 0., 0.,
          1.04931789e-03, 0., 0., 1.36411320e-02, 0., 1.04931789e-03, 0.,
          0., 1.04931789e-03, 0., 0., 0., 2.09863577e-03, 0.,
          1.04931789e-03, 0., 2.09863577e-03, 0., 2.09863577e-03, 0., 0.,
          0., 0., 0., 1.04931789e-03, 0., 0., 1.04931789e-03, 0., 0., 0.,
          2.09863577e-03, 0., 0., 1.04931789e-03, 0., 3.14795366e-03, 0.,
          0., 0., 4.19727154e-03, 0., 0., 0., 0., 1.04931789e-03,
          5.24658943e-03, 5.24658943e-03, 0., 1.04931789e-03,
          4.19727154e-03, 0., 0., 0., 0., 0., 0., 0., 2.09863577e-03,
          1.04931789e-03, 4.19727154e-03, 1.04931789e-03, 0., 0.,
          1.04931789e-03, 0., 0., 0., 0., 0., 0., 0., 0., 1.04931789e-03,
          0., 2.09863577e-03, 1.04931789e-03, 0., 0., 8.39454308e-03,
          2.09863577e-03, 2.09863577e-03, 0., 0., 0., 0., 1.04931789e-03,
          1.04931789e-03, 0., 0., 0., 0., 1.04931789e-03, 5.24658943e-03,
          3.14795366e-03, 0., 0., 0., 0., 1.04931789e-03, 1.04931789e-03,
          1.04931789e-03, 0., 0., 0., 0., 1.04931789e-03, 2.09863577e-03,
          1.04931789e-03, 0., 0., 0., 0., 1.04931789e-03, 2.09863577e-03,
          0., 0., 1.04931789e-03, 1.04931789e-03, 0., 0., 0., 0., 0., 0.,
          4.19727154e-03, 0., 0., 1.04931789e-03, 0., 0., 0., 0., 0., 0.,
          0., 4.19727154e-03, 0., 0., 0., 0., 0., 1.04931789e-03, 0.,
          2.09863577e-03, 1.04931789e-03, 0., 1.04931789e-03,
          1.04931789e-03, 0., 1.04931789e-03, 3.14795366e-03, 0., 0., 0.,
          0., 0., 4.19727154e-03, 2.09863577e-03, 9.44386050e-03,
          1.04931789e-03, 0., 0., 1.04931789e-03, 2.09863577e-03, 0., 0.,
          3.14795366e-03, 0., 0., 0., 1.04931789e-03, 0., 2.09863577e-03,
          2.09863577e-03, 0., 0., 8.39454308e-03, 0., 0., 1.04931789e-03,
          5.24658943e-03, 0., 0., 2.09863577e-03, 1.04931789e-03, 0., 0.,
          0., 0., 0., 0., 3.14795366e-03, 0., 0., 0., 0., 9.44386050e-03,
          0., 0., 1.04931789e-03, 0., 0., 0., 2.09863577e-03, 0., 0., 0.,
          0., 0., 1.04931789e-03, 3.14795366e-03, 0., 1.04931789e-03, 0.,
          2.20356751e-02, 2.09863577e-03, 0., 0., 0., 1.04931789e-03,
          1.04931789e-03, 6.29590731e-03, 0., 0., 0., 0., 1.04931789e-03,
          0., 0., 0., 1.04931789e-03, 0., 0., 2.09863577e-03,
          5.24658943e-03, 0., 1.04931789e-03, 0., 0., 0., 2.09863577e-03,
          0., 0., 4.19727154e-03, 0., 0., 4.19727154e-03, 3.14795366e-03,
          0., 0., 3.14795366e-03, 0., 0., 4.19727154e-03, 2.09863577e-03,
          0., 0., 0., 0., 0., 0., 0., 1.04931789e-03, 0., 0., 0.,
          2.09863577e-03, 0., 1.04931789e-03, 0., 0., 1.04931789e-03,
          4.19727154e-03, 0., 0., 1.04931789e-03, 0., 1.78384036e-02,
          2.09863577e-03, 0., 1.04931789e-03, 0., 0., 0., 0., 0., 0.,
          5.24658943e-03, 0., 0., 0., 0., 3.14795366e-03, 0., 0., 0.,
          2.09863577e-03, 0., 0., 0., 1.78384036e-02, 2.09863577e-03,
          7.34522520e-03, 0., 0., 0., 0., 0., 0., 0., 1.04931789e-03, 0.,
          0., 0., 0., 0., 0., 0., 6.29590731e-03, 3.14795366e-03, 0., 0.,
          0., 0., 0., 1.04931789e-03, 1.04931789e-03, 3.14795366e-03, 0.,
          1.04931789e-03, 0., 0., 0., 0., 0., 0., 0., 0., 1.04931789e-03,
          0., 0., 1.04931789e-03, 1.04931789e-03, 2.09863577e-03, 0., 0.,
          0., 0., 1.04931789e-03, 0., 0., 0., 3.14795366e-03, 0., 0., 0.,
          0., 0., 0., 0., 1.04931789e-03, 5.24658943e-03, 0., 0.,
          1.04931789e-03, 0., 0., 0., 3.14795366e-03, 1.04931789e-03, 0.,
          1.04931789e-03, 0., 0., 0., 1.04931789e-03, 0., 0., 0.,
          1.04931789e-03, 5.24658943e-03, 1.04931789e-03, 3.14795366e-03,
          0., 4.19727154e-03, 2.09863577e-03, 0., 0., 2.09863577e-03,
          1.04931789e-03, 4.19727154e-03, 0., 0., 0., 1.04931789e-03,
          1.04931789e-03, 2.09863577e-03, 2.09863577e-03, 0., 0.,
          2.20356751e-02, 0., 0., 0., 0., 0., 0., 0., 1.04931789e-03, 0.,
          1.04931789e-03, 0., 0., 0., 2.09863577e-03, 1.04931789e-03, 0.,
          0., 5.24658943e-03, 0., 2.09863577e-03, 0., 0., 1.04931789e-03,
          0., 1.04931789e-03, 0., 1.04931789e-03, 0., 0., 0.,
          2.09863577e-03, 0., 0., 2.09863577e-03, 1.04931789e-03,
          1.04931789e-03, 1.04931789e-03, 0., 0., 0., 9.80853662e-02,
          8.48764703e-02, 5.11105172e-02, 2.88135502e-02, 1.34217385e-02,
          1.12190191e-02, 7.98176415e-03, 7.20957480e-03, 5.38305007e-03,
          5.44987433e-03, 4.36831452e-03, 4.66283504e-03, 3.93519551e-03,
          3.27437953e-03, 1.98987243e-03, 1.07413507e-03, 3.29170434e-04,
          3.46495181e-05, 1.48497938e-05, 7.42489692e-06, 3.95994502e-05,
          2.72246216e-05, 2.22746912e-05, 2.47496564e-06, 0., 0., 0., 0.,
          0., 0., 8.66237970e-05, 1.18798351e-04, 3.63819941e-04,
          6.95465365e-04, 1.20530825e-03, 2.14084517e-03, 4.60343622e-03,
          1.13873165e-02, 1.29490206e-02, 1.90176368e-02, 3.14889885e-02,
          6.09534532e-02, 6.35917708e-02, 4.68783230e-02, 2.39601415e-02,
          1.71490368e-02, 9.94688645e-03, 7.25412415e-03, 7.34074786e-03,
          5.18752821e-03, 3.71739850e-03, 1.78197527e-03, 1.13353424e-03,
          2.32646766e-04, 3.95994502e-05, 7.42489692e-06, 2.22746912e-05,
          4.20744145e-05, 2.72246216e-05, 9.89986256e-06, 2.47496564e-06,
          0., 3.71244860e-05, 6.18741396e-05, 1.68297658e-04,
          4.67768492e-04, 7.00415287e-04, 1.21768308e-03, 1.39093073e-03,
          1.96512276e-03, 2.32399278e-03, 4.46236320e-03, 6.27156300e-03,
          1.02612078e-02, 9.79096442e-03, 1.11373458e-02, 1.34514384e-02,
          1.55700091e-02, 2.26607863e-02, 3.20112072e-02, 5.12590148e-02,
          5.26920184e-02, 4.49453779e-02, 3.05707753e-02, 1.64609961e-02,
          2.70018750e-03, 5.79141953e-04, 6.43491076e-05, 1.73247590e-05,
          9.15737255e-05 ]
      - [ 0., 5.00000024e-04, 1.00000005e-03, 2.00000009e-03,
          4.00000019e-03, 1.50000001e-03, 5.00000024e-04, 0.,
          1.00000005e-03, 1.00000005e-03, 0., 5.00000024e-04, 0., 0., 0.,
          0., 1.00000005e-03, 0., 1.00000005e-03, 0., 5.00000024e-04,
          1.00000005e-03, 5.00000024e-04, 0., 4.00000019e-03,
          5.00000024e-04, 0., 2.50000018e-03, 0., 0., 2.50000018e-03,
          2.50000018e-03, 1.00000005e-03, 5.00000024e-04, 0.,
          1.00000005e-03, 2.50000018e-03, 1.50000001e-03, 0.,
          3.50000011e-03, 0., 0., 0., 2.50000018e-03, 1.00000005e-03,
          2.50000018e-03, 2.00000009e-03, 0., 1.00000005e-03,
          1.00000005e-03, 0., 1.00000005e-03, 1.00000005e-03,
          2.50000018e-03, 0., 0., 1.00000005e-03, 0., 0., 1.50000001e-03,
          0., 1.50000001e-03, 0., 0., 1.00000005e-03, 0., 1.50000001e-03,
          3.00000003e-03, 0., 0., 1.00000005e-03, 0., 5.00000024e-04,
          2.00000009e-03, 2.00000009e-03, 1.00000005e-03, 5.00000024e-04,
          5.00000024e-04, 6.50000013e-03, 0., 1.00000005e-03,
          5.00000024e-04, 5.00000024e-04, 0., 5.00000024e-04, 0., 0.,
          5.00000035e-03, 0., 1.15000010e-02, 0., 0., 5.00000024e-04,
          2.00000009e-03, 1.00000005e-03, 5.00000024e-04, 1.50000001e-03,
          5.00000024e-04, 0., 5.00000024e-04, 5.00000024e-04,
          5.00000024e-04, 1.00000005e-03, 1.00000005e-03, 0., 0., 0., 0.,
          1.00000005e-03, 1.50000001e-03, 0., 5.50000044e-03, 0.,
          3.00000003e-03, 3.00000003e-03, 0., 5.00000024e-04,
          3.00000003e-03, 1.00000005e-03, 0., 5.00000024e-04,
          1.50000001e-03, 3.00000003e-03, 1.50000001e-03, 2.00000009e-03,
          1.00000005e-03, 1.00000005e-03, 0., 2.00000009e-03,
          5.00000024e-04, 5.00000024e-04, 0., 0., 0., 5.00000024e-04,
          1.00000005e-03, 2.00000009e-03, 0., 0., 2.50000018e-03,
          1.00000005e-03, 0., 5.00000024e-04, 0., 0., 5.00000024e-04,
          2.00000009e-03, 1.00000005e-03, 5.00000024e-04, 1.50000001e-03,
          2.00000009e-03, 1.50000001e-03, 1.00000005e-03, 0.,
          1.00000005e-03, 1.00000005e-03, 5.00000024e-04, 0.,
          5.00000024e-04, 1.00000005e-03, 1.00000005e-03, 8.00000038e-03,
          0., 3.00000003e-03, 5.00000024e-04, 5.00000024e-04,
          3.00000003e-03, 5.00000024e-04, 1.00000005e-03, 5.00000024e-04,
          2.50000018e-03, 1.50000001e-03, 0., 2.00000009e-03, 0.,
          1.50000001e-03, 2.00000009e-03, 1.00000005e-03, 0., 0.,
          5.00000024e-04, 1.50000001e-03, 0., 1.00000005e-03, 0.,
          1.50000001e-03, 0., 0., 1.00000005e-03, 0., 3.50000011e-03,
          5.00000024e-04, 0., 0., 0., 0., 5.00000024e-04, 5.00000024e-04,
          0., 0., 0., 0., 0., 2.50000018e-03, 2.00000009e-03,
          5.00000024e-04, 0., 1.00000005e-03, 0., 0., 0., 2.00000009e-03,
          0., 2.00000009e-03, 0., 4.00000019e-03, 5.00000024e-04, 0.,
          1.50000001e-03, 1.50000001e-03, 2.50000018e-03, 0.,
          2.00000009e-03, 5.00000024e-04, 1.50000001e-03, 0.,
          2.00000009e-03, 1.50000001e-03, 1.50000001e-03, 6.00000005e-03,
          5.50000044e-03, 1.00000005e-03, 5.00000024e-04, 2.00000009e-03,
          3.00000003e-03, 2.50000018e-03, 4.50000027e-03, 5.00000024e-04,
          5.00000024e-04, 5.50000044e-03, 1.50000001e-03, 2.00000009e-03,
          5.00000024e-04, 3.00000003e-03, 0., 3.00000003e-03,
          1.00000005e-03, 0., 0., 0., 6.00000005e-03, 0., 0.,
          2.00000009e-03, 1.50000001e-03, 5.00000024e-04, 0., 0.,
          1.50000001e-03, 0., 1.00000005e-03, 1.00000005e-03, 0.,
          1.00000005e-03, 5.00000024e-04, 1.00000005e-03, 0.,
          2.50000018e-03, 1.00000005e-03, 1.50000001e-03, 2.00000009e-03,
          4.00000019e-03, 5.00000024e-04, 3.00000003e-03, 0.,
          5.00000024e-04, 1.00000005e-03, 5.00000024e-04, 2.50000018e-03,
          5.00000024e-04, 2.00000009e-03, 3.50000011e-03, 0.,
          5.00000024e-04, 5.00000035e-03, 5.00000024e-04, 0., 0., 0.,
          1.00000005e-03, 9.50000063e-03, 0., 1.50000001e-03,
          2.50000018e-03, 5.00000024e-04, 5.50000044e-03, 5.00000024e-04,
          5.00000024e-04, 5.00000024e-04, 4.50000027e-03, 5.00000024e-04,
          0., 5.00000024e-04, 0., 1.00000005e-03, 0., 0., 0.,
          5.00000024e-04, 0., 5.00000024e-04, 5.00000024e-04,
          1.50000001e-03, 2.00000009e-03, 3.00000003e-03, 1.50000001e-03,
          1.50000001e-03, 5.00000024e-04, 1.50000001e-03, 5.00000024e-04,
          5.00000024e-04, 2.50000018e-03, 3.00000003e-03, 5.00000024e-04,
          3.00000003e-03, 5.00000024e-04, 1.00000005e-03, 5.00000024e-04,
          0., 1.50000001e-03, 5.00000024e-04, 5.00000024e-04,
          5.00000024e-04, 5.00000024e-04, 0., 0., 5.00000024e-04, 0.,
          1.50000001e-03, 0., 2.00000009e-03, 0., 0., 1.00000005e-03,
          5.00000024e-04, 5.00000024e-04, 1.00000005e-03, 0.,
          5.00000024e-04, 2.00000009e-03, 0., 1.00000005e-03,
          5.00000024e-04, 0., 1.00000005e-03, 5.00000024e-04,
          5.00000024e-04, 0., 1.00000005e-03, 5.00000024e-04,
          5.00000024e-04, 2.00000009e-03, 0., 5.00000024e-04,
          4.00000019e-03, 1.00000005e-03, 1.50000001e-03, 0.,
          1.00000005e-03, 0., 0., 0., 1.50000001e-03, 0., 0., 0.,
          5.00000024e-04, 0., 8.00000038e-03, 1.00000005e-03, 0.,
          5.00000024e-04, 2.00000009e-03, 0., 2.00000009e-03, 0., 0., 0.,
          3.50000011e-03, 1.50000001e-03, 0., 0., 0., 1.00000005e-03,
          2.00000009e-03, 5.00000024e-04, 3.00000003e-03, 0.,
          5.00000024e-04, 1.50000001e-03, 1.50000001e-03, 0., 0., 0., 0.,
          2.00000009e-03, 5.00000024e-04, 5.00000024e-04, 1.00000005e-03,
          1.00000005e-03, 1.00000005e-03, 0., 2.00000009e-03,
          2.50000018e-03, 0., 0., 0., 5.00000024e-04, 2.00000009e-03,
          2.50000018e-03, 5.00000024e-04, 0., 1.00000005e-03,
          2.00000009e-03, 5.00000024e-04, 1.50000001e-03, 3.00000003e-03,
          0., 5.00000024e-04, 9.00000054e-03, 0., 0., 1.00000005e-03,
          5.00000024e-04, 2.50000018e-03, 2.00000009e-03, 1.50000001e-03,
          1.00000005e-03, 0., 1.00000005e-03, 0., 1.00000005e-03,
          2.00000009e-03, 5.00000024e-04, 0., 0., 5.00000024e-04,
          5.00000024e-04, 1.00000005e-03, 5.00000024e-04, 0.,
          1.00000005e-03, 0., 5.00000024e-04, 0., 2.50000018e-03,
          7.50000030e-03, 1.00000005e-03, 0., 0., 0., 0., 1.50000001e-03,
          5.00000024e-04, 1.00000005e-03, 4.00000019e-03, 0.,
          5.00000024e-04, 3.00000003e-03, 0., 2.00000009e-03, 0.,
          5.00000024e-04, 1.00000005e-03, 1.50000001e-03, 2.00000009e-03,
          0., 1.50000001e-03, 5.00000024e-04, 2.00000009e-03, 0., 0.,
          5.00000024e-04, 0., 0., 2.00000009e-03, 3.50000011e-03, 0.,
          1.00000005e-03, 0., 1.00000005e-03, 0., 0., 5.00000024e-04,
          2.00000009e-03, 2.00000009e-03, 1.50000001e-03, 5.00000024e-04,
          0., 0., 4.00000019e-03, 1.50000001e-03, 1.00000005e-03,
          1.00000005e-03, 1.00000005e-03, 1.50000001e-03, 6.00000005e-03,
          0., 2.50000018e-03, 5.00000024e-04, 1.50000001e-03, 0.,
          5.00000024e-04, 5.00000024e-04, 1.00000005e-03, 5.00000024e-04,
          1.00000005e-03, 7.50000030e-03, 5.00000024e-04, 0.,
          1.50000001e-03, 0., 5.00000024e-04, 0., 1.50000001e-03,
          2.00000009e-03, 0., 1.00000005e-03, 1.00000005e-03,
          5.00000024e-04, 5.00000024e-04, 5.00000024e-04, 0.,
          5.00000024e-04, 5.00000035e-03, 5.00000024e-04, 0., 0.,
          5.00000024e-04, 5.00000024e-04, 5.00000024e-04, 4.00000019e-03,
          0., 0., 5.00000024e-04, 1.00000005e-03, 0., 0., 5.00000024e-04,
          0., 0., 7.00000022e-03, 0., 0., 0., 1.00000005e-03, 0., 0., 0.,
          0., 0., 0., 1.50000001e-03, 1.00000005e-03, 1.50000001e-03,
          5.00000024e-04, 0., 0., 4.00000019e-03, 5.50000044e-03,
          2.00000009e-03, 1.00000005e-03, 5.00000024e-04, 0., 0., 0.,
          5.00000024e-04, 1.00000005e-03, 0., 1.00000005e-03,
          5.00000024e-04, 1.00000005e-03, 2.00000009e-03, 5.00000024e-04,
          1.50000001e-03, 5.00000024e-04, 0., 1.00000005e-03, 0.,
          1.50000001e-03, 0., 0., 5.00000024e-04, 0., 5.00000024e-04,
          5.00000024e-04, 1.00000005e-03, 4.50000027e-03, 1.50000001e-03,
          0., 0., 2.00000009e-03, 0., 5.00000024e-04, 2.50000018e-03,
          1.00000005e-03, 0., 0., 0., 1.50000001e-03, 0., 5.00000024e-04,
          0., 1.50000001e-03, 5.00000024e-04, 5.00000024e-04,
          2.50000018e-03, 5.00000024e-04, 2.00000009e-03, 2.00000009e-03,
          0., 0., 1.50000001e-03, 5.00000024e-04, 5.00000024e-04,
          4.50000027e-03, 0., 5.00000024e-04, 3.50000011e-03,
          1.00000005e-03, 2.00000009e-03, 5.00000024e-04, 0.,
          1.50000001e-03, 0., 0., 5.00000024e-04, 2.00000009e-03,
          3.00000003e-03, 0., 2.50000018e-03, 5.00000024e-04, 0.,
          5.00000024e-04, 0., 5.00000024e-04, 1.50000001e-03,
          6.00000005e-03, 1.50000001e-03, 2.00000009e-03, 1.00000005e-03,
          1.00000005e-03, 2.00000009e-03, 5.00000024e-04, 2.00000009e-03,
          1.50000001e-03, 1.00000005e-03, 0., 0., 5.00000024e-04, 0.,
          2.50000018e-03, 5.00000024e-04, 0., 0., 5.00000024e-04,
          2.50000018e-03, 0., 1.00000005e-03, 5.00000024e-04,
          2.00000009e-03, 1.00000005e-03, 5.00000024e-04, 0., 0., 0.,
          3.50000011e-03, 2.00000009e-03, 0., 0., 0., 0., 2.50000018e-03,
          0., 1.00000005e-03, 0., 2.50000018e-03, 4.00000019e-03, 0.,
          1.50000001e-03, 1.00000005e-03, 4.50000027e-03, 0.,
          5.00000024e-04, 5.00000024e-04, 5.00000024e-04, 0.,
          2.00000009e-03, 0., 1.00000005e-03, 1.00000005e-03, 0.,
          3.00000003e-03, 5.00000024e-04, 1.50000001e-03, 0., 0., 0.,
          1.50000001e-03, 2.00000009e-03, 1.00000005e-03, 1.00000005e-03,
          1.00000005e-03, 5.00000024e-04, 9.00000054e-03, 5.00000024e-04,
          1.50000001e-03, 2.00000009e-03, 0., 1.50000001e-03, 0.,
          5.00000024e-04, 5.00000024e-04, 5.00000035e-03, 0.,
          3.00000003e-03, 0., 1.00000005e-03, 5.00000024e-04,
          2.50000018e-03, 0., 2.00000009e-03, 5.00000024e-04,
          2.50000018e-03, 1.00000005e-03, 1.50000001e-03, 8.00000038e-03,
          0., 1.50000001e-03, 1.00000005e-03, 1.50000001e-03,
          5.00000024e-04, 5.00000024e-04, 0., 0., 5.00000035e-03,
          2.00000009e-03, 0., 0., 5.00000024e-04, 0., 1.00000005e-03, 0.,
          1.50000001e-03, 1.50000001e-03, 0., 0., 1.00000005e-03,
          5.00000024e-04, 1.00000005e-03, 5.00000024e-04, 1.50000001e-03,
          3.00000003e-03, 1.50000001e-03, 0., 0., 0., 0., 0.,
          5.00000024e-04, 0., 0., 0., 5.00000024e-04, 0., 0.,
          5.00000024e-04, 0., 5.00000024e-04, 5.00000024e-04, 0.,
          5.00000024e-04, 0., 0., 2.50000018e-03, 5.00000024e-04, 0.,
          1.00000005e-03, 0., 2.50000018e-03, 5.00000024e-04, 0.,
          1.00000005e-03, 0., 5.00000024e-04, 2.00000009e-03,
          5.00000024e-04, 0., 1.00000005e-03, 0., 0., 2.00000009e-03,
          5.00000024e-04, 1.50000001e-03, 0., 0., 2.00000009e-03,
          1.00000005e-03, 5.00000024e-04, 5.00000024e-04, 5.00000024e-04,
          1.50000001e-03, 1.50000001e-03, 3.50000011e-03, 0.,
          1.50000001e-03, 1.00000005e-03, 7.50000030e-03, 0.,
          1.50000001e-03, 0., 4.50000027e-03, 5.00000024e-04,
          1.00000005e-03, 0., 2.00000009e-03, 1.50000001e-03,
          5.00000024e-04, 5.00000024e-04, 0., 5.00000024e-04, 0.,
          5.00000024e-04, 5.00000024e-04, 1.00000005e-03, 5.00000024e-04,
          0., 2.00000009e-03, 5.00000024e-04, 6.00000005e-03,
          5.00000024e-04, 5.00000024e-04, 5.00000035e-03, 0., 0.,
          5.00000024e-04, 0., 0., 0., 5.00000024e-04, 5.00000024e-04,
          1.50000001e-03, 2.00000009e-03, 5.00000024e-04, 0.,
          5.00000024e-04, 0., 0., 2.00000009e-03, 0., 5.00000024e-04, 0.,
          1.50000001e-03, 5.00000024e-04, 0., 5.00000024e-04,
          7.50000030e-03, 5.00000024e-04, 0., 4.50000027e-03,
          2.00000009e-03, 0., 1.00000005e-03, 0., 7.50000030e-03, 0., 0.,
          5.00000024e-04, 1.00000005e-03, 2.00000009e-03, 5.00000024e-04,
          0., 5.00000024e-04, 4.50000027e-03, 0., 5.00000024e-04,
          5.00000024e-04, 1.50000001e-03, 5.00000024e-04, 1.50000001e-03,
          1.00000005e-03, 0., 0., 5.00000024e-04, 0., 0., 0., 0., 0.,
          5.00000024e-04, 1.00000005e-03, 1.00000005e-03, 1.00000005e-03,
          0., 5.00000024e-04, 5.00000024e-04, 0., 5.00000024e-04,
          5.00000024e-04, 0., 0., 0., 0., 5.00000024e-04, 0., 0.,
          1.50000001e-03, 1.50000001e-03, 0., 1.50000001e-03,
          1.00000005e-03, 5.00000024e-04, 0., 3.00000003e-03,
          1.50000001e-03, 1.00000005e-03, 0., 0., 1.00000005e-03,
          1.00000005e-03, 5.50000044e-03, 5.00000024e-04, 1.50000001e-03,
          0., 0., 0., 5.00000024e-04, 0., 3.50000011e-03, 1.00000005e-03,
          5.00000024e-04, 1.00000005e-03, 5.00000024e-04, 3.00000003e-03,
          5.00000024e-04, 5.00000024e-04, 0., 1.50000001e-03,
          1.00000005e-03, 1.50000001e-03, 0., 2.50000018e-03,
          5.00000024e-04, 5.00000024e-04, 0., 0., 1.00000005e-03,
          5.00000024e-04, 1.00000005e-03, 0., 5.00000024e-04, 0., 0.,
          5.00000024e-04, 5.00000024e-04, 3.00000003e-03, 0., 0.,
          1.00000005e-03, 0., 2.00000009e-03, 5.00000024e-04, 0.,
          1.00000005e-03, 0., 0., 5.00000024e-04, 1.00000005e-03,
          5.00000024e-04, 1.00000005e-03, 5.00000024e-04, 0., 0.,
          5.00000024e-04, 2.50000018e-03, 0., 0., 2.00000009e-03,
          1.00000005e-03, 0., 2.50000018e-03, 5.00000024e-04,
          5.00000024e-04, 0., 5.00000024e-04, 0., 1.00000005e-03, 0.,
          1.00000005e-03, 1.00000005e-03, 1.55733570e-01, 5.53968139e-02,
          3.94417904e-02, 3.80514525e-02, 2.02930551e-02, 1.20480843e-02,
          5.60197560e-03, 3.28625157e-03, 1.54833007e-03, 9.20872728e-04,
          4.58179304e-04, 3.13728699e-04, 1.44450620e-04, 4.51408196e-05,
          2.70844903e-05, 1.57992872e-05, 4.51408187e-06, 2.25704093e-06,
          0., 0., 0., 0., 0., 0., 0., 0., 0., 0., 0., 0., 5.49589470e-03,
          7.31506944e-03, 7.45952036e-03, 1.02424519e-02, 1.17366128e-02,
          1.66366491e-02, 1.68578383e-02, 1.94489211e-02, 1.87763236e-02,
          2.47823093e-02, 2.73508225e-02, 3.39278392e-02, 3.02736908e-02,
          2.22747363e-02, 1.19171757e-02, 1.18336659e-02, 1.29712140e-02,
          1.16237607e-02, 1.33165419e-02, 9.60370898e-03, 5.16410964e-03,
          2.31798110e-03, 1.50770333e-03, 3.72411741e-04, 9.25386776e-05,
          2.48274500e-05, 2.25704093e-06, 6.77112257e-06, 0., 0.,
          1.37453794e-03, 1.90494256e-03, 2.31572404e-03, 2.95672356e-03,
          3.21402634e-03, 4.18003974e-03, 4.56373673e-03, 6.03532745e-03,
          6.38516899e-03, 8.25399905e-03, 8.69186502e-03, 1.04884692e-02,
          9.36897658e-03, 1.09263351e-02, 1.06193777e-02, 1.29712140e-02,
          1.40523370e-02, 1.34497071e-02, 1.66637339e-02, 1.81782078e-02,
          2.52969153e-02, 2.64615472e-02, 2.96575185e-02, 1.79299340e-02,
          1.54833011e-02, 1.77064855e-02, 2.27396879e-02, 9.42088850e-03,
          1.85077358e-03, 1.91848478e-04 ]
      - [ 0., 0., 0., 0., 0., 1.73611112e-03, 8.68055562e-04, 0.,
          2.60416674e-03, 4.34027798e-03, 0., 8.68055562e-04, 0.,
          2.60416674e-03, 0., 0., 1.73611112e-03, 1.73611112e-03, 0., 0.,
          0., 2.60416674e-03, 0., 0., 0., 3.47222225e-03, 3.47222225e-03,
          0., 7.81250000e-03, 1.73611112e-03, 1.73611112e-03, 0.,
          2.60416674e-03, 8.68055562e-04, 0., 2.60416674e-03, 0.,
          8.68055562e-04, 2.60416674e-03, 8.68055562e-04, 2.60416674e-03,
          8.68055562e-04, 0., 0., 2.60416674e-03, 8.68055562e-04,
          8.68055562e-04, 0., 0., 0., 4.34027798e-03, 5.20833349e-03,
          8.68055562e-04, 8.68055562e-04, 0., 1.73611112e-03, 0.,
          8.68055562e-04, 8.68055562e-04, 1.73611112e-03, 8.68055562e-04,
          8.68055562e-04, 8.68055562e-04, 2.60416674e-03, 0.,
          6.07638899e-03, 8.68055562e-04, 1.73611112e-03, 0.,
          9.54861101e-03, 0., 0., 0., 8.68055562e-04, 0., 0., 0., 0.,
          6.07638899e-03, 0., 0., 2.60416674e-03, 0., 1.73611112e-03, 0.,
          0., 0., 0., 0., 0., 4.34027798e-03, 0., 0., 1.73611112e-03, 0.,
          8.68055562e-04, 0., 0., 0., 0., 8.68055562e-04, 0.,
          3.47222225e-03, 0., 2.60416674e-03, 0., 0., 0., 0., 0.,
          2.60416674e-03, 0., 0., 0., 1.73611112e-03, 3.47222225e-03,
          2.60416674e-03, 0., 8.68055562e-04, 0., 3.47222225e-03,
          8.68055562e-04, 0., 0., 8.68055562e-04, 0., 0., 1.73611112e-03,
          1.73611112e-03, 0., 0., 2.60416674e-03, 0., 1.73611112e-03,
          8.68055562e-04, 0., 0., 0., 0., 0., 3.47222225e-03, 0., 0.,
          1.73611112e-03, 0., 0., 0., 0., 8.68055562e-04, 0., 0., 0., 0.,
          0., 0., 1.73611112e-03, 3.47222225e-03, 0., 8.68055562e-04, 0.,
          0., 0., 1.73611112e-03, 0., 0., 0., 0., 0., 1.73611112e-03,
          8.68055562e-04, 1.73611112e-03, 8.68055562e-04, 0.,
          8.68055562e-04, 8.68055562e-04, 8.68055562e-04, 4.34027798e-03,
          2.60416674e-03, 8.68055562e-04, 0., 0., 0., 8.68055562e-04, 0.,
          8.68055562e-04, 0., 0., 6.94444450e-03, 8.68055562e-04, 0., 0.,
          0., 8.68055562e-04, 0., 0., 1.73611112e-03, 0., 8.68055562e-04,
          0., 0., 0., 0., 0., 8.68055562e-04, 0., 1.73611112e-03, 0., 0.,
          8.68055562e-04, 1.73611112e-03, 0., 3.47222225e-03,
          8.68055562e-04, 0., 0., 0., 0., 0., 1.73611112e-03,
          2.60416674e-03, 2.60416674e-03, 8.68055562e-04, 0.,
          1.73611112e-03, 0., 0., 0., 0., 0., 0., 8.68055562e-04,
          8.68055562e-04, 0., 8.68055562e-04, 3.47222225e-03,
          1.73611112e-03, 0., 0., 0., 0., 0., 0., 8.68055562e-04,
          2.60416674e-03, 0., 8.68055562e-04, 8.68055562e-04, 0., 0., 0.,
          3.47222225e-03, 0., 0., 8.68055562e-04, 0., 0., 8.68055562e-04,
          0., 0., 0., 0., 0., 6.94444450e-03, 0., 8.68055562e-04,
          8.68055562e-04, 0., 0., 0., 0., 2.60416674e-03, 0., 0.,
          8.68055562e-04, 8.68055562e-04, 0., 1.73611112e-03, 0., 0.,
          2.60416674e-03, 0., 1.73611112e-03, 0., 0., 2.60416674e-03, 0.,
          0., 8.68055562e-04, 1.56250000e-02, 1.73611112e-03,
          8.68055562e-04, 0., 0., 0., 0., 0., 8.68055562e-04,
          1.73611112e-03, 1.73611112e-03, 2.60416674e-03, 4.34027798e-03,
          0., 0., 0., 1.73611112e-03, 0., 0., 0., 8.68055562e-04, 0.,
          8.68055562e-04, 4.34027798e-03, 1.73611112e-03, 8.68055562e-04,
          8.68055562e-04, 0., 0., 0., 6.94444450e-03, 8.68055562e-04, 0.,
          2.60416674e-03, 8.68055562e-04, 0., 1.73611112e-03,
          8.68055562e-04, 0., 1.73611112e-03, 3.47222225e-03, 0.,
          2.60416674e-03, 0., 8.68055562e-04, 4.34027798e-03,
          5.20833349e-03, 8.68055562e-04, 0., 0., 0., 8.68055562e-04, 0.,
          8.68055562e-04, 8.68055562e-04, 0., 0., 0., 1.73611112e-03, 0.,
          1.73611112e-03, 1.73611112e-03, 3.47222225e-03, 0., 0., 0.,
          5.20833349e-03, 0., 0., 1.73611112e-03, 2.60416674e-03,
          4.34027798e-03, 0., 0., 0., 8.68055562e-04, 8.68055562e-04,
          8.68055562e-04, 0., 2.60416674e-03, 0., 0., 0., 8.68055562e-04,
          0., 0., 0., 8.68055562e-04, 5.20833349e-03, 8.68055562e-04,
          1.73611112e-03, 0., 8.68055562e-04, 0., 1.73611112e-03,
          8.68055562e-04, 8.68055562e-04, 0., 0., 0., 0., 0.,
          8.68055562e-04, 0., 0., 5.20833349e-03, 0., 0., 8.68055562e-04,
          8.68055562e-04, 0., 0., 0., 0., 8.68055562e-04, 2.60416674e-03,
          4.34027798e-03, 2.60416674e-03, 1.73611112e-03, 0., 0.,
          3.47222225e-03, 8.68055562e-04, 8.68055562e-04, 8.68055562e-04,
          2.60416674e-03, 0., 0., 0., 0., 3.47222225e-03, 1.73611112e-03,
          0., 0., 0., 0., 1.73611112e-03, 0., 8.68055562e-04,
          8.68055562e-04, 8.68055562e-04, 8.68055597e-03, 0.,
          2.60416674e-03, 8.68055562e-04, 0., 0., 0., 1.73611112e-03,
          1.73611112e-03, 0., 8.68055562e-04, 0., 8.68055562e-04,
          1.73611112e-03, 0., 0., 0., 0., 8.68055562e-04, 0., 0.,
          2.60416674e-03, 8.68055562e-04, 8.68055562e-04, 8.68055562e-04,
          0., 0., 8.68055562e-04, 0., 0., 8.68055562e-04, 0.,
          2.60416674e-03, 0., 0., 0., 8.68055597e-03, 0., 0., 0.,
          1.73611112e-03, 1.73611112e-03, 0., 2.60416674e-03,
          1.73611112e-03, 1.73611112e-03, 8.68055562e-04, 1.73611112e-03,
          0., 8.68055562e-04, 0., 0., 1.73611112e-03, 2.60416674e-03, 0.,
          0., 6.07638899e-03, 1.73611112e-03, 3.47222225e-03, 0., 0.,
          8.68055562e-04, 0., 8.68055562e-04, 2.60416674e-03, 0.,
          8.68055562e-04, 1.73611112e-03, 8.68055562e-04, 0.,
          2.60416674e-03, 1.73611112e-03, 8.68055562e-04, 0.,
          2.60416674e-03, 0., 2.60416674e-03, 2.60416674e-03, 0.,
          2.60416674e-03, 0., 8.68055562e-04, 4.34027798e-03,
          3.47222225e-03, 0., 0., 1.73611112e-03, 0., 0., 0., 0., 0.,
          1.73611112e-03, 2.60416674e-03, 5.20833349e-03, 0., 0.,
          2.60416674e-03, 3.47222225e-03, 1.73611112e-03, 0.,
          8.68055562e-04, 8.68055562e-04, 0., 8.68055562e-04,
          1.73611112e-03, 8.68055562e-04, 6.07638899e-03, 1.73611112e-03,
          8.68055562e-04, 8.68055562e-04, 2.60416674e-03, 0., 0.,
          8.68055562e-04, 1.73611112e-03, 0., 0., 1.73611112e-03,
          8.68055562e-04, 8.68055562e-04, 0., 0., 0., 8.68055562e-04,
          1.73611112e-03, 0., 1.73611112e-03, 8.68055562e-04, 0.,
          1.73611112e-03, 0., 0., 8.68055562e-04, 0., 8.68055562e-04, 0.,
          8.68055562e-04, 0., 2.60416674e-03, 8.68055562e-04,
          3.47222225e-03, 0., 0., 1.73611112e-03, 0., 8.68055562e-04,
          1.73611112e-03, 0., 0., 0., 0., 0., 0., 0., 0., 8.68055562e-04,
          2.69097220e-02, 1.73611112e-03, 8.68055562e-04, 4.34027798e-03,
          0., 8.68055562e-04, 2.60416674e-03, 8.68055562e-04,
          3.47222225e-03, 0., 0., 1.73611112e-03, 6.94444450e-03, 0.,
          8.68055562e-04, 0., 8.68055562e-04, 1.73611112e-03, 0.,
          1.73611112e-03, 0., 0., 1.73611112e-03, 0., 1.73611112e-03,
          2.60416674e-03, 0., 8.68055562e-04, 2.60416674e-03,
          8.68055562e-04, 2.60416674e-03, 8.68055562e-04, 0.,
          8.68055562e-04, 8.68055562e-04, 1.73611112e-03, 2.60416674e-03,
          0., 0., 0., 1.73611112e-03, 8.68055562e-04, 0., 3.47222225e-03,
          0., 8.68055562e-04, 0., 0., 0., 0., 1.73611112e-03, 0., 0., 0.,
          0., 0., 0., 0., 4.34027798e-03, 2.60416674e-03, 1.73611112e-03,
          8.68055562e-04, 8.68055562e-04, 0., 2.60416674e-03, 0., 0.,
          8.68055562e-04, 0., 8.68055562e-04, 8.68055562e-04,
          6.94444450e-03, 0., 8.68055562e-04, 0., 8.68055562e-04, 0., 0.,
          3.47222225e-03, 8.68055562e-04, 8.68055562e-04, 8.68055597e-03,
          0., 8.68055562e-04, 0., 0., 8.68055562e-04, 1.73611112e-03, 0.,
          4.34027798e-03, 0., 1.73611112e-03, 8.68055562e-04,
          4.34027798e-03, 0., 8.68055562e-04, 0., 8.68055562e-04, 0., 0.,
          0., 1.73611112e-03, 8.68055562e-04, 0., 1.73611112e-03,
          1.73611112e-03, 8.68055562e-04, 0., 0., 2.60416674e-03, 0., 0.,
          0., 1.73611112e-03, 1.73611112e-03, 0., 0., 1.73611112e-03, 0.,
          2.60416674e-03, 8.68055562e-04, 8.68055562e-04, 0.,
          6.94444450e-03, 8.68055562e-04, 0., 8.68055562e-04, 0.,
          3.47222225e-03, 8.68055562e-04, 0., 0., 0., 0., 1.73611112e-03,
          1.73611112e-03, 8.68055562e-04, 1.73611112e-03, 8.68055562e-04,
          0., 0., 1.73611112e-03, 0., 1.73611112e-03, 4.34027798e-03,
          1.73611112e-03, 2.60416674e-03, 0., 0., 0., 1.73611112e-03,
          2.60416674e-03, 1.73611112e-03, 1.73611112e-03, 8.68055562e-04,
          0., 0., 0., 0., 0., 0., 3.47222225e-03, 1.73611112e-03, 0.,
          8.68055562e-04, 4.34027798e-03, 0., 8.68055562e-04,
          8.68055562e-04, 3.47222225e-03, 0., 4.34027798e-03,
          8.68055562e-04, 1.73611112e-03, 8.68055562e-04, 1.73611112e-03,
          1.73611112e-03, 8.68055562e-04, 1.73611112e-03, 8.68055562e-04,
          0., 6.94444450e-03, 0., 0., 0., 0., 2.60416674e-03, 0., 0.,
          8.68055562e-04, 0., 2.60416674e-03, 1.73611112e-03,
          1.73611112e-03, 0., 0., 0., 8.68055562e-04, 0., 0.,
          1.73611112e-03, 1.73611112e-03, 2.60416674e-03, 8.68055562e-04,
          8.68055562e-04, 2.60416674e-03, 2.60416674e-03, 0., 0.,
          8.68055562e-04, 0., 1.73611112e-03, 0., 0., 3.47222225e-03,
          2.60416674e-03, 0., 8.68055562e-04, 6.07638899e-03,
          2.60416674e-03, 8.68055562e-04, 8.68055562e-04, 0.,
          8.68055562e-04, 1.73611112e-03, 8.68055562e-04, 1.73611112e-03,
          8.68055562e-04, 1.73611112e-03, 8.68055562e-04, 0.,
          8.68055562e-04, 0., 0., 8.68055562e-04, 0., 0., 0., 0., 0., 0.,
          0., 0., 8.68055562e-04, 3.47222225e-03, 0., 3.47222225e-03,
          8.68055562e-04, 0., 1.73611112e-03, 0., 8.68055562e-04,
          2.60416674e-03, 8.68055562e-04, 8.68055562e-04, 0., 0., 0., 0.,
          0., 8.68055562e-04, 2.60416674e-03, 8.68055562e-04, 0., 0., 0.,
          0., 0., 0., 1.73611112e-03, 0., 0., 0., 2.60416674e-03, 0., 0.,
          0., 8.68055562e-04, 0., 0., 1.73611112e-03, 0., 8.68055562e-04,
          0., 0., 3.47222225e-03, 0., 0., 0., 0., 8.68055562e-04, 0.,
          8.68055562e-04, 8.68055562e-04, 4.34027798e-03, 0., 0., 0., 0.,
          8.68055562e-04, 0., 0., 8.68055562e-04, 0., 0., 6.94444450e-03,
          0., 2.60416674e-03, 0., 8.68055562e-04, 1.73611112e-03, 0.,
          1.73611112e-03, 0., 0., 8.68055562e-04, 1.73611112e-03, 0., 0.,
          8.68055562e-04, 8.68055562e-04, 0., 0., 8.68055562e-04, 0., 0.,
          0., 0., 2.60416674e-03, 8.68055562e-04, 0., 0., 0.,
          3.47222225e-03, 1.73611112e-03, 1.73611112e-03, 8.68055562e-04,
          8.68055562e-04, 0., 8.68055562e-04, 0., 1.73611112e-03, 0.,
          1.73611112e-03, 0., 1.73611112e-03, 0., 0., 8.68055562e-04,
          8.68055562e-04, 8.68055562e-04, 0., 8.68055562e-04, 0., 0., 0.,
          0., 6.94444450e-03, 8.68055562e-04, 0., 0., 0., 8.68055562e-04,
          0., 0., 8.68055562e-04, 0., 0., 0., 0., 0., 0., 2.60416674e-03,
          0., 0., 6.07638899e-03, 0., 0., 0., 8.68055562e-04, 0.,
          4.34027798e-03, 0., 0., 1.73611112e-03, 1.73611112e-03, 0.,
          2.60416674e-03, 3.47222225e-03, 0., 0., 1.73611112e-03,
          8.68055562e-04, 0., 5.20833349e-03, 2.60416674e-03, 0.,
          8.68055562e-04, 0., 0., 0., 0., 0., 2.60416674e-03,
          8.68055562e-04, 1.73611112e-03, 8.68055562e-04, 0., 0.,
          1.73611112e-03, 1.73611112e-03, 3.47222225e-03, 3.47222225e-03,
          8.68055562e-04, 0., 1.00160398e-01, 7.09245130e-02,
          4.81499992e-02, 3.18596736e-02, 2.56310217e-02, 1.46612916e-02,
          1.11522553e-02, 7.57933548e-03, 6.74884859e-03, 4.62928088e-03,
          3.78282298e-03, 2.21311115e-03, 1.90053775e-03, 1.23888592e-03,
          1.01529330e-03, 7.46069476e-04, 4.17525094e-04, 2.66942283e-04,
          1.43738158e-04, 6.61651793e-05, 3.65049273e-05, 9.12623182e-06,
          0., 0., 0., 0., 0., 0., 0., 0., 5.17913664e-04, 4.98064095e-03,
          1.80471241e-02, 1.81931425e-02, 1.79855209e-02, 1.23591991e-02,
          1.17021110e-02, 8.67676456e-03, 9.88370925e-03, 1.04221571e-02,
          1.53001277e-02, 1.87019315e-02, 2.77985018e-02, 2.61192750e-02,
          2.65482087e-02, 2.82365605e-02, 2.23980546e-02, 1.19758975e-02,
          1.08556524e-02, 1.45837180e-02, 7.38996640e-03, 4.34180489e-03,
          2.75155879e-03, 2.21539289e-03, 8.89807590e-04, 3.10291885e-04,
          8.44176466e-05, 5.47573909e-05, 9.12623182e-06, 0.,
          1.04951665e-04, 1.17728394e-03, 7.01350905e-03, 1.08054588e-02,
          1.08761871e-02, 1.13119641e-02, 1.30208516e-02, 9.50268842e-03,
          1.14191975e-02, 9.00759082e-03, 8.74521118e-03, 7.36258738e-03,
          8.52618180e-03, 8.25923961e-03, 1.03308940e-02, 1.24344910e-02,
          1.40726492e-02, 2.06823237e-02, 2.03355253e-02, 2.05340218e-02,
          1.79992113e-02, 1.93065442e-02, 1.47092044e-02, 1.57587212e-02,
          2.18253825e-02, 1.06320605e-02, 1.36140566e-02, 3.61170620e-03,
          3.53641488e-04 ]
      - [ 8.62440735e-04, 0., 0., 0., 6.03708532e-03, 0., 8.62440735e-04,
          4.31220367e-04, 1.29366107e-03, 4.31220367e-04, 4.31220367e-04,
          4.31220367e-04, 0., 0., 2.58732215e-03, 5.60586480e-03,
          8.62440735e-04, 4.31220367e-04, 2.58732215e-03, 4.31220367e-04,
          1.29366107e-03, 3.44976294e-03, 0., 1.72488147e-03,
          4.31220367e-04, 1.29366107e-03, 1.72488147e-03, 0.,
          5.60586480e-03, 8.62440735e-04, 4.31220367e-04, 8.62440735e-04,
          0., 1.29366107e-03, 4.31220367e-04, 4.31220367e-04, 0.,
          8.62440735e-04, 6.89952588e-03, 1.72488147e-03, 0.,
          1.72488147e-03, 0., 4.31220367e-04, 8.62440735e-04, 0.,
          4.31220367e-04, 4.31220367e-04, 8.62440735e-04, 0.,
          1.29366107e-03, 1.29366107e-03, 1.29366107e-03, 0.,
          4.31220367e-04, 1.29366107e-03, 0., 1.29366107e-03, 0.,
          8.62440735e-04, 2.15610187e-03, 8.62440735e-04, 1.29366107e-03,
          8.62440735e-04, 1.29366107e-03, 3.88098322e-03, 0.,
          1.29366107e-03, 4.31220367e-04, 8.62440735e-04, 2.15610187e-03,
          8.62440735e-04, 4.31220367e-04, 4.31220367e-04, 1.29366107e-03,
          0., 0., 0., 8.62440735e-04, 0., 0., 4.31220367e-04,
          8.62440735e-04, 1.29366107e-03, 0., 0., 1.29366107e-03,
          1.72488147e-03, 8.62440735e-04, 1.29366107e-03, 0., 0.,
          3.88098322e-03, 8.62440735e-04, 3.01854266e-03, 8.62440735e-04,
          8.62440735e-04, 1.29366107e-03, 3.44976294e-03, 8.62440735e-04,
          1.29366107e-03, 4.31220367e-04, 1.29366107e-03, 4.31220367e-04,
          4.31220367e-04, 8.62440735e-04, 0., 3.88098322e-03,
          4.31220367e-04, 4.31220367e-04, 8.62440735e-04, 8.62440735e-04,
          0., 2.15610187e-03, 8.62440735e-04, 2.15610187e-03,
          8.62440735e-04, 0., 2.15610187e-03, 2.15610187e-03,
          4.31220367e-04, 0., 8.62440735e-04, 8.62440735e-04,
          4.31220367e-04, 8.62440735e-04, 0., 0., 8.62440735e-04, 0.,
          8.62440735e-04, 4.31220367e-04, 4.31220367e-04, 1.29366107e-03,
          4.31220367e-04, 0., 0., 2.58732215e-03, 0., 1.29366107e-03,
          5.60586480e-03, 0., 0., 1.72488147e-03, 0., 4.31220367e-04,
          1.72488147e-03, 1.72488147e-03, 8.62440735e-04, 0.,
          8.62440735e-04, 4.31220367e-04, 4.31220367e-04, 4.31220367e-04,
          3.44976294e-03, 8.62440735e-04, 0., 0., 8.62440735e-04, 0.,
          4.31220367e-04, 3.44976294e-03, 1.72488147e-03, 3.88098322e-03,
          0., 2.58732215e-03, 4.31220367e-04, 4.31220367e-04,
          5.60586480e-03, 0., 8.62440735e-04, 2.15610187e-03, 0.,
          2.58732215e-03, 0., 4.31220373e-03, 4.31220367e-04,
          8.62440735e-04, 2.58732215e-03, 4.31220367e-04, 1.72488147e-03,
          0., 4.31220367e-04, 0., 0., 4.31220367e-04, 0., 8.62440735e-04,
          0., 8.62440735e-04, 8.62440735e-04, 1.29366107e-03, 0.,
          8.62440735e-04, 8.62440735e-04, 0., 4.31220367e-04,
          1.29366107e-03, 0., 4.31220367e-04, 2.15610187e-03,
          4.31220367e-04, 4.31220367e-04, 4.31220367e-04, 4.31220367e-04,
          0., 4.31220367e-04, 1.29366107e-03, 8.62440735e-04, 0., 0.,
          4.31220367e-04, 8.62440735e-04, 0., 0., 0., 0., 0.,
          4.31220367e-04, 8.62440735e-04, 4.31220367e-04, 1.29366107e-03,
          0., 3.01854266e-03, 8.62440735e-04, 0., 2.15610187e-03,
          8.62440735e-04, 8.62440735e-04, 4.31220367e-04, 1.29366107e-03,
          0., 1.72488147e-03, 0., 8.62440735e-04, 8.62440735e-04,
          8.62440735e-04, 8.62440735e-04, 8.62440735e-04, 2.15610187e-03,
          2.15610187e-03, 8.62440735e-04, 0., 0., 8.62440735e-04,
          4.31220367e-04, 0., 4.31220367e-04, 0., 0., 2.15610187e-03, 0.,
          0., 1.29366107e-03, 0., 0., 1.29366107e-03, 0., 2.15610187e-03,
          1.72488147e-03, 0., 0., 5.60586480e-03, 0., 0., 1.29366107e-03,
          0., 8.62440735e-04, 0., 4.31220367e-04, 1.29366107e-03,
          2.15610187e-03, 4.31220367e-04, 1.29366107e-03, 8.62440735e-04,
          0., 4.31220367e-04, 4.31220367e-04, 0., 0., 0., 1.72488147e-03,
          4.31220367e-04, 1.72488147e-03, 3.44976294e-03, 4.31220367e-04,
          0., 0., 2.15610187e-03, 1.29366107e-03, 0., 0., 4.31220367e-04,
          4.31220367e-04, 0., 1.29366107e-03, 0., 4.31220367e-04, 0.,
          4.31220367e-04, 1.29366107e-03, 1.29366107e-03, 0., 0.,
          4.31220367e-04, 1.29366107e-03, 4.31220373e-03, 1.72488147e-03,
          0., 3.44976294e-03, 0., 7.33074639e-03, 0., 4.31220367e-04,
          8.62440735e-04, 8.62440735e-04, 1.29366107e-03, 8.62440735e-04,
          0., 8.62440735e-04, 0., 1.72488147e-03, 4.31220367e-04, 0., 0.,
          4.31220367e-04, 0., 1.72488147e-03, 0., 8.62440735e-04,
          2.15610187e-03, 4.31220367e-04, 1.29366107e-03, 0.,
          4.31220373e-03, 3.88098322e-03, 0., 8.62440735e-04,
          8.62440735e-04, 1.72488147e-03, 8.62440735e-04, 4.31220367e-04,
          4.31220367e-04, 0., 0., 4.31220367e-04, 1.29366107e-03, 0.,
          1.29366107e-03, 4.31220367e-04, 2.15610187e-03, 4.31220367e-04,
          0., 0., 1.29366107e-03, 1.72488147e-03, 0., 8.62440735e-04, 0.,
          8.62440735e-04, 1.72488147e-03, 0., 0., 4.31220367e-04,
          1.72488147e-03, 8.62440735e-04, 1.29366107e-03, 3.01854266e-03,
          4.31220367e-04, 0., 4.31220367e-04, 4.31220367e-04,
          4.31220367e-04, 0., 1.72488147e-03, 0., 2.58732215e-03,
          8.62440735e-04, 2.58732215e-03, 4.31220367e-04, 0., 0.,
          2.58732215e-03, 8.62440735e-04, 8.62440735e-04, 0., 0.,
          8.62440735e-04, 0., 0., 4.31220367e-04, 1.29366107e-03,
          8.62440735e-04, 0., 4.31220367e-04, 1.29366107e-03,
          8.62440735e-04, 2.15610187e-03, 4.31220367e-04, 4.31220367e-04,
          1.29366107e-03, 0., 4.31220367e-04, 4.31220367e-04,
          3.01854266e-03, 8.62440735e-04, 3.88098322e-03, 0.,
          4.31220367e-04, 8.62440735e-04, 0., 1.29366107e-03, 0.,
          1.29366107e-03, 0., 8.62440735e-04, 8.62440735e-04, 0., 0.,
          8.62440735e-04, 8.62440735e-04, 4.31220367e-04, 0.,
          4.31220367e-04, 1.72488147e-03, 4.31220367e-04, 0.,
          4.31220373e-03, 4.31220367e-04, 4.31220367e-04, 1.72488147e-03,
          0., 8.62440735e-04, 8.62440735e-04, 1.29366107e-03,
          8.62440735e-04, 4.74342424e-03, 1.29366107e-03, 8.62440735e-04,
          3.01854266e-03, 8.62440735e-04, 0., 1.29366107e-03, 0., 0.,
          4.31220367e-04, 0., 8.62440735e-04, 4.31220367e-04, 0.,
          8.62440735e-04, 2.15610187e-03, 0., 4.31220367e-04, 0.,
          2.15610187e-03, 1.29366107e-03, 0., 0., 8.62440735e-04, 0.,
          1.29366107e-03, 2.15610187e-03, 2.15610187e-03, 8.62440735e-04,
          0., 0., 0., 1.29366107e-03, 4.31220367e-04, 4.31220367e-04, 0.,
          1.29366107e-03, 1.29366107e-03, 2.58732215e-03, 3.88098322e-03,
          4.31220367e-04, 8.62440735e-04, 3.01854266e-03, 0.,
          4.31220367e-04, 1.72488147e-03, 1.72488147e-03, 4.31220367e-04,
          1.72488147e-03, 2.15610187e-03, 8.62440735e-04, 1.72488147e-03,
          1.72488147e-03, 0., 1.29366107e-03, 0., 0., 1.29366107e-03,
          8.62440735e-04, 1.29366107e-03, 8.62440735e-04, 3.44976294e-03,
          3.44976294e-03, 1.29366107e-03, 1.72488147e-03, 1.72488147e-03,
          1.72488147e-03, 2.15610187e-03, 8.62440735e-04, 0.,
          1.72488147e-03, 0., 8.62440735e-04, 4.31220367e-04,
          2.58732215e-03, 1.29366107e-03, 8.62440735e-04, 1.29366107e-03,
          8.62440735e-04, 0., 4.31220367e-04, 1.72488147e-03, 0., 0., 0.,
          1.29366107e-03, 4.31220367e-04, 8.62440735e-04, 0.,
          4.31220367e-04, 4.31220367e-04, 1.72488147e-03, 8.62440735e-04,
          0., 0., 8.62440735e-04, 4.31220367e-04, 0., 2.15610187e-03,
          4.31220367e-04, 3.01854266e-03, 0., 0., 3.44976294e-03,
          1.72488147e-03, 5.60586480e-03, 8.62440735e-04, 2.58732215e-03,
          8.62440735e-04, 2.15610187e-03, 1.29366107e-03, 1.29366107e-03,
          1.29366107e-03, 1.29366107e-03, 0., 4.31220367e-04,
          2.15610187e-03, 0., 1.72488147e-03, 0., 2.15610187e-03, 0., 0.,
          8.62440735e-04, 0., 0., 1.29366107e-03, 4.31220367e-04,
          3.44976294e-03, 8.62440735e-04, 0., 0., 3.44976294e-03,
          8.62440735e-04, 1.29366107e-03, 4.31220367e-04, 1.29366107e-03,
          1.29366107e-03, 0., 4.31220367e-04, 1.29366107e-03,
          3.88098322e-03, 3.88098322e-03, 1.29366107e-03, 1.72488147e-03,
          4.31220367e-04, 1.72488147e-03, 0., 8.62440735e-04,
          4.31220367e-04, 1.29366107e-03, 2.58732215e-03, 8.62440735e-04,
          1.29366107e-03, 0., 4.31220367e-04, 2.15610187e-03,
          8.62440735e-04, 8.62440735e-04, 4.31220367e-04, 4.74342424e-03,
          2.58732215e-03, 2.58732215e-03, 2.15610187e-03, 4.74342424e-03,
          4.31220367e-04, 8.62440735e-04, 0., 1.72488147e-03,
          8.62440735e-04, 6.46830536e-03, 1.29366107e-03, 1.29366107e-03,
          0., 4.31220367e-04, 8.62440735e-04, 0., 0., 1.72488147e-03, 0.,
          0., 4.31220367e-04, 8.62440735e-04, 0., 4.31220367e-04,
          4.31220373e-03, 4.31220367e-04, 2.58732215e-03, 8.62440735e-04,
          0., 8.62440735e-04, 0., 0., 1.72488147e-03, 0., 4.31220367e-04,
          2.58732215e-03, 8.62440735e-04, 8.62440735e-04, 4.31220367e-04,
          0., 8.62440735e-04, 0., 0., 4.31220367e-04, 1.72488147e-03, 0.,
          4.31220367e-04, 2.15610187e-03, 8.62440735e-04, 0.,
          2.15610187e-03, 4.31220367e-04, 8.62440735e-04, 0.,
          8.62440735e-04, 2.15610187e-03, 8.62440735e-04, 0.,
          3.44976294e-03, 4.31220367e-04, 4.31220367e-04, 4.31220367e-04,
          8.62440735e-04, 8.62440735e-04, 8.62440735e-04, 2.15610187e-03,
          0., 0., 1.29366107e-03, 4.31220367e-04, 1.72488147e-03,
          1.72488147e-03, 3.01854266e-03, 4.31220367e-04, 8.62440735e-04,
          0., 0., 1.72488147e-03, 1.72488147e-03, 4.31220367e-04, 0., 0.,
          4.31220367e-04, 0., 1.29366107e-03, 8.62440735e-04, 0.,
          4.31220367e-04, 1.72488147e-03, 4.31220367e-04, 4.31220367e-04,
          0., 4.31220367e-04, 0., 2.15610187e-03, 8.62440735e-04,
          8.62440735e-04, 1.72488147e-03, 1.72488147e-03, 4.31220373e-03,
          1.29366107e-03, 0., 8.62440735e-04, 3.01854266e-03,
          4.31220367e-04, 0., 4.31220373e-03, 8.62440735e-04,
          8.62440735e-04, 6.89952588e-03, 4.31220367e-04, 4.31220367e-04,
          0., 0., 4.31220367e-04, 8.62440735e-04, 8.62440735e-04,
          4.31220367e-04, 8.62440735e-04, 1.72488147e-03, 0.,
          8.62440735e-04, 4.74342424e-03, 0., 4.31220367e-04,
          4.31220367e-04, 1.29366107e-03, 2.15610187e-03, 0.,
          4.31220367e-04, 1.72488147e-03, 0., 2.15610187e-03,
          4.31220373e-03, 0., 1.29366107e-03, 0., 8.62440735e-04, 0., 0.,
          0., 2.15610187e-03, 1.72488147e-03, 4.31220367e-04,
          4.31220367e-04, 0., 4.31220367e-04, 2.58732215e-03,
          8.62440735e-04, 3.88098322e-03, 8.62440735e-04, 4.31220367e-04,
          8.62440735e-04, 1.29366107e-03, 0., 4.31220367e-04,
          1.29366107e-03, 1.29366107e-03, 0., 0., 2.58732215e-03,
          2.58732215e-03, 8.62440735e-04, 0., 8.62440735e-04,
          4.31220367e-04, 8.62440735e-04, 0., 1.72488147e-03,
          1.29366107e-03, 8.62440735e-04, 8.62440735e-04, 0., 0., 0., 0.,
          4.31220367e-04, 1.72488147e-03, 1.29366107e-03, 4.31220367e-04,
          0., 2.15610187e-03, 4.31220373e-03, 0., 4.31220367e-04, 0.,
          8.62440735e-04, 0., 0., 0., 0., 2.15610187e-03, 8.62440735e-04,
          4.31220367e-04, 1.29366107e-03, 1.29366107e-03, 1.29366107e-03,
          0., 4.31220367e-04, 1.72488147e-03, 0., 2.15610187e-03, 0.,
          1.72488147e-03, 1.29366107e-03, 8.62440735e-04, 0., 0.,
          1.72488147e-03, 8.62440735e-04, 4.31220367e-04, 8.62440735e-04,
          8.62440735e-04, 8.62440735e-04, 4.31220367e-04, 8.62440735e-04,
          4.31220367e-04, 4.31220367e-04, 3.01854266e-03, 8.62440735e-04,
          4.31220367e-04, 0., 8.62440735e-04, 0., 0., 4.31220373e-03,
          1.29366107e-03, 0., 8.62440735e-04, 0., 1.72488147e-03, 0.,
          3.01854266e-03, 1.72488147e-03, 4.31220367e-04, 4.74342424e-03,
          4.31220367e-04, 0., 3.01854266e-03, 4.31220367e-04, 0.,
          1.29366107e-03, 2.58732215e-03, 1.29366107e-03, 4.31220367e-04,
          4.31220367e-04, 1.29366107e-03, 8.62440735e-04, 2.15610187e-03,
          0., 8.62440735e-04, 4.31220367e-04, 0., 1.29366107e-03,
          4.31220367e-04, 2.58732215e-03, 2.58732215e-03, 4.31220367e-04,
          3.44976294e-03, 5.17464429e-03, 8.62440735e-04, 4.31220367e-04,
          8.62440735e-04, 8.62440735e-04, 0., 8.62440735e-04,
          1.72488147e-03, 0., 1.72488147e-03, 2.15610187e-03,
          2.15610187e-03, 0., 0., 8.62440735e-04, 4.31220367e-04,
          3.01854266e-03, 2.58732215e-03, 0., 5.17464429e-03, 0.,
          1.29366107e-03, 8.62440735e-04, 2.15610187e-03, 8.62440735e-04,
          0., 8.62440735e-04, 1.29366107e-03, 4.31220367e-04,
          8.62440735e-04, 0., 2.15610187e-03, 1.72488147e-03, 0.,
          4.31220367e-04, 0., 4.74342424e-03, 3.88098322e-03,
          2.15610187e-03, 1.29366107e-03, 1.72488147e-03, 8.62440735e-04,
          3.01854266e-03, 1.29366107e-03, 1.07805096e-02, 4.31220367e-04,
          0., 0., 4.31220367e-04, 1.29366107e-03, 0., 1.29366107e-03,
          2.15610187e-03, 5.17464429e-03, 0., 0., 4.31220367e-04, 0.,
          4.31220367e-04, 8.62440735e-04, 4.31220367e-04, 0.,
          4.31220367e-04, 1.29366107e-03, 1.29366107e-03, 8.62440735e-04,
          1.29366107e-03, 8.62440735e-04, 0., 8.62440735e-04,
          1.29366107e-03, 8.62440735e-04, 0., 8.62440735e-04,
          4.31220367e-04, 0., 0., 0., 0., 2.15610187e-03, 1.29366107e-03,
          0., 2.15610187e-03, 2.15610187e-03, 8.62440735e-04,
          3.44976294e-03, 0., 4.31220367e-04, 0., 0., 1.29366107e-03, 0.,
          8.62440735e-04, 0., 4.31220367e-04, 1.72488147e-03,
          4.31220367e-04, 0., 2.58732215e-03, 1.29366107e-03, 0.,
          1.29366107e-03, 1.29366107e-03, 4.31220367e-04, 4.31220367e-04,
          3.01854266e-03, 1.29366107e-03, 4.31220367e-04, 4.31220367e-04,
          1.29366107e-03, 8.62440735e-04, 1.72488147e-03, 0.,
          3.01854266e-03, 2.15610187e-03, 1.72488147e-03, 1.29366107e-03,
          0., 1.29366107e-03, 0., 4.31220367e-04, 4.31220367e-04,
          1.29366107e-03, 4.31220367e-04, 1.72488147e-03, 4.31220367e-04,
          4.31220367e-04, 4.31220367e-04, 2.15610187e-03, 0., 0.,
          7.76196644e-03, 0., 0., 8.62440735e-04, 1.29366107e-03,
          8.62440735e-04, 0., 8.62440735e-04, 8.62440735e-04,
          1.29366107e-03, 0., 1.29366107e-03, 1.72488147e-03,
          1.61756024e-01, 7.14201257e-02, 4.09359820e-02, 2.71125883e-02,
          1.38606103e-02, 8.95433500e-03, 4.24509915e-03, 2.39949906e-03,
          1.27199723e-03, 7.55316811e-04, 3.17451981e-04, 1.81713898e-04,
          7.00583696e-05, 3.72185095e-05, 1.09466200e-05, 4.37864810e-06,
          0., 0., 0., 0., 0., 0., 0., 0., 0., 0., 0., 0., 0., 0.,
          5.20840194e-03, 4.91065392e-03, 1.26389675e-02, 2.19217017e-02,
          2.24099215e-02, 2.65718251e-02, 2.24843584e-02, 2.63047293e-02,
          2.48510167e-02, 2.81065423e-02, 2.33885497e-02, 2.47700121e-02,
          1.84691381e-02, 1.78429913e-02, 1.21945348e-02, 1.18748937e-02,
          1.08240182e-02, 6.63365191e-03, 6.21111225e-03, 3.34747648e-03,
          1.35957019e-03, 5.36384410e-04, 2.62718881e-04, 1.13844850e-04,
          6.56797201e-05, 3.06505353e-05, 0., 0., 0., 0., 3.11978674e-03,
          1.14501652e-03, 1.16034178e-03, 2.26376113e-03, 3.52481171e-03,
          7.24885194e-03, 9.89574473e-03, 1.55113610e-02, 1.55485794e-02,
          1.93185955e-02, 1.58923026e-02, 1.75977871e-02, 1.60411764e-02,
          1.93492454e-02, 1.82939917e-02, 1.95506644e-02, 1.84844621e-02,
          1.55595262e-02, 1.50559815e-02, 1.10560860e-02, 1.06926588e-02,
          8.73978157e-03, 1.06335469e-02, 1.16099855e-02, 1.50778750e-02,
          1.38803143e-02, 1.15246018e-02, 4.68296418e-03, 7.90346006e-04,
          8.31943107e-05 ]
      - [ 1.06534094e-03, 0., 3.55113647e-04, 1.42045459e-03,
          1.77556823e-03, 3.55113647e-04, 2.48579541e-03, 0., 0., 0.,
          1.06534094e-03, 1.06534094e-03, 1.06534094e-03, 0., 0.,
          3.55113647e-04, 3.55113647e-04, 3.55113647e-04, 0., 0.,
          3.55113647e-04, 3.55113647e-04, 0., 3.55113647e-04,
          3.55113647e-04, 3.55113647e-04, 7.10227294e-04, 2.48579541e-03,
          0., 0., 1.06534094e-03, 1.42045459e-03, 7.10227294e-04, 0.,
          1.06534094e-03, 0., 0., 0., 2.13068188e-03, 3.55113647e-04, 0.,
          3.90625000e-03, 3.55113647e-04, 3.55113647e-04, 7.10227294e-04,
          7.10227294e-04, 1.06534094e-03, 0., 0., 1.06534094e-03, 0.,
          1.42045459e-03, 0., 2.13068188e-03, 1.77556823e-03, 0.,
          3.55113647e-04, 3.55113647e-04, 0., 1.42045459e-03,
          3.55113647e-04, 7.10227294e-04, 3.90625000e-03, 0., 0., 0., 0.,
          7.10227294e-04, 0., 0., 7.10227294e-04, 0., 7.10227294e-04,
          7.10227294e-04, 3.55113647e-04, 1.42045459e-03, 2.13068188e-03,
          4.26136376e-03, 0., 1.42045459e-03, 2.13068188e-03, 0.,
          2.13068188e-03, 2.48579541e-03, 3.55113647e-04, 0.,
          1.77556823e-03, 4.61647753e-03, 1.06534094e-03, 2.84090918e-03,
          0., 3.55113647e-04, 4.97159082e-03, 1.06534094e-03,
          3.19602294e-03, 0., 0., 1.42045459e-03, 3.55113647e-04, 0.,
          7.10227294e-04, 0., 2.48579541e-03, 7.10227294e-04,
          7.10227294e-04, 0., 1.42045459e-03, 1.06534094e-03,
          1.06534094e-03, 0., 3.55113647e-04, 3.55113647e-04, 0., 0.,
          3.55113647e-04, 3.55113647e-04, 0., 3.55113647e-04,
          3.55113647e-04, 1.77556823e-03, 0., 0., 2.13068188e-03,
          3.55113647e-04, 1.06534094e-03, 1.06534094e-03, 0.,
          7.10227294e-04, 6.03693211e-03, 0., 0., 3.55113647e-04, 0.,
          1.42045459e-03, 0., 7.10227294e-04, 0., 2.48579541e-03,
          7.10227294e-04, 1.06534094e-03, 5.68181835e-03, 0., 0.,
          4.61647753e-03, 0., 2.84090918e-03, 7.10227294e-04,
          2.13068188e-03, 3.55113647e-04, 3.55113647e-04, 1.42045459e-03,
          3.55113647e-03, 0., 0., 3.55113647e-04, 3.55113647e-04,
          7.10227294e-04, 0., 0., 8.16761423e-03, 0., 7.10227294e-03, 0.,
          1.77556823e-03, 3.55113647e-04, 2.48579541e-03, 7.10227294e-04,
          0., 1.77556823e-03, 7.10227294e-04, 7.10227294e-04, 0., 0., 0.,
          0., 3.55113647e-04, 3.55113647e-04, 3.55113647e-04,
          1.06534094e-03, 0., 2.84090918e-03, 0., 0., 3.55113647e-04, 0.,
          7.10227294e-04, 0., 0., 1.06534094e-03, 1.42045459e-03,
          7.10227294e-04, 0., 0., 0., 3.55113647e-04, 3.55113647e-04, 0.,
          3.55113647e-04, 0., 0., 0., 3.55113647e-04, 0., 3.55113647e-04,
          0., 3.55113647e-04, 3.55113647e-04, 1.06534094e-03,
          3.55113647e-04, 0., 0., 0., 0., 2.48579541e-03, 0., 0.,
          3.55113647e-04, 0., 7.10227294e-04, 3.55113647e-04,
          1.06534094e-03, 7.45738670e-03, 0., 7.10227294e-04, 0.,
          7.10227294e-04, 1.06534094e-03, 1.42045459e-03, 1.06534094e-03,
          3.55113647e-03, 6.39204588e-03, 7.10227294e-04, 1.06534094e-03,
          7.10227294e-04, 3.55113647e-04, 3.19602294e-03, 4.97159082e-03,
          0., 7.10227294e-04, 3.19602294e-03, 2.84090918e-03,
          1.77556823e-03, 3.55113647e-04, 6.39204588e-03, 7.10227294e-04,
          1.06534094e-03, 7.10227294e-04, 3.55113647e-04, 7.10227294e-04,
          0., 8.16761423e-03, 1.06534094e-03, 0., 1.06534094e-03,
          1.42045459e-03, 3.19602294e-03, 0., 1.06534094e-03,
          2.13068188e-03, 0., 0., 3.55113647e-04, 4.26136376e-03,
          7.10227294e-04, 0., 1.06534094e-03, 0., 2.13068188e-03,
          1.06534094e-03, 1.42045459e-03, 7.10227294e-04, 2.13068188e-03,
          0., 2.84090918e-03, 3.55113647e-04, 7.10227294e-04,
          7.10227294e-04, 1.77556823e-03, 1.77556823e-03, 0.,
          7.10227294e-04, 7.10227294e-04, 0., 0., 1.77556823e-03,
          3.55113647e-04, 0., 0., 0., 0., 0., 3.55113647e-04,
          7.10227294e-04, 1.06534094e-03, 7.10227294e-04, 7.10227294e-04,
          0., 0., 1.06534094e-03, 8.87784082e-03, 0., 0., 5.32670459e-03,
          0., 3.55113647e-04, 0., 3.55113647e-04, 0., 3.55113647e-04,
          1.06534094e-03, 2.48579541e-03, 3.55113647e-04, 7.10227294e-03,
          0., 0., 2.13068188e-03, 3.55113647e-04, 2.84090918e-03, 0.,
          1.06534094e-03, 1.06534094e-03, 2.48579541e-03, 3.55113647e-04,
          0., 1.42045459e-03, 7.10227294e-04, 0., 1.06534094e-03, 0., 0.,
          3.55113647e-04, 7.10227294e-04, 1.06534094e-03, 3.55113647e-04,
          6.74715918e-03, 1.42045459e-03, 3.55113647e-04, 3.55113647e-04,
          0., 1.77556823e-03, 5.68181835e-03, 0., 7.10227294e-04,
          1.42045459e-03, 2.48579541e-03, 7.10227294e-04, 3.55113647e-04,
          0., 1.42045459e-03, 1.42045459e-03, 2.48579541e-03,
          1.77556823e-03, 3.55113647e-04, 1.06534094e-03, 2.84090918e-03,
          3.55113647e-04, 2.48579541e-03, 0., 0., 0., 3.55113647e-04,
          7.10227294e-04, 0., 0., 2.84090918e-03, 3.55113647e-04,
          1.42045459e-03, 3.55113647e-04, 0., 7.10227294e-04,
          1.06534094e-03, 0., 0., 0., 3.55113647e-04, 0., 3.55113647e-04,
          3.55113647e-04, 5.32670459e-03, 0., 0., 3.55113647e-04, 0.,
          1.06534094e-03, 3.55113647e-04, 0., 0., 0., 7.10227294e-04,
          2.13068188e-03, 0., 0., 0., 0., 0., 2.13068188e-03,
          7.10227294e-04, 3.55113647e-04, 0., 0., 3.55113647e-04, 0., 0.,
          0., 0., 3.55113647e-04, 0., 0., 1.06534094e-03, 1.06534094e-03,
          7.10227294e-04, 3.55113647e-04, 3.55113647e-04, 1.77556823e-03,
          0., 3.55113647e-04, 0., 0., 0., 3.55113647e-04, 0., 0.,
          7.10227294e-04, 1.06534094e-03, 1.06534094e-03, 7.10227294e-04,
          3.19602294e-03, 1.42045459e-03, 1.06534094e-03, 4.26136376e-03,
          1.77556823e-03, 0., 2.84090918e-03, 0., 1.42045459e-03,
          4.26136376e-03, 2.84090918e-03, 2.84090918e-03, 1.06534094e-03,
          2.48579541e-03, 0., 3.55113647e-04, 3.55113647e-04, 0., 0.,
          1.06534094e-03, 4.61647753e-03, 3.55113647e-04, 0., 0.,
          7.10227294e-04, 1.06534094e-03, 3.55113647e-04, 6.03693211e-03,
          3.19602294e-03, 2.48579541e-03, 3.19602294e-03, 2.13068188e-03,
          7.10227294e-04, 0., 0., 0., 2.84090918e-03, 0., 0.,
          3.90625000e-03, 1.42045459e-03, 1.42045459e-03, 3.55113647e-04,
          1.77556823e-03, 7.10227294e-04, 0., 3.55113647e-04,
          3.55113647e-04, 7.10227294e-04, 2.48579541e-03, 1.06534094e-03,
          1.42045459e-03, 0., 3.90625000e-03, 7.10227294e-04,
          3.55113647e-04, 7.10227294e-04, 1.77556823e-03, 0.,
          3.55113647e-04, 1.06534094e-03, 3.55113647e-04, 7.10227294e-04,
          3.55113647e-04, 1.77556823e-03, 0., 3.55113647e-04,
          3.55113647e-04, 0., 7.10227294e-04, 0., 4.61647753e-03,
          7.10227294e-04, 7.10227294e-04, 1.06534094e-03, 7.10227294e-04,
          1.06534094e-03, 0., 0., 7.10227294e-04, 3.55113647e-04, 0.,
          7.10227294e-04, 0., 1.42045459e-03, 0., 1.06534094e-03,
          1.06534094e-03, 7.10227294e-04, 7.10227294e-04, 0.,
          8.87784082e-03, 7.10227294e-04, 3.55113647e-04, 3.55113647e-04,
          0., 0., 3.55113647e-04, 0., 3.55113647e-04, 0., 0.,
          1.42045459e-03, 2.13068188e-03, 0., 3.55113647e-04, 0., 0.,
          3.55113647e-04, 3.55113647e-04, 2.84090918e-03, 0., 0., 0.,
          1.42045459e-03, 3.90625000e-03, 0., 3.55113647e-04,
          2.13068188e-03, 1.42045459e-03, 5.32670459e-03, 4.26136376e-03,
          3.55113647e-04, 2.48579541e-03, 0., 1.06534094e-03,
          3.90625000e-03, 1.06534094e-03, 0., 1.06534094e-03,
          3.55113647e-04, 0., 3.55113647e-04, 1.42045459e-03,
          3.55113647e-04, 0., 0., 7.10227294e-04, 2.48579541e-03,
          4.97159082e-03, 0., 7.10227294e-04, 3.55113647e-04,
          2.84090918e-03, 1.06534094e-03, 2.84090918e-03, 3.19602294e-03,
          7.10227294e-04, 0., 1.06534094e-03, 1.77556823e-03,
          3.55113647e-04, 0., 0., 1.42045459e-03, 7.10227294e-04,
          2.48579541e-03, 3.55113647e-04, 1.06534092e-02, 1.06534094e-03,
          0., 7.10227294e-04, 0., 7.10227294e-04, 0., 3.55113647e-04,
          3.55113647e-04, 2.13068188e-03, 3.55113647e-04, 3.55113647e-04,
          1.42045459e-03, 2.13068188e-03, 1.06534094e-03, 2.13068188e-03,
          0., 2.84090918e-03, 0., 1.06534094e-03, 1.42045459e-03, 0.,
          3.55113647e-04, 0., 0., 5.68181835e-03, 3.55113647e-04,
          7.10227294e-04, 0., 0., 2.48579541e-03, 0., 0., 0.,
          1.42045459e-03, 7.10227294e-04, 1.06534094e-03, 2.13068188e-03,
          7.10227294e-04, 3.55113647e-04, 2.48579541e-03, 3.19602294e-03,
          3.55113647e-04, 0., 1.06534094e-03, 7.10227294e-04,
          1.42045459e-03, 0., 2.84090918e-03, 7.10227294e-04,
          1.06534094e-03, 0., 0., 0., 1.77556823e-03, 0., 1.77556823e-03,
          1.06534094e-03, 3.55113647e-04, 2.48579541e-03, 0., 0.,
          7.10227294e-04, 2.48579541e-03, 3.90625000e-03, 1.42045459e-03,
          0., 0., 2.84090918e-03, 0., 7.10227294e-04, 1.77556823e-03, 0.,
          0., 0., 3.55113647e-04, 0., 2.13068188e-03, 3.55113647e-04, 0.,
          7.10227294e-04, 3.55113647e-04, 0., 0., 0., 2.13068188e-03,
          3.55113647e-04, 1.77556823e-03, 7.10227294e-04, 0., 0.,
          3.55113647e-04, 7.10227294e-04, 3.55113647e-04, 7.10227294e-04,
          7.10227294e-04, 1.42045459e-03, 1.06534094e-03, 2.48579541e-03,
          0., 1.06534094e-03, 3.55113647e-04, 1.06534094e-03,
          2.84090918e-03, 3.55113647e-04, 1.77556823e-03, 0.,
          4.26136376e-03, 0., 1.77556823e-03, 7.10227294e-04, 0., 0.,
          1.77556823e-03, 0., 7.10227294e-04, 1.42045459e-03,
          4.97159082e-03, 7.10227294e-04, 7.10227294e-04, 1.77556823e-03,
          3.55113647e-04, 3.55113647e-04, 3.55113647e-04, 1.06534094e-03,
          0., 3.19602294e-03, 1.77556823e-03, 3.55113647e-04,
          3.55113647e-04, 4.26136376e-03, 3.55113647e-04, 2.13068188e-03,
          0., 0., 1.06534094e-03, 0., 7.10227294e-04, 7.10227294e-04,
          2.84090918e-03, 5.32670459e-03, 1.06534094e-03, 0.,
          1.06534094e-03, 1.06534094e-03, 2.84090918e-03, 0.,
          3.55113647e-04, 3.55113647e-04, 0., 2.84090918e-03, 0.,
          1.06534094e-03, 0., 6.74715918e-03, 3.55113647e-04,
          1.77556823e-03, 2.13068188e-03, 0., 3.55113647e-04,
          1.42045459e-03, 0., 1.77556823e-03, 7.10227294e-04,
          3.55113647e-04, 6.03693211e-03, 0., 7.10227294e-04,
          1.06534094e-03, 2.13068188e-03, 3.55113647e-04, 0.,
          2.13068188e-03, 1.06534094e-03, 2.48579541e-03, 3.55113647e-04,
          0., 1.42045459e-03, 1.06534094e-03, 0., 7.10227294e-04, 0., 0.,
          1.42045459e-03, 0., 3.55113647e-04, 7.10227294e-04, 0., 0., 0.,
          0., 0., 1.06534094e-03, 3.55113647e-04, 3.55113647e-04,
          1.42045459e-03, 0., 4.26136376e-03, 0., 2.84090918e-03,
          1.77556823e-03, 0., 7.10227294e-04, 0., 0., 1.77556823e-03,
          1.77556823e-03, 7.10227294e-04, 2.48579541e-03, 0.,
          7.10227294e-04, 0., 0., 3.55113647e-04, 1.77556823e-03, 0., 0.,
          1.42045459e-03, 3.55113647e-04, 1.06534094e-03, 7.10227294e-04,
          1.06534094e-03, 1.06534094e-03, 0., 1.77556823e-03,
          3.55113647e-04, 1.06534094e-03, 7.10227294e-04, 0.,
          2.48579541e-03, 0., 7.10227294e-04, 0., 7.10227294e-04, 0.,
          6.74715918e-03, 1.06534094e-03, 7.10227294e-04, 2.13068188e-03,
          1.06534094e-03, 0., 3.55113647e-04, 0., 7.10227294e-04, 0.,
          1.77556823e-03, 0., 0., 7.45738670e-03, 3.55113647e-04,
          3.55113647e-04, 2.48579541e-03, 0., 7.10227294e-04,
          1.77556823e-03, 4.97159082e-03, 7.10227294e-04, 0.,
          2.84090918e-03, 1.06534094e-03, 2.48579541e-03, 1.06534094e-03,
          0., 3.55113647e-04, 0., 0., 2.13068188e-03, 6.39204588e-03,
          1.42045459e-03, 1.42045459e-03, 3.90625000e-03, 7.10227294e-04,
          1.06534094e-03, 3.55113647e-04, 3.55113647e-04, 2.48579541e-03,
          1.42045459e-03, 0., 0., 7.10227294e-04, 1.06534094e-03, 0.,
          5.32670459e-03, 4.97159082e-03, 0., 1.06534094e-03,
          5.32670459e-03, 0., 3.19602294e-03, 1.06534094e-03,
          7.10227294e-04, 0., 7.10227294e-04, 0., 7.10227294e-04,
          1.77556823e-03, 0., 7.10227294e-04, 7.10227294e-04,
          8.52272753e-03, 0., 1.06534094e-03, 0., 3.55113647e-04, 0.,
          7.10227294e-04, 1.06534094e-03, 0., 3.55113647e-03, 0.,
          7.10227294e-04, 3.55113647e-04, 3.55113647e-04, 0., 0.,
          7.10227294e-04, 1.06534094e-03, 3.55113647e-04, 0., 0.,
          1.42045459e-03, 0., 0., 0., 0., 4.97159082e-03, 3.55113647e-04,
          0., 7.10227294e-04, 1.06534094e-03, 3.55113647e-04,
          1.06534094e-03, 5.68181835e-03, 1.42045459e-03, 0.,
          7.10227294e-04, 3.55113647e-04, 7.10227294e-04, 0., 0., 0.,
          3.55113647e-04, 2.13068188e-03, 3.55113647e-04, 3.55113647e-04,
          0., 2.13068188e-03, 0., 0., 3.55113647e-04, 2.13068188e-03,
          7.10227294e-04, 3.55113647e-04, 4.26136376e-03, 1.42045459e-03,
          1.42045459e-03, 0., 3.19602294e-03, 7.10227294e-04,
          3.55113647e-04, 7.10227294e-04, 1.06534094e-03, 0., 0.,
          3.55113647e-04, 0., 0., 3.90625000e-03, 1.06534094e-03,
          3.55113647e-04, 0., 0., 3.55113647e-04, 1.77556823e-03, 0., 0.,
          1.42045459e-03, 0., 3.55113647e-04, 0., 8.16761423e-03,
          1.42045459e-03, 3.55113647e-04, 3.19602294e-03, 1.42045459e-03,
          1.06534094e-03, 0., 0., 3.55113647e-04, 0., 0., 0.,
          7.10227294e-04, 7.10227294e-04, 0., 7.10227294e-04,
          3.55113647e-04, 0., 0., 0., 7.10227294e-04, 0., 0.,
          4.26136376e-03, 1.42045459e-03, 0., 0., 0., 3.55113647e-04, 0.,
          0., 5.68181835e-03, 1.06534094e-03, 7.10227294e-04,
          7.10227294e-04, 7.10227294e-04, 1.81364089e-01, 5.68627007e-02,
          3.57581638e-02, 2.73210835e-02, 1.38156004e-02, 8.54124222e-03,
          4.21143835e-03, 2.40044878e-03, 1.03924749e-03, 7.90680351e-04,
          4.40319011e-04, 2.58036394e-04, 1.27834544e-04, 8.04884185e-05,
          5.20807444e-05, 7.33865018e-05, 1.13630711e-04, 6.62845850e-05,
          1.65711463e-05, 0., 0., 0., 0., 0., 0., 0., 0., 0., 0., 0.,
          1.95776252e-03, 5.79043152e-03, 8.44891649e-03, 9.95689072e-03,
          9.98766627e-03, 1.22366073e-02, 1.20945685e-02, 1.65616758e-02,
          1.81619748e-02, 2.39689779e-02, 2.17437092e-02, 2.34742109e-02,
          1.88461263e-02, 1.91704482e-02, 1.78731643e-02, 1.96391754e-02,
          1.71014220e-02, 1.30983070e-02, 1.24875419e-02, 9.84326005e-03,
          9.40057449e-03, 1.08351614e-02, 1.09464256e-02, 5.72888181e-03,
          2.85733887e-03, 7.55170768e-04, 3.66932509e-04, 0., 0., 0.,
          1.25467239e-04, 8.35659215e-04, 1.34463003e-03, 1.59082992e-03,
          1.98380277e-03, 2.99937720e-03, 3.49177700e-03, 5.12758596e-03,
          5.40929521e-03, 6.39646221e-03, 5.82830841e-03, 7.18714250e-03,
          6.86518895e-03, 8.38263240e-03, 8.53413995e-03, 1.02386009e-02,
          1.08919768e-02, 1.07428366e-02, 1.29278610e-02, 1.25656631e-02,
          1.60763785e-02, 1.58822592e-02, 1.76601056e-02, 1.58869941e-02,
          1.90284103e-02, 1.99777000e-02, 2.66700741e-02, 1.85004994e-02,
          1.66942459e-02, 4.34874184e-02 ]
      - [ 4.70366882e-04, 1.41110062e-03, 0., 4.70366882e-04,
          3.29256826e-03, 1.41110062e-03, 4.23330208e-03, 0.,
          9.40733764e-04, 1.41110062e-03, 4.70366882e-04, 9.40733764e-04,
          0., 1.88146753e-03, 0., 2.82220123e-03, 2.35183444e-03, 0.,
          9.40733764e-04, 0., 4.70366882e-04, 0., 0., 0., 7.05550332e-03,
          1.88146753e-03, 0., 6.11476926e-03, 0., 0., 1.41110062e-03,
          1.88146753e-03, 2.35183444e-03, 9.40733764e-04, 0.,
          1.41110062e-03, 4.70366882e-04, 4.70366882e-04, 0.,
          2.35183444e-03, 0., 9.40733764e-04, 0., 2.35183444e-03,
          1.41110062e-03, 7.05550332e-03, 9.40733764e-04, 4.70366882e-04,
          4.70366882e-04, 4.70366882e-04, 0., 9.40733764e-04,
          1.41110062e-03, 9.40733764e-04, 0., 4.70366882e-04,
          4.70366882e-04, 4.70366882e-04, 1.41110062e-03, 4.70366882e-04,
          4.70366882e-04, 4.70366882e-04, 4.70366882e-04, 0.,
          4.70366882e-04, 1.41110062e-03, 2.35183444e-03, 2.82220123e-03,
          0., 1.88146753e-03, 2.35183444e-03, 4.70366882e-04,
          4.70366882e-04, 0., 1.88146753e-03, 9.40733764e-04, 0., 0.,
          4.23330208e-03, 0., 2.82220123e-03, 4.70366882e-04,
          4.70366882e-04, 0., 0., 0., 9.40733764e-04, 3.76293506e-03,
          9.40733764e-04, 2.35183444e-03, 0., 4.70366882e-04, 0.,
          9.40733764e-04, 3.29256826e-03, 0., 1.41110062e-03, 0., 0.,
          4.70366882e-04, 1.88146753e-03, 4.70366882e-04, 2.35183444e-03,
          9.40733764e-04, 0., 0., 9.40733764e-04, 0., 3.29256826e-03, 0.,
          0., 4.70366888e-03, 4.70366882e-04, 4.70366882e-04,
          4.70366888e-03, 9.40733764e-04, 4.70366882e-04, 2.82220123e-03,
          0., 4.70366882e-04, 0., 0., 2.82220123e-03, 2.82220123e-03,
          9.40733764e-04, 1.41110062e-03, 9.40733764e-04, 0., 0.,
          1.41110062e-03, 1.41110062e-03, 0., 0., 4.70366882e-04,
          4.70366882e-04, 4.70366882e-04, 0., 0., 0., 9.40733764e-04,
          1.41110062e-03, 0., 2.35183444e-03, 9.40733764e-04, 0.,
          6.11476926e-03, 1.88146753e-03, 1.88146753e-03, 4.70366882e-04,
          1.88146753e-03, 2.35183444e-03, 9.40733764e-04, 0., 0.,
          9.40733764e-04, 1.41110062e-03, 9.40733764e-04, 0.,
          1.41110062e-03, 4.70366882e-04, 4.70366882e-04, 9.40733775e-03,
          0., 2.35183444e-03, 2.35183444e-03, 4.70366882e-04,
          4.70366882e-04, 9.40733764e-04, 0., 0., 2.82220123e-03,
          4.70366882e-04, 0., 4.70366882e-04, 9.40733764e-04,
          4.70366882e-04, 1.88146753e-03, 0., 1.41110062e-03, 0.,
          4.70366882e-04, 0., 0., 4.70366882e-04, 0., 3.76293506e-03, 0.,
          0., 1.41110062e-03, 0., 1.88146753e-03, 0., 4.70366882e-04, 0.,
          1.41110062e-03, 9.40733764e-04, 0., 9.40733764e-04,
          9.40733764e-04, 0., 0., 4.70366882e-04, 0., 4.70366882e-04,
          1.88146753e-03, 0., 4.70366882e-04, 0., 0., 0., 0.,
          4.70366882e-04, 0., 4.70366882e-04, 0., 9.87770408e-03, 0., 0.,
          0., 1.41110062e-03, 9.40733764e-04, 0., 0., 9.40733764e-04, 0.,
          0., 1.88146753e-03, 0., 2.82220123e-03, 1.88146753e-03,
          6.58513652e-03, 0., 0., 0., 2.82220123e-03, 3.76293506e-03,
          4.70366888e-03, 1.41110062e-03, 4.70366882e-04, 4.23330208e-03,
          1.41110062e-03, 9.40733764e-04, 0., 2.82220123e-03,
          9.40733764e-04, 1.41110062e-03, 4.70366882e-04, 4.70366882e-04,
          0., 9.40733764e-04, 5.17403567e-03, 0., 0., 1.41110062e-03,
          1.41110062e-03, 1.41110062e-03, 0., 0., 4.70366882e-04,
          3.29256826e-03, 4.70366882e-04, 9.40733764e-04, 1.88146753e-03,
          1.88146753e-03, 0., 0., 9.40733764e-04, 2.35183444e-03,
          3.29256826e-03, 1.41110062e-03, 2.35183444e-03, 4.70366882e-04,
          0., 2.35183444e-03, 0., 1.88146753e-03, 0., 4.70366882e-04,
          3.76293506e-03, 4.70366882e-04, 4.70366882e-04, 3.76293506e-03,
          0., 4.70366882e-04, 3.29256826e-03, 0., 0., 0., 0.,
          9.40733764e-04, 1.17591722e-02, 4.70366882e-04, 9.40733764e-04,
          1.41110062e-03, 0., 4.23330208e-03, 0., 9.40733764e-04,
          4.70366882e-04, 9.40733764e-04, 9.40733764e-04, 4.70366882e-04,
          4.70366882e-04, 0., 0., 2.35183444e-03, 1.41110062e-03,
          9.40733764e-04, 4.70366882e-04, 4.70366882e-04, 0., 0., 0.,
          9.40733764e-04, 2.82220123e-03, 0., 9.40733764e-04,
          4.70366882e-04, 0., 9.40733764e-04, 9.40733764e-04,
          2.82220123e-03, 4.70366882e-04, 0., 4.70366882e-04,
          9.40733764e-04, 0., 1.41110062e-03, 0., 1.41110062e-03,
          4.70366882e-04, 4.23330208e-03, 1.41110062e-03, 0., 0.,
          1.41110062e-03, 0., 9.40733764e-04, 9.40733764e-04,
          4.70366882e-04, 4.70366882e-04, 2.82220123e-03, 0.,
          1.88146753e-03, 0., 0., 0., 0., 0., 2.35183444e-03,
          9.40733764e-04, 0., 0., 4.70366888e-03, 1.41110062e-03,
          9.40733764e-04, 2.35183444e-03, 0., 0., 0., 9.40733764e-04,
          9.40733764e-04, 0., 1.41110062e-03, 4.70366888e-03,
          9.40733764e-04, 2.35183444e-03, 1.41110062e-03, 0., 0.,
          1.88146753e-03, 0., 0., 0., 0., 0., 0., 4.70366882e-04,
          7.05550332e-03, 0., 4.70366882e-04, 4.70366882e-04, 0.,
          4.70366882e-04, 1.88146753e-03, 0., 0., 0., 0., 1.41110062e-03,
          1.41110062e-03, 0., 0., 1.41110062e-03, 2.82220123e-03, 0.,
          9.40733764e-04, 0., 4.70366882e-04, 9.40733764e-04,
          4.70366882e-04, 0., 4.70366882e-04, 0., 0., 1.88146753e-03,
          9.40733764e-04, 0., 1.41110062e-03, 0., 1.41110062e-03,
          2.82220123e-03, 4.70366882e-04, 1.41110062e-03, 0.,
          4.70366882e-04, 0., 0., 9.40733764e-04, 3.76293506e-03,
          2.35183444e-03, 0., 0., 0., 9.40733764e-04, 1.41110062e-03,
          1.41110062e-03, 9.40733764e-04, 0., 4.70366888e-03, 0., 0., 0.,
          1.41110062e-03, 9.40733764e-04, 4.70366882e-04, 4.70366882e-04,
          2.35183444e-03, 0., 2.35183444e-03, 2.35183444e-03,
          1.88146753e-03, 2.35183444e-03, 9.40733764e-04, 4.70366882e-04,
          0., 1.88146753e-03, 2.82220123e-03, 2.35183444e-03,
          4.70366882e-04, 4.70366882e-04, 0., 0., 0., 4.70366882e-04,
          4.70366882e-04, 4.23330208e-03, 4.70366882e-04, 4.70366882e-04,
          0., 9.40733764e-04, 0., 9.40733764e-04, 0., 4.70366882e-04,
          2.82220123e-03, 1.41110062e-03, 0., 2.35183444e-03,
          9.40733764e-04, 0., 0., 0., 1.41110062e-03, 1.41110062e-03,
          9.40733764e-04, 0., 0., 2.82220123e-03, 1.88146753e-03, 0., 0.,
          1.41110062e-03, 1.41110062e-03, 0., 9.40733764e-04,
          3.29256826e-03, 0., 9.40733764e-04, 4.70366882e-04,
          9.40733764e-04, 0., 0., 4.70366882e-04, 2.35183444e-03,
          4.23330208e-03, 1.88146753e-03, 0., 1.41110062e-03, 0.,
          4.70366882e-04, 4.70366882e-04, 1.41110062e-03, 0.,
          9.40733764e-04, 9.40733764e-04, 1.88146753e-03, 0.,
          3.29256826e-03, 1.41110062e-03, 9.40733764e-04, 0.,
          1.88146753e-03, 0., 4.70366882e-04, 0., 9.40733764e-04,
          7.05550332e-03, 4.70366882e-04, 0., 1.88146753e-03, 0., 0.,
          4.70366882e-04, 9.40733764e-04, 1.41110062e-03, 0.,
          4.70366882e-04, 0., 4.70366882e-04, 0., 2.35183444e-03,
          4.70366882e-04, 4.70366882e-04, 2.35183444e-03, 9.40733764e-04,
          0., 0., 0., 0., 0., 4.70366888e-03, 9.40733764e-04, 0.,
          2.35183444e-03, 9.40733764e-04, 0., 0., 0., 9.40733764e-04, 0.,
          1.08184386e-02, 0., 0., 4.70366882e-04, 0., 4.70366882e-04, 0.,
          9.40733764e-04, 4.70366882e-04, 9.40733764e-04, 4.70366882e-04,
          1.41110062e-03, 9.40733764e-04, 0., 4.70366882e-04,
          4.70366882e-04, 0., 1.41110062e-03, 2.35183444e-03,
          3.29256826e-03, 4.70366882e-04, 0., 9.40733764e-04,
          4.70366882e-04, 0., 0., 9.40733764e-04, 4.70366882e-04, 0., 0.,
          4.23330208e-03, 3.29256826e-03, 1.41110062e-03, 1.88146753e-03,
          4.70366882e-04, 0., 4.70366882e-04, 1.41110062e-03,
          9.40733764e-04, 4.70366882e-04, 9.40733764e-04, 0.,
          4.70366882e-04, 1.41110062e-03, 2.82220123e-03, 4.70366882e-04,
          2.82220123e-03, 4.70366882e-04, 4.70366882e-04, 1.41110062e-03,
          9.40733764e-04, 0., 4.70366882e-04, 2.35183444e-03,
          4.70366882e-04, 1.41110062e-03, 4.70366882e-04, 0., 0.,
          1.88146753e-03, 9.40733764e-04, 0., 1.88146753e-03,
          4.70366882e-04, 4.70366882e-04, 0., 0., 4.70366882e-04,
          1.41110062e-03, 0., 9.40733764e-04, 1.88146753e-03,
          1.41110062e-03, 9.40733764e-04, 1.41110062e-03, 0., 0.,
          1.41110062e-03, 9.40733764e-04, 3.29256826e-03, 0., 0.,
          4.70366882e-04, 9.40733764e-04, 0., 0., 1.41110062e-03,
          2.35183444e-03, 0., 1.88146753e-03, 0., 0., 4.70366882e-04, 0.,
          4.70366882e-04, 4.70366882e-04, 7.52587011e-03, 2.82220123e-03,
          9.40733764e-04, 9.40733764e-04, 9.40733764e-04, 3.29256826e-03,
          9.40733764e-04, 6.11476926e-03, 4.70366882e-04, 4.70366882e-04,
          0., 0., 9.40733764e-04, 0., 4.70366888e-03, 9.40733764e-04, 0.,
          0., 0., 1.41110062e-03, 9.40733764e-04, 0., 0., 4.70366882e-04,
          3.29256826e-03, 4.70366882e-04, 9.40733764e-04, 4.70366882e-04,
          1.41110062e-03, 3.76293506e-03, 0., 0., 0., 9.40733764e-04,
          9.40733764e-04, 1.41110062e-03, 1.41110062e-03, 4.70366882e-04,
          2.35183444e-03, 1.88146753e-03, 1.41110062e-03, 0.,
          9.40733764e-04, 4.70366882e-04, 1.88146753e-03, 1.41110062e-03,
          0., 0., 2.35183444e-03, 9.40733764e-04, 9.40733764e-04, 0.,
          9.40733764e-04, 0., 4.70366882e-04, 7.52587011e-03,
          9.40733764e-04, 1.41110062e-03, 9.40733764e-04, 0., 0.,
          9.40733764e-04, 0., 1.88146753e-03, 0., 9.40733764e-04, 0.,
          8.93697049e-03, 4.70366882e-04, 1.88146753e-03, 1.41110062e-03,
          4.70366882e-04, 9.40733764e-04, 0., 2.35183444e-03,
          4.70366882e-04, 0., 4.70366882e-04, 4.23330208e-03,
          4.70366882e-04, 9.40733764e-04, 1.41110062e-03, 2.82220123e-03,
          0., 4.70366882e-04, 0., 0., 9.40733764e-04, 0., 2.35183444e-03,
          0., 2.35183444e-03, 4.70366882e-04, 4.70366882e-04, 0.,
          2.35183444e-03, 0., 4.70366882e-04, 5.17403567e-03,
          3.29256826e-03, 0., 4.70366882e-04, 0., 0., 4.23330208e-03, 0.,
          0., 0., 0., 1.41110062e-03, 1.88146753e-03, 3.29256826e-03, 0.,
          2.35183444e-03, 9.40733764e-04, 1.41110062e-03, 9.40733764e-04,
          0., 4.70366882e-04, 4.70366882e-04, 0., 9.40733764e-04,
          9.40733764e-04, 0., 0., 0., 9.40733764e-04, 0., 1.88146753e-03,
          0., 0., 4.70366882e-04, 1.41110062e-03, 0., 9.40733764e-04, 0.,
          0., 9.40733775e-03, 4.70366882e-04, 1.88146753e-03, 0., 0.,
          4.70366882e-04, 4.70366882e-04, 0., 2.35183444e-03, 0.,
          4.70366882e-04, 4.70366882e-04, 9.40733764e-04, 1.41110062e-03,
          1.88146753e-03, 0., 0., 2.35183444e-03, 4.70366882e-04, 0., 0.,
          0., 9.40733764e-04, 0., 9.40733764e-04, 0., 4.70366882e-04,
          1.88146753e-03, 4.70366882e-04, 0., 1.41110062e-03,
          4.70366882e-04, 0., 5.17403567e-03, 4.70366882e-04,
          9.40733764e-04, 0., 9.40733764e-04, 1.41110062e-03,
          4.70366882e-04, 0., 1.88146753e-03, 0., 4.70366882e-04, 0.,
          4.70366882e-04, 4.70366882e-04, 0., 1.88146753e-03, 0.,
          4.70366882e-04, 0., 0., 1.88146753e-03, 2.82220123e-03,
          2.82220123e-03, 0., 4.70366882e-04, 0., 0., 0., 4.70366882e-04,
          0., 4.70366882e-04, 0., 0., 9.40733764e-04, 4.70366882e-04,
          1.41110062e-03, 9.40733764e-04, 0., 1.41110062e-03, 0.,
          4.70366882e-04, 4.70366882e-04, 0., 4.70366882e-04, 0.,
          9.40733764e-04, 4.70366882e-04, 0., 9.40733764e-04,
          5.17403567e-03, 2.82220123e-03, 0., 2.35183444e-03,
          4.23330208e-03, 2.82220123e-03, 2.35183444e-03, 9.40733764e-04,
          1.26999058e-02, 0., 0., 4.70366882e-04, 4.70366882e-04,
          1.88146753e-03, 1.41110062e-03, 0., 4.70366882e-04,
          4.23330208e-03, 0., 0., 0., 2.35183444e-03, 4.70366882e-04,
          9.40733764e-04, 0., 0., 4.70366882e-04, 4.70366882e-04, 0., 0.,
          0., 4.70366882e-04, 4.70366882e-04, 4.70366882e-04,
          9.40733764e-04, 4.70366882e-04, 0., 0., 0., 4.70366882e-04, 0.,
          2.82220123e-03, 0., 4.70366882e-04, 0., 0., 0., 2.82220123e-03,
          0., 1.41110062e-03, 0., 0., 4.70366882e-04, 2.82220123e-03,
          7.99623691e-03, 0., 0., 4.23330208e-03, 4.70366882e-04,
          1.41110062e-03, 4.70366882e-04, 4.70366882e-04, 2.82220123e-03,
          1.41110062e-03, 5.17403567e-03, 1.41110062e-03, 4.70366882e-04,
          4.70366882e-04, 1.88146753e-03, 0., 4.70366882e-04, 0.,
          2.82220123e-03, 9.40733764e-04, 9.40733764e-04, 9.40733764e-04,
          1.41110062e-03, 0., 0., 0., 1.41110062e-03, 0., 9.40733764e-04,
          0., 0., 4.70366882e-04, 0., 4.70366882e-04, 0., 0.,
          1.41110062e-03, 1.41110062e-03, 2.82220123e-03, 1.41110062e-03,
          9.40733764e-04, 0., 0., 4.70366882e-04, 2.82220123e-03,
          1.41110062e-03, 3.76293506e-03, 0., 0., 1.41110062e-03, 0., 0.,
          0., 9.40733764e-04, 0., 1.41110062e-03, 4.70366882e-04, 0., 0.,
          0., 1.41110062e-03, 0., 0., 4.70366882e-04, 2.82220123e-03, 0.,
          0., 1.41110062e-03, 1.88146753e-03, 0., 4.70366882e-04, 0.,
          9.40733764e-04, 0., 9.40733764e-04, 0., 1.88146753e-03,
          4.70366882e-04, 0., 9.40733764e-04, 1.88549027e-01,
          5.77400327e-02, 3.25839892e-02, 2.17040610e-02, 1.12219723e-02,
          6.98401639e-03, 3.94685473e-03, 2.70482036e-03, 1.81938591e-03,
          1.61076302e-03, 1.16925873e-03, 9.94597678e-04, 7.15625123e-04,
          5.91906894e-04, 3.95413197e-04, 2.78972497e-04, 1.79512746e-04,
          8.24788294e-05, 4.85169585e-05, 9.70339170e-06, 2.42584792e-06,
          0., 0., 0., 0., 0., 0., 0., 0., 0., 2.05469318e-03,
          5.16463025e-03, 6.59345463e-03, 9.09692980e-03, 1.12583600e-02,
          1.65612642e-02, 1.86280869e-02, 2.51463391e-02, 2.58983523e-02,
          3.13031413e-02, 3.00489776e-02, 3.36173996e-02, 2.61360854e-02,
          2.33609155e-02, 1.73860528e-02, 1.61755532e-02, 1.10788476e-02,
          7.30422791e-03, 6.23928104e-03, 4.13607061e-03, 2.86977808e-03,
          1.47734140e-03, 7.44735298e-04, 4.07542451e-04, 3.20211926e-04,
          1.96493682e-04, 1.06737309e-04, 2.18326313e-05, 0., 0.,
          2.52288184e-04, 5.45815798e-04, 1.02613366e-03, 1.81696005e-03,
          2.06197076e-03, 2.85037141e-03, 2.92557268e-03, 3.98566807e-03,
          4.49509639e-03, 6.03550952e-03, 6.47458807e-03, 8.53655860e-03,
          8.99504405e-03, 1.06446203e-02, 1.05500128e-02, 1.33591443e-02,
          1.48122273e-02, 1.41451191e-02, 1.69639550e-02, 1.63914543e-02,
          2.11679488e-02, 1.94504485e-02, 2.40328759e-02, 2.40813922e-02,
          2.77104601e-02, 1.99986901e-02, 1.97755117e-02, 1.50960516e-02,
          1.05209025e-02, 4.63094376e-03 ]
      - [ 3.99680255e-04, 3.99680255e-04, 3.99680255e-04, 7.99360510e-04,
          2.79776170e-03, 3.99680255e-04, 0., 7.99360510e-04,
          1.19904079e-03, 3.19744204e-03, 7.99360510e-04, 3.99680255e-04,
          3.99680255e-04, 1.19904079e-03, 3.99680249e-03, 2.39808159e-03,
          0., 3.99680255e-04, 2.39808159e-03, 0., 1.99840125e-03,
          1.19904079e-03, 3.99680255e-04, 7.99360510e-04, 0.,
          3.99680255e-04, 1.19904079e-03, 1.19904079e-03, 0.,
          3.99680255e-04, 7.99360510e-04, 1.59872102e-03, 3.99680255e-04,
          0., 1.19904079e-03, 2.79776170e-03, 3.99680255e-04,
          3.99680255e-04, 1.59872102e-03, 2.39808159e-03, 0., 0., 0., 0.,
          3.19744204e-03, 7.99360510e-04, 3.19744204e-03, 3.99680255e-04,
          3.99680255e-04, 7.99360510e-04, 3.99680255e-04, 1.19904079e-03,
          1.19904079e-03, 2.39808159e-03, 3.19744204e-03, 1.19904079e-03,
          0., 1.59872102e-03, 1.19904079e-03, 3.99680255e-04,
          7.99360510e-04, 1.99840125e-03, 3.99680255e-04, 7.99360510e-04,
          3.99680255e-04, 1.19904079e-03, 3.99680255e-04, 3.99680255e-04,
          3.99680255e-04, 3.59712238e-03, 1.59872102e-03, 2.39808159e-03,
          1.59872102e-03, 0., 7.99360510e-04, 1.19904079e-03,
          3.99680255e-04, 2.79776170e-03, 3.99680255e-04, 0.,
          3.99680255e-04, 1.19904079e-03, 1.19904079e-03, 3.99680255e-04,
          0., 1.99840125e-03, 1.19904079e-03, 3.99680255e-04,
          5.59552340e-03, 2.39808159e-03, 3.99680255e-04, 0.,
          7.99360510e-04, 1.59872102e-03, 2.39808159e-03, 0.,
          2.39808159e-03, 1.99840125e-03, 3.99680255e-04, 1.59872102e-03,
          3.99680255e-04, 0., 1.19904079e-03, 2.39808159e-03,
          1.59872102e-03, 1.19904079e-03, 0., 0., 1.59872102e-03,
          1.99840125e-03, 1.59872102e-03, 3.99680255e-04, 0., 0.,
          1.99840125e-03, 3.99680255e-04, 7.99360510e-04, 3.99680255e-04,
          7.99360510e-04, 1.99840125e-03, 1.99840125e-03, 1.59872102e-03,
          3.99680255e-04, 7.99360510e-04, 0., 3.99680255e-04, 0., 0.,
          1.59872102e-03, 0., 3.99680255e-04, 1.59872102e-03, 0.,
          1.19904079e-03, 7.99360510e-04, 3.99680255e-04, 0.,
          4.39648284e-03, 1.19904079e-03, 0., 2.39808159e-03, 0.,
          3.99680255e-04, 0., 0., 7.99360510e-04, 3.99680255e-04,
          2.39808159e-03, 1.19904079e-03, 3.99680255e-04, 0.,
          7.99360510e-04, 0., 3.99680255e-04, 2.79776170e-03,
          3.99680255e-04, 3.99680255e-04, 3.99680255e-04, 1.19904079e-03,
          7.99360510e-04, 0., 2.79776170e-03, 1.19904079e-03,
          1.59872102e-03, 1.19904079e-03, 2.39808159e-03, 1.59872102e-03,
          3.99680255e-04, 5.59552340e-03, 0., 7.99360510e-04,
          2.39808159e-03, 0., 3.99680255e-04, 0., 1.59872102e-03,
          1.19904079e-03, 1.59872102e-03, 1.99840125e-03, 0.,
          1.59872102e-03, 0., 3.99680255e-04, 7.99360510e-04, 0.,
          1.19904079e-03, 0., 3.99680255e-04, 0., 7.99360510e-04,
          7.99360510e-04, 1.59872102e-03, 0., 0., 0., 7.99360510e-04, 0.,
          1.19904079e-03, 0., 0., 1.19904079e-03, 1.19904079e-03, 0.,
          2.39808159e-03, 2.79776170e-03, 3.99680255e-04, 3.99680255e-04,
          0., 1.99840125e-03, 7.99360510e-04, 3.99680255e-04,
          3.99680255e-04, 0., 1.59872102e-03, 0., 3.99680255e-04, 0.,
          1.19904079e-03, 3.99680249e-03, 3.99680255e-04, 0.,
          7.99360510e-04, 3.99680255e-04, 2.79776170e-03, 7.99360510e-04,
          0., 7.99360510e-04, 7.99360510e-04, 2.39808159e-03,
          1.59872102e-03, 1.99840125e-03, 1.99840125e-03, 2.39808159e-03,
          1.59872102e-03, 3.99680255e-04, 1.19904079e-03, 1.19904079e-03,
          1.59872102e-03, 7.99360510e-04, 4.39648284e-03, 2.39808159e-03,
          2.39808159e-03, 1.19904079e-03, 3.99680255e-04, 3.99680255e-04,
          1.99840125e-03, 7.99360510e-04, 3.99680255e-04, 0., 0.,
          3.99680255e-04, 0., 0., 1.99840125e-03, 7.99360510e-04,
          3.99680255e-04, 1.59872102e-03, 0., 3.59712238e-03,
          7.99360510e-04, 3.99680255e-04, 0., 3.99680249e-03, 0., 0.,
          3.99680255e-04, 3.99680255e-04, 2.39808159e-03, 0.,
          3.99680255e-04, 1.59872102e-03, 3.19744204e-03, 3.99680255e-04,
          1.59872102e-03, 7.99360510e-04, 2.39808159e-03, 0.,
          1.19904079e-03, 7.99360510e-04, 0., 3.99680255e-04,
          2.79776170e-03, 1.19904079e-03, 2.39808159e-03, 2.79776170e-03,
          1.19904079e-03, 0., 0., 3.99680255e-04, 0., 0., 0.,
          1.19904079e-03, 2.39808159e-03, 0., 1.19904079e-03, 0.,
          1.59872102e-03, 3.99680255e-04, 1.59872102e-03, 3.99680255e-04,
          0., 3.99680255e-04, 3.99680255e-04, 0., 7.99360510e-04,
          3.99680255e-04, 0., 1.99840125e-03, 7.99360510e-04,
          1.99840125e-03, 2.39808159e-03, 0., 3.99680255e-04,
          3.99680255e-04, 1.19904079e-03, 1.59872102e-03, 0., 0., 0., 0.,
          2.79776170e-03, 1.59872102e-03, 3.99680255e-04, 3.19744204e-03,
          1.59872102e-03, 0., 1.19904079e-03, 3.99680255e-04,
          1.99840125e-03, 1.99840125e-03, 3.99680255e-04, 1.19904079e-03,
          7.99360510e-04, 5.19584352e-03, 1.19904079e-03, 0.,
          1.99840125e-03, 3.99680255e-04, 2.79776170e-03, 3.99680255e-04,
          0., 7.99360510e-04, 7.99360510e-04, 1.59872102e-03,
          3.99680255e-04, 1.19904079e-03, 0., 1.99840125e-03,
          3.99680249e-03, 7.99360510e-04, 0., 3.99680255e-04, 0.,
          1.59872102e-03, 3.99680255e-04, 0., 3.99680255e-04, 0.,
          7.99360510e-04, 1.59872102e-03, 0., 0., 7.99360510e-04,
          2.79776170e-03, 7.99360510e-04, 3.99680255e-04, 1.19904079e-03,
          1.19904079e-03, 0., 1.99840125e-03, 0., 7.99360510e-04, 0.,
          3.59712238e-03, 0., 3.59712238e-03, 1.99840125e-03,
          1.19904079e-03, 3.99680255e-04, 3.99680255e-04, 3.99680255e-04,
          1.99840125e-03, 0., 1.99840125e-03, 7.99360510e-04, 0.,
          7.99360510e-04, 0., 3.99680255e-04, 1.59872102e-03,
          7.99360510e-04, 0., 3.99680255e-04, 0., 2.79776170e-03,
          1.59872102e-03, 3.99680255e-04, 3.99680255e-04, 1.59872102e-03,
          3.99680255e-04, 0., 7.99360510e-04, 0., 1.59872102e-03,
          1.59872102e-03, 1.59872102e-03, 7.99360510e-04, 0.,
          1.19904079e-03, 3.99680255e-04, 1.99840125e-03, 0.,
          1.99840125e-03, 3.99680255e-04, 0., 7.99360510e-04,
          3.99680255e-04, 1.19904079e-03, 0., 0., 0., 0., 7.99360510e-04,
          3.99680255e-04, 1.59872102e-03, 1.99840125e-03, 3.59712238e-03,
          3.59712238e-03, 3.99680255e-04, 1.19904079e-03, 0.,
          3.99680249e-03, 3.99680255e-04, 1.99840125e-03, 3.99680255e-04,
          3.59712238e-03, 1.19904079e-03, 0., 2.39808159e-03,
          7.99360510e-04, 3.99680255e-04, 7.99360510e-04, 3.99680255e-04,
          3.99680255e-04, 1.19904079e-03, 3.99680255e-04, 0.,
          3.99680255e-04, 3.99680255e-04, 0., 1.19904079e-03, 0.,
          7.99360510e-04, 1.19904079e-03, 2.79776170e-03, 7.99360510e-04,
          3.99680255e-04, 0., 0., 3.99680255e-04, 7.99360510e-04,
          1.99840125e-03, 2.79776170e-03, 0., 0., 2.39808159e-03, 0.,
          3.19744204e-03, 7.99360510e-04, 3.99680255e-04, 0.,
          1.59872102e-03, 7.99360510e-04, 4.39648284e-03, 3.59712238e-03,
          7.99360510e-04, 1.99840125e-03, 2.79776170e-03, 2.79776170e-03,
          7.99360510e-04, 2.39808159e-03, 1.59872102e-03, 1.99840125e-03,
          2.39808159e-03, 0., 1.99840125e-03, 0., 0., 0., 7.99360510e-04,
          0., 3.19744204e-03, 7.99360510e-04, 1.99840125e-03,
          3.99680255e-04, 1.59872102e-03, 1.99840125e-03, 2.79776170e-03,
          1.19904079e-03, 1.19904079e-03, 7.99360510e-04, 2.39808159e-03,
          1.59872102e-03, 3.99680255e-04, 1.19904079e-03, 5.59552340e-03,
          0., 0., 3.99680255e-04, 1.59872102e-03, 3.99680255e-04,
          1.59872102e-03, 0., 0., 3.99680255e-04, 7.99360510e-04,
          1.99840125e-03, 7.99360510e-04, 0., 7.99360510e-04, 0., 0.,
          1.59872102e-03, 3.99680255e-04, 1.19904079e-03, 1.99840125e-03,
          7.99360510e-04, 1.19904079e-03, 3.99680255e-04, 3.99680255e-04,
          3.99680255e-04, 0., 0., 3.99680255e-04, 1.59872102e-03,
          1.59872102e-03, 3.99680255e-04, 0., 3.99680255e-04,
          7.99360510e-04, 2.39808159e-03, 0., 1.19904079e-03, 0.,
          2.39808159e-03, 3.99680255e-04, 0., 1.99840125e-03,
          3.99680255e-04, 0., 0., 0., 0., 7.99360510e-04, 0., 0.,
          7.99360510e-04, 3.99680255e-04, 1.59872102e-03, 0.,
          3.99680255e-04, 3.99680255e-04, 7.99360510e-04, 2.79776170e-03,
          2.39808159e-03, 0., 3.99680255e-04, 1.99840125e-03,
          1.19904079e-03, 1.59872102e-03, 7.99360510e-04, 1.19904079e-03,
          1.19904079e-03, 0., 0., 7.99360510e-04, 1.59872102e-03,
          1.19904079e-03, 0., 1.99840125e-03, 0., 1.19904079e-03, 0.,
          7.99360510e-04, 3.99680255e-04, 0., 7.99360510e-04,
          7.99360510e-04, 1.19904079e-03, 0., 1.59872102e-03,
          3.19744204e-03, 7.99360510e-04, 7.99360510e-04, 3.99680255e-04,
          4.39648284e-03, 0., 3.99680255e-04, 2.39808159e-03,
          3.99680255e-04, 0., 3.99680255e-04, 7.99360510e-04,
          1.19904079e-03, 1.19904079e-03, 2.39808159e-03, 0.,
          7.99360510e-04, 0., 7.99360510e-04, 1.59872102e-03, 0., 0.,
          1.59872102e-03, 7.99360510e-04, 0., 1.19904079e-03,
          7.99360510e-04, 7.99360510e-04, 7.99360510e-04, 7.99360510e-04,
          1.99840125e-03, 1.99840125e-03, 1.19904079e-03, 7.99360510e-04,
          7.99360510e-04, 3.99680255e-04, 7.99360510e-04, 1.59872102e-03,
          1.99840125e-03, 7.99360510e-04, 6.39488408e-03, 1.59872102e-03,
          7.99360510e-04, 3.99680255e-04, 1.19904079e-03, 0., 0., 0.,
          3.99680255e-04, 0., 0., 1.19904079e-03, 7.99360510e-04,
          3.99680255e-04, 3.99680255e-04, 7.99360510e-04, 1.59872102e-03,
          7.19424477e-03, 7.99360510e-04, 7.99360510e-04, 7.99360510e-04,
          7.99360510e-04, 0., 1.59872102e-03, 7.99360510e-04, 0.,
          7.99360510e-04, 3.99680255e-04, 1.59872102e-03, 3.99680255e-04,
          2.39808159e-03, 0., 1.19904079e-03, 1.19904079e-03,
          7.99360510e-04, 0., 0., 7.99360510e-04, 1.59872102e-03,
          2.39808159e-03, 0., 0., 1.19904079e-03, 3.99680255e-04,
          7.99360510e-04, 2.79776170e-03, 0., 0., 0., 3.99680255e-04,
          1.19904079e-03, 3.99680255e-04, 7.99360510e-04, 1.59872102e-03,
          1.59872102e-03, 2.39808159e-03, 0., 0., 0., 1.99840125e-03,
          7.99360510e-04, 7.99360510e-04, 4.79616318e-03, 3.99680255e-04,
          7.19424477e-03, 3.59712238e-03, 0., 3.99680255e-04,
          1.99840125e-03, 1.59872102e-03, 0., 1.59872102e-03,
          3.99680255e-04, 1.19904079e-03, 1.59872102e-03, 0.,
          1.99840125e-03, 0., 3.99680255e-04, 1.99840125e-03, 0.,
          3.99680255e-04, 1.59872102e-03, 3.99680255e-04, 0.,
          1.19904079e-03, 0., 1.59872102e-03, 3.99680255e-04,
          7.99360510e-04, 3.99680255e-04, 2.39808159e-03, 3.59712238e-03,
          0., 1.19904079e-03, 1.59872102e-03, 0., 3.19744204e-03,
          7.99360510e-04, 0., 1.99840125e-03, 0., 2.39808159e-03,
          7.99360510e-04, 0., 3.99680255e-04, 7.99360510e-04,
          1.59872102e-03, 8.79296567e-03, 1.19904079e-03, 0.,
          7.99360510e-04, 7.99360510e-04, 1.19904079e-03, 4.79616318e-03,
          7.99360510e-04, 1.19904079e-03, 2.39808159e-03, 7.99360510e-04,
          3.99680255e-04, 0., 3.99680255e-04, 1.19904079e-03, 0., 0.,
          1.59872102e-03, 7.99360510e-04, 3.99680255e-04, 0.,
          7.99360510e-04, 3.99680255e-04, 0., 0., 3.99680255e-04,
          7.99360510e-04, 0., 0., 3.99680255e-04, 0., 0., 7.99360510e-04,
          3.99680255e-04, 3.99680255e-04, 0., 0., 0., 2.79776170e-03,
          1.19904079e-03, 3.99680255e-04, 2.39808159e-03, 0.,
          1.19904079e-03, 0., 0., 3.99680255e-04, 0., 1.19904079e-03,
          7.99360510e-04, 1.99840125e-03, 1.19904079e-03, 3.99680255e-04,
          0., 0., 3.99680255e-04, 1.19904079e-03, 2.39808159e-03,
          1.99840125e-03, 3.99680255e-04, 1.19904079e-03, 0., 0.,
          2.39808159e-03, 3.99680255e-04, 3.99680255e-04, 0.,
          3.99680255e-04, 1.19904079e-03, 0., 3.99680255e-04,
          1.19904079e-03, 1.59872102e-03, 1.59872102e-03, 0.,
          1.99840125e-03, 3.99680255e-04, 1.99840125e-03, 0., 0., 0.,
          1.59872102e-03, 1.19904079e-03, 1.19904079e-03, 0.,
          7.99360510e-04, 0., 1.19904079e-03, 7.99360510e-04,
          1.59872102e-03, 1.19904079e-03, 0., 1.19904079e-03,
          3.99680255e-04, 7.99360510e-04, 3.99680255e-04, 0.,
          3.99680255e-04, 1.99840125e-03, 0., 5.59552340e-03,
          7.99360510e-04, 0., 3.99680255e-04, 1.99840125e-03,
          7.99360510e-04, 3.99680255e-04, 1.19904079e-03, 0.,
          3.99680255e-04, 2.79776170e-03, 0., 1.19904079e-03,
          1.99840125e-03, 3.99680255e-04, 3.99680255e-04, 3.99680249e-03,
          7.99360510e-04, 3.99680255e-04, 3.99680255e-04, 1.59872102e-03,
          7.99360510e-04, 1.59872102e-03, 0., 0., 7.99360510e-04,
          2.39808159e-03, 4.39648284e-03, 0., 0., 1.99840125e-03, 0.,
          3.99680249e-03, 7.99360510e-04, 0., 7.99360510e-04,
          7.99360510e-04, 1.59872102e-03, 2.39808159e-03, 7.99360510e-04,
          3.99680255e-04, 0., 0., 1.19904079e-03, 3.99680255e-04,
          1.59872102e-03, 1.19904079e-03, 4.39648284e-03, 0.,
          1.59872102e-03, 3.59712238e-03, 3.99680255e-04, 1.59872102e-03,
          7.99360510e-04, 1.19904079e-03, 3.99680255e-04, 7.99360510e-04,
          3.99680255e-04, 1.99840125e-03, 0., 1.19904079e-03,
