%YAML:1.0
my_svm: !!opencv-ml-svm
   svm_type: C_SVC
   kernel: { type:RBF, gamma:1. }
   C: 1.
   term_criteria: { epsilon:1.1920928955078125e-07, iterations:1000 }
   var_all: 1090
   var_count: 1090
   class_count: 2
   class_labels: !!opencv-matrix
      rows: 1
      cols: 2
      dt: i
      data: [ 0, 1 ]
   sv_total: 55
   support_vectors:
      - [ 0., 0., 3.15457419e-03, 0., 4.33753943e-03, 3.15457419e-03, 0.,
          1.97160896e-03, 0., 3.94321774e-04, 3.94321774e-04,
          7.88643549e-04, 1.57728710e-03, 1.18296535e-03, 0.,
          1.57728710e-03, 0., 3.94321774e-04, 1.57728710e-03, 0., 0., 0.,
          0., 2.36593070e-03, 3.15457419e-03, 0., 1.97160896e-03, 0., 0.,
          1.18296535e-03, 0., 2.36593070e-03, 0., 3.94321774e-04,
          1.97160896e-03, 3.15457419e-03, 0., 7.88643549e-04,
          1.18296535e-03, 3.94321774e-04, 2.36593070e-03, 0.,
          3.94321774e-04, 1.57728710e-03, 1.57728710e-03, 0., 0.,
          7.88643549e-04, 0., 0., 0., 1.97160896e-03, 0., 1.57728710e-03,
          0., 1.97160896e-03, 0., 0., 2.36593070e-03, 0., 3.94321774e-04,
          0., 0., 2.36593070e-03, 0., 0., 3.94321774e-04, 1.18296535e-03,
          3.94321774e-04, 1.57728710e-03, 7.88643549e-04, 2.76025245e-03,
          0., 0., 4.73186141e-03, 1.57728710e-03, 0., 1.18296535e-03,
          3.94321774e-04, 3.94321792e-03, 0., 3.94321774e-04, 0.,
          1.18296535e-03, 0., 1.97160896e-03, 7.88643549e-04, 0., 0.,
          2.36593070e-03, 0., 3.94321774e-04, 5.12618292e-03, 0.,
          3.94321774e-04, 4.73186141e-03, 1.18296535e-03, 3.94321792e-03,
          0., 0., 0., 3.94321774e-04, 0., 2.76025245e-03, 0., 0.,
          3.94321774e-04, 0., 3.94321774e-04, 3.94321774e-04,
          1.18296535e-03, 1.57728710e-03, 0., 0., 3.94321774e-04,
          2.76025245e-03, 0., 0., 3.94321774e-04, 0., 0., 0., 0., 0.,
          1.57728710e-03, 3.94321774e-04, 0., 2.76025245e-03, 0.,
          5.12618292e-03, 0., 3.94321774e-04, 0., 0., 1.57728710e-03,
          7.88643549e-04, 0., 0., 0., 0., 1.57728710e-03, 3.94321774e-04,
          0., 3.94321774e-04, 0., 0., 0., 2.36593070e-03, 1.18296535e-03,
          0., 3.15457419e-03, 0., 1.57728710e-03, 3.94321774e-04,
          7.88643549e-04, 0., 1.97160896e-03, 0., 0., 0., 0.,
          3.15457419e-03, 2.36593070e-03, 0., 0., 0., 3.94321774e-04,
          3.94321774e-04, 1.57728710e-03, 7.88643549e-04, 0., 0.,
          5.52050490e-03, 3.94321774e-04, 0., 1.57728710e-03,
          7.88643549e-04, 3.94321774e-04, 0., 0., 7.88643549e-04,
          3.94321774e-04, 3.94321792e-03, 0., 3.15457419e-03, 0.,
          1.18296535e-03, 1.97160896e-03, 3.94321774e-04, 0., 0.,
          3.94321774e-04, 1.10410098e-02, 0., 0., 0., 5.91482641e-03,
          3.94321774e-04, 4.73186141e-03, 1.97160896e-03, 0., 0.,
          7.88643549e-04, 0., 0., 0., 1.57728710e-03, 3.94321774e-04,
          3.94321774e-04, 3.94321774e-04, 3.94321774e-04, 3.94321774e-04,
          2.76025245e-03, 3.94321774e-04, 0., 4.73186141e-03, 0.,
          1.18296535e-03, 2.76025245e-03, 7.88643549e-04, 0.,
          1.18296535e-03, 1.18296535e-03, 3.94321774e-04, 0.,
          1.97160896e-03, 3.94321774e-04, 0., 3.94321774e-04,
          1.18296535e-03, 3.94321774e-04, 1.57728710e-03, 0., 0.,
          1.18296535e-03, 7.88643549e-04, 3.54889594e-03, 3.94321774e-04,
          1.57728710e-03, 0., 0., 2.36593070e-03, 0., 0., 7.88643549e-04,
          0., 0., 7.88643549e-04, 1.18296535e-03, 3.94321774e-04,
          3.54889594e-03, 0., 7.88643549e-04, 1.57728710e-03, 0.,
          3.94321774e-04, 2.36593070e-03, 1.57728710e-03, 3.94321792e-03,
          3.94321774e-04, 7.88643549e-04, 1.57728710e-03, 1.57728710e-03,
          7.88643549e-04, 0., 0., 3.94321774e-04, 1.97160896e-03,
          7.88643549e-04, 1.97160896e-03, 1.57728710e-03, 1.18296535e-03,
          0., 1.97160896e-03, 3.15457419e-03, 3.94321774e-04,
          1.18296535e-03, 3.94321774e-04, 3.15457419e-03, 3.94321774e-04,
          0., 1.18296535e-03, 0., 3.54889594e-03, 0., 3.94321774e-04, 0.,
          0., 3.94321792e-03, 0., 3.94321774e-04, 0., 3.94321774e-04, 0.,
          0., 1.97160896e-03, 0., 0., 0., 0., 7.88643549e-04,
          3.94321774e-04, 3.15457419e-03, 3.94321774e-04, 3.15457419e-03,
          0., 3.15457419e-03, 7.88643549e-04, 3.15457419e-03, 0.,
          4.73186141e-03, 3.15457419e-03, 0., 2.76025245e-03, 0.,
          7.88643549e-04, 1.18296535e-03, 0., 7.88643549e-04, 0.,
          7.88643549e-04, 3.94321774e-04, 1.57728710e-03, 3.94321774e-04,
          3.15457419e-03, 3.94321774e-04, 0., 3.94321774e-04, 0., 0., 0.,
          7.09779188e-03, 1.18296535e-03, 3.15457419e-03, 0.,
          3.94321774e-04, 3.94321774e-04, 0., 3.94321774e-04,
          5.52050490e-03, 3.94321774e-04, 7.88643549e-04, 7.88643549e-04,
          3.94321774e-04, 3.94321774e-04, 7.88643549e-04, 0., 0.,
          3.94321774e-04, 3.94321774e-04, 3.94321774e-04, 0.,
          1.18296535e-03, 1.57728710e-03, 9.46372282e-03, 0.,
          2.76025245e-03, 1.18296535e-03, 4.33753943e-03, 0.,
          1.18296535e-03, 7.88643549e-04, 3.94321774e-04, 1.18296535e-03,
          1.18296535e-03, 7.88643549e-04, 1.18296535e-03, 3.54889594e-03,
          2.36593070e-03, 1.18296535e-03, 0., 1.97160896e-03, 0.,
          3.94321774e-04, 0., 2.76025245e-03, 3.94321774e-04, 0., 0., 0.,
          6.70347037e-03, 0., 0., 1.57728710e-03, 1.57728710e-03,
          1.57728710e-03, 0., 1.18296535e-03, 3.15457419e-03, 0.,
          7.88643549e-04, 1.18296535e-03, 0., 1.18296535e-03, 0., 0., 0.,
          1.57728710e-03, 0., 1.18296535e-03, 0., 0., 5.52050490e-03,
          3.94321792e-03, 3.94321774e-04, 3.94321774e-04, 5.52050490e-03,
          3.94321774e-04, 0., 3.94321774e-04, 0., 0., 2.36593070e-03,
          7.88643549e-04, 2.76025245e-03, 2.76025245e-03, 0., 0.,
          3.94321774e-04, 2.36593070e-03, 2.76025245e-03, 0., 0., 0., 0.,
          0., 1.97160896e-03, 0., 3.94321774e-04, 2.76025245e-03, 0.,
          7.88643549e-04, 7.88643549e-04, 0., 3.94321774e-04,
          1.57728710e-03, 3.94321774e-04, 0., 0., 1.18296535e-03,
          3.94321774e-04, 3.94321792e-03, 0., 1.57728710e-03,
          3.94321774e-04, 0., 3.94321774e-04, 3.94321774e-04,
          6.30914839e-03, 1.18296535e-03, 1.57728710e-03, 3.54889594e-03,
          0., 4.33753943e-03, 0., 0., 3.94321774e-04, 1.18296535e-03, 0.,
          3.94321774e-04, 0., 0., 3.94321774e-04, 0., 0., 3.94321774e-04,
          5.12618292e-03, 0., 0., 2.16876976e-02, 0., 2.76025245e-03,
          1.57728710e-03, 3.94321774e-04, 1.57728710e-03, 0.,
          7.88643549e-04, 2.36593070e-03, 2.36593070e-03, 2.36593070e-03,
          0., 0., 4.33753943e-03, 0., 0., 1.57728710e-03, 0.,
          2.36593070e-03, 7.88643549e-04, 0., 1.57728710e-03,
          1.18296535e-03, 3.94321774e-04, 3.54889594e-03, 3.54889594e-03,
          0., 3.94321774e-04, 1.97160896e-03, 7.88643549e-04,
          3.94321774e-04, 0., 1.18296535e-03, 3.15457419e-03, 0., 0.,
          1.57728710e-03, 0., 0., 7.88643549e-04, 2.36593070e-03,
          2.36593070e-03, 1.18296535e-03, 2.76025245e-03, 3.94321774e-04,
          3.94321792e-03, 1.57728710e-03, 0., 0., 7.88643549e-04,
          1.57728710e-03, 0., 0., 3.94321774e-04, 5.12618292e-03,
          1.18296535e-03, 0., 2.36593070e-03, 0., 0., 0., 0.,
          7.88643549e-04, 1.97160896e-03, 7.88643549e-04, 2.36593070e-03,
          0., 3.94321774e-04, 3.94321792e-03, 0., 7.88643549e-04, 0., 0.,
          3.94321774e-04, 0., 2.36593070e-03, 3.94321774e-04,
          3.94321774e-04, 3.94321774e-04, 3.94321774e-04, 0., 0., 0.,
          1.18296535e-03, 3.94321774e-04, 0., 0., 0., 0., 3.94321774e-04,
          3.94321774e-04, 4.73186141e-03, 3.94321774e-04, 0., 0., 0.,
          3.94321774e-04, 0., 1.97160896e-03, 7.88643549e-04, 0.,
          1.18296535e-03, 0., 3.94321774e-04, 3.94321774e-04, 0.,
          1.97160896e-03, 7.88643549e-04, 0., 7.88643549e-04,
          3.15457419e-03, 7.88643549e-04, 7.88643549e-04, 0.,
          3.94321774e-04, 3.94321774e-04, 4.33753943e-03, 3.94321774e-04,
          0., 7.88643549e-04, 1.97160896e-03, 0., 0., 1.18296535e-03, 0.,
          0., 1.18296535e-03, 0., 1.18296535e-03, 1.97160896e-03,
          1.57728710e-03, 1.57728710e-03, 1.18296535e-03, 3.54889594e-03,
          1.57728710e-03, 2.36593070e-03, 0., 1.97160896e-03,
          3.94321792e-03, 3.94321774e-04, 0., 1.97160896e-03,
          3.94321774e-04, 0., 7.88643549e-04, 1.57728710e-03, 0.,
          1.18296535e-03, 2.76025245e-03, 3.94321774e-04, 0.,
          3.15457419e-03, 0., 0., 1.18296535e-03, 2.36593070e-03, 0.,
          2.36593070e-03, 3.94321774e-04, 0., 0., 3.94321774e-04, 0.,
          7.88643549e-04, 7.88643549e-04, 0., 3.94321792e-03,
          1.97160896e-03, 3.94321774e-04, 3.94321774e-04, 3.15457419e-03,
          0., 0., 1.57728710e-03, 1.18296535e-03, 0., 0., 0., 0.,
          2.76025245e-03, 2.36593070e-03, 3.94321774e-04, 0.,
          3.54889594e-03, 3.94321774e-04, 1.18296535e-03, 1.57728710e-03,
          1.57728710e-03, 3.94321792e-03, 0., 0., 0., 3.94321774e-04, 0.,
          3.94321774e-04, 1.97160896e-03, 0., 3.94321774e-04,
          1.57728710e-03, 0., 0., 0., 0., 0., 1.97160896e-03, 0., 0., 0.,
          0., 3.94321774e-04, 0., 0., 7.88643549e-04, 0., 0., 0.,
          7.88643549e-04, 1.97160896e-03, 0., 0., 3.94321774e-04,
          1.57728710e-03, 1.97160896e-03, 1.18296535e-03, 0.,
          3.94321774e-04, 1.18296535e-03, 0., 7.88643549e-04,
          1.97160896e-03, 7.88643549e-04, 0., 1.18296535e-03, 0.,
          1.57728710e-03, 0., 1.18296535e-03, 3.94321774e-04,
          7.88643549e-04, 3.94321774e-04, 2.36593070e-03, 0., 0.,
          1.10410098e-02, 0., 0., 0., 0., 2.36593070e-03, 0., 0.,
          6.30914839e-03, 0., 0., 7.88643549e-04, 1.18296535e-03,
          3.94321774e-04, 1.57728710e-03, 0., 3.94321774e-04,
          2.36593070e-03, 1.18296535e-03, 0., 3.15457419e-03,
          3.94321774e-04, 1.57728710e-03, 0., 7.88643549e-04, 0., 0., 0.,
          1.97160896e-03, 0., 0., 1.02523658e-02, 3.94321774e-04, 0., 0.,
          0., 0., 5.52050490e-03, 3.94321774e-04, 0., 0., 0.,
          1.34069407e-02, 5.91482641e-03, 0., 3.94321774e-04,
          3.94321774e-04, 0., 7.88643549e-04, 3.94321774e-04, 0.,
          2.36593070e-03, 0., 1.18296535e-03, 0., 0., 1.97160896e-03,
          7.88643549e-04, 4.33753943e-03, 7.88643549e-04, 1.97160896e-03,
          0., 3.94321774e-04, 0., 0., 0., 3.94321774e-04, 2.36593070e-03,
          3.94321774e-04, 0., 0., 2.36593070e-03, 3.94321774e-04,
          1.18296535e-03, 0., 2.76025245e-03, 3.94321774e-04, 0.,
          1.18296535e-03, 0., 0., 0., 3.94321774e-04, 3.94321774e-04,
          3.94321774e-04, 1.97160896e-03, 1.97160896e-03, 0.,
          7.88643549e-04, 7.88643549e-04, 0., 1.18296535e-03, 0.,
          2.76025245e-03, 3.94321774e-04, 1.18296535e-03, 1.18296535e-03,
          0., 1.57728710e-03, 7.88643549e-04, 0., 0., 0., 0.,
          3.94321774e-04, 0., 7.88643549e-04, 0., 0., 1.18296535e-03, 0.,
          1.18296535e-03, 2.76025245e-03, 0., 1.57728710e-03,
          1.97160896e-03, 0., 0., 0., 0., 2.76025245e-03, 1.18296535e-03,
          7.88643549e-04, 0., 0., 7.88643549e-04, 3.94321774e-04,
          1.18296535e-03, 0., 0., 0., 0., 3.94321774e-04, 0., 0., 0., 0.,
          0., 2.76025245e-03, 2.76025245e-03, 0., 0., 1.18296535e-03,
          7.88643549e-04, 0., 1.97160896e-03, 2.36593070e-03, 0.,
          3.94321774e-04, 3.15457419e-03, 2.36593070e-03, 1.97160896e-03,
          0., 3.94321774e-04, 3.94321774e-04, 0., 1.18296535e-03,
          2.36593070e-03, 3.94321774e-04, 3.94321774e-04, 0.,
          4.73186141e-03, 3.94321774e-04, 0., 1.57728710e-03,
          7.88643549e-04, 0., 0., 1.18296535e-03, 0., 3.94321774e-04,
          3.94321774e-04, 0., 2.36593070e-03, 3.94321774e-04,
          3.94321774e-04, 5.52050490e-03, 1.57728710e-03, 1.18296535e-03,
          0., 1.57728710e-03, 0., 1.18296535e-03, 1.57728710e-03, 0., 0.,
          0., 3.94321774e-04, 3.94321774e-04, 3.94321792e-03,
          1.97160896e-03, 0., 0., 0., 1.18296535e-03, 1.57728710e-03,
          1.18296535e-03, 7.88643549e-04, 3.94321774e-04, 3.94321774e-04,
          1.18296535e-03, 0., 1.57728710e-03, 0., 1.97160896e-03,
          3.94321774e-04, 3.94321774e-04, 1.57728710e-03, 0., 0., 0.,
          1.18296535e-03, 1.97160896e-03, 3.94321774e-04, 2.36593070e-03,
          7.88643549e-04, 0., 3.94321774e-04, 0., 0., 0., 0., 0.,
          2.08990537e-02, 0., 0., 2.76025245e-03, 1.18296535e-03, 0.,
          1.57728710e-03, 0., 1.57728710e-03, 0., 0., 0., 0., 0., 0.,
          4.33753943e-03, 7.88643549e-04, 0., 3.94321774e-04, 0., 0.,
          1.18296535e-03, 1.18296535e-03, 1.18296535e-03, 7.88643549e-04,
          0., 1.18296535e-03, 0., 0., 0., 1.97160896e-03, 3.15457419e-03,
          0., 7.88643549e-04, 1.49842277e-02, 0., 7.88643549e-04, 0.,
          3.94321774e-04, 3.94321774e-04, 0., 0., 4.33753943e-03,
          1.57728710e-03, 0., 2.36593070e-03, 1.18296535e-03, 0., 0.,
          1.97160896e-03, 0., 0., 0., 0., 1.97160896e-03, 7.88643549e-04,
          0., 0., 0., 1.57728710e-03, 1.57728710e-03, 1.97160896e-03, 0.,
          7.88643549e-04, 7.88643549e-04, 1.05567127e-01, 5.55457920e-02,
          4.06772420e-02, 3.54037993e-02, 2.17087530e-02, 1.65210757e-02,
          9.97790974e-03, 8.05554166e-03, 6.30051689e-03, 6.56199269e-03,
          3.86983948e-03, 3.69621953e-03, 3.37408157e-03, 3.50586534e-03,
          2.69842846e-03, 2.54363497e-03, 1.58349646e-03, 1.25717488e-03,
          1.23625679e-03, 9.89423832e-04, 8.53456440e-04, 5.25043055e-04,
          1.69436214e-04, 1.08773864e-04, 1.92446067e-04, 2.76118284e-04,
          1.29691907e-04, 4.18361014e-06, 0., 0., 1.39648905e-02,
          1.47514092e-02, 1.30319456e-02, 1.70879550e-02, 1.76820289e-02,
          2.17192117e-02, 2.12067198e-02, 2.67144423e-02, 2.56455299e-02,
          2.76954994e-02, 2.13845242e-02, 1.90898124e-02, 1.28959781e-02,
          1.09317731e-02, 8.28145631e-03, 7.44891772e-03, 6.48250384e-03,
          5.18140104e-03, 5.80894249e-03, 4.77977470e-03, 5.27344039e-03,
          4.71702032e-03, 5.29435882e-03, 5.03288303e-03, 3.27995047e-03,
          2.57710391e-03, 4.52875812e-03, 7.34223577e-04, 1.10865672e-04,
          0., 5.85496239e-03, 8.36303644e-03, 7.01800594e-03,
          7.76268868e-03, 7.68319983e-03, 9.75617860e-03, 1.10781994e-02,
          1.43497828e-02, 1.36866802e-02, 1.56425182e-02, 1.44606484e-02,
          1.67930108e-02, 1.59395542e-02, 1.79142188e-02, 1.53078297e-02,
          1.59562882e-02, 1.36845885e-02, 1.02937724e-02, 9.78964753e-03,
          7.77105568e-03, 8.81486665e-03, 6.91759959e-03, 8.73537827e-03,
          1.03418846e-02, 1.32034738e-02, 1.18458923e-02, 1.20236957e-02,
          7.84845278e-03, 9.77291353e-03, 4.72329604e-03 ]
      - [ 0., 0., 0., 1.21065381e-03, 0., 0., 1.33171920e-02, 0.,
          6.05326891e-03, 0., 0., 0., 0., 0., 1.21065381e-03, 0.,
          1.21065381e-03, 0., 0., 2.42130761e-03, 2.42130761e-03, 0., 0.,
          0., 0., 0., 0., 1.45278461e-02, 0., 0., 4.84261522e-03, 0., 0.,
          6.05326891e-03, 0., 0., 0., 0., 0., 0., 0., 0., 0., 0., 0.,
          2.42130761e-03, 0., 2.42130761e-03, 0., 0., 0., 0.,
          1.21065381e-03, 0., 0., 0., 1.21065381e-03, 0., 0., 0., 0.,
          4.84261522e-03, 0., 0., 1.21065381e-03, 0., 6.05326891e-03,
          2.42130761e-03, 0., 0., 2.42130761e-03, 0., 0., 0.,
          3.63196153e-03, 0., 2.42130761e-03, 0., 0., 0., 0., 0., 0., 0.,
          3.63196153e-03, 3.63196153e-03, 1.21065381e-03, 1.21065381e-03,
          0., 0., 8.47457629e-03, 0., 0., 0., 2.42130761e-03, 0., 0., 0.,
          0., 0., 0., 0., 8.47457629e-03, 0., 6.05326891e-03,
          6.05326891e-03, 0., 0., 1.21065381e-03, 0., 2.42130761e-03,
          2.42130761e-03, 0., 0., 0., 0., 1.21065381e-03, 0.,
          1.21065381e-03, 0., 0., 0., 0., 0., 0., 0., 0., 0.,
          2.42130761e-03, 0., 0., 0., 0., 0., 0., 0., 6.05326891e-03, 0.,
          0., 3.63196153e-03, 0., 1.21065381e-03, 4.84261522e-03,
          7.26392306e-03, 0., 0., 0., 0., 0., 0., 0., 0., 0.,
          2.42130761e-03, 0., 1.21065378e-02, 0., 0., 2.42130761e-03,
          2.42130761e-03, 0., 0., 0., 0., 0., 0., 0., 0., 0., 0.,
          3.63196153e-03, 1.33171920e-02, 0., 7.26392306e-03,
          2.42130761e-03, 0., 0., 0., 0., 0., 0., 0., 0., 6.05326891e-03,
          0., 0., 1.21065381e-03, 0., 2.42130761e-03, 4.84261522e-03, 0.,
          0., 0., 0., 0., 0., 0., 0., 0., 0., 0., 0., 0., 1.21065381e-03,
          1.81598067e-02, 1.21065381e-03, 0., 0., 0., 0., 0., 0., 0.,
          2.42130761e-03, 2.42130761e-03, 0., 0., 0., 0., 0., 0.,
          2.42130761e-03, 0., 0., 0., 0., 0., 1.21065381e-03, 0.,
          3.63196153e-03, 1.21065381e-03, 0., 1.21065381e-03, 0., 0.,
          6.05326891e-03, 0., 0., 0., 0., 0., 0., 0., 1.21065381e-03,
          1.08958846e-02, 0., 0., 1.21065381e-03, 0., 0., 0., 0., 0.,
          2.42130761e-03, 2.42130756e-02, 0., 0., 0., 0., 0.,
          2.42130761e-03, 0., 0., 0., 1.21065381e-03, 0., 0., 0.,
          4.84261522e-03, 0., 0., 1.21065381e-03, 0., 0., 0.,
          3.63196153e-03, 0., 0., 0., 0., 0., 0., 2.42130761e-03, 0.,
          1.21065381e-03, 3.63196153e-03, 0., 0., 0., 0., 1.21065381e-03,
          0., 0., 0., 1.21065381e-03, 0., 0., 0., 2.42130761e-03, 0.,
          2.42130761e-03, 0., 0., 1.21065381e-03, 0., 2.42130761e-03, 0.,
          0., 0., 0., 0., 0., 0., 0., 0., 0., 0., 8.47457629e-03,
          4.47941907e-02, 0., 0., 0., 0., 2.42130761e-03, 1.21065381e-03,
          0., 0., 2.42130761e-03, 0., 4.84261522e-03, 0., 0., 0., 0., 0.,
          0., 0., 1.21065381e-03, 2.42130761e-03, 0., 8.47457629e-03, 0.,
          0., 2.42130761e-03, 0., 0., 1.21065381e-03, 1.08958846e-02, 0.,
          1.21065381e-03, 0., 0., 0., 0., 0., 2.42130761e-03, 0., 0., 0.,
          0., 0., 0., 0., 0., 9.68523044e-03, 0., 0., 0., 0., 0., 0., 0.,
          4.84261522e-03, 0., 0., 0., 0., 0., 0., 0., 0., 4.84261522e-03,
          0., 0., 0., 0., 4.84261522e-03, 0., 0., 8.47457629e-03, 0., 0.,
          0., 1.21065381e-03, 0., 0., 0., 0., 1.21065381e-03, 0.,
          3.63196153e-03, 2.42130761e-03, 0., 0., 1.21065381e-03, 0., 0.,
          0., 0., 0., 0., 0., 0., 0., 1.21065381e-03, 0., 3.63196153e-03,
          0., 1.21065381e-03, 0., 0., 0., 1.21065381e-03, 3.63196153e-03,
          0., 4.84261522e-03, 0., 0., 0., 1.21065381e-03, 0., 0., 0., 0.,
          0., 0., 0., 2.42130761e-03, 0., 0., 0., 0., 0., 0., 0., 0., 0.,
          0., 0., 0., 0., 0., 0., 1.21065381e-03, 2.42130761e-03, 0.,
          7.26392306e-03, 0., 0., 2.42130761e-03, 0., 0., 9.68523044e-03,
          0., 0., 0., 0., 2.17917692e-02, 0., 0., 0., 0., 0.,
          1.21065381e-03, 0., 0., 0., 0., 0., 0., 0., 1.21065381e-03, 0.,
          0., 2.30024215e-02, 0., 0., 6.05326891e-03, 0., 0., 0., 0., 0.,
          0., 0., 0., 0., 0., 0., 4.84261522e-03, 0., 0., 0., 0., 0., 0.,
          0., 7.26392306e-03, 0., 0., 0., 0., 0., 0., 0., 0., 0.,
          1.21065381e-03, 0., 0., 0., 1.21065381e-03, 1.21065381e-03, 0.,
          0., 2.42130761e-03, 0., 2.42130761e-03, 0., 3.63196153e-03, 0.,
          0., 0., 1.21065381e-03, 0., 0., 4.84261522e-03, 0., 0., 0., 0.,
          0., 0., 2.42130761e-03, 0., 0., 0., 0., 0., 0., 0., 0., 0., 0.,
          3.63196153e-03, 3.63196153e-03, 4.84261522e-03, 1.21065381e-03,
          0., 0., 0., 0., 4.84261522e-03, 0., 0., 0., 0., 0., 0.,
          3.63196135e-02, 0., 0., 0., 0., 1.69491526e-02, 0.,
          1.21065381e-03, 0., 0., 0., 4.84261522e-03, 1.21065381e-03, 0.,
          0., 1.21065381e-03, 0., 0., 2.42130761e-03, 0., 0.,
          8.47457629e-03, 0., 0., 0., 0., 0., 1.21065381e-03, 0., 0., 0.,
          0., 0., 0., 0., 0., 0., 0., 0., 0., 0., 0., 0., 0., 0., 0., 0.,
          3.63196153e-03, 0., 0., 0., 0., 0., 2.42130761e-03, 0., 0., 0.,
          0., 3.63196153e-03, 0., 2.42130761e-03, 0., 0., 0., 0., 0., 0.,
          0., 3.63196153e-03, 0., 0., 0., 2.42130761e-03, 0., 0., 0.,
          3.63196153e-03, 0., 0., 0., 0., 0., 3.63196153e-03, 0., 0., 0.,
          0., 0., 4.84261522e-03, 0., 0., 1.21065381e-03, 1.21065381e-03,
          0., 0., 0., 0., 0., 0., 0., 0., 2.42130761e-03, 0.,
          1.21065381e-03, 0., 0., 0., 0., 0., 0., 6.05326891e-03, 0., 0.,
          0., 0., 0., 0., 0., 2.42130761e-03, 0., 0., 0., 1.21065381e-03,
          6.05326891e-03, 0., 0., 0., 1.21065381e-03, 0., 0., 0., 0., 0.,
          3.63196153e-03, 0., 0., 0., 1.21065381e-03, 0., 0., 0., 0.,
          3.63196153e-03, 0., 1.21065381e-03, 2.42130761e-03,
          1.21065381e-03, 0., 0., 0., 0., 0., 2.42130761e-03, 0.,
          1.21065381e-03, 0., 1.21065381e-03, 0., 8.47457629e-03, 0., 0.,
          2.42130761e-03, 1.21065381e-03, 1.21065381e-03, 0., 0., 0., 0.,
          0., 0., 0., 0., 0., 0., 0., 0., 0., 0., 8.47457629e-03,
          1.21065381e-03, 0., 1.21065381e-03, 2.42130761e-03, 0., 0., 0.,
          0., 0., 0., 0., 0., 0., 1.21065381e-03, 0., 0., 0.,
          2.42130761e-03, 0., 0., 0., 0., 0., 4.84261522e-03, 0., 0., 0.,
          1.21065381e-03, 1.69491526e-02, 0., 0., 1.21065381e-03, 0., 0.,
          1.21065381e-03, 0., 0., 0., 1.21065381e-03, 0., 0., 0.,
          2.42130761e-03, 0., 0., 0., 0., 0., 4.84261522e-03, 0., 0., 0.,
          0., 0., 1.21065381e-03, 0., 7.26392306e-03, 0., 0., 0., 0., 0.,
          0., 0., 0., 0., 0., 1.21065381e-03, 0., 0., 0., 1.21065381e-03,
          0., 0., 0., 0., 0., 1.21065381e-03, 0., 0., 0., 0., 0., 0., 0.,
          0., 0., 1.21065381e-03, 0., 1.21065381e-03, 0., 0., 0.,
          1.21065381e-03, 0., 1.21065381e-03, 2.42130761e-03,
          1.21065381e-03, 0., 0., 0., 0., 0., 1.21065381e-03, 0.,
          7.26392306e-03, 0., 0., 1.21065381e-03, 0., 0., 0.,
          2.42130761e-03, 0., 1.21065381e-03, 0., 0., 0., 0., 0., 0., 0.,
          1.21065381e-03, 1.21065381e-03, 0., 0., 1.21065381e-03,
          1.21065381e-03, 0., 1.21065381e-03, 0., 0., 0., 0., 0.,
          1.21065381e-03, 7.26392306e-03, 0., 1.21065381e-03, 0., 0., 0.,
          0., 1.21065381e-03, 0., 0., 2.42130761e-03, 7.26392306e-03,
          2.42130761e-03, 0., 0., 0., 0., 0., 0., 4.84261522e-03, 0.,
          2.17917692e-02, 0., 0., 2.42130761e-03, 1.21065381e-03, 0., 0.,
          0., 0., 0., 1.21065381e-03, 0., 0., 2.42130761e-03,
          4.84261522e-03, 0., 0., 6.05326891e-03, 0., 0., 0., 0., 0.,
          2.42130761e-03, 0., 0., 0., 0., 1.21065381e-03, 0., 0.,
          2.42130761e-03, 0., 0., 0., 0., 0., 0., 0., 3.63196153e-03, 0.,
          0., 0., 2.42130761e-03, 0., 0., 0., 0., 0., 0., 1.21065381e-03,
          0., 0., 0., 0., 0., 3.63196153e-03, 6.05326891e-03,
          2.54237298e-02, 0., 0., 0., 0., 3.63196153e-03, 0., 0.,
          3.63196153e-03, 0., 0., 0., 4.84261522e-03, 0., 0., 0.,
          2.42130761e-03, 0., 0., 0., 0., 0., 1.21065381e-03, 0., 0., 0.,
          0., 0., 0., 2.42130761e-03, 1.21065381e-03, 0., 0., 0., 0., 0.,
          0., 2.20488179e-02, 6.47905096e-02, 5.90743273e-02,
          4.57766503e-02, 3.26912068e-02, 2.43291613e-02, 1.41088860e-02,
          1.19794654e-02, 7.59799918e-03, 7.08156172e-03, 4.32958640e-03,
          3.40518658e-03, 2.30864109e-03, 2.26855231e-03, 1.86059019e-03,
          1.98557274e-03, 1.64599740e-03, 1.32292917e-03, 1.32292917e-03,
          1.08003838e-03, 1.28048216e-03, 1.28048216e-03, 1.65543007e-03,
          1.78984529e-03, 2.73546833e-03, 2.69537955e-03, 4.55125328e-03,
          3.58204870e-03, 2.74018478e-03, 1.41489745e-05, 0.,
          3.77305987e-05, 8.51296645e-04, 1.18026026e-02, 3.00665703e-02,
          5.78787401e-02, 5.30562960e-02, 3.89309041e-02, 2.46545877e-02,
          2.06126980e-02, 1.34627493e-02, 1.22577278e-02, 8.31959676e-03,
          7.16409739e-03, 5.01816953e-03, 4.91205230e-03, 3.75183648e-03,
          2.78970622e-03, 2.96185189e-03, 2.31335731e-03, 2.32986454e-03,
          1.87473907e-03, 1.96199119e-03, 1.66250451e-03, 2.10348098e-03,
          2.44305632e-03, 5.04410919e-03, 5.57705434e-03, 8.83839279e-03,
          6.55569136e-04, 0., 0., 1.65071360e-05, 2.59397857e-05,
          6.13122247e-05, 5.35302854e-04, 2.23789620e-03, 9.45151504e-03,
          1.85988266e-02, 2.93496903e-02, 3.08235418e-02, 3.61058265e-02,
          3.27430852e-02, 2.86894031e-02, 1.83394291e-02, 1.86837204e-02,
          1.61274727e-02, 1.17365746e-02, 1.10432748e-02, 8.21819622e-03,
          8.85018334e-03, 6.75141905e-03, 6.09584991e-03, 4.74226475e-03,
          4.46400139e-03, 3.32736713e-03, 4.27299039e-03, 1.16163082e-02,
          1.02815880e-02, 1.43847908e-04 ]
      - [ 0., 6.80735218e-04, 0., 0., 6.80735218e-04, 6.80735218e-04,
          1.36147048e-02, 0., 2.72294087e-03, 6.80735218e-04, 0., 0.,
          2.04220554e-03, 6.80735218e-04, 6.80735218e-04, 6.80735218e-04,
          1.36147044e-03, 0., 0., 3.40367621e-03, 4.08441108e-03,
          6.80735218e-04, 0., 6.80735218e-04, 0., 6.80735218e-04, 0.,
          6.12661708e-03, 0., 0., 6.80735218e-04, 0., 1.08917635e-02, 0.,
          0., 0., 0., 0., 0., 6.80735218e-04, 2.72294087e-03,
          1.36147044e-03, 6.80735218e-04, 0., 0., 3.40367621e-03, 0.,
          2.72294087e-03, 6.80735218e-04, 6.80735218e-04, 0., 0.,
          2.04220554e-03, 1.36147044e-03, 3.40367621e-03, 1.36147044e-03,
          4.76514641e-03, 0., 6.80735218e-04, 0., 1.36147044e-03,
          1.36147044e-03, 1.36147044e-03, 1.36147044e-03, 4.08441108e-03,
          0., 2.04220554e-03, 2.04220554e-03, 2.04220554e-03,
          6.80735218e-04, 0., 6.80735218e-04, 1.36147044e-03,
          2.04220554e-03, 5.44588175e-03, 2.72294087e-03, 0.,
          6.80735218e-04, 0., 0., 0., 0., 0., 0., 2.04220554e-03,
          2.72294087e-03, 6.80735218e-04, 6.80735218e-04, 0., 0.,
          8.16882215e-03, 0., 6.80735218e-04, 0., 1.36147044e-03,
          1.36147044e-03, 0., 0., 0., 0., 0., 0., 0., 0., 0.,
          3.40367621e-03, 6.80735218e-04, 0., 0., 6.80735218e-04,
          2.04220554e-03, 6.80735218e-04, 6.80735218e-04, 2.04220554e-03,
          1.36147044e-03, 0., 6.80735218e-04, 1.36147044e-03, 0.,
          6.80735218e-04, 6.80735218e-04, 0., 1.36147044e-03, 0., 0.,
          6.80735218e-04, 0., 2.72294087e-03, 2.04220554e-03, 0., 0., 0.,
          0., 6.80735218e-04, 1.36147044e-03, 6.80735218e-04,
          4.08441108e-03, 0., 1.36147044e-03, 2.72294087e-03,
          6.80735218e-04, 2.72294087e-03, 0., 1.36147044e-03, 0.,
          6.80735218e-04, 0., 6.80735218e-04, 0., 0., 0., 0., 0.,
          2.72294087e-03, 0., 3.40367621e-03, 0., 0., 0., 1.36147044e-03,
          0., 6.80735218e-04, 0., 0., 0., 0., 6.80735218e-04, 0., 0., 0.,
          4.08441108e-03, 1.83798503e-02, 6.80735218e-04, 6.80735218e-04,
          2.72294087e-03, 6.80735218e-04, 0., 0., 6.80735218e-04, 0., 0.,
          0., 6.80735218e-04, 2.04220554e-03, 0., 0., 0., 6.80735218e-04,
          6.80735218e-04, 2.72294087e-03, 0., 0., 2.72294087e-03,
          1.36147044e-03, 0., 0., 0., 0., 2.04220554e-03, 0., 0., 0.,
          6.80735218e-04, 2.04220554e-03, 2.72294087e-03, 2.72294087e-03,
          6.80735218e-04, 0., 1.36147044e-03, 6.80735218e-04, 0., 0.,
          1.36147044e-03, 6.80735218e-04, 4.76514641e-03, 0., 0., 0., 0.,
          0., 0., 6.80735218e-04, 0., 0., 0., 0., 0., 4.08441108e-03, 0.,
          2.72294087e-03, 1.36147044e-03, 6.80735218e-04, 2.72294087e-03,
          0., 0., 3.40367621e-03, 6.80735218e-04, 6.80735218e-04, 0., 0.,
          0., 2.72294087e-03, 2.04220554e-03, 2.04220554e-03,
          7.48808729e-03, 1.36147044e-03, 2.72294087e-03, 2.72294087e-03,
          6.80735218e-04, 0., 0., 0., 6.80735218e-04, 1.36147044e-03,
          1.02110282e-02, 0., 6.80735218e-04, 0., 0., 0., 1.36147044e-03,
          1.36147044e-03, 0., 0., 6.12661708e-03, 0., 6.80735218e-04, 0.,
          8.16882215e-03, 0., 0., 0., 6.80735218e-04, 0., 0.,
          2.72294087e-03, 0., 0., 0., 0., 0., 6.80735218e-04,
          3.40367621e-03, 0., 2.72294087e-03, 0., 0., 0., 0., 0.,
          2.72294087e-03, 2.04220554e-03, 0., 0., 0., 1.36147044e-03,
          6.80735218e-04, 0., 4.08441108e-03, 0., 0., 0., 6.80735218e-04,
          2.72294087e-03, 0., 1.36147044e-03, 6.80735218e-04,
          6.80735218e-04, 6.80735218e-04, 0., 6.80735218e-04, 0., 0.,
          6.80735218e-04, 0., 0., 0., 4.08441108e-03, 2.17835270e-02, 0.,
          0., 0., 0., 2.04220554e-03, 6.80735218e-04, 0., 1.36147044e-03,
          4.08441108e-03, 0., 1.36147044e-03, 6.80735218e-04,
          6.80735218e-04, 0., 6.80735218e-04, 0., 1.36147044e-03, 0., 0.,
          0., 0., 4.76514641e-03, 0., 2.72294087e-03, 6.80735218e-04, 0.,
          1.36147044e-03, 1.36147044e-03, 1.02110282e-02, 0.,
          2.04220554e-03, 0., 0., 1.36147044e-03, 6.80735218e-04,
          6.80735218e-04, 2.04220554e-03, 6.80735218e-04, 6.80735218e-04,
          6.80735218e-04, 0., 0., 1.36147044e-03, 0., 1.36147044e-03,
          6.80735218e-04, 0., 0., 0., 0., 0., 6.80735218e-04,
          1.36147044e-03, 1.36147044e-03, 0., 0., 0., 0., 1.36147044e-03,
          0., 0., 0., 5.44588175e-03, 0., 6.80735218e-04, 1.36147044e-03,
          0., 6.12661708e-03, 0., 0., 6.12661708e-03, 0., 0., 0., 0.,
          6.80735218e-04, 0., 2.04220554e-03, 0., 0., 2.04220554e-03,
          1.36147044e-03, 2.04220554e-03, 6.80735218e-04, 0.,
          6.80735218e-04, 0., 6.80735218e-04, 3.40367621e-03, 0., 0., 0.,
          6.80735218e-04, 0., 0., 1.36147044e-03, 0., 2.04220554e-03,
          3.40367621e-03, 3.40367621e-03, 1.36147044e-03, 0., 0.,
          6.80735218e-04, 2.72294087e-03, 2.04220554e-03, 1.36147044e-03,
          0., 6.80735218e-04, 6.80735218e-04, 0., 0., 0., 0., 0., 0., 0.,
          0., 0., 0., 1.36147044e-03, 0., 0., 1.36147044e-03, 0., 0.,
          6.80735218e-04, 0., 0., 0., 6.80735218e-04, 6.80735218e-04,
          6.80735218e-04, 3.40367621e-03, 4.08441108e-03, 0., 0.,
          2.72294087e-03, 3.40367621e-03, 0., 6.80735218e-04, 0., 0.,
          5.44588175e-03, 2.04220554e-03, 0., 0., 0., 1.97413210e-02, 0.,
          0., 0., 6.80735218e-04, 0., 6.80735218e-04, 0., 6.80735218e-04,
          2.04220554e-03, 0., 0., 6.80735218e-04, 0., 4.08441108e-03, 0.,
          0., 4.76514641e-03, 6.80735218e-04, 0., 6.80735218e-04,
          6.80735218e-04, 0., 6.80735218e-04, 0., 0., 0., 0., 0., 0., 0.,
          0., 6.80735218e-04, 3.40367621e-03, 0., 0., 0., 0., 0.,
          1.36147044e-03, 5.44588175e-03, 0., 6.80735218e-04,
          6.80735218e-04, 0., 1.36147044e-03, 0., 0., 0., 0., 0.,
          2.72294087e-03, 0., 0., 0., 6.80735218e-04, 6.80735218e-04, 0.,
          1.36147044e-03, 6.80735218e-04, 6.80735218e-04, 6.80735218e-04,
          6.80735218e-04, 0., 6.80735218e-04, 6.80735218e-04,
          2.04220554e-03, 0., 6.80735218e-04, 6.80735218e-04, 0., 0.,
          6.80735218e-04, 6.80735218e-04, 0., 3.40367621e-03,
          4.76514641e-03, 0., 0., 0., 0., 0., 0., 0., 0., 0.,
          6.12661708e-03, 6.80735218e-04, 2.72294087e-03, 1.36147044e-03,
          0., 2.72294087e-03, 0., 0., 0., 2.04220554e-03, 1.36147044e-03,
          0., 0., 0., 1.36147044e-03, 6.80735218e-04, 1.56569108e-02,
          1.36147044e-03, 0., 0., 2.72294087e-03, 1.22532342e-02, 0., 0.,
          6.80735218e-04, 0., 6.80735218e-04, 6.80735218e-04,
          1.36147044e-03, 0., 0., 6.80735218e-04, 0., 1.36147044e-03,
          1.36147044e-03, 0., 0., 8.84955749e-03, 0., 0., 0., 0.,
          6.80735218e-04, 2.04220554e-03, 0., 0., 0., 0., 0., 0., 0.,
          6.80735218e-04, 0., 0., 6.80735218e-04, 0., 6.80735218e-04,
          6.80735218e-04, 0., 0., 6.80735218e-04, 0., 0., 1.36147044e-03,
          0., 0., 0., 0., 0., 2.04220554e-03, 0., 0., 6.80735218e-04,
          1.36147044e-03, 1.36147044e-03, 0., 6.12661708e-03, 0., 0., 0.,
          6.80735218e-04, 0., 0., 6.80735218e-04, 4.08441108e-03, 0.,
          6.80735218e-04, 6.80735218e-04, 0., 0., 0., 0., 3.40367621e-03,
          0., 2.04220554e-03, 6.80735218e-04, 6.80735218e-04, 0.,
          1.02110282e-02, 0., 2.72294087e-03, 0., 6.80735218e-04, 0., 0.,
          0., 0., 0., 2.72294087e-03, 0., 6.80735218e-04, 0., 0., 0., 0.,
          6.80735218e-04, 0., 1.36147044e-03, 0., 2.72294087e-03,
          6.80735218e-04, 4.08441108e-03, 0., 0., 6.80735218e-04,
          6.80735218e-04, 2.04220554e-03, 6.80735218e-04, 2.04220554e-03,
          2.04220554e-03, 0., 6.80735218e-04, 0., 0., 0., 0., 0., 0.,
          6.80735218e-04, 1.90605856e-02, 0., 0., 0., 1.36147044e-03,
          4.76514641e-03, 6.80735218e-04, 0., 0., 0., 1.36147044e-03,
          2.72294087e-03, 0., 6.80735218e-04, 6.80735218e-04,
          1.36147044e-03, 6.80735242e-03, 1.36147044e-03, 0.,
          8.84955749e-03, 0., 2.04220554e-03, 0., 0., 0., 6.80735218e-04,
          0., 0., 0., 1.36147044e-03, 0., 0., 6.80735218e-04, 0., 0.,
          6.80735218e-04, 0., 0., 4.08441108e-03, 0., 6.80735218e-04, 0.,
          0., 0., 0., 0., 0., 0., 1.36147044e-03, 0., 0., 0., 0., 0.,
          1.36147044e-03, 8.84955749e-03, 5.44588175e-03, 6.80735218e-04,
          0., 1.36147044e-03, 2.04220554e-03, 6.80735218e-04,
          6.80735218e-04, 0., 2.72294087e-03, 0., 1.36147044e-03, 0., 0.,
          6.80735218e-04, 6.80735218e-04, 6.80735218e-04, 6.80735218e-04,
          6.80735218e-04, 0., 0., 1.36147044e-03, 2.04220554e-03,
          6.80735218e-04, 2.04220554e-03, 0., 1.36147044e-03, 0.,
          1.36147044e-03, 1.42954392e-02, 0., 0., 1.36147044e-03,
          3.40367621e-03, 6.80735218e-04, 1.36147044e-03, 0., 0., 0., 0.,
          0., 0., 0., 6.80735218e-04, 2.72294087e-03, 0., 0., 0., 0., 0.,
          6.80735218e-04, 6.80735218e-04, 6.80735218e-04, 0.,
          6.80735218e-04, 6.80735218e-04, 4.08441108e-03, 4.08441108e-03,
          0., 0., 0., 0., 2.04220554e-03, 6.80735218e-04, 6.80735218e-04,
          2.72294087e-03, 0., 6.80735218e-04, 2.04220554e-03,
          6.80735218e-04, 0., 6.80735218e-04, 1.36147044e-03, 0.,
          6.80735218e-04, 6.80735218e-04, 1.36147044e-03, 0., 0., 0., 0.,
          0., 0., 6.80735218e-04, 0., 0., 6.80735218e-04, 6.80735218e-04,
          1.36147044e-03, 0., 6.80735218e-04, 0., 6.80735218e-04,
          2.72294087e-03, 0., 0., 2.04220554e-03, 0., 6.80735218e-04, 0.,
          0., 0., 0., 0., 0., 6.80735218e-04, 2.04220554e-03, 0.,
          6.80735218e-04, 2.04220554e-03, 6.80735218e-04, 6.80735218e-04,
          2.72294087e-03, 1.36147044e-03, 0., 0., 0., 0., 0.,
          6.80735218e-04, 6.80735218e-04, 6.80735218e-04, 0.,
          2.04220554e-03, 1.36147044e-03, 0., 0., 0., 6.80735218e-04, 0.,
          2.04220554e-03, 0., 2.72294087e-03, 0., 0., 1.36147044e-03,
          6.80735218e-04, 7.48808729e-03, 0., 0., 6.80735218e-04, 0.,
          1.36147044e-03, 6.80735218e-04, 0., 1.36147044e-03,
          1.36147044e-03, 6.80735218e-04, 6.80735242e-03, 2.04220554e-03,
          0., 6.80735218e-04, 0., 0., 0., 0., 4.08441108e-03, 0.,
          3.40367621e-03, 0., 6.80735218e-04, 6.80735218e-04, 0., 0.,
          2.04220554e-03, 1.36147044e-03, 0., 6.80735218e-04,
          2.04220554e-03, 0., 0., 1.36147044e-03, 6.80735218e-04, 0., 0.,
          2.72294087e-03, 6.80735218e-04, 0., 0., 0., 0., 2.04220554e-03,
          2.04220554e-03, 1.36147044e-03, 0., 0., 2.04220554e-03,
          1.36147044e-03, 0., 3.40367621e-03, 4.08441108e-03,
          6.80735218e-04, 6.80735218e-04, 6.80735218e-04, 6.80735218e-04,
          0., 6.80735218e-04, 2.04220554e-03, 1.36147044e-03,
          3.40367621e-03, 0., 2.04220554e-03, 0., 0., 0., 0., 0.,
          6.80735218e-04, 2.72294087e-03, 0., 0., 6.80735218e-04, 0., 0.,
          1.36147044e-03, 2.72294087e-03, 1.83798503e-02, 0.,
          6.80735218e-04, 0., 0., 1.36147044e-03, 0., 0., 4.08441108e-03,
          0., 0., 0., 2.04220554e-03, 6.80735218e-04, 0., 6.80735218e-04,
          6.80735218e-04, 0., 0., 1.36147044e-03, 1.36147044e-03,
          6.80735218e-04, 1.36147044e-03, 0., 1.36147044e-03,
          1.36147044e-03, 0., 0., 0., 2.04220554e-03, 6.80735218e-04, 0.,
          0., 6.80735218e-04, 6.80735218e-04, 6.80735218e-04, 0.,
          1.75905526e-02, 3.57035100e-02, 4.14071530e-02, 4.92769666e-02,
          4.13688757e-02, 3.91148888e-02, 2.54761297e-02, 2.03669425e-02,
          1.19049223e-02, 8.30214657e-03, 4.72639175e-03, 3.87073238e-03,
          2.28551100e-03, 1.98603026e-03, 1.37355831e-03, 1.41408958e-03,
          1.14613306e-03, 8.08372861e-04, 1.01102900e-03, 7.83603755e-04,
          9.72749491e-04, 8.48904077e-04, 1.07858109e-03, 1.27898541e-03,
          1.84417097e-03, 2.32604216e-03, 3.00606620e-03, 4.98759281e-03,
          4.21074452e-03, 2.86195520e-03, 2.70208184e-05, 2.67956464e-04,
          4.70162276e-03, 1.64083932e-02, 2.48704124e-02, 4.23686430e-02,
          4.01349254e-02, 4.01461832e-02, 3.20061594e-02, 2.51383688e-02,
          1.59332771e-02, 1.39697632e-02, 1.11550950e-02, 1.00382343e-02,
          6.98713353e-03, 5.67887537e-03, 4.38863132e-03, 3.37535073e-03,
          2.67956452e-03, 1.74734637e-03, 1.86893996e-03, 1.41408958e-03,
          1.61449390e-03, 1.43435516e-03, 1.77211536e-03, 2.22246232e-03,
          3.65906931e-03, 3.92702594e-03, 1.04503017e-02, 2.94752093e-03,
          6.75520459e-06, 2.02656138e-05, 8.10624551e-05, 3.69284535e-04,
          1.44336210e-03, 5.60456840e-03, 1.07340207e-02, 1.83538906e-02,
          2.20129602e-02, 2.86420677e-02, 2.82007288e-02, 3.07632033e-02,
          2.44718548e-02, 2.47645807e-02, 2.00381894e-02, 1.77887063e-02,
          1.34788854e-02, 1.02453940e-02, 1.09276697e-02, 8.54983740e-03,
          8.56109615e-03, 6.29585097e-03, 5.94007690e-03, 4.48095240e-03,
          3.99232609e-03, 3.28753307e-03, 4.64983284e-03, 1.48794642e-02,
          4.60254634e-03, 1.46362770e-04 ]
      - [ 4.05542413e-03, 0., 6.75904041e-04, 0., 3.37952020e-04,
          3.37952020e-04, 0., 0., 6.75904041e-04, 7.43494462e-03,
          3.37952020e-04, 0., 2.70361616e-03, 1.35180808e-03,
          6.75904041e-04, 6.75904041e-04, 3.04156821e-03, 3.37952020e-04,
          3.37952020e-04, 1.35180808e-03, 0., 6.75904041e-04, 0.,
          3.37952020e-04, 1.01385603e-03, 0., 6.75904041e-04,
          6.75904041e-04, 1.68976013e-03, 6.75904041e-04, 1.01385603e-03,
          7.09699234e-03, 3.37952020e-04, 0., 0., 0., 3.37952020e-04, 0.,
          3.37952020e-04, 3.37952020e-04, 1.35180808e-03, 0.,
          3.71747231e-03, 6.75904041e-04, 3.37952020e-04, 1.68976013e-03,
          1.68976013e-03, 6.75904041e-04, 3.37952020e-04, 1.35180808e-03,
          0., 6.75904041e-04, 0., 6.75904041e-04, 0., 0., 3.37952020e-04,
          4.73132823e-03, 4.73132823e-03, 0., 0., 0., 5.06928051e-03,
          3.71747231e-03, 0., 3.37952020e-04, 0., 3.37952020e-04,
          6.75904041e-04, 6.42108824e-03, 6.75904041e-04, 1.35180808e-03,
          3.37952020e-04, 1.01385603e-03, 0., 6.75904041e-04, 0., 0., 0.,
          0., 6.75904041e-04, 0., 1.35180808e-03, 1.01385603e-03, 0.,
          2.02771206e-03, 0., 3.37952020e-04, 1.01385603e-03, 0.,
          6.75904041e-04, 3.37952020e-04, 1.01385603e-03, 0.,
          2.02771206e-03, 1.35180808e-03, 1.01385603e-03, 3.37952020e-04,
          6.75904041e-04, 3.37952020e-04, 3.71747231e-03, 0., 0.,
          5.06928051e-03, 6.75904041e-04, 0., 6.75904041e-04,
          3.37952020e-04, 0., 0., 0., 2.36566411e-03, 6.75904041e-04, 0.,
          2.02771206e-03, 3.71747231e-03, 0., 0., 1.01385603e-03,
          1.01385603e-03, 1.68976013e-03, 1.35180808e-03, 3.37952020e-04,
          1.68976013e-03, 2.70361616e-03, 3.37952020e-04, 0.,
          6.75904041e-04, 6.75904041e-04, 0., 6.75904041e-04,
          3.71747231e-03, 3.04156821e-03, 5.06928051e-03, 1.68976013e-03,
          6.75904041e-04, 0., 3.37952020e-04, 0., 0., 0., 0.,
          2.02771206e-03, 0., 0., 2.70361616e-03, 6.08313642e-03,
          3.37952020e-04, 6.75904041e-04, 3.04156821e-03, 0.,
          3.04156821e-03, 2.70361616e-03, 2.70361616e-03, 3.37952026e-03,
          3.37952020e-04, 5.40723233e-03, 0., 1.01385603e-03,
          2.02771206e-03, 0., 0., 1.01385603e-03, 0., 2.02771206e-03,
          2.02771206e-03, 3.37952020e-04, 3.37952020e-04, 3.37952020e-04,
          0., 1.01385603e-03, 1.68976013e-03, 6.75904041e-04,
          1.68976013e-03, 3.37952020e-04, 1.35180808e-03, 0., 0.,
          4.39337641e-03, 3.37952026e-03, 3.37952020e-04, 4.73132823e-03,
          0., 3.37952020e-04, 6.75904041e-04, 0., 0., 2.36566411e-03,
          3.37952020e-04, 6.75904041e-04, 3.37952020e-04, 3.37952020e-04,
          0., 1.01385603e-03, 0., 2.02771206e-03, 1.35180808e-03,
          1.35180808e-03, 0., 1.68976013e-03, 1.01385603e-03, 0.,
          1.01385603e-03, 3.37952020e-04, 1.35180808e-03, 0.,
          5.06928051e-03, 3.04156821e-03, 0., 0., 1.35180808e-03,
          2.70361616e-03, 6.75904041e-04, 0., 3.37952020e-04,
          2.36566411e-03, 3.37952020e-04, 1.01385603e-03, 1.01385603e-03,
          6.75904041e-04, 0., 1.01385603e-03, 2.70361616e-03, 0., 0.,
          4.73132823e-03, 3.37952020e-04, 1.01385603e-03, 3.37952026e-03,
          2.70361616e-03, 1.68976013e-03, 6.75904041e-04, 3.37952020e-04,
          1.01385603e-03, 1.35180808e-03, 0., 0., 0., 0., 0.,
          3.04156821e-03, 1.35180808e-03, 0., 2.02771206e-03,
          1.01385603e-03, 3.37952020e-04, 3.37952020e-04, 0.,
          6.75904041e-04, 5.06928051e-03, 0., 3.37952020e-04,
          2.36566411e-03, 0., 0., 4.05542413e-03, 2.36566411e-03,
          1.68976013e-03, 1.01385603e-03, 3.04156821e-03, 0., 0.,
          2.02771206e-03, 6.75904041e-04, 0., 0., 3.37952020e-04,
          1.01385603e-03, 1.68976013e-03, 3.37952020e-04, 3.37952020e-04,
          1.35180808e-03, 1.01385603e-03, 3.71747231e-03, 3.37952020e-04,
          1.01385603e-03, 0., 3.37952020e-04, 3.37952020e-04, 0., 0.,
          1.35180808e-03, 1.68976013e-03, 6.75904041e-04, 0.,
          3.37952020e-04, 6.75904041e-04, 3.37952020e-04, 6.75904041e-04,
          6.75904041e-04, 1.68976013e-03, 1.35180808e-03, 3.37952020e-04,
          3.37952026e-03, 1.35180808e-03, 0., 3.37952020e-04,
          1.68976013e-03, 1.01385603e-03, 1.01385603e-03, 3.37952020e-04,
          0., 6.75904041e-04, 6.75904041e-04, 3.37952020e-04,
          3.37952020e-04, 1.01385603e-03, 0., 6.75904041e-04,
          2.02771206e-03, 0., 0., 6.75904052e-03, 1.01385603e-03, 0., 0.,
          0., 0., 6.75904041e-04, 0., 3.37952020e-04, 5.40723233e-03,
          3.37952020e-04, 1.35180808e-03, 1.35180808e-03, 4.05542413e-03,
          3.37952020e-04, 0., 6.75904041e-04, 1.35180808e-03, 0., 0., 0.,
          1.01385603e-03, 2.02771206e-03, 0., 0., 4.05542413e-03,
          1.01385603e-03, 3.37952020e-04, 0., 1.01385603e-03, 0., 0., 0.,
          3.37952020e-04, 6.75904041e-04, 1.68976013e-03, 2.02771206e-03,
          3.04156821e-03, 3.04156821e-03, 3.37952020e-04, 3.37952020e-04,
          6.75904041e-04, 6.75904041e-04, 1.01385603e-03, 3.37952020e-04,
          1.68976013e-03, 6.75904041e-04, 2.36566411e-03, 0., 0., 0.,
          6.75904041e-04, 0., 0., 4.73132823e-03, 0., 3.37952026e-03,
          1.01385603e-03, 3.71747231e-03, 2.36566411e-03, 3.37952020e-04,
          2.70361616e-03, 0., 1.01385603e-03, 0., 3.04156821e-03,
          3.37952020e-04, 3.37952020e-04, 0., 0., 3.04156821e-03,
          1.68976013e-03, 1.35180808e-03, 3.37952020e-04, 2.02771206e-03,
          1.68976013e-03, 6.75904041e-04, 3.37952020e-04, 6.75904041e-04,
          6.75904041e-04, 3.37952020e-04, 3.37952020e-04, 0.,
          1.35180808e-03, 3.04156821e-03, 1.68976013e-03, 0.,
          6.75904041e-04, 3.37952020e-04, 0., 6.75904041e-04,
          6.75904041e-04, 0., 0., 6.75904041e-04, 1.35180808e-03, 0.,
          3.37952020e-04, 0., 0., 1.01385603e-03, 3.37952020e-04,
          2.02771206e-03, 1.68976013e-03, 3.37952020e-04, 3.37952020e-04,
          0., 1.35180808e-03, 5.06928051e-03, 0., 6.75904041e-04,
          3.37952020e-04, 2.70361616e-03, 2.02771206e-03, 3.37952020e-04,
          3.71747231e-03, 0., 6.75904041e-04, 6.75904041e-04, 0.,
          3.37952020e-04, 1.01385603e-03, 0., 3.04156821e-03, 0.,
          3.71747231e-03, 3.37952020e-04, 3.37952020e-04, 3.37952020e-04,
          0., 0., 3.37952020e-04, 3.37952020e-04, 1.01385603e-03,
          3.37952020e-04, 6.75904041e-04, 6.75904041e-04, 0.,
          6.75904041e-04, 0., 1.01385603e-03, 1.35180808e-03,
          2.70361616e-03, 0., 2.70361616e-03, 3.37952020e-04, 0., 0.,
          9.80060827e-03, 6.75904041e-04, 0., 0., 0., 7.43494462e-03,
          3.37952020e-04, 0., 0., 3.37952020e-04, 3.37952020e-04,
          6.75904041e-04, 0., 2.36566411e-03, 1.01385603e-03,
          2.36566411e-03, 3.37952020e-04, 3.37952020e-04, 0.,
          1.01385603e-03, 0., 6.75904041e-04, 4.05542413e-03,
          3.04156821e-03, 5.06928051e-03, 1.01385603e-03, 2.36566411e-03,
          6.75904041e-04, 0., 0., 3.37952020e-04, 0., 3.37952020e-04,
          1.01385603e-03, 3.37952020e-04, 0., 0., 0., 1.35180808e-03,
          3.37952020e-04, 0., 6.75904041e-04, 5.06928051e-03, 0.,
          6.75904041e-04, 0., 0., 0., 1.68976013e-03, 6.75904041e-04,
          2.36566411e-03, 6.75904041e-04, 1.35180808e-03, 2.02771206e-03,
          6.75904041e-04, 6.75904041e-04, 0., 6.75904041e-04, 0.,
          6.75904041e-04, 0., 6.75904041e-04, 2.02771206e-03,
          6.75904041e-04, 0., 0., 1.01385603e-03, 3.37952020e-04,
          3.71747231e-03, 3.37952020e-04, 0., 3.37952020e-04,
          1.01385603e-03, 2.70361616e-03, 6.75904041e-04, 0.,
          1.01385603e-03, 1.35180808e-03, 6.75904041e-04, 3.37952020e-04,
          6.75904041e-04, 6.75904041e-04, 2.02771206e-03, 6.75904041e-04,
          6.75904041e-04, 0., 0., 0., 3.04156821e-03, 6.75904041e-04,
          7.43494462e-03, 2.36566411e-03, 1.01385603e-03, 6.75904041e-04,
          1.35180808e-03, 6.75904041e-04, 2.70361616e-03, 1.35180808e-03,
          0., 3.71747231e-03, 6.75904041e-04, 1.68976013e-03,
          1.35180808e-03, 6.75904041e-04, 6.75904041e-04, 0., 0.,
          1.01385603e-03, 3.37952020e-04, 0., 1.01385603e-03,
          2.02771206e-03, 0., 1.35180808e-03, 0., 6.75904041e-04,
          2.36566411e-03, 0., 0., 1.68976013e-03, 6.75904041e-04,
          3.04156821e-03, 6.75904041e-04, 6.75904041e-04, 0.,
          2.36566411e-03, 0., 0., 6.75904041e-04, 6.75904041e-04,
          3.37952026e-03, 1.35180808e-03, 2.70361616e-03, 3.37952020e-04,
          1.68976013e-03, 1.68976013e-03, 0., 0., 3.37952020e-04,
          3.37952026e-03, 0., 1.35180808e-03, 1.01385603e-03,
          3.37952026e-03, 1.01385603e-03, 3.37952020e-04, 1.68976013e-03,
          3.37952026e-03, 6.75904041e-04, 0., 1.01385603e-03,
          2.70361616e-03, 6.42108824e-03, 0., 0., 0., 0., 0.,
          2.36566411e-03, 6.75904041e-04, 0., 2.02771206e-03,
          6.75904041e-04, 0., 6.08313642e-03, 0., 6.75904041e-04, 0.,
          3.37952020e-04, 0., 0., 0., 0., 1.01385603e-03, 1.35180808e-03,
          0., 6.75904041e-04, 3.37952020e-04, 6.75904041e-04, 0., 0., 0.,
          2.02771206e-03, 0., 0., 3.37952020e-04, 8.78675282e-03,
          6.75904041e-04, 3.37952020e-04, 1.35180808e-03, 0.,
          4.39337641e-03, 1.01385603e-03, 1.01385603e-03, 3.37952020e-04,
          1.35180808e-03, 0., 3.37952020e-04, 3.37952026e-03,
          1.01385603e-03, 3.37952020e-04, 3.37952020e-04, 0.,
          3.71747231e-03, 3.37952020e-04, 3.37952020e-04, 3.37952020e-04,
          6.75904041e-04, 0., 0., 0., 0., 4.73132823e-03, 1.35180808e-03,
          6.75904041e-04, 6.75904041e-04, 0., 0., 3.37952020e-04,
          3.37952020e-04, 3.37952020e-04, 3.37952020e-04, 2.36566411e-03,
          1.01385603e-03, 3.37952020e-04, 6.75904041e-04, 1.68976013e-03,
          0., 0., 0., 3.04156821e-03, 3.37952020e-04, 0., 1.35180808e-03,
          2.36566411e-03, 3.37952020e-04, 0., 2.70361616e-03,
          3.71747231e-03, 3.37952020e-04, 5.40723233e-03, 2.02771206e-03,
          1.01385603e-03, 6.75904041e-04, 0., 6.75904041e-04, 0., 0.,
          2.02771206e-03, 3.37952020e-04, 3.37952020e-04, 1.01385603e-03,
          0., 0., 1.68976013e-03, 3.37952020e-04, 2.70361616e-03,
          3.37952020e-04, 3.37952020e-04, 1.35180808e-03, 1.68976013e-03,
          0., 1.35180808e-03, 1.35180808e-03, 6.75904041e-04,
          6.75904041e-04, 1.01385603e-03, 0., 1.68976013e-03, 0.,
          3.37952020e-04, 3.37952020e-04, 2.36566411e-03, 2.36566411e-03,
          1.35180808e-03, 2.02771206e-03, 1.35180808e-03, 1.01385603e-03,
          0., 0., 0., 1.01385603e-03, 6.42108824e-03, 0., 3.37952026e-03,
          0., 1.68976013e-03, 1.01385603e-03, 1.68976013e-03,
          6.75904041e-04, 4.73132823e-03, 0., 1.35180808e-03, 0., 0.,
          1.68976013e-03, 6.75904041e-04, 3.37952020e-04, 0., 0.,
          2.36566411e-03, 3.04156821e-03, 1.35180808e-03, 1.68976013e-03,
          3.37952020e-04, 6.75904041e-04, 0., 0., 1.68976013e-03,
          6.75904041e-04, 6.75904041e-04, 1.35180808e-03, 3.37952020e-04,
          0., 3.37952020e-04, 3.37952020e-04, 0., 3.37952020e-04, 0.,
          6.75904041e-04, 6.75904041e-04, 3.37952020e-04, 6.75904041e-04,
          1.01385603e-03, 6.75904041e-04, 1.35180808e-03, 2.36566411e-03,
          6.75904041e-04, 2.02771206e-03, 0., 6.75904041e-04,
          3.37952020e-04, 0., 3.37952020e-04, 1.68976013e-03,
          3.37952020e-04, 0., 1.01385603e-03, 1.35180808e-03,
          6.75904041e-04, 1.68976013e-03, 6.75904041e-04, 6.75904041e-04,
          0., 4.39337641e-03, 3.37952020e-04, 6.75904041e-04,
          3.37952020e-04, 3.37952020e-04, 1.35180808e-03, 1.01385603e-03,
          6.75904041e-04, 5.06928051e-03, 1.68976013e-03, 1.68976013e-03,
          1.35180808e-03, 0., 1.35180808e-03, 2.02771206e-03, 0., 0., 0.,
          0., 1.35180808e-03, 0., 3.37952020e-04, 3.37952020e-04,
          6.75904041e-04, 3.37952026e-03, 0., 3.37952020e-04, 0.,
          6.75904041e-04, 0., 1.35180808e-03, 2.36566411e-03, 0.,
          3.37952020e-04, 3.37952020e-04, 6.75904041e-04, 0., 0.,
          1.35180808e-03, 0., 3.37952020e-04, 3.37952020e-04,
          3.37952020e-04, 0., 2.36566411e-03, 0., 1.35180808e-03,
          3.37952020e-04, 0., 2.70361616e-03, 1.35180808e-03, 0.,
          3.37952020e-04, 1.35180808e-03, 6.75904041e-04, 0., 0.,
          1.35180808e-03, 6.75904041e-04, 7.77289644e-03, 0.,
          1.01385603e-03, 5.74518414e-03, 0., 1.68976013e-03,
          6.75904041e-04, 0., 3.37952020e-04, 5.74518414e-03,
          3.37952020e-04, 0., 0., 3.37952020e-04, 3.37952020e-04,
          3.37952020e-04, 6.75904041e-04, 0., 6.75904041e-04,
          3.37952020e-04, 3.37952020e-04, 0., 0., 1.68976013e-03, 0.,
          6.75904041e-04, 1.01385603e-03, 0., 0., 1.01385603e-03,
          1.01385603e-03, 0., 0., 1.01385603e-03, 1.01385603e-03,
          1.35180808e-03, 0., 6.75904041e-04, 3.37952020e-04,
          2.36566411e-03, 0., 1.01385603e-03, 0., 0., 2.70361616e-03,
          1.35180808e-03, 3.37952026e-03, 3.37952020e-04, 0., 0.,
          6.75904041e-04, 3.37952020e-04, 2.02771206e-03, 3.37952020e-04,
          0., 0., 2.36566411e-03, 1.35180808e-03, 0., 0., 6.75904041e-04,
          3.37952020e-04, 0., 1.01385603e-03, 0., 0., 3.37952020e-04,
          1.35180808e-03, 0., 6.42108824e-03, 1.35180808e-03,
          3.37952020e-04, 0., 3.37952020e-04, 6.75904041e-04,
          3.37952020e-04, 1.68976013e-03, 6.75904041e-04, 3.37952020e-04,
          0., 6.75904041e-04, 0., 0., 3.37952020e-04, 0., 0.,
          3.37952026e-03, 1.01385603e-03, 1.35180808e-03, 2.36566411e-03,
          4.73132823e-03, 7.09699234e-03, 3.37952020e-04, 1.35180808e-03,
          3.37952020e-04, 3.37952020e-04, 0., 0., 0., 0., 0., 0., 0.,
          3.37952020e-04, 3.37952020e-04, 1.68976013e-03, 1.35180808e-03,
          3.37952026e-03, 3.37952020e-04, 0., 2.36566411e-03, 0., 0.,
          3.37952020e-04, 1.68976013e-03, 6.75904041e-04, 6.75904041e-04,
          3.37952020e-04, 3.37952020e-04, 3.37952020e-04, 6.75904041e-04,
          0., 0., 3.37952020e-04, 1.01385603e-03, 3.37952020e-04,
          1.01385603e-03, 6.75904041e-04, 3.71747231e-03, 0., 0.,
          2.02771206e-03, 1.01385603e-03, 1.68976013e-03, 5.06928051e-03,
          3.37952020e-04, 0., 2.36702472e-01, 5.17849401e-02,
          2.37942804e-02, 1.23947468e-02, 4.77956329e-03, 2.19961326e-03,
          9.08581831e-04, 4.09918313e-04, 1.77490409e-04, 8.87452043e-05,
          5.28245255e-05, 1.69038485e-05, 1.90168303e-05, 4.22596213e-06,
          0., 0., 0., 0., 0., 0., 0., 0., 0., 0., 0., 0., 0., 0., 0., 0.,
          1.03345904e-02, 2.13368833e-02, 1.85900070e-02, 1.68890581e-02,
          1.57374833e-02, 2.17298977e-02, 2.33547799e-02, 2.85991989e-02,
          2.60953158e-02, 2.85717305e-02, 2.48592217e-02, 2.52522361e-02,
          1.77997518e-02, 1.40618887e-02, 1.01718912e-02, 1.12812063e-02,
          8.28922447e-03, 4.99931304e-03, 2.72363261e-03, 1.00155303e-03,
          7.67012127e-04, 4.01466415e-04, 3.78223602e-04, 9.29711678e-05,
          1.47908677e-05, 0., 0., 0., 0., 0., 9.78310243e-04,
          4.37809667e-03, 6.03467412e-03, 8.48995801e-03, 8.63364059e-03,
          9.87818651e-03, 9.26542189e-03, 1.11142807e-02, 1.11924605e-02,
          1.33265713e-02, 1.31828887e-02, 1.64389927e-02, 1.56783201e-02,
          1.87358037e-02, 1.61452889e-02, 1.75588727e-02, 1.55452015e-02,
          1.23947468e-02, 1.36561962e-02, 1.24813793e-02, 1.54184224e-02,
          1.54775865e-02, 1.59044079e-02, 1.14967301e-02, 1.17862085e-02,
          1.31364036e-02, 1.10931508e-02, 2.83773360e-03, 8.98016966e-04,
          1.75377427e-04 ]
      - [ 6.63926639e-03, 6.32311101e-04, 0., 1.58077781e-03,
          1.26462220e-03, 6.32311101e-04, 3.16155551e-04, 0.,
          3.16155551e-04, 2.52924440e-03, 1.26462220e-03, 2.84540001e-03,
          2.52924440e-03, 6.32311101e-04, 2.52924440e-03, 9.48466652e-04,
          3.79386661e-03, 9.48466652e-04, 3.16155551e-04, 3.16155551e-04,
          1.26462220e-03, 3.16155551e-04, 0., 6.32311101e-04, 0., 0.,
          6.32311101e-04, 1.26462220e-03, 0., 6.32311101e-04,
          3.16155551e-04, 2.52924440e-03, 0., 3.16155551e-04, 0.,
          1.26462220e-03, 3.16155551e-04, 0., 0., 6.32311101e-04,
          1.26462220e-03, 3.16155551e-04, 2.21308880e-03, 2.52924440e-03,
          3.16155551e-04, 1.58077781e-03, 9.48466652e-04, 3.16155551e-04,
          0., 3.16155551e-04, 0., 0., 9.48466652e-04, 2.84540001e-03,
          4.11002198e-03, 3.16155551e-04, 9.48466652e-04, 6.63926639e-03,
          1.58077781e-03, 9.48466652e-04, 9.48466652e-04, 1.58077781e-03,
          4.11002198e-03, 1.26462220e-03, 9.48466652e-04, 0.,
          1.89693330e-03, 3.16155551e-04, 0., 4.11002198e-03,
          3.16155551e-04, 3.16155551e-04, 0., 1.58077781e-03,
          3.16155551e-04, 6.32311101e-04, 6.32311101e-04, 0.,
          2.52924440e-03, 0., 9.48466652e-04, 0., 3.16155562e-03,
          3.16155551e-04, 6.32311101e-04, 2.52924440e-03, 6.32311101e-04,
          3.16155551e-04, 6.32311101e-04, 0., 3.47771100e-03, 0.,
          1.26462220e-03, 0., 6.32311101e-04, 3.16155551e-04,
          3.16155551e-04, 3.16155551e-04, 0., 0., 2.84540001e-03,
          6.32311101e-04, 3.16155551e-04, 1.26462220e-03, 0., 0.,
          2.52924440e-03, 3.16155551e-04, 0., 1.26462220e-03,
          3.16155551e-04, 1.26462220e-03, 3.16155551e-04, 0.,
          6.32311101e-04, 9.48466652e-04, 6.32311101e-04, 1.89693330e-03,
          6.32311101e-04, 3.47771100e-03, 6.32311101e-04, 9.48466652e-04,
          6.32311101e-04, 1.58077781e-03, 6.32311101e-04, 3.16155551e-04,
          9.48466652e-04, 6.32311101e-04, 3.16155551e-04, 0.,
          3.16155551e-04, 4.74233320e-03, 2.52924440e-03, 1.89693330e-03,
          2.52924440e-03, 3.16155551e-04, 3.16155551e-04, 3.16155551e-04,
          0., 1.58077781e-03, 3.16155551e-04, 0., 3.16155551e-04,
          6.32311101e-04, 3.16155551e-04, 0., 2.84540001e-03,
          1.89693330e-03, 6.32311101e-04, 1.89693330e-03, 6.32311101e-04,
          3.79386661e-03, 1.26462220e-03, 1.89693330e-03, 6.00695563e-03,
          3.16155551e-04, 1.10654440e-02, 0., 3.16155551e-04,
          1.26462220e-03, 0., 0., 9.48466652e-04, 0., 1.26462220e-03,
          4.42617759e-03, 1.58077781e-03, 3.16155551e-04, 1.58077781e-03,
          0., 3.16155551e-04, 1.26462220e-03, 1.89693330e-03,
          1.26462220e-03, 9.48466652e-04, 3.16155551e-04, 0.,
          6.32311101e-04, 3.16155562e-03, 1.58077781e-03, 1.26462220e-03,
          1.26462220e-03, 6.32311101e-04, 1.26462220e-03, 3.16155551e-04,
          0., 1.26462220e-03, 1.89693330e-03, 1.26462220e-03,
          9.48466652e-04, 3.16155551e-04, 0., 3.16155551e-04,
          6.32311101e-04, 3.16155551e-04, 0., 3.16155551e-04,
          9.48466652e-04, 6.32311101e-04, 1.89693330e-03, 0., 0.,
          1.58077781e-03, 9.48466652e-04, 1.58077781e-03, 6.32311101e-04,
          5.05848881e-03, 1.89693330e-03, 3.16155551e-04, 3.16155551e-04,
          1.26462220e-03, 6.00695563e-03, 1.58077781e-03, 0., 0.,
          9.48466652e-04, 9.48466652e-04, 3.16155551e-04, 3.16155551e-04,
          9.48466652e-04, 0., 3.16155551e-04, 9.48466652e-04,
          9.48466652e-04, 6.32311101e-04, 2.52924440e-03, 9.48466652e-04,
          4.11002198e-03, 4.42617759e-03, 5.37464442e-03, 6.32311101e-04,
          1.26462220e-03, 3.16155551e-04, 1.58077781e-03, 3.16155551e-04,
          0., 9.48466652e-04, 3.16155551e-04, 6.32311101e-04,
          1.26462220e-03, 1.58077781e-03, 6.32311101e-04, 0.,
          6.32311101e-04, 2.84540001e-03, 3.16155551e-04, 1.26462220e-03,
          9.48466652e-04, 6.32311101e-04, 3.16155562e-03, 9.48466652e-04,
          3.16155551e-04, 1.26462220e-03, 9.48466652e-04, 0.,
          1.26462220e-03, 9.48466652e-04, 2.21308880e-03, 9.48466652e-04,
          3.79386661e-03, 9.48466652e-04, 3.16155551e-04, 3.16155551e-04,
          0., 0., 1.58077781e-03, 3.16155551e-04, 3.16155551e-04, 0., 0.,
          3.16155551e-04, 9.48466652e-04, 9.48466652e-04, 0.,
          9.48466652e-04, 9.48466652e-04, 3.16155551e-04, 9.48466652e-04,
          6.32311101e-04, 0., 3.16155551e-04, 1.89693330e-03,
          9.48466652e-04, 6.32311101e-04, 9.48466652e-04, 9.48466652e-04,
          1.26462220e-03, 1.26462220e-03, 3.16155551e-04, 6.32311101e-04,
          2.84540001e-03, 6.32311101e-04, 3.16155551e-04, 4.42617759e-03,
          3.16155551e-04, 6.32311101e-04, 3.16155551e-04, 3.16155551e-04,
          0., 2.52924440e-03, 0., 6.32311101e-04, 6.32311101e-04,
          2.21308880e-03, 6.32311101e-04, 9.48466652e-04, 0.,
          6.32311101e-04, 0., 0., 6.32311101e-04, 3.16155551e-04,
          1.89693330e-03, 9.48466652e-04, 3.16155551e-04, 1.26462220e-03,
          0., 1.26462220e-03, 0., 0., 0., 6.32311101e-04, 0.,
          2.52924440e-03, 1.58077781e-03, 1.26462220e-03, 6.32311101e-04,
          0., 3.16155551e-04, 2.21308880e-03, 6.32311101e-04,
          6.32311101e-04, 6.32311101e-04, 1.89693330e-03, 1.26462220e-03,
          0., 0., 1.58077781e-03, 3.16155551e-04, 3.16155551e-04, 0.,
          1.26462220e-03, 6.32311101e-04, 3.16155551e-04, 3.16155551e-04,
          1.89693330e-03, 6.32311101e-04, 5.69080003e-03, 6.00695563e-03,
          3.16155562e-03, 1.89693330e-03, 9.48466652e-04, 9.48466652e-04,
          1.58077781e-03, 9.48466652e-04, 9.48466652e-04, 6.32311101e-04,
          3.16155551e-04, 3.16155551e-04, 3.16155551e-04, 1.26462220e-03,
          1.58077781e-03, 0., 2.84540001e-03, 0., 1.89693330e-03,
          9.48466652e-04, 3.16155551e-04, 4.74233320e-03, 0.,
          2.52924440e-03, 2.52924440e-03, 0., 3.16155551e-04,
          3.16155551e-04, 6.32311101e-04, 0., 1.58077781e-03, 0.,
          3.16155551e-04, 0., 3.16155551e-04, 1.58077781e-03,
          1.89693330e-03, 5.05848881e-03, 0., 3.79386661e-03,
          3.16155551e-04, 3.16155551e-04, 0., 0., 6.32311101e-04,
          2.52924440e-03, 3.16155551e-04, 3.16155551e-04, 0.,
          9.48466652e-04, 2.21308880e-03, 3.16155551e-04, 6.32311101e-04,
          0., 0., 6.32311101e-04, 0., 3.16155551e-04, 0., 0.,
          1.26462220e-03, 0., 3.16155551e-04, 0., 2.21308880e-03,
          2.21308880e-03, 6.32311101e-04, 2.21308880e-03, 9.48466652e-04,
          9.48466652e-04, 9.48466652e-04, 6.32311101e-04, 3.16155551e-04,
          1.26462220e-03, 0., 3.16155551e-04, 3.16155562e-03,
          2.52924440e-03, 2.21308880e-03, 3.16155551e-04, 3.79386661e-03,
          1.26462220e-03, 3.16155551e-04, 3.16155551e-04, 6.32311101e-04,
          0., 6.32311101e-04, 0., 1.26462220e-03, 1.26462220e-03,
          3.47771100e-03, 1.26462220e-03, 6.32311101e-04, 0., 0.,
          6.32311101e-04, 0., 6.32311101e-04, 6.32311101e-04, 0.,
          2.84540001e-03, 9.48466652e-04, 1.58077781e-03, 9.48466652e-04,
          0., 9.48466652e-04, 9.48466652e-04, 3.47771100e-03, 0.,
          3.16155562e-03, 6.32311101e-04, 0., 3.16155551e-04,
          6.95542200e-03, 3.16155551e-04, 1.26462220e-03, 1.26462220e-03,
          3.16155551e-04, 2.52924440e-03, 3.16155551e-04, 9.48466652e-04,
          1.58077781e-03, 6.32311101e-04, 0., 9.48466652e-04,
          9.48466652e-04, 1.58077781e-03, 6.32311101e-04, 9.48466652e-04,
          1.89693330e-03, 0., 0., 1.26462220e-03, 1.89693330e-03,
          9.48466652e-04, 6.32311101e-04, 1.26462220e-03, 1.58077781e-03,
          6.32311101e-04, 1.58077781e-03, 2.84540001e-03, 1.26462220e-03,
          0., 6.32311101e-04, 3.16155551e-04, 0., 9.48466652e-04,
          6.32311101e-04, 3.16155551e-04, 6.32311101e-04, 8.22004396e-03,
          6.32311101e-04, 3.79386661e-03, 6.32311101e-04, 1.26462220e-03,
          1.58077781e-03, 6.32311101e-04, 0., 0., 9.48466652e-04,
          1.26462220e-03, 1.89693330e-03, 1.26462220e-03, 3.16155551e-04,
          9.48466652e-04, 1.26462220e-03, 9.48466652e-04, 3.16155551e-04,
          0., 9.48466652e-04, 3.16155551e-04, 1.58077781e-03,
          6.32311101e-04, 6.32311101e-04, 6.32311101e-04, 1.89693330e-03,
          3.16155551e-04, 2.52924440e-03, 0., 6.32311101e-04,
          1.26462220e-03, 1.26462220e-03, 1.58077781e-03, 0.,
          1.26462220e-03, 0., 1.26462220e-03, 1.26462220e-03, 0.,
          1.26462220e-03, 3.16155551e-04, 2.21308880e-03, 3.16155551e-04,
          2.21308880e-03, 1.58077781e-03, 3.16155551e-04, 6.32311101e-04,
          1.89693330e-03, 1.26462220e-03, 3.16155551e-04, 0.,
          1.89693330e-03, 6.32311101e-04, 2.52924440e-03, 6.32311101e-04,
          6.32311101e-04, 9.48466652e-04, 6.32311101e-04, 0.,
          1.58077781e-03, 6.32311101e-04, 6.32311101e-04, 0., 0.,
          3.16155551e-04, 1.89693330e-03, 9.48466652e-04, 0., 0., 0., 0.,
          6.32311101e-04, 3.16155551e-04, 3.16155551e-04, 1.26462220e-03,
          0., 6.32311101e-04, 0., 1.58077781e-03, 9.48466652e-04,
          6.32311101e-04, 0., 3.16155551e-04, 6.32311101e-04,
          9.48466652e-04, 3.16155551e-04, 9.48466652e-04, 0.,
          1.58077781e-03, 3.16155551e-04, 6.32311101e-04, 3.16155551e-04,
          9.48466652e-04, 6.32311101e-04, 3.16155551e-04, 2.21308880e-03,
          0., 2.21308880e-03, 9.48466652e-04, 3.16155551e-04,
          1.58077781e-03, 0., 2.84540001e-03, 0., 1.58077781e-03,
          9.48466652e-04, 4.11002198e-03, 1.58077781e-03, 0.,
          9.48466652e-04, 3.16155551e-04, 6.32311101e-04, 3.16155551e-04,
          9.48466652e-04, 0., 1.89693330e-03, 0., 9.48466652e-04, 0.,
          3.16155551e-04, 1.89693330e-03, 9.48466652e-04, 3.16155551e-04,
          9.48466652e-04, 3.16155562e-03, 3.16155551e-04, 3.16155551e-04,
          6.32311101e-04, 1.26462220e-03, 9.48466652e-04, 0., 0.,
          1.89693330e-03, 9.48466652e-04, 0., 6.32311101e-04,
          9.48466652e-04, 1.26462220e-03, 3.16155551e-04, 6.32311101e-04,
          3.16155551e-04, 6.32311101e-04, 9.48466652e-04, 1.26462220e-03,
          9.48466652e-04, 3.16155551e-04, 1.89693330e-03, 0.,
          3.16155551e-04, 5.37464442e-03, 6.32311101e-04, 9.48466652e-04,
          6.32311101e-04, 3.16155551e-04, 3.79386661e-03, 3.16155551e-04,
          3.79386661e-03, 0., 1.26462220e-03, 2.52924440e-03,
          3.16155551e-04, 1.58077781e-03, 1.26462220e-03, 9.48466652e-04,
          3.16155551e-04, 3.16155551e-04, 1.58077781e-03, 0.,
          3.16155551e-04, 5.05848881e-03, 3.16155551e-04, 0., 0., 0.,
          6.32311101e-04, 2.21308880e-03, 1.26462220e-03, 1.58077781e-03,
          1.58077781e-03, 0., 0., 2.52924440e-03, 6.32311101e-04, 0.,
          3.16155551e-04, 1.58077781e-03, 3.16155551e-04, 9.48466652e-04,
          3.16155551e-04, 3.16155551e-04, 3.16155551e-04, 3.16155551e-04,
          1.89693330e-03, 6.32311101e-04, 3.16155551e-04, 0.,
          6.32311101e-04, 3.79386661e-03, 3.16155551e-04, 0.,
          2.21308880e-03, 2.84540001e-03, 9.48466652e-04, 6.32311101e-04,
          6.32311101e-04, 9.48466652e-04, 6.32311101e-04, 0.,
          1.89693330e-03, 6.32311101e-04, 6.32311101e-04, 9.48466652e-04,
          6.32311101e-04, 6.32311101e-04, 1.89693330e-03, 0., 0.,
          1.26462220e-03, 0., 1.26462220e-03, 3.16155551e-04,
          9.48466652e-04, 0., 6.32311101e-04, 3.16155551e-04,
          3.47771100e-03, 1.58077781e-03, 9.48466652e-04, 9.48466652e-04,
          1.89693330e-03, 0., 1.26462220e-03, 0., 6.32311101e-04, 0.,
          6.32311101e-04, 2.84540001e-03, 9.48466652e-04, 3.47771100e-03,
          6.32311101e-04, 3.47771100e-03, 3.47771100e-03, 3.16155562e-03,
          6.32311101e-04, 6.32311101e-04, 4.11002198e-03, 0.,
          6.32311101e-04, 2.21308880e-03, 6.32311101e-04, 0.,
          2.21308880e-03, 1.26462220e-03, 1.89693330e-03, 1.26462220e-03,
          9.48466652e-04, 0., 3.16155551e-04, 3.16155551e-04, 0., 0.,
          3.16155551e-04, 0., 1.26462220e-03, 6.32311101e-04,
          6.32311101e-04, 3.16155551e-04, 0., 6.32311101e-04,
          6.32311101e-04, 0., 6.32311101e-04, 6.32311101e-04,
          3.16155551e-04, 1.26462220e-03, 1.26462220e-03, 3.16155551e-04,
          6.32311101e-04, 1.89693330e-03, 0., 6.32311101e-04,
          3.16155551e-04, 3.16155551e-04, 1.26462220e-03, 0.,
          6.32311101e-04, 0., 9.48466652e-04, 6.32311101e-04,
          1.89693330e-03, 3.16155551e-04, 6.32311101e-04, 9.48466652e-04,
          3.16155551e-04, 1.58077781e-03, 0., 3.16155562e-03,
          9.48466652e-04, 6.32311101e-04, 6.32311101e-04, 3.16155551e-04,
          9.48466652e-04, 0., 6.32311101e-04, 3.16155551e-04,
          3.16155551e-04, 6.32311101e-04, 1.58077781e-03, 0.,
          3.16155551e-04, 3.16155551e-04, 1.89693330e-03, 2.52924440e-03,
          9.48466652e-04, 0., 1.58077781e-03, 8.22004396e-03,
          2.52924440e-03, 2.52924440e-03, 6.32311101e-04, 1.89693330e-03,
          6.32311101e-04, 3.16155551e-04, 9.48466652e-04, 9.48466652e-04,
          1.26462220e-03, 1.89693330e-03, 3.16155551e-04, 1.58077781e-03,
          3.16155551e-04, 1.58077781e-03, 1.26462220e-03, 1.26462220e-03,
          3.16155551e-04, 0., 1.26462220e-03, 6.32311101e-04,
          1.89693330e-03, 2.52924440e-03, 3.16155551e-04, 9.48466652e-04,
          0., 0., 6.32311101e-04, 0., 3.16155551e-04, 1.26462220e-03, 0.,
          1.26462220e-03, 1.58077781e-03, 0., 2.52924440e-03, 0., 0.,
          3.16155551e-04, 2.21308880e-03, 2.21308880e-03, 6.32311101e-04,
          3.16155551e-04, 0., 1.58077781e-03, 3.16155551e-04, 0.,
          6.32311101e-04, 3.16155551e-04, 6.32311101e-04, 3.79386661e-03,
          0., 0., 2.21308880e-03, 0., 2.52924440e-03, 0., 0.,
          9.48466652e-04, 1.26462220e-03, 0., 3.16155551e-04, 0.,
          3.16155551e-04, 1.89693330e-03, 2.52924440e-03, 1.26462220e-03,
          0., 1.58077781e-03, 3.16155551e-04, 6.32311101e-04,
          1.26462220e-03, 0., 1.58077781e-03, 2.21308880e-03, 0.,
          3.16155551e-04, 3.16155551e-04, 6.32311101e-04, 3.16155551e-04,
          2.52924440e-03, 6.32311101e-04, 0., 1.58077781e-03, 0.,
          2.21308880e-03, 1.89693330e-03, 6.32311101e-04, 0.,
          2.21308880e-03, 0., 6.32311101e-04, 0., 0., 9.48466652e-04,
          6.63926639e-03, 9.48466652e-04, 6.32311101e-04, 6.32311101e-04,
          3.16155551e-04, 1.26462220e-03, 0., 3.47771100e-03,
          1.26462220e-03, 0., 0., 6.32311101e-04, 2.21308880e-03,
          6.32311101e-04, 0., 1.58077781e-03, 1.58077781e-03, 0.,
          6.32311101e-04, 0., 3.16155551e-04, 1.26462220e-03,
          6.32311101e-04, 0., 6.32311124e-03, 9.48466652e-04, 0.,
          6.32311101e-04, 3.16155551e-04, 0., 6.32311101e-04,
          3.16155551e-04, 9.48466652e-04, 0., 0., 1.26462220e-03,
          3.16155551e-04, 9.48466652e-04, 0., 6.32311101e-04, 0., 0.,
          1.58077781e-03, 0., 0., 0., 7.58773321e-03, 1.58077781e-03,
          9.48466652e-04, 0., 6.32311101e-04, 3.16155551e-04, 0.,
          6.32311101e-04, 0., 0., 0., 6.32311101e-04, 2.52924440e-03, 0.,
          2.84540001e-03, 0., 3.47771100e-03, 1.26462220e-03,
          3.16155551e-04, 3.16155551e-04, 0., 3.16155551e-04,
          3.16155551e-04, 1.89693330e-03, 9.48466652e-04, 2.52924440e-03,
          6.32311101e-04, 0., 3.16155551e-04, 6.32311101e-04,
          3.16155551e-04, 0., 1.58077781e-03, 3.47771100e-03, 0.,
          1.26462220e-03, 1.89693330e-03, 3.47771100e-03, 1.26462220e-03,
          0., 3.16155562e-03, 3.16155551e-04, 1.26462220e-03,
          1.26462220e-03, 3.16155551e-04, 6.32311101e-04, 7.12061450e-02,
          4.34688143e-02, 3.71146090e-02, 3.70414667e-02, 2.70103738e-02,
          2.46344712e-02, 1.89163480e-02, 1.78547278e-02, 1.23759685e-02,
          1.14340298e-02, 7.32052699e-03, 6.13700878e-03, 4.34400048e-03,
          3.55498795e-03, 2.35373899e-03, 2.03458802e-03, 1.39185321e-03,
          1.21454708e-03, 9.28640889e-04, 6.51600072e-04, 6.89277600e-04,
          5.20836795e-04, 4.45481681e-04, 2.65959214e-04, 1.92820429e-04,
          1.10816334e-04, 9.08693983e-05, 2.43795948e-05, 4.43265344e-06,
          0., 1.93042052e-03, 5.14187803e-03, 1.02394298e-02,
          1.63010824e-02, 1.86304431e-02, 2.31007729e-02, 2.07426026e-02,
          2.25755032e-02, 1.80209521e-02, 1.73715688e-02, 1.35461893e-02,
          1.28923729e-02, 1.04521969e-02, 1.04300333e-02, 8.73676036e-03,
          9.51469038e-03, 1.00288782e-02, 9.68313124e-03, 1.27062015e-02,
          1.14340298e-02, 1.11259604e-02, 8.04526638e-03, 8.65475554e-03,
          9.13791545e-03, 1.22274747e-02, 1.05740950e-02, 7.71724945e-03,
          1.93042052e-03, 3.76775541e-04, 6.42734740e-05, 2.10551036e-04,
          5.87326591e-04, 1.57137564e-03, 3.64364102e-03, 5.39453933e-03,
          8.85200873e-03, 1.05807437e-02, 1.41578950e-02, 1.46299731e-02,
          1.71166919e-02, 1.54411485e-02, 1.71299893e-02, 1.42687112e-02,
          1.46831647e-02, 1.18639972e-02, 1.18728625e-02, 1.06206378e-02,
          8.65697209e-03, 8.54172278e-03, 7.24738836e-03, 8.05191509e-03,
          7.33825797e-03, 9.48587805e-03, 9.65653546e-03, 1.24668377e-02,
          1.48471724e-02, 2.01065168e-02, 1.61392912e-02, 1.83401033e-02,
          1.98294744e-02 ]
      - [ 4.13354533e-03, 0., 3.17965023e-04, 1.90779008e-03,
          3.17965023e-04, 9.53895040e-04, 0., 6.35930046e-04, 0.,
          1.58982514e-03, 9.53895040e-04, 1.58982514e-03, 3.49761522e-03,
          6.35930046e-04, 6.35930046e-04, 1.27186009e-03, 3.17965029e-03,
          1.90779008e-03, 3.17965023e-04, 2.54372018e-03, 1.58982514e-03,
          3.17965023e-04, 0., 1.90779008e-03, 3.17965023e-04, 0.,
          1.90779008e-03, 3.17965023e-04, 6.35930046e-04, 1.58982514e-03,
          9.53895040e-04, 2.22575525e-03, 0., 1.27186009e-03, 0.,
          3.17965029e-03, 0., 0., 0., 0., 1.27186009e-03, 0.,
          2.54372018e-03, 3.17965023e-04, 6.35930046e-04, 3.17965029e-03,
          3.17965023e-04, 6.35930046e-04, 0., 3.17965023e-04, 0., 0.,
          3.17965023e-04, 2.86168512e-03, 9.53895040e-04, 0.,
          4.45151050e-03, 7.94912595e-03, 9.53895040e-04, 3.17965023e-04,
          9.53895040e-04, 3.17965023e-04, 2.86168512e-03, 3.17965023e-04,
          3.17965023e-04, 0., 3.17965023e-04, 6.35930046e-04,
          3.17965023e-04, 4.76947520e-03, 6.35930046e-04, 9.53895040e-04,
          0., 0., 6.35930046e-04, 0., 6.35930046e-04, 0., 2.54372018e-03,
          0., 6.35930046e-04, 1.27186009e-03, 2.54372018e-03,
          3.17965023e-04, 1.90779008e-03, 2.54372018e-03, 6.35930046e-04,
          9.53895040e-04, 9.53895040e-04, 0., 1.90779008e-03, 0., 0., 0.,
          1.27186009e-03, 6.35930046e-04, 1.27186009e-03, 3.17965023e-04,
          0., 6.35930046e-04, 7.94912595e-03, 9.53895040e-04, 0.,
          3.17965029e-03, 6.35930046e-04, 6.35930046e-04, 1.58982514e-03,
          3.17965023e-04, 0., 3.17965023e-04, 9.53895040e-04,
          4.13354533e-03, 0., 3.17965023e-04, 0., 0., 3.17965023e-04,
          1.90779008e-03, 1.27186009e-03, 4.76947520e-03, 9.53895040e-04,
          0., 3.17965023e-04, 1.58982514e-03, 9.53895040e-04, 0.,
          3.17965023e-04, 0., 6.35930046e-04, 0., 9.53895040e-04,
          1.90779008e-03, 3.17965029e-03, 2.54372018e-03, 1.58982514e-03,
          1.27186009e-03, 6.35930046e-04, 3.17965023e-04, 3.17965023e-04,
          1.27186009e-03, 3.17965023e-04, 0., 1.27186009e-03, 0.,
          2.22575525e-03, 9.53895040e-04, 3.17965023e-04, 0., 0.,
          6.35930046e-04, 0., 2.54372018e-03, 4.13354533e-03,
          1.90779008e-03, 1.58982514e-03, 3.17965023e-04, 8.58505536e-03,
          0., 1.58982514e-03, 6.35930046e-04, 0., 3.17965023e-04,
          6.35930046e-04, 0., 2.54372018e-03, 2.86168512e-03,
          1.58982514e-03, 1.27186009e-03, 9.53895040e-04, 0., 0.,
          1.58982514e-03, 1.58982514e-03, 9.53895040e-04, 1.27186009e-03,
          9.53895040e-04, 0., 9.53895040e-04, 2.22575525e-03,
          5.40540554e-03, 1.58982514e-03, 1.58982514e-03, 1.90779008e-03,
          1.58982514e-03, 6.35930046e-04, 0., 2.22575525e-03,
          1.58982514e-03, 0., 0., 0., 3.17965023e-04, 3.17965023e-04,
          1.27186009e-03, 0., 0., 1.58982514e-03, 6.35930046e-04,
          3.17965023e-04, 1.58982514e-03, 9.53895040e-04, 0.,
          6.35930046e-04, 1.58982514e-03, 1.58982514e-03, 1.27186009e-03,
          6.67726528e-03, 1.90779008e-03, 1.27186009e-03, 6.35930046e-04,
          2.22575525e-03, 3.49761522e-03, 3.17965023e-04, 3.17965023e-04,
          6.35930046e-04, 6.35930046e-04, 3.17965023e-04, 3.17965023e-04,
          3.17965023e-04, 6.35930046e-04, 0., 1.27186009e-03,
          1.27186009e-03, 3.17965023e-04, 9.53895040e-04, 2.86168512e-03,
          1.27186009e-03, 3.17965029e-03, 4.76947520e-03, 5.40540554e-03,
          1.27186009e-03, 3.17965023e-04, 6.35930046e-04, 3.17965023e-04,
          9.53895040e-04, 6.35930046e-04, 6.35930046e-04, 3.17965023e-04,
          3.17965023e-04, 3.17965023e-04, 3.17965023e-04, 3.17965023e-04,
          3.17965023e-04, 0., 1.90779008e-03, 9.53895040e-04,
          2.54372018e-03, 3.17965023e-04, 1.27186009e-03, 2.22575525e-03,
          3.17965023e-04, 3.17965023e-04, 9.53895040e-04, 6.35930046e-04,
          0., 1.27186009e-03, 1.58982514e-03, 1.58982514e-03,
          3.17965023e-04, 1.90779008e-03, 9.53895040e-04, 6.35930046e-04,
          3.17965023e-04, 0., 0., 1.27186009e-03, 9.53895040e-04,
          6.35930046e-04, 0., 0., 0., 3.17965023e-04, 2.22575525e-03,
          1.27186009e-03, 6.35930046e-04, 6.35930046e-04, 0.,
          9.53895040e-04, 6.35930046e-04, 0., 3.17965023e-04,
          3.17965029e-03, 3.17965023e-04, 2.22575525e-03, 0.,
          2.22575525e-03, 9.53895040e-04, 3.17965023e-04, 3.17965023e-04,
          6.35930046e-04, 2.86168512e-03, 3.17965023e-04, 9.53895040e-04,
          2.54372018e-03, 3.17965023e-04, 1.58982514e-03, 0.,
          1.58982514e-03, 1.90779008e-03, 9.53895040e-04, 6.35930046e-04,
          1.90779008e-03, 9.53895040e-04, 6.35930046e-04, 6.35930046e-04,
          9.53895040e-04, 0., 0., 9.53895040e-04, 3.17965023e-04,
          6.35930046e-04, 0., 3.17965023e-04, 3.17965023e-04,
          3.17965023e-04, 1.27186009e-03, 0., 9.53895040e-04, 0.,
          3.17965023e-04, 9.53895040e-04, 2.22575525e-03, 1.27186009e-03,
          9.53895040e-04, 6.35930046e-04, 9.53895040e-04, 6.35930046e-04,
          3.17965023e-04, 3.17965023e-04, 2.22575525e-03, 0., 0.,
          3.17965023e-04, 2.22575525e-03, 6.35930046e-04, 6.35930046e-04,
          0., 6.35930046e-04, 9.53895040e-04, 3.17965023e-04,
          1.58982514e-03, 9.53895040e-04, 0., 0., 0., 9.53895040e-04,
          3.17965023e-04, 2.86168512e-03, 4.45151050e-03, 9.53895040e-04,
          8.58505536e-03, 1.27186009e-03, 6.35930046e-04, 1.27186009e-03,
          3.17965023e-04, 9.53895040e-04, 1.27186009e-03, 6.35930046e-04,
          0., 9.53895040e-04, 0., 3.17965023e-04, 0., 3.17965029e-03,
          3.17965023e-04, 1.27186009e-03, 1.58982514e-03, 3.17965023e-04,
          9.53895040e-04, 3.17965023e-04, 2.22575525e-03, 3.81558016e-03,
          3.17965023e-04, 0., 9.53895040e-04, 1.90779008e-03, 0.,
          1.90779008e-03, 0., 9.53895040e-04, 0., 9.53895040e-04,
          9.53895040e-04, 1.58982514e-03, 2.22575525e-03, 9.53895040e-04,
          2.22575525e-03, 6.35930046e-04, 3.17965023e-04, 9.53895040e-04,
          3.17965023e-04, 6.35930046e-04, 1.27186009e-03, 0.,
          3.17965023e-04, 0., 5.08744037e-03, 2.86168512e-03,
          6.35930046e-04, 3.17965023e-04, 0., 3.17965023e-04,
          6.35930046e-04, 3.17965023e-04, 3.17965023e-04, 3.17965023e-04,
          3.17965023e-04, 6.35930046e-04, 0., 1.90779008e-03, 0.,
          9.53895040e-04, 1.27186009e-03, 1.27186009e-03, 9.53895040e-04,
          1.27186009e-03, 0., 0., 3.17965023e-04, 6.35930046e-04,
          2.22575525e-03, 0., 0., 1.90779008e-03, 3.81558016e-03,
          3.17965029e-03, 3.17965023e-04, 3.17965029e-03, 1.27186009e-03,
          3.17965023e-04, 0., 6.35930046e-04, 1.27186009e-03,
          9.53895040e-04, 0., 3.49761522e-03, 2.22575525e-03,
          3.49761522e-03, 0., 1.27186009e-03, 3.17965023e-04,
          3.17965023e-04, 6.35930046e-04, 6.35930046e-04, 6.35930046e-04,
          6.35930046e-04, 0., 6.04133541e-03, 6.35930046e-04,
          1.27186009e-03, 1.27186009e-03, 3.17965023e-04, 6.35930046e-04,
          9.53895040e-04, 2.86168512e-03, 0., 1.27186009e-03,
          9.53895040e-04, 6.35930046e-04, 3.17965023e-04, 7.31319562e-03,
          0., 0., 9.53895040e-04, 0., 2.22575525e-03, 6.35930046e-04,
          3.17965023e-04, 0., 0., 0., 3.17965023e-04, 3.17965023e-04,
          1.27186009e-03, 3.17965023e-04, 3.17965023e-04, 1.27186009e-03,
          6.35930046e-04, 1.27186009e-03, 1.90779008e-03, 9.53895040e-04,
          6.35930046e-04, 2.86168512e-03, 1.58982514e-03, 1.27186009e-03,
          3.17965023e-04, 1.58982514e-03, 2.86168512e-03, 3.17965023e-04,
          3.17965023e-04, 0., 6.35930046e-04, 1.27186009e-03,
          6.35930046e-04, 0., 3.17965023e-04, 9.53895040e-04, 0.,
          6.35930046e-04, 9.53895040e-04, 1.27186009e-03, 1.27186009e-03,
          6.35930046e-04, 0., 0., 0., 3.17965023e-04, 3.49761522e-03,
          2.22575525e-03, 0., 6.35930046e-04, 9.53895040e-04,
          6.35930046e-04, 6.35930046e-04, 9.53895040e-04, 0.,
          9.53895040e-04, 0., 6.35930046e-04, 0., 6.35930046e-04,
          3.17965023e-04, 3.17965029e-03, 0., 2.22575525e-03, 0.,
          9.53895040e-04, 3.17965023e-04, 1.90779008e-03, 1.58982514e-03,
          0., 6.35930046e-04, 3.17965023e-04, 2.86168512e-03,
          1.27186009e-03, 9.53895040e-04, 3.17965023e-04, 0.,
          1.58982514e-03, 3.17965023e-04, 3.17965023e-04, 2.54372018e-03,
          1.58982514e-03, 2.22575525e-03, 9.53895040e-04, 9.53895040e-04,
          0., 3.17965023e-04, 1.27186009e-03, 2.54372018e-03,
          2.86168512e-03, 1.27186009e-03, 6.35930046e-04, 1.90779008e-03,
          9.53895040e-04, 1.90779008e-03, 6.35930046e-04, 3.17965023e-04,
          3.17965023e-04, 9.53895040e-04, 3.17965023e-04, 6.35930046e-04,
          1.58982514e-03, 3.49761522e-03, 0., 0., 6.35930046e-04,
          9.53895040e-04, 2.22575525e-03, 1.27186009e-03, 3.17965023e-04,
          0., 0., 6.35930046e-04, 0., 2.22575525e-03, 3.17965023e-04,
          6.35930046e-04, 0., 3.17965023e-04, 3.17965023e-04,
          2.22575525e-03, 0., 6.35930046e-04, 1.58982514e-03,
          1.90779008e-03, 0., 3.17965023e-04, 0., 0., 2.86168512e-03,
          1.58982514e-03, 2.22575525e-03, 9.53895040e-04, 1.27186009e-03,
          1.58982514e-03, 1.58982514e-03, 1.90779008e-03, 0.,
          2.54372018e-03, 6.35930046e-04, 1.90779008e-03, 0.,
          6.67726528e-03, 9.53895040e-04, 0., 9.53895040e-04, 0.,
          6.35930046e-04, 9.53895040e-04, 9.53895040e-04, 1.90779008e-03,
          6.35930046e-04, 6.35930046e-04, 9.53895040e-04, 9.53895040e-04,
          9.53895040e-04, 0., 1.58982514e-03, 3.17965023e-04,
          9.53895040e-04, 2.22575525e-03, 0., 3.17965023e-04,
          2.22575525e-03, 0., 1.27186009e-03, 0., 0., 3.17965029e-03,
          3.17965023e-04, 0., 9.53895040e-04, 1.27186009e-03,
          9.53895040e-04, 0., 6.35930046e-04, 3.17965023e-04,
          3.17965023e-04, 3.17965023e-04, 2.86168512e-03, 9.53895040e-04,
          3.17965023e-04, 3.17965023e-04, 0., 6.35930046e-04,
          2.86168512e-03, 6.35930046e-04, 1.27186009e-03, 0.,
          3.17965023e-04, 2.22575525e-03, 0., 3.17965029e-03, 0.,
          1.58982514e-03, 0., 3.17965023e-04, 9.53895040e-04,
          4.45151050e-03, 6.35930046e-04, 0., 6.35930046e-04,
          1.90779008e-03, 0., 0., 1.90779008e-03, 6.35930046e-04, 0.,
          3.17965023e-04, 0., 0., 2.54372018e-03, 3.17965029e-03,
          1.58982514e-03, 3.17965023e-04, 6.35930046e-04, 0.,
          9.53895040e-04, 3.17965023e-04, 1.27186009e-03, 0.,
          2.22575525e-03, 1.90779008e-03, 1.90779008e-03, 3.17965023e-04,
          3.17965023e-04, 3.17965023e-04, 3.17965023e-04, 6.35930046e-04,
          1.27186009e-03, 3.17965023e-04, 2.86168512e-03, 3.17965023e-04,
          1.90779008e-03, 9.53895040e-04, 0., 3.17965023e-04,
          1.58982514e-03, 9.53895040e-04, 3.17965023e-04, 6.35930046e-04,
          9.53895040e-04, 1.27186009e-03, 1.58982514e-03, 9.53895040e-04,
          0., 3.17965023e-04, 1.58982514e-03, 2.22575525e-03, 0.,
          1.58982514e-03, 9.53895040e-04, 0., 2.54372018e-03, 0.,
          1.58982514e-03, 0., 0., 0., 0., 1.27186009e-03, 1.90779008e-03,
          9.53895040e-04, 3.17965023e-04, 1.27186009e-03, 1.27186009e-03,
          0., 6.35930046e-04, 3.17965023e-04, 0., 0., 6.35930046e-04,
          2.54372018e-03, 6.35930046e-04, 1.90779008e-03, 3.17965023e-04,
          2.86168512e-03, 2.22575525e-03, 1.27186009e-03, 6.35930046e-04,
          1.58982514e-03, 4.76947520e-03, 6.35930046e-04, 6.35930046e-04,
          1.58982514e-03, 6.35930046e-04, 0., 2.22575525e-03,
          1.27186009e-03, 6.35930046e-04, 3.17965023e-04, 1.27186009e-03,
          0., 0., 6.35930046e-04, 1.90779008e-03, 3.17965023e-04,
          6.35930046e-04, 0., 1.27186009e-03, 1.58982514e-03,
          3.17965023e-04, 1.27186009e-03, 0., 1.58982514e-03, 0., 0.,
          1.27186009e-03, 0., 0., 2.86168512e-03, 1.58982514e-03,
          1.27186009e-03, 3.17965023e-04, 2.86168512e-03, 3.17965023e-04,
          0., 2.86168512e-03, 3.17965023e-04, 6.35930046e-04, 0.,
          6.35930046e-04, 3.17965023e-04, 6.35930046e-04, 1.58982514e-03,
          1.27186009e-03, 0., 6.35930046e-04, 6.35930046e-04,
          6.35930046e-04, 1.27186009e-03, 0., 1.90779008e-03,
          9.53895040e-04, 3.17965023e-04, 0., 3.17965023e-04,
          6.35930046e-04, 0., 6.35930046e-04, 0., 3.17965023e-04, 0.,
          2.22575525e-03, 0., 6.35930046e-04, 6.35930046e-04,
          6.35930046e-04, 4.76947520e-03, 1.27186009e-03, 3.17965023e-04,
          3.81558016e-03, 8.90302099e-03, 1.27186009e-03, 1.27186009e-03,
          6.35930046e-04, 9.53895040e-04, 3.17965023e-04, 0., 0.,
          6.35930046e-04, 6.35930046e-04, 6.35930046e-04, 1.27186009e-03,
          1.90779008e-03, 6.35930046e-04, 1.27186009e-03, 6.35930046e-04,
          1.27186009e-03, 3.17965023e-04, 6.35930046e-04, 3.17965023e-04,
          0., 1.27186009e-03, 1.58982514e-03, 0., 9.53895040e-04, 0., 0.,
          0., 0., 3.17965023e-04, 2.54372018e-03, 0., 9.53895040e-04,
          1.90779008e-03, 6.35930046e-04, 2.54372018e-03, 0.,
          1.58982514e-03, 0., 1.27186009e-03, 3.17965023e-04,
          6.35930046e-04, 6.35930046e-04, 0., 1.90779008e-03,
          6.35930046e-04, 0., 9.53895040e-04, 6.35930046e-04, 0.,
          1.08108111e-02, 3.17965023e-04, 0., 2.22575525e-03, 0.,
          9.53895040e-04, 9.53895040e-04, 0., 1.27186009e-03,
          3.17965023e-04, 0., 3.17965023e-04, 6.35930046e-04, 0.,
          3.17965029e-03, 9.53895040e-04, 6.35930046e-04, 0.,
          1.90779008e-03, 1.58982514e-03, 0., 9.53895040e-04,
          3.17965023e-04, 1.90779008e-03, 9.53895040e-04, 3.17965023e-04,
          0., 3.17965023e-04, 0., 3.17965023e-04, 1.27186009e-03,
          3.17965023e-04, 0., 6.35930046e-04, 3.17965023e-04,
          3.17965029e-03, 9.53895040e-04, 6.35930046e-04, 0.,
          1.58982514e-03, 0., 9.53895040e-04, 3.17965023e-04,
          6.35930046e-04, 2.22575525e-03, 3.81558016e-03, 2.54372018e-03,
          6.35930046e-04, 0., 6.35930046e-04, 6.35930046e-04,
          9.53895040e-04, 2.54372018e-03, 6.35930046e-04, 0.,
          3.17965023e-04, 2.22575525e-03, 2.22575525e-03, 5.08744037e-03,
          1.27186009e-03, 0., 0., 0., 6.35930046e-04, 0., 0.,
          1.27186009e-03, 2.54372018e-03, 3.17965023e-04, 8.58505536e-03,
          6.35930046e-04, 0., 3.17965023e-04, 0., 0., 6.35930046e-04,
          3.17965023e-04, 6.35930046e-04, 3.17965023e-04, 0., 0.,
          3.17965023e-04, 1.27186009e-03, 0., 0., 0., 0., 6.35930046e-04,
          3.17965023e-04, 6.35930046e-04, 9.53895040e-04, 5.72337024e-03,
          9.53895040e-04, 0., 6.35930046e-04, 0., 3.17965023e-04, 0.,
          6.35930046e-04, 1.27186009e-03, 2.54372018e-03, 0., 0.,
          2.22575525e-03, 0., 1.58982514e-03, 3.17965023e-04,
          2.22575525e-03, 6.35930046e-04, 1.27186009e-03, 3.17965023e-04,
          0., 0., 9.53895040e-04, 3.81558016e-03, 9.53895040e-04,
          6.35930046e-04, 6.35930046e-04, 3.17965023e-04, 3.17965023e-04,
          6.35930046e-04, 6.35930046e-04, 0., 6.35930046e-04,
          6.35930046e-04, 9.53895040e-04, 0., 1.27186009e-03,
          3.17965029e-03, 9.53895040e-04, 3.17965023e-04, 1.27186009e-03,
          1.58982514e-03, 1.27186009e-03, 3.17965029e-03, 6.35930046e-04,
          6.35930046e-04, 8.69150832e-02, 4.61630784e-02, 3.72449867e-02,
          3.61424126e-02, 2.56105326e-02, 2.35526785e-02, 1.68960635e-02,
          1.45262824e-02, 1.01787951e-02, 9.28850286e-03, 6.79524988e-03,
          5.95044671e-03, 4.06155363e-03, 3.54167470e-03, 1.97770586e-03,
          1.34735275e-03, 8.62132467e-04, 5.32875827e-04, 4.24567756e-04,
          3.16259655e-04, 2.92431854e-04, 2.49108620e-04, 2.64271745e-04,
          1.14806586e-04, 7.58156675e-05, 8.66464779e-06, 0., 0., 0., 0.,
          2.45642755e-03, 9.03289579e-03, 1.19572142e-02, 1.50613245e-02,
          1.50829861e-02, 1.97359007e-02, 1.91748664e-02, 2.20580269e-02,
          1.85661744e-02, 1.98940318e-02, 1.65711381e-02, 1.69198904e-02,
          1.41212102e-02, 1.42771732e-02, 1.14308363e-02, 1.20351957e-02,
          1.19182235e-02, 1.06488522e-02, 1.18575701e-02, 9.50511824e-03,
          9.20835417e-03, 6.76275743e-03, 7.21765170e-03, 6.08041650e-03,
          7.14400224e-03, 7.30213197e-03, 6.00676704e-03, 1.20005372e-03,
          9.96434464e-05, 6.49848607e-06, 1.27803549e-04, 9.35781980e-04,
          2.53224326e-03, 4.54027532e-03, 4.94318176e-03, 7.18515925e-03,
          7.87833147e-03, 1.05881998e-02, 1.04907220e-02, 1.38634369e-02,
          1.29081588e-02, 1.55898677e-02, 1.47493966e-02, 1.65884681e-02,
          1.39370859e-02, 1.53061002e-02, 1.43464906e-02, 1.20178666e-02,
          1.26568843e-02, 1.06098615e-02, 1.13571873e-02, 9.53327864e-03,
          1.15023199e-02, 1.12337163e-02, 1.62483808e-02, 1.64844915e-02,
          1.55140515e-02, 1.14351688e-02, 1.21110119e-02, 1.61184110e-02 ]
      - [ 0., 0., 4.90196107e-04, 0., 1.96078443e-03, 4.90196107e-04,
          2.94117676e-03, 9.80392215e-04, 9.80392215e-04, 4.90196107e-04,
          1.96078443e-03, 0., 3.43137281e-03, 0., 1.17647070e-02,
          4.90196107e-04, 4.90196107e-04, 0., 1.47058838e-03,
          1.96078443e-03, 4.90196107e-04, 9.80392215e-04, 0., 0.,
          1.47058838e-03, 0., 1.47058838e-03, 0., 1.47058838e-03,
          9.80392215e-04, 9.80392215e-04, 4.90196107e-04, 1.47058838e-03,
          1.47058838e-03, 1.96078443e-03, 4.90196107e-04, 0.,
          1.47058838e-03, 9.80392215e-04, 9.80392215e-04, 9.80392215e-04,
          0., 4.90196107e-04, 1.47058838e-03, 2.45098048e-03,
          1.96078443e-03, 0., 4.90196107e-04, 8.33333377e-03,
          9.80392215e-04, 1.47058838e-03, 9.80392215e-04, 4.90196107e-04,
          3.43137281e-03, 0., 3.92156886e-03, 2.45098048e-03, 0., 0.,
          9.80392215e-04, 4.90196107e-04, 1.96078443e-03, 1.47058838e-03,
          3.43137281e-03, 0., 4.90196107e-04, 1.47058838e-03,
          1.47058838e-03, 2.45098048e-03, 0., 4.90196107e-04,
          2.45098048e-03, 4.90196107e-04, 2.45098048e-03, 9.80392215e-04,
          9.80392215e-04, 9.80392215e-04, 9.80392215e-04, 0., 0.,
          4.90196107e-04, 0., 0., 4.90196107e-04, 0., 4.90196107e-04,
          2.94117676e-03, 0., 0., 2.94117676e-03, 1.47058838e-03, 0.,
          9.80392215e-04, 4.90196107e-04, 0., 4.90196107e-04,
          4.90196107e-04, 9.80392215e-04, 4.90196107e-04, 0.,
          1.47058838e-03, 0., 0., 0., 0., 4.90196107e-04, 9.80392215e-04,
          0., 9.80392215e-04, 1.47058838e-03, 1.96078443e-03,
          2.94117676e-03, 0., 0., 0., 4.90196107e-04, 4.90196107e-04, 0.,
          0., 0., 2.45098048e-03, 2.94117676e-03, 9.80392215e-04,
          1.47058838e-03, 0., 1.96078443e-03, 9.80392215e-04,
          1.47058838e-03, 0., 0., 3.43137281e-03, 2.45098048e-03, 0., 0.,
          0., 1.47058838e-03, 9.80392215e-04, 4.90196107e-04,
          4.90196107e-04, 1.47058838e-03, 4.90196107e-04, 9.80392215e-04,
          0., 1.96078443e-03, 0., 0., 4.90196107e-04, 2.45098048e-03,
          4.90196107e-04, 1.47058838e-03, 4.90196107e-04, 0.,
          4.90196107e-04, 4.90196107e-04, 0., 4.90196107e-04, 0.,
          4.90196107e-04, 4.90196107e-04, 0., 1.47058838e-03,
          2.94117676e-03, 1.47058838e-03, 4.90196107e-04, 0., 0., 0., 0.,
          4.90196107e-04, 4.90196107e-04, 1.96078443e-03, 0.,
          1.96078443e-03, 4.90196107e-04, 1.47058838e-03, 0.,
          5.39215701e-03, 0., 0., 4.90196107e-04, 9.80392215e-04, 0.,
          9.80392215e-04, 4.90196107e-04, 0., 1.47058838e-03, 0.,
          4.90196107e-04, 9.80392215e-04, 0., 2.45098048e-03,
          4.90196107e-04, 1.47058838e-03, 1.47058838e-03, 4.90196107e-04,
          9.80392215e-04, 1.96078443e-03, 0., 0., 4.90196107e-04, 0.,
          9.80392215e-04, 0., 0., 4.90196107e-04, 9.80392215e-04, 0., 0.,
          1.96078443e-03, 9.80392215e-04, 9.80392215e-04, 9.80392215e-04,
          1.47058838e-03, 6.37254957e-03, 9.80392215e-04, 0., 0.,
          4.90196107e-04, 9.80392215e-04, 0., 0., 9.80392215e-04,
          3.92156886e-03, 0., 0., 1.47058838e-03, 1.96078443e-03,
          9.80392215e-04, 0., 0., 4.90196107e-04, 4.90196107e-04,
          9.80392215e-04, 4.90196107e-04, 4.90196107e-04, 4.90196107e-04,
          4.90196107e-04, 4.90196107e-04, 0., 1.47058838e-03, 0.,
          4.90196107e-04, 0., 9.80392215e-04, 9.80392215e-04,
          9.80392215e-04, 4.90196107e-04, 0., 1.47058838e-03, 0., 0., 0.,
          0., 9.80392215e-04, 0., 9.80392215e-04, 0., 0., 9.80392215e-04,
          0., 9.80392215e-04, 1.47058838e-03, 9.80392215e-04,
          9.80392215e-04, 1.96078443e-03, 0., 1.47058838e-03,
          9.80392215e-04, 0., 4.90196107e-04, 2.45098048e-03,
          1.47058838e-03, 0., 4.90196107e-04, 2.94117676e-03,
          9.80392215e-04, 0., 4.90196107e-04, 0., 2.45098048e-03, 0., 0.,
          0., 1.96078443e-03, 4.90196107e-04, 4.90196107e-04,
          4.90196107e-04, 0., 2.45098048e-03, 0., 9.80392215e-04, 0.,
          3.43137281e-03, 9.80392215e-04, 0., 4.90196107e-04,
          2.94117676e-03, 0., 2.45098048e-03, 0., 0., 0., 1.47058838e-03,
          1.47058838e-03, 9.80392215e-04, 0., 4.90196107e-04,
          4.90196107e-04, 9.80392215e-04, 4.90196107e-04, 9.80392215e-04,
          0., 4.90196107e-04, 2.45098048e-03, 4.90196107e-04,
          1.96078443e-03, 0., 9.80392215e-04, 0., 1.07843140e-02,
          4.90196107e-04, 2.45098048e-03, 1.47058838e-03, 0.,
          2.45098048e-03, 4.90196107e-04, 1.96078443e-03, 0.,
          4.90196107e-04, 1.47058838e-03, 9.80392215e-04, 0.,
          1.96078443e-03, 0., 1.47058838e-03, 0., 0., 0., 0.,
          1.47058838e-03, 9.80392215e-04, 1.96078443e-03, 7.84313772e-03,
          1.47058838e-03, 1.47058838e-03, 0., 4.90196107e-04,
          3.43137281e-03, 0., 4.90196107e-04, 0., 0., 1.47058838e-03,
          4.90196107e-04, 9.80392215e-04, 9.80392215e-04, 9.80392215e-04,
          9.80392215e-04, 9.80392215e-04, 4.90196107e-04, 0., 0., 0., 0.,
          4.90196107e-04, 4.90196107e-04, 4.90196107e-04, 9.80392215e-04,
          0., 9.80392215e-04, 9.80392215e-04, 0., 0., 2.94117676e-03,
          4.90196107e-04, 2.45098048e-03, 0., 0., 1.47058838e-03,
          4.90196107e-04, 0., 0., 1.96078443e-03, 0., 4.90196107e-04,
          3.92156886e-03, 0., 4.90196096e-03, 4.90196107e-04, 0.,
          9.80392215e-04, 4.90196107e-04, 0., 1.47058838e-03,
          9.80392215e-04, 9.80392215e-04, 0., 4.90196107e-04,
          9.80392215e-04, 9.80392215e-04, 2.94117676e-03, 1.96078443e-03,
          1.47058838e-03, 9.80392215e-04, 2.94117676e-03, 0.,
          4.90196107e-04, 9.80392215e-04, 0., 0., 9.80392215e-04, 0.,
          2.45098048e-03, 3.92156886e-03, 0., 0., 0., 4.90196107e-04,
          4.90196107e-04, 0., 4.90196107e-04, 0., 9.80392215e-04,
          9.80392215e-04, 4.90196107e-04, 4.90196107e-04, 4.90196107e-04,
          4.90196107e-04, 0., 4.41176491e-03, 1.96078443e-03, 0.,
          2.94117676e-03, 2.94117676e-03, 0., 0., 1.47058838e-03,
          4.90196107e-04, 0., 4.90196107e-04, 9.80392215e-04,
          2.45098048e-03, 4.90196107e-04, 3.92156886e-03, 1.47058838e-03,
          4.90196107e-04, 0., 0., 1.47058838e-03, 9.80392215e-04,
          4.90196107e-04, 1.96078443e-03, 1.47058838e-03, 0., 0.,
          9.80392215e-04, 5.39215701e-03, 1.47058838e-03, 0.,
          1.47058838e-03, 0., 1.47058838e-03, 0., 4.90196107e-04, 0., 0.,
          1.47058838e-03, 0., 0., 1.96078443e-03, 4.90196107e-04,
          9.80392215e-04, 1.96078443e-03, 0., 4.90196107e-04,
          2.45098048e-03, 1.47058838e-03, 3.92156886e-03, 1.96078443e-03,
          4.90196107e-04, 0., 2.45098048e-03, 1.47058838e-03,
          4.90196107e-04, 0., 2.45098048e-03, 4.90196107e-04, 0.,
          9.80392215e-04, 4.90196107e-04, 1.96078443e-03, 4.90196107e-04,
          9.80392215e-04, 4.90196107e-04, 1.47058838e-03, 2.45098048e-03,
          4.90196107e-04, 0., 4.90196107e-04, 9.80392215e-04, 0., 0., 0.,
          9.80392215e-04, 4.90196107e-04, 0., 1.47058838e-03, 0.,
          4.90196107e-04, 4.90196107e-04, 0., 9.80392215e-04,
          9.80392215e-04, 2.45098048e-03, 0., 0., 1.47058838e-03,
          4.90196107e-04, 0., 9.80392215e-04, 4.90196107e-04, 0.,
          9.80392215e-04, 0., 4.90196107e-04, 0., 1.47058838e-03,
          4.90196107e-04, 0., 0., 0., 2.45098048e-03, 1.96078443e-03,
          2.94117676e-03, 4.90196107e-04, 9.80392215e-04, 0.,
          1.96078443e-03, 4.90196107e-04, 1.96078443e-03, 1.47058838e-03,
          1.47058838e-03, 0., 3.92156886e-03, 0., 0., 9.80392215e-04, 0.,
          0., 0., 4.90196107e-04, 0., 1.47058838e-03, 0., 4.90196107e-04,
          0., 7.35294167e-03, 4.90196107e-04, 4.90196107e-04,
          3.92156886e-03, 2.94117676e-03, 1.47058838e-03, 5.88235352e-03,
          1.56862754e-02, 1.47058838e-03, 0., 2.45098048e-03,
          1.47058838e-03, 3.92156886e-03, 0., 4.90196107e-04,
          4.90196107e-04, 9.80392215e-04, 0., 0., 9.80392215e-04, 0.,
          1.96078443e-03, 4.90196107e-04, 1.47058838e-03, 1.47058838e-03,
          1.47058838e-03, 0., 9.80392215e-04, 9.80392215e-04, 0., 0.,
          4.90196107e-04, 0., 1.47058838e-03, 0., 4.90196107e-04,
          4.90196107e-04, 0., 0., 4.41176491e-03, 1.47058838e-03,
          1.47058838e-03, 2.45098048e-03, 3.43137281e-03, 3.43137281e-03,
          9.80392215e-04, 4.90196107e-04, 0., 4.90196107e-04, 0.,
          9.80392215e-04, 0., 9.80392215e-04, 4.90196107e-04,
          2.94117676e-03, 1.96078443e-03, 9.80392215e-04, 1.47058838e-03,
          1.96078443e-03, 4.90196107e-04, 0., 4.90196107e-04,
          4.90196107e-04, 9.80392215e-04, 1.96078443e-03, 0.,
          2.45098048e-03, 1.47058838e-03, 4.90196107e-04, 0.,
          9.80392215e-04, 4.90196107e-04, 4.90196107e-04, 1.47058838e-03,
          1.96078443e-03, 9.80392215e-04, 4.90196107e-04, 9.80392215e-04,
          0., 4.41176491e-03, 9.80392215e-04, 9.80392215e-04, 0.,
          4.90196107e-04, 0., 0., 2.94117676e-03, 0., 0., 1.47058838e-03,
          0., 0., 1.96078443e-03, 2.45098048e-03, 9.80392215e-04,
          4.90196107e-04, 9.80392215e-04, 7.84313772e-03, 0., 0., 0.,
          9.80392215e-04, 1.96078443e-03, 0., 9.80392215e-04,
          1.47058838e-03, 0., 4.90196107e-04, 0., 9.80392215e-04, 0., 0.,
          1.47058838e-03, 4.90196107e-04, 1.96078443e-03, 0.,
          4.90196107e-04, 9.80392215e-04, 2.45098048e-03, 4.90196107e-04,
          4.90196107e-04, 0., 0., 4.90196107e-04, 4.90196107e-04,
          3.43137281e-03, 9.80392215e-04, 1.47058838e-03, 1.47058838e-03,
          4.90196107e-04, 3.43137281e-03, 0., 0., 0., 5.88235352e-03,
          9.80392215e-04, 0., 4.90196107e-04, 0., 4.90196096e-03,
          4.90196107e-04, 0., 0., 0., 0., 4.90196107e-04, 0.,
          2.45098048e-03, 2.45098048e-03, 9.80392215e-04, 0.,
          2.94117676e-03, 9.31372587e-03, 9.80392215e-04, 0.,
          2.94117676e-03, 3.43137281e-03, 1.96078443e-03, 0.,
          4.90196107e-04, 4.90196107e-04, 9.80392215e-04, 0.,
          1.47058838e-03, 4.90196107e-04, 3.92156886e-03, 4.90196107e-04,
          4.90196107e-04, 2.94117676e-03, 0., 4.90196107e-04, 0., 0.,
          9.80392215e-04, 0., 1.96078443e-03, 1.96078443e-03,
          2.45098048e-03, 3.43137281e-03, 0., 2.94117676e-03, 0.,
          4.90196107e-04, 0., 2.45098048e-03, 0., 0., 9.80392215e-04,
          9.80392215e-04, 0., 0., 0., 0., 9.80392215e-04, 0.,
          1.47058838e-03, 1.47058838e-03, 9.80392215e-04, 0.,
          1.96078443e-03, 0., 9.80392215e-04, 4.90196107e-04,
          8.82352982e-03, 2.45098048e-03, 4.90196107e-04, 1.96078443e-03,
          4.90196096e-03, 0., 9.80392215e-04, 2.45098048e-03, 0.,
          2.94117676e-03, 2.94117676e-03, 1.47058838e-03, 4.90196107e-04,
          9.80392215e-04, 4.90196107e-04, 4.90196107e-04, 1.47058838e-03,
          0., 4.90196107e-04, 0., 1.47058838e-03, 1.47058838e-03,
          2.94117676e-03, 0., 1.47058838e-03, 0., 2.94117676e-03,
          1.96078443e-03, 1.47058838e-03, 9.80392215e-04, 0.,
          3.92156886e-03, 0., 1.96078443e-03, 4.90196107e-04,
          1.96078443e-03, 0., 9.80392215e-04, 1.96078443e-03,
          9.80392215e-04, 2.45098048e-03, 1.96078443e-03, 3.92156886e-03,
          9.80392215e-04, 0., 4.90196107e-04, 9.80392215e-04,
          2.94117676e-03, 4.90196107e-04, 9.80392215e-04, 0.,
          1.47058838e-03, 0., 0., 0., 4.90196107e-04, 8.33333377e-03, 0.,
          0., 4.90196107e-04, 1.96078443e-03, 0., 0., 9.80392215e-04, 0.,
          9.80392215e-04, 0., 3.43137281e-03, 0., 0., 4.90196107e-04,
          9.80392215e-04, 0., 0., 0., 0., 0., 4.90196107e-04,
          1.96078443e-03, 0., 2.45098048e-03, 4.90196096e-03,
          4.90196107e-04, 9.80392215e-04, 1.47058838e-03, 9.80392215e-04,
          9.80392215e-04, 0., 0., 9.80392215e-04, 4.90196107e-04,
          9.80392215e-04, 9.80392215e-04, 4.90196107e-04, 0.,
          1.47058838e-03, 1.96078443e-03, 0., 9.80392215e-04,
          9.80392215e-04, 0., 4.90196107e-04, 0., 1.47058838e-03, 0., 0.,
          1.47058838e-03, 0., 0., 9.80392215e-04, 9.80392215e-04,
          1.47058838e-03, 4.90196107e-04, 4.90196107e-04, 1.96078443e-03,
