%YAML:1.0
my_svm: !!opencv-ml-svm
   svm_type: C_SVC
   kernel: { type:RBF, gamma:2. }
   C: 128.
   term_criteria: { epsilon:1.1920928955078125e-07, iterations:1000 }
   var_all: 1090
   var_count: 1090
   class_count: 2
   class_labels: !!opencv-matrix
      rows: 1
      cols: 2
      dt: i
      data: [ 0, 1 ]
   sv_total: 20
   support_vectors:
      - [ 7.66283541e-04, 3.83141771e-04, 7.66283541e-04, 0., 0.,
          3.83141771e-04, 7.66283541e-04, 0., 0., 3.83141771e-04, 0., 0.,
          1.53256708e-03, 0., 0., 0., 0., 0., 9.96168610e-03,
          3.83141771e-04, 1.53256708e-03, 3.83141771e-04, 3.83141771e-04,
          1.14942528e-03, 3.83141771e-04, 0., 7.66283541e-04,
          1.91570888e-03, 7.66283541e-04, 3.83141771e-04, 3.83141771e-04,
          2.29885057e-03, 0., 0., 0., 0., 0., 0., 0., 3.83141771e-04,
          1.14942528e-03, 0., 0., 7.66283541e-04, 0., 0., 1.14942528e-03,
          0., 0., 0., 3.44827585e-03, 1.53256708e-03, 3.83141771e-04,
          7.66283553e-03, 1.53256708e-03, 3.06513417e-03, 0., 0.,
          6.13026833e-03, 1.14942528e-03, 7.66283541e-04, 3.83141771e-04,
          1.53256708e-03, 0., 0., 1.53256708e-03, 3.83141771e-04,
          3.83141771e-04, 0., 1.14942528e-03, 3.83141771e-04,
          7.66283541e-04, 0., 3.83141771e-04, 1.91570888e-03,
          1.53256708e-03, 3.83141771e-04, 7.66283541e-04, 0., 0.,
          7.66283541e-04, 4.59770113e-03, 5.36398496e-03, 3.83141771e-04,
          1.14942528e-03, 6.13026833e-03, 0., 1.91570888e-03,
          7.66283541e-04, 2.68199248e-03, 0., 0., 4.98084305e-03,
          7.66283541e-04, 1.53256708e-03, 0., 7.66283541e-04, 0.,
          1.53256708e-03, 2.29885057e-03, 1.34099619e-02, 3.83141771e-04,
          0., 3.83141771e-04, 0., 3.83141771e-04, 7.66283541e-04,
          1.14942528e-03, 0., 3.83141771e-04, 0., 0., 5.74712642e-03,
          7.66283541e-04, 7.66283541e-04, 0., 7.66283541e-04,
          3.83141771e-04, 3.83141771e-04, 7.66283541e-04, 3.83141771e-04,
          3.83141771e-04, 1.14942528e-03, 0., 0., 0., 7.66283541e-04,
          1.53256708e-03, 3.83141777e-03, 1.14942528e-03, 1.53256708e-03,
          3.83141771e-04, 1.91570888e-03, 0., 7.66283541e-04, 0.,
          1.53256708e-03, 7.66283541e-04, 1.53256708e-03, 1.91570888e-03,
          3.83141771e-04, 1.14942528e-03, 2.68199248e-03, 3.83141771e-04,
          0., 7.66283541e-04, 7.66283541e-04, 0., 0., 0., 3.06513417e-03,
          7.66283541e-04, 0., 3.83141771e-04, 3.44827585e-03,
          7.66283541e-04, 0., 1.91570888e-03, 3.83141771e-04,
          2.68199248e-03, 2.29885057e-03, 0., 7.66283541e-04,
          3.83141771e-04, 3.83141771e-04, 0., 7.66283541e-04,
          1.91570888e-03, 3.83141771e-04, 3.83141771e-04, 1.14942528e-03,
          0., 3.83141771e-04, 0., 0., 3.83141771e-04, 7.66283541e-04, 0.,
          1.14942528e-03, 0., 1.14942528e-03, 0., 2.68199248e-03,
          3.44827585e-03, 2.29885057e-03, 3.83141777e-03, 0.,
          7.66283541e-04, 3.44827585e-03, 3.83141771e-04, 7.66283541e-04,
          3.83141771e-04, 3.83141771e-04, 7.66283541e-04, 0.,
          7.66283541e-04, 0., 0., 1.14942528e-03, 3.83141771e-04,
          1.91570888e-03, 1.14942528e-03, 2.29885057e-03, 1.53256708e-03,
          7.66283541e-04, 3.83141771e-04, 5.74712642e-03, 3.83141771e-04,
          7.66283541e-04, 0., 0., 0., 3.83141771e-04, 3.83141771e-04,
          3.83141771e-04, 0., 7.66283541e-04, 3.83141771e-04, 0.,
          7.66283541e-04, 3.83141771e-04, 3.83141771e-04, 7.66283541e-04,
          3.83141771e-04, 0., 0., 1.53256708e-03, 3.83141771e-04, 0.,
          7.66283541e-04, 0., 3.83141771e-04, 3.83141771e-04,
          7.66283541e-04, 3.83141771e-04, 0., 0., 5.36398496e-03, 0.,
          3.44827585e-03, 0., 7.66283541e-04, 0., 0., 1.53256708e-03, 0.,
          0., 4.59770113e-03, 7.66283541e-04, 1.53256708e-03,
          3.83141771e-04, 0., 0., 0., 3.83141771e-04, 3.83141771e-04, 0.,
          1.14942528e-03, 1.14942528e-03, 0., 1.14942528e-03,
          1.53256708e-03, 3.83141771e-04, 3.83141771e-04, 0., 0.,
          7.66283541e-04, 0., 1.91570888e-03, 3.83141771e-04, 0.,
          3.83141771e-04, 1.91570888e-03, 3.83141771e-04, 3.83141771e-04,
          2.29885057e-03, 4.59770113e-03, 0., 0., 0., 7.66283541e-04, 0.,
          3.83141771e-04, 7.66283541e-04, 0., 1.53256708e-03,
          9.57854465e-03, 3.83141771e-04, 3.06513417e-03, 3.83141771e-04,
          0., 3.83141771e-04, 7.66283541e-04, 0., 0., 7.66283541e-04, 0.,
          2.29885057e-03, 3.83141771e-04, 1.14942528e-03, 7.66283541e-04,
          3.83141771e-04, 0., 0., 0., 0., 0., 0., 0., 0., 0.,
          7.66283541e-04, 0., 2.29885057e-03, 3.83141771e-04, 0., 0.,
          1.91570888e-03, 2.68199248e-03, 0., 7.66283541e-04, 0.,
          1.14942528e-03, 0., 0., 3.83141771e-04, 1.53256708e-03,
          7.66283541e-04, 1.14942528e-03, 3.83141771e-04, 1.14942528e-03,
          3.83141771e-04, 1.14942528e-03, 7.66283541e-04, 3.83141771e-04,
          1.53256708e-03, 0., 0., 0., 0., 0., 7.66283541e-04, 0., 0.,
          1.18773952e-02, 3.83141771e-04, 0., 3.83141771e-04,
          3.83141771e-04, 3.83141771e-04, 0., 1.53256711e-02,
          1.91570888e-03, 0., 7.66283541e-04, 7.66283541e-04,
          7.66283541e-04, 0., 0., 0., 3.83141771e-04, 0., 1.14942528e-03,
          7.66283541e-04, 1.53256708e-03, 8.04597698e-03, 3.83141771e-04,
          3.44827585e-03, 3.83141771e-04, 7.66283541e-04, 0., 0.,
          1.14942528e-03, 3.83141771e-04, 0., 7.66283541e-04, 0., 0.,
          7.66283541e-04, 9.57854465e-03, 4.21455968e-03, 7.66283541e-04,
          3.83141771e-04, 0., 7.66283541e-04, 4.21455968e-03,
          1.91570888e-03, 1.91570888e-03, 3.83141771e-04, 1.14942528e-03,
          1.14942528e-03, 0., 3.83141771e-04, 7.66283541e-04,
          3.83141771e-04, 1.14942528e-03, 0., 0., 0., 3.83141771e-04,
          1.53256708e-03, 7.66283541e-04, 1.14942528e-03, 7.66283541e-04,
          0., 0., 3.83141771e-04, 1.91570888e-03, 3.83141771e-04, 0., 0.,
          5.36398496e-03, 0., 3.83141771e-04, 0., 3.83141771e-04,
          1.53256708e-03, 7.66283541e-04, 0., 1.53256708e-03,
          1.53256708e-03, 3.44827585e-03, 0., 1.14942528e-03, 0., 0.,
          3.83141771e-04, 0., 7.66283541e-04, 0., 3.83141771e-04, 0., 0.,
          3.83141771e-04, 3.83141777e-03, 1.53256708e-03, 1.14942528e-03,
          0., 0., 1.53256708e-03, 7.66283541e-04, 1.53256708e-03, 0.,
          7.66283541e-04, 7.66283541e-04, 3.83141771e-04, 1.91570888e-03,
          7.66283541e-04, 0., 3.83141771e-04, 3.83141771e-04, 0.,
          3.83141771e-04, 3.83141771e-04, 3.83141771e-04, 0., 0., 0.,
          1.53256708e-03, 3.83141771e-04, 1.14942528e-03, 2.29885057e-03,
          3.83141771e-04, 3.83141771e-04, 0., 3.83141771e-04,
          7.66283541e-04, 2.68199248e-03, 7.66283541e-04, 7.66283541e-04,
          3.83141771e-04, 3.83141771e-04, 7.66283541e-04, 3.83141771e-04,
          0., 0., 0., 0., 1.91570888e-03, 3.83141777e-03, 1.53256708e-03,
          1.14942528e-03, 1.14942528e-03, 6.13026833e-03, 1.91570888e-03,
          3.83141771e-04, 7.66283541e-04, 0., 0., 0., 0., 3.06513417e-03,
          0., 4.59770113e-03, 3.83141777e-03, 3.83141771e-04, 0.,
          3.83141771e-04, 7.66283541e-04, 3.06513417e-03, 0.,
          1.53256708e-03, 7.66283541e-04, 1.14942528e-03, 3.83141771e-04,
          7.66283541e-04, 1.91570888e-03, 7.66283541e-04, 0.,
          7.66283541e-04, 3.83141771e-04, 3.83141771e-04, 3.83141771e-04,
          0., 3.83141777e-03, 3.83141771e-04, 7.66283541e-04,
          3.83141771e-04, 0., 3.83141771e-04, 1.91570888e-03,
          1.14942528e-03, 3.83141777e-03, 1.53256708e-03, 7.66283541e-04,
          3.83141771e-04, 0., 0., 0., 2.29885057e-03, 1.14942528e-03,
          3.83141771e-04, 1.14942528e-03, 0., 1.14942528e-03, 0.,
          8.42911936e-03, 3.83141771e-04, 7.66283541e-04, 2.68199248e-03,
          0., 0., 7.66283541e-04, 7.66283541e-04, 6.51341025e-03,
          7.66283541e-04, 0., 0., 1.14942528e-03, 0., 0., 3.83141771e-04,
          0., 0., 3.83141771e-04, 3.83141771e-04, 7.66283541e-04,
          3.06513417e-03, 7.66283541e-04, 3.83141771e-04, 2.68199248e-03,
          0., 3.83141771e-04, 0., 0., 7.66283541e-04, 3.83141771e-04,
          1.53256708e-03, 3.83141771e-04, 3.83141771e-04, 3.83141771e-04,
          3.83141771e-04, 0., 3.83141771e-04, 3.83141771e-04, 0.,
          2.68199248e-03, 0., 1.91570888e-03, 7.27969361e-03,
          7.27969361e-03, 3.83141771e-04, 0., 0., 0., 1.91570888e-03,
          5.74712642e-03, 3.83141771e-04, 3.83141771e-04, 3.83141771e-04,
          3.06513417e-03, 2.68199248e-03, 8.04597698e-03, 7.66283541e-04,
          0., 3.83141771e-04, 0., 1.53256708e-03, 7.66283541e-04,
          1.53256708e-03, 3.83141771e-04, 7.66283541e-04, 7.66283541e-04,
          8.04597698e-03, 1.14942528e-03, 3.83141771e-04, 0.,
          7.66283541e-04, 0., 0., 3.83141771e-04, 1.53256708e-03, 0.,
          7.66283541e-04, 4.59770113e-03, 1.14942528e-03, 3.83141771e-04,
          0., 3.83141771e-04, 7.66283541e-04, 0., 1.14942528e-03,
          3.83141771e-04, 7.66283541e-04, 3.83141771e-04, 7.66283541e-04,
          1.91570888e-03, 7.66283541e-04, 0., 1.53256708e-03,
          7.66283541e-04, 0., 3.06513417e-03, 3.83141771e-04, 0.,
          7.66283541e-04, 1.14942528e-03, 7.66283541e-04, 0.,
          1.14942528e-03, 7.66283541e-04, 3.83141771e-04, 7.66283541e-04,
          0., 3.83141771e-04, 0., 7.66283541e-04, 3.83141771e-04,
          1.14942528e-03, 3.83141771e-04, 0., 7.66283541e-04,
          7.66283541e-04, 3.83141771e-04, 1.53256708e-03, 0.,
          1.53256708e-03, 1.14942528e-03, 3.83141771e-04, 7.66283541e-04,
          0., 1.14942528e-03, 0., 0., 1.53256708e-03, 0., 0., 0.,
          3.83141771e-04, 0., 7.66283541e-04, 6.51341025e-03, 0.,
          1.91570888e-03, 3.83141771e-04, 0., 0., 0., 7.66283541e-04, 0.,
          4.98084305e-03, 0., 2.29885057e-03, 0., 1.14942528e-03, 0.,
          3.83141771e-04, 0., 7.66283541e-04, 3.83141771e-04,
          3.83141771e-04, 0., 7.66283541e-04, 3.83141771e-04,
          1.14942528e-03, 1.14942528e-03, 3.83141771e-04, 0.,
          7.66283541e-04, 7.66283541e-04, 0., 1.14942528e-03, 0.,
          1.53256708e-03, 3.06513417e-03, 0., 7.66283541e-04,
          3.83141771e-04, 3.83141771e-04, 0., 7.66283541e-04, 0., 0., 0.,
          0., 0., 7.66283541e-04, 2.29885057e-03, 3.83141771e-04,
          1.14942528e-03, 7.66283541e-04, 1.53256708e-03, 0., 0.,
          1.53256708e-03, 3.83141771e-04, 0., 6.13026833e-03, 0., 0.,
          3.83141771e-04, 7.66283541e-04, 0., 0., 3.83141771e-04,
          1.53256708e-03, 0., 2.29885057e-03, 7.66283541e-04, 0., 0., 0.,
          3.83141771e-04, 8.04597698e-03, 5.74712642e-03, 7.66283541e-04,
          7.66283541e-04, 3.83141771e-04, 1.14942528e-03, 3.83141771e-04,
          7.66283541e-04, 3.83141771e-04, 3.83141771e-04, 7.66283541e-04,
          0., 3.83141771e-04, 2.68199248e-03, 3.83141777e-03,
          1.14942528e-03, 3.83141771e-04, 1.91570888e-03, 0., 0., 0.,
          5.74712642e-03, 0., 1.14942528e-03, 0., 0., 0., 3.83141771e-04,
          0., 3.83141771e-04, 3.83141777e-03, 7.66283541e-04, 0.,
          3.44827585e-03, 7.66283541e-04, 3.83141771e-04, 7.66283541e-04,
          0., 3.83141771e-04, 0., 0., 3.83141771e-04, 0., 3.83141771e-04,
          7.66283553e-03, 0., 1.53256708e-03, 7.66283541e-04,
          1.53256708e-03, 0., 3.83141771e-04, 7.66283541e-04, 0.,
          1.14942528e-03, 7.66283541e-04, 0., 7.66283541e-04,
          3.83141771e-04, 3.83141771e-04, 3.44827585e-03, 0.,
          7.66283541e-04, 0., 0., 3.44827585e-03, 0., 3.06513417e-03, 0.,
          3.44827585e-03, 0., 3.83141777e-03, 1.53256708e-03,
          3.83141771e-04, 3.83141771e-04, 2.68199248e-03, 2.29885057e-03,
          3.83141771e-04, 8.81226081e-03, 1.14942528e-03, 0., 0.,
          7.66283541e-04, 0., 0., 7.66283541e-04, 1.53256708e-03, 0., 0.,
          1.53256708e-03, 4.21455968e-03, 0., 7.66283541e-04,
          7.66283541e-04, 0., 1.53256708e-03, 8.04597698e-03,
          1.14942528e-03, 1.53256708e-03, 0., 3.83141771e-04, 0., 0.,
          7.66283541e-04, 1.11111114e-02, 0., 3.83141771e-04, 0.,
          7.66283541e-04, 0., 1.14942528e-03, 0., 1.14942528e-03, 0.,
          3.06513417e-03, 3.83141771e-04, 0., 3.83141771e-04,
          1.14942528e-03, 3.83141771e-04, 7.27969361e-03, 3.83141771e-04,
          4.21455968e-03, 7.66283541e-04, 7.66283541e-04, 3.83141771e-04,
          3.44827585e-03, 2.29885057e-03, 1.53256708e-03, 3.83141771e-04,
          3.44827585e-03, 3.83141771e-04, 0., 3.83141771e-04, 0.,
          3.83141771e-04, 5.74712642e-03, 3.83141771e-04, 7.27969361e-03,
          7.66283541e-04, 0., 7.66283541e-04, 3.83141771e-04,
          1.53256708e-03, 0., 0., 3.83141771e-04, 0., 1.14942528e-03,
          1.14942528e-03, 0., 7.66283541e-04, 7.66283541e-04, 0.,
          3.83141771e-04, 7.66283541e-04, 3.83141771e-04, 3.83141771e-04,
          0., 3.83141771e-04, 3.83141771e-04, 0., 3.83141771e-04, 0.,
          7.66283541e-04, 0., 4.98084305e-03, 3.83141771e-04,
          3.83141771e-04, 1.14942528e-03, 0., 0., 2.68199248e-03,
          3.83141771e-04, 5.36398496e-03, 0., 1.53256708e-03, 0.,
          1.14942528e-03, 0., 0., 7.66283541e-04, 3.83141771e-04, 0.,
          7.66283541e-04, 3.83141771e-04, 3.83141771e-04, 7.66283541e-04,
          3.06513417e-03, 1.03448275e-02, 1.14942528e-03, 7.66283541e-04,
          3.83141771e-04, 0., 0., 0., 0., 3.83141771e-04, 7.66283541e-04,
          1.22605367e-02, 0., 0., 1.91570888e-03, 0., 7.66283541e-04,
          3.83141771e-04, 2.29885057e-03, 1.14942528e-03, 3.83141771e-04,
          0., 1.53256708e-03, 3.83141771e-04, 3.83141771e-04,
          3.83141771e-04, 1.91570888e-03, 0., 2.68199248e-03,
          3.83141771e-04, 7.66283541e-04, 0., 0., 1.14942528e-03,
          3.83141771e-04, 0., 5.36398496e-03, 0., 0., 0., 3.83141771e-04,
          2.29885057e-03, 2.68199248e-03, 1.14942528e-03, 0.,
          3.83141771e-04, 0., 5.36398496e-03, 0., 3.83141771e-04,
          3.83141771e-04, 0., 3.83141777e-03, 7.66283541e-04,
          1.14942528e-03, 3.83141771e-04, 0., 3.83141771e-04,
          7.66283541e-04, 3.83141771e-04, 7.66283541e-04, 0.,
          3.83141771e-04, 0., 1.53256708e-03, 0., 0., 3.83141771e-04,
          7.66283541e-04, 4.59770113e-03, 1.21440910e-01, 2.01498810e-02,
          1.53476214e-02, 1.50324507e-02, 1.13017699e-02, 1.07834898e-02,
          7.84657057e-03, 7.35630561e-03, 6.21468900e-03, 7.18121137e-03,
          7.37498235e-03, 1.06107295e-02, 1.28355976e-02, 1.72339734e-02,
          1.65312607e-02, 1.58588979e-02, 1.33725544e-02, 9.80762951e-03,
          5.15945256e-03, 1.40075642e-03, 4.55245841e-04, 3.73535040e-05,
          0., 0., 0., 0., 0., 0., 0., 0., 4.61082300e-03, 2.73871217e-02,
          4.01666909e-02, 2.68408265e-02, 1.54620158e-02, 1.51164960e-02,
          1.17967036e-02, 1.22893024e-02, 9.47611686e-03, 9.24265757e-03,
          7.60377245e-03, 7.74618285e-03, 5.84582333e-03, 5.53532224e-03,
          4.26296843e-03, 4.77657933e-03, 4.46140906e-03, 3.96880973e-03,
          4.72054910e-03, 4.57813870e-03, 6.07461343e-03, 6.95942482e-03,
          1.23009756e-02, 1.75608154e-02, 2.48844381e-02, 1.99094173e-02,
          1.91483404e-02, 5.81313914e-04, 2.56805342e-05, 0.,
          6.16332807e-04, 2.85754306e-03, 1.04473084e-02, 2.37778407e-02,
          2.43638232e-02, 2.38292012e-02, 1.77732650e-02, 1.70728862e-02,
          1.29149742e-02, 1.22682918e-02, 9.63720400e-03, 9.41308308e-03,
          7.55941542e-03, 7.98197649e-03, 6.52285572e-03, 6.23803539e-03,
          5.45127690e-03, 4.36569098e-03, 4.83494438e-03, 4.37969854e-03,
          5.23649435e-03, 5.56100300e-03, 7.82789383e-03, 1.16753047e-02,
          2.61357799e-02, 2.74151377e-02, 2.94485688e-02, 6.87304465e-03,
          7.65746809e-04, 8.87145725e-05 ]
      - [ 0., 1.37221266e-03, 6.86106330e-04, 0., 0., 3.43053165e-04, 0.,
          3.43053165e-04, 0., 1.02915952e-03, 0., 3.43053165e-04,
          3.43053165e-04, 0., 0., 0., 6.86106330e-04, 3.43053165e-04,
          1.06346477e-02, 3.08747846e-03, 3.43053165e-04, 2.05831905e-03,
          3.43053165e-04, 0., 0., 6.86106330e-04, 2.05831905e-03,
          7.54716946e-03, 0., 0., 0., 3.08747846e-03, 0., 3.43053165e-04,
          0., 0., 0., 0., 0., 3.43053165e-04, 0., 0., 0., 4.45969123e-03,
          0., 0., 0., 1.37221266e-03, 0., 3.43053165e-04, 4.80274437e-03,
          6.86106330e-04, 1.02915952e-03, 2.40137218e-03, 0.,
          3.43053165e-04, 0., 3.43053165e-04, 3.43053165e-04,
          9.94854141e-03, 3.43053165e-04, 3.43053165e-04, 6.86106330e-04,
          6.86106330e-04, 1.02915952e-03, 1.02915952e-03, 6.86106330e-04,
          0., 0., 1.02915952e-03, 1.02915952e-03, 0., 0., 0., 0., 0., 0.,
          6.86106330e-04, 3.43053165e-04, 1.02915952e-03, 8.57632887e-03,
          4.45969123e-03, 0., 2.05831905e-03, 6.51801005e-03,
          8.23327620e-03, 3.43053165e-04, 2.05831905e-03, 0.,
          3.43053165e-04, 3.43053165e-04, 0., 8.23327620e-03, 0.,
          2.40137218e-03, 0., 0., 0., 3.43053165e-04, 6.17495691e-03,
          6.86106330e-04, 1.37221266e-03, 3.43053165e-04, 3.43053165e-04,
          0., 3.43053165e-04, 2.05831905e-03, 1.02915952e-03,
          1.02915952e-03, 3.43053165e-04, 3.43053165e-04, 6.86106330e-04,
          2.05831905e-03, 3.43053165e-04, 6.86106330e-04, 3.43053165e-04,
          3.43053165e-04, 6.86106330e-04, 1.02915952e-03, 6.86106330e-04,
          0., 1.02915952e-03, 2.74442532e-03, 1.02915952e-03,
          6.86106330e-04, 0., 1.37221266e-03, 2.74442532e-03,
          6.86106330e-04, 1.02915952e-03, 1.02915952e-03, 0.,
          1.37221266e-03, 0., 0., 0., 2.74442532e-03, 3.08747846e-03,
          1.37221266e-03, 1.71526580e-03, 6.86106330e-04, 1.02915952e-03,
          1.37221266e-03, 0., 3.43053165e-04, 1.71526580e-03, 0.,
          3.43053165e-04, 0., 0., 4.11663810e-03, 6.86106330e-04, 0., 0.,
          3.43053165e-04, 6.86106330e-04, 0., 1.37221266e-03,
          6.86106330e-04, 2.05831905e-03, 0., 0., 3.43053165e-04, 0.,
          3.43053165e-04, 0., 0., 0., 0., 3.43053165e-04, 3.43053165e-04,
          0., 2.40137218e-03, 0., 3.43053165e-04, 3.43053165e-04, 0., 0.,
          6.86106330e-04, 0., 1.37221266e-03, 3.43053165e-04,
          5.14579751e-03, 1.02915952e-03, 6.86106330e-04, 0.,
          6.86106330e-04, 0., 2.40137218e-03, 3.43053165e-04,
          3.43053165e-04, 3.43053165e-04, 3.08747846e-03, 1.02915952e-03,
          0., 1.37221266e-03, 0., 6.86106330e-04, 3.43053165e-04,
          3.43053165e-04, 2.40137218e-03, 0., 3.43053165e-04, 0., 0.,
          3.43053165e-04, 1.02915950e-02, 1.71526580e-03, 1.02915952e-03,
          0., 0., 0., 0., 0., 0., 3.43053165e-04, 2.40137218e-03,
          1.37221266e-03, 3.43053165e-04, 0., 0., 3.43053165e-04,
          3.43053165e-04, 3.43053165e-04, 0., 6.86106330e-04,
          2.05831905e-03, 3.43053165e-04, 0., 0., 1.37221266e-03,
          3.43053165e-04, 6.86106330e-04, 3.43053165e-04, 6.86106330e-04,
          3.43053165e-04, 3.43053165e-04, 3.08747846e-03, 6.86106330e-04,
          6.86106330e-04, 6.86106330e-04, 0., 0., 0., 6.86106330e-04,
          3.43053165e-04, 3.43053165e-04, 1.02915952e-03, 1.37221266e-03,
          0., 0., 0., 2.05831905e-03, 1.02915952e-03, 3.43053165e-04,
          2.05831905e-03, 6.86106330e-04, 6.86106330e-04, 0.,
          2.05831905e-03, 3.43053165e-04, 3.43053165e-04, 1.02915952e-03,
          1.37221266e-03, 0., 1.02915952e-03, 0., 0., 2.74442532e-03, 0.,
          0., 1.37221266e-03, 2.40137218e-03, 0., 1.71526580e-03,
          8.57632887e-03, 1.02915952e-03, 1.02915952e-03, 0., 0.,
          1.02915952e-03, 3.43053165e-04, 0., 0., 3.43053165e-04,
          6.86106330e-04, 4.11663810e-03, 0., 1.71526580e-03, 0.,
          6.86106330e-04, 0., 1.02915952e-03, 3.43053165e-04, 0.,
          3.43053165e-04, 0., 2.40137218e-03, 6.86106330e-04,
          6.86106330e-04, 3.43053165e-04, 1.37221266e-03, 3.43053165e-04,
          0., 0., 6.86106330e-04, 1.02915952e-03, 3.43053165e-04, 0., 0.,
          0., 3.43053165e-04, 3.43053159e-03, 3.77358473e-03,
          3.43053165e-04, 3.43053165e-04, 3.43053165e-04, 6.86106330e-04,
          0., 0., 0., 6.51801005e-03, 3.43053165e-04, 3.43053165e-04,
          1.02915952e-03, 1.37221266e-03, 1.71526580e-03, 0.,
          1.02915952e-03, 6.86106330e-04, 1.02915952e-03, 6.86106330e-04,
          6.86106330e-04, 1.02915952e-03, 0., 0., 0., 1.37221266e-03,
          6.86106330e-04, 3.43053165e-04, 3.43053165e-04, 1.37221266e-03,
          0., 0., 7.89022259e-03, 6.86106330e-04, 0., 0., 3.43053165e-04,
          2.05831905e-03, 6.86106330e-04, 4.11663810e-03, 2.05831905e-03,
          0., 6.86106330e-04, 0., 1.02915952e-03, 3.43053165e-04,
          1.71526580e-03, 3.43053165e-04, 6.86106330e-04, 0.,
          6.86106330e-04, 0., 0., 1.02915952e-03, 1.02915952e-03,
          3.77358473e-03, 3.43053165e-04, 1.02915952e-03, 0.,
          3.43053165e-04, 2.40137218e-03, 0., 6.86106330e-04,
          3.43053165e-04, 0., 0., 3.43053165e-04, 4.80274437e-03,
          2.74442532e-03, 0., 6.86106330e-04, 3.43053165e-04,
          3.43053165e-04, 2.74442532e-03, 1.71526580e-03, 2.05831905e-03,
          0., 6.86106330e-04, 3.43053165e-04, 6.86106330e-04, 0.,
          6.86106330e-04, 6.86106330e-04, 2.40137218e-03, 0., 0., 0.,
          2.40137218e-03, 2.74442532e-03, 1.37221266e-03, 1.02915952e-03,
          1.02915952e-03, 3.43053165e-04, 1.02915952e-03, 0.,
          1.71526580e-03, 3.43053165e-04, 3.43053165e-04, 0.,
          2.05831905e-03, 1.71526580e-03, 0., 6.86106330e-04, 0.,
          1.37221266e-03, 0., 6.86106330e-04, 3.43053165e-04, 0.,
          6.86106330e-04, 2.74442532e-03, 6.86106330e-04, 6.86106330e-04,
          0., 3.43053165e-04, 6.86106330e-04, 6.86106330e-04,
          3.43053165e-04, 0., 0., 0., 6.86106330e-04, 3.43053165e-04,
          1.37221266e-03, 0., 6.86106330e-04, 0., 2.74442532e-03, 0.,
          3.08747846e-03, 0., 0., 6.86106330e-04, 3.43053165e-04, 0., 0.,
          3.43053165e-04, 0., 1.02915952e-03, 3.43053165e-04, 0.,
          3.43053165e-04, 3.43053165e-04, 3.43053165e-04, 0.,
          3.43053165e-04, 0., 1.71526580e-03, 6.86106330e-04,
          3.43053165e-04, 6.86106330e-04, 6.86106330e-04, 3.43053165e-04,
          0., 6.86106330e-04, 2.05831905e-03, 2.40137218e-03,
          6.86106330e-04, 1.02915952e-03, 0., 3.43053165e-04,
          3.43053165e-04, 2.05831905e-03, 0., 0., 0., 2.40137218e-03,
          1.37221266e-03, 0., 1.71526580e-03, 0., 4.80274437e-03, 0., 0.,
          2.74442532e-03, 0., 3.43053165e-04, 3.43053165e-04, 0.,
          2.40137218e-03, 0., 1.02915950e-02, 1.02915952e-03,
          1.02915952e-03, 3.43053165e-04, 0., 1.37221266e-03,
          3.43053159e-03, 0., 1.37221266e-03, 6.86106330e-04,
          1.37221266e-03, 1.02915952e-03, 0., 1.37221266e-03,
          3.08747846e-03, 6.86106330e-04, 0., 3.43053165e-04, 0., 0.,
          3.43053165e-04, 6.51801005e-03, 3.43053165e-04, 0.,
          6.86106330e-04, 3.43053165e-04, 0., 2.74442532e-03,
          1.37221266e-03, 3.43053165e-04, 3.43053165e-04, 6.86106330e-04,
          0., 3.43053165e-04, 3.43053165e-04, 0., 1.37221266e-03, 0.,
          3.43053165e-04, 3.43053165e-04, 0., 3.43053165e-04, 0.,
          9.94854141e-03, 0., 0., 2.05831905e-03, 0., 0., 1.71526580e-03,
          3.43053165e-04, 1.02915952e-03, 0., 3.43053165e-04,
          3.43053165e-04, 0., 3.43053165e-04, 3.43053165e-04, 0.,
          3.43053165e-04, 1.02915952e-03, 1.02915952e-03, 1.02915952e-03,
          1.37221266e-03, 3.43053165e-04, 3.43053165e-04, 6.86106330e-04,
          1.40651800e-02, 3.43053165e-04, 0., 0., 0., 0., 3.43053165e-04,
          6.86106330e-04, 0., 1.37221266e-03, 1.02915952e-03,
          1.37221266e-03, 0., 0., 3.43053165e-04, 3.43053165e-04,
          1.02915952e-03, 0., 0., 0., 2.05831905e-03, 1.02915952e-03,
          1.37221266e-03, 0., 0., 0., 9.60548874e-03, 0., 2.74442532e-03,
          0., 4.80274437e-03, 5.14579751e-03, 4.11663810e-03,
          3.43053165e-04, 0., 1.02915952e-03, 1.02915952e-03, 0.,
          1.02915952e-03, 0., 3.43053165e-04, 6.86106330e-04,
          6.86106330e-04, 2.74442532e-03, 6.86106330e-04, 3.43053165e-04,
          1.37221266e-03, 3.43053165e-04, 0., 4.45969123e-03,
          3.43053165e-04, 2.74442532e-03, 1.71526580e-03, 1.02915952e-03,
          1.71526580e-03, 6.86106330e-04, 3.43053165e-04, 0.,
          3.43053165e-04, 6.86106330e-04, 6.86106330e-04, 6.86106330e-04,
          3.77358473e-03, 6.86106330e-04, 6.86106330e-04, 0.,
          1.71526580e-03, 1.37221266e-03, 0., 0., 1.02915952e-03, 0.,
          1.37221266e-03, 0., 0., 1.02915952e-03, 4.11663810e-03,
          1.71526580e-03, 0., 1.02915952e-03, 1.02915952e-03,
          6.86106330e-04, 6.86106330e-04, 6.86106330e-04, 3.43053165e-04,
          3.43053165e-04, 7.89022259e-03, 1.37221266e-03, 0.,
          3.43053165e-04, 6.86106330e-04, 0., 2.40137218e-03, 0.,
          3.43053165e-04, 3.43053165e-04, 1.13207549e-02, 0., 0.,
          2.40137218e-03, 0., 1.71526580e-03, 1.37221266e-03, 0.,
          3.08747846e-03, 1.02915952e-03, 3.43053165e-04, 0., 0., 0., 0.,
          8.57632887e-03, 0., 3.08747846e-03, 3.43053165e-04,
          1.37221266e-03, 0., 3.43053165e-04, 8.91938247e-03, 0.,
          8.91938247e-03, 1.71526580e-03, 1.02915952e-03, 0.,
          3.43053165e-04, 3.43053165e-04, 0., 3.43053165e-04,
          1.02915952e-03, 1.02915952e-03, 0., 0., 6.86106330e-04,
          3.43053165e-04, 0., 3.43053165e-04, 6.86106330e-04, 0., 0., 0.,
          1.37221266e-03, 1.37221266e-03, 0., 3.43053165e-04,
          1.02915952e-03, 0., 6.86106330e-04, 0., 0., 3.43053165e-04,
          3.43053165e-04, 3.43053165e-04, 6.86106330e-04, 0.,
          6.86106330e-04, 1.37221266e-03, 6.86106330e-04, 1.02915952e-03,
          6.86106330e-04, 6.86106330e-04, 0., 3.43053165e-04, 0.,
          3.43053165e-04, 1.02915952e-03, 3.43053165e-04, 0.,
          2.40137218e-03, 0., 0., 0., 1.37221266e-03, 1.37221266e-03,
          1.02915952e-03, 6.86106330e-04, 0., 0., 2.40137218e-03,
          1.02915952e-03, 0., 3.43053165e-04, 3.43053165e-04, 0.,
          2.74442532e-03, 2.74442532e-03, 1.71526580e-03, 6.86106330e-04,
          3.43053165e-04, 3.43053165e-04, 3.43053165e-04, 0.,
          3.77358473e-03, 1.37221266e-03, 6.86106330e-04, 6.86106330e-04,
          0., 3.43053165e-04, 5.83190378e-03, 1.37221266e-03,
          6.86106330e-04, 3.43053165e-04, 1.02915952e-03, 3.43053165e-04,
          3.43053165e-04, 7.54716946e-03, 3.43053165e-04, 3.43053165e-04,
          3.43053165e-04, 0., 0., 1.02915952e-03, 1.02915952e-03,
          1.02915952e-03, 3.08747846e-03, 3.43053159e-03, 0.,
          2.40137218e-03, 0., 1.37221266e-03, 0., 0., 0., 0., 0.,
          3.43053165e-04, 0., 3.43053165e-04, 2.74442532e-03,
          3.43053165e-04, 3.43053159e-03, 6.86106330e-04, 1.71526580e-03,
          3.43053165e-04, 0., 1.02915952e-03, 0., 0., 1.37221266e-03,
          1.37221266e-03, 3.43053165e-04, 3.43053165e-04, 1.71526580e-03,
          3.08747846e-03, 0., 0., 0., 6.86106330e-04, 3.08747846e-03,
          6.86106330e-04, 2.40137218e-03, 0., 6.51801005e-03,
          6.86106330e-04, 5.14579751e-03, 3.43053165e-04, 0.,
          6.86106330e-04, 4.11663810e-03, 8.23327620e-03, 1.37221266e-03,
          3.77358473e-03, 3.43053165e-04, 3.43053165e-04, 1.02915952e-03,
          0., 3.43053165e-04, 1.71526580e-03, 2.05831905e-03,
          3.43053165e-04, 0., 0., 3.43053165e-04, 6.86106330e-04, 0.,
          3.43053165e-04, 1.02915952e-03, 0., 6.86106330e-04,
          2.40137218e-03, 0., 6.86106330e-04, 0., 3.43053165e-04, 0., 0.,
          6.86106330e-04, 1.71526580e-03, 3.43053165e-04, 0., 0.,
          3.43053165e-04, 1.02915952e-03, 3.43053165e-04, 1.02915952e-03,
          1.02915952e-03, 0., 9.60548874e-03, 0., 2.05831905e-03,
          1.02915952e-03, 0., 0., 3.08747846e-03, 6.86106330e-04,
          6.86106319e-03, 6.86106330e-04, 0., 0., 3.43053165e-04,
          6.86106330e-04, 0., 6.86106330e-04, 2.74442532e-03,
          1.02915952e-03, 0., 3.43053165e-04, 1.02915952e-03,
          3.43053165e-04, 2.40137218e-03, 3.43053165e-04, 1.26929674e-02,
          6.86106330e-04, 1.02915952e-03, 3.43053165e-04, 6.86106330e-04,
          1.37221266e-03, 6.86106330e-04, 0., 0., 6.86106330e-04,
          2.05831905e-03, 3.43053165e-04, 0., 3.43053165e-04,
          3.43053165e-04, 0., 0., 6.86106330e-04, 1.02915952e-03,
          1.37221266e-03, 0., 3.43053165e-04, 3.43053165e-04,
          1.71526580e-03, 0., 3.43053165e-04, 3.43053165e-04,
          2.05831905e-03, 9.60548874e-03, 1.02915952e-03, 1.37221266e-03,
          2.05831905e-03, 0., 3.43053165e-04, 8.57632887e-03, 0.,
          1.71526580e-03, 3.43053165e-04, 0., 3.43053165e-04,
          3.43053165e-04, 0., 0., 1.71526580e-03, 0., 6.86106330e-04,
          6.86106330e-04, 0., 1.37221266e-03, 1.71526580e-03,
          3.43053159e-03, 1.02915950e-02, 1.02915952e-03, 3.43053165e-04,
          0., 3.43053165e-04, 0., 6.86106330e-04, 1.02915952e-03, 0.,
          1.02915952e-03, 1.37221266e-03, 3.43053165e-04, 0.,
          3.08747846e-03, 0., 1.37221266e-03, 0., 3.43053165e-04,
          3.77358473e-03, 3.43053165e-04, 3.43053165e-04, 3.43053165e-04,
          6.86106330e-04, 0., 0., 3.43053165e-04, 0., 3.43053165e-04,
          6.86106330e-04, 6.86106319e-03, 0., 6.86106330e-04, 0.,
          3.43053165e-04, 0., 3.43053165e-04, 3.43053165e-04,
          2.74442532e-03, 3.43053165e-04, 0., 1.37221266e-03,
          6.86106330e-04, 1.37221266e-03, 0., 3.43053165e-04, 0.,
          3.43053165e-04, 1.02915952e-03, 3.43053165e-04, 0., 0.,
          1.16638076e-02, 3.43053165e-04, 1.02915952e-03, 6.86106330e-04,
          0., 6.86106330e-04, 0., 3.43053165e-04, 1.37221266e-03,
          3.43053165e-04, 1.37221266e-03, 0., 3.08747846e-03,
          3.43053165e-04, 0., 3.43053165e-04, 0., 3.08747846e-03,
          5.13798036e-02, 3.62319797e-02, 2.35580113e-02, 2.22849716e-02,
          1.60890575e-02, 1.50755923e-02, 1.11300712e-02, 9.69451480e-03,
          6.59768749e-03, 6.02888223e-03, 5.27273305e-03, 6.25008438e-03,
          6.05145423e-03, 7.19809299e-03, 7.69692613e-03, 9.55908559e-03,
          1.03107207e-02, 1.17011331e-02, 1.82220768e-02, 1.27462000e-02,
          8.59979074e-03, 7.26580760e-03, 1.40440688e-02, 9.65614337e-03,
          6.72634575e-04, 1.58001421e-05, 0., 0., 0., 0., 2.50545098e-04,
          8.50950484e-04, 5.10570267e-03, 1.92220006e-02, 2.26235446e-02,
          2.74809599e-02, 1.97704919e-02, 1.82965640e-02, 1.41952988e-02,
          1.38025517e-02, 1.09314406e-02, 1.03536071e-02, 7.55246729e-03,
          6.99946238e-03, 5.29756164e-03, 5.35624800e-03, 4.86644357e-03,
          4.48046857e-03, 4.69941366e-03, 4.52786917e-03, 5.92053868e-03,
          6.11465471e-03, 8.27476010e-03, 1.05770659e-02, 2.03212388e-02,
          3.13813388e-02, 3.77668515e-02, 6.27942756e-03, 3.38574464e-05,
          0., 1.55744245e-04, 3.09231342e-04, 5.71062264e-04,
          1.33624056e-03, 2.98396964e-03, 9.50942747e-03, 1.60348862e-02,
          2.27115750e-02, 2.26709452e-02, 2.20344253e-02, 1.53893372e-02,
          1.48589043e-02, 1.15995612e-02, 1.12339007e-02, 8.50499049e-03,
          8.42147507e-03, 7.45766656e-03, 5.98373916e-03, 5.97922504e-03,
          5.34496224e-03, 5.62485028e-03, 5.57519263e-03, 7.42380926e-03,
          8.35601799e-03, 1.55947395e-02, 2.78579053e-02, 3.26363221e-02,
          3.38958167e-02, 3.16679967e-03, 1.10600988e-04 ]
      - [ 7.54147826e-04, 1.50829565e-03, 7.54147826e-04, 7.54147826e-04,
          0., 3.01659130e-03, 8.29562638e-03, 0., 7.54147826e-04, 0., 0.,
          0., 0., 0., 2.26244354e-03, 0., 7.54147826e-04, 7.54147826e-04,
          0., 0., 0., 0., 0., 3.77073907e-03, 0., 0., 7.54147826e-04, 0.,
          0., 7.54147826e-04, 7.54147826e-04, 7.54147815e-03,
          7.54147826e-04, 0., 3.01659130e-03, 0., 0., 9.80392192e-03, 0.,
          0., 0., 4.52488707e-03, 3.01659130e-03, 1.50829565e-03, 0., 0.,
          1.50829565e-03, 0., 0., 7.54147826e-04, 0., 0., 7.54147826e-04,
          0., 2.26244354e-03, 0., 7.54147826e-04, 0., 9.04977415e-03,
          2.26244354e-03, 7.54147826e-04, 7.54147826e-04, 0., 0., 0.,
          7.54147826e-04, 1.50829565e-03, 0., 0., 7.54147826e-04,
          7.54147826e-04, 7.54147826e-04, 0., 1.50829565e-03, 0.,
          7.54147826e-04, 0., 1.50829565e-03, 7.54147826e-04, 0., 0.,
          7.54147826e-04, 0., 1.50829565e-03, 1.50829565e-03, 0., 0.,
          7.54147826e-04, 0., 7.54147826e-04, 1.50829565e-03, 0.,
          3.01659130e-03, 0., 0., 7.54147826e-04, 7.54147826e-04,
          1.13122175e-02, 0., 0., 4.52488707e-03, 7.54147826e-04, 0., 0.,
          0., 3.01659130e-03, 0., 0., 7.54147826e-04, 0., 7.54147826e-04,
          7.54147826e-04, 0., 7.54147826e-04, 0., 3.77073907e-03, 0., 0.,
          7.54147826e-04, 7.54147826e-04, 0., 2.26244354e-03, 0.,
          6.03318261e-03, 0., 0., 0., 0., 9.04977415e-03, 1.50829565e-03,
          0., 7.54147826e-04, 0., 7.54147826e-04, 0., 0., 0., 0.,
          7.54147826e-04, 2.26244354e-03, 0., 0., 1.50829565e-03, 0., 0.,
          1.50829565e-03, 7.54147826e-04, 0., 7.54147826e-04, 0.,
          7.54147826e-04, 7.54147826e-04, 0., 7.54147826e-04, 0.,
          7.54147826e-04, 0., 1.50829565e-03, 0., 0., 0., 0., 0., 0.,
          1.50829565e-03, 0., 1.50829565e-03, 0., 0., 0., 7.54147826e-04,
          0., 0., 7.54147826e-04, 1.50829565e-03, 0., 0., 0., 0., 0.,
          7.54147826e-04, 0., 1.50829565e-03, 3.77073907e-03, 0., 0.,
          7.54147826e-04, 1.50829565e-03, 7.54147826e-04, 3.01659130e-03,
          0., 0., 0., 7.54147826e-04, 7.54147826e-04, 0., 6.78733038e-03,
          3.01659130e-03, 0., 3.01659130e-03, 0., 2.26244354e-03,
          3.01659130e-03, 0., 7.54147826e-04, 3.01659130e-03, 0.,
          7.54147826e-04, 2.26244354e-03, 0., 0., 7.54147826e-04,
          1.80995483e-02, 0., 1.50829565e-03, 3.01659130e-03,
          7.54147826e-04, 0., 0., 0., 0., 7.54147826e-04, 0., 0., 0.,
          2.26244354e-03, 7.54147826e-04, 7.54147826e-04, 7.54147826e-04,
          0., 0., 0., 0., 0., 7.54147826e-04, 7.54147826e-04, 0., 0.,
          7.54147826e-04, 3.01659130e-03, 0., 0., 0., 0., 0., 0.,
          7.54147826e-04, 6.03318261e-03, 0., 2.26244354e-03, 0., 0.,
          7.54147826e-04, 0., 7.54147826e-04, 0., 7.54147826e-04, 0., 0.,
          0., 0., 7.54147826e-04, 3.77073907e-03, 0., 7.54147826e-04,
          1.50829565e-03, 1.50829565e-03, 0., 0., 0., 0., 0., 0.,
          7.54147826e-04, 0., 0., 3.01659130e-03, 1.50829565e-03, 0., 0.,
          1.50829565e-03, 0., 7.54147826e-04, 0., 0., 7.54147826e-04,
          2.26244354e-03, 1.50829565e-03, 3.77073907e-03, 1.50829565e-03,
          0., 7.54147826e-04, 3.01659130e-03, 2.26244354e-03, 0., 0., 0.,
          7.54147826e-04, 7.54147826e-04, 0., 2.26244354e-03,
          7.54147826e-04, 0., 0., 0., 0., 0., 0., 0., 7.54147826e-04, 0.,
          7.54147826e-04, 0., 0., 0., 0., 0., 6.78733038e-03,
          7.54147826e-04, 0., 7.54147826e-04, 7.54147826e-04,
          7.54147826e-04, 0., 0., 0., 0., 7.54147826e-04, 7.54147826e-04,
          0., 3.01659130e-03, 7.54147826e-04, 3.77073907e-03,
          1.50829565e-03, 1.50829565e-03, 0., 0., 0., 7.54147826e-04,
          2.26244354e-03, 0., 0., 0., 0., 7.54147826e-04, 2.26244354e-03,
          0., 0., 0., 7.54147826e-04, 1.50829565e-03, 1.35746608e-02, 0.,
          0., 0., 7.54147826e-04, 0., 0., 0., 0., 1.50829565e-03,
          1.50829565e-03, 0., 7.54147826e-04, 7.54147826e-04,
          3.77073907e-03, 0., 7.54147826e-04, 3.77073907e-03, 0.,
          7.54147826e-04, 1.50829565e-03, 7.54147826e-04, 0.,
          1.50829565e-03, 0., 0., 1.50829565e-03, 0., 0., 5.27903484e-03,
          0., 0., 1.50829565e-03, 7.54147826e-04, 3.01659130e-03,
          7.54147815e-03, 7.54147826e-04, 1.50829565e-03, 2.26244354e-03,
          2.26244354e-03, 7.54147826e-04, 2.26244354e-03, 7.54147826e-04,
          1.50829565e-03, 0., 0., 0., 0., 7.54147826e-04, 0.,
          7.54147826e-04, 0., 0., 7.54147826e-04, 1.50829565e-03, 0.,
          3.01659130e-03, 7.54147826e-04, 0., 0., 7.54147826e-04, 0.,
          7.54147826e-04, 0., 4.52488707e-03, 0., 0., 3.01659130e-03, 0.,
          7.54147826e-04, 1.50829565e-03, 0., 0., 0., 0., 0., 0.,
          2.26244354e-03, 0., 0., 0., 0., 0., 0., 2.26244354e-03, 0., 0.,
          7.54147826e-04, 7.54147826e-04, 0., 0., 1.50829565e-03,
          2.26244354e-03, 0., 0., 1.50829563e-02, 0., 0., 1.50829565e-03,
          7.54147826e-04, 2.26244354e-03, 0., 0., 7.54147826e-04,
          7.54147826e-04, 0., 7.54147826e-04, 0., 0., 0., 4.52488707e-03,
          1.50829565e-03, 7.54147826e-04, 0., 0., 2.26244354e-03, 0.,
          7.54147826e-04, 0., 1.50829563e-02, 0., 7.54147826e-04, 0., 0.,
          0., 0., 0., 7.54147826e-04, 0., 0., 7.54147815e-03, 0., 0.,
          5.27903484e-03, 7.54147826e-04, 0., 0., 0., 7.54147826e-04,
          1.50829565e-03, 7.54147826e-04, 0., 7.54147826e-04,
          2.26244354e-03, 0., 0., 0., 7.54147826e-04, 7.54147826e-04, 0.,
          7.54147826e-04, 7.54147826e-04, 0., 0., 0., 7.54147826e-04,
          7.54147826e-04, 0., 5.27903484e-03, 7.54147826e-04, 0., 0., 0.,
          3.01659130e-03, 7.54147826e-04, 3.77073907e-03, 7.54147826e-04,
          0., 7.54147826e-04, 1.50829565e-03, 0., 4.52488707e-03,
          3.01659130e-03, 7.54147826e-04, 0., 0., 7.54147826e-04, 0.,
          3.77073907e-03, 7.54147826e-04, 0., 1.50829565e-03, 0.,
          7.54147826e-04, 0., 1.50829565e-03, 0., 0., 3.77073907e-03, 0.,
          0., 1.50829565e-03, 0., 1.28205130e-02, 7.54147826e-04,
          4.52488707e-03, 0., 0., 0., 0., 0., 7.54147826e-04, 0.,
          7.54147826e-04, 0., 7.54147826e-04, 0., 0., 0., 0., 0., 0., 0.,
          0., 1.50829565e-03, 0., 1.50829565e-03, 3.01659130e-03, 0., 0.,
          0., 0., 0., 0., 0., 0., 0., 0., 7.54147826e-04, 6.78733038e-03,
          7.54147826e-04, 2.26244354e-03, 1.50829565e-03, 1.50829565e-03,
          1.50829565e-03, 0., 0., 0., 3.01659130e-03, 0., 1.50829565e-03,
          0., 0., 0., 0., 0., 0., 7.54147826e-04, 0., 0., 0.,
          1.50829565e-03, 0., 7.54147826e-04, 1.50829565e-03,
          1.50829565e-03, 0., 0., 0., 0., 1.50829565e-03, 7.54147826e-04,
          7.54147826e-04, 0., 0., 2.26244354e-03, 0., 0., 1.50829565e-03,
          3.01659130e-03, 7.54147826e-04, 7.54147826e-04, 7.54147826e-04,
          7.54147826e-04, 2.26244354e-03, 7.54147826e-04, 2.26244354e-03,
          1.50829565e-03, 3.77073907e-03, 3.77073907e-03, 0.,
          3.01659130e-03, 0., 1.58371050e-02, 0., 0., 0., 0., 0.,
          7.54147826e-04, 1.50829565e-03, 0., 7.54147826e-04, 0., 0., 0.,
          0., 0., 0., 7.54147826e-04, 7.54147826e-04, 0., 0.,
          1.50829565e-03, 7.54147826e-04, 0., 0., 8.29562638e-03, 0., 0.,
          2.26244354e-03, 1.20663652e-02, 2.26244354e-03, 2.26244354e-03,
          0., 7.54147826e-04, 0., 1.50829565e-03, 0., 1.50829565e-03,
          2.26244354e-03, 0., 0., 4.52488707e-03, 7.54147826e-04, 0.,
          3.01659130e-03, 0., 0., 4.52488707e-03, 0., 1.50829565e-03, 0.,
          0., 3.01659130e-03, 0., 0., 1.50829565e-03, 6.78733038e-03, 0.,
          1.50829565e-03, 7.54147826e-04, 0., 3.77073907e-03,
          2.26244354e-03, 7.54147826e-04, 3.77073907e-03, 2.26244354e-03,
          0., 7.54147826e-04, 0., 0., 7.54147826e-04, 9.80392192e-03, 0.,
          7.54147826e-04, 0., 0., 0., 7.54147826e-04, 2.26244354e-03, 0.,
          0., 0., 1.50829565e-03, 7.54147826e-04, 0., 7.54147826e-04, 0.,
          1.50829565e-03, 0., 0., 0., 2.26244354e-03, 0., 0., 0.,
          2.26244354e-03, 0., 0., 0., 1.50829565e-03, 3.01659130e-03,
          7.54147826e-04, 1.50829565e-03, 0., 7.54147826e-04,
          7.54147826e-04, 1.50829565e-03, 0., 0., 0., 0., 0.,
          7.54147826e-04, 7.54147826e-04, 0., 2.26244354e-03, 0., 0., 0.,
          0., 1.50829565e-03, 0., 7.54147826e-04, 0., 0., 1.50829565e-03,
          0., 0., 7.54147826e-04, 0., 7.54147826e-04, 7.54147826e-04,
          7.54147826e-04, 1.50829565e-03, 1.50829565e-03, 7.54147826e-04,
          0., 4.52488707e-03, 3.01659130e-03, 3.01659130e-03,
          7.54147826e-04, 0., 0., 4.52488707e-03, 0., 0., 1.50829565e-03,
          7.54147826e-04, 0., 0., 0., 2.26244354e-03, 2.26244354e-03, 0.,
          1.50829565e-03, 1.50829565e-03, 2.26244354e-03, 3.01659130e-03,
          0., 2.26244354e-03, 1.50829565e-03, 1.50829565e-03,
          8.29562638e-03, 0., 7.54147826e-04, 0., 1.50829565e-03,
          1.50829565e-03, 0., 0., 0., 2.26244354e-03, 0., 1.50829565e-03,
          6.03318261e-03, 7.54147826e-04, 3.77073907e-03, 0.,
          7.54147826e-04, 7.54147826e-04, 0., 3.77073907e-03, 0.,
          7.54147826e-04, 0., 2.26244354e-03, 0., 2.26244354e-03, 0.,
          1.50829565e-03, 1.50829565e-03, 0., 0., 0., 0., 0., 0.,
          2.26244354e-03, 0., 0., 0., 0., 7.54147826e-04, 0., 0.,
          1.50829565e-03, 0., 7.54147826e-04, 0., 0., 0., 0.,
          7.54147826e-04, 7.54147815e-03, 7.54147826e-04, 0.,
          7.54147826e-04, 0., 7.54147826e-04, 0., 0., 0., 0., 0.,
          3.01659130e-03, 0., 7.54147826e-04, 7.54147826e-04,
          7.54147826e-04, 5.27903484e-03, 5.27903484e-03, 3.77073907e-03,
          0., 1.50829565e-03, 7.54147826e-04, 7.54147826e-04,
          7.54147826e-04, 0., 0., 3.01659130e-03, 3.01659130e-03, 0.,
          3.77073907e-03, 0., 0., 1.28205130e-02, 1.50829565e-03, 0., 0.,
          1.50829565e-03, 7.54147826e-04, 7.54147826e-04, 2.26244354e-03,
          7.54147826e-04, 3.77073907e-03, 1.50829565e-03, 7.54147826e-04,
          7.54147826e-04, 0., 0., 0., 0., 1.50829565e-03, 7.54147826e-04,
          0., 0., 0., 0., 7.54147826e-04, 0., 0., 0., 1.50829565e-03, 0.,
          3.01659130e-03, 0., 0., 1.50829565e-03, 0., 0., 0.,
          3.77073907e-03, 0., 0., 0., 7.54147826e-04, 1.50829565e-03,
          7.54147826e-04, 7.54147826e-04, 2.26244354e-03, 7.54147826e-04,
          0., 0., 0., 0., 7.54147826e-04, 0., 0., 3.77073907e-03,
          1.50829565e-03, 0., 0., 1.35746608e-02, 0., 0., 0.,
          7.54147826e-04, 7.54147826e-04, 2.26244354e-03, 0., 0., 0., 0.,
          3.77073907e-03, 7.54147826e-04, 0., 7.54147826e-04, 0., 0.,
          1.50829565e-03, 7.54147826e-04, 7.54147826e-04, 0.,
          2.26244354e-03, 0., 0., 7.54147826e-04, 7.54147826e-04,
          7.54147826e-04, 0., 7.54147826e-04, 0., 0., 1.13122175e-02, 0.,
          0., 1.50829565e-03, 0., 0., 0., 7.54147826e-04, 7.54147826e-04,
          7.54147826e-04, 0., 6.78733038e-03, 0., 7.54147826e-04, 0., 0.,
          7.54147826e-04, 0., 1.50829565e-03, 2.26244354e-03, 0.,
          1.50829565e-03, 2.26244354e-03, 0., 7.54147826e-04,
          2.26244354e-03, 7.54147826e-04, 2.26244354e-03, 1.50829565e-03,
          7.54147826e-04, 7.54147826e-04, 0., 7.54147826e-04,
          6.03318261e-03, 0., 0., 0., 0., 7.57089863e-03, 8.66325665e-03,
          7.56047061e-03, 1.02483481e-02, 1.11921038e-02, 1.57909561e-02,
          1.67164616e-02, 2.31871810e-02, 2.73219757e-02, 4.19892892e-02,
          4.34388146e-02, 4.41192575e-02, 3.11126392e-02, 2.34791711e-02,
          1.77749265e-02, 2.42195767e-03, 5.73552970e-04, 1.35567054e-04,
          2.86776467e-05, 7.82117604e-06, 0., 0., 0., 0., 0., 0., 0., 0.,
          0., 0., 1.45995291e-04, 9.15077631e-04, 2.92772707e-03,
          4.85955784e-03, 3.98880010e-03, 4.31207521e-03, 4.11393866e-03,
          6.15526596e-03, 6.60628686e-03, 8.54854565e-03, 9.29155760e-03,
          1.13928467e-02, 1.24747762e-02, 1.15179857e-02, 1.44196423e-02,
          1.45552093e-02, 1.98501460e-02, 2.30672564e-02, 3.59878391e-02,
          4.39393707e-02, 2.51841880e-02, 2.01864559e-02, 3.76276784e-02,
          1.02822399e-02, 9.51576454e-04, 3.12847042e-05, 0., 0., 0., 0.,
          1.40781180e-04, 5.31840022e-04, 1.60855532e-03, 3.35267768e-03,
          3.58470599e-03, 4.09308216e-03, 3.42306821e-03, 4.53106826e-03,
          5.23497397e-03, 6.73663989e-03, 6.76010363e-03, 9.16381180e-03,
          1.02587761e-02, 9.85728949e-03, 1.20498259e-02, 1.19429361e-02,
          1.57023147e-02, 1.69145968e-02, 2.33436041e-02, 3.19364704e-02,
          5.42268232e-02, 2.84742974e-02, 3.77319641e-02, 2.63000093e-02,
          4.96905390e-03, 4.64056473e-04 ]
      - [ 8.68809759e-04, 8.68809759e-04, 0., 1.73761952e-03, 0.,
          8.68809759e-04, 2.60642916e-03, 8.68809759e-04, 0., 0.,
          1.73761952e-03, 0., 0., 0., 0., 1.73761952e-03, 1.73761952e-03,
          1.73761952e-03, 0., 8.68809759e-04, 8.68809759e-04, 0., 0.,
          7.81928748e-03, 0., 0., 8.68809759e-04, 2.60642916e-03, 0.,
          2.60642916e-03, 0., 1.73761952e-03, 0., 0., 0., 8.68809759e-04,
          0., 8.68809782e-03, 0., 0., 0., 8.68809759e-04, 8.68809759e-04,
          0., 0., 0., 8.68809759e-04, 0., 0., 0., 2.60642916e-03, 0., 0.,
          1.73761952e-03, 8.68809782e-03, 1.73761952e-03, 0., 0., 0.,
          3.47523903e-03, 8.68809759e-04, 0., 0., 0., 0., 8.68809759e-04,
          0., 0., 0., 8.68809759e-04, 8.68809759e-04, 1.73761952e-03,
          8.68809759e-04, 0., 0., 0., 0., 3.47523903e-03, 0.,
          1.73761952e-03, 0., 2.60642916e-03, 0., 8.68809759e-04,
          8.68809759e-04, 1.73761952e-03, 0., 2.60642916e-03, 0.,
          1.73761952e-03, 1.73761952e-03, 0., 5.21285832e-03, 0., 0., 0.,
          0., 1.47697655e-02, 0., 8.68809759e-04, 2.60642916e-03, 0., 0.,
          0., 0., 6.08166819e-03, 8.68809759e-04, 0., 0., 1.73761952e-03,
          8.68809759e-04, 8.68809759e-04, 8.68809759e-04, 0., 0.,
          2.60642916e-03, 8.68809759e-04, 0., 0., 2.60642916e-03, 0., 0.,
          0., 0., 0., 8.68809759e-04, 1.73761952e-03, 1.73761952e-03, 0.,
          8.68809759e-04, 0., 0., 0., 8.68809759e-04, 8.68809759e-04, 0.,
          0., 0., 9.55690723e-03, 0., 0., 8.68809759e-04, 0.,
          2.60642916e-03, 8.68809759e-04, 8.68809759e-04, 0., 0., 0.,
          1.73761952e-03, 0., 1.73761952e-03, 1.73761952e-03, 0., 0.,
          8.68809759e-04, 0., 1.73761952e-03, 2.60642916e-03,
          8.68809759e-04, 0., 0., 6.08166819e-03, 0., 1.73761952e-03,
          1.73761952e-03, 2.60642916e-03, 0., 0., 0., 0., 0., 0., 0., 0.,
          0., 0., 1.73761952e-03, 0., 0., 8.68809759e-04, 0., 0., 0., 0.,
          8.68809759e-04, 8.68809759e-04, 0., 1.73761952e-03,
          4.34404891e-03, 8.68809759e-04, 1.73761952e-03, 0.,
          8.68809759e-04, 0., 0., 0., 3.47523903e-03, 0., 0., 0., 0.,
          5.21285832e-03, 0., 8.68809759e-04, 0., 1.21633364e-02, 0.,
          8.68809759e-04, 1.73761952e-03, 0., 0., 0., 0., 0., 0., 0., 0.,
          2.60642916e-03, 1.73761952e-03, 0., 0., 0., 0., 0.,
          8.68809759e-04, 1.73761952e-03, 0., 1.73761952e-03, 0., 0., 0.,
          8.68809759e-04, 0., 0., 1.73761952e-03, 0., 8.68809759e-04, 0.,
          8.68809759e-04, 0., 8.68809759e-04, 0., 0., 1.21633364e-02, 0.,
          0., 8.68809759e-04, 0., 0., 0., 0., 8.68809759e-04,
          1.73761952e-03, 9.55690723e-03, 8.68809759e-04, 0.,
          1.73761952e-03, 0., 8.68809759e-04, 8.68809759e-04, 0.,
          1.73761952e-03, 0., 0., 2.60642916e-03, 8.68809759e-04, 0., 0.,
          0., 0., 0., 2.60642916e-03, 0., 0., 8.68809759e-04, 0., 0., 0.,
          8.68809759e-04, 8.68809759e-04, 0., 0., 0., 8.68809759e-04,
          8.68809759e-04, 3.47523903e-03, 0., 3.47523903e-03, 0., 0., 0.,
          8.68809759e-04, 2.60642916e-03, 0., 0., 0., 0., 0., 0., 0., 0.,
          8.68809759e-04, 8.68809759e-04, 8.68809759e-04, 0., 0., 0., 0.,
          8.68809759e-04, 0., 0., 2.60642916e-03, 8.68809759e-04,
          8.68809759e-04, 0., 0., 8.68809759e-04, 8.68809759e-04, 0.,
          1.73761952e-03, 4.34404891e-03, 1.73761952e-03, 0., 0.,
          1.73761952e-03, 1.73761952e-03, 0., 1.73761952e-03, 0.,
          1.73761952e-03, 0., 0., 8.68809759e-04, 0., 0., 0., 0., 0.,
          5.21285832e-03, 0., 0., 0., 8.68809759e-04, 3.47523903e-03,
          1.73761952e-03, 0., 0., 0., 8.68809759e-04, 3.47523903e-03,
          5.21285832e-03, 0., 0., 0., 8.68809759e-04, 1.73761952e-03,
          1.73761952e-03, 0., 0., 0., 0., 8.68809759e-04, 8.68809759e-04,
          8.68809759e-04, 0., 0., 1.73761952e-03, 1.73761952e-03, 0.,
          8.68809759e-04, 1.73761952e-03, 0., 0., 0., 1.73761952e-03, 0.,
          7.81928748e-03, 0., 8.68809759e-04, 1.73761952e-03, 0., 0., 0.,
          0., 2.60642916e-03, 4.34404891e-03, 8.68809759e-04,
          8.68809759e-04, 2.60642916e-03, 3.47523903e-03, 1.73761952e-03,
          0., 0., 0., 2.60642916e-03, 0., 8.68809759e-04, 8.68809759e-04,
          8.68809759e-04, 2.60642916e-03, 0., 0., 0., 8.68809759e-04, 0.,
          7.81928748e-03, 8.68809759e-04, 1.73761952e-03, 0.,
          2.60642916e-03, 2.60642916e-03, 1.73761952e-03, 1.73761952e-03,
          0., 2.60642916e-03, 0., 3.47523903e-03, 0., 0., 8.68809759e-04,
          8.68809759e-04, 0., 0., 0., 8.68809759e-04, 0., 0., 0., 0., 0.,
          0., 0., 0., 8.68809759e-04, 3.47523903e-03, 8.68809759e-04, 0.,
          0., 0., 0., 1.73761952e-03, 1.73761952e-03, 1.73761952e-03, 0.,
          5.21285832e-03, 0., 8.68809759e-04, 0., 8.68809759e-04, 0.,
          1.73761952e-03, 7.81928748e-03, 0., 0., 0., 0., 0., 0., 0.,
          6.08166819e-03, 1.73761952e-03, 2.60642916e-03, 8.68809759e-04,
          8.68809759e-04, 0., 3.47523903e-03, 0., 2.60642916e-03, 0.,
          6.08166819e-03, 1.73761952e-03, 0., 8.68809759e-04, 0., 0., 0.,
          0., 0., 0., 1.73761952e-03, 3.47523903e-03, 0., 8.68809759e-04,
          0., 8.68809759e-04, 8.68809759e-04, 0., 0., 8.68809759e-04,
          8.68809759e-04, 0., 2.60642916e-03, 2.60642916e-03,
          8.68809759e-04, 2.60642916e-03, 0., 0., 8.68809759e-04,
          1.73761952e-03, 0., 1.73761952e-03, 0., 0., 0., 8.68809759e-04,
          0., 0., 0., 0., 0., 0., 0., 0., 6.08166819e-03, 0., 0., 0., 0.,
          8.68809759e-04, 0., 0., 0., 8.68809759e-04, 8.68809759e-04,
          1.73761952e-03, 0., 8.68809759e-04, 0., 1.04257166e-02, 0., 0.,
          2.60642916e-03, 0., 0., 0., 0., 0., 1.73761952e-03,
          3.47523903e-03, 0., 0., 0., 8.68809759e-04, 0., 2.60642916e-03,
          8.68809782e-03, 0., 8.68809759e-04, 8.68809759e-04, 0., 0., 0.,
          0., 8.68809759e-04, 8.68809759e-04, 0., 0., 8.68809759e-04, 0.,
          0., 3.47523903e-03, 2.60642916e-03, 0., 0., 3.47523903e-03,
          8.68809759e-04, 8.68809759e-04, 0., 0., 0., 0., 8.68809759e-04,
          0., 0., 0., 0., 0., 0., 8.68809759e-04, 0., 0., 0.,
          8.68809759e-04, 0., 8.68809759e-04, 1.73761952e-03, 0., 0.,
          5.21285832e-03, 0., 4.34404891e-03, 1.73761952e-03,
          8.68809759e-04, 0., 0., 0., 0., 8.68809759e-04, 8.68809759e-04,
          0., 0., 3.47523903e-03, 0., 4.34404891e-03, 0., 0.,
          2.60642916e-03, 0., 0., 0., 0., 9.55690723e-03, 8.68809759e-04,
          8.68809759e-04, 0., 1.73761952e-03, 0., 0., 0., 3.47523903e-03,
          8.68809759e-04, 1.73761952e-03, 0., 0., 2.60642916e-03,
          1.73761952e-03, 8.68809759e-04, 0., 6.95047807e-03,
          8.68809759e-04, 0., 1.73761952e-03, 0., 1.91138145e-02, 0.,
          8.68809759e-04, 0., 0., 8.68809759e-04, 8.68809759e-04,
          2.60642916e-03, 0., 8.68809759e-04, 8.68809759e-04,
          1.73761952e-03, 8.68809759e-04, 0., 0., 0., 1.73761952e-03, 0.,
          8.68809759e-04, 0., 8.68809759e-04, 8.68809759e-04, 0., 0.,
          8.68809759e-04, 0., 8.68809759e-04, 0., 7.81928748e-03,
          1.73761952e-03, 2.60642916e-03, 5.21285832e-03, 1.73761952e-03,
          0., 0., 0., 0., 5.21285832e-03, 0., 8.68809759e-04,
          2.60642916e-03, 1.73761952e-03, 0., 2.60642916e-03, 0., 0.,
          2.60642916e-03, 0., 8.68809759e-04, 0., 0., 1.73761952e-03, 0.,
          2.60642916e-03, 5.21285832e-03, 6.95047807e-03, 0.,
          8.68809759e-04, 8.68809759e-04, 0., 4.34404891e-03,
          8.68809759e-04, 0., 0., 1.73761952e-03, 0., 0., 8.68809759e-04,
          8.68809759e-04, 0., 0., 0., 0., 0., 5.21285832e-03, 0.,
          1.73761952e-03, 0., 0., 0., 0., 0., 2.60642916e-03, 0., 0.,
          1.73761952e-03, 8.68809759e-04, 0., 0., 0., 0., 8.68809759e-04,
          8.68809759e-04, 8.68809759e-04, 8.68809759e-04, 0.,
          1.73761952e-03, 0., 8.68809759e-04, 6.95047807e-03, 0.,
          8.68809759e-04, 0., 0., 8.68809759e-04, 2.60642916e-03, 0., 0.,
          0., 0., 0., 3.47523903e-03, 3.47523903e-03, 2.60642916e-03,
          1.73761952e-03, 0., 0., 0., 0., 8.68809759e-04, 8.68809759e-04,
          7.81928748e-03, 0., 8.68809759e-04, 8.68809759e-04,
          8.68809759e-04, 0., 0., 1.73761952e-03, 0., 8.68809759e-04, 0.,
          0., 8.68809759e-04, 0., 0., 0., 0., 8.68809759e-04,
          1.73761952e-03, 2.60642916e-03, 0., 0., 0., 0., 0., 0., 0., 0.,
          0., 8.68809759e-04, 0., 3.47523903e-03, 0., 0., 1.73761952e-03,
          5.21285832e-03, 8.68809759e-04, 2.60642916e-03, 8.68809759e-04,
          0., 1.65073853e-02, 0., 0., 8.68809759e-04, 8.68809759e-04,
          3.47523903e-03, 0., 0., 0., 1.73761952e-03, 0., 1.73761952e-03,
          0., 0., 8.68809759e-04, 0., 0., 8.68809759e-04, 2.60642916e-03,
          1.73761952e-03, 0., 1.73761952e-03, 8.68809759e-04,
          1.73761952e-03, 0., 3.47523903e-03, 1.73761952e-03, 0., 0.,
          8.68809759e-04, 0., 0., 0., 0., 0., 2.60642916e-03,
          1.73761952e-03, 0., 0., 1.73761952e-03, 8.68809759e-04, 0., 0.,
          8.68809759e-04, 1.73761952e-03, 7.81928748e-03, 2.60642916e-03,
          0., 0., 1.73761952e-03, 0., 4.34404891e-03, 4.34404891e-03,
          8.68809759e-04, 0., 0., 8.68809759e-04, 2.60642916e-03, 0., 0.,
          0., 0., 0., 0., 3.47523903e-03, 8.68809759e-04, 0.,
          7.81928748e-03, 0., 2.60642916e-03, 8.68809759e-04,
          2.60642916e-03, 0., 8.68809759e-04, 4.34404891e-03,
          1.73761952e-03, 3.47523903e-03, 1.73761952e-03, 7.81928748e-03,
          0., 0., 8.68809759e-04, 0., 0., 0., 3.47523903e-03,
          3.47523903e-03, 0., 0., 0., 0., 0., 8.68809782e-03,
          8.68809759e-04, 0., 0., 0., 0., 0., 2.60642916e-03, 0.,
          1.73761952e-03, 1.73761952e-03, 0., 0., 0., 8.68809759e-04, 0.,
          0., 0., 0., 0., 0., 0., 0., 8.68809759e-04, 8.68809759e-04, 0.,
          8.68809759e-04, 2.60642916e-03, 0., 8.68809759e-04, 0., 0., 0.,
          8.68809759e-04, 0., 0., 0., 1.73761952e-03, 0., 0., 0., 0., 0.,
          0., 3.47523903e-03, 8.68809759e-04, 8.68809759e-04,
          8.68809759e-04, 8.68809782e-03, 0., 8.68809759e-04, 0.,
          1.73761952e-03, 8.68809759e-04, 0., 0., 0., 0., 1.73761952e-03,
          1.73761952e-03, 0., 5.21285832e-03, 0., 0., 0., 8.68809759e-04,
          0., 0., 0., 8.68809759e-04, 8.68809759e-04, 0., 0.,
          8.68809759e-04, 0., 0., 0., 0., 1.73761952e-03, 8.68809759e-04,
          0., 8.68809759e-04, 8.68809759e-04, 0., 0., 0., 0., 0., 0., 0.,
          4.34404891e-03, 0., 1.04257166e-02, 0., 0., 8.68809759e-04,
          1.73761952e-03, 0., 3.47523903e-03, 0., 8.68809759e-04,
          1.73761952e-03, 0., 8.68809759e-04, 0., 8.68809759e-04, 0.,
          6.95047807e-03, 8.68809759e-04, 1.73761952e-03, 3.47523903e-03,
          2.60642916e-03, 3.47523903e-03, 0., 0., 0., 0., 0.,
          4.54821298e-03, 6.58572325e-03, 9.83683206e-03, 1.03823952e-02,
          1.21220723e-02, 1.06551768e-02, 1.36112366e-02, 2.02721134e-02,
          3.41672674e-02, 3.21464576e-02, 4.65843864e-02, 5.14220819e-02,
          1.83041915e-02, 2.21259147e-02, 2.91124582e-02, 1.03406431e-02,
          9.04632267e-04, 1.78142975e-04, 3.34018077e-05, 0., 0., 0., 0.,
          0., 0., 0., 0., 0., 0., 0., 2.11544786e-04, 9.24116699e-04,
          1.95957278e-03, 2.42998148e-03, 3.88574367e-03, 4.96016862e-03,
          6.84180344e-03, 7.24540884e-03, 8.65941867e-03, 7.74643570e-03,
          8.13334063e-03, 8.22519511e-03, 9.43322759e-03, 1.74663626e-02,
          1.99714974e-02, 2.35761087e-02, 2.33450793e-02, 4.04774249e-02,
          4.31662686e-02, 1.71184260e-02, 1.38589665e-02, 3.22104767e-02,
          2.67242305e-02, 4.15295828e-03, 6.09582989e-04, 0., 0., 0., 0.,
          0., 1.72576008e-04, 7.37623253e-04, 1.61998766e-03,
          1.83709944e-03, 2.57472275e-03, 2.98111141e-03, 4.65398515e-03,
          5.10769291e-03, 6.81675225e-03, 7.02551333e-03, 8.25024676e-03,
          7.73530221e-03, 7.16468785e-03, 8.99900403e-03, 1.07832169e-02,
          1.89722273e-02, 2.11600456e-02, 2.70944331e-02, 3.60628180e-02,
          5.00303395e-02, 2.02498455e-02, 2.33311635e-02, 4.02881466e-02,
          1.67871919e-02, 2.89760693e-03 ]
      - [ 4.04858310e-03, 5.39811049e-03, 0., 0., 0., 1.34952762e-03,
          2.69905524e-03, 0., 0., 0., 0., 0., 0., 0., 0., 0.,
          1.34952762e-03, 0., 0., 0., 0., 0., 1.34952762e-03,
          1.21457484e-02, 0., 0., 0., 0., 0., 8.09716620e-03, 0., 0., 0.,
          1.34952762e-03, 0., 0., 0., 2.42914967e-02, 0., 0.,
          2.69905524e-03, 4.04858310e-03, 0., 1.34952762e-03, 0., 0.,
          2.69905524e-03, 1.34952762e-03, 0., 0., 0., 1.34952762e-03,
          4.04858310e-03, 1.34952762e-03, 0., 0., 0., 0., 0., 0., 0., 0.,
          0., 0., 0., 0., 4.04858310e-03, 0., 1.34952762e-03, 0., 0., 0.,
          0., 0., 0., 0., 0., 1.34952762e-03, 0., 0., 0., 2.69905524e-03,
          0., 0., 1.34952762e-03, 0., 0., 0., 0., 0., 2.69905524e-03, 0.,
          1.34952762e-03, 0., 0., 0., 0., 2.83400808e-02, 0.,
          2.69905524e-03, 0., 2.69905524e-03, 0., 0., 0., 0., 0.,
          1.34952762e-03, 0., 0., 0., 0., 0., 0., 0., 6.74763788e-03, 0.,
          0., 0., 1.34952762e-03, 0., 0., 0., 1.34952762e-03, 0., 0., 0.,
          0., 4.04858310e-03, 0., 0., 1.34952762e-03, 0., 0., 0., 0.,
          1.34952762e-03, 0., 0., 0., 0., 0., 0., 0., 0., 4.04858310e-03,
          0., 0., 0., 4.04858310e-03, 0., 0., 0., 0., 0., 1.34952762e-03,
          0., 0., 1.34952762e-03, 0., 0., 0., 0., 0., 9.44669358e-03, 0.,
          1.34952762e-03, 2.69905524e-03, 0., 0., 0., 0., 0., 0., 0., 0.,
          0., 0., 1.34952762e-03, 0., 0., 0., 0., 1.34952762e-03,
          2.69905524e-03, 0., 0., 0., 0., 9.44669358e-03, 0.,
          2.69905524e-03, 1.34952762e-03, 0., 0., 0., 5.39811049e-03,
          2.69905524e-03, 0., 0., 0., 0., 4.04858310e-03, 1.34952762e-03,
          6.74763788e-03, 0., 0., 0., 1.34952762e-03, 0., 0., 0., 0.,
          1.34952762e-03, 0., 0., 0., 0., 1.34952762e-03, 0., 0., 0.,
          2.69905524e-03, 1.34952762e-03, 0., 0., 1.34952762e-03, 0.,
          2.69905524e-03, 0., 0., 0., 0., 1.34952762e-03, 1.34952762e-03,
          0., 0., 0., 5.39811049e-03, 2.69905524e-03, 0., 1.34952762e-03,
          0., 0., 0., 0., 0., 0., 1.34952762e-03, 4.04858310e-03, 0.,
          1.34952762e-03, 0., 0., 1.61943324e-02, 0., 0., 0., 0., 0.,
          1.34952762e-03, 0., 1.34952762e-03, 0., 0., 0., 0., 0., 0., 0.,
          0., 0., 0., 0., 0., 1.34952762e-03, 0., 0., 0., 4.04858310e-03,
          0., 0., 0., 1.34952762e-03, 0., 0., 1.34952762e-03, 0., 0., 0.,
          0., 0., 1.34952762e-03, 1.34952762e-03, 0., 0., 0., 0., 0., 0.,
          1.34952762e-03, 0., 0., 0., 0., 1.34952762e-03, 0., 0., 0., 0.,
          0., 0., 0., 0., 0., 0., 0., 0., 1.34952762e-03, 0., 0.,
          1.34952762e-03, 5.39811049e-03, 0., 0., 1.34952762e-03, 0., 0.,
          0., 1.34952762e-03, 0., 0., 2.69905524e-03, 0., 0., 0., 0., 0.,
          0., 2.69905524e-03, 0., 1.34952762e-03, 0., 4.04858310e-03, 0.,
          0., 0., 0., 0., 1.34952762e-03, 6.74763788e-03, 1.34952762e-03,
          1.34952762e-03, 0., 0., 0., 4.04858310e-03, 1.34952762e-03, 0.,
          0., 1.34952762e-03, 0., 0., 1.34952762e-03, 1.34952762e-03, 0.,
          0., 2.69905524e-03, 0., 0., 0., 2.69905524e-03, 0., 0.,
          4.04858310e-03, 0., 0., 5.39811049e-03, 0., 1.34952762e-03, 0.,
          0., 0., 0., 0., 0., 6.74763788e-03, 4.04858310e-03, 0.,
          2.69905524e-03, 2.69905524e-03, 2.69905524e-03, 1.34952762e-03,
          0., 0., 2.69905524e-03, 0., 0., 0., 0., 1.34952762e-03, 0., 0.,
          1.34952762e-03, 1.34952762e-03, 1.34952762e-03, 4.04858310e-03,
          0., 9.44669358e-03, 0., 0., 1.34952762e-03, 0., 0., 0.,
          2.15924419e-02, 1.34952762e-03, 0., 1.34952762e-03, 0.,
          2.69905524e-03, 0., 0., 2.69905524e-03, 1.34952762e-03, 0.,
          1.34952762e-03, 0., 0., 0., 0., 0., 1.34952762e-03, 0.,
          1.34952762e-03, 1.34952762e-03, 0., 0., 0., 1.34952762e-03, 0.,
          0., 0., 0., 0., 1.34952762e-03, 0., 0., 0., 0., 0., 0.,
          2.69905524e-03, 1.34952762e-03, 0., 0., 0., 0., 0., 0., 0., 0.,
          0., 0., 1.34952762e-03, 0., 2.69905524e-03, 0., 1.34952762e-03,
          0., 5.39811049e-03, 4.04858310e-03, 0., 1.34952762e-03, 0., 0.,
          0., 1.34952762e-03, 0., 0., 0., 1.34952758e-02, 1.34952762e-03,
          2.69905524e-03, 0., 0., 1.34952762e-03, 0., 0., 0., 0.,
          4.04858310e-03, 0., 1.34952762e-03, 0., 4.04858310e-03, 0., 0.,
          0., 0., 0., 1.34952762e-03, 2.69905524e-03, 0., 0., 0., 0., 0.,
          0., 6.74763788e-03, 0., 0., 0., 1.34952762e-03, 0., 0., 0., 0.,
          2.69905524e-03, 0., 1.34952762e-03, 0., 0., 6.74763788e-03,
          1.34952762e-03, 1.34952762e-03, 1.34952762e-03, 4.04858310e-03,
          0., 0., 0., 1.34952762e-03, 4.04858310e-03, 0., 0., 0., 0., 0.,
          0., 1.34952762e-03, 1.34952762e-03, 0., 1.34952762e-03, 0.,
          2.69905524e-03, 1.34952762e-03, 2.69905524e-03, 0., 0., 0., 0.,
          0., 0., 0., 0., 1.34952762e-03, 0., 0., 0., 0., 0.,
          1.34952762e-03, 0., 0., 0., 1.34952762e-03, 0., 2.69905524e-03,
          0., 0., 0., 0., 0., 0., 0., 1.34952762e-03, 0., 0., 0.,
          2.69905524e-03, 2.69905524e-03, 0., 0., 1.34952762e-03,
          1.34952762e-03, 0., 0., 0., 0., 4.04858310e-03, 0.,
          2.69905524e-03, 0., 0., 4.04858310e-03, 0., 0., 0.,
          6.74763788e-03, 0., 0., 0., 0., 0., 2.69905524e-03,
          2.69905524e-03, 1.34952762e-03, 2.69905524e-03, 0., 0., 0., 0.,
          4.04858310e-03, 0., 0., 0., 1.34952762e-03, 0., 0., 0.,
          5.39811049e-03, 1.34952762e-03, 0., 0., 2.69905524e-03, 0., 0.,
          1.34952762e-03, 0., 4.04858310e-03, 1.34952762e-03, 0.,
          8.09716620e-03, 0., 2.42914967e-02, 2.69905524e-03,
          4.04858310e-03, 0., 0., 0., 0., 1.34952762e-03, 0.,
          1.34952762e-03, 1.34952762e-03, 0., 2.69905524e-03, 0., 0., 0.,
          0., 2.69905524e-03, 0., 0., 1.34952762e-03, 0., 0., 0., 0., 0.,
          0., 0., 8.09716620e-03, 0., 2.69905524e-03, 1.34952762e-03, 0.,
          0., 1.34952762e-03, 0., 8.09716620e-03, 1.34952762e-03,
          1.34952762e-03, 2.69905524e-03, 5.39811049e-03, 1.34952762e-03,
          0., 1.34952762e-03, 0., 0., 0., 0., 2.69905524e-03, 0., 0.,
          2.69905524e-03, 0., 0., 5.39811049e-03, 2.15924419e-02, 0., 0.,
          0., 0., 1.34952758e-02, 0., 1.34952762e-03, 0., 1.34952762e-03,
          0., 0., 0., 0., 0., 0., 0., 0., 0., 4.04858310e-03, 0., 0., 0.,
          0., 0., 0., 0., 4.04858310e-03, 0., 0., 1.34952762e-03, 0., 0.,
          0., 0., 0., 0., 0., 0., 1.34952762e-03, 0., 0., 0.,
          2.69905524e-03, 1.34952762e-03, 0., 0., 0., 0., 0.,
          1.34952762e-03, 0., 1.34952762e-03, 2.69905524e-03, 0.,
          1.34952762e-03, 5.39811049e-03, 1.34952762e-03, 0.,
          2.69905524e-03, 0., 0., 0., 0., 1.34952762e-03, 0.,
          4.04858310e-03, 0., 1.48448041e-02, 0., 1.34952762e-03, 0., 0.,
          1.34952762e-03, 0., 0., 0., 5.39811049e-03, 2.69905524e-03, 0.,
          0., 1.34952762e-03, 1.34952762e-03, 4.04858310e-03,
          2.69905524e-03, 0., 0., 0., 0., 0., 0., 0., 0., 0., 0., 0., 0.,
          2.69905524e-03, 0., 0., 0., 2.69905524e-03, 0., 0., 0.,
          2.69905524e-03, 2.29419693e-02, 0., 2.69905524e-03, 0.,
          1.34952762e-03, 1.34952762e-03, 1.34952762e-03, 0., 0., 0., 0.,
          0., 4.04858310e-03, 0., 0., 0., 0., 5.39811049e-03,
          2.69905524e-03, 0., 0., 0., 0., 6.74763788e-03, 0.,
          1.34952762e-03, 0., 0., 1.34952762e-03, 1.34952762e-03,
          1.34952762e-03, 0., 0., 0., 0., 2.69905524e-03, 4.04858310e-03,
          0., 2.69905524e-03, 0., 0., 0., 0., 0., 4.04858310e-03,
          2.69905524e-03, 0., 4.04858310e-03, 0., 0., 0., 0.,
          5.39811049e-03, 2.69905524e-03, 0., 2.69905524e-03, 0.,
          1.34952762e-03, 0., 2.69905524e-03, 0., 0., 0., 0., 0., 0., 0.,
          2.69905524e-03, 0., 2.69905524e-03, 0., 0., 0., 0.,
          5.39811049e-03, 1.34952762e-03, 1.34952762e-03, 0., 0., 0., 0.,
          0., 0., 0., 0., 0., 0., 1.34952762e-03, 0., 0., 1.34952762e-03,
          0., 0., 0., 4.04858310e-03, 1.34952762e-03, 0., 0., 0., 0., 0.,
          1.34952762e-03, 0., 0., 0., 0., 0., 0., 0., 0., 0., 0.,
          4.04858310e-03, 0., 0., 0., 1.34952762e-03, 0., 0., 0., 0., 0.,
          0., 0., 0., 2.69905524e-03, 0., 0., 2.69905524e-03,
          6.74763788e-03, 0., 0., 1.34952762e-03, 0., 0., 2.69905524e-03,
          0., 1.34952762e-03, 0., 0., 1.48448041e-02, 0., 0., 0.,
          2.69905524e-03, 0., 0., 0., 0., 0., 0., 1.34952762e-03, 0., 0.,
          0., 2.69905524e-03, 0., 0., 0., 0., 0., 0., 0., 0., 0., 0., 0.,
          0., 0., 0., 4.04858310e-03, 4.04858310e-03, 0., 0.,
          1.34952762e-03, 0., 1.34952762e-03, 0., 0., 0., 0., 0., 0., 0.,
          2.56410241e-02, 0., 0., 0., 8.09716620e-03, 0., 1.34952762e-03,
          2.69905524e-03, 2.69905524e-03, 1.34952762e-03, 0., 0., 0., 0.,
          0., 0., 0., 0., 0., 0., 1.34952762e-03, 0., 0., 0., 0.,
          3.56689678e-03, 3.27685964e-03, 3.58362962e-03, 5.65572036e-03,
          6.79913536e-03, 9.72181559e-03, 9.70508251e-03, 1.41169904e-02,
          2.29101293e-02, 5.14313579e-02, 6.33842275e-02, 4.99588624e-02,
          3.01582646e-02, 2.76734289e-02, 2.34678928e-02, 6.55371929e-03,
          1.04301749e-03, 2.28682984e-04, 9.48197703e-05, 2.78881680e-06,
          0., 0., 0., 0., 0., 0., 0., 0., 0., 0., 2.25894168e-04,
          1.24102342e-03, 1.62588025e-03, 1.70954468e-03, 1.60635845e-03,
          1.74579932e-03, 1.92428357e-03, 2.98682274e-03, 3.70354881e-03,
          5.63341007e-03, 5.93460212e-03, 7.25092366e-03, 8.11266806e-03,
          7.78637640e-03, 1.12891300e-02, 1.59799196e-02, 2.89785955e-02,
          3.97964157e-02, 6.07432202e-02, 3.17646228e-02, 2.45415885e-02,
          2.65272260e-02, 3.01861539e-02, 1.07592549e-02, 1.21871289e-03,
          6.13539669e-05, 0., 0., 0., 0., 1.67329010e-04, 8.11545702e-04,
          1.14062603e-03, 1.40556367e-03, 1.44181831e-03, 1.68444531e-03,
          1.18803594e-03, 1.42508536e-03, 1.87408493e-03, 2.82786018e-03,
          3.42187821e-03, 4.86648548e-03, 5.39357169e-03, 5.85651537e-03,
          7.65809091e-03, 7.88956229e-03, 1.03046782e-02, 1.28843337e-02,
          2.61144806e-02, 3.75123732e-02, 7.15833530e-02, 3.58307175e-02,
          3.78247239e-02, 3.35689895e-02, 1.66492369e-02, 2.00794800e-03 ]
      - [ 0., 8.31255224e-04, 0., 0., 0., 1.66251045e-03, 1.66251045e-03,
          0., 0., 0., 8.31255224e-04, 0., 0., 0., 0., 0., 0., 0., 0., 0.,
          8.31255224e-04, 0., 0., 4.15627612e-03, 0., 8.31255224e-04,
          8.31255224e-04, 0., 0., 0., 0., 3.32502089e-03, 0., 0., 0., 0.,
          0., 6.65004179e-03, 0., 8.31255224e-04, 0., 0., 8.31255224e-04,
          0., 8.31255224e-04, 0., 1.66251045e-03, 0., 0., 0.,
          8.31255224e-04, 8.31255224e-04, 0., 2.49376567e-03,
          4.98753134e-03, 3.32502089e-03, 8.31255224e-04, 8.31255224e-04,
          0., 6.65004179e-03, 0., 1.66251045e-03, 0., 0., 0., 0., 0., 0.,
          0., 0., 8.31255224e-04, 0., 0., 8.31255224e-04, 0., 0.,
          8.31255224e-04, 0., 0., 0., 6.65004179e-03, 0., 0., 0.,
          9.97506268e-03, 0., 0., 1.66251045e-03, 8.31255224e-04,
          8.31255224e-04, 0., 0., 6.65004179e-03, 8.31255224e-04, 0., 0.,
          0., 1.08063184e-02, 3.32502089e-03, 8.31255224e-04,
          1.66251045e-03, 0., 0., 0., 0., 2.49376567e-03, 8.31255224e-04,
          0., 0., 1.66251045e-03, 2.49376567e-03, 0., 0., 0.,
          8.31255224e-04, 2.49376567e-03, 0., 0., 0., 8.31255224e-04, 0.,
          0., 0., 2.49376567e-03, 1.66251045e-03, 0., 0., 0.,
          4.15627612e-03, 0., 1.66251045e-03, 8.31255224e-04, 0., 0.,
          8.31255224e-04, 0., 0., 8.31255224e-04, 0., 2.49376567e-03,
          8.31255224e-04, 8.31255224e-04, 3.32502089e-03, 2.49376567e-03,
          8.31255224e-04, 8.31255224e-04, 0., 0., 0., 8.31255224e-04,
          4.15627612e-03, 0., 0., 0., 0., 8.31255224e-04, 0.,
          2.49376567e-03, 0., 8.31255224e-04, 0., 0., 0., 0.,
          2.49376567e-03, 0., 0., 0., 8.31255224e-04, 2.49376567e-03,
          8.31255224e-04, 0., 8.31255224e-04, 0., 0., 0., 0.,
          8.31255224e-04, 0., 8.31255224e-04, 3.32502089e-03, 0.,
          2.49376567e-03, 3.32502089e-03, 1.66251045e-03, 0., 0., 0., 0.,
          3.32502089e-03, 0., 8.31255224e-04, 1.66251045e-03, 0., 0.,
          8.31255224e-04, 4.15627612e-03, 3.32502089e-03, 8.31255224e-04,
          8.31255224e-04, 0., 0., 0., 0., 8.31255224e-04, 8.31255224e-04,
          0., 1.66251045e-03, 0., 0., 0., 8.31255224e-04, 8.31255224e-04,
          0., 0., 0., 0., 0., 8.31255224e-04, 8.31255224e-04, 0., 0.,
          1.66251045e-03, 0., 8.31255224e-04, 0., 2.90939324e-02, 0., 0.,
          0., 0., 8.31255224e-04, 0., 8.31255224e-04, 0., 0., 0., 0., 0.,
          3.32502089e-03, 3.32502089e-03, 0., 0., 0., 0., 0., 0.,
          4.15627612e-03, 0., 2.49376567e-03, 8.31255224e-04,
          8.31255224e-04, 1.66251045e-03, 8.31255224e-04, 2.49376567e-03,
          0., 8.31255224e-04, 0., 1.66251045e-03, 6.65004179e-03,
          8.31255224e-04, 0., 0., 0., 0., 0., 0., 1.66251045e-03, 0., 0.,
          0., 0., 8.31255224e-04, 0., 0., 9.14380699e-03, 8.31255224e-04,
          8.31255224e-04, 0., 8.31255224e-04, 0., 0., 0., 0., 0., 0.,
          4.15627612e-03, 8.31255224e-04, 1.66251045e-03, 0., 0., 0.,
          4.15627612e-03, 1.66251045e-03, 0., 0., 0., 0., 4.98753134e-03,
          1.66251045e-03, 1.66251045e-03, 1.66251045e-03, 0., 0., 0., 0.,
          8.31255224e-04, 1.66251045e-03, 0., 8.31255224e-04,
          7.48129701e-03, 0., 0., 0., 0., 0., 0., 8.31255224e-03,
          8.31255224e-04, 8.31255224e-04, 1.66251045e-03, 0.,
          1.66251045e-03, 0., 0., 8.31255224e-04, 0., 0., 1.66251045e-03,
          8.31255224e-04, 1.66251045e-03, 0., 1.66251045e-03,
          8.31255224e-04, 0., 0., 0., 0., 0., 0., 2.49376567e-03, 0., 0.,
          8.31255224e-04, 0., 1.66251045e-03, 0., 0., 0., 7.48129701e-03,
          0., 1.66251045e-03, 0., 8.31255224e-04, 0., 0., 1.66251045e-03,
          0., 0., 8.31255224e-04, 0., 0., 8.31255224e-04, 0.,
          8.31255224e-04, 8.31255224e-04, 0., 3.32502089e-03,
          5.81878657e-03, 0., 0., 0., 1.66251045e-03, 0., 0.,
          1.66251045e-03, 0., 0., 0., 0., 1.66251045e-03, 2.49376567e-03,
          8.31255224e-04, 0., 8.31255224e-04, 1.66251045e-03,
          1.66251045e-03, 4.15627612e-03, 0., 0., 1.66251045e-03, 0., 0.,
          0., 0., 0., 0., 0., 8.31255224e-04, 1.66251045e-03, 0., 0., 0.,
          8.31255224e-04, 8.31255224e-04, 0., 0., 0., 8.31255224e-04,
          8.31255224e-04, 0., 8.31255224e-04, 0., 1.66251045e-03, 0.,
          8.31255224e-04, 2.49376567e-03, 0., 0., 0., 8.31255224e-04,
          8.31255224e-04, 0., 1.66251045e-03, 2.49376567e-03, 0.,
          8.31255224e-04, 8.31255224e-04, 0., 0., 0., 0., 0.,
          8.31255224e-04, 0., 2.49376567e-03, 0., 0., 8.31255224e-04,
          1.66251045e-03, 0., 8.31255224e-04, 0., 8.31255224e-04, 0., 0.,
          2.49376567e-03, 0., 8.31255224e-04, 0., 0., 8.31255224e-04,
          2.49376567e-03, 8.31255224e-04, 0., 9.14380699e-03, 0.,
          8.31255224e-04, 3.32502089e-03, 8.31255224e-04, 0.,
          4.15627612e-03, 8.31255224e-04, 0., 1.66251045e-03, 0., 0., 0.,
          8.31255224e-04, 0., 1.91188697e-02, 3.32502089e-03,
          1.66251045e-03, 2.49376567e-03, 8.31255224e-04, 8.31255224e-04,
          0., 0., 0., 0., 0., 7.48129701e-03, 8.31255224e-04, 0.,
          9.14380699e-03, 0., 1.66251045e-03, 0., 0., 0., 8.31255224e-04,
          1.66251045e-03, 0., 1.74563602e-02, 1.66251045e-03,
          2.49376567e-03, 0., 0., 8.31255224e-04, 8.31255224e-04, 0.,
          1.66251045e-03, 0., 0., 8.31255224e-04, 0., 0., 8.31255224e-04,
          0., 4.15627612e-03, 0., 3.32502089e-03, 0., 1.66251045e-03, 0.,
          0., 0., 8.31255224e-04, 0., 0., 3.32502089e-03, 8.31255224e-04,
          9.14380699e-03, 0., 0., 0., 8.31255224e-04, 0., 0.,
          3.32502089e-03, 0., 3.32502089e-03, 0., 8.31255224e-04, 0., 0.,
          0., 0., 0., 4.15627612e-03, 8.31255224e-04, 1.66251045e-03,
          4.15627612e-03, 0., 6.65004179e-03, 1.66251045e-03,
          2.49376567e-03, 0., 0., 0., 8.31255224e-04, 0., 0., 0.,
          1.66251045e-03, 0., 8.31255224e-04, 0., 0., 8.31255224e-04, 0.,
          2.49376567e-03, 0., 0., 0., 8.31255224e-04, 0., 0.,
          8.31255224e-04, 0., 0., 0., 1.66251045e-03, 8.31255224e-04, 0.,
          8.31255224e-04, 0., 0., 0., 0., 8.31255224e-04, 0., 0., 0., 0.,
          0., 0., 0., 8.31255224e-04, 3.32502089e-03, 0., 7.48129701e-03,
          8.31255224e-04, 0., 0., 1.66251045e-03, 0., 0., 8.31255224e-04,
          0., 0., 8.31255224e-04, 4.15627612e-03, 0., 0., 8.31255224e-04,
          0., 8.31255224e-04, 0., 1.66251045e-03, 0., 0., 8.31255224e-04,
          0., 8.31255224e-04, 0., 0., 8.31255224e-04, 0., 0.,
          2.49376567e-03, 0., 8.31255224e-04, 2.49376567e-03, 0., 0., 0.,
          1.66251045e-03, 0., 3.32502089e-03, 8.31255224e-04, 0., 0.,
          1.66251045e-03, 2.41064020e-02, 8.31255224e-04, 1.66251045e-03,
          2.49376567e-03, 0., 8.31255224e-04, 1.66251045e-03, 0.,
          1.66251045e-03, 0., 8.31255224e-04, 0., 8.31255224e-04,
          8.31255224e-04, 0., 0., 0., 0., 8.31255224e-04, 0.,
          1.66251045e-03, 0., 7.48129701e-03, 0., 5.81878657e-03, 0., 0.,
          0., 1.66251045e-02, 0., 4.15627612e-03, 8.31255224e-04,
          3.32502089e-03, 0., 1.66251045e-03, 0., 1.66251045e-03,
          5.81878657e-03, 0., 2.49376567e-03, 4.15627612e-03,
          8.31255224e-04, 1.66251045e-03, 2.49376567e-03, 1.66251045e-03,
          0., 0., 1.66251045e-03, 4.15627612e-03, 0., 8.31255224e-04, 0.,
          0., 1.66251045e-03, 5.81878657e-03, 1.57938488e-02,
          8.31255224e-04, 1.66251045e-03, 8.31255224e-04, 0.,
          6.65004179e-03, 0., 8.31255224e-04, 0., 0., 4.15627612e-03, 0.,
          0., 0., 0., 0., 8.31255224e-04, 0., 0., 1.66251045e-03, 0., 0.,
          0., 4.15627612e-03, 0., 0., 0., 0., 0., 0., 4.98753134e-03, 0.,
          2.49376567e-03, 0., 0., 0., 0., 0., 0., 0., 0., 8.31255224e-04,
          0., 1.66251045e-03, 0., 0., 0., 8.31255224e-04, 0.,
          8.31255224e-04, 0., 8.31255224e-04, 0., 0., 0., 0.,
          4.15627612e-03, 0., 0., 3.32502089e-03, 8.31255224e-04, 0.,
          3.32502089e-03, 8.31255224e-04, 0., 0., 2.49376567e-03, 0.,
          8.31255224e-04, 0., 0., 0., 0., 1.66251045e-03, 0.,
          2.49376567e-03, 8.31255224e-04, 0., 1.66251045e-03, 0.,
          8.31255224e-04, 8.31255224e-04, 1.66251045e-03, 4.15627612e-03,
          1.66251045e-03, 0., 0., 0., 8.31255224e-04, 1.66251045e-03, 0.,
          0., 0., 0., 0., 0., 8.31255224e-04, 0., 0., 8.31255224e-04, 0.,
          8.31255224e-03, 0., 0., 2.49376567e-03, 0., 1.16375731e-02, 0.,
          2.49376567e-03, 8.31255224e-04, 0., 1.66251045e-03,
          2.49376567e-03, 0., 8.31255224e-04, 0., 0., 0., 8.31255224e-04,
          8.31255224e-04, 0., 0., 0., 0., 8.31255224e-04, 3.32502089e-03,
          0., 0., 8.31255224e-04, 4.15627612e-03, 1.66251045e-03,
          8.31255224e-04, 1.66251045e-03, 0., 8.31255224e-04,
          8.31255224e-04, 8.31255224e-04, 0., 0., 0., 0., 0.,
          8.31255224e-04, 0., 0., 0., 0., 0., 0., 8.31255224e-04, 0., 0.,
          0., 0., 0., 0., 0., 1.66251045e-03, 8.31255224e-04, 0., 0.,
          8.31255224e-04, 0., 8.31255224e-04, 2.49376567e-03,
          1.66251045e-03, 0., 1.66251045e-03, 8.31255224e-04,
          8.31255224e-04, 0., 0., 0., 1.66251045e-03, 0., 2.49376567e-03,
          0., 8.31255224e-04, 1.66251045e-03, 0., 3.32502089e-03, 0., 0.,
          6.65004179e-03, 5.81878657e-03, 0., 0., 8.31255224e-04, 0.,
          4.15627612e-03, 0., 0., 8.31255224e-04, 0., 8.31255224e-04, 0.,
          2.49376567e-03, 0., 0., 1.66251045e-03, 8.31255224e-04, 0., 0.,
          0., 0., 1.66251045e-03, 0., 8.31255224e-04, 0., 2.49376567e-03,
          0., 0., 8.31255224e-04, 0., 0., 0., 1.66251045e-03, 0.,
          1.41313393e-02, 4.15627612e-03, 0., 8.31255224e-04, 0., 0.,
          1.66251045e-03, 4.98753134e-03, 0., 8.31255224e-04, 0., 0., 0.,
          0., 0., 0., 2.49376567e-03, 8.31255224e-04, 0., 0.,
          8.31255224e-04, 0., 0., 8.31255224e-04, 0., 2.49376567e-03, 0.,
          8.31255224e-04, 4.15627612e-03, 8.31255224e-04, 8.31255224e-04,
          0., 3.32502089e-03, 0., 0., 2.49376567e-03, 0., 3.32502089e-03,
          0., 0., 2.49376567e-03, 8.31255224e-04, 3.32502089e-03, 0.,
          8.31255224e-04, 1.66251045e-03, 0., 0., 0., 4.15627612e-03, 0.,
          0., 0., 4.98753134e-03, 0., 0., 1.66251045e-03, 0., 0.,
          9.97506268e-03, 0., 0., 1.66251045e-03, 0., 0., 1.66251045e-03,
          0., 0., 0., 0., 0., 0., 3.32502089e-03, 8.31255224e-04,
          8.31255224e-04, 0., 1.66251045e-03, 0., 0., 0., 8.31255224e-04,
          0., 0., 8.31255224e-04, 8.31255224e-04, 1.66251045e-03,
          8.31255224e-04, 2.49376567e-03, 8.31255224e-04, 1.66251045e-03,
          0., 8.31255224e-04, 0., 2.06830376e-03, 2.22273706e-03,
          2.86529004e-03, 4.18900419e-03, 4.70745936e-03, 7.51483673e-03,
          9.10880975e-03, 1.21092284e-02, 1.16431704e-02, 1.64416358e-02,
          2.12538894e-02, 2.57021207e-02, 2.25196909e-02, 3.24420333e-02,
          2.68989783e-02, 2.95491647e-02, 1.72055289e-02, 1.05814412e-02,
          1.18031194e-02, 1.41940787e-02, 2.31181197e-02, 1.22360848e-02,
          1.25035848e-02, 4.43995843e-04, 8.27321492e-06, 2.75773823e-06,
          0., 0., 0., 0., 7.99744084e-05, 9.65208383e-05, 2.92320241e-04,
          6.31522038e-04, 9.21084546e-04, 1.69049355e-03, 2.06003035e-03,
          2.98387278e-03, 2.89838295e-03, 3.81946750e-03, 3.86634911e-03,
          5.55684231e-03, 6.01462694e-03, 7.22251646e-03, 7.45416665e-03,
          9.81203280e-03, 1.18582742e-02, 1.60831288e-02, 2.30877846e-02,
          1.84547845e-02, 2.26879120e-02, 2.88156066e-02, 5.15834950e-02,
          2.11656410e-02, 1.76550411e-02, 2.53932532e-02, 4.07593697e-02,
          3.72294657e-04, 8.27321492e-06, 8.27321492e-06, 2.20619058e-05,
          6.06702415e-05, 1.10309527e-04, 2.17861321e-04, 4.21933946e-04,
          7.03223224e-04, 1.01208990e-03, 1.50296732e-03, 1.84768462e-03,
          2.46266020e-03, 2.37441272e-03, 3.06384708e-03, 2.99766148e-03,
          4.01526690e-03, 4.32964880e-03, 6.13596756e-03, 7.20872777e-03,
          7.99192581e-03, 1.11054117e-02, 1.43402386e-02, 2.64356788e-02,
          2.62453947e-02, 3.25909518e-02, 5.38669005e-02, 3.88868675e-02,
          2.05396339e-02, 4.59935591e-02, 1.66870747e-02, 1.46160120e-04,
          1.65464298e-05 ]
      - [ 1.56739808e-03, 0., 0., 0., 0., 1.56739808e-03, 1.56739808e-03,
          1.56739808e-03, 0., 0., 4.70219413e-03, 0., 0., 0., 0.,
          1.56739808e-03, 1.56739808e-03, 1.56739808e-03, 0., 0., 0., 0.,
          0., 0., 0., 0., 1.56739808e-03, 0., 0., 3.13479616e-03, 0., 0.,
          0., 1.56739808e-03, 0., 0., 0., 5.32915331e-02, 0., 0.,
          1.56739808e-03, 0., 0., 0., 7.83699006e-03, 0., 4.70219413e-03,
          0., 0., 0., 0., 0., 0., 1.56739808e-03, 7.83699006e-03, 0., 0.,
          0., 1.56739808e-03, 0., 1.56739808e-03, 0., 0., 0., 0., 0.,
          1.56739808e-03, 0., 0., 0., 0., 0., 0., 1.56739808e-03, 0., 0.,
          0., 1.56739808e-03, 0., 0., 0., 1.56739808e-03, 0.,
          1.56739808e-03, 0., 0., 1.56739808e-03, 0., 1.56739808e-03,
          3.13479616e-03, 1.56739808e-03, 0., 7.83699006e-03, 0., 0., 0.,
          0., 1.72413792e-02, 0., 4.70219413e-03, 0., 0., 0., 0., 0., 0.,
          0., 0., 0., 0., 3.13479616e-03, 1.56739808e-03, 0., 0., 0.,
          7.83699006e-03, 0., 0., 0., 3.13479616e-03, 0., 0., 0.,
          1.56739808e-03, 0., 0., 0., 0., 0., 0., 1.56739808e-03,
          1.56739808e-03, 0., 1.56739808e-03, 0., 0., 0., 0., 0., 0., 0.,
          0., 0., 4.70219413e-03, 0., 3.13479616e-03, 1.56739808e-03, 0.,
          0., 1.56739808e-03, 0., 0., 1.56739808e-03, 0., 0., 0., 0.,
          1.56739808e-03, 0., 0., 1.56739808e-03, 0., 0., 0.,
          1.56739808e-03, 0., 1.56739808e-03, 0., 0., 0., 0., 0., 0., 0.,
          1.56739808e-03, 0., 0., 0., 0., 0., 0., 0., 1.56739808e-03,
          4.70219413e-03, 0., 0., 0., 1.56739808e-03, 1.56739808e-03,
          6.26959233e-03, 0., 0., 0., 0., 0., 0., 7.83699006e-03,
          4.70219413e-03, 0., 0., 0., 0., 1.56739808e-03, 0.,
          9.40438826e-03, 0., 0., 0., 1.56739808e-03, 1.56739808e-03, 0.,
          1.56739808e-03, 0., 0., 4.70219413e-03, 0., 0., 0., 0., 0., 0.,
          0., 1.09717865e-02, 1.56739808e-03, 0., 0., 6.26959233e-03,
          1.56739808e-03, 3.13479616e-03, 0., 0., 0., 0., 0., 0., 0., 0.,
          0., 1.56739808e-03, 0., 0., 0., 0., 0., 0., 1.56739808e-03, 0.,
          0., 0., 3.13479616e-03, 0., 0., 0., 0., 1.41065829e-02, 0., 0.,
          0., 0., 4.70219413e-03, 0., 0., 0., 0., 0., 0., 0., 0., 0.,
          1.56739808e-03, 0., 0., 0., 0., 1.56739808e-03, 0.,
          1.56739808e-03, 0., 0., 4.70219413e-03, 0., 0., 0., 0., 0., 0.,
          0., 0., 1.56739808e-03, 0., 0., 0., 0., 3.13479616e-03, 0., 0.,
          0., 0., 0., 1.56739808e-03, 0., 1.56739808e-03, 0., 0.,
          3.13479616e-03, 0., 0., 0., 0., 0., 3.13479602e-02, 0., 0., 0.,
          0., 0., 0., 0., 3.13479616e-03, 0., 1.56739808e-03, 0.,
          3.13479616e-03, 0., 0., 0., 0., 0., 0., 0., 0., 0.,
          1.56739808e-03, 0., 0., 0., 0., 0., 0., 3.13479616e-03, 0., 0.,
          1.56739808e-03, 0., 0., 0., 0., 1.56739808e-03, 0., 0.,
          1.56739808e-03, 1.56739808e-03, 0., 0., 0., 0., 9.40438826e-03,
          0., 0., 0., 0., 0., 0., 0., 1.56739808e-03, 0., 0., 0., 0., 0.,
          0., 0., 0., 1.56739808e-03, 1.56739808e-03, 3.13479616e-03, 0.,
          1.56739808e-03, 0., 0., 0., 0., 0., 0., 0., 0., 0.,
          1.56739808e-03, 0., 0., 1.56739808e-03, 1.56739808e-03, 0., 0.,
          0., 1.56739808e-03, 0., 0., 0., 0., 3.13479616e-03, 0., 0.,
          1.56739808e-03, 0., 0., 3.13479616e-03, 0., 0., 1.56739808e-03,
          0., 0., 0., 0., 0., 3.91849503e-02, 0., 3.13479616e-03, 0., 0.,
          6.26959233e-03, 3.13479616e-03, 0., 0., 1.56739808e-03,
          1.56739808e-03, 0., 0., 0., 0., 0., 0., 0., 0., 0., 0., 0., 0.,
          0., 0., 1.56739808e-03, 0., 0., 1.56739808e-03, 0., 0.,
          4.70219413e-03, 0., 0., 0., 0., 0., 1.56739808e-03,
          1.56739808e-03, 0., 0., 0., 0., 0., 0., 0., 3.13479616e-03, 0.,
          0., 0., 0., 1.56739808e-03, 0., 0., 0., 0., 0., 1.56739808e-03,
          1.56739808e-03, 0., 0., 0., 0., 0., 0., 0., 3.13479616e-03,
          1.56739808e-03, 0., 1.56739808e-03, 0., 1.56739808e-03, 0., 0.,
          0., 1.56739808e-03, 0., 0., 1.56739808e-03, 1.56739808e-03,
          1.56739808e-03, 3.13479616e-03, 0., 0., 0., 0., 1.56739808e-03,
          0., 0., 0., 0., 0., 0., 0., 6.26959233e-03, 0., 0., 0., 0., 0.,
          0., 3.13479616e-03, 0., 3.13479616e-03, 0., 0., 0., 0., 0., 0.,
          0., 0., 4.70219413e-03, 0., 0., 0., 0., 1.56739808e-03, 0., 0.,
          0., 0., 0., 0., 1.56739808e-03, 0., 0., 1.56739808e-03, 0., 0.,
          1.56739808e-03, 0., 0., 0., 0., 0., 0., 0., 0., 0., 0., 0., 0.,
          0., 0., 0., 1.41065829e-02, 0., 0., 0., 0., 0., 4.70219413e-03,
          0., 0., 0., 0., 0., 0., 0., 0., 0., 0., 0., 3.13479616e-03, 0.,
          0., 0., 0., 0., 3.13479616e-03, 0., 0., 0., 1.56739801e-02, 0.,
          3.13479616e-03, 0., 0., 0., 0., 0., 0., 1.56739808e-03, 0., 0.,
          0., 0., 0., 0., 0., 0., 0., 0., 0., 0., 0., 3.13479616e-03, 0.,
          0., 0., 3.13479616e-03, 0., 0., 0., 3.13479616e-03, 0., 0., 0.,
          0., 3.13479616e-03, 0., 1.56739808e-03, 1.56739808e-03,
          3.13479616e-03, 1.56739808e-03, 0., 1.56739808e-03, 0.,
          1.56739808e-03, 0., 0., 0., 0., 0., 0., 0., 0., 0.,
          3.13479616e-03, 0., 0., 0., 0., 0., 0., 0., 0., 1.56739808e-03,
          0., 0., 0., 0., 6.26959233e-03, 0., 3.13479616e-03,
          1.56739808e-03, 0., 0., 1.56739808e-03, 0., 3.13479616e-03, 0.,
          1.56739808e-03, 0., 7.83699006e-03, 0., 0., 0., 1.56739808e-03,
          0., 0., 0., 0., 0., 0., 0., 3.13479616e-03, 0., 0.,
          1.56739808e-03, 0., 1.56739808e-03, 0., 2.97805630e-02, 0., 0.,
          0., 0., 7.83699006e-03, 0., 0., 0., 1.56739808e-03, 0., 0., 0.,
          0., 0., 0., 0., 0., 0., 0., 0., 0., 0., 0., 0., 0.,
          1.56739808e-03, 0., 0., 0., 0., 0., 0., 0., 0., 0., 0.,
          1.56739808e-03, 0., 4.70219413e-03, 0., 0., 0., 3.13479616e-03,
          1.56739808e-03, 0., 0., 0., 3.13479616e-03, 1.56739808e-03,
          2.03761756e-02, 0., 0., 0., 0., 0., 0., 4.70219413e-03, 0., 0.,
          4.70219413e-03, 0., 0., 0., 0., 0., 0., 0., 7.83699006e-03, 0.,
          0., 0., 0., 0., 0., 0., 0., 1.56739808e-03, 0., 0., 0.,
          3.13479616e-03, 0., 1.56739808e-03, 1.56739808e-03, 0.,
          1.56739808e-03, 0., 0., 0., 0., 0., 0., 0., 0., 0., 0.,
          1.56739808e-03, 1.56739808e-03, 0., 0., 0., 0., 1.56739808e-03,
          3.13479616e-03, 0., 1.56739801e-02, 0., 1.56739808e-03, 0.,
          1.56739808e-03, 3.13479616e-03, 0., 0., 0., 0., 0., 0.,
          4.70219413e-03, 0., 0., 0., 0., 1.56739808e-03, 0., 0.,
          1.56739808e-03, 0., 0., 6.26959233e-03, 0., 1.56739808e-03, 0.,
          0., 0., 3.13479616e-03, 0., 0., 0., 0., 0., 1.56739808e-03,
          7.83699006e-03, 0., 0., 0., 0., 0., 0., 1.56739808e-03,
          1.56739808e-03, 0., 0., 0., 0., 0., 1.56739808e-03,
          4.70219413e-03, 1.56739808e-03, 0., 0., 3.13479616e-03, 0., 0.,
          0., 0., 0., 0., 1.56739808e-03, 0., 4.70219413e-03, 0.,
          1.56739808e-03, 1.56739808e-03, 0., 0., 0., 9.40438826e-03,
          3.13479616e-03, 0., 0., 0., 0., 3.13479616e-03, 0., 0., 0.,
          1.56739808e-03, 0., 0., 0., 0., 0., 0., 0., 0., 0.,
          1.56739808e-03, 0., 4.70219413e-03, 0., 0., 0., 0.,
          1.56739808e-03, 1.56739808e-03, 7.83699006e-03, 0., 0., 0., 0.,
          0., 0., 0., 0., 0., 0., 0., 1.56739808e-03, 0., 0., 0., 0., 0.,
          0., 1.56739808e-03, 0., 0., 0., 0., 0., 1.56739808e-03, 0., 0.,
          0., 3.13479616e-03, 0., 0., 0., 0., 0., 0., 0., 0., 0., 0.,
          7.36677125e-02, 0., 0., 0., 0., 0., 1.56739808e-03, 0., 0., 0.,
          0., 1.56739808e-03, 6.26959233e-03, 0., 0., 0., 0., 0.,
          1.56739808e-03, 0., 0., 0., 0., 0., 0., 3.13479616e-03, 0., 0.,
          0., 0., 6.26959233e-03, 0., 0., 0., 0., 0., 1.56739808e-03, 0.,
          0., 0., 0., 0., 3.13479616e-03, 0., 3.76175530e-02, 0., 0., 0.,
          6.26959233e-03, 0., 1.56739808e-03, 0., 0., 0., 0., 0., 0.,
          1.56739808e-03, 0., 0., 0., 6.26959233e-03, 1.56739808e-03,
          1.56739808e-03, 3.13479616e-03, 0., 2.48330552e-03,
          1.78538298e-03, 1.04317376e-02, 2.67737880e-02, 4.44908179e-02,
          5.00533283e-02, 5.21679632e-02, 4.27448526e-02, 5.18526249e-02,
          2.86240950e-02, 1.20965494e-02, 3.89306247e-03, 2.17260234e-03,
          1.07122981e-03, 8.64867354e-04, 7.46614707e-04, 4.68373211e-04,
          3.54757911e-04, 1.43758109e-04, 6.95603740e-05, 3.24615103e-05,
          1.15933963e-05, 0., 0., 0., 0., 0., 0., 0., 0., 3.70988673e-05,
          1.22889993e-04, 2.99109612e-04, 4.40549047e-04, 5.84307185e-04,
          8.02262977e-04, 1.05268031e-03, 1.20339449e-03, 1.66481163e-03,
          1.56047114e-03, 2.16564629e-03, 2.25607492e-03, 2.47171195e-03,
          2.35577812e-03, 3.37367831e-03, 4.10174346e-03, 5.50686289e-03,
          3.19513977e-02, 6.20339438e-02, 4.88429777e-02, 1.49531625e-02,
          2.28366721e-02, 3.61227021e-02, 5.45399711e-02, 2.67042276e-02,
          4.98516019e-03, 2.78241496e-04, 7.18790543e-05, 1.39120748e-05,
          0., 2.31867921e-06, 3.70988673e-05, 1.13615279e-04,
          1.99406408e-04, 3.82582075e-04, 3.47801892e-04, 5.51845646e-04,
          6.63142244e-04, 9.83119942e-04, 1.05268031e-03, 1.45381188e-03,
          1.48859201e-03, 1.76219619e-03, 1.83871260e-03, 2.26766826e-03,
          2.22825073e-03, 2.35114060e-03, 3.30179930e-03, 5.34687424e-03,
          2.84919292e-02, 6.13452941e-02, 5.88086620e-02, 2.89904457e-02,
          4.49893326e-02, 5.58407530e-02, 2.58184932e-02, 2.28389911e-03,
          3.36208497e-04, 5.56482992e-05 ]
      - [ 0., 2.33918126e-03, 0., 1.16959063e-03, 0., 0., 3.50877177e-03,
          0., 2.33918126e-03, 0., 0., 0., 2.33918126e-03, 0., 0.,
          1.16959063e-03, 0., 1.16959063e-03, 0., 0., 1.16959063e-03,
          1.16959063e-03, 0., 1.16959065e-02, 1.16959063e-03, 0.,
          1.16959063e-03, 0., 0., 9.35672503e-03, 0., 2.33918126e-03, 0.,
          1.16959063e-03, 0., 0., 0., 3.15789469e-02, 0., 0., 0.,
          1.16959063e-03, 1.16959063e-03, 1.16959063e-03, 0., 0.,
          3.50877177e-03, 0., 0., 3.50877177e-03, 0., 0., 1.16959063e-03,
          3.50877177e-03, 7.01754354e-03, 0., 0., 0., 1.16959063e-03, 0.,
          0., 0., 0., 0., 0., 1.16959063e-03, 0., 0., 1.16959063e-03,
          2.33918126e-03, 0., 2.33918126e-03, 0., 0., 0., 0.,
          1.16959063e-03, 0., 1.16959063e-03, 0., 0., 0., 0.,
          3.50877177e-03, 0., 0., 0., 0., 0., 1.16959063e-03, 0., 0.,
          1.16959063e-03, 0., 0., 1.16959063e-03, 0., 1.75438598e-02, 0.,
          0., 0., 2.33918126e-03, 0., 0., 0., 2.33918126e-03,
          1.16959063e-03, 0., 0., 0., 0., 2.33918126e-03, 0., 0., 0.,
          3.50877177e-03, 0., 0., 2.33918126e-03, 2.33918126e-03, 0., 0.,
          1.16959063e-03, 4.67836251e-03, 0., 1.16959063e-03, 0.,
          1.16959063e-03, 0., 1.16959063e-03, 0., 4.67836251e-03, 0., 0.,
          0., 0., 0., 0., 0., 0., 0., 0., 0., 0., 1.16959063e-03, 0.,
          1.16959063e-03, 0., 0., 0., 0., 1.16959063e-03, 0., 0., 0.,
          1.16959063e-03, 0., 2.33918126e-03, 0., 0., 0., 0., 0.,
          1.16959063e-03, 3.50877177e-03, 1.16959063e-03, 1.16959063e-03,
          0., 0., 0., 0., 0., 0., 0., 3.50877177e-03, 0., 0.,
          1.16959063e-03, 1.16959063e-03, 2.33918126e-03, 0., 0., 0.,
          1.16959063e-03, 0., 0., 0., 0., 1.16959063e-03, 1.16959063e-03,
          0., 0., 0., 0., 2.33918126e-03, 1.16959063e-03, 3.50877177e-03,
          9.35672503e-03, 0., 1.16959063e-03, 0., 0., 4.67836251e-03, 0.,
          0., 1.16959063e-03, 0., 0., 2.33918126e-03, 0., 0., 0.,
          7.01754354e-03, 0., 2.33918126e-03, 1.16959063e-03, 0., 0., 0.,
          1.16959063e-03, 0., 0., 1.16959063e-03, 2.33918126e-03,
          3.50877177e-03, 1.16959063e-03, 0., 3.50877177e-03,
          1.16959063e-03, 0., 4.67836251e-03, 0., 0., 0., 0.,
          1.16959063e-03, 0., 0., 3.50877177e-03, 0., 0., 0., 0., 0., 0.,
          0., 0., 0., 0., 3.50877177e-03, 0., 2.33918126e-03, 0.,
          4.67836251e-03, 1.16959063e-03, 0., 0., 1.16959063e-03, 0., 0.,
          0., 0., 2.33918126e-03, 0., 0., 0., 1.16959063e-03,
          1.16959063e-03, 0., 2.33918126e-03, 0., 0., 1.16959063e-03, 0.,
          0., 0., 0., 0., 0., 2.33918126e-03, 1.16959063e-03, 0., 0., 0.,
          0., 0., 4.67836251e-03, 0., 0., 0., 0., 0., 0., 0., 0., 0., 0.,
          0., 1.16959063e-03, 0., 1.16959063e-03, 0., 0., 0.,
          2.33918126e-03, 0., 0., 0., 0., 1.16959063e-03, 1.05263153e-02,
          0., 0., 0., 0., 0., 0., 0., 0., 0., 1.16959063e-03, 0.,
          1.16959063e-03, 0., 0., 0., 1.16959063e-03, 0., 0., 0., 0., 0.,
          1.16959063e-03, 0., 0., 0., 1.16959063e-03, 0., 0.,
          2.33918126e-03, 0., 0., 0., 0., 0., 0., 0., 3.50877177e-03, 0.,
          0., 2.33918126e-03, 3.50877177e-03, 0., 0., 0., 0.,
          1.16959063e-03, 0., 0., 0., 0., 0., 0., 0., 0., 0., 0., 0.,
          5.84795326e-03, 0., 0., 2.33918126e-03, 0., 0., 1.16959063e-03,
          1.16959063e-03, 0., 4.67836251e-03, 0., 0., 3.50877177e-03, 0.,
          0., 0., 0., 0., 0., 0., 2.33918126e-03, 2.33918126e-03,
          1.16959063e-03, 1.16959063e-03, 0., 0., 1.16959063e-03, 0.,
          1.16959063e-03, 1.16959063e-03, 0., 1.16959063e-03, 0., 0., 0.,
          0., 1.16959063e-03, 0., 0., 0., 0., 2.33918126e-03,
          1.16959063e-03, 5.84795326e-03, 0., 0., 0., 8.18713475e-03, 0.,
          3.50877177e-03, 0., 0., 0., 8.18713475e-03, 0., 0., 0., 0., 0.,
          0., 0., 1.16959063e-03, 0., 0., 0., 0., 1.16959063e-03,
          1.16959063e-03, 0., 0., 3.50877177e-03, 0., 0., 0., 0.,
          1.16959063e-03, 0., 0., 3.50877177e-03, 0., 0., 0., 0.,
          7.01754354e-03, 4.67836251e-03, 1.16959063e-03, 0., 0., 0., 0.,
          0., 0., 0., 1.16959063e-03, 2.33918126e-03, 0., 0., 0.,
          2.33918126e-03, 0., 1.16959063e-03, 1.16959063e-03,
          2.33918126e-03, 2.33918126e-03, 5.84795326e-03, 0., 0., 0.,
          1.16959063e-03, 0., 0., 0., 0., 1.75438598e-02, 1.16959063e-03,
          0., 3.50877177e-03, 0., 1.16959063e-03, 0., 0., 0., 0., 0.,
          1.16959063e-03, 0., 1.16959063e-03, 1.16959063e-03, 0., 0., 0.,
          3.50877177e-03, 0., 7.01754354e-03, 0., 0., 0., 0., 0., 0., 0.,
          1.16959065e-02, 0., 2.33918126e-03, 0., 0., 1.16959063e-03, 0.,
          2.33918126e-03, 1.16959063e-03, 1.16959063e-03, 1.16959063e-03,
          0., 2.33918126e-03, 0., 0., 0., 2.33918126e-03, 0., 0., 0.,
          5.84795326e-03, 1.16959063e-03, 0., 1.16959063e-03, 0., 0., 0.,
          0., 0., 0., 2.33918126e-03, 0., 1.16959063e-03, 0.,
          1.16959063e-03, 1.16959063e-03, 2.33918126e-03, 1.16959063e-03,
          0., 0., 1.16959063e-03, 0., 0., 2.33918126e-03, 0.,
          1.16959063e-03, 2.33918126e-03, 0., 0., 1.16959063e-03,
          1.16959063e-03, 0., 1.16959063e-03, 0., 0., 0., 0., 0.,
          1.16959063e-03, 2.33918126e-03, 0., 0., 0., 0., 2.33918126e-03,
          1.16959063e-03, 1.16959063e-03, 1.16959063e-03, 0., 0., 0., 0.,
          0., 0., 0., 1.16959063e-03, 1.16959063e-03, 0., 0., 0.,
          4.67836251e-03, 0., 4.67836251e-03, 0., 2.33918126e-03,
          2.33918126e-03, 0., 0., 0., 2.33918126e-03, 0., 0., 0.,
          1.16959063e-03, 0., 1.16959063e-03, 1.16959063e-03,
          1.16959063e-03, 0., 0., 0., 1.16959063e-03, 0., 3.50877177e-03,
          0., 1.16959063e-03, 0., 1.16959063e-03, 0., 0., 1.16959063e-03,
          3.50877177e-03, 0., 0., 1.16959063e-03, 0., 1.16959063e-03, 0.,
          3.50877177e-03, 1.16959063e-03, 1.16959063e-03, 0., 0.,
          8.18713475e-03, 0., 1.16959063e-03, 0., 1.16959063e-03, 0., 0.,
          0., 1.16959063e-03, 2.33918126e-03, 0., 0., 1.16959063e-03,
          4.67836251e-03, 1.16959063e-03, 1.16959063e-03, 0., 0.,
          2.33918126e-03, 1.16959063e-03, 0., 1.16959063e-03,
          1.16959063e-03, 0., 0., 0., 1.05263153e-02, 0., 0.,
          1.16959063e-03, 4.67836251e-03, 8.18713475e-03, 3.50877177e-03,
          0., 2.33918126e-03, 0., 0., 0., 3.50877177e-03, 2.33918126e-03,
          1.16959063e-03, 1.16959063e-03, 2.33918126e-03, 0., 0.,
          2.33918126e-03, 0., 0., 0., 0., 0., 0., 1.16959063e-03, 0., 0.,
          1.16959063e-03, 2.33918126e-03, 1.52046783e-02, 0.,
          2.33918126e-03, 1.16959063e-03, 0., 5.84795326e-03, 0., 0.,
          7.01754354e-03, 1.16959063e-03, 1.16959063e-03, 0.,
          1.16959063e-03, 0., 1.16959063e-03, 3.50877177e-03, 0., 0., 0.,
          1.16959063e-03, 0., 1.16959063e-03, 0., 1.16959063e-03, 0., 0.,
          1.16959063e-03, 2.33918126e-03, 0., 2.33918126e-03,
          1.16959063e-03, 2.33918126e-03, 0., 0., 0., 2.33918126e-03, 0.,
          0., 1.16959063e-03, 4.67836251e-03, 0., 0., 0., 0., 0., 0.,
          3.50877177e-03, 0., 2.33918126e-03, 0., 0., 0., 0., 0., 0., 0.,
          2.33918126e-03, 1.16959063e-03, 0., 0., 0., 0., 0., 0., 0., 0.,
          0., 0., 0., 1.16959063e-03, 0., 0., 0., 0., 0., 0.,
          1.16959063e-03, 0., 0., 0., 0., 3.50877177e-03, 0.,
          2.33918126e-03, 5.84795326e-03, 1.16959063e-03, 2.33918126e-03,
          0., 0., 0., 2.33918126e-03, 0., 0., 1.16959063e-03, 0., 0.,
          1.16959063e-03, 1.16959063e-03, 0., 1.16959063e-03,
          1.16959063e-03, 1.16959063e-03, 0., 1.16959063e-03,
          1.16959063e-03, 2.33918126e-03, 9.35672503e-03, 0.,
          2.33918126e-03, 0., 5.84795326e-03, 1.16959063e-03,
          1.16959063e-03, 0., 0., 0., 0., 2.33918126e-03, 5.84795326e-03,
          0., 1.16959063e-03, 0., 0., 4.67836251e-03, 3.50877177e-03,
          1.16959063e-03, 0., 0., 2.33918126e-03, 0., 0., 1.16959063e-03,
          0., 0., 1.16959063e-03, 0., 1.16959063e-03, 0., 0., 0., 0.,
          3.50877177e-03, 0., 0., 0., 1.16959063e-03, 0., 0.,
          2.33918126e-03, 0., 0., 1.16959063e-03, 1.52046783e-02, 0., 0.,
          1.16959063e-03, 1.16959063e-03, 4.67836251e-03, 0., 0.,
          3.50877177e-03, 3.50877177e-03, 0., 0., 0., 0., 0.,
          1.16959063e-03, 2.33918126e-03, 0., 2.33918126e-03,
          1.16959063e-03, 0., 9.35672503e-03, 1.16959063e-03,
          2.33918126e-03, 1.16959063e-03, 0., 1.16959063e-03, 0.,
          2.33918126e-03, 0., 1.16959063e-03, 1.16959063e-03, 0., 0.,
          1.16959063e-03, 0., 1.16959063e-03, 0., 0., 0., 1.16959063e-03,
          2.33918126e-03, 2.33918126e-03, 0., 0., 0., 2.33918126e-03, 0.,
          0., 0., 0., 0., 0., 1.16959063e-03, 1.16959063e-03, 0., 0., 0.,
          1.16959063e-03, 0., 0., 0., 1.16959063e-03, 2.33918126e-03, 0.,
          0., 1.16959063e-03, 0., 0., 3.50877177e-03, 7.01754354e-03, 0.,
          1.16959063e-03, 0., 0., 1.16959063e-03, 0., 0., 0.,
          1.16959063e-03, 0., 2.33918126e-03, 1.16959063e-03,
          5.84795326e-03, 0., 0., 0., 0., 0., 0., 1.16959063e-03, 0., 0.,
          0., 3.04093566e-02, 0., 0., 1.16959063e-03, 1.16959063e-03,
          1.16959063e-03, 0., 1.16959063e-03, 3.50877177e-03, 0., 0.,
          4.67836251e-03, 0., 0., 0., 0., 0., 0., 0., 3.50877177e-03, 0.,
          0., 0., 0., 0., 0., 2.33918126e-03, 1.16959063e-03, 0., 0.,
          1.16959063e-03, 1.16959063e-03, 1.16959063e-03, 0.,
          2.33918126e-03, 7.01754354e-03, 0., 0., 0., 0., 0., 0.,
          1.16959065e-02, 0., 5.84795326e-03, 0., 0., 1.16959063e-03,
          1.16959063e-03, 0., 5.84795326e-03, 0., 1.16959063e-03,
          1.16959063e-03, 1.16959063e-03, 1.16959063e-03, 0.,
          1.16959063e-03, 2.33918126e-03, 3.50877177e-03, 1.16959063e-03,
          2.33918126e-03, 3.50877177e-03, 0., 1.16959063e-03, 0., 0., 0.,
          9.17252898e-03, 5.26772672e-03, 5.57606854e-03, 5.67453075e-03,
          7.73446308e-03, 9.46532469e-03, 1.59197785e-02, 1.94670092e-02,
          3.32180299e-02, 4.08255272e-02, 5.07002473e-02, 3.95610668e-02,
          4.10328172e-02, 3.28500904e-02, 1.38313444e-02, 2.17394135e-03,
          5.49315300e-04, 2.66884337e-04, 4.66399797e-05, 0., 0., 0., 0.,
          0., 0., 0., 0., 0., 0., 0., 1.86559919e-04, 1.11935951e-03,
          2.55224318e-03, 3.16374516e-03, 3.18447407e-03, 3.00050527e-03,
          3.68196727e-03, 3.59127834e-03, 4.16909577e-03, 3.90998507e-03,
          5.41023770e-03, 5.51129086e-03, 8.05316959e-03, 1.00560980e-02,
          1.07971551e-02, 1.38365272e-02, 1.56658515e-02, 2.97407601e-02,
          3.73093933e-02, 3.69051769e-02, 2.87405923e-02, 3.96958031e-02,
          3.99704613e-02, 2.19052434e-02, 1.09603954e-03, 7.77332971e-05,
          2.59110993e-06, 0., 0., 0., 7.25510763e-05, 4.94902022e-04,
          1.19450164e-03, 1.48988818e-03, 2.99273198e-03, 2.72066542e-03,
          3.22074955e-03, 2.87094992e-03, 3.56277614e-03, 3.56536731e-03,
          3.90998507e-03, 3.81152262e-03, 5.03452681e-03, 6.00360194e-03,
          7.06077460e-03, 9.91876889e-03, 1.12013686e-02, 1.48496507e-02,
          1.78942047e-02, 3.49203870e-02, 4.30616550e-02, 4.44401279e-02,
