%YAML:1.0
my_svm: !!opencv-ml-svm
   svm_type: C_SVC
   kernel: { type:RBF, gamma:4. }
   C: 32.
   term_criteria: { epsilon:1.1920928955078125e-07, iterations:1000 }
   var_all: 1227
   var_count: 1227
   class_count: 2
   class_labels: !!opencv-matrix
      rows: 1
      cols: 2
      dt: i
      data: [ 0, 1 ]
   sv_total: 80
   support_vectors:
      - [ 1.69204746e-03, 1.12803164e-03, 0., 5.64015820e-04, 0.,
          1.12803164e-03, 3.94811062e-03, 5.64015820e-04, 1.69204746e-03,
          0., 0., 1.12803164e-03, 1.69204746e-03, 0., 5.64015820e-04, 0.,
          0., 0., 0., 0., 5.07614249e-03, 1.69204746e-03, 0.,
          5.64015820e-04, 0., 5.64015820e-04, 0., 5.64015820e-04, 0.,
          1.12803164e-03, 1.12803164e-03, 1.69204746e-03, 3.94811062e-03,
          1.12803164e-03, 2.25606328e-03, 1.69204746e-03, 5.64015820e-04,
          0., 5.64015820e-04, 1.12803164e-03, 5.64015820e-04,
          1.12803164e-03, 0., 5.64015820e-04, 1.12803164e-03,
          5.64015820e-04, 1.12803164e-03, 2.25606328e-03, 5.64015843e-03,
          5.64015820e-04, 2.25606328e-03, 5.64015820e-04, 5.64015820e-04,
          1.12803164e-03, 0., 0., 0., 0., 0., 1.69204746e-03,
          5.64015820e-04, 5.64015820e-04, 1.12803164e-03, 5.64015820e-04,
          1.12803164e-03, 1.69204746e-03, 5.64015820e-04, 0., 0., 0., 0.,
          1.12803164e-03, 0., 3.94811062e-03, 0., 1.12803164e-03,
          1.12803164e-03, 0., 1.12803164e-03, 2.82007921e-03, 0.,
          5.64015820e-04, 1.12803164e-03, 5.64015820e-04, 1.69204746e-03,
          5.64015820e-04, 0., 5.64015820e-04, 0., 0., 5.64015820e-04,
          6.76818984e-03, 0., 5.64015820e-04, 0., 1.12803164e-03,
          4.51212656e-03, 2.25606328e-03, 0., 1.12803164e-03,
          5.64015820e-04, 1.69204746e-03, 4.51212656e-03, 5.64015820e-04,
          0., 5.64015820e-04, 0., 0., 5.64015820e-04, 0., 3.38409492e-03,
          2.25606328e-03, 0., 5.64015820e-04, 2.25606328e-03, 0.,
          1.12803164e-03, 1.69204746e-03, 1.12803164e-03, 1.12803164e-03,
          0., 0., 5.64015820e-04, 5.64015820e-04, 5.64015820e-04,
          2.82007921e-03, 1.69204746e-03, 3.38409492e-03, 5.64015820e-04,
          0., 3.38409492e-03, 0., 5.64015820e-04, 0., 5.64015820e-04, 0.,
          1.12803164e-03, 5.64015820e-04, 5.64015820e-04, 0.,
          5.64015820e-04, 1.12803164e-03, 5.64015820e-04, 5.64015820e-04,
          2.82007921e-03, 1.12803164e-03, 5.64015820e-04, 0., 0., 0.,
          5.64015820e-04, 5.64015820e-04, 0., 2.25606328e-03, 0., 0., 0.,
          0., 1.12803164e-03, 5.64015820e-04, 0., 5.64015820e-04,
          5.64015820e-04, 1.69204746e-03, 0., 5.64015820e-04,
          1.12803164e-03, 0., 1.12803164e-03, 0., 5.64015820e-04, 0., 0.,
          5.64015820e-04, 0., 0., 0., 9.02425312e-03, 0., 1.12803164e-03,
          1.12803164e-03, 0., 2.25606328e-03, 0., 5.64015820e-04,
          2.25606328e-03, 1.12803164e-03, 5.64015820e-04, 1.69204746e-03,
          0., 5.64015820e-04, 0., 5.64015820e-04, 0., 0., 2.25606328e-03,
          5.64015820e-04, 1.12803164e-03, 0., 5.64015820e-04, 0., 0.,
          5.64015820e-04, 0., 5.64015820e-04, 2.25606328e-03,
          1.69204746e-03, 0., 0., 0., 5.64015820e-04, 5.64015820e-04, 0.,
          5.64015820e-04, 5.64015820e-04, 1.12803164e-03, 1.69204746e-03,
          5.64015820e-04, 2.82007921e-03, 0., 0., 0., 2.25606328e-03,
          2.82007921e-03, 0., 0., 0., 5.64015820e-04, 1.12803164e-03,
          1.12803164e-03, 0., 5.64015820e-04, 0., 0., 1.12803164e-03,
          1.12803164e-03, 1.12803164e-03, 1.12803164e-03, 5.64015820e-04,
          0., 0., 5.64015820e-04, 2.82007921e-03, 0., 5.64015843e-03, 0.,
          0., 1.12803164e-03, 1.69204746e-03, 1.69204746e-03,
          2.25606328e-03, 0., 0., 5.64015820e-04, 0., 5.64015820e-04,
          2.25606328e-03, 2.25606328e-03, 6.20417390e-03, 0., 0.,
          1.12803164e-03, 1.12803164e-03, 0., 1.69204746e-03,
          1.12803164e-03, 2.25606328e-03, 0., 5.64015820e-04,
          1.69204746e-03, 0., 5.64015820e-04, 0., 1.69204746e-03,
          1.69204746e-03, 5.64015843e-03, 0., 1.69204746e-03, 0.,
          1.12803164e-03, 5.64015820e-04, 0., 1.69204746e-03,
          1.12803164e-03, 3.38409492e-03, 0., 0., 0., 2.25606328e-03,
          4.51212656e-03, 5.64015820e-04, 0., 1.69204746e-03, 0.,
          1.12803164e-03, 0., 3.94811062e-03, 0., 0., 4.51212656e-03,
          5.64015820e-04, 6.76818984e-03, 5.64015820e-04, 5.64015820e-04,
          0., 0., 5.64015820e-04, 0., 2.25606328e-03, 0., 0., 0.,
          1.12803164e-03, 0., 1.69204746e-03, 1.12803164e-03,
          1.12803164e-03, 0., 1.69204746e-03, 5.64015820e-04,
          1.69204746e-03, 5.64015820e-04, 0., 1.12803164e-03,
          5.64015820e-04, 0., 1.12803164e-03, 0., 0., 0., 5.64015820e-04,
          1.69204746e-03, 0., 0., 5.64015820e-04, 1.12803164e-03,
          1.69204746e-03, 0., 1.12803164e-03, 0., 3.38409492e-03,
          2.25606328e-03, 2.25606328e-03, 0., 0., 4.51212656e-03,
          5.64015820e-04, 1.69204746e-03, 3.94811062e-03, 0.,
          2.25606328e-03, 0., 0., 6.20417390e-03, 5.64015820e-04,
          5.64015820e-04, 0., 5.64015820e-04, 5.64015820e-04, 0.,
          5.64015820e-04, 1.12803164e-03, 5.64015820e-04, 5.64015820e-04,
          1.69204746e-03, 0., 3.94811062e-03, 0., 5.64015820e-04, 0., 0.,
          1.69204746e-03, 5.64015820e-04, 0., 2.82007921e-03,
          1.69204746e-03, 0., 0., 0., 6.20417390e-03, 0., 0., 0.,
          5.64015820e-04, 5.64015820e-04, 0., 1.12803164e-03,
          5.64015820e-04, 1.12803164e-03, 5.64015820e-04, 2.25606328e-03,
          5.64015820e-04, 5.64015820e-04, 0., 5.64015820e-04,
          5.64015820e-04, 0., 5.64015820e-04, 1.69204746e-03, 0.,
          5.64015820e-04, 0., 0., 1.12803164e-03, 0., 1.12803164e-03,
          5.64015820e-04, 5.64015820e-04, 5.64015820e-04, 5.64015820e-04,
          0., 0., 1.12803164e-03, 1.12803164e-03, 0., 0., 3.38409492e-03,
          0., 1.12803164e-03, 2.82007921e-03, 0., 7.89622124e-03,
          5.64015820e-04, 3.94811062e-03, 5.64015820e-04, 1.69204746e-03,
          1.12803164e-03, 2.82007921e-03, 0., 1.12803164e-03,
          3.38409492e-03, 0., 2.82007921e-03, 1.69204746e-03, 0.,
          5.64015820e-04, 5.64015820e-04, 1.12803164e-03, 0.,
          1.69204746e-03, 5.64015820e-04, 0., 1.69204746e-03, 0., 0., 0.,
          1.12803164e-03, 1.12803164e-03, 0., 5.64015820e-04, 0., 0.,
          7.89622124e-03, 0., 1.69204746e-03, 0., 5.64015820e-04,
          1.12803164e-03, 0., 1.69204746e-03, 0., 2.82007921e-03,
          1.69204746e-03, 0., 1.12803164e-03, 0., 5.64015820e-04, 0.,
          2.25606328e-03, 0., 0., 5.64015843e-03, 5.64015820e-04, 0.,
          1.69204746e-03, 5.64015820e-04, 2.82007921e-03, 0., 0.,
          5.64015820e-04, 0., 5.64015820e-04, 1.12803164e-03,
          1.12803164e-03, 0., 0., 0., 1.69204746e-03, 0., 0.,
          1.69204746e-03, 0., 0., 2.25606328e-03, 0., 5.07614249e-03,
          2.25606328e-03, 0., 5.64015820e-04, 0., 0., 0., 1.12803164e-03,
          5.64015843e-03, 0., 1.12803164e-03, 0., 2.25606328e-03,
          1.12803164e-03, 1.12803164e-03, 3.38409492e-03, 0.,
          1.12803164e-03, 1.12803164e-03, 0., 0., 1.07163005e-02,
          1.12803164e-03, 0., 1.12803164e-03, 1.69204746e-03,
          1.12803164e-03, 0., 1.69204746e-03, 0., 0., 2.25606328e-03, 0.,
          0., 3.94811062e-03, 1.12803164e-03, 6.20417390e-03, 0.,
          1.69204746e-03, 5.64015820e-04, 1.12803164e-03, 0., 0.,
          1.69204746e-03, 0., 2.25606328e-03, 0., 0., 0., 4.51212656e-03,
          0., 1.12803164e-03, 1.69204746e-03, 0., 0., 0., 0., 0.,
          1.12803164e-03, 0., 0., 1.69204746e-03, 5.64015820e-04,
          1.69204746e-03, 5.64015820e-04, 5.64015820e-04, 5.64015820e-04,
          1.12803164e-03, 9.58826859e-03, 0., 0., 5.64015820e-04,
          1.12803164e-03, 1.69204746e-03, 5.64015820e-04, 2.25606328e-03,
          0., 1.69204746e-03, 1.12803164e-03, 5.64015820e-04,
          1.69204746e-03, 1.69204746e-03, 2.25606328e-03, 1.69204746e-03,
          5.64015820e-04, 0., 2.82007921e-03, 0., 5.64015820e-04,
          5.64015820e-04, 5.64015820e-04, 0., 1.69204746e-03,
          5.64015820e-04, 5.64015820e-04, 1.12803164e-03, 1.69204746e-03,
          1.12803164e-03, 1.12803164e-03, 5.64015820e-04, 1.12803164e-03,
          5.64015820e-04, 0., 2.82007921e-03, 0., 1.12803164e-03,
          1.12803164e-03, 1.12803164e-03, 5.64015820e-04, 5.64015820e-04,
          0., 0., 2.82007921e-03, 1.12803164e-03, 5.64015820e-04,
          1.69204746e-03, 1.69204746e-03, 5.64015820e-04, 2.25606328e-03,
          3.38409492e-03, 5.64015820e-04, 5.64015820e-04, 1.69204746e-03,
          0., 1.69204746e-03, 0., 1.12803164e-03, 5.64015820e-04,
          1.69204746e-03, 1.12803164e-03, 1.12803164e-03, 0., 0., 0.,
          5.64015820e-04, 0., 0., 5.64015820e-04, 1.69204746e-03,
          1.12803164e-03, 0., 0., 2.25606328e-03, 0., 5.64015820e-04,
          1.12803164e-03, 0., 5.64015820e-04, 5.64015820e-04,
          2.25606328e-03, 0., 2.82007921e-03, 5.64015820e-04, 0., 0., 0.,
          0., 1.12803164e-03, 0., 0., 2.25606328e-03, 1.69204746e-03, 0.,
          1.12803164e-03, 0., 1.69204746e-03, 1.12803164e-03,
          1.12803164e-03, 0., 0., 5.64015820e-04, 1.69204746e-03,
          5.64015820e-04, 5.64015820e-04, 1.69204746e-03, 2.25606328e-03,
          5.64015820e-04, 1.69204746e-03, 2.25606328e-03, 1.12803164e-03,
          5.64015820e-04, 5.64015820e-04, 0., 5.64015820e-04,
          5.64015820e-04, 0., 5.64015820e-04, 0., 1.12803164e-03,
          5.64015820e-04, 5.64015820e-04, 0., 1.69204746e-03, 0., 0., 0.,
          0., 0., 5.64015820e-04, 0., 1.12803164e-03, 0., 1.69204746e-03,
          0., 2.25606328e-03, 1.12803164e-03, 5.64015820e-04, 0., 0.,
          5.64015820e-04, 0., 1.12803164e-03, 5.64015820e-04,
          5.64015820e-04, 0., 0., 2.25606328e-03, 4.51212656e-03,
          5.64015820e-04, 1.69204746e-03, 5.64015820e-04, 1.12803164e-03,
          0., 5.64015820e-04, 1.69204746e-03, 5.64015820e-04,
          1.12803164e-03, 6.20417390e-03, 1.12803164e-03, 1.12803164e-03,
          0., 7.33220577e-03, 5.64015820e-04, 1.12803164e-03,
          5.64015820e-04, 5.64015820e-04, 4.51212656e-03, 5.64015820e-04,
          5.64015820e-04, 0., 0., 1.12803164e-03, 0., 2.82007921e-03,
          5.64015820e-04, 0., 0., 0., 0., 0., 5.64015820e-04,
          2.82007921e-03, 0., 0., 5.64015820e-04, 5.64015820e-04, 0., 0.,
          0., 1.12803164e-03, 6.20417390e-03, 0., 3.38409492e-03, 0.,
          5.64015820e-04, 1.69204746e-03, 5.64015820e-04, 5.64015820e-04,
          0., 1.69204746e-03, 0., 0., 1.12803164e-03, 0., 0., 0., 0.,
          1.12803164e-03, 0., 1.12803164e-03, 1.12803164e-03,
          1.12803164e-03, 1.12803164e-03, 2.25606328e-03, 1.12803164e-03,
          5.64015820e-04, 1.69204746e-03, 0., 0., 0., 0., 0.,
          5.64015820e-04, 1.69204746e-03, 0., 0., 2.25606328e-03, 0.,
          5.64015820e-04, 0., 5.64015820e-04, 5.64015820e-04,
          1.12803164e-03, 5.64015820e-04, 5.64015820e-04, 1.12803164e-03,
          5.64015820e-04, 4.51212656e-03, 0., 1.12803164e-03,
          5.64015820e-04, 3.38409492e-03, 5.64015820e-04, 5.64015820e-04,
          1.69204746e-03, 0., 1.12803164e-03, 1.12803164e-03,
          5.07614249e-03, 0., 0., 1.12803164e-03, 3.94811062e-03, 0., 0.,
          0., 1.12803164e-03, 0., 0., 5.64015820e-04, 4.51212656e-03,
          5.64015820e-04, 5.64015820e-04, 3.38409492e-03, 5.64015820e-04,
          5.64015820e-04, 0., 5.64015820e-04, 0., 5.64015820e-04,
          5.07614249e-03, 1.69204746e-03, 2.82007921e-03, 2.25606328e-03,
          5.64015820e-04, 2.82007921e-03, 0., 0., 5.64015820e-04, 0.,
          5.07614249e-03, 5.64015820e-04, 2.25606328e-03, 5.64015820e-04,
          5.64015820e-04, 1.12803164e-03, 1.69204746e-03, 0., 0., 0.,
          2.82007921e-03, 3.94811062e-03, 0., 5.64015820e-04, 0.,
          3.94811062e-03, 2.25606328e-03, 1.12803164e-03, 1.12803164e-03,
          1.12803164e-03, 5.64015820e-04, 3.38409492e-03, 0., 0.,
          1.69204746e-03, 1.69204746e-03, 1.12803164e-03, 5.64015820e-04,
          4.51212656e-03, 1.12803164e-03, 5.64015820e-04, 3.94811062e-03,
          2.25606328e-03, 0., 1.69204746e-03, 5.64015820e-04,
          5.64015820e-04, 0., 1.12803164e-03, 1.12803164e-03, 0.,
          1.12803164e-03, 2.82007921e-03, 2.82007921e-03, 4.51212656e-03,
          0., 4.51212656e-03, 5.64015820e-04, 0., 5.64015820e-04, 0.,
          1.69204746e-03, 0., 0., 5.64015820e-04, 0., 5.07614249e-03,
          5.64015820e-04, 2.25606328e-03, 0., 1.12803164e-03,
          1.12803164e-03, 1.69204746e-03, 0., 5.64015820e-04, 0.,
          1.69204746e-03, 1.12803164e-03, 5.64015820e-04, 5.64015820e-04,
          5.64015820e-04, 2.25606328e-03, 1.12803164e-03, 1.69204746e-03,
          1.69204746e-03, 0., 0., 1.69204746e-03, 1.12803164e-03,
          1.12803164e-03, 0., 5.64015820e-04, 5.64015820e-04,
          3.94811062e-03, 4.51212656e-03, 0., 5.64015820e-04,
          1.12803164e-03, 1.12803164e-03, 3.38409492e-03, 2.25606328e-03,
          2.25606328e-03, 2.25606328e-03, 3.38409492e-03, 0., 0., 0., 0.,
          2.25606328e-03, 0., 0., 1.12803164e-03, 5.64015820e-04,
          5.64015820e-04, 5.64015820e-04, 0., 5.64015820e-04, 0.,
          2.25606328e-03, 1.69204746e-03, 1.12803164e-03, 1.69204746e-03,
          1.12803164e-03, 0., 3.94811062e-03, 0., 0., 0., 0., 0.,
          3.38409492e-03, 5.64015820e-04, 0., 1.12803164e-03, 0.,
          1.12803164e-03, 0., 1.12803164e-03, 0., 0., 1.69204746e-03, 0.,
          5.64015820e-04, 1.12803164e-03, 5.64015820e-04, 1.12803164e-03,
          3.38409492e-03, 2.25606328e-03, 1.12803164e-03, 0.,
          1.69204746e-03, 4.51212656e-03, 0., 0., 3.38409492e-03,
          5.64015820e-04, 5.64015820e-04, 1.12803164e-03, 5.64015820e-04,
          4.51212656e-03, 1.12803164e-03, 5.64015820e-04, 0.,
          5.64015820e-04, 0., 8.78479332e-04, 2.49156114e-02,
          8.51952061e-02, 1.38031933e-02, 1.24508879e-04, 1.72928994e-05,
          0., 3.45858007e-06, 3.11272197e-05, 3.45858007e-06, 0.,
          3.45858007e-06, 0., 3.45858007e-06, 3.45858007e-06, 0., 0., 0.,
          0., 0., 0., 6.91716014e-06, 6.91716014e-06, 0., 3.45858007e-06,
          6.91716014e-06, 0., 0., 3.45858007e-06, 0., 0., 3.45858007e-06,
          2.42100614e-05, 3.11272197e-05, 4.84201228e-05, 3.80443817e-05,
          5.87958602e-05, 7.26301805e-05, 7.95473388e-05, 1.31426044e-04,
          3.18189355e-04, 1.62207405e-03, 2.85678706e-03, 5.00456523e-03,
          3.88398534e-03, 4.61028703e-03, 4.18142322e-03, 6.00409508e-03,
          7.22151529e-03, 8.96118116e-03, 8.46314523e-03, 9.53530520e-03,
          7.95819238e-03, 9.03381128e-03, 4.48474064e-02, 4.89336846e-04,
          1.27483197e-02, 1.10060617e-01, 1.63964357e-03, 5.47765121e-05,
          3.65176743e-06, 0., 0., 3.65176743e-06, 0., 0., 0., 0., 0., 0.,
          0., 0., 0., 0., 0., 0., 0., 0., 0., 0., 0., 0., 0.,
          7.30353486e-06, 1.09553021e-05, 7.30353486e-06, 1.09553021e-05,
          7.30353486e-06, 7.30353486e-06, 3.65176747e-05, 2.92141394e-05,
          4.01694415e-05, 5.11247454e-05, 1.02249491e-04, 1.20508324e-04,
          2.81186105e-04, 3.21355532e-04, 5.87934570e-04, 1.38401985e-03,
          2.17280164e-03, 5.48130274e-03, 7.06251804e-03, 9.10750777e-03,
          9.25357826e-03, 1.19924042e-02, 1.28067480e-02, 1.53447269e-02,
          1.25000002e-02, 1.14117730e-02, 2.48612333e-02, 4.15079267e-04,
          1.79031100e-02, 8.65359828e-02, 1.98948458e-02, 2.34889827e-04,
          1.28706752e-05, 3.21766879e-06, 0., 0., 0., 0., 0., 0., 0., 0.,
          0., 0., 0., 0., 0., 0., 0., 0., 0., 0., 0., 0., 0., 0., 0., 0.,
          3.21766879e-06, 6.43533758e-06, 6.43533758e-06, 3.21766893e-05,
          1.28706757e-04, 1.16801378e-03, 2.81546009e-03, 2.78650108e-03,
          2.31350376e-03, 2.59665865e-03, 2.29419791e-03, 2.05287267e-03,
          2.40038102e-03, 2.43899296e-03, 3.54265328e-03, 3.77110788e-03,
          5.71136223e-03, 6.84398133e-03, 9.97155532e-03, 1.00230379e-02,
          1.21241761e-02, 1.10977395e-02, 1.11234812e-02, 2.97473483e-02,
          1.75049601e-04, 8.57378356e-03, 1.07239760e-01, 9.00776032e-03,
          3.64686662e-06, 0., 0., 0., 0., 0., 0., 0., 0., 0., 0., 0., 0.,
          0., 0., 0., 0., 0., 0., 0., 0., 0., 0., 0., 0., 0., 0., 0., 0.,
          7.29373323e-06, 1.45874665e-05, 3.64686662e-06, 2.18812002e-05,
          3.64686675e-05, 8.02310678e-05, 1.85990197e-04, 7.91370054e-04,
          2.71326886e-03, 2.78985291e-03, 3.59581038e-03, 3.95320356e-03,
          5.34995319e-03, 5.63805597e-03, 9.07340460e-03, 1.14584547e-02,
          1.66297127e-02, 1.66041832e-02, 1.70199256e-02, 1.02841640e-02,
          7.16244616e-03, 1.15860952e-02, 2.31797054e-01, 9.43110883e-03,
          2.25296081e-03, 1.84472097e-04, -1.17193999e-07,
          -1.78776099e-05, -2.02164259e-08 ]
      - [ 9.20810329e-04, 0., 1.84162066e-03, 0., 9.20810364e-03,
          2.76243105e-03, 1.84162066e-03, 9.20810329e-04, 0., 0., 0.,
          9.20810329e-04, 0., 1.84162066e-03, 9.20810329e-04,
          9.20810329e-04, 0., 0., 9.20810329e-04, 0., 0., 0., 0.,
          2.76243105e-03, 0., 0., 4.60405182e-03, 1.84162066e-03,
          9.20810329e-04, 1.84162066e-03, 0., 7.36648263e-03,
          1.84162066e-03, 1.84162066e-03, 0., 0., 9.20810329e-04,
          1.84162066e-03, 8.28729291e-03, 8.28729291e-03, 0.,
          3.68324132e-03, 0., 1.84162066e-03, 2.76243105e-03,
          9.20810329e-04, 5.52486209e-03, 0., 0., 9.20810329e-04,
          1.84162066e-03, 9.20810329e-04, 0., 0., 0., 1.84162066e-03,
          1.84162066e-03, 9.20810329e-04, 9.20810329e-04, 9.20810329e-04,
          0., 0., 0., 1.84162066e-03, 0., 0., 0., 9.20810329e-04,
          9.20810329e-04, 0., 9.20810329e-04, 0., 0., 0., 1.84162066e-03,
          2.76243105e-03, 3.68324132e-03, 2.76243105e-03, 0.,
          1.84162066e-03, 0., 9.20810329e-04, 0., 9.20810329e-04, 0.,
          4.60405182e-03, 9.20810329e-04, 0., 0., 0., 0., 0., 0., 0., 0.,
          0., 9.20810329e-04, 6.44567236e-03, 0., 9.20810329e-04, 0.,
          1.84162066e-03, 0., 0., 2.76243105e-03, 0., 0., 9.20810329e-04,
          0., 0., 0., 0., 0., 9.20810329e-04, 3.68324132e-03, 0., 0., 0.,
          2.76243105e-03, 9.20810329e-04, 9.20810329e-04, 0.,
          9.20810329e-04, 0., 9.20810329e-04, 9.20810329e-04, 0.,
          9.20810329e-04, 0., 9.20810329e-04, 9.20810329e-04,
          1.01289134e-02, 9.20810329e-04, 0., 0., 5.52486209e-03, 0.,
          9.20810329e-04, 9.20810329e-04, 0., 9.20810329e-04, 0.,
          4.60405182e-03, 2.76243105e-03, 9.20810329e-04, 9.20810329e-04,
          0., 0., 9.20810329e-04, 0., 0., 0., 0., 0., 9.20810329e-04, 0.,
          0., 9.20810329e-04, 1.84162066e-03, 9.20810329e-04, 0., 0., 0.,
          0., 9.20810329e-04, 1.84162066e-03, 9.20810329e-04, 0., 0., 0.,
          0., 0., 0., 1.84162066e-03, 1.84162066e-03, 4.60405182e-03, 0.,
          0., 9.20810329e-04, 1.84162066e-03, 0., 0., 9.20810329e-04,
          9.20810329e-04, 0., 1.84162066e-03, 9.20810329e-04, 0., 0., 0.,
          0., 1.84162066e-03, 6.44567236e-03, 2.76243105e-03, 0., 0., 0.,
          0., 0., 0., 1.84162066e-03, 1.84162066e-03, 4.60405182e-03, 0.,
          0., 0., 0., 0., 0., 0., 0., 1.84162066e-03, 0., 2.76243105e-03,
          0., 1.84162066e-03, 0., 9.20810329e-04, 0., 1.84162066e-03, 0.,
          5.52486209e-03, 0., 0., 0., 9.20810329e-04, 2.76243105e-03,
          1.84162066e-03, 0., 0., 0., 0., 1.84162066e-03, 0.,
          4.60405182e-03, 0., 0., 0., 0., 0., 0., 2.76243105e-03,
          3.68324132e-03, 9.20810329e-04, 9.20810329e-04, 9.20810329e-04,
          9.20810329e-04, 0., 0., 9.20810329e-04, 0., 9.20810329e-04, 0.,
          0., 0., 9.20810329e-04, 0., 0., 0., 8.28729291e-03, 0., 0., 0.,
          0., 0., 1.84162066e-03, 1.84162066e-03, 0., 9.20810329e-04, 0.,
          0., 1.01289134e-02, 9.20810329e-04, 5.52486209e-03, 0.,
          1.84162066e-03, 0., 0., 2.76243105e-03, 0., 0., 0.,
          9.20810329e-04, 0., 3.68324132e-03, 9.20810329e-04,
          9.20810329e-04, 0., 0., 6.44567236e-03, 0., 1.84162066e-03, 0.,
          0., 0., 1.84162066e-03, 9.20810329e-04, 9.20810329e-04, 0.,
          2.76243105e-03, 9.20810329e-04, 0., 9.20810329e-04, 0., 0., 0.,
          0., 0., 1.84162066e-03, 0., 0., 2.76243105e-03, 1.84162066e-03,
          0., 0., 9.20810329e-04, 0., 2.76243105e-03, 9.20810329e-04,
          1.84162066e-03, 1.84162066e-03, 9.20810329e-04, 1.84162066e-03,
          0., 9.20810329e-04, 1.84162066e-03, 0., 9.20810329e-04,
          1.84162066e-03, 4.60405182e-03, 9.20810329e-04, 9.20810329e-04,
          0., 0., 0., 0., 0., 3.68324132e-03, 1.84162066e-03, 0.,
          9.20810329e-04, 0., 3.68324132e-03, 9.20810329e-04, 0., 0.,
          1.84162066e-03, 1.84162066e-03, 0., 9.20810329e-04, 0., 0., 0.,
          4.60405182e-03, 2.76243105e-03, 1.84162066e-03, 0.,
          1.84162066e-03, 9.20810329e-04, 1.84162066e-03, 2.76243105e-03,
          0., 1.84162066e-03, 9.20810329e-04, 0., 9.20810329e-04, 0.,
          1.84162066e-03, 0., 9.20810329e-04, 9.20810329e-04,
          9.20810329e-04, 2.76243105e-03, 0., 0., 3.68324132e-03, 0., 0.,
          0., 0., 0., 0., 0., 1.84162066e-03, 1.84162066e-03,
          9.20810329e-04, 9.20810329e-04, 0., 9.20810329e-04, 0.,
          9.20810329e-04, 0., 1.84162066e-03, 1.84162066e-03, 0., 0., 0.,
          0., 0., 0., 3.68324132e-03, 0., 3.68324132e-03, 0.,
          9.20810329e-04, 0., 3.68324132e-03, 9.20810329e-04,
          2.76243105e-03, 1.84162066e-03, 0., 9.20810329e-04,
          1.84162066e-03, 0., 0., 2.76243105e-03, 9.20810329e-04, 0.,
          1.84162066e-03, 1.84162066e-03, 0., 0., 0., 9.20810329e-04, 0.,
          0., 0., 0., 0., 1.84162066e-03, 0., 0., 0., 0., 0., 0., 0., 0.,
          0., 0., 1.84162066e-03, 0., 0., 0., 4.60405182e-03,
          1.84162066e-03, 0., 2.76243105e-03, 0., 0., 0., 9.20810329e-04,
          0., 4.60405182e-03, 0., 0., 0., 0., 0., 0., 0., 1.84162066e-03,
          0., 0., 9.20810329e-04, 0., 0., 1.84162066e-03, 0.,
          1.01289134e-02, 0., 0., 0., 0., 7.36648263e-03, 2.76243105e-03,
          0., 0., 2.76243105e-03, 9.20810329e-04, 0., 9.20810329e-04,
          1.84162066e-03, 2.76243105e-03, 0., 9.20810329e-04,
          1.84162066e-03, 9.20810329e-04, 0., 9.20810329e-04, 0., 0.,
          1.84162066e-03, 9.20810329e-04, 1.84162066e-03, 9.20810364e-03,
          0., 0., 0., 0., 0., 0., 0., 6.44567236e-03, 0., 0., 0.,
          9.20810329e-04, 0., 0., 1.84162066e-03, 3.68324132e-03,
          9.20810329e-04, 6.44567236e-03, 9.20810329e-04, 0., 0., 0.,
          3.68324132e-03, 2.76243105e-03, 0., 7.36648263e-03, 0.,
          1.84162066e-03, 9.20810329e-04, 0., 9.20810329e-04, 0., 0., 0.,
          0., 0., 0., 0., 3.68324132e-03, 3.68324132e-03, 0., 0., 0., 0.,
          9.20810329e-04, 1.84162066e-03, 0., 0., 0., 9.20810329e-04, 0.,
          0., 9.20810329e-04, 9.20810329e-04, 9.20810329e-04, 0., 0.,
          9.20810329e-04, 1.84162066e-03, 4.60405182e-03, 0., 0.,
          9.20810329e-04, 0., 0., 0., 1.84162066e-03, 0., 0., 0., 0.,
          3.68324132e-03, 0., 0., 1.01289134e-02, 1.84162066e-03, 0., 0.,
          0., 9.20810329e-04, 0., 1.84162066e-03, 0., 2.76243105e-03,
          9.20810329e-04, 0., 0., 9.20810329e-04, 0., 9.20810329e-04,
          9.20810329e-04, 0., 9.20810329e-04, 0., 9.20810329e-04,
          1.84162066e-03, 0., 0., 0., 9.20810329e-04, 9.20810329e-04,
          8.28729291e-03, 4.60405182e-03, 0., 0., 2.76243105e-03, 0.,
          9.20810329e-04, 0., 0., 0., 0., 1.84162066e-03, 0., 0., 0., 0.,
          9.20810329e-04, 9.20810329e-04, 9.20810329e-04, 5.52486209e-03,
          9.20810329e-04, 0., 1.84162066e-03, 0., 0., 9.20810329e-04, 0.,
          1.84162066e-03, 1.84162066e-03, 2.76243105e-03, 9.20810329e-04,
          9.20810329e-04, 9.20810329e-04, 0., 0., 9.20810329e-04,
          1.84162066e-03, 0., 0., 0., 0., 2.76243105e-03, 1.84162066e-03,
          9.20810329e-04, 0., 9.20810329e-04, 9.20810329e-04, 0.,
          1.84162066e-03, 0., 1.84162066e-03, 9.20810329e-04,
          1.84162066e-03, 0., 0., 1.84162066e-03, 1.84162066e-03, 0.,
          5.52486209e-03, 9.20810329e-04, 0., 9.20810329e-04, 0., 0.,
          2.76243105e-03, 0., 1.84162066e-03, 2.76243105e-03,
          1.84162066e-03, 0., 4.60405182e-03, 0., 0., 9.20810329e-04, 0.,
          0., 0., 0., 1.84162066e-03, 3.68324132e-03, 0., 1.84162066e-03,
          0., 7.36648263e-03, 9.20810329e-04, 0., 1.84162066e-03, 0., 0.,
          2.76243105e-03, 0., 9.20810329e-04, 9.20810329e-04,
          1.84162066e-03, 9.20810329e-04, 9.20810329e-04, 1.84162066e-03,
          0., 9.20810329e-04, 0., 0., 0., 0., 0., 9.20810329e-04, 0.,
          2.76243105e-03, 0., 9.20810329e-04, 1.84162066e-03, 0., 0., 0.,
          2.76243105e-03, 0., 0., 9.20810329e-04, 3.68324132e-03,
          9.20810329e-04, 0., 0., 9.20810329e-04, 2.76243105e-03,
          4.60405182e-03, 2.76243105e-03, 0., 0., 9.20810329e-04, 0., 0.,
          0., 1.84162066e-03, 9.20810329e-04, 2.76243105e-03, 0.,
          1.01289134e-02, 9.20810329e-04, 0., 0., 0., 0., 0., 0., 0., 0.,
          0., 0., 9.20810329e-04, 2.76243105e-03, 1.84162066e-03, 0., 0.,
          9.20810329e-04, 9.20810329e-04, 9.20810329e-04, 2.76243105e-03,
          1.01289134e-02, 0., 1.84162066e-03, 0., 0., 0., 0., 0.,
          9.20810329e-04, 0., 2.76243105e-03, 1.84162066e-03,
          9.20810329e-04, 9.20810329e-04, 0., 0., 0., 2.76243105e-03, 0.,
          1.84162066e-03, 9.20810329e-04, 0., 1.84162066e-03,
          1.84162066e-03, 1.84162066e-03, 0., 7.36648263e-03,
          2.76243105e-03, 0., 9.20810329e-04, 0., 0., 0., 0., 0.,
          9.20810329e-04, 9.20810329e-04, 0., 0., 2.76243105e-03,
          9.20810329e-04, 0., 2.76243105e-03, 9.20810329e-04, 0., 0., 0.,
          0., 0., 0., 3.68324132e-03, 0., 0., 2.76243105e-03, 0.,
          9.20810329e-04, 9.20810329e-04, 0., 0., 0., 0., 0., 0.,
          9.20810329e-04, 9.20810329e-04, 2.76243105e-03, 1.84162066e-03,
          9.20810329e-04, 0., 9.20810329e-04, 9.20810329e-04, 0., 0.,
          2.76243105e-03, 0., 0., 9.20810329e-04, 1.84162066e-03, 0., 0.,
          0., 9.20810329e-04, 0., 3.68324132e-03, 1.84162066e-03,
          1.84162066e-03, 0., 9.20810329e-04, 1.84162066e-03,
          7.36648263e-03, 0., 0., 9.20810329e-04, 0., 0., 9.20810329e-04,
          1.84162066e-03, 6.44567236e-03, 0., 9.20810329e-04,
          2.76243105e-03, 1.84162066e-03, 0., 0., 0., 0., 0., 0., 0., 0.,
          0., 1.84162066e-03, 0., 0., 2.76243105e-03, 0., 8.28729291e-03,
          0., 1.84162066e-03, 1.84162066e-03, 5.52486209e-03, 0., 0., 0.,
          0., 0., 0., 9.20810329e-04, 0., 0., 0., 2.76243105e-03,
          9.20810329e-04, 2.76243105e-03, 0., 9.20810329e-04, 0.,
          1.84162066e-03, 0., 0., 0., 0., 0., 0., 0., 2.76243105e-03,
          9.20810329e-04, 0., 9.20810329e-04, 1.84162066e-03,
          3.68324132e-03, 4.60405182e-03, 0., 9.20810329e-04,
          2.76243105e-03, 0., 8.28729291e-03, 0., 0., 1.84162066e-03, 0.,
          1.84162066e-03, 0., 0., 2.76243105e-03, 9.20810329e-04,
          9.20810329e-04, 0., 9.20810329e-04, 1.84162066e-03,
          1.84162066e-03, 0., 0., 9.20810329e-04, 0., 0., 0., 0.,
          9.20810329e-04, 0., 9.20810329e-04, 0., 9.20810329e-04, 0.,
          2.76243105e-03, 9.20810329e-04, 0., 0., 0., 0., 0.,
          2.76243105e-03, 0., 1.84162066e-03, 9.20810329e-04, 0.,
          4.60405182e-03, 0., 0., 0., 1.84162066e-03, 0., 9.20810329e-04,
          3.68324132e-03, 0., 0., 0., 9.20810329e-04, 0., 0., 0., 0., 0.,
          0., 1.84162066e-03, 0., 1.84162066e-03, 0., 0., 6.44567236e-03,
          0., 0., 1.84162066e-03, 9.20810329e-04, 9.20810329e-04,
          1.84162066e-03, 0., 0., 9.20810329e-04, 2.76243105e-03, 0.,
          9.20810329e-04, 2.76243105e-03, 0., 0., 0., 1.84162066e-03,
          1.84162066e-03, 1.84162066e-03, 0., 9.20810329e-04, 0.,
          1.84162066e-03, 2.76243105e-03, 0., 2.76243105e-03,
          9.20810329e-04, 5.24419709e-04, 7.30197458e-03, 1.13619521e-01,
          2.70475168e-03, 5.50070661e-04, 1.88107078e-04, 4.27516061e-05,
          1.99507504e-05, 8.55032158e-06, 2.85010719e-06, 5.70021439e-06,
          2.85010719e-06, 5.70021439e-06, 5.70021439e-06, 0., 0., 0., 0.,
          0., 0., 0., 0., 2.85010719e-06, 5.70021439e-06, 8.55032158e-06,
          8.55032158e-06, 3.42012863e-05, 1.39655254e-04, 1.88107078e-04,
          1.51055676e-04, 2.62209855e-04, 2.02357609e-04, 2.30858685e-04,
          2.50809419e-04, 2.99261243e-04, 2.28008576e-04, 3.44862958e-04,
          3.02111352e-04, 3.84764484e-04, 3.22062115e-04, 4.73117805e-04,
          5.61471097e-04, 6.78325538e-04, 9.06334084e-04, 1.15144334e-03,
          1.83831912e-03, 2.17178161e-03, 4.36351402e-03, 6.23603445e-03,
          1.12721743e-02, 1.25860730e-02, 1.43303387e-02, 1.46182002e-02,
          2.15838626e-02, 2.88801361e-02, 1.12245207e-05, 1.31439138e-02,
          1.08817987e-01, 2.37585674e-03, 3.89116700e-04, 1.30952743e-04,
          3.36735611e-05, 3.36735611e-05, 2.24490414e-05, 1.87075348e-05,
          1.12245207e-05, 0., 1.12245207e-05, 0., 0., 0., 0., 0., 0., 0.,
          0., 0., 0., 0., 0., 1.49660273e-05, 1.04762192e-04,
          1.49660278e-04, 2.54422455e-04, 2.58163956e-04, 2.73129990e-04,
          2.69388489e-04, 2.99320556e-04, 2.73129990e-04, 3.44218628e-04,
          3.25511093e-04, 3.81633698e-04, 4.26531769e-04, 5.20069443e-04,
          6.09865587e-04, 8.38097534e-04, 8.68029601e-04, 1.01768982e-03,
          1.63503853e-03, 2.27483618e-03, 3.95477284e-03, 4.87144198e-03,
          8.82621482e-03, 1.17782634e-02, 1.81912053e-02, 1.71510670e-02,
          1.76898446e-02, 1.27061568e-02, 1.07568325e-02, 7.93573633e-03,
          1.06783467e-03, 1.58093814e-02, 1.04958490e-01, 2.07533967e-03,
          4.70571191e-04, 2.29252633e-04, 8.14450104e-05, 6.63626051e-05,
          9.95439041e-05, 2.11153747e-05, 1.80988918e-05, 0., 0., 0., 0.,
          3.01648197e-06, 1.20659279e-05, 1.80988918e-05, 1.50824098e-05,
          0., 3.01648197e-06, 0., 1.50824098e-05, 3.01648197e-06,
          3.31813026e-05, 0., 1.20659279e-05, 3.31813026e-05,
          5.12801926e-05, 6.33461241e-05, 1.35741691e-04, 1.08593347e-04,
          2.68466887e-04, 1.68922998e-04, 2.35285595e-04, 1.50824097e-04,
          2.68466887e-04, 2.77516345e-04, 3.16730613e-04, 3.40862462e-04,
          4.37389885e-04, 5.12801926e-04, 5.67098614e-04, 8.71763274e-04,
          9.20027029e-04, 1.51729048e-03, 2.10550451e-03, 3.14920722e-03,
          4.37691528e-03, 7.28782034e-03, 8.38883594e-03, 1.11398678e-02,
          1.04581434e-02, 1.26420762e-02, 5.81939705e-02, 1.51437134e-05,
          2.04061531e-02, 1.02095127e-01, 1.72259740e-03, 5.11100341e-04,
          1.62794924e-04, 6.05748537e-05, 1.51437134e-05, 7.57185671e-06,
          3.78592836e-06, 0., 0., 0., 0., 0., 0., 0., 0., 0., 0., 0., 0.,
          0., 0., 0., 0., 0., 3.78592836e-06, 3.40733568e-05,
          5.30029974e-05, 9.84341386e-05, 1.62794924e-04, 2.12011990e-04,
          2.00654205e-04, 2.23369774e-04, 2.72586854e-04, 3.33161704e-04,
          2.68800912e-04, 3.52091331e-04, 4.12666181e-04, 5.22458111e-04,
          7.19326374e-04, 8.13974591e-04, 1.28342968e-03, 1.70366780e-03,
          3.30890133e-03, 5.02771279e-03, 6.89796126e-03, 7.94666354e-03,
          1.14902928e-02, 1.27320774e-02, 1.57759637e-02, 1.40647236e-02,
          1.43145947e-02, 2.57708151e-02, 2.26098508e-01, 1.10954456e-02,
          1.16735592e-03, 8.96384372e-05, -2.88178743e-08,
          -9.42241240e-06, 3.21206728e-09 ]
      - [ 0., 0., 0., 0., 2.98062596e-03, 7.45156500e-03, 5.96125191e-03,
          0., 0., 0., 0., 0., 0., 4.47093882e-03, 0., 0., 0.,
          2.98062596e-03, 0., 1.49031298e-03, 0., 0., 0., 1.49031298e-03,
          1.49031298e-03, 0., 1.49031298e-03, 4.47093882e-03,
          2.98062596e-03, 1.49031298e-03, 0., 5.96125191e-03,
          4.47093882e-03, 0., 0., 1.49031298e-03, 1.49031298e-03, 0.,
          4.47093882e-03, 4.47093882e-03, 1.49031298e-03, 0., 0.,
          1.49031298e-03, 1.49031298e-03, 0., 4.47093882e-03, 0., 0.,
          1.49031298e-03, 2.98062596e-03, 0., 0., 1.49031298e-03, 0.,
          2.98062596e-03, 0., 4.47093882e-03, 0., 0., 0., 0., 0.,
          1.49031298e-03, 0., 4.47093882e-03, 0., 0., 0., 0.,
          1.49031298e-03, 0., 0., 0., 0., 0., 0., 0., 0., 2.98062596e-03,
          0., 1.49031298e-03, 0., 0., 0., 2.98062596e-03, 0., 0., 0., 0.,
          0., 0., 0., 1.49031298e-03, 0., 0., 0., 2.98062596e-03,
          1.49031298e-03, 0., 1.49031298e-03, 0., 0., 0., 4.47093882e-03,
          0., 0., 1.49031298e-03, 1.49031298e-03, 1.49031298e-03, 0., 0.,
          0., 1.49031298e-03, 0., 0., 0., 1.49031298e-03, 0., 0.,
          5.96125191e-03, 0., 0., 2.98062596e-03, 2.98062596e-03,
          7.45156500e-03, 0., 0., 0., 1.49031298e-03, 1.49031298e-03,
          4.47093882e-03, 0., 0., 0., 2.98062596e-03, 0., 1.49031298e-03,
          1.49031298e-03, 0., 2.98062596e-03, 0., 1.49031298e-03, 0., 0.,
          0., 0., 0., 0., 0., 0., 0., 0., 0., 0., 0., 0., 0., 0.,
          1.49031298e-03, 0., 0., 0., 1.49031298e-03, 0., 2.98062596e-03,
          0., 0., 0., 0., 0., 1.49031298e-03, 0., 0., 1.49031298e-03,
          7.45156500e-03, 0., 0., 0., 2.98062596e-03, 1.49031298e-03, 0.,
          0., 0., 0., 0., 0., 0., 0., 0., 1.49031298e-03, 4.47093882e-03,
          4.47093882e-03, 0., 2.98062596e-03, 0., 0., 0., 0., 0.,
          4.47093882e-03, 0., 0., 0., 0., 0., 0., 0., 2.98062596e-03,
          1.49031298e-03, 0., 2.98062596e-03, 0., 1.19225038e-02, 0.,
          4.47093882e-03, 0., 0., 0., 8.94187763e-03, 0., 0., 0., 0.,
          1.49031298e-03, 0., 1.49031298e-03, 1.49031298e-03,
          5.96125191e-03, 0., 0., 0., 0., 0., 1.34128164e-02, 0., 0.,
          1.49031298e-03, 0., 0., 0., 1.49031298e-03, 0., 4.47093882e-03,
          0., 0., 0., 0., 0., 0., 0., 0., 1.49031298e-03, 1.49031298e-03,
          0., 0., 0., 0., 0., 1.49031298e-03, 0., 0., 0., 0., 0.,
          1.49031298e-03, 0., 0., 4.47093882e-03, 2.98062596e-03,
          2.98062596e-03, 0., 1.49031298e-03, 4.47093882e-03,
          1.49031298e-03, 0., 0., 0., 4.47093882e-03, 0., 1.49031298e-03,
          0., 0., 0., 1.34128164e-02, 0., 1.49031298e-03, 1.49031298e-03,
          0., 5.96125191e-03, 1.49031298e-03, 2.98062596e-03, 0., 0., 0.,
          0., 1.49031298e-03, 2.98062596e-03, 0., 0., 1.49031298e-03,
          1.49031298e-03, 0., 0., 0., 0., 0., 0., 0., 0., 0., 0., 0., 0.,
          0., 4.47093882e-03, 0., 4.47093882e-03, 0., 0., 0.,
          1.49031298e-03, 0., 2.98062596e-03, 0., 0., 0., 1.49031298e-03,
          0., 1.49031298e-03, 0., 2.98062596e-03, 1.49031298e-03, 0.,
          1.49031298e-03, 1.49031298e-03, 1.49031298e-03, 0.,
          1.49031298e-03, 0., 0., 0., 1.49031298e-03, 1.49031298e-03,
          1.49031298e-03, 1.49031298e-03, 0., 1.49031298e-03, 0., 0.,
          1.49031298e-03, 0., 0., 2.98062596e-03, 0., 0., 1.49031298e-03,
          0., 0., 0., 2.98062596e-03, 0., 0., 2.98062596e-03, 0., 0.,
          2.98062596e-03, 0., 0., 0., 0., 0., 2.98062596e-03, 0., 0., 0.,
          1.49031298e-03, 0., 1.49031298e-03, 5.96125191e-03, 0.,
          1.49031298e-03, 2.98062596e-03, 0., 1.49031298e-03,
          2.98062596e-03, 0., 0., 4.47093882e-03, 0., 0., 0.,
          4.47093882e-03, 0., 1.49031298e-03, 0., 0., 2.98062596e-03,
          1.49031298e-03, 0., 0., 0., 2.98062596e-03, 0., 1.49031298e-03,
          1.49031298e-03, 5.96125191e-03, 1.49031298e-03, 0., 0., 0., 0.,
          0., 0., 0., 0., 1.49031298e-03, 0., 0., 0., 0., 0.,
          1.49031298e-03, 1.49031298e-03, 0., 1.49031298e-03,
          1.49031298e-03, 0., 0., 4.47093882e-03, 0., 0., 0.,
          1.49031298e-03, 1.49031298e-03, 0., 0., 1.49031298e-03, 0., 0.,
          0., 0., 0., 0., 1.49031298e-03, 0., 0., 0., 0., 0.,
          1.49031298e-03, 0., 0., 1.34128164e-02, 1.49031298e-03, 0., 0.,
          1.49031298e-03, 2.98062596e-03, 0., 0., 0., 1.49031298e-03, 0.,
          0., 0., 0., 0., 0., 0., 1.49031298e-03, 0., 0., 1.49031298e-03,
          5.96125191e-03, 5.96125191e-03, 0., 4.47093882e-03,
          1.49031298e-03, 1.49031298e-03, 0., 0., 2.98062596e-03, 0., 0.,
          0., 1.49031298e-03, 1.49031298e-03, 0., 0., 0., 0.,
          2.98062596e-03, 0., 0., 8.94187763e-03, 2.98062596e-03, 0., 0.,
          0., 0., 0., 1.49031298e-03, 7.45156500e-03, 0., 0., 0., 0., 0.,
          0., 5.96125191e-03, 1.49031298e-03, 0., 1.49031298e-03,
          1.49031298e-03, 2.98062596e-03, 0., 0., 0., 1.49031298e-03, 0.,
          0., 0., 1.49031298e-03, 0., 0., 1.49031298e-03, 0., 0., 0.,
          4.47093882e-03, 1.49031298e-03, 0., 0., 0., 0., 1.49031298e-03,
          0., 0., 0., 5.96125191e-03, 1.49031298e-03, 1.49031298e-03, 0.,
          0., 1.49031298e-03, 0., 0., 0., 0., 0., 0., 0., 5.96125191e-03,
          2.98062596e-03, 2.98062596e-03, 0., 0., 0., 0., 0., 0., 0., 0.,
          1.49031298e-03, 0., 0., 5.96125191e-03, 0., 0., 4.47093882e-03,
          4.47093882e-03, 0., 0., 0., 4.47093882e-03, 0., 0., 0.,
          1.49031298e-03, 0., 0., 0., 0., 0., 0., 0., 1.49031298e-03, 0.,
          0., 0., 2.98062596e-03, 0., 1.49031298e-03, 0., 0., 0.,
          1.49031298e-03, 1.49031298e-03, 0., 0., 1.49031298e-03,
          1.49031298e-03, 0., 0., 2.98062596e-03, 0., 0., 0.,
          1.49031298e-03, 0., 0., 0., 0., 1.49031298e-03, 1.49031298e-03,
          0., 0., 0., 1.49031298e-03, 1.49031298e-03, 0., 0., 0., 0., 0.,
          4.47093882e-03, 0., 2.98062596e-03, 1.49031298e-03, 0., 0.,
          1.49031298e-03, 1.49031298e-03, 0., 1.49031298e-03, 0., 0., 0.,
          0., 0., 0., 1.49031298e-03, 0., 0., 0., 0., 0., 0., 0., 0., 0.,
          0., 0., 0., 4.47093882e-03, 1.49031298e-03, 0., 2.98062596e-03,
          0., 2.98062596e-03, 0., 1.49031298e-03, 1.49031298e-03, 0., 0.,
          0., 0., 0., 0., 0., 0., 0., 0., 0., 1.49031298e-03,
          1.49031298e-03, 0., 0., 0., 0., 1.49031298e-03, 1.49031298e-03,
          0., 0., 0., 0., 0., 1.49031298e-03, 0., 1.49031298e-03,
          1.49031298e-03, 0., 0., 0., 0., 1.49031298e-03, 0., 0., 0., 0.,
          0., 7.45156500e-03, 0., 0., 0., 1.49031298e-03, 0.,
          1.49031298e-03, 0., 0., 1.49031298e-03, 0., 0., 0.,
          1.49031298e-03, 2.98062596e-03, 8.94187763e-03, 0.,
          5.96125191e-03, 0., 4.47093882e-03, 0., 0., 0., 0.,
          5.96125191e-03, 0., 5.96125191e-03, 2.98062596e-03,
          4.47093882e-03, 0., 8.94187763e-03, 0., 0., 0., 0., 0., 0.,
          2.98062596e-03, 0., 0., 0., 0., 0., 5.96125191e-03, 0., 0., 0.,
          1.49031298e-03, 0., 0., 0., 2.08643824e-02, 1.49031298e-03, 0.,
          0., 0., 0., 1.49031298e-03, 1.49031298e-03, 0., 0.,
          1.49031298e-03, 4.47093882e-03, 1.49031298e-03, 1.49031298e-03,
          0., 0., 0., 4.47093882e-03, 1.49031298e-03, 0., 0.,
          1.49031298e-03, 1.49031298e-03, 0., 1.49031298e-03, 0.,
          8.94187763e-03, 0., 1.49031298e-03, 1.49031298e-03, 0., 0.,
          1.49031298e-03, 0., 1.49031298e-03, 0., 0., 0., 0., 0.,
          2.98062596e-03, 1.49031298e-03, 2.98062596e-03, 1.49031298e-03,
          0., 0., 1.49031298e-03, 0., 0., 0., 1.49031298e-03,
          4.47093882e-03, 0., 0., 2.98062596e-03, 0., 0., 0.,
          1.49031298e-03, 0., 1.49031298e-03, 0., 0., 2.98062596e-03, 0.,
          0., 1.49031298e-03, 0., 0., 0., 0., 0., 0., 0., 2.98062596e-03,
          0., 0., 1.49031298e-03, 0., 0., 0., 0., 0., 1.49031298e-03, 0.,
          2.98062596e-03, 0., 1.49031298e-03, 0., 7.45156500e-03, 0., 0.,
          0., 0., 0., 0., 0., 2.98062596e-03, 0., 2.98062596e-03,
          1.49031298e-03, 0., 0., 0., 0., 0., 0., 0., 0., 0., 0., 0.,
          2.98062596e-03, 0., 0., 0., 5.96125191e-03, 0., 0., 0.,
          1.49031298e-03, 0., 0., 0., 0., 0., 0., 0., 1.49031298e-03, 0.,
          0., 0., 0., 2.98062596e-03, 1.49031298e-03, 0., 1.49031298e-03,
          0., 0., 0., 1.49031298e-03, 1.49031298e-03, 0., 0., 0.,
          1.49031298e-03, 0., 0., 2.98062596e-03, 0., 7.45156500e-03,
          1.04321912e-02, 0., 0., 4.47093882e-03, 0., 4.47093882e-03, 0.,
          0., 5.96125191e-03, 2.98062596e-03, 1.49031298e-03,
          1.49031298e-03, 0., 0., 0., 1.49031298e-03, 0., 0., 0., 0.,
          2.98062596e-03, 0., 1.49031298e-03, 0., 0., 0., 0., 0., 0., 0.,
          4.47093882e-03, 0., 0., 2.98062596e-03, 0., 1.49031298e-03,
          1.49031298e-03, 0., 2.98062596e-03, 0., 4.47093882e-03, 0., 0.,
          0., 0., 2.98062596e-03, 0., 0., 0., 0., 2.98062596e-03,
          4.47093882e-03, 0., 0., 1.49031298e-03, 1.49031298e-03,
          1.49031298e-03, 0., 0., 0., 0., 0., 0., 8.94187763e-03, 0.,
          2.98062596e-03, 0., 2.98062596e-03, 5.96125191e-03, 0., 0.,
          4.47093882e-03, 2.98062596e-03, 2.98062596e-03, 2.98062596e-03,
          0., 0., 0., 2.98062596e-03, 0., 0., 0., 0., 2.98062596e-03,
          2.98062596e-03, 7.45156500e-03, 0., 5.96125191e-03, 0.,
          1.49031298e-03, 0., 4.47093882e-03, 1.49031298e-03, 0., 0., 0.,
          4.57450806e-04, 1.09004891e-02, 1.11686930e-01, 1.51648081e-03,
          2.66324088e-04, 1.09662862e-04, 3.13322453e-05, 9.39967413e-06,
          9.39967413e-06, 0., 0., 0., 0., 0., 0., 0., 0., 0., 0., 0., 0.,
          0., 3.13322471e-06, 3.13322471e-06, 6.26644942e-06, 0.,
          3.13322471e-06, 9.39967413e-06, 1.56661226e-05, 3.13322453e-05,
          6.57977216e-05, 8.14638406e-05, 6.57977216e-05, 1.06529638e-04,
          1.22195765e-04, 1.44128338e-04, 1.91126703e-04, 2.53791193e-04,
          2.66324088e-04, 3.03922803e-04, 3.85386636e-04, 5.01315924e-04,
          6.04712346e-04, 1.04649703e-03, 1.13422738e-03, 1.84860255e-03,
          2.16192496e-03, 3.49354558e-03, 4.62150667e-03, 7.81426206e-03,
          1.01391152e-02, 1.58917159e-02, 2.03346275e-02, 2.41038986e-02,
          2.92580519e-02, 2.77346371e-05, 1.57889314e-02, 1.08470164e-01,
          6.61669183e-04, 5.15071806e-05, 0., 0., 0., 0., 0., 0., 0., 0.,
          0., 0., 0., 0., 0., 0., 0., 0., 0., 0., 0., 0., 0., 0.,
          3.96209089e-06, 1.18862727e-05, 7.92418177e-06, 2.37725453e-05,
          4.75450906e-05, 5.15071806e-05, 5.54692742e-05, 1.18862728e-04,
          1.22824815e-04, 1.74332003e-04, 2.02066629e-04, 3.01118911e-04,
          3.05080990e-04, 5.30920166e-04, 7.84493983e-04, 9.50901827e-04,
          1.69577484e-03, 2.00878014e-03, 3.95812886e-03, 6.19274797e-03,
          1.07966978e-02, 1.27420845e-02, 1.69379395e-02, 1.58483628e-02,
          1.66883264e-02, 1.25954868e-02, 1.21358847e-02, 9.70712304e-03,
          9.55071300e-04, 1.80992745e-02, 1.04052328e-01, 1.28127530e-03,
          3.26203939e-04, 9.75248840e-05, 4.70809791e-05, 1.34517086e-05,
          6.72585447e-05, 3.36292715e-06, 3.36292715e-06, 0., 0., 0.,
          3.36292715e-06, 3.36292715e-06, 3.36292715e-06, 0.,
          3.36292715e-06, 0., 0., 0., 1.34517086e-05, 1.00887810e-05,
          1.68146362e-05, 1.00887810e-05, 3.36292715e-06, 1.00887810e-05,
          1.00887810e-05, 6.72585429e-06, 6.38956190e-05, 3.36292724e-05,
          8.74361067e-05, 1.17702453e-04, 1.51331726e-04, 1.24428305e-04,
          1.71509280e-04, 1.37880008e-04, 1.64783429e-04, 2.65671231e-04,
          3.56470264e-04, 4.47269296e-04, 4.70809813e-04, 6.82674232e-04,
          8.50820565e-04, 1.37880014e-03, 1.73863338e-03, 3.26203927e-03,
          4.00860934e-03, 5.89184836e-03, 6.75612083e-03, 9.40274447e-03,
          9.67177842e-03, 1.51264463e-02, 6.35963157e-02, 3.19744213e-05,
          3.16546783e-02, 9.27697867e-02, 4.43645084e-04, 6.39488426e-05,
          2.39808160e-05, 3.99680266e-06, 0., 0., 0., 0., 0., 0., 0., 0.,
          7.99360532e-06, 0., 0., 0., 0., 0., 0., 0., 0., 0.,
          3.99680266e-06, 7.99360532e-06, 7.99360532e-06, 3.99680266e-06,
          1.99840142e-05, 1.59872106e-05, 1.59872106e-05, 2.79776177e-05,
          1.99840142e-05, 6.39488426e-05, 6.39488426e-05, 1.31894485e-04,
          1.87849728e-04, 2.99760199e-04, 3.23741027e-04, 5.07593912e-04,
          7.51398911e-04, 9.67226224e-04, 1.81055162e-03, 2.19024788e-03,
          3.50919273e-03, 4.50039981e-03, 6.89048786e-03, 7.81374890e-03,
          1.08753005e-02, 1.18145486e-02, 1.43045569e-02, 1.25299767e-02,
          1.28657082e-02, 3.24740224e-02, 2.31441528e-01, 1.27251046e-02,
          1.19722856e-03, 9.81421108e-05, -3.33352261e-08,
          -1.09638686e-05, -4.52698767e-09 ]
      - [ 1.33928575e-03, 4.46428574e-04, 1.33928575e-03, 2.67857150e-03,
          0., 2.67857150e-03, 8.92857148e-04, 4.46428574e-04,
          4.46428574e-04, 0., 0., 1.78571430e-03, 1.78571430e-03, 0.,
          4.46428574e-04, 4.46428574e-04, 1.78571430e-03, 8.92857148e-04,
          0., 4.46428574e-04, 4.01785737e-03, 4.46428574e-04, 0.,
          4.46428574e-04, 4.46428574e-04, 1.33928575e-03, 0.,
          8.92857148e-04, 8.92857148e-04, 8.92857148e-04, 0.,
          4.01785737e-03, 2.23214296e-03, 4.46428574e-04, 0.,
          8.92857148e-04, 2.23214296e-03, 0., 8.92857148e-04,
          3.12500005e-03, 8.92857148e-04, 0., 4.46428574e-04,
          4.91071446e-03, 8.92857148e-04, 0., 1.78571430e-03, 0., 0., 0.,
          1.33928575e-03, 0., 8.92857148e-04, 4.46428574e-04,
          1.33928575e-03, 8.92857148e-04, 4.46428574e-04, 3.57142859e-03,
          0., 0., 8.92857148e-04, 0., 4.46428574e-04, 8.92857148e-04, 0.,
          1.78571430e-03, 0., 4.46428591e-03, 2.23214296e-03,
          1.78571430e-03, 1.78571430e-03, 4.46428574e-04, 0.,
          3.12500005e-03, 2.23214296e-03, 2.67857150e-03, 4.46428574e-04,
          4.46428574e-04, 8.48214328e-03, 1.33928575e-03, 0.,
          8.92857148e-04, 4.01785737e-03, 8.92857148e-04, 4.46428574e-04,
          8.92857148e-04, 0., 4.46428574e-04, 0., 1.33928575e-03,
          4.46428574e-04, 4.46428574e-04, 0., 8.92857148e-04, 0.,
          1.33928575e-03, 0., 2.23214296e-03, 3.57142859e-03, 0.,
          8.92857148e-04, 4.46428574e-04, 0., 4.46428574e-04,
          4.46428574e-04, 2.23214296e-03, 0., 0., 1.78571430e-03,
          4.46428574e-04, 0., 4.46428574e-04, 1.33928575e-03, 0.,
          1.78571430e-03, 0., 8.92857148e-04, 0., 4.01785737e-03, 0.,
          1.33928575e-03, 0., 4.46428574e-04, 0., 0., 1.33928575e-03,
          5.35714300e-03, 4.01785737e-03, 4.01785737e-03, 1.33928575e-03,
          4.46428574e-04, 0., 0., 0., 0., 1.78571430e-03, 1.33928575e-03,
          0., 0., 8.92857148e-04, 4.46428574e-04, 0., 4.46428574e-04,
          8.92857148e-04, 4.46428574e-04, 0., 8.92857148e-04, 0., 0.,
          8.92857148e-04, 1.33928575e-03, 3.57142859e-03, 4.46428574e-04,
          2.23214296e-03, 8.92857148e-04, 0., 4.46428574e-04, 0.,
          4.46428574e-04, 8.92857148e-04, 4.46428574e-04, 2.23214296e-03,
          4.46428574e-04, 6.69642864e-03, 4.46428574e-04, 8.92857148e-04,
          1.78571430e-03, 0., 2.23214296e-03, 0., 4.46428574e-04, 0.,
          1.78571430e-03, 8.92857148e-04, 0., 1.78571430e-03,
          4.46428574e-04, 4.46428574e-04, 0., 8.92857148e-04, 0., 0.,
          4.46428574e-04, 8.92857148e-04, 0., 0., 0., 4.46428574e-04, 0.,
          1.33928575e-03, 1.33928575e-03, 0., 8.92857148e-04, 0.,
          3.12500005e-03, 1.33928575e-03, 0., 5.35714300e-03, 0.,
          1.78571430e-03, 1.33928575e-03, 0., 4.46428574e-04, 0.,
          8.92857148e-04, 0., 0., 0., 0., 0., 0., 1.33928575e-03, 0., 0.,
          2.23214296e-03, 2.23214296e-03, 1.33928575e-03, 1.33928575e-03,
          4.46428574e-04, 4.46428574e-04, 0., 4.46428574e-04,
          3.12500005e-03, 0., 0., 0., 8.92857148e-04, 6.25000009e-03,
          4.46428591e-03, 0., 0., 0., 0., 1.78571430e-03, 0.,
          4.46428574e-04, 0., 4.46428574e-04, 8.92857148e-04,
          4.46428574e-04, 0., 4.46428574e-04, 4.46428574e-04,
          8.92857148e-04, 3.57142859e-03, 0., 0., 0., 0., 4.46428574e-04,
          4.46428574e-04, 8.92857148e-04, 0., 1.33928575e-03,
          1.33928575e-03, 3.57142859e-03, 0., 1.33928575e-03,
          4.46428574e-04, 0., 2.23214296e-03, 0., 0., 4.46428574e-04, 0.,
          8.92857148e-04, 8.92857148e-04, 1.33928575e-03, 1.33928575e-03,
          0., 0., 0., 8.92857148e-04, 0., 0., 1.20535716e-02,
          4.46428574e-04, 0., 8.92857148e-04, 0., 8.92857148e-04, 0., 0.,
          4.46428574e-04, 1.33928575e-03, 4.46428574e-04, 8.92857148e-04,
          0., 4.46428574e-04, 1.33928575e-03, 0., 1.33928575e-03,
          1.78571430e-03, 0., 1.78571430e-03, 4.46428574e-04,
          4.46428591e-03, 0., 4.46428574e-04, 1.78571430e-03,
          3.57142859e-03, 1.33928575e-03, 4.46428574e-04, 4.46428574e-04,
          2.23214296e-03, 0., 0., 4.46428574e-04, 2.23214296e-03,
          1.78571430e-03, 1.78571430e-03, 0., 0., 8.92857148e-04, 0., 0.,
          2.67857150e-03, 0., 0., 8.92857148e-04, 1.33928575e-03,
          1.33928575e-03, 4.46428574e-04, 1.33928575e-03, 2.23214296e-03,
          0., 3.12500005e-03, 1.78571430e-03, 3.57142859e-03, 0.,
          4.46428574e-04, 4.46428574e-04, 4.46428574e-04, 4.46428574e-04,
          1.33928575e-03, 4.46428574e-04, 1.78571430e-03, 0.,
          4.46428574e-04, 8.92857148e-04, 3.57142859e-03, 0.,
          8.92857148e-04, 8.92857148e-04, 8.92857148e-04, 8.92857148e-04,
          0., 0., 2.23214296e-03, 4.46428574e-04, 0., 2.23214296e-03, 0.,
          4.91071446e-03, 2.23214296e-03, 0., 4.46428574e-04, 0.,
          1.33928575e-03, 0., 4.46428574e-04, 4.46428574e-04,
          8.92857148e-04, 1.33928575e-03, 1.78571430e-03, 1.33928575e-03,
          1.33928575e-03, 4.46428574e-04, 0., 0., 0., 4.46428574e-04,
          4.46428574e-04, 0., 2.67857150e-03, 8.92857148e-04,
          4.46428574e-04, 2.23214296e-03, 0., 8.92857148e-04, 0., 0.,
          4.46428574e-04, 4.46428574e-04, 8.92857148e-04, 0.,
          1.78571430e-03, 0., 4.46428574e-04, 0., 8.92857148e-04,
          4.46428574e-04, 0., 0., 4.46428574e-04, 0., 4.46428574e-04,
          1.33928575e-03, 0., 0., 0., 8.92857148e-04, 4.46428574e-04,
          4.91071446e-03, 1.33928575e-03, 4.46428574e-04, 2.67857150e-03,
          8.92857148e-04, 8.92857148e-04, 8.92857148e-04, 0., 0., 0.,
          1.78571430e-03, 0., 0., 0., 0., 8.92857148e-04, 2.23214296e-03,
          1.33928575e-03, 2.67857150e-03, 1.33928575e-03, 4.46428574e-04,
          3.57142859e-03, 0., 4.46428574e-04, 8.92857148e-04, 0.,
          4.46428574e-04, 4.46428574e-04, 0., 2.67857150e-03,
          1.33928575e-03, 2.23214296e-03, 4.46428574e-04, 4.46428574e-04,
          0., 0., 0., 0., 0., 4.46428574e-04, 0., 0., 8.92857148e-04,
          8.92857148e-04, 0., 1.33928575e-03, 8.92857148e-04, 0.,
          2.23214296e-03, 8.92857148e-04, 1.78571430e-03, 1.78571430e-03,
          0., 4.46428574e-04, 0., 0., 1.33928575e-03, 0., 1.33928575e-03,
          4.46428574e-04, 0., 1.78571430e-03, 0., 4.46428574e-04, 0., 0.,
          0., 8.92857148e-04, 4.46428574e-04, 1.78571430e-03, 0.,
          4.46428574e-04, 4.46428574e-04, 1.33928575e-03, 4.01785737e-03,
          1.33928575e-03, 8.92857148e-04, 0., 4.01785737e-03,
          4.46428574e-04, 8.92857148e-04, 8.92857148e-04, 1.78571430e-03,
          1.33928575e-03, 2.67857150e-03, 1.78571430e-03, 0., 0., 0., 0.,
          4.46428574e-04, 0., 1.33928575e-03, 0., 0., 0., 0.,
          8.48214328e-03, 1.78571430e-03, 4.46428574e-04, 1.33928575e-03,
          4.46428574e-04, 4.46428574e-04, 1.33928575e-03, 2.23214296e-03,
          0., 8.92857148e-04, 2.67857150e-03, 0., 3.57142859e-03,
          4.46428574e-04, 8.92857148e-04, 0., 0., 2.23214296e-03,
          4.46428574e-04, 0., 0., 4.46428574e-04, 4.46428574e-04, 0.,
          4.46428574e-04, 0., 4.46428574e-04, 0., 1.33928575e-03,
          8.92857148e-04, 1.78571430e-03, 5.35714300e-03, 0.,
          2.23214296e-03, 1.33928575e-03, 0., 0., 4.46428591e-03,
          2.23214296e-03, 0., 8.92857148e-04, 0., 0., 2.67857150e-03,
          4.46428574e-04, 4.46428574e-04, 4.46428574e-04, 4.46428574e-04,
          3.57142859e-03, 4.46428574e-04, 4.46428574e-04, 8.92857148e-04,
          4.46428574e-04, 0., 0., 0., 0., 4.46428574e-04, 2.23214296e-03,
          1.33928575e-03, 4.46428574e-04, 8.92857148e-04, 0.,
          1.78571430e-03, 0., 4.46428574e-04, 4.46428591e-03,
          4.91071446e-03, 0., 8.92857148e-04, 0., 1.78571430e-03,
          8.92857148e-04, 3.57142859e-03, 0., 3.57142859e-03,
          8.92857148e-04, 2.23214296e-03, 4.46428574e-04, 4.46428574e-04,
          4.46428574e-04, 8.92857148e-04, 8.92857148e-04, 4.46428574e-04,
          0., 1.33928575e-03, 0., 1.33928575e-03, 4.46428574e-04,
          4.46428574e-04, 0., 1.78571430e-03, 5.80357155e-03, 0., 0., 0.,
          0., 0., 0., 3.12500005e-03, 0., 1.33928575e-03, 0.,
          8.92857148e-04, 1.78571430e-03, 0., 4.01785737e-03,
          4.46428574e-04, 4.46428574e-04, 2.23214296e-03, 0.,
          2.67857150e-03, 0., 9.37500037e-03, 6.69642864e-03,
          4.46428574e-04, 0., 4.46428574e-04, 8.92857148e-04, 0.,
          4.46428574e-04, 0., 8.92857148e-04, 4.01785737e-03, 0., 0.,
          6.25000009e-03, 1.78571430e-03, 0., 0., 0., 3.57142859e-03,
          4.91071446e-03, 1.33928575e-03, 0., 1.78571430e-03, 0., 0.,
          4.46428574e-04, 2.23214296e-03, 0., 0., 4.46428574e-04,
          4.46428591e-03, 0., 0., 0., 4.46428574e-04, 0., 4.46428574e-04,
          0., 0., 4.46428574e-04, 4.46428574e-04, 0., 1.33928575e-03,
          1.33928575e-03, 0., 0., 4.46428574e-04, 4.46428574e-04,
          1.33928575e-03, 2.23214296e-03, 1.33928575e-03, 8.92857148e-04,
          3.12500005e-03, 4.46428574e-04, 0., 8.92857148e-04, 0., 0.,
          4.46428574e-04, 4.46428574e-04, 1.78571430e-03, 0., 0.,
          1.78571430e-03, 0., 1.33928575e-03, 4.46428574e-04, 0.,
          8.92857148e-04, 0., 8.92857148e-04, 0., 8.92857148e-04, 0.,
          8.92857148e-04, 4.46428574e-04, 0., 0., 4.46428574e-04, 0., 0.,
          0., 0., 0., 1.33928575e-03, 1.33928575e-03, 4.46428574e-04,
          1.33928575e-03, 0., 0., 0., 2.23214296e-03, 0., 1.78571430e-03,
          8.92857148e-04, 0., 0., 4.46428574e-04, 4.46428574e-04,
          4.46428574e-04, 1.33928575e-03, 4.46428574e-04, 0.,
          6.25000009e-03, 0., 6.25000009e-03, 8.92857148e-04, 0.,
          1.33928575e-03, 0., 3.57142859e-03, 0., 1.33928575e-03, 0.,
          6.25000009e-03, 4.46428574e-04, 4.46428591e-03, 4.46428574e-04,
          1.33928575e-03, 8.92857148e-04, 4.46428574e-04, 0.,
          4.46428574e-04, 2.67857150e-03, 4.46428591e-03, 2.23214296e-03,
          2.67857150e-03, 4.46428574e-04, 4.46428574e-04, 2.23214296e-03,
          1.33928575e-03, 8.92857148e-04, 8.92857148e-04, 1.78571430e-03,
          4.46428574e-04, 0., 0., 8.92857148e-04, 0., 0., 0.,
          8.92857148e-04, 1.78571430e-03, 0., 0., 1.78571430e-03,
          8.92857148e-04, 0., 4.46428574e-04, 5.35714300e-03,
          4.46428574e-04, 2.23214296e-03, 4.46428574e-04, 0., 0., 0.,
          1.33928575e-03, 4.46428574e-04, 1.78571430e-03, 4.46428574e-04,
          4.46428574e-04, 0., 0., 4.91071446e-03, 1.33928575e-03, 0.,
          1.33928575e-03, 2.67857150e-03, 4.46428574e-04, 4.46428574e-04,
          0., 8.48214328e-03, 0., 1.33928575e-03, 4.46428574e-04,
          8.03571474e-03, 3.12500005e-03, 0., 1.78571430e-03,
          1.33928575e-03, 1.33928575e-03, 0., 8.92857148e-04, 0.,
          8.92857148e-04, 4.46428574e-04, 1.78571430e-03, 8.92857148e-04,
          0., 6.69642864e-03, 4.46428574e-04, 1.33928575e-03,
          5.80357155e-03, 4.46428574e-04, 1.33928575e-03, 8.92857148e-04,
          8.92857148e-04, 4.46428574e-04, 1.78571430e-03, 0., 0., 0.,
          1.33928575e-03, 1.33928575e-03, 0., 0., 0., 8.92857148e-04,
          1.33928575e-03, 0., 0., 4.46428574e-04, 0., 1.33928575e-03,
          8.92857148e-04, 1.78571430e-03, 4.46428574e-04, 0.,
          5.35714300e-03, 0., 8.92857148e-04, 4.01785737e-03,
          4.91071446e-03, 0., 4.46428574e-04, 1.78571430e-03, 0.,
          1.33928575e-03, 0., 0., 4.46428574e-04, 3.12500005e-03,
          3.12500005e-03, 0., 0., 2.67857150e-03, 0., 2.23214296e-03, 0.,
          0., 4.46428574e-04, 8.92857148e-04, 8.92857148e-04, 0.,
          8.92857148e-04, 1.78571430e-03, 1.33928575e-03, 0., 0., 0.,
          3.12500005e-03, 0., 4.46428574e-04, 8.92857148e-04, 0., 0.,
          1.78571430e-03, 0., 4.46428574e-04, 0., 4.46428574e-04,
          8.92857148e-04, 1.33928575e-03, 0., 0., 0., 8.48214328e-03,
          2.23214296e-03, 0., 0., 0., 0., 0., 0., 0., 0., 4.46428574e-04,
          5.35714300e-03, 4.46428574e-04, 0., 0., 4.46428574e-04, 0.,
          8.92857148e-04, 3.12500005e-03, 0., 0., 1.33928575e-03, 0., 0.,
          1.33928575e-03, 0., 4.46428574e-04, 8.92857148e-04,
          8.92857148e-04, 0., 1.78571430e-03, 0., 0., 4.46428574e-04, 0.,
          4.46428574e-04, 8.92857148e-04, 0., 1.78571430e-03, 0.,
          4.46428574e-04, 4.46428574e-04, 4.46428574e-04, 1.33928575e-03,
          0., 1.33928575e-03, 0., 0., 1.87500007e-02, 0., 1.33928575e-03,
          4.46428574e-04, 8.48214328e-03, 1.33928575e-03, 7.14285718e-03,
          2.67857150e-03, 0., 4.46428574e-04, 0., 8.92857148e-04,
          1.78571430e-03, 4.46428574e-04, 0., 0., 1.78571430e-03,
          8.92857148e-04, 4.46428574e-04, 1.33928575e-03, 4.46428574e-04,
          0., 2.23214296e-03, 0., 0., 0., 0., 2.67857150e-03, 0.,
          4.46428591e-03, 0., 0., 2.23214296e-03, 4.46428591e-03,
          4.46428574e-04, 4.46428574e-04, 0., 0., 8.92857148e-04,
          4.46428574e-04, 0., 8.92857148e-04, 4.46428574e-04,
          8.92857148e-04, 0., 3.57142859e-03, 0., 1.33928575e-03,
          8.92857148e-04, 0., 8.92857148e-04, 8.92857148e-04,
          4.46428574e-04, 1.33928575e-03, 4.46428574e-04, 0.,
          4.91071446e-03, 2.23214296e-03, 2.23214296e-03, 4.46428574e-04,
          6.69642864e-03, 1.33928575e-03, 1.78571430e-03, 4.46428574e-04,
          4.46428574e-04, 0., 1.78571430e-03, 0., 8.92857148e-04,
          1.33928575e-03, 2.67857150e-03, 4.46428574e-04, 0.,
          1.43827405e-03, 1.95099209e-02, 1.00832336e-01, 2.88320682e-03,
          1.63137564e-04, 4.99400703e-05, 3.66227177e-05, 1.66466907e-05,
          9.98801443e-06, 9.98801443e-06, 6.65867628e-06, 0., 0., 0., 0.,
          0., 0., 0., 0., 0., 0., 3.32933814e-06, 0., 3.32933814e-06,
          3.66227177e-05, 0., 0., 3.32933814e-06, 0., 6.65867628e-06,
          9.98801443e-06, 1.33173526e-05, 1.66466907e-05, 3.99520577e-05,
          1.99760289e-05, 5.99280866e-05, 5.32694103e-05, 8.32334554e-05,
          1.23185513e-04, 1.13197500e-04, 2.43041679e-04, 3.26275127e-04,
          2.89652409e-04, 5.99280873e-04, 8.12358514e-04, 1.35171134e-03,
          1.86775869e-03, 3.16287135e-03, 4.07843944e-03, 7.01824483e-03,
          9.73498449e-03, 1.50119858e-02, 1.63503792e-02, 1.72026902e-02,
          4.64076437e-02, 1.59950985e-04, 1.34801250e-02, 1.10417232e-01,
          9.35883436e-04, 0., 3.40321253e-06, 0., 3.40321253e-06, 0., 0.,
          0., 0., 0., 0., 0., 0., 0., 0., 0., 0., 0., 0., 0., 0., 0., 0.,
          0., 0., 3.40321253e-06, 0., 6.80642506e-06, 0., 3.40321253e-06,
          3.40321253e-06, 1.36128501e-05, 1.36128501e-05, 2.38224875e-05,
          2.38224875e-05, 3.74353367e-05, 4.76449750e-05, 8.50803117e-05,
          1.36128496e-04, 1.53144560e-04, 2.62047368e-04, 5.34304359e-04,
          1.25238218e-03, 2.26994278e-03, 5.28859207e-03, 7.84780830e-03,
          1.24251293e-02, 1.41437510e-02, 1.84998624e-02, 1.62673555e-02,
          1.46133946e-02, 3.10441051e-02, 1.01827108e-03, 1.64111890e-02,
          8.60069618e-02, 2.11781114e-02, 2.37703658e-04, 7.38808667e-05,
          2.24854812e-05, 2.24854812e-05, 1.60610580e-05, 6.42442319e-06,
          3.21221160e-06, 0., 0., 0., 0., 0., 0., 0., 3.21221160e-06, 0.,
          0., 0., 0., 0., 0., 0., 3.21221160e-06, 6.42442319e-06,
          6.42442319e-06, 0., 0., 1.28488464e-05, 2.24854812e-05,
          2.89099044e-05, 4.49709623e-05, 3.53343275e-05, 1.28488464e-04,
          1.22064041e-04, 1.92732696e-04, 1.86308273e-04, 3.18008941e-04,
          3.56555480e-04, 5.17166045e-04, 8.41599423e-04, 1.38446316e-03,
          2.44128075e-03, 3.44027858e-03, 6.70709787e-03, 8.96528270e-03,
          1.40116671e-02, 1.36101404e-02, 1.52708543e-02, 1.17342090e-02,
          1.02790771e-02, 3.43321189e-02, 1.44345860e-04, 8.82270094e-03,
          1.10269681e-01, 5.74919023e-03, 1.40825232e-05, 0., 0., 0., 0.,
          0., 0., 0., 0., 0., 0., 0., 0., 0., 0., 0., 0., 0., 0., 0., 0.,
          0., 0., 0., 0., 0., 0., 3.52063080e-06, 7.04126160e-06,
          7.04126160e-06, 7.04126160e-06, 1.76031535e-05, 4.22475714e-05,
          4.22475714e-05, 8.80157677e-05, 1.02098296e-04, 2.11237842e-04,
          3.06294882e-04, 4.71764535e-04, 1.00337982e-03, 1.79904234e-03,
          3.34811979e-03, 5.12251770e-03, 9.73454397e-03, 1.33783966e-02,
          1.89304315e-02, 1.79340933e-02, 1.65680889e-02, 1.04351500e-02,
          7.47429905e-03, 1.79657787e-02, 2.22307906e-01, 7.26702390e-03,
          2.37595849e-03, 2.25126088e-04, -1.64540452e-07,
          -1.91524105e-05, 5.96825922e-09 ]
      - [ 1.19904079e-03, 2.39808159e-03, 2.99760187e-03, 1.19904079e-03,
          5.99520397e-04, 5.99520397e-04, 1.19904079e-03, 1.19904079e-03,
          1.79856119e-03, 0., 0., 5.99520397e-04, 0., 0., 0., 0.,
          2.99760187e-03, 0., 0., 4.19664290e-03, 5.99520397e-04, 0., 0.,
          1.79856119e-03, 1.19904079e-03, 5.99520397e-04, 0.,
          5.99520397e-04, 0., 0., 1.79856119e-03, 2.39808159e-03,
          3.59712238e-03, 5.99520397e-04, 5.99520397e-04, 2.39808159e-03,
          1.79856119e-03, 0., 5.99520397e-04, 5.99520397e-04,
          1.79856119e-03, 0., 1.19904079e-03, 2.39808159e-03,
          1.19904079e-03, 1.19904079e-03, 5.99520397e-04, 2.99760187e-03,
          1.19904079e-03, 0., 1.79856119e-03, 0., 0., 5.99520397e-04,
          5.99520397e-04, 5.99520397e-04, 0., 1.79856119e-03,
          5.99520397e-04, 0., 0., 1.19904079e-03, 0., 1.19904079e-03,
          1.19904079e-03, 1.79856119e-03, 0., 5.99520397e-04,
          5.99520397e-04, 0., 5.99520397e-04, 5.99520397e-04,
          1.19904079e-03, 1.79856119e-03, 0., 0., 5.99520397e-04, 0., 0.,
          1.79856119e-03, 1.79856119e-03, 1.79856119e-03, 1.79856119e-03,
          0., 2.39808159e-03, 1.79856119e-03, 2.39808159e-03, 0., 0.,
          5.99520397e-04, 5.99520397e-04, 1.01918466e-02, 2.99760187e-03,
          0., 0., 0., 6.59472449e-03, 1.79856119e-03, 2.39808159e-03, 0.,
          1.79856119e-03, 0., 0., 5.99520397e-04, 0., 0., 0., 0., 0.,
          1.19904079e-03, 0., 3.59712238e-03, 0., 5.99520397e-04,
          2.39808159e-03, 0., 5.99520397e-04, 1.19904079e-03,
          2.39808159e-03, 0., 2.39808159e-03, 0., 5.99520397e-04,
          5.99520397e-04, 5.99520397e-04, 2.99760187e-03, 1.79856119e-03,
          5.99520397e-04, 1.19904079e-03, 5.99520397e-04, 9.59232636e-03,
          7.79376505e-03, 5.99520397e-04, 0., 5.99520397e-04,
          5.99520397e-04, 1.79856119e-03, 5.99520397e-04, 0., 0., 0.,
          5.99520397e-04, 5.99520397e-04, 1.19904079e-03, 4.19664290e-03,
          0., 1.19904079e-03, 0., 0., 5.99520397e-04, 1.19904079e-03, 0.,
          0., 0., 5.99520397e-04, 5.99520397e-04, 5.99520397e-04, 0., 0.,
          5.99520397e-04, 0., 1.79856119e-03, 5.99520397e-04,
          1.19904079e-03, 0., 5.99520397e-04, 0., 1.19904079e-03, 0., 0.,
          0., 0., 0., 1.19904079e-03, 1.19904079e-03, 0., 5.99520397e-04,
          8.39328580e-03, 0., 5.99520397e-04, 0., 0., 0., 1.19904079e-03,
          5.99520397e-04, 0., 1.19904079e-03, 5.99520397e-04, 0., 0.,
          1.19904079e-03, 0., 1.19904079e-03, 0., 5.99520397e-04,
          1.79856119e-03, 0., 0., 0., 0., 1.79856119e-03, 0.,
          5.99520397e-04, 0., 5.99520397e-04, 2.39808159e-03, 0., 0., 0.,
          1.19904079e-03, 2.99760187e-03, 5.99520397e-04, 0.,
          5.99520397e-04, 5.99520397e-04, 1.79856119e-03, 1.79856119e-03,
          0., 0., 5.99520397e-04, 0., 2.39808159e-03, 4.19664290e-03, 0.,
          0., 0., 1.19904079e-03, 1.19904079e-03, 2.39808159e-03,
          5.99520397e-04, 0., 5.99520397e-04, 0., 0., 5.99520397e-04, 0.,
          0., 2.39808159e-03, 2.39808159e-03, 1.79856119e-03, 0.,
          1.19904079e-03, 5.99520397e-04, 0., 5.99520397e-04, 0.,
          5.99520397e-04, 0., 0., 2.39808159e-03, 0., 5.99520397e-04, 0.,
          5.99520397e-04, 1.19904079e-03, 5.99520397e-04, 5.99520397e-04,
          1.79856119e-03, 6.59472449e-03, 0., 5.99520397e-04, 0.,
          1.19904079e-03, 1.19904079e-03, 1.19904079e-03, 1.19904079e-03,
          0., 5.99520397e-04, 5.99520397e-04, 1.79856119e-03,
          1.79856119e-03, 0., 5.99520397e-04, 5.99520397e-04,
          1.19904079e-03, 2.39808159e-03, 5.99520397e-04, 0., 0., 0.,
          5.99520397e-04, 0., 1.79856119e-03, 0., 4.79616318e-03,
          1.19904079e-03, 5.99520397e-04, 0., 0., 2.99760187e-03, 0.,
          1.79856119e-03, 3.59712238e-03, 0., 0., 0., 1.79856119e-03, 0.,
          1.19904079e-03, 4.19664290e-03, 1.79856119e-03, 2.99760187e-03,
          0., 1.19904079e-03, 5.99520397e-04, 0., 2.99760187e-03,
          5.99520397e-04, 2.39808159e-03, 1.79856119e-03, 0., 0.,
          5.99520397e-04, 0., 0., 1.79856119e-03, 3.59712238e-03,
          5.99520397e-04, 0., 0., 0., 5.99520397e-04, 0., 0.,
          1.19904079e-03, 0., 0., 1.19904079e-03, 2.39808159e-03, 0., 0.,
          5.99520397e-04, 1.79856119e-03, 0., 3.59712238e-03,
          5.99520397e-04, 1.19904079e-03, 0., 5.99520397e-04,
          1.19904079e-03, 3.59712238e-03, 0., 1.19904079e-03,
          5.99520397e-04, 0., 1.19904079e-03, 0., 0., 4.19664290e-03,
          1.79856119e-03, 4.19664290e-03, 5.99520397e-04, 0.,
          5.99520374e-03, 1.19904079e-03, 1.19904079e-03, 1.19904079e-03,
          1.19904079e-03, 5.99520397e-04, 0., 5.99520397e-04,
          1.19904079e-03, 0., 2.39808159e-03, 2.39808159e-03,
          5.99520397e-04, 5.39568346e-03, 1.19904079e-03, 5.99520397e-04,
          0., 0., 0., 1.79856119e-03, 0., 5.99520397e-04, 2.99760187e-03,
          0., 5.99520397e-04, 1.19904079e-03, 1.19904079e-03,
          1.79856119e-03, 5.99520397e-04, 0., 1.19904079e-03,
          5.99520397e-04, 0., 0., 0., 5.99520397e-04, 5.99520397e-04,
          3.59712238e-03, 5.99520397e-04, 5.99520397e-04, 1.19904079e-03,
          1.79856119e-03, 1.79856119e-03, 5.99520397e-04, 2.39808159e-03,
          5.99520397e-04, 0., 5.99520397e-04, 5.99520397e-04, 0.,
          5.99520397e-04, 5.99520397e-04, 1.79856119e-03, 2.39808159e-03,
          1.19904079e-03, 0., 0., 0., 0., 1.19904079e-03, 0.,
          1.19904079e-03, 0., 1.19904079e-03, 1.19904079e-03, 0.,
          1.19904079e-03, 0., 1.19904079e-03, 1.19904079e-03,
          5.99520397e-04, 0., 2.99760187e-03, 1.19904079e-03,
          1.79856119e-03, 0., 0., 5.99520397e-04, 1.79856119e-03,
          2.39808159e-03, 5.99520397e-04, 5.99520397e-04, 5.99520397e-04,
          0., 5.99520397e-04, 0., 0., 0., 1.19904079e-03, 4.19664290e-03,
          2.99760187e-03, 1.19904079e-03, 1.19904079e-03, 5.99520397e-04,
          5.99520397e-04, 1.79856119e-03, 0., 0., 5.99520397e-04,
          2.99760187e-03, 4.19664290e-03, 5.99520397e-04, 1.19904079e-03,
          5.99520397e-04, 5.99520397e-04, 5.99520397e-04, 1.79856119e-03,
          0., 1.19904079e-03, 0., 5.99520397e-04, 2.39808159e-03, 0., 0.,
          0., 0., 0., 1.19904079e-03, 7.19424477e-03, 1.79856119e-03, 0.,
          5.99520397e-04, 1.19904079e-03, 4.79616318e-03, 1.19904079e-03,
          5.99520397e-04, 5.99520397e-04, 0., 0., 1.19904079e-03,
          5.99520397e-04, 0., 1.19904079e-03, 0., 7.19424477e-03,
          5.99520397e-04, 0., 0., 0., 5.99520397e-04, 1.19904079e-03, 0.,
          1.79856119e-03, 2.99760187e-03, 5.99520397e-04, 0., 0.,
          5.99520397e-04, 2.39808159e-03, 5.99520397e-04, 1.79856119e-03,
          1.19904079e-03, 0., 0., 2.99760187e-03, 5.99520397e-04,
          1.19904079e-03, 1.19904079e-03, 0., 5.99520397e-04,
          1.19904079e-03, 0., 0., 7.79376505e-03, 5.99520397e-04,
          1.79856119e-03, 2.39808159e-03, 1.19904079e-03, 1.79856119e-03,
          0., 0., 1.79856119e-03, 0., 5.99520397e-04, 5.99520397e-04, 0.,
          0., 0., 2.99760187e-03, 0., 2.99760187e-03, 0., 5.99520397e-04,
          0., 5.99520397e-04, 5.99520397e-04, 5.99520397e-04,
          2.99760187e-03, 5.99520397e-04, 0., 2.99760187e-03,
          2.39808159e-03, 1.79856119e-03, 0., 0., 5.99520397e-04,
          1.79856119e-03, 1.79856119e-03, 0., 0., 0., 1.79856119e-03, 0.,
          0., 0., 1.79856119e-03, 1.79856119e-03, 1.19904079e-03,
          1.19904079e-03, 1.79856119e-03, 1.79856119e-03, 5.99520397e-04,
          0., 0., 2.99760187e-03, 1.19904079e-03, 0., 7.79376505e-03,
          5.99520397e-04, 0., 1.79856119e-03, 0., 2.99760187e-03,
          2.99760187e-03, 1.19904079e-03, 0., 1.19904079e-03, 0.,
          5.99520397e-04, 4.19664290e-03, 5.99520397e-04, 1.19904079e-03,
          1.19904079e-03, 5.99520397e-04, 2.39808159e-03, 0.,
          1.79856119e-03, 5.99520397e-04, 1.79856119e-03, 0.,
          5.99520397e-04, 0., 0., 5.99520397e-04, 0., 5.39568346e-03,
          5.99520397e-04, 5.99520397e-04, 1.79856119e-03, 1.19904079e-03,
          1.19904079e-03, 0., 1.19904079e-03, 0., 1.19904079e-03,
          1.19904079e-03, 5.99520397e-04, 1.79856119e-03, 0., 0., 0.,
          5.99520397e-04, 1.79856119e-03, 0., 0., 1.19904079e-03,
          5.99520397e-04, 5.99520397e-04, 0., 5.99520397e-04,
          1.19904079e-03, 0., 0., 3.59712238e-03, 0., 0., 5.99520397e-04,
          0., 0., 1.19904079e-03, 1.19904079e-03, 0., 1.19904079e-03,
          5.99520397e-04, 5.99520397e-04, 1.79856119e-03, 1.19904079e-03,
          1.19904079e-03, 0., 0., 5.99520397e-04, 0., 5.99520397e-04, 0.,
          5.99520397e-04, 0., 5.99520397e-04, 0., 0., 1.19904079e-03, 0.,
          0., 0., 5.99520397e-04, 0., 0., 0., 4.19664290e-03,
          1.19904079e-03, 5.99520397e-04, 1.19904079e-03, 0.,
          5.99520397e-04, 1.19904079e-03, 0., 1.19904079e-03, 0., 0.,
          1.19904079e-03, 1.19904079e-03, 1.79856119e-03, 1.19904079e-03,
          5.99520397e-04, 1.79856119e-03, 0., 5.99520397e-04,
          1.19904079e-03, 0., 0., 3.59712238e-03, 0., 0., 1.19904079e-03,
          1.79856119e-03, 3.59712238e-03, 5.99520397e-04, 1.19904079e-03,
          0., 1.79856119e-03, 1.79856119e-03, 0., 1.19904079e-03,
          1.19904079e-03, 1.79856119e-03, 1.19904079e-03, 0.,
          5.99520397e-04, 5.99520397e-04, 0., 0., 0., 0., 1.19904079e-03,
          2.39808159e-03, 0., 0., 0., 5.99520397e-04, 2.99760187e-03,
          5.99520397e-04, 0., 5.99520397e-04, 1.79856119e-03,
          5.99520397e-04, 0., 5.99520397e-04, 0., 0., 1.19904079e-03,
          3.59712238e-03, 5.99520397e-04, 0., 2.39808159e-03,
          1.13908872e-02, 1.79856119e-03, 1.79856119e-03, 1.79856119e-03,
          5.99520397e-04, 2.39808159e-03, 5.99520397e-04, 5.99520397e-04,
          0., 0., 5.99520397e-04, 5.99520397e-04, 1.79856119e-03,
          5.99520397e-04, 2.99760187e-03, 0., 5.99520397e-04,
          1.19904079e-03, 3.59712238e-03, 1.79856119e-03, 7.79376505e-03,
          1.19904079e-03, 0., 5.99520397e-04, 0., 1.19904079e-03,
          5.99520397e-04, 0., 0., 6.59472449e-03, 0., 4.79616318e-03, 0.,
          5.99520397e-04, 1.79856119e-03, 0., 5.99520397e-04,
          1.19904079e-03, 1.79856119e-03, 2.39808159e-03, 1.79856119e-03,
          5.99520397e-04, 0., 5.99520397e-04, 1.19904079e-03,
          5.99520397e-04, 1.79856119e-03, 0., 0., 2.39808159e-03,
          2.99760187e-03, 1.19904079e-03, 0., 3.59712238e-03,
          1.19904079e-03, 2.39808159e-03, 0., 0., 0., 0., 5.99520397e-04,
          1.19904079e-03, 1.19904079e-03, 1.19904079e-03, 5.99520397e-04,
          2.39808159e-03, 2.39808159e-03, 0., 5.99520397e-04,
          5.99520397e-04, 1.19904079e-03, 1.19904079e-03, 1.19904079e-03,
          5.99520397e-04, 1.19904079e-03, 5.99520397e-04, 6.59472449e-03,
          0., 0., 0., 1.79856119e-03, 0., 0., 0., 0., 0., 1.79856119e-03,
          3.59712238e-03, 0., 0., 1.19904079e-03, 1.19904079e-03, 0.,
          5.99520397e-04, 5.99520397e-04, 0., 0., 0., 1.19904079e-03,
          7.19424477e-03, 0., 1.19904079e-03, 5.99520397e-04,
          5.99520397e-04, 5.99520397e-04, 1.19904079e-03, 0.,
          1.19904079e-03, 1.19904079e-03, 3.59712238e-03, 2.99760187e-03,
          1.19904079e-03, 0., 0., 1.19904079e-03, 0., 5.99520397e-04, 0.,
          0., 1.19904079e-03, 0., 0., 0., 0., 1.19904079e-03,
          5.99520397e-04, 0., 1.79856119e-03, 0., 3.59712238e-03,
          2.99760187e-03, 1.79856119e-03, 1.19904079e-03, 0.,
          5.99520397e-04, 5.99520397e-04, 1.19904079e-03, 5.99520397e-04,
          5.99520397e-04, 1.19904079e-03, 0., 0., 0., 1.79856119e-03,
          5.99520397e-04, 2.39808159e-03, 0., 6.59472449e-03, 0.,
          5.99520397e-04, 2.39808159e-03, 5.99520397e-04, 0.,
          2.99760187e-03, 0., 5.99520397e-04, 0., 5.99520397e-04, 0., 0.,
          1.19904079e-03, 5.99520397e-04, 3.59712238e-03, 1.19904079e-03,
          5.99520397e-04, 4.19664290e-03, 0., 5.99520397e-04,
          1.79856119e-03, 5.99520397e-04, 5.99520397e-04, 0.,
          1.19904079e-03, 0., 5.99520397e-04, 0., 5.99520397e-04,
          2.39808159e-03, 0., 0., 8.39328580e-03, 1.79856119e-03,
          5.99520397e-04, 1.79856119e-03, 1.19904079e-03, 1.19904079e-03,
          2.99760187e-03, 0., 0., 1.79856119e-03, 0., 1.19904079e-03,
          2.99760187e-03, 5.99520397e-04, 0., 0., 0., 0., 0.,
          5.99520397e-04, 0., 0., 1.79856119e-03, 1.79856119e-03,
          2.39808159e-03, 0., 2.39808159e-03, 5.99520397e-04,
          5.99520397e-04, 0., 1.79856119e-03, 2.99760187e-03, 0.,
          1.79856119e-03, 1.19904079e-03, 0., 0., 0., 1.19904079e-03,
          1.19904079e-03, 1.19904079e-03, 1.19904079e-03, 5.99520397e-04,
          2.99760187e-03, 0., 1.19904079e-03, 0., 1.19904079e-03,
          5.99520397e-04, 3.59712238e-03, 5.99520397e-04, 0., 0., 0., 0.,
          0., 0., 0., 1.79856119e-03, 5.39568346e-03, 2.99760187e-03, 0.,
          0., 0., 0., 0., 5.99520397e-04, 0., 5.99520397e-04,
          1.79856119e-03, 5.99520397e-04, 5.99520397e-04, 1.19904079e-03,
          0., 5.99520397e-04, 5.99520397e-04, 0., 5.99520397e-04,
          1.79856119e-03, 5.99520397e-04, 0., 0., 1.79856119e-03,
          4.19664290e-03, 2.39808159e-03, 2.99760187e-03, 1.79856119e-03,
          1.19904079e-03, 5.99520397e-04, 5.99520397e-04, 5.99520397e-04,
          0., 1.19904079e-03, 5.99520397e-04, 6.07966445e-04,
          2.55835075e-02, 8.71208981e-02, 1.13382256e-02, 2.76030740e-04,
          4.89168415e-05, 1.39762406e-05, 0., 3.49406014e-06, 0., 0., 0.,
          0., 0., 0., 0., 0., 0., 0., 0., 0., 0., 3.49406014e-06, 0.,
          3.49406014e-06, 0., 0., 0., 0., 0., 6.98812028e-06,
          1.39762406e-05, 2.79524811e-05, 1.39762406e-05, 4.89168415e-05,
          3.84346604e-05, 8.73515019e-05, 2.13137668e-04, 3.52900068e-04,
          4.75192181e-04, 6.53389259e-04, 9.50384361e-04, 2.01956672e-03,
          2.77428376e-03, 1.99161423e-03, 2.63452134e-03, 2.73934309e-03,
          3.80153744e-03, 4.62613581e-03, 6.73654815e-03, 7.65199168e-03,
          1.01816915e-02, 1.03144655e-02, 1.13032842e-02, 5.53424172e-02,
          8.44594557e-04, 1.44039681e-02, 1.04886420e-01, 4.80387034e-03,
          5.73254219e-05, 3.82169492e-06, 0., 0., 0., 0., 0., 0., 0., 0.,
          0., 0., 0., 0., 0., 0., 0., 0., 0., 0., 0., 0., 0., 0., 0.,
          3.82169492e-06, 2.29301695e-05, 3.82169492e-05, 5.73254219e-05,
          4.96820358e-05, 7.64338984e-05, 6.11471187e-05, 1.45224403e-04,
          1.68154569e-04, 1.71976266e-04, 2.25480006e-04, 4.05099650e-04,
          5.54145779e-04, 7.10835273e-04, 1.51721283e-03, 2.41531129e-03,
          4.17711260e-03, 5.01788547e-03, 6.87905075e-03, 7.61281606e-03,
          1.13275042e-02, 1.17096733e-02, 1.46905957e-02, 1.29326154e-02,
          1.25580896e-02, 3.14716585e-02, 1.18791603e-03, 2.95889173e-02,
          8.36118460e-02, 1.01390630e-02, 3.05152731e-04, 6.90226443e-05,
          2.54293936e-05, 7.26554117e-06, 4.72260181e-05, 0., 0., 0., 0.,
          0., 0., 0., 3.63277059e-06, 3.63277059e-06, 0., 3.63277059e-06,
          0., 0., 0., 0., 7.26554117e-06, 0., 0., 0., 0., 0., 0.,
          1.45310823e-05, 2.54293936e-05, 3.63277068e-05, 5.81243294e-05,
          3.99604760e-05, 9.44520361e-05, 8.71864904e-05, 8.71864904e-05,
          1.01717575e-04, 2.17966241e-04, 2.90621654e-04, 3.56011529e-04,
          8.75497703e-04, 1.73646433e-03, 3.78171424e-03, 3.69089493e-03,
          4.53733047e-03, 4.57729073e-03, 6.07762532e-03, 6.61164243e-03,
          9.19090956e-03, 9.02016927e-03, 1.00700399e-02, 6.34209067e-02,
          1.52995344e-03, 2.28054300e-02, 9.84609276e-02, 2.02122284e-03,
          1.08781089e-04, 5.26360127e-05, 1.05272029e-05, 0., 0., 0., 0.,
          0., 0., 0., 0., 0., 0., 0., 0., 0., 0., 0., 0., 0.,
          1.05272029e-05, 0., 0., 0., 0., 0., 0., 3.50906748e-06,
          6.66722844e-05, 2.10544058e-05, 8.07085526e-05, 7.36904185e-05,
          1.47380837e-04, 1.05272025e-04, 1.64926169e-04, 1.54398964e-04,
          2.91252596e-04, 4.00033692e-04, 5.61450783e-04, 9.89557011e-04,
          1.28080964e-03, 2.29493016e-03, 3.31255980e-03, 5.39694587e-03,
          6.53388351e-03, 8.77266843e-03, 9.26393829e-03, 1.16079953e-02,
          1.10395262e-02, 1.22361183e-02, 5.02007194e-02, 2.34358847e-01,
          1.06882984e-02, 2.29909085e-03, 2.41339701e-04,
          -1.74131472e-07, -2.43299055e-05, -4.46775417e-08 ]
      - [ 0., 0., 0., 0., 0., 0., 2.21565738e-03, 1.47710484e-03,
          7.38552422e-04, 0., 0., 1.47710484e-03, 7.38552422e-04,
          1.47710484e-03, 0., 2.21565738e-03, 0., 0., 4.43131477e-03,
          3.69276199e-03, 0., 0., 0., 7.38552422e-04, 0., 2.95420969e-03,
          0., 2.21565738e-03, 7.38552422e-04, 5.16986707e-03,
          1.47710484e-03, 1.32939434e-02, 7.38552422e-04, 0.,
          7.38552422e-04, 2.21565738e-03, 4.43131477e-03, 0., 0., 0.,
          3.69276199e-03, 7.38552422e-04, 1.47710484e-03, 7.38552422e-04,
          7.38552422e-04, 7.38552422e-04, 7.38552422e-04, 0., 0., 0.,
          2.21565738e-03, 0., 0., 7.38552422e-04, 7.38552422e-04,
          7.38552422e-04, 0., 0., 7.38552422e-04, 0., 6.64697168e-03,
          7.38552422e-04, 2.21565738e-03, 0., 7.38552422e-04, 0., 0.,
          2.95420969e-03, 5.16986707e-03, 0., 7.38552422e-04, 0., 0.,
          7.38552422e-04, 1.47710484e-03, 2.95420969e-03, 7.38552422e-04,
          2.21565738e-03, 0., 0., 0., 1.47710484e-03, 7.38552422e-04,
          7.38552422e-04, 7.38552422e-04, 0., 7.38552422e-04, 0., 0.,
          2.21565738e-03, 0., 0., 0., 1.47710484e-03, 0., 0., 0.,
          2.95420969e-03, 0., 7.38552422e-04, 0., 7.38552422e-04, 0.,
          1.03397341e-02, 2.21565738e-03, 0., 0., 0., 2.95420969e-03, 0.,
          0., 0., 7.38552422e-04, 7.38552422e-04, 0., 0., 7.38552422e-04,
          1.47710484e-03, 0., 0., 2.21565738e-03, 0., 2.21565738e-03,
          7.38552422e-04, 1.47710484e-03, 3.69276199e-03, 0., 0., 0.,
          5.16986707e-03, 0., 0., 4.43131477e-03, 0., 7.38552422e-04, 0.,
          0., 2.21565738e-03, 0., 4.43131477e-03, 0., 0., 0., 0.,
          7.38552422e-04, 7.38552422e-04, 0., 0., 0., 2.21565738e-03,
          1.47710484e-03, 0., 7.38552422e-04, 0., 0., 0., 0., 0.,
          7.38552422e-04, 0., 0., 7.38552422e-04, 2.21565738e-03,
          7.38552422e-04, 0., 8.86262953e-03, 0., 2.95420969e-03, 0., 0.,
          0., 7.38552422e-04, 7.38552422e-04, 2.21565738e-03,
          7.38552422e-04, 2.95420969e-03, 7.38552422e-04, 0., 0.,
          2.21565738e-03, 7.38552422e-04, 0., 0., 1.47710484e-03, 0., 0.,
          7.38552422e-04, 7.38552422e-04, 2.21565738e-03, 0., 0.,
          7.38552422e-04, 7.38552422e-04, 5.90841938e-03, 7.38552422e-04,
          1.47710484e-03, 0., 7.38552422e-04, 5.16986707e-03, 0.,
          2.21565738e-03, 1.47710484e-03, 7.38552422e-04, 1.47710484e-03,
          0., 0., 0., 0., 0., 0., 0., 3.69276199e-03, 0., 1.47710484e-03,
          0., 4.43131477e-03, 7.38552422e-04, 1.47710484e-03, 0.,
          5.90841938e-03, 0., 2.21565738e-03, 0., 0., 1.47710484e-03, 0.,
          1.47710484e-03, 7.38552422e-04, 7.38552422e-04, 7.38552422e-04,
          7.38552422e-04, 0., 0., 0., 0., 7.38552422e-04, 7.38552422e-04,
          2.21565738e-03, 0., 2.21565738e-03, 7.38552422e-04,
          1.47710484e-03, 2.21565738e-03, 0., 0., 0., 0., 0., 0.,
          1.47710484e-03, 0., 7.38552422e-04, 0., 0., 0., 5.90841938e-03,
          0., 7.38552422e-04, 0., 7.38552422e-04, 0., 0., 1.47710484e-03,
          7.38552422e-04, 1.47710484e-03, 7.38552422e-04, 0., 0.,
          7.38552422e-04, 7.38552422e-04, 0., 1.47710484e-03,
          2.21565738e-03, 0., 0., 0., 0., 0., 8.12407676e-03, 0.,
          7.38552422e-04, 7.38552422e-04, 0., 2.95420969e-03, 0., 0., 0.,
          9.60118137e-03, 2.21565738e-03, 7.38552422e-04, 0., 0., 0., 0.,
          0., 2.95420969e-03, 0., 1.55096008e-02, 2.21565738e-03, 0., 0.,
          7.38552422e-04, 0., 0., 0., 2.95420969e-03, 0., 0., 0., 0., 0.,
          7.38552422e-04, 0., 0., 7.38552422e-04, 0., 0., 0., 0.,
          7.38552422e-04, 2.95420969e-03, 3.69276199e-03, 7.38552422e-04,
          7.38552422e-04, 2.21565720e-02, 0., 7.38552422e-04,
          7.38552399e-03, 0., 0., 2.95420969e-03, 1.47710484e-03,
          7.38552422e-04, 7.38552422e-04, 5.90841938e-03, 2.95420969e-03,
          0., 0., 0., 0., 0., 0., 7.38552422e-04, 0., 0., 0., 0., 0.,
          7.38552422e-04, 1.47710484e-03, 0., 7.38552422e-04, 0.,
          5.16986707e-03, 0., 7.38552422e-04, 0., 2.21565738e-03,
          1.47710484e-03, 4.43131477e-03, 1.47710484e-03, 0.,
          2.95420969e-03, 1.47710484e-03, 6.64697168e-03, 4.43131477e-03,
          0., 7.38552422e-04, 0., 2.21565738e-03, 7.38552422e-04,
          2.21565738e-03, 0., 0., 7.38552422e-04, 0., 1.47710484e-03, 0.,
          0., 0., 0., 0., 7.38552422e-04, 2.21565738e-03, 0., 0., 0., 0.,
          2.21565738e-03, 7.38552422e-04, 7.38552422e-04, 7.38552422e-04,
          0., 0., 2.95420969e-03, 0., 0., 7.38552422e-04, 0., 0., 0., 0.,
          2.21565738e-03, 7.38552422e-04, 0., 0., 7.38552422e-04,
          1.47710484e-03, 7.38552422e-04, 7.38552422e-04, 0.,
          6.64697168e-03, 2.95420969e-03, 0., 0., 0., 0., 0.,
          7.38552422e-04, 7.38552422e-04, 7.38552422e-04, 0.,
          2.95420969e-03, 0., 0., 7.38552422e-04, 2.21565738e-03, 0.,
          3.69276199e-03, 7.38552422e-04, 1.47710484e-03, 0., 0.,
          3.69276199e-03, 3.69276199e-03, 1.47710484e-03, 0.,
          7.38552422e-04, 0., 0., 0., 7.38552422e-04, 0., 0.,
          7.38552422e-04, 0., 0., 7.38552422e-04, 2.21565738e-03, 0.,
          7.38552422e-04, 2.43722294e-02, 0., 0., 0., 0., 0., 0., 0., 0.,
          0., 2.21565738e-03, 7.38552422e-04, 0., 7.38552422e-04, 0., 0.,
          0., 0., 2.95420969e-03, 7.38552399e-03, 0., 1.47710484e-03,
          1.47710484e-03, 0., 7.38552422e-04, 0., 7.38552422e-04,
          7.38552422e-04, 2.21565738e-03, 0., 7.38552422e-04, 0.,
          1.47710484e-03, 7.38552422e-04, 0., 0., 0., 0., 7.38552399e-03,
          0., 7.38552422e-04, 5.90841938e-03, 0., 0., 1.47710484e-03, 0.,
          0., 0., 0., 0., 0., 7.38552422e-04, 0., 0., 0., 0.,
          1.47710484e-03, 0., 2.21565738e-03, 4.43131477e-03, 0.,
          7.38552422e-04, 7.38552422e-04, 0., 0., 0., 1.47710484e-03,
          2.95420969e-03, 0., 0., 7.38552422e-04, 0., 2.21565738e-03,
          7.38552422e-04, 0., 0., 7.38552422e-04, 0., 0., 7.38552422e-04,
          4.43131477e-03, 0., 0., 1.47710484e-03, 0., 0., 0.,
          2.21565738e-03, 0., 7.38552422e-04, 0., 7.38552422e-04, 0., 0.,
          7.38552422e-04, 0., 0., 0., 0., 0., 1.47710484e-03, 0., 0.,
          3.69276199e-03, 0., 7.38552422e-04, 7.38552422e-04, 0., 0., 0.,
          0., 0., 0., 7.38552422e-04, 0., 1.47710484e-03, 2.21565738e-03,
          0., 0., 0., 0., 0., 0., 7.38552422e-04, 7.38552422e-04, 0., 0.,
          2.95420969e-03, 0., 7.38552422e-04, 7.38552422e-04, 0.,
          2.21565738e-03, 1.47710484e-03, 7.38552422e-04, 1.47710484e-03,
          7.38552422e-04, 0., 0., 0., 0., 0., 3.69276199e-03,
          7.38552422e-04, 6.64697168e-03, 0., 2.21565738e-03, 0., 0.,
          2.95420969e-03, 2.95420969e-03, 0., 2.95420969e-03,
          7.38552422e-04, 7.38552422e-04, 0., 0., 7.38552422e-04, 0., 0.,
          0., 0., 0., 0., 7.38552422e-04, 2.95420969e-03, 0., 0.,
          1.47710484e-03, 7.38552422e-04, 0., 0., 0., 0., 2.95420969e-03,
          0., 0., 7.38552422e-04, 0., 7.38552422e-04, 0., 0., 0., 0.,
          8.12407676e-03, 0., 7.38552422e-04, 0., 0., 7.38552422e-04, 0.,
          0., 0., 0., 0., 7.38552422e-04, 7.38552422e-04, 0.,
          2.21565738e-03, 1.47710484e-03, 0., 7.38552422e-04, 0., 0.,
          1.47710484e-03, 0., 0., 0., 0., 7.38552422e-04, 7.38552422e-04,
          0., 2.21565738e-03, 1.47710484e-03, 0., 0., 0., 7.38552422e-04,
          2.95420969e-03, 0., 7.38552422e-04, 7.38552422e-04, 0., 0.,
          7.38552422e-04, 0., 0., 7.38552422e-04, 0., 3.69276199e-03, 0.,
          7.38552422e-04, 0., 7.38552422e-04, 0., 0., 0., 1.47710484e-03,
          0., 5.16986707e-03, 0., 0., 7.38552422e-04, 0., 0.,
          1.47710484e-03, 0., 0., 7.38552422e-04, 7.38552422e-04,
          7.38552422e-04, 7.38552422e-04, 7.38552422e-04, 0.,
          7.38552422e-04, 4.43131477e-03, 7.38552422e-04, 1.47710484e-03,
          1.32939434e-02, 2.21565738e-03, 1.47710484e-03, 0., 0.,
          2.21565738e-03, 7.38552422e-04, 0., 7.38552422e-04, 0.,
          1.47710484e-03, 0., 7.38552422e-04, 0., 0., 0., 0., 0., 0., 0.,
          0., 2.21565738e-03, 7.38552422e-04, 2.95420969e-03,
          7.38552422e-04, 0., 0., 2.95420969e-03, 7.38552422e-04, 0.,
          2.95420969e-03, 0., 0., 0., 1.47710484e-03, 0., 0., 0.,
          7.38552422e-04, 7.38552422e-04, 7.38552422e-04, 7.38552422e-04,
          5.16986707e-03, 2.95420969e-03, 1.47710484e-03, 5.16986707e-03,
          0., 0., 0., 5.16986707e-03, 4.43131477e-03, 7.38552422e-04,
          7.38552422e-04, 0., 1.47710484e-03, 6.64697168e-03,
          1.47710484e-03, 7.38552422e-04, 0., 7.38552422e-04,
          7.38552422e-04, 7.38552422e-04, 0., 7.38552422e-04,
          7.38552422e-04, 0., 0., 0., 0., 0., 2.21565738e-03,
          1.47710484e-03, 5.90841938e-03, 0., 0., 0., 1.47710484e-03, 0.,
          0., 0., 7.38552422e-04, 0., 0., 0., 0., 3.69276199e-03,
          6.64697168e-03, 0., 7.38552422e-04, 7.38552422e-04, 0., 0.,
          1.47710484e-03, 0., 5.90841938e-03, 0., 0., 1.47710484e-03, 0.,
          0., 0., 0., 3.69276199e-03, 7.38552422e-04, 0., 0., 0.,
          7.38552422e-04, 2.21565738e-03, 0., 0., 0., 0., 7.38552422e-04,
          0., 0., 6.64697168e-03, 5.16986707e-03, 7.38552422e-04, 0., 0.,
          0., 0., 0., 0., 0., 0., 0., 0., 5.16986707e-03, 7.38552422e-04,
          0., 7.38552422e-04, 7.38552422e-04, 7.38552422e-04, 0., 0., 0.,
          7.38552399e-03, 0., 0., 2.21565738e-03, 0., 6.64697168e-03,
          2.21565738e-03, 2.21565738e-03, 0., 0., 1.47710484e-03, 0., 0.,
          0., 1.47710484e-03, 0., 1.47710484e-03, 0., 0., 0.,
          1.47710484e-03, 7.38552422e-04, 0., 0., 2.21565738e-03, 0.,
          3.69276199e-03, 2.95420969e-03, 0., 0., 0., 0., 0.,
          7.38552422e-04, 2.95420969e-03, 4.43131477e-03, 7.38552422e-04,
          1.47710484e-03, 7.38552422e-04, 7.38552422e-04, 0.,
          7.38552422e-04, 7.38552422e-04, 0., 0., 0., 0., 7.38552422e-04,
          0., 1.47710484e-03, 0., 7.38552422e-04, 7.38552422e-04,
          1.47710484e-03, 2.95420969e-03, 1.47710484e-03, 0.,
          7.38552422e-04, 2.21565738e-03, 0., 2.21565738e-03, 0.,
          2.21565738e-03, 2.21565738e-03, 0., 2.95420969e-03, 0.,
          1.47710484e-03, 2.21565738e-03, 0., 7.38552422e-04, 0., 0.,
          6.64697168e-03, 7.38552422e-04, 7.38552422e-04, 0.,
          7.38552422e-04, 0., 1.47710484e-03, 0., 0., 0., 0., 0., 0.,
          7.38552422e-04, 2.95420969e-03, 2.21565738e-03, 0., 0.,
          7.38552422e-04, 0., 9.60118137e-03, 2.21565738e-03,
          7.38552422e-04, 0., 7.38552422e-04, 1.47710484e-03, 0.,
          1.47710484e-03, 7.38552422e-04, 1.47710484e-03, 0.,
          4.43131477e-03, 2.95420969e-03, 0., 7.38552422e-04, 0.,
          7.38552422e-04, 7.38552422e-04, 0., 2.21565738e-03,
          7.38552422e-04, 0., 7.38552422e-04, 1.47710484e-03,
          2.21565738e-03, 0., 1.47710484e-03, 0., 7.38552422e-04,
          7.38552422e-04, 0., 0., 1.47710484e-03, 0., 0., 0.,
          7.38552422e-04, 0., 7.38552422e-04, 3.69276199e-03, 0.,
          1.47710484e-03, 9.60118137e-03, 0., 7.38552422e-04,
          7.38552422e-04, 5.16986707e-03, 0., 0., 0., 0., 0.,
          1.18168388e-02, 1.47710484e-03, 1.47710484e-03, 2.21565738e-03,
          2.21565738e-03, 0., 2.21565738e-03, 1.47710484e-03,
          4.50105756e-04, 7.52239255e-03, 1.08661160e-01, 6.51528081e-03,
          1.68227032e-03, 1.18152762e-04, 2.81316097e-05, 5.62632204e-06,
          0., 1.68789666e-05, 0., 0., 0., 0., 0., 0., 0., 0., 0., 0., 0.,
          0., 0., 0., 0., 0., 0., 5.62632204e-06, 2.25052878e-04,
          3.88216227e-04, 7.37048162e-04, 6.97663927e-04, 7.65179808e-04,
          5.96390164e-04, 5.85137517e-04, 5.62632224e-04, 6.13269105e-04,
          4.78237373e-04, 6.86411280e-04, 6.02016458e-04, 7.08916574e-04,
          7.98937748e-04, 8.83332570e-04, 1.02961692e-03, 1.24341715e-03,
          1.85668631e-03, 2.55997642e-03, 5.75572765e-03, 9.87982191e-03,
          1.95177104e-02, 2.76983827e-02, 3.75275686e-02, 8.59702006e-03,
          0., 0., 3.34033219e-04, 1.32658910e-02, 9.72847864e-02,
          1.12950951e-02, 2.59591523e-03, 1.90876133e-04, 2.86314189e-05,
          0., 4.77190315e-06, 0., 0., 0., 0., 0., 0., 0., 0., 0., 0., 0.,
          0., 0., 0., 0., 0., 0., 9.54380630e-06, 4.29471293e-05,
          4.29471285e-04, 7.49188766e-04, 1.23592291e-03, 1.19774765e-03,
          1.47928996e-03, 1.27887004e-03, 1.19297579e-03, 1.12616911e-03,
          1.36953616e-03, 1.07845012e-03, 1.11662538e-03, 1.04027486e-03,
          1.30750146e-03, 1.18343194e-03, 1.28841389e-03, 2.24279449e-03,
          2.88700149e-03, 5.21091837e-03, 8.64668842e-03, 1.34519953e-02,
          1.50935296e-02, 2.04476044e-02, 2.08675321e-02, 1.83909144e-02,
          6.34663098e-04, 0., 0., 6.00931118e-04, 2.86675766e-02,
          8.84823650e-02, 5.13637951e-03, 1.71423506e-03, 3.16279533e-04,
          2.53023627e-05, 3.16279547e-05, 1.89767725e-05, 6.32559068e-06,
          0., 0., 0., 0., 0., 0., 0., 0., 0., 0., 0., 0., 0., 0., 0., 0.,
          0., 0., 0., 0., 2.53023627e-05, 1.58139766e-04, 4.99721675e-04,
          6.13582321e-04, 7.02140562e-04, 5.94605517e-04, 7.71722058e-04,
          8.16001208e-04, 9.42512997e-04, 9.42512997e-04, 1.15125754e-03,
          1.26511813e-03, 1.13228068e-03, 1.39162992e-03, 1.53079291e-03,
          1.80279335e-03, 2.47330591e-03, 4.80112340e-03, 7.07201054e-03,
          9.58959572e-03, 1.73131414e-02, 6.85504228e-02, 8.60280357e-04,
          0., 0., 2.67721072e-04, 2.91249640e-02, 8.37915465e-02,
          9.81815532e-03, 1.77622633e-03, 1.75048393e-04, 3.08908930e-05,
          1.02969643e-05, 0., 0., 0., 0., 0., 0., 0., 0., 0., 0., 0., 0.,
          0., 0., 0., 0., 5.14848216e-06, 0., 0., 0., 3.08908930e-05,
          1.64751429e-04, 3.60393751e-04, 6.07520924e-04, 8.13460210e-04,
          8.18608678e-04, 1.02454796e-03, 1.13781460e-03, 1.42098102e-03,
          1.40553562e-03, 1.66810816e-03, 1.62177184e-03, 1.98731408e-03,
          1.40553562e-03, 1.65266276e-03, 2.21899571e-03, 2.86255614e-03,
          4.54610959e-03, 6.50768168e-03, 1.14656696e-02, 1.45805012e-02,
          2.23958977e-02, 2.36006416e-02, 2.03828402e-02, 3.19205894e-04,
          0., 0., 2.58580357e-01, 2.15885267e-02, 2.53441697e-03,
          2.92521552e-04, -2.51865771e-07, -4.29503634e-05,
          -1.39968581e-09 ]
      - [ 7.75795197e-04, 0., 0., 0., 0., 1.55159039e-03, 2.32738559e-03,
          0., 7.75795197e-04, 0., 0., 3.87897599e-04, 2.32738559e-03,
          7.75795197e-04, 1.16369280e-03, 7.75795197e-04, 1.55159039e-03,
          4.65477118e-03, 0., 3.87897599e-04, 3.49107850e-03,
          7.75795197e-04, 0., 0., 3.87897599e-04, 1.93948799e-03, 0., 0.,
          0., 3.87897599e-04, 7.75795197e-04, 3.87897599e-03,
          4.26687347e-03, 7.75795197e-04, 3.87897599e-04, 7.75795197e-04,
          3.87897599e-04, 0., 1.55159039e-03, 1.55159039e-03,
          1.16369280e-03, 7.75795197e-04, 0., 1.55159039e-03, 0.,
          7.75795197e-04, 1.93948799e-03, 1.16369280e-03, 1.16369280e-03,
          7.75795197e-04, 3.87897599e-04, 0., 2.71528307e-03,
          7.75795197e-04, 7.75795197e-04, 1.16369280e-03, 3.87897599e-04,
          3.87897599e-03, 7.75795197e-04, 0., 9.69744008e-03,
          3.87897599e-04, 1.93948799e-03, 7.75795197e-04, 0.,
          1.93948799e-03, 3.87897599e-04, 3.87897599e-04, 1.16369280e-03,
          3.10318079e-03, 3.87897599e-04, 0., 1.55159039e-03,
          3.49107850e-03, 7.75795197e-04, 1.55159039e-03, 3.87897599e-04,
          1.16369280e-03, 3.87897599e-03, 1.93948799e-03, 7.75795197e-04,
          3.10318079e-03, 4.65477118e-03, 1.16369280e-03, 1.16369280e-03,
          1.16369280e-03, 3.87897599e-04, 8.14584922e-03, 0.,
          4.26687347e-03, 3.87897599e-04, 0., 0., 0., 0., 7.75795197e-04,
          0., 3.87897599e-04, 7.75795197e-04, 1.16369280e-03, 0., 0.,
          5.43056615e-03, 0., 7.75795197e-04, 1.16369280e-03,
          1.16369280e-03, 3.49107850e-03, 3.87897599e-04, 7.75795197e-04,
          0., 1.16369280e-03, 2.32738559e-03, 0., 3.87897599e-04, 0.,
          3.87897599e-03, 0., 0., 0., 3.87897599e-04, 0., 0.,
          3.87897599e-04, 0., 0., 5.04266890e-03, 3.87897599e-03,
          7.75795197e-04, 1.16369280e-03, 3.87897599e-04, 0.,
          7.75795197e-04, 0., 0., 0., 3.87897599e-04, 7.75795197e-04,
          7.75795197e-04, 2.71528307e-03, 0., 3.87897599e-04,
          1.16369280e-03, 3.87897599e-04, 7.75795197e-04, 0.,
          2.32738559e-03, 0., 1.55159039e-03, 7.75795197e-04,
          1.93948799e-03, 1.16369280e-03, 1.93948799e-03, 5.04266890e-03,
          0., 0., 0., 0., 0., 3.87897599e-04, 0., 1.16369280e-03,
          7.75795197e-04, 1.55159039e-03, 0., 3.10318079e-03,
          1.00853378e-02, 0., 2.32738559e-03, 3.87897599e-03,
          3.87897599e-04, 0., 0., 1.93948799e-03, 0., 3.87897599e-04, 0.,
          0., 3.87897599e-04, 0., 1.16369280e-03, 0., 0., 0., 0.,
          3.87897599e-04, 7.75795197e-04, 3.87897599e-04, 3.87897599e-04,
          6.20636158e-03, 0., 7.75795197e-04, 1.16369280e-03, 0.,
          3.87897599e-04, 7.75795197e-04, 1.16369280e-03, 2.32738559e-03,
          0., 3.87897599e-04, 0., 0., 3.87897599e-04, 0., 3.87897599e-04,
          0., 1.55159039e-03, 7.75795197e-04, 3.87897599e-04, 0., 0.,
          1.16369280e-03, 0., 0., 1.16369280e-03, 1.55159039e-03,
          2.32738559e-03, 7.75795197e-04, 0., 3.49107850e-03, 0., 0.,
          5.43056615e-03, 0., 0., 0., 1.16369280e-03, 1.16369280e-03,
          7.75795197e-04, 0., 0., 0., 0., 1.16369280e-03, 0., 0.,
          3.87897599e-04, 1.55159039e-03, 0., 3.87897599e-04, 0.,
          1.16369280e-03, 7.75795197e-04, 7.75795197e-04, 7.37005426e-03,
          0., 0., 3.87897599e-04, 3.87897599e-04, 0., 1.16369280e-03,
          7.75795197e-04, 0., 3.87897599e-04, 1.55159039e-03,
          1.16369280e-03, 0., 0., 7.75795197e-04, 0., 1.55159039e-03, 0.,
          0., 3.87897599e-04, 1.16369280e-03, 3.87897599e-04, 0.,
          1.93948799e-03, 3.49107850e-03, 0., 0., 0., 7.75795197e-04, 0.,
          0., 1.93948799e-03, 3.87897599e-04, 3.87897599e-04,
          3.10318079e-03, 7.75795197e-04, 0., 0., 0., 0., 1.16369280e-03,
          7.75795197e-04, 0., 0., 7.75795197e-04, 3.87897599e-04,
          1.16369280e-03, 0., 3.87897599e-04, 0., 5.04266890e-03, 0.,
          3.49107850e-03, 0., 3.87897599e-04, 7.75795197e-04,
          1.16369280e-03, 3.87897599e-04, 1.55159039e-03, 0.,
          3.10318079e-03, 0., 0., 0., 1.16369280e-03, 7.75795197e-04,
          8.92164465e-03, 0., 3.87897599e-04, 3.49107850e-03, 0.,
          3.87897599e-04, 3.10318079e-03, 3.87897599e-04, 3.87897599e-04,
          7.75795197e-04, 0., 3.87897599e-04, 0., 7.75795197e-04,
          3.87897599e-04, 3.87897599e-04, 1.93948799e-03, 1.55159039e-03,
          3.87897599e-03, 3.87897599e-04, 3.87897599e-04, 0.,
          3.87897599e-04, 3.87897599e-04, 1.93948799e-03, 0., 0., 0., 0.,
          1.16369280e-03, 3.49107850e-03, 3.87897599e-04, 0.,
          1.16369280e-03, 1.93948799e-03, 0., 0., 3.87897599e-04,
          5.04266890e-03, 7.75795197e-04, 0., 3.87897599e-04, 0.,
          1.16369280e-03, 3.87897599e-04, 3.87897599e-04, 7.75795197e-04,
          0., 3.87897599e-04, 0., 3.87897599e-04, 1.16369280e-03,
          7.75795197e-04, 1.55159039e-03, 1.16369280e-03, 1.55159039e-03,
          0., 0., 7.37005426e-03, 0., 1.16369280e-03, 0., 0., 0.,
          3.87897599e-04, 1.93948799e-03, 1.55159039e-03, 0.,
          7.75795197e-04, 0., 7.75795197e-04, 0., 0., 3.87897599e-04,
          7.75795197e-04, 3.87897599e-04, 3.87897599e-03, 0.,
          1.55159039e-03, 0., 3.87897599e-04, 2.71528307e-03, 0., 0.,
          3.87897599e-04, 0., 3.87897599e-04, 3.49107850e-03,
          3.87897599e-04, 3.10318079e-03, 7.75795197e-04, 2.32738559e-03,
          0., 4.26687347e-03, 0., 1.55159039e-03, 3.87897599e-04,
          1.16369280e-03, 7.75795197e-04, 0., 0., 0., 0., 3.87897599e-03,
          7.75795197e-04, 0., 0., 7.75795197e-04, 7.75795197e-04,
          3.87897599e-04, 3.87897599e-04, 3.87897599e-03, 7.75795197e-04,
          0., 8.92164465e-03, 7.75795197e-04, 2.32738559e-03,
          1.93948799e-03, 0., 2.32738559e-03, 7.75795197e-04,
          7.75795197e-04, 2.32738559e-03, 3.49107850e-03, 1.16369280e-03,
          1.55159039e-03, 7.75795197e-04, 0., 0., 3.87897599e-04, 0., 0.,
          0., 0., 0., 2.32738559e-03, 3.49107850e-03, 0., 1.55159039e-03,
          2.32738559e-03, 3.87897599e-04, 3.87897599e-03, 3.87897599e-04,
          1.55159039e-03, 3.49107850e-03, 0., 3.49107850e-03,
          7.75795197e-04, 0., 3.87897599e-04, 0., 7.75795197e-04,
          1.16369280e-03, 0., 7.75795197e-04, 2.32738559e-03, 0.,
          3.87897599e-04, 0., 0., 3.49107850e-03, 3.87897599e-04,
          7.75795197e-04, 0., 0., 0., 2.71528307e-03, 1.16369280e-03,
          1.55159039e-03, 7.75795197e-04, 7.75795197e-04, 3.87897599e-04,
          3.87897599e-04, 1.55159039e-03, 3.87897599e-04, 0.,
          2.32738559e-03, 3.10318079e-03, 1.93948799e-03, 0.,
          7.75795197e-04, 3.87897599e-04, 0., 1.55159039e-03,
          1.93948799e-03, 1.16369280e-03, 1.55159039e-03, 2.71528307e-03,
          1.55159039e-03, 0., 7.75795197e-03, 0., 0., 1.16369280e-03,
          1.93948799e-03, 7.75795197e-04, 3.87897599e-04, 0.,
          3.87897599e-04, 1.16369280e-03, 1.93948799e-03, 0., 0., 0.,
          7.75795197e-04, 1.55159039e-03, 7.75795197e-04, 0., 0.,
          3.87897599e-04, 7.75795197e-04, 0., 0., 3.87897599e-04, 0.,
          3.87897599e-04, 7.75795197e-04, 0., 3.87897599e-04,
          3.87897599e-04, 3.87897599e-04, 3.10318079e-03, 0.,
          1.55159039e-03, 0., 1.16369280e-03, 0., 4.26687347e-03,
          1.93948799e-03, 0., 2.71528307e-03, 0., 3.87897599e-04,
          7.75795197e-04, 3.87897599e-04, 1.55159039e-03, 3.87897599e-03,
          7.75795197e-04, 1.16369280e-03, 0., 3.49107850e-03,
          2.32738559e-03, 0., 0., 3.87897599e-04, 0., 3.10318079e-03, 0.,
          1.16369280e-03, 0., 3.87897599e-04, 0., 3.87897599e-04,
          3.87897599e-04, 3.87897599e-04, 3.87897599e-04, 2.71528307e-03,
          3.87897599e-04, 3.87897599e-03, 3.87897599e-04, 0.,
          7.75795197e-04, 3.87897599e-04, 6.20636158e-03, 0.,
          1.93948799e-03, 7.75795197e-04, 7.75795197e-04, 1.55159039e-03,
          0., 0., 3.87897599e-04, 7.75795197e-04, 0., 7.75795197e-04,
